2564 128
57154 0.11683565 -0.11958032 0.040653124 -0.016603643 0.18599358 -0.18467279 0.0534255 0.18146399 0.02196691 0.20479046 0.09528735 -0.09315531 -0.08963657 0.2014115 -0.00014986467 0.26604497 -0.2542096 -0.036573023 -0.15940168 -0.24525173 0.12172806 -0.0011521652 -0.29147735 0.07480941 -0.042281006 0.01695464 0.15943412 -0.07431691 0.11968728 0.00056696095 0.022224179 -0.07974281 0.03760823 -0.051109187 0.05403332 0.22262739 -0.041747797 0.012702946 -0.15409856 0.026558012 -0.16164929 -0.03240587 -0.13563247 -0.06674904 0.1822704 0.2422524 -0.18019077 -0.09118661 -0.0952598 0.12620027 -0.09494361 -0.013809737 -0.04278868 -0.18058228 -0.110768564 -0.11131705 0.031469353 -0.124054015 -0.100126386 0.07913684 -0.003811556 -0.28304425 -0.10693432 0.25776258 -0.1235189 0.18983127 -0.25989038 0.060562417 -0.26139987 0.16391768 -0.014811069 -0.13991673 0.09535467 -0.18953234 -0.13997415 0.101531655 -0.057722814 -0.21991582 0.2504201 0.11512197 0.15160012 -0.15284471 -0.26530054 0.20543163 0.18083225 -0.3128744 0.24238767 -0.18309483 0.24359553 -0.19497883 -0.075381696 -0.1842146 0.20905524 0.14808647 -0.045251913 -0.3488734 0.13163102 0.16240127 -0.10404354 -0.22505184 0.2707322 0.22380628 -0.041574184 -0.099610135 -0.30649817 0.21621494 0.0077697695 -0.22210169 -0.24081954 -0.18352225 -0.101059 0.06928522 -0.15607837 0.21310349 -0.012290746 0.20972793 -0.19760242 0.34182027 -0.23269069 -0.18860646 0.08386352 0.17656465 0.13893764 0.0699913 0.1166637 -0.14384867 0.14071056 -0.10159408
3309 0.29910362 -0.14998546 0.2873112 -0.25090533 -0.19966951 -0.09547299 -0.026118621 0.030890735 0.3359241 -0.047893688 0.07161511 -0.25764233 -0.11780085 0.19161415 -0.091292545 0.2786748 -0.03859493 -0.2082817 0.21766439 0.0008241094 -0.034161005 -0.17363057 0.055671595 0.122788146 0.122958116 -0.018649016 0.16398343 0.09353556 -0.10279661 0.08634412 0.1203877 -0.010169718 0.13761245 0.33681604 0.111042514 0.060867954 -0.041201204 0.036295585 -0.18446338 -0.121448725 -0.016754754 0.017941855 0.12932537 0.20518963 -0.01362764 0.10464242 -0.21714413 0.23706919 -0.10413118 -0.077258445 0.09814523 -0.21311261 -0.06818637 -0.06783209 0.06026146 0.010775922 0.14693904 -0.20600732 -0.124361545 -0.110824585 0.24412225 -0.08125112 0.0606487 -0.089649804 -0.21788508 0.19735879 -0.21914399 0.12607557 -0.069791555 0.0131553495 0.013542344 -0.20023675 0.090429716 -0.19515303 -0.24886829 0.05871223 0.15270387 -0.23689589 0.19842824 0.14394195 0.15072648 -0.27926058 -0.24464096 0.17179829 0.20526238 -0.2948762 0.22843996 -0.20890184 0.11988867 -0.18640846 -0.056461018 -0.091672786 0.2956162 0.086797774 -0.01818632 -0.21398255 0.12893644 0.1357994 -0.15309465 -0.2813058 0.25201765 0.235414 0.22450061 -0.1614232 -0.18293823 0.12374005 0.119592786 -0.23029485 -0.31856507 -0.08935794 -0.082811795 0.152947 -0.4308763 0.18151937 -0.12401505 0.25350204 -0.26259276 0.17607869 -0.23400415 -0.25435182 0.03626916 0.16544046 0.14709057 0.009622201 0.13078685 0.06445817 -0.11079344 0.10470094
5879 -0.12610093 0.1315772 -0.27171206 -0.19740422 -0.20831348 0.04431647 0.048564285 -0.118294284 -0.031148449 0.16250204 0.006122312 0.15685952 -0.3629958 0.05590068 -0.06389948 0.08681759 0.022564327 -0.09887675 0.14399518 0.14856322 -0.05541024 0.043444216 -0.12779802 0.021070303 -0.11234665 -0.054418333 0.029467687 0.024317881 -0.041346673 -0.20073158 -0.02170233 0.066502504 0.061191447 -0.2930658 0.042838607 0.023410808 0.14317907 -0.01195793 -0.035186153 -0.08350743 0.35382548 -0.029955333 -0.009904806 -0.16087864 -0.09856152 -0.0050247037 0.21694024 -0.10688223 0.041778225 -0.02417591 0.15781112 0.03168116 -0.06619816 -0.012795977 0.04850351 0.0015663195 0.1399986 -0.20814912 -0.09429732 -0.0695599 -0.04932533 -0.078354046 0.022238575 0.19370377 -0.13524775 0.23726544 -0.1009189 -0.25950393 -0.03547945 -0.10467743 0.026059395 -0.11596039 -0.052740324 -0.10948436 -0.15858173 0.09603045 0.035197563 -0.34712034 0.09426055 0.042508844 0.1887913 -0.17748903 -0.15974112 0.109915614 0.19939707 -0.28362694 0.25019142 -0.2909498 0.114489 -0.04721518 -0.19608837 -0.20705627 0.17286307 0.31350672 -0.109608084 -0.107527204 0.24755064 0.28185254 -0.18262523 -0.14544448 0.2547753 0.30614758 -0.029112345 -0.13002574 -0.23373632 0.27333283 0.20382139 -0.18134767 -0.24872567 0.054118104 -0.11320946 0.14558776 0.028553553 0.22584394 -0.2300083 0.24137668 -0.20141307 0.18673566 -0.153634 -0.07785291 0.13549338 0.093772635 0.08881039 0.064854726 0.19122235 -0.040442206 0.21519732 0.043639567
23568 0.082380384 0.063541636 0.016108481 0.04669113 0.07433572 -0.1135237 0.0014196036 -0.09881876 -0.041929785 0.10981019 -0.10328963 -0.04636467 -0.07158048 -0.0030309707 -0.13261761 0.0666416 0.04752582 -0.06537146 0.16065897 0.03654055 -0.007642249 -0.103528306 -0.048515826 -0.11664328 -0.13609853 -0.0146616995 -0.045955237 0.035780042 -0.100554116 -0.04527343 0.042208858 0.08924238 -0.014628362 -0.08031081 -0.050043344 0.12968978 0.055782866 0.016041366 -0.0066865776 -0.06454143 0.10356945 -0.023646073 -0.048361614 -0.037694637 -0.0012191654 0.10747487 0.05996564 0.009609405 -0.10947651 0.024124786 0.12784533 0.14571647 -0.07212781 -0.09921475 -0.13578215 -0.06259861 -0.033665642 -0.14973108 -0.13546032 -0.09514511 -0.16611889 0.037575863 -0.09366903 -0.12064661 -0.13135855 0.1911831 -0.08716905 -0.11586627 -0.10598248 -0.13020715 0.026308253 -0.205347 0.10525003 -0.12466704 -0.13364804 0.15979213 0.17126735 -0.18281771 0.1645562 0.18447468 0.18852077 -0.17695934 -0.109928116 0.085897416 0.17235923 -0.13642986 0.16680877 -0.19476141 0.13054404 -0.14071451 -0.16803841 -0.23666106 0.17300002 0.14939904 -0.07108014 -0.06967098 0.15004948 0.12670659 -0.10802639 -0.14330876 0.14798723 0.07498552 0.10587784 -0.12074043 -0.13459148 0.20318344 0.1865036 -0.13478607 -0.17708088 -0.12766741 -0.13775681 0.042864032 -0.02283731 0.1417931 -0.19024082 0.19648741 -0.17508967 0.10303407 -0.17655635 -0.05176752 0.1893891 0.15551533 0.2072406 0.24540421 0.19057038 -0.088684686 0.19487625 0.110334136
1432 0.0030354715 0.11987352 -0.14417757 -0.07379193 -0.061076134 -0.09163926 0.022925034 -0.08515933 0.055073824 -0.0089294845 -0.007048422 0.0429694 -0.062431253 -0.30172652 0.24732338 0.10675925 0.03316391 0.09951459 -0.16267665 0.12444544 -0.3471375 0.2484462 0.0365465 0.01576934 -0.0063989544 0.097265765 0.0357732 -0.08653098 -0.13558088 -0.12197614 -0.17006652 -0.1427683 -0.06134654 -0.048814256 0.027140716 -0.04286705 -0.055204365 -0.0047300407 0.17993405 0.056065544 -0.20397435 -0.17718288 -0.15234998 -0.06563006 -0.24852677 -0.11380318 0.042364806 -0.11524639 0.14535443 0.064566515 0.12044176 -0.25083756 0.26999268 0.36776644 -0.008622269 -0.0935381 0.26031023 0.17616977 -0.011294316 -0.07934595 0.11153076 0.06908292 0.27356988 -0.03259065 -0.07357521 0.09446354 -0.19772859 0.0057903873 -0.2765998 -0.011685846 -0.28664824 -0.1577714 0.07720967 0.010483475 -0.09339546 0.05553664 0.10521548 -0.25557828 0.22286744 0.115968764 0.2045077 -0.23811415 -0.1854851 0.13192731 0.18513094 -0.25185856 0.22340283 -0.2416631 0.18221398 -0.2508139 -0.31930387 -0.11317202 0.16306128 0.23675305 -0.15325774 -0.21793534 0.16437714 0.13424993 -0.15183882 -0.17296582 0.17090577 0.27992854 0.03198903 -0.06351317 -0.2968752 0.19280821 0.12122297 -0.17084126 -0.1816579 -0.019068785 -0.1959882 0.24952176 0.3816037 0.2332253 -0.21296579 0.16828421 -0.16088358 0.2872592 -0.21885063 -0.14785954 0.17302454 0.14296047 0.19044222 0.30819157 0.086823076 0.050222006 0.18323205 0.028756846
2004 -0.100555696 -0.0007015444 -0.19289887 0.033384874 -0.1202337 0.05787275 -0.09188933 -0.09290349 0.10161974 -0.17327738 -0.030065723 -0.031280857 -0.126826 -0.030236064 0.232148 -0.026401741 0.06483612 0.16544114 -0.04671381 0.17203817 -0.046197556 0.26463518 0.07859705 -0.051775537 0.12146861 0.014702462 -0.030644193 0.13340202 -0.053078637 -0.10658783 -0.047730956 -0.15038896 -0.12428397 0.042364083 -0.1253274 0.033391982 -0.068573415 -0.025959907 0.18257372 0.014050293 0.029585319 -0.13486683 0.050507925 -0.009270864 -0.18419434 0.13035284 0.024472302 -0.036293853 0.01885031 0.08814075 0.1204558 0.018430332 0.03289578 0.15607513 0.1279839 -0.06362796 0.23121704 0.20370029 0.0015802718 -0.077317 -0.093846254 0.10011217 -0.06633062 0.09305864 -0.12572436 0.15120146 -0.2321414 0.08578683 -0.21598032 0.007399305 -0.07587354 -0.1459863 0.093967155 -0.1140737 -0.15176535 0.17805277 0.28392968 -0.21977325 0.19910766 0.28711087 0.25662878 -0.23144394 -0.10990116 0.19377512 0.23834534 -0.20015416 0.19789587 -0.18877962 0.16886362 -0.21625099 -0.30748218 -0.092975974 0.1336885 0.26763967 -0.20016953 -0.17339432 0.16536973 0.14503723 -0.20268899 -0.15501295 0.082561105 0.15790448 0.15567105 -0.14680679 -0.20731257 0.18313588 0.19383973 -0.22675322 -0.1299024 -0.23555712 -0.11433512 0.2264195 0.29212776 0.2166632 -0.25997865 0.1733509 -0.14278114 0.2098411 -0.19876325 -0.20896795 0.21979089 0.2778561 0.1379177 0.30272308 0.13796604 -0.17075457 0.18170734 0.14382765
8945 0.010891347 -0.18563035 -0.05756146 0.09738625 0.15586649 0.017295104 -0.15067634 0.16381238 0.10346533 0.23590714 -0.33901688 0.0044821156 0.08540519 0.16703427 0.16769199 -0.14687116 -0.049988817 -0.056356657 -0.049170997 -0.021205526 -0.19429752 0.12993391 -0.09878897 0.21103655 0.05903834 0.12811492 0.17307349 -0.15683556 -0.0014240079 -0.10113612 0.09303144 -0.05584447 0.122867726 -0.012425679 -0.16177589 0.071924835 -0.08636068 0.07080796 0.044876877 -0.0010417238 -0.1682893 0.116098106 -0.042547304 0.05032343 0.10218069 0.27289447 0.07369954 -0.32140568 0.20774871 0.21882232 -0.05309274 -0.06212475 -0.093986556 -0.101230994 -0.16286588 0.072328106 -0.129143 -0.028355163 0.10375065 0.29227456 0.09523405 0.008307276 0.04546879 0.1872625 -0.26255384 0.16773918 -0.21304296 0.07339016 -0.23606625 0.066415355 0.6067087 -0.25345528 0.043630324 -0.17152314 -0.11210573 0.12185438 0.0831229 -0.25982687 0.17294905 0.01905158 0.29703277 -0.08520579 -0.19365378 0.21821928 0.18121882 -0.23698862 0.269141 -0.26427537 0.1963923 -0.1804785 -0.06043691 -0.14586242 0.27097693 0.13498354 -0.15088564 -0.08864284 0.12578218 0.244156 -0.1289622 -0.16431747 0.18176866 0.10096192 0.051177733 -0.1031924 -0.26706928 0.1357556 0.002307189 -0.28455162 -0.2286504 -0.10301634 -0.2568483 0.17597187 -0.116932735 0.19483277 -0.2953263 0.12388293 -0.26775467 0.21595968 -0.18609746 -0.19021738 0.102674976 0.12755856 0.15963669 0.08414809 0.16264209 0.020031242 0.08709318 0.13644226
5469 0.06214106 0.0050332192 -0.1392625 0.085714735 0.11778053 0.040786233 -0.001459286 0.15624216 -0.005771507 -0.072020456 -0.058140848 0.1468638 0.08814535 -0.23752736 -0.0024635408 -0.12655593 0.06490991 0.19944704 -0.17820899 0.062475532 0.10422322 -0.21501945 0.2581558 -0.14768331 0.08140718 -0.0037451482 -0.17114371 0.16537169 0.09798474 0.1586772 -0.27854452 -0.2723843 -0.16832444 0.2811811 0.06900597 0.11263876 -0.009578092 0.018454205 0.3085087 -0.097625285 0.031817988 0.18145782 -0.17359525 -0.14838096 0.11567355 -0.06294865 -0.090216115 0.3624117 -0.09762179 0.10898468 -0.11421338 -0.063021116 0.10037962 0.25205636 -0.029454071 0.031461928 0.07326847 0.29122293 0.26579776 -0.124071866 0.15247826 0.21354336 0.08395582 -0.18058775 -0.2196116 0.12133636 -0.13020776 0.47408488 -0.117696695 -0.2348346 -0.17206644 -0.12915792 0.35024032 -0.05289355 -0.07745148 0.19925122 0.44300058 -0.1320311 0.20957986 0.3601406 0.16428304 -0.16680643 -0.080151975 0.14819025 0.1178989 -0.13923715 0.17430046 -0.20932552 0.14409816 -0.26673034 -0.33801228 -0.23040862 0.18458223 0.21227573 -0.3401379 -0.16151811 0.20178404 0.21472014 -0.20473322 -0.18090995 0.20060761 0.2656644 0.13444868 -0.0026907898 -0.091765575 0.24589595 0.08825032 -0.093177825 -0.17952211 -0.18777062 0.024175962 0.26392668 0.0765166 0.22454101 -0.19204654 0.102220245 -0.291273 0.23765972 -0.12714675 -0.10813062 0.12011352 0.32944912 0.13268462 0.30652446 0.17460321 -0.0001309669 0.067065895 0.17380375
10014 0.2634232 -0.19380647 0.19914961 0.08231027 0.00025411067 -0.28806946 0.08240758 -0.041470762 -0.16131546 -0.20010142 0.12481891 -0.07521558 0.04050202 -0.040209956 -0.16569808 -0.022217669 -0.0014051844 -0.066452436 0.21095426 -0.24695154 0.12930433 -0.07999725 0.11933328 0.0039121257 0.08227058 0.027622228 -0.019590644 0.0076673008 -0.069531046 0.026284011 -0.20281623 0.14120087 -0.07888275 0.20987637 -0.02217466 0.09042796 0.1585847 0.29755777 -0.14949533 -0.042736083 0.036152977 0.114463784 -0.12477294 0.355611 0.14964627 -0.13198468 -0.10588246 0.050018005 -0.34337223 0.038666304 0.12907375 0.029944282 0.11116405 0.053946514 -0.11192867 -0.03170928 0.08622572 0.10672598 0.00631571 0.025040135 0.30231464 -0.11971271 -0.069333665 0.04386905 -0.26460546 0.14651117 -0.20777513 0.1715703 0.029007824 -0.111474484 0.53084266 -0.24328506 0.12284258 -0.2374477 -0.3042669 0.10986273 0.178397 -0.20752016 0.24388292 0.15027219 0.1694317 -0.13245538 -0.107021056 0.24295953 0.17279923 -0.23912106 0.14456159 -0.19302855 0.1648217 -0.2923776 -0.024865119 -0.24297547 0.2885608 0.1248143 -0.016666077 -0.2364489 0.15406539 0.14633931 -0.1015453 -0.18415979 0.25247934 0.30006635 0.081284285 -0.14112021 -0.22624199 0.06590516 0.02200422 -0.21477509 -0.28525448 -0.034791432 -0.14854644 0.17871103 -0.26003557 0.12753221 0.01753658 0.19077913 -0.24779452 0.27903482 -0.3692761 -0.21208268 0.11510584 0.1929299 0.23707694 0.025679246 0.11316398 0.17425634 -0.026715828 0.033300128
7037 -0.11696759 0.011076857 -0.016672755 -0.03316865 0.07549158 0.1428393 0.08921885 0.03141857 -0.02603737 0.07211377 0.20341705 0.0017906111 -0.16713955 -0.08092691 0.15555917 -0.06758534 -0.18163347 -0.12732193 -0.00094887 -0.17229491 -0.018823385 0.059968837 0.0334202 0.03701723 0.11809896 -0.091845386 -0.12892622 -0.11478362 0.11038202 -0.0049460214 -0.06650305 0.30802047 -0.06266041 -0.082683384 -0.017463464 0.0335657 0.14591795 0.1420946 -0.14403819 0.08180076 0.10051525 0.0056401673 -0.08336995 0.13046797 -0.13815449 -0.073657386 0.3356065 -0.21257068 0.065905675 -0.115095325 -0.05032958 0.09184544 -0.04929742 -0.074959554 -0.0072876895 0.17150286 -0.06465055 0.01186024 -0.11455719 0.010816119 -0.0014392972 -0.14248765 -0.1576371 0.04367938 -0.19637378 0.16219625 -0.14958596 0.03384064 -0.001718039 -0.34122083 -0.04112162 -0.16678455 0.03941365 -0.149323 -0.27377528 -0.004593603 0.063007884 -0.16592912 0.1714565 0.07673156 0.19696745 -0.17395793 -0.057069164 0.16248165 0.22281164 -0.19388464 0.26038775 -0.21948875 0.10121079 -0.18800218 -0.1579948 -0.3342771 0.14470062 0.28352213 0.056931786 -0.15389596 0.30815235 0.1820263 -0.070484854 -0.18222871 0.2018359 0.20410869 0.1308321 -0.12343109 -0.16792388 0.17140211 0.25460756 -0.2640026 -0.29658377 -0.032882474 -0.13511531 0.18850641 0.2880464 0.2713597 -0.16006733 0.19038299 -0.22109748 0.28119045 -0.1674555 -0.07721823 0.19375902 0.12480685 0.22679624 0.05899373 0.1273295 -0.21224757 0.114061445 0.27000126
10672 -0.10670105 0.21522501 0.043789353 0.11224689 -0.11191308 -0.05746015 -0.07626607 -0.061266463 0.1190534 0.15408313 0.136748 0.14642261 -0.05991422 -0.01165009 0.21321501 -0.021140292 -0.14647983 -0.02117326 0.0009991054 -0.078498386 -0.062201627 0.10384529 0.14430875 0.12306389 -0.050765567 0.09002845 0.0020599414 -0.17991434 0.066981204 -0.10101972 0.095140435 0.20094872 0.008444926 0.086692944 -0.19206704 -0.22666782 0.15940294 -0.03682679 -0.13533852 0.33579695 -0.13591322 0.075703174 -0.16891065 0.063137196 -0.02813509 -0.2372556 0.08571047 -0.014415806 -0.0033727358 0.031694166 -0.08507867 0.017423196 -0.16125874 0.18561058 0.06577295 -0.09232654 0.19418882 0.015377792 0.03302846 0.08783817 -0.04997113 -0.017622473 0.1418382 0.01162283 -0.1691402 0.26920515 -0.07163248 -0.14746718 -0.18689416 -0.29126593 -0.19132006 -0.12712088 0.040702198 -0.15649967 -0.035848565 0.15621693 0.13297841 -0.17351379 0.2409376 0.088842675 0.05370526 -0.18237571 -0.20005386 0.20548259 0.23230565 -0.19026537 0.15753302 -0.19045308 0.2395493 -0.22871271 -0.10348419 -0.2604631 0.15907119 0.11516223 -0.102508575 -0.13552022 0.17860408 0.13869122 -0.12515281 -0.2730669 0.19199902 0.15764388 0.07382644 -0.19157897 -0.18633863 0.20135434 0.32438907 -0.15848455 -0.18096355 -0.077179365 -0.09577238 0.1835163 0.33042902 0.24459326 -0.15293102 0.18554778 -0.2045922 0.18060578 -0.22987714 -0.1854392 0.1344815 0.13834587 0.12282449 0.34900975 0.16606452 -0.083422184 0.13920167 0.08555349
7046 -0.16502224 0.22717816 0.004414392 0.1531975 -0.059622977 -0.17339158 0.1325384 0.009783827 0.047026496 0.25478366 0.1459247 0.027117353 -0.025369978 -0.04826275 0.26808974 0.25920072 -0.20306641 0.16547231 -0.29091707 0.06935247 0.12815505 -0.013910852 -0.0810177 -0.16638725 -0.20365638 -0.1419024 0.05457733 -0.31495517 0.096339315 -0.19443583 -0.12620497 -0.042988587 -0.04696662 -0.09761085 -0.19487534 0.02747632 -0.11855454 -0.18455234 -0.022925537 0.1406356 -0.09775289 0.25753298 0.052514184 -0.051577438 0.045015812 0.08980865 -0.14154252 0.089276634 0.11457081 0.11216106 -0.0058790483 -0.031808235 -0.10931294 -0.09946238 -0.14570262 -0.22708893 0.108265504 -0.12866129 -0.056399334 0.14145653 -0.26316243 -0.055985365 -0.006032004 0.16964348 -0.034961466 0.30498046 -0.25411743 -0.043620396 -0.16435017 0.100728 -0.307442 -0.12623313 0.14805795 -0.10715887 -0.038866658 0.07028773 -0.048740223 -0.17744727 0.27394354 0.13286707 0.15416865 -0.10642712 -0.20600061 0.18596779 0.16783634 -0.2716019 0.24537297 -0.30068558 0.10694891 -0.27274004 -0.005012255 -0.1139345 0.17688689 0.13048236 -0.08644592 -0.24856162 0.19696817 0.089705184 -0.0995153 -0.16901968 0.25469968 0.27525428 0.0959833 -0.12369433 -0.22787873 0.3222163 0.19283311 -0.16071942 -0.22055785 -0.1163503 -0.13469969 0.19103001 0.10265738 0.22427173 -0.14604084 0.22441424 -0.22989123 0.24370492 -0.2797412 -0.2042824 -0.0054838276 0.17104563 0.123176016 0.3733496 0.07076699 -0.1053858 0.17642906 -0.025101881
4627 0.1399896 0.1720554 0.35759526 -0.24744837 -0.26471207 -0.24280386 0.044215225 0.06046721 0.16936825 -0.13540201 -0.11375252 -0.18839552 -0.084842645 -0.044754874 -0.0055974 -0.064262144 -0.0032131055 -0.23322052 0.16206405 -0.1492725 -0.053790588 -0.16125225 0.14201693 -0.051778175 -0.05902515 -0.24701408 0.16566771 -0.08832191 -0.15400003 -0.037634403 -0.19675678 0.23937981 -0.040510323 -0.07058931 0.13869897 -0.18820587 0.121368825 -0.21601357 -0.19308215 -0.09792164 0.12788244 -0.11453098 0.05047229 -0.02349603 -0.29628626 -0.16085286 -0.008393963 0.021738315 -0.07203348 0.10402943 0.049508117 -0.15098654 0.090435535 0.12564345 0.2585929 0.08655694 0.17144519 -0.20150302 -0.016294459 0.20647117 0.13490023 -0.06402069 0.13731852 0.025959061 -0.21026732 0.23766747 -0.1358871 -0.18397488 -0.11346227 -0.0015618812 0.10906288 -0.14142807 0.03304634 -0.18967088 -0.22332212 0.08002161 0.05480701 -0.28361493 0.27998123 0.15935612 0.15468425 -0.109144524 -0.20140424 0.28627145 0.28464976 -0.30791116 0.28140876 -0.22192988 0.247169 -0.22060129 -0.039590128 -0.23981127 0.15878832 0.22515085 -0.17409743 -0.14746225 0.10011791 0.025034815 -0.11624107 -0.1806816 0.2829359 0.13662668 0.22997965 -0.15731512 -0.19279015 0.13081367 0.23329696 -0.17558432 -0.21275951 0.03511346 -0.08985535 0.17776358 0.23694065 0.26817018 -0.006176926 0.20842025 -0.2863457 0.13712291 -0.10738309 -0.19498236 -0.01820476 0.122060895 0.15131213 0.17826341 0.19273733 0.096208185 0.10804572 0.08546036
23405 0.17352732 -0.1655205 0.071536444 -0.32939377 0.3740261 -0.27347043 0.31276703 -0.10256044 -0.019409582 -0.21553208 0.041802555 0.0071144355 0.10814987 0.1172491 -0.23464917 -0.009207944 0.09856667 -0.088612296 0.2274081 0.10444045 -0.13828413 -0.025805566 -0.11981498 0.061911773 -0.1538417 0.04015695 0.20916185 -0.08679601 0.057802718 0.082964145 -0.039763372 0.19392027 0.0769613 0.17077798 0.18288593 0.14155728 0.05335661 -0.059585784 0.016063347 0.3750911 0.22036733 -0.010174368 0.22916587 0.31188536 0.017634975 -0.16764174 -0.10914028 -0.25020653 -0.3596234 -0.089634664 0.07078066 0.11215232 -0.3496883 -0.21447614 -0.3564415 0.16770534 -0.1090648 0.12899311 -0.14017954 -0.048593283 0.37305617 0.017884854 0.22222362 0.08216744 -0.12131283 0.15338506 -0.1091558 0.5926247 0.05558815 -0.41790402 0.67648184 -0.18833163 0.16367006 -0.096986234 -0.30393046 0.2303923 0.046380047 -0.22590423 0.17682466 0.069427416 0.071497425 -0.21137942 -0.21570194 0.21050926 0.21024433 -0.22131689 0.079037406 -0.23109843 0.09139654 -0.070904575 0.03609235 -0.17718169 0.20340306 0.22848357 0.14427476 -0.33118647 0.17914431 0.1949445 -0.04618416 -0.28203797 0.15307398 0.24321464 0.11413722 0.1856534 -0.27336758 0.17948735 0.14453305 -0.17048474 -0.32524765 -0.16003977 -0.11843221 0.12980452 -0.15865643 0.1456398 -0.12035906 0.25162414 -0.32426286 0.33910012 -0.31675735 -0.24932647 0.14062117 0.15038261 0.46295935 -0.18112102 0.32554471 -0.14015931 -0.017094508 0.13889153
3329 0.191677 0.07665758 0.20930699 -0.060453627 0.1685418 -0.10692658 0.24348125 -0.024718931 0.10828761 -0.11803949 0.011106206 -0.033821773 0.04605228 0.018360423 -0.0117878355 0.07017775 0.14626919 -0.19352555 0.11486593 0.0067075957 0.052774567 -0.038137794 -0.05698275 0.038595546 0.12914547 0.0016622803 0.047303233 -0.05987477 0.10037085 -0.0897889 -0.13213584 0.1922239 -0.0960293 0.05299479 -0.057343528 -0.013106097 0.21151942 0.093444705 -0.121882305 0.31761935 0.065349735 -0.01850473 0.054965567 0.28326732 0.027451389 -0.15445474 -0.17210643 -0.044835877 -0.21612951 -0.21916847 0.04637368 0.1257695 -0.10957777 -0.22622095 -0.09309971 0.14285615 0.03967246 0.07049079 -0.19880593 0.050550587 0.13608769 -0.11294176 0.14281379 0.12529813 -0.118229836 0.13746391 -0.13061145 0.22516726 -0.09534989 -0.2656714 0.5626013 -0.11330294 0.028501911 -0.18314748 -0.21699342 0.14308737 0.16867657 -0.303782 0.17407021 0.09622781 0.061572783 -0.18480235 -0.22950916 0.23188217 0.2987853 -0.25078064 0.10752407 -0.21750343 0.18341456 -0.118706405 -0.0769118 -0.18803425 0.20156133 0.28208265 0.07932008 -0.17408197 0.09725715 0.26945254 -0.03448955 -0.2550366 0.101931386 0.2522913 0.17818113 0.031222304 -0.23375568 0.13581812 0.13616523 -0.20960127 -0.3200223 -0.13573433 -0.06478737 0.13997047 -0.075117335 0.185121 -0.12722147 0.25911945 -0.28701207 0.3353969 -0.31909806 -0.21038398 0.19573274 0.1569927 0.41556168 -0.09820971 0.1884933 -0.3343467 0.019773416 -0.023298888
2885 0.05147222 -0.043508377 -0.110969655 -0.1278901 -0.21016514 0.13182653 0.14480813 -0.16444677 0.34058464 -0.22440077 0.18724406 -0.011214778 0.1397006 0.0026404986 0.125561 -0.11402174 0.280248 0.054742776 -0.076490596 0.0715882 0.20793472 0.23829359 0.31154838 -0.072413154 -0.0023808682 0.13777025 -0.070285104 0.2307837 -0.25809857 -0.042634442 0.23501383 0.050157454 0.044887677 -0.2904471 -0.013334881 -0.35712248 0.2908828 -0.005466358 -0.11433695 -0.20341802 0.1263432 0.048114598 0.29900444 0.05987823 -0.15785429 -0.026590465 0.1601319 -0.15420106 -0.086842164 -0.0003168316 0.059220333 0.035966963 -0.15599112 0.3157862 0.12616888 0.20966497 0.032959174 0.15394634 0.08258928 0.124268234 -0.07301033 -0.008835991 0.13830392 0.013664054 -0.04808922 0.16778325 -0.24673457 -0.30211145 -0.02821854 -0.075496845 -0.1056733 -0.031191979 0.046820253 -0.15557018 -0.19966298 0.11866434 0.08043122 -0.2920623 0.21731932 0.23422383 0.1548682 -0.18557407 -0.16080248 0.21821225 0.28765112 -0.26058057 0.20772633 -0.3768546 0.15673867 -0.1385223 -0.057201568 -0.1189183 0.23833185 0.29365596 0.102479875 -0.048572842 0.21161082 0.062348787 -0.11950786 -0.11780418 0.246123 0.13344918 0.1276599 0.0053957943 -0.2816698 0.07166759 0.24510631 -0.2682299 -0.28639084 0.036814403 -0.100608215 0.06661551 0.53092784 0.2449004 -0.12230278 0.30477694 -0.28376073 0.27110508 -0.18427642 -0.13215369 0.06445056 0.17688319 0.20661104 0.03453981 0.21039954 0.15371351 0.10282691 0.097267546
2734 0.121194094 0.009040627 0.18627715 0.07259093 0.058745835 -0.04680003 -0.013831218 -0.1749574 -0.113545775 0.22270235 -0.026277317 -0.03862329 0.043404665 0.23005214 -0.08230301 0.0408172 0.053638645 -0.119989604 0.024949847 0.076571435 -0.10498657 -0.044118986 -0.1701277 0.21643463 -0.18000256 0.009493443 0.041895874 -0.060150422 0.056765556 -0.057752114 -0.09184279 0.06936282 0.11475526 -0.032837123 0.058237005 -0.033149336 0.06065095 0.16245283 0.11376291 0.09035986 -0.014760059 -0.11405342 0.0018003164 -0.057708323 0.02213122 0.14894134 0.05332033 -0.035379764 0.10730858 -0.060077928 -0.12451565 -0.10082574 -0.036152475 -0.032801826 -0.092581235 0.05587941 -0.010456898 -0.19854222 -0.08990356 -0.10267204 0.13634934 0.006040107 0.11077948 -0.0053001456 -0.25935236 0.3146863 -0.11002175 0.05426806 -0.014801964 -0.15954193 0.08159876 -0.2887693 0.054917503 -0.15981697 -0.15385875 0.12576662 0.34877953 -0.22216992 0.17016351 0.046763923 0.1854002 -0.11373143 -0.041894276 0.09324033 0.1388551 -0.25212142 0.17423971 -0.20568043 0.19546683 -0.22160552 -0.10008888 -0.14596596 0.24343115 0.1290564 -0.1845365 -0.27502063 0.11840716 0.18639196 -0.17394051 -0.18047872 0.27116656 0.23690286 0.084951095 -0.297426 -0.22262792 0.22522858 0.14739428 -0.19641623 -0.2030553 -0.069334105 -0.2109255 0.19585957 -0.15370736 0.17348903 -0.15699168 0.22252579 -0.24554919 0.2002736 -0.1325016 -0.1957424 0.18245435 0.13407329 0.20471896 0.15738565 0.15239535 0.013315172 0.060498167 0.2915939
5966 0.115373254 0.08042274 0.16027348 0.095591806 -0.055246692 0.001998548 -0.10955564 -0.23465723 -0.12181142 0.11605599 -0.27617088 -0.04268599 -0.12741709 0.05300569 0.05984294 -0.0026588088 0.042383414 -0.026004558 0.046578888 0.07321626 -0.04616078 0.0031631864 0.12606649 0.21438426 -0.1253317 0.15723234 0.14807543 -0.03378537 0.03269243 -0.16331422 -0.19572031 -0.0007221885 0.24273513 0.16821341 -0.0065412153 -0.057102386 -0.017663162 0.3705693 0.10301428 -0.02801122 0.15556867 -0.0062562986 0.13667512 -0.07474653 -0.15932433 0.11746488 0.06282499 -0.09792766 0.15562053 -0.014870247 -0.15444957 -0.3045201 0.17092545 0.044423293 -0.23303096 -0.09016484 -0.13179101 -0.08218926 -0.030777045 -0.030836063 0.2354953 -0.027258903 0.15606412 -0.17254806 -0.14810176 0.33431363 -0.17338486 -0.05344001 0.0010199446 -0.05677837 0.014467406 -0.12395197 0.032957867 -0.24536566 -0.18702337 0.10378115 0.20755686 -0.29755616 0.13152598 -0.013490824 0.27351528 -0.13858636 -0.18967608 0.17905496 0.22301146 -0.2513094 0.20910239 -0.23643318 0.19896922 -0.18874368 -0.06386601 -0.17190196 0.24722986 0.105169125 -0.22846512 -0.21443911 0.13115154 0.14243397 -0.1771323 -0.17128925 0.31372964 0.20557071 0.0007061306 -0.3742554 -0.26137406 0.069803536 -0.04626567 -0.13911387 -0.21041495 -0.047179356 -0.1836344 0.18182266 -0.32944292 0.14312483 -0.14379203 0.1725412 -0.3137162 0.19136634 -0.16320923 -0.17881443 0.23304377 0.1299592 0.21188308 -0.019995626 0.11467574 -0.016257165 -0.022047434 0.18110935
5747 -0.18658125 0.19389404 -0.06618377 -0.21339844 -0.27671966 0.14597939 0.08025623 0.0674279 0.04656614 -0.03174836 0.06553074 0.18497673 0.13847838 0.103264734 0.2070111 -0.07909795 0.15317935 0.114501 -0.014149468 0.17480692 0.3652773 0.2477515 0.06474396 0.012553614 -0.16265161 -0.0032612393 -0.009338485 0.02774649 -0.038737547 -0.072091654 0.12772995 0.058046766 0.22063677 -0.14024453 0.13936105 -0.17157467 0.25542554 -0.18339632 -0.22217059 0.2170777 0.18215823 -0.12995307 0.011829565 -0.16654384 -0.16368547 -0.018637154 0.15374033 -0.12899241 0.031102888 0.014185782 -0.1831755 0.102745615 0.07362116 0.17428136 0.24698877 0.17414498 0.23762192 -0.08234743 -0.109507635 0.25569284 -0.12917629 -0.06350675 0.028707044 0.10053399 -0.019594355 0.2469 -0.2885678 -0.3222506 -0.09460661 -0.1379879 -0.2274154 -0.056602404 0.030262267 -0.09724628 -0.12994292 0.037071593 0.31392 -0.2141461 0.13942754 0.25070134 0.13170911 -0.15228571 -0.173625 0.14982976 0.28621197 -0.28671107 0.13021523 -0.3292648 0.23554415 -0.11672222 -0.27954358 -0.21043861 0.11660492 0.15934746 0.107957184 -0.14425112 0.29446247 0.09563017 -0.19294688 -0.23579402 0.18363337 0.24036846 0.12814413 -0.08157266 -0.29944617 0.19376057 0.2240553 -0.13624777 -0.15667799 -0.13648616 -0.17546107 0.14447166 0.59189034 0.2670426 -0.10318556 0.26626295 -0.22882494 0.2789725 -0.04528304 -0.16358529 0.12147402 0.05098151 0.25143012 0.40398785 0.19790316 -0.3805509 0.20353596 0.16964439
1605 -0.12496361 0.054344587 -0.03718307 -0.045392953 -0.12512799 0.22276913 -0.092332385 0.047335505 0.11121777 0.04965643 0.06846178 0.17670403 0.24279115 -0.0775013 0.040713213 -0.0127883535 0.1588715 0.14249007 -0.14921033 -0.14789361 0.19618087 0.17548236 0.038922545 -0.2060018 0.050605886 -0.03224627 -0.13771194 -0.049112476 -0.003971956 0.0059400206 0.12324553 0.04849822 0.1752661 -0.12463885 -0.027877625 -0.14097704 0.13371128 -0.2101394 -0.11823822 0.05189414 -0.036634613 0.08116976 0.14599791 -0.13011207 -0.12366648 0.049276967 0.07860613 -0.041506324 0.22441775 -0.0025109658 -0.004704718 0.10116829 0.13045678 0.033508442 0.025273617 -0.06576753 -0.014614784 0.09203398 -0.10694815 0.2869765 -0.1351213 0.10562894 0.22111776 0.038167078 -0.07888888 0.2140059 -0.25137228 -0.20662248 -0.12334506 -0.03521483 -0.14311177 -0.14572638 0.18577154 -0.19413975 -0.13297035 0.03028576 0.09453367 -0.1760442 0.15799025 0.4385422 0.15329926 -0.1609386 -0.19129577 0.18003957 0.15063119 -0.16421893 0.13806953 -0.20670553 0.25984442 -0.16117452 -0.124971054 -0.12108723 0.1336861 0.20625171 -0.076483384 -0.0382925 0.19048479 0.1306931 -0.23206925 -0.17370953 0.14467202 0.22944307 0.29486096 -0.071153715 -0.16701174 0.19028448 0.26030108 -0.19703916 -0.23940477 -0.20515877 -0.39031383 0.16000491 0.2969801 0.22334091 -0.19400392 0.145115 -0.19450589 0.22867015 -0.07959962 -0.23426792 0.0750233 0.06527106 0.26691675 0.14367367 0.22449501 -0.35293937 0.1072733 0.23442012
10252 -0.087963924 0.08898515 -0.077922024 -0.02195816 0.016733192 0.12295454 -0.053372312 -0.26342338 0.025836995 -0.020635651 0.17482415 0.16160646 -0.13561825 -0.15515639 -0.036381993 -0.07122907 0.09338235 0.06197869 -0.21222916 0.12204429 0.16417432 0.031807043 0.07654375 0.029119726 0.04087659 0.17549257 -0.10637556 -0.07984297 0.047776785 -0.10315024 0.16403994 -0.0118630845 -0.053368624 -0.19790179 -0.06366214 0.012572194 0.0025151463 -0.10404674 -0.03175665 -0.13235995 0.14894623 0.13625637 0.09014694 -0.08710151 -0.0037071446 -0.12058398 0.2065081 0.06751075 0.0300849 -0.07464942 -0.18996848 -0.02607461 -0.09963735 -0.04186903 -0.044412047 -0.0806642 0.094441295 0.17172304 0.08901853 0.06281304 -0.08012895 0.18768641 0.12634446 -0.050591864 -0.14101635 0.2996788 -0.18161957 0.051126838 -0.029304301 -0.17386727 0.027668027 -0.046817888 0.10183532 -0.20221959 -0.10419834 0.19021173 0.24945487 -0.181771 0.15393785 0.1409506 0.22310218 -0.13895832 -0.13812867 0.16275981 0.21094239 -0.1698535 0.16283768 -0.25232208 0.13334075 -0.11567834 -0.21510735 -0.25010365 0.1877498 0.15783437 -0.15559347 -0.13289145 0.19841875 0.17282584 -0.24593759 -0.17918934 0.23217611 0.250297 0.25817204 -0.23016155 -0.20477185 0.118596755 0.20312819 -0.12245495 -0.20026436 -0.10499755 -0.17693467 0.1784733 0.16019 0.19845241 -0.176955 0.21960464 -0.20674632 0.15097405 -0.10842618 -0.06128043 0.114978015 0.15094106 0.18645442 0.17373326 0.18112345 -0.08574109 0.10755637 0.21037336
868 -0.0024497798 -0.0120199965 -0.24856141 -0.1690859 -0.18838282 0.09764374 -0.21220101 0.07609075 0.08596349 -0.03455049 0.19254741 0.27047092 0.08891604 -0.2097591 0.26173952 0.019785551 -0.080304444 0.2301631 -0.16916275 -0.21970916 0.2264777 0.17821394 -0.026710887 -0.1991086 0.061785568 0.10793302 -0.09065665 -0.08724965 -0.042868614 -0.019554935 0.28668272 -0.17995158 0.21506138 -0.18348019 -0.033660494 -0.1431193 0.07133219 -0.0346722 0.012823818 -0.026601152 0.12258796 0.1307813 0.1415076 -0.015207581 -0.09835171 0.2067733 0.2055087 -0.016518269 0.09880203 -0.09616796 -0.07761355 -0.07300056 -0.050775006 0.03564265 0.28871292 0.079328954 0.100444674 -0.019584129 -0.12657742 0.14760016 -0.26903206 0.1037291 -0.036035214 0.116043225 -0.091520146 0.25809607 -0.2460831 -0.15581782 -0.12557001 -0.035580948 0.007455455 -0.071145535 0.08339372 -0.23855679 -0.12334716 0.056700036 0.23845975 -0.23540494 0.13318676 0.15977345 0.13394187 -0.048880287 -0.1383052 0.07848396 0.2869207 -0.19868673 0.19397603 -0.2703094 0.19515699 -0.19479679 -0.09907515 -0.1813957 0.18486872 0.21574742 0.028101645 -0.05604855 0.18370098 0.12352278 -0.18748154 -0.33953482 0.15443064 0.1342541 0.1555994 -0.21309584 -0.26020536 0.30480826 0.21801658 -0.1825941 -0.108541705 -0.21005656 -0.18963794 0.08430034 0.39738387 0.34172493 -0.2659235 0.17734246 -0.23101749 0.16935953 -0.08788057 -0.21618477 0.111715026 0.09687968 0.17077585 0.31065458 0.22514006 -0.40535724 0.23009145 0.20511945
648 0.19110732 -0.09548968 0.0030757803 -0.28101116 0.35165122 -0.12314198 0.24418359 -0.09146371 0.101823844 -0.14756647 -0.023038825 -0.12311384 -0.13812536 0.043637853 -0.18433689 -0.12736519 0.2342712 -0.17699306 0.22737375 0.018913973 -0.037480485 -0.2771116 -0.10020919 -0.084484294 0.048655342 -0.18407506 0.063645355 -0.040520415 -0.09613588 -0.18629149 0.35506606 -0.017294502 -0.2441433 0.035596956 -0.033899724 -0.10740101 -0.19362277 -0.04667121 0.07283242 -0.24651417 -0.008994486 -0.05217956 0.01885064 0.12581305 0.17506027 0.06919962 -0.021241475 0.10386837 -0.028330155 0.07528798 -0.03299846 -0.24239361 -0.20309846 -0.1504283 0.009729491 0.022020504 0.07471651 -0.02313746 0.20392203 -0.17909475 -0.07999296 -0.11589465 0.030165412 -0.27018157 -0.22189209 0.090049684 -0.13323861 0.13440807 -0.21177569 -0.16081165 0.10185754 -0.23616537 0.028758753 -0.0933771 -0.224801 0.22978893 0.10938982 -0.2201875 0.16252565 0.03679011 0.121682666 -0.30885568 -0.2246913 0.15593876 0.16250995 -0.2116646 0.21613875 -0.18388994 0.17302422 -0.1804169 -0.21502681 -0.24822097 0.25738645 0.12538277 -0.034714673 -0.2492972 0.1248575 0.03672095 -0.08209493 -0.17411764 0.29051322 0.19054444 0.16212277 -0.05145531 -0.24298304 0.14133845 0.008240073 -0.2025295 -0.33614635 -0.092912436 -0.09815975 0.30702665 -0.45940772 0.1513692 -0.16253343 0.14367983 -0.3391556 0.1915579 -0.22810674 -0.12451546 0.14087753 0.2132236 0.20147434 -0.054438565 0.1881017 -0.047118656 0.025432048 0.06437993
11171 -0.09725455 -0.006931075 -0.014080575 -0.075205535 -0.0052988296 -0.15199701 0.17735142 0.04698782 -0.0050319666 0.16028363 -0.051306944 0.08581087 -0.19315077 -0.012107808 -0.023817921 0.04174216 0.07007804 0.09024659 0.02812655 -0.15980077 0.082731694 -0.04281811 -0.26892805 -0.1502927 -0.1609617 0.004176127 -0.14185989 -0.09340743 -0.15249746 -0.07725515 -0.044781063 0.018300496 0.006666551 0.074606575 -0.13017514 0.0063629784 0.045762423 -0.010358622 -0.037944537 0.033916198 -0.030130388 0.08498151 -0.017529998 0.15046303 -0.0053070895 0.21593185 -0.0023409578 0.036753777 -0.07717058 0.14054 -0.023114055 0.0053348667 0.0369482 -0.042942036 -0.064067945 0.015614869 0.20497033 -0.015702426 -0.11171989 0.0967925 -0.07509656 -0.06337535 -0.123815104 -0.05250129 -0.1631984 0.20138797 -0.17834412 0.16552313 -0.18723483 -0.17021824 0.20909497 -0.15263224 0.17977054 -0.16889036 -0.18250768 0.1297797 0.19065376 -0.15039001 0.18367924 0.058079373 0.1557191 -0.11776459 -0.2521511 0.13643517 0.12110823 -0.2142496 0.1798483 -0.16882807 0.25158724 -0.27736694 -0.1769017 -0.1573603 0.07657849 0.11936111 -0.09489455 -0.2647671 0.12758853 0.102322794 -0.08514869 -0.20536119 0.23980312 0.18390648 0.13226046 -0.23556903 -0.1672175 0.23964427 0.1951164 -0.14763933 -0.30372313 -0.274954 -0.19485195 0.22076756 0.013744646 0.16208324 -0.09258145 0.12415948 -0.21284756 0.22937231 -0.26020324 -0.14132759 0.123584464 0.10475056 0.1784752 0.20447265 0.1516229 -0.23011532 0.22047338 0.0842654
3654 0.017540421 0.06903637 -0.040314976 0.07756826 -0.1029648 0.014036032 -0.113865145 0.06303156 -0.118728034 0.21141405 -0.1914152 0.110655405 0.12778154 -0.034576878 0.076454386 0.27146763 -0.016301172 0.024122335 -0.00035447028 -0.004431024 0.06483343 0.08024719 -0.05116394 0.20700257 -0.35390612 0.18132514 0.21781203 -0.24331601 0.046103742 -0.104306236 -0.07208127 0.18643314 0.068470284 0.062041547 -0.30165854 0.12372453 -0.06073871 0.0029781174 -0.066742636 0.005236338 0.08797472 -0.041692607 -0.1167422 0.18027318 0.12714262 0.058484126 -0.024047662 -0.087601766 0.02838145 0.023001013 0.056341812 -0.10702874 0.099917 -0.1680266 -0.06032673 -0.03937051 0.06154031 -0.27187452 -0.21369274 -0.019670058 0.0017649469 -0.12291038 0.10553082 0.106215924 -0.19474725 0.16050395 -0.16236654 -0.19046068 -0.040463813 0.13343038 -0.08866641 -0.23428917 0.052910972 -0.089237325 -0.1467391 0.09469561 0.0077981274 -0.26318926 0.12582792 0.12464986 0.17381026 -0.1858112 -0.13615736 0.12975006 0.18779938 -0.37543893 0.22805738 -0.22959869 0.21691112 -0.102488436 -0.013158445 -0.1630949 0.24762647 0.20923613 -0.087056465 -0.25539747 0.13123925 0.08686796 -0.23816027 -0.15374435 0.22300856 0.21565466 0.095245354 -0.14585263 -0.2302074 0.2361497 0.12847458 -0.18646672 -0.2586942 -0.07168703 -0.13250215 0.11782565 -0.1895153 0.15415509 -0.14716248 0.19070211 -0.3035017 0.20871346 -0.34101442 -0.15687054 0.18681072 0.11364515 0.2347898 0.07749222 0.18580085 -0.13056268 0.15453008 0.13429552
3315 0.105960116 0.014139377 0.16519871 -0.10355091 -0.16269411 0.09464745 -0.14425203 0.01568778 -0.14967558 0.30572337 -0.079543196 0.18702516 0.012185001 0.103763394 -0.08533298 0.09357685 -0.017265996 -0.006759872 -0.13538752 -0.081034616 -0.08126969 -0.16662021 -0.09733571 0.30896783 0.022434734 -0.15384653 0.005396968 0.09998799 -0.07355038 0.080087095 -0.09019314 -0.060805004 -0.025943005 0.033329457 0.06350378 0.018763231 -0.025110003 0.20310499 -0.26414543 -0.09592101 -0.067203544 -0.124275155 -0.07465772 -0.0018798716 -0.038981926 -0.28171828 0.10184005 -0.0115936175 -0.080467455 -0.05700461 0.1226689 -0.0044897734 0.06344825 -0.15250245 -0.13187866 0.053682245 0.12751834 -0.14781447 -0.24417189 0.025391785 0.07664325 -0.06559225 -0.138691 0.029577363 -0.20509194 0.1341568 -0.16568522 -0.06263398 -0.16227378 0.008732289 -0.09135585 -0.21691297 0.13526158 -0.17572944 -0.16037434 0.16624157 -0.008203488 -0.30904132 0.058152594 0.08962397 0.18069002 -0.19107972 -0.22234549 0.3027176 0.21259208 -0.26668537 0.17894769 -0.23429681 0.13043025 -0.09735297 0.00955966 -0.24409764 0.2208052 0.13584925 -0.12176332 -0.19847338 0.17291555 0.20473267 -0.17145999 -0.21171643 0.27929744 0.23552595 0.2528004 -0.087797135 -0.15407942 0.06094813 0.17263208 -0.20354898 -0.21737969 -0.08781349 -0.2073548 0.1183168 -0.027417306 0.1214728 -0.091323964 0.19317392 -0.27763572 0.2927982 -0.18721925 -0.20108682 0.19745189 0.22329484 0.17570025 0.15516357 0.15525372 0.121755645 -0.016792739 0.12624146
3476 -0.15814508 -0.10022707 -0.0142355785 0.114101306 -0.07581246 -0.005122178 0.054292686 -0.025221806 -0.19596277 0.26619428 0.032471098 -0.053979322 -0.20212841 0.251001 -0.08556654 -0.029348435 -0.0044757817 -0.13724251 0.043368664 -0.14021449 0.09447437 0.08623972 -0.05142481 0.08601247 0.008906409 0.024047535 -0.11879098 0.18097316 0.028577598 -0.10944679 -0.15980199 0.026419658 0.03534639 -0.08438359 0.096208476 -0.117522284 0.020040186 0.18803163 -0.10437706 -0.05879842 0.027023064 -0.06466137 0.15690511 0.1610174 -0.11095779 0.0022919301 0.050848134 0.11390363 -0.11036946 0.025877748 -0.04049443 -0.036268342 0.104721114 -0.14088891 0.07155944 0.088093646 0.0698289 -0.012607031 0.024211941 -0.004492556 -0.1737672 -0.06046057 -0.0013989378 -0.037482172 -0.1401378 0.05616649 -0.06681398 -0.0027461625 -0.17256138 -0.031188056 0.048948873 -0.16999586 0.024608986 -0.1753087 -0.15180561 0.08342774 0.061558228 -0.32913575 0.12709501 0.049924795 0.17482573 -0.19457611 -0.22272013 0.19164164 0.24464346 -0.30935684 0.22509065 -0.19163911 0.15488549 -0.13922763 -0.10346598 -0.23486574 0.13295579 0.25125825 -0.11781702 -0.15694019 0.22611292 0.12624991 -0.11416768 -0.17836381 0.21630934 0.20066015 0.20812942 -0.07961941 -0.28173146 0.24355899 0.1646347 -0.1992907 -0.24275489 -0.15459175 -0.16220744 0.047443494 -0.0028366146 0.10967839 -0.06687542 0.19237044 -0.16686264 0.20657171 -0.12748781 -0.20092857 0.10615962 0.18362215 0.18748112 -0.05211266 0.22540657 0.02297623 0.1140368 0.24314041
79840 0.07530816 0.03982949 -0.09054618 0.024442 0.14435007 0.034021966 -0.1031348 -0.15745662 0.041924868 0.08130611 -0.028731871 -0.14358659 -0.12745453 0.04849856 0.006329755 -0.08542239 0.038035836 -0.18320525 -0.012129938 -0.0057241227 -0.22827764 0.11349936 -0.14187309 0.09438334 0.0036486376 0.09133693 0.05218943 0.06683649 0.014083407 0.06675261 0.018906413 -0.013407197 0.08445901 0.0033396776 0.054844312 0.12618852 -0.029835207 0.18114753 -0.06414774 -0.08442802 0.07240778 0.109076045 -0.10235973 0.15623377 -0.0915376 0.12701891 -0.041567042 -0.033548035 0.051467422 0.07167287 -0.009208571 0.0051011755 -0.0769967 0.037476193 0.0086268615 0.004362438 0.05572111 0.0022032645 0.07720644 -0.106430374 -0.16107655 0.035178784 0.03728972 0.017638128 -0.104622535 0.1192775 -0.24970783 0.11020223 -0.12711938 0.01790534 0.041545834 -0.11476537 -0.007035538 -0.15617716 -0.20243853 0.15852715 0.124129504 -0.21204461 0.115484014 0.07686219 0.24072342 -0.20582563 -0.23542012 0.21596909 0.17967176 -0.1890052 0.13058215 -0.16346353 0.10174194 -0.13919114 -0.2683859 -0.16924915 0.072505884 0.16693345 -0.30274704 -0.21324956 0.06310985 0.21253903 -0.17673281 -0.13055702 0.13687032 0.13715972 0.19270518 -0.37372655 -0.14852872 0.0957901 0.040475152 -0.15714158 -0.16014473 -0.13626298 -0.27513918 0.14816736 0.005119046 0.18770623 -0.26337245 0.1618116 -0.08736196 0.10935348 -0.15710998 -0.0866731 0.1562494 0.19720294 0.076806 0.032189578 0.11128345 -0.0916788 0.13383335 0.41619056
10458 -0.07751642 0.07099569 -0.18334219 0.19434395 -0.1820479 0.13405345 0.03350965 -0.22234428 0.17500196 0.11747141 0.15971051 0.21612662 -0.108604215 -0.046532877 0.0539833 -0.048711233 -0.12995884 -0.041576803 -0.04074622 0.021102002 0.07933839 -0.046171185 0.16922262 -0.012561536 -0.046798185 -0.013402366 -0.17004585 2.1108004e-05 0.078036204 -0.009842662 0.12905043 0.06610986 0.17133284 -0.255881 0.09428116 -0.02625941 0.0492299 -0.19705741 -0.08234243 0.10218832 0.035714712 0.07380032 -0.03456057 -0.045915905 0.07374953 0.110510245 0.22906502 -0.12668715 0.37209487 0.117654115 0.06698067 0.14313364 -0.16968156 -0.15257433 0.005496344 -0.061311483 -0.15690449 -0.009115445 -0.0053080074 0.13280396 -0.20462857 -0.04729675 0.15530433 0.007690571 -0.116807945 0.2277845 -0.16141787 0.041086573 -0.051686972 -0.08740293 0.023269325 -0.13654535 0.109831594 -0.10216621 -0.102272935 0.06844282 0.16369411 -0.300917 0.1263195 0.05974542 0.16347826 -0.15096113 -0.22027507 0.21572292 0.27251914 -0.31332198 0.1601907 -0.27977 0.0900736 -0.03625723 -0.13159601 -0.10461047 0.13689707 0.2869195 -0.006162605 -0.06696728 0.3346175 0.21839528 -0.22142397 -0.0769764 0.13734128 0.19708274 -0.060721263 -0.11438115 -0.18543364 0.29849964 0.24877942 -0.2788821 -0.22409458 -0.14445828 -0.20483044 0.20022143 0.2799926 0.24293153 -0.1411309 0.2751943 -0.21144632 0.21314456 -0.1305239 -0.11278611 0.23545948 0.039096583 0.0929859 0.12776947 0.21483798 -0.04200723 0.2276113 0.21957454
55971 -0.07416786 0.016128419 -0.057908487 -0.047213174 -0.12050613 -0.025570523 -0.042933103 -0.01736161 0.050386295 -0.04090436 -0.013862904 0.018474486 0.0038946962 -0.1526604 -0.010475108 -0.14235722 -0.062846564 -0.1711724 -0.0747612 -0.07005754 0.01602875 0.0144617185 0.004177777 -0.06043868 0.07833067 -0.1824347 -0.080639884 0.035700873 0.15350758 0.051657565 0.021144118 -0.069098 0.12485888 -0.03587052 0.01221811 0.1020987 -0.011121257 -0.03192877 -0.05595889 -0.06909554 -0.03128471 0.04287699 -0.049535517 -0.09346489 0.082087904 0.12567414 0.062564574 -0.01798323 0.21213298 0.029549465 0.08052156 0.08293324 0.021180775 0.049648345 -0.011776222 0.013597382 -0.13933508 -0.055822384 -0.038278554 0.029755356 -0.04345856 -0.0053158207 0.12960632 0.0036949932 -0.108002685 0.17342767 -0.16002347 0.17067087 -0.16681144 -0.010609588 0.028805401 -0.18598984 0.06497293 -0.21129754 -0.07949954 0.12085302 0.05776642 -0.1740977 0.23136647 0.1515424 0.16383085 -0.1375494 -0.16904998 0.1787312 0.25058666 -0.22465067 0.2207092 -0.17155086 0.086361386 -0.0715157 -0.18766126 -0.20486282 0.14634833 0.2394931 -0.116308145 -0.19482958 0.17794843 0.24598074 -0.22257845 -0.11431409 0.20218818 0.14763418 0.12147555 -0.14267215 -0.1885383 0.25753352 0.15783803 -0.12496039 -0.1907027 -0.18539262 -0.18664849 0.2834834 -0.0099770315 0.21640897 -0.11191234 0.30763602 -0.19986546 0.18942514 -0.23533532 -0.10589194 0.22001049 0.10234375 0.16544212 0.11932164 0.13837811 -0.1159027 0.068446256 0.14832631
6764 0.108923726 0.039070033 0.12800208 -0.09456225 -0.0829185 -0.042124778 0.08810927 0.07920464 0.041125756 -0.0750558 0.09402656 -0.003135147 0.022289129 -0.009388667 -0.062227692 -0.0150714945 -0.061753284 -0.018405715 0.05590352 -0.0058117528 0.11001082 -0.07688831 0.1083904 -0.022075463 -0.09559851 -0.07098003 -0.045871858 0.03799827 -0.09286441 0.12094717 0.037059892 0.062171996 -0.1137654 -0.14317118 0.03354796 -0.0786784 0.15173377 -0.076221906 -0.14766249 0.016053138 0.19075057 0.009444031 0.0338546 0.003938488 -0.13203011 0.0012405193 0.04625186 -0.033063814 -0.08483978 0.051270667 0.11625664 0.07932895 -0.12473878 0.04655199 -0.0028379615 0.017981594 0.0522816 0.04497093 -0.044196848 0.12942751 0.09118045 -0.06081818 0.10947315 0.120881885 -0.017877076 0.18383719 -0.20310579 0.07241482 -0.13262187 -0.21905361 0.17926705 -0.1533687 0.18600538 -0.22669314 -0.18669577 0.16282159 0.1669272 -0.18730824 0.23711105 0.24419068 0.16861753 -0.12687285 -0.17938624 0.16627175 0.20434672 -0.19484127 0.21124914 -0.22349955 0.25952467 -0.21295774 -0.24398153 -0.12741233 0.13846922 0.21542078 -0.22593296 -0.07929959 0.08316922 0.1546426 -0.13174403 -0.093290955 0.19132997 0.15393893 0.23665372 -0.1914881 -0.17225559 0.10823893 0.23766045 -0.060884796 -0.18599302 -0.15735742 -0.14293718 0.12050283 0.15433 0.12180938 -0.13669035 0.1516299 -0.112811804 0.11651955 -0.14428735 -0.24720742 0.024578957 0.21847233 0.20457669 0.26457918 0.21151571 -0.09635054 0.23665659 0.12814574
6461 -0.120944954 -0.035963602 -0.10042613 0.027473116 0.020896202 0.13517205 0.0034244903 -0.055142913 0.17629728 -0.07796721 0.18536907 0.04345189 0.023505723 -0.044498052 0.1275915 0.04257417 -0.06551537 0.11512073 -0.19443816 -0.025221108 0.15098761 0.07088261 0.036689255 -0.044742614 0.13160416 0.07442101 -0.17670695 -0.070339024 -0.08772918 -0.11736968 0.09143124 0.07159261 -0.016482975 -0.22420733 0.01941878 -0.10713296 0.106781945 -0.06448796 -0.111556 0.03221092 0.23571186 -0.009482029 0.15091415 -0.16554374 -0.04845244 0.2199845 0.118776575 -0.16235101 0.08221857 -0.012448125 -0.12445227 0.013732009 0.013175229 0.111575164 0.17190288 -0.019184692 0.111863375 0.024806099 -0.062141012 0.058262702 0.008250137 0.104322396 0.08537047 -0.06834349 -0.023238111 0.25698575 -0.2681581 -0.12890773 -0.11728404 -0.34328815 0.044557888 0.010956183 0.0537593 -0.27991897 -0.06130055 0.14643888 0.21289535 -0.15341741 0.15153453 0.25752893 0.16253884 -0.1073881 -0.18728633 0.293145 0.19851017 -0.17939736 0.17334707 -0.30383006 0.109185725 -0.17212002 -0.22900748 -0.10575976 0.18988535 0.22649068 -0.09184598 -0.123878635 0.15236875 0.13086365 -0.19382769 -0.22550777 0.15964195 0.10744283 0.22116518 -0.14972404 -0.19539809 0.24079898 0.3827994 -0.11837431 -0.24679384 -0.1030806 -0.19032298 0.12426578 0.28446028 0.23996262 -0.31574395 0.22817393 -0.18372862 0.15597613 -0.17938244 -0.06962583 0.18380815 0.06813193 0.16831781 0.19569616 0.15563922 -0.25112626 0.19352904 0.2850863
6714 0.04691774 0.16581742 0.046806816 -0.045451123 -0.15444602 0.15192325 -0.15009455 0.039625786 0.27884236 -0.17596501 0.1737936 0.22884929 0.06543041 -0.09906614 0.260001 -0.029550252 0.07832069 0.23630871 -0.12777545 -0.2348881 0.1983694 0.07553386 0.08195235 0.06317014 0.21789606 0.053740203 -0.0059693456 -0.038322385 -0.06576638 -0.008461235 0.08060485 0.12986173 0.09807517 -0.18522556 0.08745005 -0.08595436 0.12738286 -0.04506652 0.009964444 0.1907056 0.21973565 0.111645415 0.07223238 -0.22985105 -0.22539824 0.088889495 0.22004585 -0.11979381 0.1507422 0.044586252 -0.13930601 0.14162639 -0.008792822 0.22820073 0.23486158 0.06599085 0.118327156 0.05209011 -0.17087711 0.28256673 -0.20757747 0.21461254 0.105831675 -0.033345465 -0.07662114 0.27199194 -0.26891345 -0.3448394 -0.10210639 -0.2653475 -0.15529616 -0.048202053 0.0031914485 -0.144955 -0.11730671 0.052732095 0.23061924 -0.35899848 0.13416228 0.119829975 0.17818692 -0.109927416 -0.18755725 0.123057134 0.20450844 -0.20148918 0.110929795 -0.3630488 0.21522856 -0.0955647 -0.17666717 -0.11976593 0.24370714 0.17227247 0.031356283 -0.13414787 0.21571259 0.10388665 -0.21726954 -0.27159607 0.13455759 0.22208804 0.07953954 0.026942903 -0.2744993 0.22242878 0.33934972 -0.19958305 -0.18910836 -0.10271893 -0.21550788 0.24089126 0.5824279 0.32714504 -0.1467163 0.19965889 -0.27969512 0.18461932 -0.11125184 -0.09671307 0.13510479 0.14563693 0.10592069 0.3604559 0.28159228 -0.044958334 0.13983412 0.07259148
4851 -0.07887546 0.035020106 -0.07738317 0.14477865 0.18302535 -0.073687494 0.11997431 0.06990839 0.1343861 0.05149354 -0.34178257 -0.12627147 -0.14416176 -0.12643567 -0.017038362 0.09353864 0.008349955 0.16132313 -0.016136449 -0.021214396 0.1115117 0.09508604 -0.03588522 -0.131331 -0.0049291323 0.06826271 -0.03011737 -0.15977694 0.018709509 0.100504965 0.008614316 -0.14202431 0.021004174 -0.047839053 -0.12718767 0.17629614 -0.20497097 0.11419892 0.23024099 0.025615517 -0.07940999 0.05248764 -0.20547706 -0.109464005 0.045027215 -0.055499762 -0.039444577 -0.0019839997 -0.11909003 0.052755058 0.047783438 -0.049658008 -0.05904374 0.016607448 -0.20682126 -0.17277849 -0.0066170087 0.22275046 0.20092818 -0.110066876 -0.21441866 0.045203034 -0.06051704 0.06099778 -0.1647701 0.20005535 -0.14232261 0.0678528 -0.19585703 -0.14299935 0.1633554 -0.15025285 0.121138625 -0.13972293 -0.11033283 0.13868332 0.065464154 -0.21775784 0.28766173 0.1491498 0.16363144 -0.05782623 -0.18324938 0.16887164 0.29688916 -0.13682222 0.17926198 -0.2774824 0.1128896 -0.3454872 -0.23695292 -0.2565114 0.15492097 0.20304172 -0.2005392 -0.10944602 0.16392992 0.14295392 -0.3109946 -0.052214205 0.2710388 0.15592797 0.080860384 -0.095944166 -0.25440568 0.3159709 -0.018354263 -0.2046126 -0.1295883 -0.20524417 -0.19784902 0.14492327 -0.23803227 0.20660059 -0.22178799 0.12577115 -0.23134921 0.20939288 -0.25755873 -0.1795817 -0.05203625 0.22497459 0.023211703 0.16342959 0.16543154 0.03673215 0.19034345 0.1347498
5664 -0.073452376 0.20099247 0.010500045 0.104416855 0.07523095 -0.021664547 0.034459084 -0.020815037 0.05616722 0.18890214 0.016401459 0.095057905 0.16692863 -0.069423154 0.062044766 -0.045397613 -0.02507271 0.0787696 -0.043757685 0.26098582 -0.1602196 0.1727871 0.061946318 -0.16566302 0.0018205864 0.06103494 -0.099078834 -0.020102307 -0.023021301 -0.011125724 -0.096380286 -0.25659144 0.064454265 -0.09758833 -0.103177294 -0.19567531 -0.11941069 -0.19542962 -0.026767781 0.04727161 -0.08725872 0.025421968 0.015479281 -0.040749367 0.06201118 -0.13310201 0.07401384 0.062117923 0.19030282 -0.0019186147 0.071365744 0.07410131 0.051734675 -0.04036669 -0.23854774 -0.2470658 0.06692376 -0.08679606 -0.030995687 -0.046523433 -0.15151593 0.097146854 0.041479412 0.09231545 -0.10605707 0.17843702 -0.18497372 -0.042162362 -0.16430752 -0.060370993 -0.0741303 -0.20108576 -0.0326975 -0.22444391 -0.21943788 0.03267523 0.01112617 -0.23400968 0.24135453 0.09064552 0.17050222 -0.15043777 -0.23856916 0.18305644 0.3185364 -0.24145791 0.22659616 -0.22453986 0.18858977 -0.124332204 -0.032362394 -0.20482236 0.1792243 0.19553031 -0.0019701065 -0.21523374 0.12912191 -0.002712337 -0.23472174 -0.13894293 0.27331686 0.15402538 -0.0124083925 -0.09920099 -0.19113714 0.24522176 0.11035983 -0.19674778 -0.17991973 -0.1467074 -0.2725138 0.0628642 0.14801246 0.32861036 -0.2860683 0.12728642 -0.27594677 0.12683411 -0.09915115 -0.19374317 0.07219698 0.22977124 0.08572547 0.0021388985 0.19432738 0.014772783 0.17684314 0.116055764
2549 0.16433027 0.11563996 -0.14253667 -0.06604343 -0.2801709 0.1560725 0.048302103 -0.063861094 0.19850743 -0.15192756 0.16911523 0.08025316 -0.06441543 -0.2906078 0.2351147 -0.17611583 0.052042827 0.16978817 -0.14465116 -0.08094301 0.17691019 0.31849104 -0.0040855226 -0.1958915 -0.044239476 0.09195552 -0.20878123 0.14829873 0.010463123 -0.07478941 0.13719353 0.13140544 0.050123304 -0.15467264 0.039253686 -0.19529013 0.14800645 0.055632573 -0.06930239 0.02127374 0.07876869 -0.110574275 0.1413649 -0.09184304 -0.26259083 0.25904655 0.20493092 -0.02868142 0.14987126 0.08844954 -0.052088264 0.14217682 0.03213597 0.21291257 0.078377835 -0.062521815 0.18263602 -0.0037723926 0.060396984 0.21076322 -0.16787845 0.1802254 0.10599133 0.18998839 -0.04311485 0.2492327 -0.30458474 -0.28539482 -0.051081873 -0.44252843 -0.04824508 0.02292151 0.12310409 -0.11373158 -0.08584617 0.11257017 0.26430857 -0.2124177 0.16801761 0.25936046 0.16030054 -0.19006215 -0.081403024 0.1652013 0.24000238 -0.14757363 0.17658423 -0.37876725 0.30887207 -0.21564752 -0.2515908 -0.14586386 0.19004084 0.19985636 0.090008885 -0.2003062 0.23049976 0.14059187 -0.17189135 -0.2704717 0.25217882 0.17099033 0.09562749 0.0103765875 -0.2687313 0.11703471 0.44043088 -0.20892622 -0.17884012 -0.15268931 -0.1775628 0.122457884 0.43705168 0.26427478 -0.14125226 0.23385748 -0.26873797 0.15060693 -0.18154353 -0.13891825 0.12702887 0.1301757 0.13711381 0.14470482 0.24986002 -0.05177368 0.19675408 0.29241383
5829 -0.080055304 0.17785704 -0.056558147 -0.105998345 -0.19544965 0.09241745 0.18181007 0.23920476 0.11556238 -0.005846528 0.05929139 0.11145775 -0.035296403 -0.10347149 0.32008383 0.0942109 0.16553298 0.08296578 -0.14779124 -0.24043301 0.27671817 0.259183 -0.03759365 -0.06289983 -0.020649487 0.032391254 -0.15180282 -0.04404282 -0.06846407 -0.07551709 0.15028489 0.024706097 0.20465665 -0.15387088 0.025821457 -0.3096204 0.15230468 -0.07755954 -0.1661871 -0.001851636 0.043708537 0.11830356 0.02885295 -0.23761122 -0.20305732 0.020438528 0.22830854 -0.10202042 0.06395543 0.08933217 -0.10122405 0.027658766 0.13152409 0.18154739 0.18576686 0.045033626 0.1857255 -0.002138402 -0.1576547 0.21782301 -0.1540886 0.16458628 0.26355904 0.053264752 -0.00087667484 0.18078153 -0.32846102 -0.2898626 -0.07778743 -0.39063132 -0.182712 -0.047937922 0.09186849 -0.08885072 -0.14478694 0.11171295 0.23467517 -0.258955 0.08271143 0.13361841 0.2133298 -0.09560768 -0.14109084 0.06707828 0.2958853 -0.19092105 0.18297598 -0.31954068 0.25795555 -0.17995718 -0.1818283 -0.2457005 0.203263 0.14595313 0.09610806 -0.10790464 0.34779993 0.15114936 -0.1350141 -0.23011659 0.26093563 0.17298801 0.25543752 -0.09638093 -0.2884383 0.23292701 0.29486725 -0.1727194 -0.19555452 -0.12896733 -0.21933903 0.14590192 0.5525301 0.21603219 -0.13267234 0.15294002 -0.21422847 0.196035 -0.089570895 -0.1761454 0.14999415 0.07841605 0.24018008 0.17224959 0.21186766 -0.25834015 0.16653316 0.15654074
5295 -0.010420556 -0.0058901194 -0.019436203 -0.06787098 -0.1125833 0.22054331 -0.12665713 0.021562843 0.28911814 -0.31487066 0.21630958 0.17534852 0.09494035 -0.13964054 0.21401806 -0.005330004 0.071998335 0.2874525 -0.2312959 0.029739449 0.35838428 0.40753925 -0.040789682 -0.040610515 0.2233978 0.05373605 0.0712704 -0.18340899 -0.09481018 -0.13481939 0.24240647 0.15141577 0.014917238 -0.19334823 -0.013328194 -0.1602574 0.31363633 -0.028169459 -0.0078073586 0.030065637 0.2617626 0.17932875 0.1036642 -0.2128707 -0.081038766 0.100027665 0.12637919 -0.07375556 0.08965637 -0.0818441 -0.06501095 0.17198019 0.13158444 0.2589017 0.19277912 0.06754731 0.18242566 0.2228507 -0.02157906 0.12113672 -0.22237515 0.21998163 0.00820932 0.114943825 -0.011001277 0.25610983 -0.3175054 -0.42693597 0.012003617 -0.3752548 -0.16588354 0.027500533 -0.01274712 -0.14423406 -0.06120237 -0.05214131 0.1389199 -0.23877981 0.15237889 0.40636596 0.1365112 -0.07977711 -0.20976302 0.20722762 0.2518855 -0.17382728 0.20407031 -0.37221193 0.16869587 -0.18550476 -0.2210406 -0.1477766 0.19024222 0.18283927 0.03149925 -0.1344098 0.24161632 0.0778532 -0.20347765 -0.19234864 0.15974733 0.18762338 0.07622288 -0.1516832 -0.2699904 0.18761769 0.4695171 -0.23802666 -0.15994547 -0.1884374 -0.23252703 0.09552606 0.5894037 0.33015215 -0.3359059 0.30488402 -0.17153221 0.21301322 -0.21139032 -0.15788218 0.047767557 -0.025332768 0.12907968 0.32880923 0.20803547 -0.21108082 0.10618771 0.20967963
5871 0.121387266 -0.02166876 0.096084125 0.16037196 0.0019462378 0.040387638 -0.007980934 -0.041781016 0.07756351 -0.09227715 -0.021359716 0.08531851 0.120776854 -0.019291108 -0.052049734 0.048639987 0.050166506 -0.089856744 0.01200034 -0.021005606 -0.04393128 -0.08518408 0.056099553 -0.005503083 -0.08056804 0.044444505 0.07475366 -0.121250376 0.051026553 0.057321493 -0.03574757 0.12000311 0.069405004 0.02718714 0.054645035 -0.07539904 -0.06143039 0.11036712 -0.0010308458 -0.009490968 0.039578423 -0.14302221 -0.14411315 0.16659357 0.029827602 -0.024148941 0.115043774 -0.009349114 -0.054806318 -0.06616639 -0.0018416779 -0.1895642 0.032947294 0.017722791 -0.01139545 -0.04280292 -0.09341279 -0.10471061 -0.111693814 -0.024838192 0.022498682 -0.03533736 -0.05966068 0.0037869923 -0.20547391 0.1675697 -0.18684393 0.1506089 -0.0845059 0.084145576 -0.023476446 -0.1853116 -0.02123378 -0.19480039 -0.16411518 0.20839095 0.041207172 -0.15447871 0.10090543 0.04877835 0.2449419 -0.13183251 -0.16697872 0.17875499 0.22134781 -0.16023418 0.15486474 -0.22137217 0.26206565 -0.20076837 -0.12718333 -0.13397951 0.17094494 0.197076 -0.21438627 -0.22552146 0.17089304 0.1592609 -0.10642883 -0.1288822 0.14506985 0.19971624 0.061055746 -0.13171609 -0.18907031 0.2149595 0.11470205 -0.2244014 -0.23259562 -0.15649006 -0.19843665 0.21443418 -0.02502676 0.23721571 -0.1342726 0.13454485 -0.18994626 0.26807088 -0.15436853 -0.044250183 0.20209385 0.14975744 0.13831747 0.14249346 0.124607675 0.029631123 0.3236603 0.09272714
6416 0.03260709 0.1663583 -0.10362348 0.099585004 -0.14444777 -0.13208649 0.028923325 -0.26788637 0.046007358 -0.064181045 0.11555225 0.13351753 -0.06917474 -0.21404986 0.10168328 0.043240786 -0.124192655 0.060301926 -0.0871159 0.04735233 -0.1641048 -0.0010142829 -0.07910089 -0.042192608 -0.09073496 0.06800489 0.3026377 -0.15997836 -0.04192683 -0.000758934 -0.1401046 0.049259305 0.088488385 -0.053953875 0.14758193 -0.023237675 -0.019403541 0.12315773 0.16530548 0.14978151 0.012996523 -0.14503953 -0.21814036 -0.042266402 -0.14797813 0.108162686 0.032353345 -0.05449401 -0.07732146 -0.08914854 0.06546186 -0.074597254 0.20570408 0.127241 0.029862003 -0.15426403 0.18229577 -0.10024712 0.049983718 -0.087219715 0.033029232 0.1657021 0.10238208 0.15978655 -0.16277479 0.16028385 -0.15370625 -0.042992644 -0.11822425 0.25950855 -0.21680598 -0.16309088 0.0058521763 -0.10997803 -0.15312627 0.15821189 -0.008131344 -0.18658046 0.18343972 0.08872847 0.28233328 -0.23471671 -0.166396 0.13886236 0.2531248 -0.23798135 0.21697402 -0.2291838 0.2239717 -0.25251836 -0.17474958 -0.111104846 0.17720535 0.2174221 -0.2723994 -0.2986913 0.27266645 0.15310709 -0.19230045 -0.093397684 0.24950989 0.21432844 0.029142432 -0.19081755 -0.19237182 0.31550857 0.15899447 -0.248447 -0.1441674 -0.17283522 -0.24871843 0.2080779 0.31911904 0.20430616 -0.1356427 0.1988975 -0.1978443 0.23166385 -0.2653802 -0.117869645 0.16488862 0.113039404 0.1280561 0.31965467 0.15509093 0.2335596 0.3092908 0.11435357
302 0.11519342 -0.0054459744 0.18933676 -0.12775405 0.023192355 -0.03454526 0.1109107 -0.19132003 0.23342836 -0.0010994306 0.050381295 0.027352534 0.10416826 0.17355011 0.09669126 0.085517384 0.06987319 -0.057466928 0.12246095 -0.064115725 -0.079544425 0.06537773 0.08007431 0.115945786 0.19076338 -0.00011577268 0.14208603 -0.04645446 0.056316167 -0.18763638 -0.25866857 0.16614488 -0.0006077456 -0.0028342993 0.09629626 -0.20430663 0.20756061 -0.03726164 -0.17455596 0.28023407 0.14422128 -0.11090718 0.10842012 0.19006324 -0.13386196 -0.08574395 0.20277086 0.022977635 -0.084430896 -0.10768163 0.20304625 -0.02565545 0.067993626 -0.10857933 0.037229974 0.2615824 -0.077049896 -0.03153839 -0.19699848 0.15863743 -0.054652307 -0.12819864 0.04656419 0.17484774 -0.17542061 0.16304103 -0.17325552 0.068558976 -0.17669064 -0.3900293 0.48694324 -0.12856966 -0.03636448 -0.12689294 -0.32507545 0.22857957 0.12768187 -0.19646926 0.22822754 0.16213831 0.031622298 -0.18923336 -0.23710617 0.19024287 0.22427014 -0.25673035 0.13140427 -0.21451 0.21987428 -0.2002344 -0.22270192 -0.19710101 0.16971776 0.22770968 -0.0782506 -0.1957826 0.10726967 0.18913868 -0.08541259 -0.22530551 0.2060055 0.18052906 0.23519126 -0.1392214 -0.1834791 0.028177448 0.3108287 -0.1546656 -0.28962278 -0.18632068 -0.14705342 0.1255563 0.211225 0.19849461 -0.07738853 0.22578861 -0.30397016 0.19900486 -0.15759535 -0.26236245 0.16928966 0.26587647 0.25642088 0.15514483 0.28875783 0.036442164 0.052952547 0.03105164
3622 0.07639355 0.12196396 -0.028358525 0.114946365 0.0779048 -0.17776647 0.050253216 0.29887626 -0.22220168 -0.19263007 0.015445148 -0.026522757 -0.036549676 0.29458016 -0.07573128 0.07914878 0.11403412 0.22718742 0.09428497 -0.06680115 0.04872228 -0.18896358 0.12564926 0.0075366907 0.068783 -0.1655643 -0.04931583 -0.12684602 -0.20792826 0.26852593 0.044817973 -0.13623376 -0.1655936 0.111344926 0.19788432 -0.010762527 0.09993343 0.048326936 0.020094845 -0.0725669 -0.055306435 -0.035020005 -0.09599152 0.044143856 0.009464371 0.1308013 -0.14269584 0.2634378 -0.22085299 0.21110459 -0.15755333 0.020206746 -0.043866947 -0.04488001 -0.1658213 -0.27212664 0.00046915506 0.26695308 -0.0110819815 -0.07558723 -0.061348796 0.08291585 -0.21595895 0.02074295 -0.14935005 0.15827194 -0.05264915 0.48330727 -0.07327258 -0.3114305 0.25120342 -0.20287843 0.47745404 -0.17556879 -0.15913202 0.14290626 0.36509046 -0.12533681 0.2767551 0.3065431 0.20023541 -0.25563726 -0.07365604 0.25456575 0.256115 -0.12369759 0.18617567 -0.23568316 0.157146 -0.1906785 -0.29203045 -0.24915302 0.23184152 0.12758245 -0.17750566 -0.22831124 0.20775092 0.051541626 -0.18561973 -0.10392649 0.22944157 0.22388084 0.25761843 -0.21971154 -0.22376966 0.18775302 0.1048621 -0.13784796 -0.22687972 -0.2015762 0.017990459 0.2533092 -0.04604181 0.10188534 -0.22736122 0.19497365 -0.19196941 0.24939708 -0.1775186 -0.20677447 0.019706314 0.13259558 0.051537108 0.33536062 0.18578716 -0.07971981 0.35217038 0.16938774
4087 -0.12564664 0.21501437 -0.12613294 0.13725057 0.36146536 -0.012752093 0.16488549 0.120012425 -0.18469585 -0.08030188 0.14776184 -0.101084664 0.14790866 0.12524284 -0.011353052 0.02856051 -0.121513106 0.15620844 -0.15906128 0.07980949 0.10299172 0.005413826 -0.076189145 -0.2104734 -0.25495058 -0.22755155 -0.24659023 -0.24820518 0.015256875 -0.14528935 -0.21494068 -0.08610272 -0.20256618 -0.10022018 -0.07594919 0.1917809 -0.007388861 -0.32809448 0.0866109 0.11531446 0.08611842 0.0004779361 -0.060764708 -0.22195633 -0.022543065 0.13073401 -0.044637963 -0.19028667 0.17157204 0.21679018 -0.084748626 0.2804096 0.16872792 -0.16466026 -0.26746064 -0.1400012 0.029209975 0.012400557 -0.004607189 0.0060528214 -0.050482806 -0.08998237 -0.22495641 0.20508315 -0.02045925 0.29308957 -0.1209807 0.2759107 -0.075809106 0.044521626 -0.16946208 -0.063721426 0.16316427 -0.19013502 -0.12714535 0.0692785 0.064611934 -0.2304643 0.1350345 0.13737588 0.25999263 -0.08587049 -0.11398791 0.11840686 0.1357459 -0.2501072 0.27735475 -0.26834297 0.30404705 -0.1781764 -0.18277043 -0.1193943 0.1488932 0.20491546 -0.11775648 -0.26881135 0.16720615 0.23953229 -0.09422369 -0.042942964 0.3163841 0.26324937 0.0370141 0.0052289036 -0.28373593 0.23245217 0.19886683 -0.18854018 -0.2929145 -0.08773293 -0.13109455 0.17622042 0.19830157 0.18979953 -0.23820902 0.24980827 -0.21531513 0.19682482 -0.14508153 -0.19220461 -0.0668377 0.034169305 0.07952707 0.30764204 0.25563046 -0.004734815 0.28713676 -0.05852301
23557 -0.026328914 0.10300816 0.040737085 -0.07115547 0.019710489 0.04365219 0.022810686 0.055421256 -0.010749379 0.11436497 0.018969096 0.05482475 -0.13474815 -0.054817896 -0.09640865 -0.09753759 -0.14459829 -0.15455452 -0.011277634 0.22925939 -0.08430201 -0.23948805 -0.03511198 -0.021788811 0.12390206 -0.033755336 -0.1079386 0.012278941 0.044223327 0.17416877 -0.15661919 0.03579128 -0.21268067 -0.022677844 0.14044254 -0.09237224 -0.09586848 -0.032077555 0.13298139 0.11246038 0.03584354 -0.06489807 -0.05604656 0.09429459 -0.24728733 -0.16546795 -0.01892568 -0.011827333 0.064808056 0.051355563 -0.03757922 0.0024141087 -0.12414464 -0.16607167 -0.06353798 0.052187968 0.14242071 -0.038882505 -0.12551089 -0.060587816 0.1753426 -0.0038381824 0.05264037 0.1397484 -0.083657034 0.2271485 -0.09671076 0.019770645 -0.16654417 -0.0976761 -0.21668464 -0.095911674 0.03184173 -0.17989832 -0.22647698 0.10345631 0.033163834 -0.16180761 0.13051364 0.30330366 0.16774176 -0.2554293 -0.14672868 0.099426255 0.17573205 -0.20734611 0.1406016 -0.18378963 0.28469723 -0.1879912 -0.14245203 -0.13785382 0.13826397 0.2331639 -0.21552327 -0.25427213 0.037485857 0.20207219 -0.108188145 -0.1848798 0.20776175 0.2080578 0.028383339 -0.0616273 -0.18490073 0.2025889 0.21611086 -0.22328615 -0.19946288 -0.06721433 -0.078377575 0.0852256 0.24155895 0.19043717 -0.17919108 0.3157625 -0.20852838 0.18127947 -0.08530805 -0.16587211 0.23746264 0.06913505 0.19967544 0.14971584 0.1811977 -0.07858013 0.13672625 0.14866053
5603 0.0886147 0.085527666 0.21762092 -0.0018998182 0.07208265 -0.15127963 -0.010444315 0.016682254 -0.027690632 -0.023502529 0.008780153 -0.030762684 0.12500057 -0.09502573 0.0318022 -0.02239769 0.09103052 -0.07174697 0.06298282 -0.030327432 -0.082851976 0.18040116 -0.0055144946 0.18205556 0.02240961 0.025754217 -0.12577419 0.05523022 -0.13738202 -0.07165145 -0.16101834 -0.059700456 0.034889657 -0.011119094 0.09430579 0.1004981 -0.023299158 -0.0055949506 -0.06618836 0.20404355 -0.001397593 -0.05429356 -0.04799122 0.106058374 0.058461905 -0.01427641 -0.08939342 -0.013211612 -0.00838725 -0.14281411 0.20888922 0.12316763 0.07857377 0.14233962 0.15481824 0.031576846 -0.051714182 0.083491035 -0.100330524 -0.021172231 0.15166007 0.14811191 0.18679668 0.091558814 -0.24007459 0.19582304 -0.122441314 0.18933392 -0.11520147 -0.0018304416 -0.024218906 -0.23164319 0.0029937916 -0.12422174 -0.13629492 0.21004565 0.0903229 -0.27188638 0.18172128 0.12532926 0.16223826 -0.1626235 -0.12009894 0.14437275 0.16354038 -0.25773266 0.19821191 -0.22689563 0.1663937 -0.17360663 -0.15564215 -0.19642898 0.1824105 0.2031604 -0.15654357 -0.27210596 0.16508971 0.33288467 -0.07785692 -0.15459299 0.13463895 0.18681513 0.073754705 -0.09647017 -0.2357647 0.20837073 0.17374636 -0.16168119 -0.154985 -0.1263797 -0.10404214 0.2207803 0.14567903 0.1708383 -0.15744637 0.15597484 -0.27341524 0.23212178 -0.29403958 -0.20558393 0.2098365 0.17870267 0.2125305 0.27514562 0.04691934 -0.0021728424 0.14674142 0.07725249
7157 0.079950064 -0.09593375 -0.01365413 0.10124438 0.16747525 -0.06253301 -0.18161298 0.0343103 -0.0060808538 -0.037556875 -0.036483385 -0.1609086 0.041197296 0.00016142307 -0.044463363 0.13813163 0.104853995 -0.031489287 0.016326852 0.08711078 0.042343557 -0.1583413 -0.018655628 0.15428573 0.17955135 -0.3020061 0.012797853 -0.049271856 -0.024767475 0.1098434 -0.07799803 0.074791275 0.049784698 0.038357165 0.16948837 0.096465304 -0.028735196 -0.21525672 0.14623728 -0.15581678 -0.26838458 0.012255881 -0.011338055 -0.03819059 0.10115565 0.16841504 -0.17470047 -0.016356148 -0.17406559 0.19737242 -0.17455369 0.024176346 0.106569536 -0.06801055 -0.10256002 -0.18114564 -0.11328679 0.070883594 0.0032122356 0.031626154 0.046910208 0.030373609 -0.020158742 -0.24289845 -0.18311875 0.11338666 -0.14932787 0.30010268 -0.029660968 0.1857784 -0.008883641 -0.16414322 0.117418714 -0.18289584 -0.11659661 0.045583405 -0.0152806835 -0.30155307 0.1787607 0.085026585 0.21057945 -0.1827018 -0.09299825 0.2238917 0.19020207 -0.3344498 0.1780883 -0.23791912 0.16821042 -0.17156415 -0.1435384 -0.2056807 0.27884567 0.08449753 -0.071607284 -0.24386631 0.1952565 0.13733418 -0.19577016 -0.256087 0.27754155 0.26310468 0.12954694 0.07054301 -0.19519857 0.17621624 -0.017941874 -0.23995917 -0.2700097 -0.05083674 -0.007300511 0.2842374 -0.22922678 0.16221331 -0.11854111 0.1794492 -0.31376344 0.2541878 -0.15284114 -0.13641904 0.15671521 0.058095455 0.10038608 0.112433955 0.22018266 0.069999784 0.12001049 0.016538892
5599 -0.089713976 0.17352615 -0.032075062 0.01169247 -0.11178868 0.035293758 -0.11525614 -0.22915478 0.003318289 -0.06619331 0.0029555594 0.0678274 -0.13259605 -0.23484954 0.13348944 0.044052366 -0.065119475 0.24579318 -0.2259268 -0.02877767 -0.29637197 0.2074818 0.13465405 -0.112990834 -0.07438396 0.02188641 0.17116539 -0.23331313 -0.14254098 -0.20922735 -0.20367433 -0.13381042 -0.12309304 0.22813542 -0.060112223 -0.013240223 -0.092147194 0.09837489 0.28214827 -0.041599274 -0.21412171 -0.141709 -0.058178917 -0.21084967 -0.1866455 0.08314469 0.026206898 -0.083654255 0.11507486 -0.007184088 0.02889596 -0.17798282 0.2633715 0.23904873 0.09173015 -0.1927836 0.3005828 0.14266898 0.011922162 -0.14804946 -0.06633132 0.20765653 0.076188795 0.12969317 -0.20867597 0.15267396 -0.20606692 -0.12542653 -0.15524428 -0.09618433 -0.20774376 -0.15510093 0.060973074 -0.06721895 -0.0584233 0.16880989 0.0502292 -0.2691399 0.23207514 0.16989674 0.32154843 -0.1588039 -0.11888157 0.09468016 0.2930923 -0.26743656 0.21874438 -0.33678004 0.23174582 -0.19572507 -0.16538385 -0.1297017 0.0917738 0.27772537 -0.1725027 -0.32933632 0.19316056 0.19644718 -0.09877213 -0.1994158 0.15607256 0.3163927 -0.08717352 -0.077788 -0.1859846 0.14188549 0.18072334 -0.19688268 -0.20840375 -0.094625555 -0.19059965 0.23229223 0.46629825 0.15300642 -0.25308928 0.117020726 -0.22732033 0.2400572 -0.17724085 -0.08416169 0.13661066 0.086180404 0.15415558 0.31259525 0.19371334 0.13804585 0.27106827 0.13745432
6464 0.18190494 0.0008278078 -0.13507153 -0.10313384 -0.2056533 0.1814535 0.046133347 0.016506555 0.3460585 -0.30657074 0.08619659 0.1830002 0.059258204 -0.058398355 0.11583181 0.083761245 0.1365452 0.2583399 -0.10767233 0.006732041 0.23633039 0.14080323 0.10829967 0.028408237 -0.08685891 0.2121223 -0.18947019 -0.048228238 -0.10641402 -0.13581744 0.2325975 0.12421557 0.0980856 -0.076675266 0.0032431933 -0.2502625 0.23271321 -0.034573674 -0.06113953 0.073702596 0.19122024 0.032024235 0.2872925 0.044141963 -0.41215697 0.027845863 0.050584015 -0.1340303 0.06763428 0.04410187 0.021272382 -0.07846455 -0.10459341 0.1577506 0.18966918 0.042181585 0.37363997 0.1712621 -0.10715373 0.27512914 -0.07109261 0.19473405 -0.032148827 0.003873387 -0.049529493 0.22999035 -0.3013688 -0.33044183 0.021599397 -0.21039884 -0.040382795 -0.013067678 -0.07602274 -0.17757836 -0.13708141 0.14366937 0.3238205 -0.27581504 0.21674316 0.24352497 0.1402846 -0.1292961 -0.13513532 0.1576046 0.25291997 -0.23571844 0.12531488 -0.3475224 0.30357975 -0.21746364 -0.14910904 -0.20783572 0.137983 0.25710753 0.032760266 -0.11784681 0.16276215 0.09386809 -0.13591836 -0.13419768 0.22362366 0.17005959 0.20724225 -0.045064 -0.22383364 0.17744642 0.28363648 -0.27517232 -0.23205255 -0.28774282 -0.23417397 0.11009916 0.5482118 0.23323382 -0.11266687 0.20725797 -0.23756883 0.23524396 -0.1696255 -0.11266196 0.09014131 0.11652253 0.22674899 0.21430078 0.2320669 0.0655148 0.060994558 0.31477484
5300 -0.07248319 0.16273792 0.04727596 0.19071862 0.13965967 -0.03354264 -0.09596935 0.08408962 -0.1154465 0.030702643 0.113380335 0.107722335 0.2255513 0.1707015 0.12560825 -0.10665408 -0.111764945 0.009185968 -0.07997783 0.06280537 -0.12177995 0.009756266 0.044296727 0.053410325 -0.096104264 -0.18890056 -0.2505346 0.052178256 0.0691744 -0.09842096 -0.11274031 -0.1494007 -0.06440878 0.13897382 0.015866086 -0.036820643 0.0489868 -0.018348312 0.12476625 0.13255954 -0.071336925 0.1396777 -0.08014866 -0.04761248 0.06270236 0.17132379 0.12343218 -0.15204956 0.043693643 0.06258415 -0.014545839 -0.0020910322 0.13721573 0.08720815 0.015410914 -0.005521605 0.1300221 0.020686926 0.09386986 -0.085169554 0.26631162 0.10467789 0.15172742 0.110981025 -0.09345456 0.2387707 -0.24006842 0.16685139 -0.08701059 -0.18549778 -0.05243394 -0.058303338 0.25472575 -0.20910883 -0.14480521 0.21544242 0.15841234 -0.17319131 0.11286763 0.21878724 0.29579917 -0.19057907 -0.10409053 0.11974774 0.16825515 -0.16167116 0.24412867 -0.15832637 0.26119587 -0.23627612 -0.27653033 -0.17779408 0.13887292 0.1694312 -0.13325411 -0.30838817 0.101656094 0.17722003 -0.094176576 -0.14750014 0.23434666 0.20632069 0.047948796 -0.05877373 -0.20887943 0.22084807 0.007983911 -0.24283731 -0.23554002 -0.15510048 0.023284446 0.21297336 0.2589914 0.16171154 -0.18201926 0.21205959 -0.2505498 0.19000295 -0.10694112 -0.074736334 0.16503511 0.14597228 0.11223901 0.2702913 0.23190491 -0.04513809 0.23059383 -0.040467013
4303 -0.1367951 0.12594688 -0.118926406 0.124129094 -0.05124884 -0.21814208 -0.016997783 -0.03954168 -0.1746187 0.033743437 0.030290712 0.08992388 -0.018132476 0.14655788 0.014429642 -0.16919774 -0.01852427 0.096318826 -0.11730239 -0.03137231 -0.071409576 0.0765179 0.10378996 -0.0888438 -0.094416596 -0.1351633 -0.03890191 -0.08301421 -0.02357656 0.05442818 -0.04722662 -0.1290284 -0.030855035 0.2543638 -0.076133855 0.16565886 -0.16726032 0.14393687 0.12771943 -0.07603907 -0.025821429 0.14571492 -0.11664645 -0.0671149 0.08185477 0.011036802 -0.015389209 -0.02644807 0.00053274096 0.05795851 -0.08491611 -0.024818473 0.23949711 0.016457556 -0.16825794 -0.13539222 0.04591762 0.19668196 0.16288958 -0.0142793795 -0.0368868 0.03236726 -0.06334306 0.0347919 -0.21246992 0.12174794 -0.17853792 0.08762707 -0.016846176 -0.048354797 -0.027919242 -0.17541918 0.11789953 -0.20873539 -0.053508554 0.21833234 0.20032723 -0.2190468 0.26092848 0.18336259 0.3995178 -0.18141416 -0.09183872 0.20750508 0.11047842 -0.21559459 0.217634 -0.20238599 0.18117143 -0.23974028 -0.20964774 -0.25931042 0.21843983 0.10798411 -0.14002693 -0.12495803 0.25846013 0.049790367 -0.14517152 -0.1263564 0.1525658 0.3054297 0.029204125 -0.14691487 -0.17364265 0.18313105 0.049115393 -0.22713792 -0.24401982 -0.25724795 -0.16319238 0.24179319 0.1022157 0.24177852 -0.2639215 0.0964488 -0.30459622 0.26782617 -0.11404426 -0.14049038 0.029910414 0.22513157 0.1430173 0.30505773 0.24433285 0.041718263 0.36539295 0.17666739
7531 0.30884343 -0.069764026 -0.03468733 0.12626155 -0.1947435 0.1259126 -0.1424535 -0.09352621 -0.012725147 0.03616915 0.07405866 0.21078335 -0.23730545 0.014226289 -0.04084165 -0.06260139 -0.05521796 -0.10880297 -0.07103687 -0.06980991 -0.08550153 0.04555461 -0.026270576 0.27923506 -0.0034637742 0.031027904 0.3559818 0.065805785 -0.06538867 -0.1087993 -0.027098047 0.15636817 0.22111051 -0.13925186 0.009302187 0.07576207 0.041713927 0.320237 -0.2904315 0.095817424 -0.08573767 -0.041620642 -0.030998224 0.029523857 0.13992114 0.09142887 0.0056406776 -0.13754462 -0.06397577 0.14676477 0.1394041 0.14966878 -0.08407427 0.020970562 0.06275027 -0.3333834 -0.05042 -0.06071858 0.07662147 0.23121424 0.1480593 0.025565162 0.036275998 0.34766892 -0.17024094 0.17960434 -0.2242149 0.012631042 0.024782635 0.009259204 -0.021161772 -0.13249144 0.035712354 -0.15230268 -0.250919 0.0641962 0.19250214 -0.32808015 0.251435 0.051119603 0.24872519 -0.11977707 -0.25108862 0.22741602 0.15048236 -0.29407284 0.19317494 -0.22633198 0.20114478 -0.12526856 -0.03407358 -0.102279596 0.2274543 0.14029941 0.017541524 -0.25566816 0.22041187 0.1570755 -0.15179452 -0.21299827 0.23172759 0.15782544 0.032749154 -0.043877676 -0.26553962 0.17262788 0.1359488 -0.22526306 -0.21038501 -0.1469907 -0.24510084 0.21460082 -0.0745475 0.20785855 -0.00055748253 0.30202472 -0.19161814 0.24764557 -0.22778164 -0.23564357 0.18840031 0.13742831 0.14539473 0.058869258 0.23304959 0.20142154 0.09320762 0.07600907
678 0.2409686 0.13028418 -0.107375704 0.10664674 -0.15244292 0.0402618 -0.09334029 -0.14306597 0.016428411 -0.04627832 0.08610437 -0.006013756 -0.14340103 -0.014475922 -0.047652602 -0.092199326 0.041103378 -0.06061861 0.024606971 -0.15911545 -0.07493842 0.01984553 0.06205164 0.040753283 0.16216919 -0.040284354 0.08451353 0.14921929 -0.23353836 -0.12402677 -0.0802295 0.090355806 0.060825154 0.051547606 0.08008533 -0.09737025 0.14842723 0.060338497 -0.11840682 0.034099903 -0.029410299 -0.12767184 0.008369475 0.07325992 0.13155569 0.1049816 0.079380214 -0.018327827 0.044163737 -0.02014378 0.13626185 0.105645776 -0.032663256 0.00811728 0.1441663 0.027677882 -0.12363597 -0.054886986 0.04971234 0.18152207 -0.033364918 0.016873237 -0.0030180134 0.1500262 -0.18013397 0.15470189 -0.1556981 0.107789256 -0.14307398 -0.007916725 0.13488287 -0.16815238 0.16266237 -0.08556896 -0.23572305 0.12088096 0.22740415 -0.23200506 0.1926608 0.05117776 0.20169313 -0.17546181 -0.2079577 0.2066054 0.09436965 -0.16544056 0.1379507 -0.17953831 0.18124695 -0.18149449 -0.007976606 -0.09732367 0.21470761 0.1564106 -0.1012117 -0.16229011 0.1528064 0.20050529 -0.18152037 -0.1559191 0.1136113 0.108711004 0.2018261 -0.041057393 -0.13077465 0.1826073 0.22857283 -0.17956127 -0.21405867 -0.19900317 -0.3329202 0.14199568 -0.08038112 0.20453988 -0.13965255 0.17900054 -0.11557457 0.16695794 -0.20060839 -0.12876433 0.19182368 0.1508259 0.20389473 0.058152407 0.17651689 -0.004704145 0.1406362 0.2989356
3981 -0.18794534 0.17882395 0.03680416 -0.010024713 0.0100125605 0.021902801 0.061842583 -0.18429819 0.04409187 0.062915765 -0.050163902 -0.20624796 0.0325477 0.07412639 0.03420117 -0.16212535 0.11947166 -0.19432114 0.09056044 0.052738924 -0.15037346 -0.038773376 0.075378984 -0.108222365 0.0126244575 0.11614892 -0.12471641 -0.06303245 0.14375395 0.07277173 -0.10434744 0.050825108 -0.025777062 -0.09629698 0.27595127 -0.020730441 -0.091400236 0.0777209 -0.015453005 0.034856003 0.0015055333 -0.030280836 0.0037452858 -0.044908483 -0.21276446 0.030456042 0.005834441 -0.1537315 0.29072428 -0.12288843 0.06979703 0.16085257 -0.079478584 -0.04237832 -0.014629283 0.15802787 -0.16961527 -0.01950843 -0.06516719 -0.19536442 -0.20955995 -0.018880593 -0.07939089 0.14006749 -0.16081531 0.21209773 -0.19210432 0.24944814 -0.08366937 0.025170172 -0.04075685 -0.2235111 -0.034764424 -0.20314777 -0.21814851 -0.029397022 -0.019811457 -0.26086417 0.20151764 0.10782252 0.23517348 -0.15994607 -0.17179257 0.15441209 0.15851134 -0.30800834 0.104237996 -0.24596156 0.07985547 -0.15832365 -0.016007919 -0.18373497 0.19226284 0.16609837 -0.17355621 -0.23844388 0.1014116 0.16496989 -0.17513654 -0.13679402 0.15593897 0.19970979 0.081769 -0.21420254 -0.23133442 0.13032301 -0.016530594 -0.24646078 -0.19877931 -0.061463833 -0.14216316 0.142573 0.18328352 0.14703187 -0.20480467 0.17023222 -0.2421054 0.22294605 -0.13157418 -0.10652121 0.12541872 0.2523593 0.25378966 -0.059264835 0.16327423 -0.09955588 0.13108642 0.18322244
1278 -0.09782721 0.055216167 0.13303404 0.052042373 -0.1017155 0.20147666 0.0068783197 -0.059905276 -0.026864262 0.13021739 -0.073589936 0.11103514 -0.11731517 -0.07994072 0.12944588 -0.12257116 0.1504911 -0.010042248 -0.14180963 0.12119984 -0.028829819 0.038792197 0.08962617 -0.015598299 -0.00808443 0.07024179 -0.19334248 0.06448554 0.14413202 0.10526959 -0.120451055 -0.07442359 -0.24527846 0.0232517 -0.082992546 -0.09512722 -0.08540775 -0.099352516 0.076733045 0.02983469 -0.09551278 0.1123308 -0.12003937 -0.013270531 -0.122666694 -0.13269463 0.14135495 0.105425686 0.18296455 -0.041620854 -0.11785463 0.14212294 -0.1150846 -0.13024989 0.055242397 -0.050192446 -0.03382113 0.05857171 -0.019944038 -0.25389227 -0.20285715 0.14641412 -0.167371 -0.028471038 -0.10821072 0.1929164 -0.1262702 0.043725237 -0.17886631 -0.05035568 -0.08746264 -0.29376367 0.01842395 -0.13233596 -0.24850893 0.116394006 0.20018242 -0.26220784 0.17970303 0.16952588 0.14259219 -0.12856242 -0.21154729 0.13447684 0.17605117 -0.15116571 0.13909672 -0.1796233 0.1424716 -0.117844984 -0.10308569 -0.12926972 0.09564954 0.17363453 -0.08959882 -0.17950515 0.15050574 0.17653708 -0.18191738 -0.18728352 0.13835119 0.27073213 0.09371261 -0.15374297 -0.12480687 0.11647657 0.1577431 -0.18276578 -0.14600103 -0.030702202 -0.21763521 0.09909075 0.20646061 0.24239773 -0.166397 0.16298309 -0.24068893 0.14365429 -0.17023642 -0.10119365 0.14008881 0.19230004 0.13603239 0.0766438 0.11348786 -0.36578774 0.08593648 0.23217416
4209 0.22794534 0.117974214 0.08186857 0.07266569 0.04604625 -0.057336256 -0.06262476 0.21873781 0.03462911 -0.26852405 0.08494568 0.03707466 0.20359018 0.013262804 -0.036090743 0.008287677 0.124392375 0.206997 0.025271058 -0.027853059 0.10503807 0.069732904 0.21593536 -0.10848355 0.06148581 -0.023874652 -0.106003985 -0.09708344 -0.07235946 0.05025902 -0.020212963 -0.12763272 -0.26160422 0.22140403 0.12631653 -0.020658571 0.19340259 0.08252483 0.2567455 -0.17535086 -0.2745641 0.101582535 -0.2026077 0.071677566 -0.029737543 -0.0672036 -0.05698485 -0.04265171 -0.11971348 0.12782948 0.082152374 0.1356183 0.038263705 0.16766423 0.02865302 -0.0734026 0.093485475 0.3603495 -0.072389595 0.08191181 -0.04006409 0.09223585 0.13731094 -0.25462547 -0.10964512 0.15265875 -0.028806448 0.22258486 -0.13016154 -0.22332609 0.090993404 0.015477321 0.18383479 -0.11772304 -0.18912584 0.25420842 0.28893104 -0.20589766 0.2623502 0.27634612 0.2682109 -0.11423039 -0.16646141 0.23337828 0.22864921 -0.24402739 0.15065579 -0.24327107 0.16680059 -0.2749549 -0.4029566 -0.26162544 0.24284789 0.17623666 -0.30998334 -0.096018314 0.100594714 0.0016889356 -0.2266158 -0.095966764 0.19392654 0.14007626 0.20567323 0.11049317 -0.20935613 0.17118816 0.09785693 -0.19801182 -0.2733405 -0.23499882 -0.048040137 0.26136625 0.13456732 0.16077538 -0.1879575 0.13115783 -0.20992884 0.20080256 -0.22184707 -0.14968745 0.00482703 0.25899443 0.1295908 0.35383686 0.21570367 0.043640595 0.14931782 0.14310767
2771 0.20370516 -0.06082063 0.07488066 -0.0068513486 0.04033962 0.038810365 0.22013836 -0.06891284 0.28684506 -0.073288396 0.046980858 -0.12013046 0.096508175 -0.12037643 0.003838454 0.098206766 -0.120341636 0.031636376 0.12171799 0.081680834 -0.14124604 0.18874033 -0.02536335 -0.0046743527 -0.006986643 0.23406957 0.030346684 -0.062204055 0.23400308 -0.06852713 -0.14909798 0.25482658 0.063860916 0.02506827 -0.031145932 -0.030283961 0.16095422 -0.034606308 -0.20753233 0.29004744 0.233816 0.046967264 -0.036759537 0.18304606 -0.0149972895 -0.1597899 0.10689783 0.048497867 -0.22782151 -0.16985573 0.025669387 0.05754925 0.04460355 -0.062744625 0.26740122 0.09813384 0.10655858 -0.15605414 0.0036281715 0.0761895 0.20167474 -0.15718168 0.26809898 0.09157151 -0.21528538 0.16706327 -0.11872987 0.0096731195 -0.11215006 -0.14299409 0.42460346 -0.025697824 -0.035207044 -0.17904642 -0.182853 0.060923517 0.14024799 -0.2750342 0.2406369 0.1445965 0.084912665 -0.16722834 -0.28640634 0.1566645 0.19828595 -0.17525128 0.13264535 -0.2769912 0.2286722 -0.04044611 -0.071585774 -0.15455453 0.2211579 0.17990454 -0.058019787 -0.19692352 0.19091573 0.10343497 -0.14723875 -0.16917771 0.0928686 0.20628841 0.14875257 -0.12142796 -0.2384558 0.08615186 0.32304463 -0.1542474 -0.15988825 -0.099178776 -0.09550625 0.14015028 0.12375714 0.26055694 -0.054897554 0.23933907 -0.20204905 0.2847611 -0.28579345 -0.16606599 0.22146575 0.119175486 0.36562672 0.19348879 0.20381325 0.042701885 0.01986377 -0.001485446
5581 0.11992948 0.293027 -0.06550586 0.13700087 0.06278127 -0.036392182 -0.013465225 0.12794422 0.11649992 -0.081598684 0.18038997 0.26290265 0.09056643 -0.09363454 0.18404922 -0.06953195 -0.06790917 0.21127687 -0.10394259 -0.3302781 -0.1243985 0.104121454 0.043857384 0.12445236 -0.023671258 0.0064934697 0.04684155 -0.31006807 -0.14894491 -0.16292194 -0.13547051 0.096563816 0.08212598 0.020782234 -0.005320579 0.0064065102 0.13699827 0.030514471 -0.096356474 0.27541062 0.042243257 -0.14051157 -0.10361286 -0.09324679 -0.13290252 -0.102032185 0.34528914 -0.1830701 0.13201772 -0.04749203 -0.012623053 0.08136071 0.0675756 0.07780273 0.13734646 -0.0010334066 0.07517862 0.14357102 -0.096685745 0.18710634 0.030969024 0.13958184 0.11977413 -0.027492426 -0.21969363 0.17981704 -0.14701694 -0.22799703 -0.2306015 -0.20753087 -0.079733364 -0.12900898 -0.028862257 -0.12996994 -0.1144269 0.11128889 0.16468146 -0.27723828 0.16325527 0.034128405 0.13916494 -0.12806961 -0.17187041 0.14894652 0.14130825 -0.2136549 0.16206676 -0.25150853 0.18072647 -0.16592781 -0.096701354 -0.21198976 0.18327542 0.1676298 -0.032809813 -0.25551608 0.14555936 0.22438683 -0.066442676 -0.23237114 0.26983145 0.2956068 0.16239613 -0.118844464 -0.22409499 0.11310167 0.39640892 -0.16424784 -0.28259704 -0.15304738 -0.29340786 0.20297873 0.4885454 0.21171415 -0.10186187 0.14216304 -0.28471994 0.19122542 -0.24848627 -0.051762696 0.29360622 0.070539296 0.19282392 0.36553648 0.27598625 -0.0740755 -0.0051984256 0.016136166
7186 -0.019405758 -0.035528462 0.15328558 0.106386095 -0.114310026 0.23846522 -0.103855714 0.17953011 -0.09565265 -0.12817748 -0.10184084 0.2660582 0.057807587 0.15889238 0.05525617 0.22196081 -0.30628428 -0.10734359 -0.017251462 -0.058723863 -0.15459684 -0.1767859 -0.026060792 -0.038218692 -0.27520406 -0.10743756 0.30229664 -0.19112417 0.08821134 0.15918778 0.20140651 -0.045771472 0.19390918 -0.12705548 -0.26097897 0.028337115 -0.24263862 0.10453419 -0.14475086 0.0006273151 0.07799941 0.112204365 -0.12723745 0.056759983 0.11496299 0.28452212 0.07853645 0.01993902 0.2142795 -0.16985784 -0.13219772 -0.3987786 0.013816553 0.03681 0.11648533 0.030684443 -0.14708719 -0.31841287 -0.16064702 0.013612815 0.13856122 -0.07016929 -0.04701903 -0.04383679 -0.3598712 0.18751338 -0.12463081 -0.098996125 -0.14766836 0.13366497 -0.2827699 -0.15807372 -0.077581994 -0.29778993 -0.15540357 0.110564634 -0.05052746 -0.27480623 0.18387295 -0.043993164 0.1744988 -0.1618253 -0.19321622 0.113215 0.18080398 -0.28334194 0.29964647 -0.27246 0.22177689 -0.23381436 0.16975045 -0.144498 0.2239827 0.21595676 -0.14948682 -0.273091 0.16615118 0.034576237 -0.21091376 -0.2144593 0.24495888 0.16178809 -0.08916755 -0.24808542 -0.24322906 0.1805552 0.067169435 -0.25589535 -0.29419956 -0.047681063 -0.20416075 0.289028 -0.33073714 0.2533446 -0.04543254 0.11955792 -0.2282661 0.22869138 -0.16666979 -0.19037592 0.10776187 0.09424945 0.1720736 -0.046462182 0.28645918 0.02517633 0.09714559 0.08370404
5594 -0.025560366 0.10396258 -0.25023395 0.12623723 0.01780117 -0.035463806 0.1658872 -0.088164635 -0.036243256 -0.032395806 0.062691756 0.16356406 -0.04717589 -0.17976272 0.17231506 -0.1484043 -0.15371013 0.23080486 -0.14809923 -0.048227366 -0.17373216 0.15332471 0.07995478 -0.04603028 -0.10930771 -0.021459976 0.028505042 -0.13605249 -0.10716935 -0.23912695 -0.3771807 -0.09052616 0.007046875 0.02743499 0.017319435 0.005726213 -0.029368423 0.017879292 0.187768 -0.060502723 -0.07517442 -0.12137471 -0.020850673 -0.1231342 -0.21272933 0.14108941 0.076446 -0.11243971 0.13059445 0.11512007 0.049061842 0.09092453 0.2388711 0.4295756 -0.039620943 -0.06461317 0.13881104 0.1009613 0.24539477 0.120859854 0.24150658 0.14991394 0.2546697 0.023849815 -0.059488453 0.15835793 -0.23231179 -0.19232318 -0.07163698 -0.23639195 -0.22964448 0.0014352339 0.06326562 -0.041747116 -0.0499381 0.1814365 0.18522619 -0.26026312 0.24491327 0.1491526 0.25097743 -0.14912596 -0.10561131 0.12694691 0.20248619 -0.25598833 0.2765959 -0.26996416 0.15084457 -0.18747261 -0.3589173 -0.14418218 0.119300865 0.2118967 -0.14113514 -0.2870541 0.15003106 0.17984591 -0.2551127 -0.16475053 0.2721765 0.31935734 -0.079284705 -0.03515499 -0.24246489 0.17544065 0.17343539 -0.21064365 -0.20877972 -0.15740317 -0.16231917 0.20502906 0.60662 0.11069969 -0.13847438 0.10712244 -0.29066354 0.2160151 -0.27172455 -0.09907213 0.020258192 0.1206434 0.20100166 0.21367458 0.24476434 0.047787968 0.049293164 0.031560265
208 -0.19355226 0.37014922 -0.072860144 0.1343197 -0.07640221 -0.095301285 0.0632651 -0.21884812 -0.0005943838 -0.10139408 0.023688406 0.067636535 -0.303547 -0.024806978 0.14729871 0.111358024 -0.12332829 0.047444742 -0.22272038 -0.009795724 0.08323902 0.078063525 -0.050329298 -0.026709333 -0.053468764 0.016921328 0.23712191 -0.118574746 -0.0047617974 -0.13658257 0.15506181 0.16155268 0.053659488 -0.15576428 -0.11660839 0.18851171 -0.15288323 0.13116921 -0.027787428 0.07793514 0.11078269 0.021627158 -0.21378574 -0.18590377 0.19081916 0.17151211 -0.06734243 0.016285565 -0.022814702 -0.041617386 0.2181333 0.17411242 0.18312673 0.09631484 0.023731014 -0.111841485 -0.086452104 0.0023441394 0.001934445 0.09025237 0.0394611 0.079314776 -0.042038593 0.010454863 -0.21955271 0.13702253 -0.22899799 -0.24929881 -0.22255616 0.09406811 -0.1445183 -0.14927064 0.02675491 -0.13067226 -0.09118735 0.046018418 0.009217506 -0.26642615 0.13894197 0.066179655 0.31182143 -0.1785581 -0.12893808 0.17206678 0.16957134 -0.32959348 0.25598618 -0.2501256 0.13043788 -0.1363468 -0.049022827 -0.17446238 0.23316644 0.07722022 -0.06733542 -0.23750539 0.16979893 0.11688804 -0.2801445 -0.1113826 0.293832 0.21211055 -0.032344166 -0.17725743 -0.26428863 0.14830944 0.08300545 -0.16409796 -0.22927688 -0.14735435 -0.33248255 0.16443732 0.32199466 0.08804743 -0.17446439 0.2577164 -0.3378041 0.31286368 -0.22804268 -0.18345185 0.16978562 0.11763603 0.065273136 0.19571076 0.25007856 0.054773238 0.19488674 0.06782494
9545 -0.072121724 0.05756308 -0.0913301 0.12888308 0.0021302868 -0.067244925 0.029366067 -0.1212026 -0.02918145 0.041787528 -0.10039757 0.035561327 -0.1705695 -0.026887171 0.03444423 0.055471905 -0.082188725 0.051164426 -0.01610121 0.022702148 0.012094526 0.1337555 -0.036517948 -0.008255111 -0.0813693 0.0657224 0.0023238398 -0.117972195 -0.020165209 -0.067783326 0.053578902 0.057555128 -0.07213686 -0.088646665 0.02990974 0.059340745 -0.20574968 0.053885903 0.05243304 0.034855105 -0.009401846 -0.006476352 -0.0900868 -0.06588379 0.13317932 0.09924171 -0.1274679 0.00037843315 0.0100901015 -0.024674658 0.07836565 0.018578175 0.076070845 0.054297622 -0.007618969 -0.11216639 -0.035873875 0.05689865 0.028239558 -0.019273955 -0.049578946 -0.05332216 -0.09106942 0.099614844 -0.18328883 0.11949334 -0.20183791 0.023093777 -0.24352959 0.0019036315 0.048989337 -0.2419076 0.19312462 -0.08856323 -0.15783215 0.16640489 0.10741683 -0.15728183 0.10683924 0.13042593 0.23926638 -0.21701102 -0.15195034 0.1481227 0.121422544 -0.15068842 0.2443761 -0.11723045 0.14123917 -0.068319805 -0.09453263 -0.18600579 0.119243614 0.058463898 -0.17287008 -0.19347079 0.10271123 0.13515602 -0.2807028 -0.14569525 0.10892677 0.1443701 0.072398014 -0.16653442 -0.18699482 0.15281484 0.12510464 -0.12986885 -0.11851868 -0.14409912 -0.18783495 0.15603746 0.17406431 0.15230842 -0.13625571 0.1485631 -0.20311706 0.22042146 -0.12176882 -0.16608316 0.26479414 0.14836033 0.12626287 0.15338379 0.19254784 -0.14564885 0.25375432 0.24528576
4086 -0.02839564 0.13887271 -0.17925616 0.08447839 0.22542861 -0.19016482 0.11440027 0.16745874 -0.11280359 -0.076857515 0.034419607 -0.016567566 0.006585803 0.00058340054 -0.018431583 0.13338956 -0.1994584 0.19758376 -0.19720478 -0.082695454 0.29964176 -0.16607752 -0.08956776 -0.27650136 -0.09983863 -0.09156181 -0.19347037 -0.24019681 0.07054803 -0.1887883 -0.05651197 -0.15868421 -0.18111955 0.008672537 -0.10432687 0.24199677 -0.07841517 -0.23940085 -0.023434203 -0.015190961 -0.0536643 -0.0023469485 -0.058068596 -0.06898843 0.201469 0.12354152 -0.15403323 -0.033613898 -0.09663738 0.2980444 -0.0398256 0.20001519 0.041107908 -0.175576 -0.31225628 -0.07870231 0.001026482 0.10665241 0.18208578 0.10830423 -0.21199009 -0.007716571 -0.25218448 0.13076174 -0.07780206 0.25240177 -0.09412077 0.29836726 -0.12217886 -0.14497294 -0.045173693 -0.07213902 0.30472213 -0.13480836 -0.12257668 0.013855805 0.20848194 -0.15290526 0.23298849 0.07189196 0.22806701 -0.102575526 -0.15749237 0.116713606 0.19626096 -0.2722526 0.21643604 -0.14991274 0.26894876 -0.20663244 -0.18740343 -0.09835973 0.19105697 0.16062728 -0.16265605 -0.2881341 0.17052236 0.0710085 -0.1487918 -0.15237588 0.34988296 0.2769348 0.06766842 0.018363321 -0.31099758 0.2794302 0.09469833 -0.25818318 -0.18774855 -0.18207057 -0.039096408 0.1756641 -0.15877092 0.16926242 -0.22122374 0.112279154 -0.23205443 0.19758008 -0.111487806 -0.12448413 -0.007931313 0.19627798 0.04517302 0.2334949 0.18634772 -0.16150175 0.28678668 -0.07705996
58533 -0.15803854 0.17286037 -0.13644938 -0.06785058 0.061921604 0.06705904 0.1474977 0.09925537 0.1569118 0.008276304 0.016428187 0.02790008 -0.11235093 -0.18021952 0.01928208 -0.016161544 -0.046306234 0.2299958 -0.14757086 0.15208851 0.09909652 0.072611466 -0.08315295 -0.070410326 -0.12193614 0.10375464 0.07889466 -0.22640027 0.21975808 -0.069275886 -0.045561153 -0.034995873 -0.045894362 -0.016943546 -0.030958427 0.023770213 -0.024811292 -0.12525976 0.04622448 0.081660874 0.16208403 0.113649264 -0.008563175 -0.11668855 -0.008351329 0.06717283 0.13872936 -0.030862223 -0.022015853 0.25888985 0.012457991 0.040281538 0.004169361 0.023484282 0.059907865 -0.2052761 0.2175923 0.15073879 0.2831034 0.009193558 -0.07413896 -0.17217003 -0.2188808 -0.054120768 -0.07177462 0.1875123 -0.180963 -0.048274122 -0.24261156 -0.16688919 -0.13928793 -0.13626127 0.35372287 -0.1615498 -0.17669196 0.08701824 0.13742791 -0.17070688 0.12540062 0.05262359 0.16706473 -0.14435522 -0.1444512 0.12136725 0.1742233 -0.23705721 0.23721582 -0.17874233 0.14857595 -0.23645708 -0.11907955 -0.13957018 0.13169982 0.2233522 -0.18839532 -0.20845644 0.2144021 0.025491687 -0.12441383 -0.16225709 0.16779174 0.18658504 0.09222533 -0.21019405 -0.22743899 0.22201462 0.32576293 -0.118368655 -0.18418904 -0.29258046 -0.12582347 0.21275803 0.17457153 0.28944802 -0.2477061 0.17703293 -0.25477526 0.1800747 -0.17412095 -0.093190916 0.065534785 0.089186266 0.1730536 0.2665846 0.16663732 -0.087760404 0.09913443 0.10684808
6809 -0.15219477 0.0028077264 0.033402257 -0.10071375 -0.07442235 -0.040731143 0.1678467 -0.18173379 -0.25143546 0.16538952 0.060991805 -0.094685815 -0.22065184 -0.14595719 -0.22933225 -0.04080475 0.101368584 -0.31021127 -0.13602453 0.20293029 0.06342846 -0.25535065 -0.1747591 -0.30860063 0.1521817 -0.11106878 -0.19607377 0.020901475 0.12311017 0.005773772 -0.21222879 -0.08575637 -0.08852724 0.09524657 0.058157526 -0.17446841 -0.17458126 0.034868155 0.0462306 0.08231744 -0.17789166 0.1857116 0.19267091 -0.089338735 -0.08012474 0.02338691 0.114029 -0.11947487 -0.10004748 -0.1305657 -0.054862197 -0.07849498 -0.09460945 0.059719592 -0.057183497 0.011912004 -0.25371182 -0.15834744 -0.032993045 -0.15349525 0.026439877 -0.016148608 0.11239231 -0.14040375 -0.11834698 0.23066232 -0.11140564 0.034914885 -0.14411421 0.07060743 0.10672583 -0.07239098 0.00023850705 -0.2868107 -0.23966937 0.054819085 -0.06273952 -0.26796037 0.25778353 -0.02363588 0.18345362 -0.22958313 -0.14510088 0.1736732 0.2311937 -0.2322448 0.20036478 -0.14430565 0.10596212 -0.21377817 -0.053106688 -0.2408263 0.17233838 0.11751316 -0.226166 -0.18904378 0.19757998 0.22629473 -0.20559597 -0.13019127 0.24008289 0.20891725 0.043461442 -0.037043467 -0.24770609 0.1838969 -0.08159066 -0.16689485 -0.06119329 -0.07153991 -0.01146019 0.06202177 0.09636963 0.23363057 0.06141143 0.15580909 -0.22965886 0.2416259 -0.09106015 -0.285343 0.1463914 0.08584176 0.25300503 0.0905228 0.18764202 -0.043413054 -0.009984851 0.25684765
3643 0.08000374 0.21446706 -0.089041896 -0.0029958123 -0.07495396 0.20316678 0.1511492 -0.012673229 0.21785204 -0.19270304 0.19947234 0.22592779 0.019144177 -0.17907116 0.0755752 -0.103296235 0.028472222 0.3019502 -0.093299225 -0.02337556 0.22612114 0.25381055 0.033645015 -0.00091056153 -0.08978625 0.020597886 -0.1736123 -0.179421 -0.13199572 -0.071441814 0.09169089 0.11291077 0.039859958 -0.07980373 0.019502034 -0.23928855 0.14249071 0.04661674 -0.076611474 0.13294673 0.24044451 0.00491325 0.22486782 -0.022351217 -0.29797 0.11097611 0.18174995 -0.06447083 -0.047524214 0.046121597 0.008141371 0.21709098 0.07720166 0.14413676 0.2752027 -0.018704044 0.20409599 0.09809052 -0.042057093 0.17286627 -0.17988025 0.15466312 0.020481365 0.13000558 -0.07794499 0.20829019 -0.2616458 -0.34302452 -0.16897698 -0.3143187 -0.2704201 -0.023432028 0.1477014 -0.09057009 -0.11646853 0.033155866 0.39222437 -0.2477094 0.18348275 0.21976674 0.12017612 -0.13680793 -0.21460855 0.13347097 0.20402046 -0.1751774 0.30223662 -0.2808256 0.31113467 -0.1747999 -0.24787764 -0.14550391 0.18312928 0.14892554 0.09594646 -0.19814596 0.22980365 0.21097277 -0.09441417 -0.1201167 0.14539073 0.16045779 0.103004925 -0.057590347 -0.25997478 0.20489925 0.410774 -0.1392029 -0.1710641 -0.2524839 -0.34506 0.18129842 0.5476823 0.3022562 -0.2172747 0.3051089 -0.22114792 0.10306441 -0.2705097 -0.14617316 0.14594993 0.051133305 0.1732298 0.29278243 0.27800143 -0.09572631 0.10697295 0.1488895
5580 0.13346209 0.27348107 0.06838788 0.08055934 -0.040241543 0.09373787 -0.18723573 0.18254165 -0.004659101 0.09418571 0.10984602 0.2770841 0.03311273 -0.1488552 0.15181449 -0.06993448 0.035526194 0.15400605 -0.08493305 -0.25080287 0.0394824 0.0401155 0.15650587 0.2525709 -0.044008497 -0.007463016 0.032408148 -0.45118448 -0.28788435 -0.123075835 -0.11847357 0.12916088 0.03065385 0.036012657 -0.07950724 -0.07780005 0.07995043 -0.010581565 -0.14649497 0.2301416 -0.18438637 -0.10016633 0.010683038 0.08345543 -0.13026169 -0.14270623 0.26660585 -0.0026681065 0.09741704 0.05256265 -0.029613432 0.18176015 0.16577788 0.19302478 0.2444245 -0.0022406671 0.25231394 0.099086255 -0.2928524 0.19049647 -0.064967774 0.037348606 0.06553485 -0.0051779156 -0.19514547 0.24675702 -0.10225381 -0.32334307 -0.15247124 -0.19001022 -0.17801344 -0.089609034 -0.01830937 -0.15719199 -0.16600631 0.14209302 0.17783186 -0.2872059 0.16876747 0.0825462 0.15361829 -0.116504796 -0.18598121 0.17439029 0.23383984 -0.22352117 0.14494397 -0.31044438 0.18745841 -0.14120576 -0.07391188 -0.19732119 0.20649834 0.17131679 -0.008404912 -0.22485876 0.19641091 0.1382692 -0.07437365 -0.16551183 0.25650635 0.23504029 0.20989572 -0.07903662 -0.14526999 0.20821933 0.43742064 -0.2195136 -0.21026757 -0.17437057 -0.30618915 0.2660027 0.5622399 0.23908597 -0.12393996 0.17158097 -0.33366457 0.19237566 -0.16923477 -0.07323595 0.18895213 0.22746345 0.19036384 0.28904536 0.18901232 -0.1601114 -0.018870926 0.08869659
1958 0.054744653 0.09551119 0.07203077 -0.012804548 -0.12422422 0.019054696 -0.19007066 0.12508088 0.015985785 0.018219996 -0.09066786 -0.02891844 0.12920079 -0.009174442 0.031285085 -0.09857579 0.010889278 0.14200588 -0.14876412 0.06492526 -0.2281308 -0.022334673 0.019714784 0.09579672 0.058944862 0.0045114052 -0.18848208 0.026893053 -0.032225206 0.19377612 -0.027369957 -0.10680746 -0.07630745 0.08437275 -0.14403316 0.05972996 -0.14209072 -0.06400091 0.08459894 0.017072834 -0.054545525 -0.0918112 -0.024499027 -0.23864035 -0.2161955 -0.15611678 0.13062783 -0.17685771 0.09812721 0.18006931 -0.021575717 -0.09280066 0.24821691 0.28675354 0.10841872 0.054899428 0.13490643 -0.024005117 -0.0421162 0.13935092 0.0315738 0.1371878 -0.062223524 -0.07442251 -0.18598342 0.20969838 -0.16053328 0.13472736 -0.35712707 0.051585317 -0.118615344 0.0146794235 0.124441504 -0.17554753 -0.05422801 0.11378997 0.047600377 -0.187808 0.1812288 0.012585356 0.25776747 -0.20200472 -0.09660954 0.07968001 0.19614342 -0.25633743 0.1922639 -0.22384283 0.24822177 -0.2402621 -0.1293971 -0.20801477 0.19265832 0.118962586 -0.23053508 -0.26100004 0.11931414 0.03346363 -0.2623409 -0.10601876 0.2657711 0.19578579 0.044115614 -0.092573196 -0.19681875 0.21793708 0.16641913 -0.20418662 -0.28286475 -0.17217538 -0.1620031 0.2666739 0.2086624 0.14897585 -0.22915219 0.12402215 -0.24884912 0.1416841 -0.1967345 -0.14505352 0.07443531 0.17338227 0.12582082 0.3581512 0.18037285 -0.18598217 0.24491368 0.19417249
