602 128
57154 0.030485079 -0.08849743 0.13005298 -0.023744635 0.05189142 -0.036707815 0.1122865 0.060439844 0.03741103 0.12207547 0.06771868 -0.020320615 -0.00731015 -0.015264564 -0.025124747 0.093453184 -0.025175788 -0.037213735 0.015538304 -0.028057816 0.042220693 -0.014057694 -0.02399278 0.075306326 0.028188858 -0.022497047 0.07700436 0.030412572 0.030967891 0.09784536 -1.751005e-05 0.0417768 0.06430816 0.025334878 0.018462924 0.13375366 0.069485396 -0.0038181127 -0.005957476 0.06867795 -0.036837462 -0.08813172 -0.10076241 -0.023304032 0.058339804 0.033306904 0.0064539365 -0.060589828 -0.008504698 0.014818394 -0.032256536 0.00438816 -0.05580206 0.023745378 0.030339507 0.0224257 0.017982744 -0.07619753 0.04251919 0.033790894 0.034393553 -0.06578806 -0.034144454 0.094151594 0.044781033 -0.001667054 -0.1193183 -0.09268384 -0.107650906 0.076838374 -0.09886612 0.0026585718 -0.07813855 -0.015842337 -0.03294696 -0.09158312 -0.07439817 0.049938224 0.018693717 0.013628187 0.026647428 0.036508936 -0.09458945 0.05658647 -0.022035614 -0.07525746 0.055805925 0.006355805 0.09106251 -0.12213192 -0.07186018 -0.021655096 0.014517267 -0.0072442563 0.018837208 -0.12535578 0.008724102 0.07098606 0.05489494 -0.10615948 0.07350513 -0.027194312 -0.09488589 -0.068508215 -0.05647824 -0.014960285 -0.049470544 0.01024245 -0.026723254 -0.09025803 -0.07074483 0.023757147 0.052457348 -0.0037193813 0.06932886 -0.04555588 -0.02589588 0.0904058 -0.0085321115 0.13157994 -0.043839656 0.06787055 -0.021042125 0.11876655 -0.03141041 -0.0729684 -0.04649649 -0.08755218
3309 0.026590284 -0.019768238 0.035243105 -0.07221337 -0.11025193 0.002239928 -0.016825147 0.056213338 0.094009824 -0.04406754 0.07661561 -0.079512276 -0.05645642 0.049964365 0.03981178 0.09842049 -0.06124578 -0.0045646923 0.04577735 -0.06119982 0.0858912 -0.04043245 0.051147133 -0.07115563 3.2579817e-05 -0.10248372 0.0033235305 0.064992465 -0.116988786 0.03415966 0.123615235 -0.033703927 0.05625733 0.11837046 -0.04404112 0.058142275 -0.10839193 0.05922211 0.020587029 -0.059705567 0.036146685 0.0419276 0.1058095 0.08127789 0.08597943 -0.059758067 -0.076744564 0.024469495 -0.06480807 0.073233105 0.06728241 0.09105272 -0.08478725 -0.084821776 -0.010100801 0.0030277986 0.052492484 -0.1125694 0.1067387 -0.004311884 0.05346225 0.022531709 -0.0007070797 0.029530931 -0.00062610075 0.091572225 -0.09647652 0.0024929002 0.019975558 0.015680166 -0.07107151 -0.011263274 -0.0319548 -0.05066777 0.01118909 -0.060585424 0.024215654 0.027607376 -0.031936843 0.016801981 -0.03500772 2.3551402e-05 -0.10774861 -0.012642232 0.07696855 -0.120809935 0.03097288 0.0028206727 0.074168935 -0.030057132 -0.07990167 0.07742133 0.11606723 -0.07867593 -0.040011957 -0.052742746 0.055099055 -0.022717943 0.03949284 -0.1336957 0.08256348 0.035198033 0.123719804 0.037825357 0.0016288226 -0.08993916 0.08031859 0.059717327 -0.02292876 -0.016566623 0.02040955 -0.012104885 -0.09063234 0.051471304 -0.10230748 0.03068976 0.010926212 0.024226347 -0.11857384 -0.04023934 -0.11526715 0.09794041 -0.032622933 0.027949175 -0.02552694 -0.047415793 -0.13474938 -0.038711768
5879 -0.030273082 0.06452755 0.0041261776 -0.048628274 -0.03472057 0.0066017555 -0.01182227 -0.06770528 0.03326154 0.13646217 -0.11994003 0.021201001 -0.08758708 0.0013853032 0.106059745 -0.0007126323 0.011526175 -0.052099127 0.08195607 0.11617941 -0.031014679 0.04206844 -0.030034605 -0.01899934 -0.10095114 0.05745557 -0.06929135 -0.008976894 -0.047635972 -0.1261039 -0.06362569 -0.0071934476 -0.032278627 -0.12317419 0.02991256 0.04999702 0.07471581 -0.07185422 -0.10421371 -0.022682704 0.06119332 0.054348648 0.062100444 -0.0115412595 -0.036202047 -0.018364023 -0.02026152 0.030435158 0.04726865 0.04896455 0.017120117 0.013681359 -0.06634774 -0.05103001 0.030662708 -0.08375788 0.026473384 -0.04534767 0.006602958 0.004545666 -0.071863316 -0.023518907 0.051877417 0.06415376 -0.016422782 0.016954096 0.05334923 -0.10502601 0.0583519 0.0012538851 -0.021760039 0.0024860147 -0.03605319 0.0041610952 0.07727047 -0.061773896 0.049153082 -0.0152142355 -0.055990353 0.05082712 0.061845493 -0.099866495 0.015209619 0.07835654 0.06875567 -0.04097973 0.10390559 -0.07083136 -0.09527774 0.08414539 -0.08739191 -0.067794226 -0.024576336 0.103897475 -0.11857204 0.07927123 0.09489003 0.08347355 0.08355391 0.008322299 0.05006453 0.06594229 -0.053122565 0.03818491 0.017871931 0.044655163 -0.00788884 0.016090207 0.0031996141 0.09828638 0.102168635 -0.034587245 -0.15534304 -0.012276228 -0.12956406 0.01379268 0.08556081 0.0073327865 0.006519035 0.11684694 -0.11204758 0.08915607 0.009548827 0.06843121 0.08491056 -0.03386875 -0.014864074 -0.019863248
23568 0.05960705 0.03365588 -0.025943862 0.020377053 -0.030251248 0.0628702 0.012590133 -0.05119137 -0.028001847 -0.018689053 0.027425017 0.01799948 0.0655998 0.010729702 -0.11476486 0.07896348 0.008435954 0.015259083 0.054797344 -0.03676951 -0.044549838 0.03708672 0.04790964 -0.065088056 -0.06233693 -0.017904406 0.0011484413 0.035699025 0.044351865 -0.11190805 -0.09637291 -0.02156226 0.0043734834 -0.013344431 -0.098733895 0.006000839 0.0898715 -0.11868683 -0.00437212 0.037713192 0.054070752 -4.2955173e-05 0.028009271 0.02869233 -0.06063892 0.01378731 -0.022665517 0.04633314 0.03814118 0.020545602 0.06859492 0.07185581 -0.061046667 0.04684616 -0.04435884 -0.05192671 0.0193108 -0.09683904 -0.028292403 -0.014375578 -0.06379495 0.021175101 -0.017784387 0.026571557 0.027662382 -0.033695817 0.076940596 -0.15575251 -0.016440885 -0.044368725 0.034020413 -0.039727163 -0.073698044 0.054298628 0.061735045 -0.012254276 0.07286439 -0.013638621 -0.122772135 -0.020711558 0.07000997 -0.06319022 0.052253913 0.015668195 0.01129185 0.07037885 0.040138416 -0.14541104 -0.042786267 -0.022724662 -0.032931108 -0.058009673 0.09999105 0.026387991 -0.02246984 -0.022398576 0.031711932 -0.068879865 0.067710355 -0.031275727 -0.0015335575 -0.07834189 0.018725391 -0.009692661 0.036030836 -0.04300674 0.04378988 0.055336572 -0.09839718 -0.036211252 -0.059066255 -0.065120205 -0.08566458 -0.019818971 -0.11541445 0.07260837 -0.008943346 -0.03401966 -0.003603681 0.06769016 0.019927554 0.05558101 0.0599588 0.117697544 0.078313105 0.046952754 0.041399058 0.007082257
1432 0.07333472 -0.06895259 -0.00476106 -0.09728188 -0.014433369 0.0025582607 0.08375009 -0.017251732 0.0032085709 -0.01278021 -0.036145944 -0.03037901 -0.005687614 -0.08114079 0.06023954 0.0019677468 0.067528576 -0.045749612 0.03806013 -0.019458061 -0.10354027 0.040924765 -0.03191456 -0.061982013 0.12219901 -0.01766104 0.024944955 0.0020703617 -0.07492664 0.015169183 4.2746848e-05 -0.007769274 -0.009439175 -0.0016164641 -0.018877352 -0.006881378 0.0051177074 -0.042360447 -0.029818762 0.07303864 -0.03090597 -0.08318792 0.004212582 -0.011784734 -0.09085245 -0.04550684 -0.010037511 -0.07555935 0.03764129 0.038156275 0.08014385 -0.11177001 0.016287196 0.040449977 -0.05061001 -0.09692566 0.07873247 0.00090165687 -0.09863274 -0.08904629 -0.028509118 -0.026507074 0.060710747 -0.041049767 0.014568156 -0.050349858 -0.02939736 -0.005004735 -0.037295785 -0.016222326 0.008318073 -0.073313564 0.023758657 0.027125794 0.048025813 -0.087835886 -0.10947216 0.002377513 0.089008816 0.02803775 0.015786242 -0.020271813 -0.103215784 -0.025927106 0.07775967 -0.0010243801 0.06102833 -0.06723053 0.0455745 -0.016131362 -0.099325195 0.03934722 -0.024614936 0.06694514 -0.049266275 -0.051377717 0.012244147 -0.021974633 0.025796961 -0.036017325 -0.116517544 0.06170921 0.025626887 0.045925014 -0.1209774 -0.0106631955 -0.031802848 0.07030717 0.061451178 0.014331804 -0.053882975 0.08466336 0.0314583 0.0955133 -0.026527997 -0.014580229 0.11752904 0.11158708 -0.051559664 -0.018011479 0.0019662909 0.0015920663 0.08342314 0.082006276 -0.07772854 0.03962425 0.068974614 -0.05454315
2004 -0.014833387 -0.100787185 -0.072798215 -0.045290425 -0.021812215 0.1220665 -0.09817832 -0.06443962 0.015779693 -0.03822656 -0.0740937 -0.037287414 -0.061772898 0.10532367 0.11271338 0.0060443007 0.053934656 -0.022599727 -0.0054861107 -0.053013667 0.084365614 0.10464149 0.0576827 -0.011666934 0.06523509 0.032736566 0.09917535 0.06434793 0.026908375 -0.03273031 -0.07044326 -0.028208252 -0.08311056 -0.021190474 0.011623886 -0.043092273 0.00036905328 -0.12922104 0.08905639 0.035282847 0.013148483 -0.053449005 0.04187882 0.08292919 -0.07496855 0.060053132 0.006903464 -0.00847845 -0.0068420544 -0.14450946 0.121635936 -0.100845374 -0.047552742 -0.046242677 -0.04978061 -0.0438816 0.007651847 0.093665645 -0.03942984 -0.02338707 -0.10436834 0.06759794 -0.042546988 0.099246755 -0.053518154 -0.04039247 -0.048105523 -0.0057420474 -0.070958845 0.07403785 -0.0733586 -0.030418321 -0.08011803 0.034594357 -0.03218414 -0.12302422 0.03156488 -0.02060961 0.050257854 0.104658306 0.015024688 -0.019206006 0.113532275 0.005676078 0.07086435 -0.0278901 -0.010382011 -0.012192184 -0.017978795 -0.043029126 -0.078226194 -0.02051107 -0.027997527 0.03417229 0.017695958 -0.0038730004 0.013413407 -0.10021219 0.020607665 -0.035573788 -0.11976331 -0.0677801 -0.028394938 -0.031812187 -0.07951035 0.025446944 -0.04653472 -0.071632676 -0.014027768 -0.03146635 0.013687457 0.04216185 0.13614345 0.0732888 0.011081549 0.0029209126 -0.025681764 0.06045147 -0.038700152 -0.068506874 0.06689913 0.097327575 0.0057631354 -0.049365092 0.048108935 -0.006025618 -0.056884274 -0.1202225
8945 0.038036007 -0.08393169 -0.007732576 -0.07315145 0.12734896 -0.03350169 -0.119893625 0.114889815 0.10830442 0.11246897 -0.13193113 -0.07084113 -0.078605756 0.07684484 0.116125666 0.014815223 -0.04496104 -0.11129523 -0.015855366 -0.020428248 0.05650686 -0.021608047 0.024373585 0.05015237 0.05167025 0.09776735 -0.0068497304 -0.06433564 -0.04813124 -0.056453034 0.12594427 0.003912486 -0.0053951275 0.00038434105 0.003964589 0.120850906 -0.0058531556 -0.0036679334 -0.0734911 0.00021689365 -0.09851028 0.068766855 -0.043245535 0.026815709 -0.0025736762 0.042376984 -0.06088144 -0.041269824 0.011462401 0.13702394 0.053263836 0.017395452 -0.101703964 0.0024576094 -0.013434309 0.08763942 0.06363691 -0.05566048 -0.046071444 0.06024089 -0.036661275 0.101176225 0.057468396 0.024102759 0.04724129 0.053673215 -0.04359761 -0.028944697 -0.072408676 -0.019419614 0.115592554 -0.14849122 0.024531038 -0.033461306 0.0772044 0.004786579 -0.057212293 -0.013555116 -0.012233642 -0.051188197 0.026798988 0.149391 -0.08765749 0.068963975 0.072099626 0.003439081 0.027455281 -0.09138059 -0.065326825 0.041380458 0.01919503 0.005346558 -0.0064494265 -0.06338569 -0.030924387 0.036033906 -0.022406282 0.051159747 0.086494766 -0.04525042 -0.017046098 -0.020871561 -0.08179179 -0.014886582 -0.06932721 -0.10123553 -0.012890233 -0.06559348 -0.001677395 0.07140351 -0.15484646 -0.03669949 -0.027344838 -0.0034713885 -0.14828967 -0.045529373 0.0018233042 0.06928104 -0.14090948 -0.025763225 -0.042641904 0.060350273 0.034901198 -0.03539338 -0.025537524 -0.003291915 -0.030634638 -0.056280337
5469 0.04675328 -0.13717212 0.040949475 -0.024427341 0.010273903 0.07003936 0.018549405 0.025191955 0.04717484 0.012427119 -0.036007408 0.030259324 0.13627367 -0.008004966 -0.024679944 -0.02554631 -0.0013762433 0.036067784 -0.054446243 -0.027622376 0.0036638405 -0.09484736 0.0712201 -0.068737954 -0.10413136 -0.034498494 -0.01245323 0.023217522 -0.02097019 0.13513598 -0.0837756 -0.074856 0.02709922 0.0010098817 0.035023313 0.013264209 0.029995872 -0.08718332 0.005752928 -0.04498044 0.07262757 0.01742756 0.01619036 0.057789147 0.14102761 -0.0200503 -0.06368746 0.016016696 -0.098855086 0.07759556 -0.075407565 -0.13385631 -0.01031722 0.02293976 -0.046406556 0.07447742 -0.003131415 0.0548169 0.09560736 -0.08688263 0.07858797 -0.06671502 0.08115597 0.008532279 -0.0059135435 0.03311928 -0.07854258 0.031461414 0.043079916 0.0787095 0.094319455 0.031954046 0.109378956 0.027986115 0.043168973 -0.051876288 0.05935179 0.0408135 0.04811982 0.031891104 0.043342367 0.005953068 -0.100234784 -0.04616462 0.033679865 0.05218979 0.041144963 -0.10116499 0.089496166 -0.14482866 -0.017561972 0.007327188 0.008553661 0.10942265 -0.05956306 -0.042715225 -0.023764737 0.0059983945 -0.0799099 -0.123296514 0.022784231 0.08009687 0.0511051 0.09778312 0.07237131 0.04242001 0.023135623 0.052056823 0.019113062 -0.14732923 -0.031642996 0.00828717 -0.04647382 0.035342388 0.017256828 -0.13459794 -0.07619209 0.020986972 0.01599196 -0.039429996 -0.004441146 0.041284222 0.074586585 -0.02612117 0.022205928 -0.013444986 -0.08681095 -0.04288538
10014 0.03362904 -0.07047375 0.0032319555 0.15229067 -0.020582275 -0.108547986 -0.018328173 0.029533353 -0.025041765 -0.029128373 0.011699342 0.027096737 0.040003467 -0.04746207 0.053981308 0.04309244 -0.047531016 -0.10303043 -0.003401491 -0.057092585 0.11580853 0.012605013 0.14658625 -0.05647266 0.05584624 -0.055008214 -0.027503554 0.0013192557 0.051816367 -0.03451148 -0.10889859 0.096546985 -0.042392433 0.054692898 -0.052674774 0.10865963 -0.071933724 0.054209683 -0.0862891 -0.022815634 -0.011443676 0.121315524 -0.03360854 0.07054767 0.09910395 -0.0064171557 -0.026626812 0.09503019 -0.13335073 0.058209516 0.030029636 0.025580786 0.06635937 0.0076220967 -0.0617218 0.05217058 -0.059074763 -0.040282335 0.045460626 0.0553483 0.0018568442 0.020128973 0.018055903 0.027940594 -0.00070219254 0.025081953 -0.095007755 -0.091176845 0.079212114 0.00037373306 0.058941208 -0.033846773 0.04813864 -0.1450813 -0.034035727 -0.018659562 0.034827728 0.088366725 0.037924465 -0.038934387 -0.011885509 0.16862324 0.011196932 0.03740087 0.009277129 -0.0092651835 0.0028420703 -0.023066044 0.053446636 -0.114435345 -0.059339616 -0.03191683 -0.01841301 -0.040262353 0.061016344 -0.030604254 0.048264276 0.036793668 0.07527504 0.04156369 0.059189204 0.033343893 -0.013083667 -0.08903401 0.08280271 -0.10295835 0.0123688625 -0.007233951 0.044110067 0.094680294 -0.08580364 0.007741175 -0.039354704 -0.11192956 0.06628684 -0.10810536 -0.031367972 0.015182586 -0.1423358 0.12912583 -0.10842317 0.02826502 0.04986661 0.05300132 -0.10447058 0.029446457 -0.07718874 -0.037841834
7037 0.04021087 -0.021994133 -0.103069425 -0.07366357 0.07007349 -0.075552575 -0.023663757 -0.083283074 -0.010132546 0.0056244107 0.077144936 0.013329704 -0.07675335 -0.03577318 0.07906282 -0.07096774 0.02923054 -0.11503583 0.035869095 -0.095290504 0.015836414 -0.10098379 0.08052282 -0.0029999085 -0.08518136 -0.10620907 -0.057630382 -0.07356996 -0.036129016 0.07145355 0.057180434 0.11336686 -0.02074657 0.095448956 0.0053609977 0.0639227 -0.09248417 0.060207196 0.01405874 -0.031170033 0.0096122315 -0.016659884 -0.0043849857 0.046435118 -0.027373802 -0.07257339 0.14088236 -0.050571345 0.032397665 0.07273602 -0.0823526 0.03860333 -0.13719866 -0.032022692 -0.07295217 -0.021517804 -0.0035480966 0.07995596 0.03933719 -0.11404757 0.044851884 -0.06948673 -0.07376419 0.008755274 -0.010787094 -0.03851745 0.033146262 0.10133585 0.13984627 -0.1470598 -0.043684892 0.0044424455 0.046016056 0.04690793 -0.077815294 -0.15615067 -0.055289116 0.030435843 -0.02500923 -0.034826595 0.03609069 -0.010842341 0.07020652 0.046016347 0.085884966 0.04027878 0.095790856 -0.06508731 -0.06936693 -0.08210327 -0.030661052 -0.122241445 -0.02888451 0.08772261 0.108508 0.06139153 0.119498156 0.044263896 0.047207877 -0.0073370556 0.049993 0.013204392 -0.068417534 -0.04480811 0.047376856 -0.030990906 -0.029142728 -0.0997527 -0.10009025 0.003464655 0.022982825 0.05493376 -0.054795 0.07237437 0.0117071085 -0.02287711 -0.051367503 0.17371725 -0.052851487 0.050225887 -0.0073769484 -0.014540806 0.006012165 0.0399887 0.040285267 0.06942305 -0.04174952 0.10237225
10672 -0.016335608 0.071641624 -0.101270124 0.08804374 -0.0041154046 -0.06366907 0.032300625 -0.049211428 0.018157307 0.036258828 -0.011079975 -0.012430993 -0.012938242 0.09790677 0.04287004 -0.04563482 0.019887744 -0.103225395 0.015285689 -0.01697867 0.014271569 0.07395931 0.060059562 0.04022323 0.014716637 -0.09148513 0.05197612 -0.0018631874 0.040948357 -0.01757351 0.030163547 0.070103884 0.0709075 -0.008953931 -0.056058116 -0.068942256 0.028761087 0.012059449 -0.018503198 0.06188935 -0.16525859 -0.023911458 -0.04695337 0.052693177 0.022921465 -0.1079539 -0.035575464 -0.016094372 0.004137505 -0.0052783056 -0.020943431 0.02264872 -0.047149207 0.063423455 0.0012471477 -0.07247275 0.054855004 0.047453366 0.025862193 0.044697452 0.03755752 -0.00027984165 0.03058324 0.024880834 0.06424729 0.11378126 0.018711485 -0.040578086 0.063918255 -0.059547916 -0.0728834 0.05294444 0.03765878 -0.018531473 0.017152233 0.015655832 0.097611725 -0.005435091 0.097146824 -0.0734361 -0.03618307 -0.008256938 0.015318513 0.073951714 0.07416888 -0.037854653 0.03343241 -0.0014858199 0.07566671 -0.079631284 -0.030128758 -0.09000383 -0.0819453 -0.005869766 0.022972023 0.009003444 0.015061026 -0.050745074 -0.028470054 -0.011497467 -0.028402919 0.004611481 -0.037149798 -0.13899586 0.07365127 0.061505694 -0.016570432 0.047788892 0.013941289 0.0029746604 0.009066689 0.07925971 -0.008565825 0.079767585 0.05571807 0.023310214 -0.043298565 0.0033113153 -0.04759927 -0.04756635 -0.014054881 0.046832595 -0.04437863 0.06328474 0.08712574 0.03459123 0.0076328292 0.03693956
7046 0.06262916 -0.050561108 -0.028651623 0.10739816 0.021738641 -0.04000663 0.018859414 -0.07441275 -0.04811523 0.06992296 0.03185884 0.016526736 -0.027942428 -0.026003662 0.02782275 0.055610374 -0.0076147174 -0.021588726 -0.037726153 -0.023995478 0.036850713 -0.06167297 -0.028484985 -0.01738311 0.0059680124 -0.10662961 -0.052303594 -0.015256691 0.052969016 0.017617658 0.04398297 0.038461875 0.008830238 -0.041486125 -0.033842098 -0.05685172 -0.0355055 -0.04015561 -0.11541562 -0.016791672 -0.05469074 0.03363532 0.03999077 -0.002100644 0.0031713163 -0.06824279 -0.085273236 0.025871448 -0.010143329 -0.02825895 0.08750209 -0.041700415 -0.10181177 -0.06083509 -0.05243388 -0.031846415 -0.05793243 -0.014433398 -0.006936916 0.07070697 -0.05988272 -0.03617545 0.015327264 -0.026562562 0.045662083 0.107324176 -0.17047751 0.019423876 0.04097786 -0.0043981527 -0.019786345 -0.10448869 -0.01539895 0.06337832 0.07143583 0.027500471 -0.15362637 0.01618181 0.062102873 0.04848001 -0.025369111 0.1863907 -0.055535916 0.05066002 -0.011418193 -0.021556463 0.067276575 -0.13446702 0.00064412155 -0.04066361 -0.039969273 0.032945573 -0.10807802 -0.013745866 -0.0011096634 -0.059247706 0.07671675 -0.01449785 0.060840853 0.032229565 0.010037951 0.055957653 0.047090236 -0.10899995 -0.037265707 0.049553208 0.09477883 0.10027377 0.033339083 -0.0072141984 -0.07584361 -0.0014830993 0.005336187 0.08895597 0.010859038 0.048859324 0.114304654 0.065054305 -0.1476971 -0.0045077717 -0.085364275 0.06517177 0.00046781788 0.046560846 -0.088387996 0.070646584 -0.04237803 -0.1326582
4627 0.040440567 0.13045211 0.10694262 -0.039055392 -0.005979474 0.033377614 -0.016421335 0.016770817 0.060947694 0.04219512 -0.00887075 -0.036024995 -0.1290947 -0.097914755 -0.088715985 0.016290136 0.04800125 -0.12782817 0.020169068 -0.046668205 0.08461983 0.008262874 -0.05557939 0.10522826 -0.063857555 -0.052838344 0.030302163 -0.09162334 0.02232591 -0.024801513 -0.1221408 0.12542629 -0.03402385 0.054793 -0.03844276 -0.037618577 -0.036198102 0.0011747652 -0.0039266497 -0.0060579604 -0.03356751 0.035052795 -0.0075139417 0.0063789063 0.008872813 0.03373589 0.012710665 0.11288125 -0.0048102657 0.058916062 0.1106122 -0.04404909 0.033965025 0.123242974 0.080205955 0.025862515 0.13612184 -0.12811095 -0.02610884 0.09582193 0.0029961737 0.06791843 -0.002667883 0.070748836 0.034873005 0.060316846 -0.05969201 -0.08447317 0.080716595 0.015653344 0.05109506 0.0349451 0.03263924 -0.05203451 -0.020760471 -0.047903966 0.05118163 -0.08470749 0.09624691 0.024849787 0.03942816 0.081977665 0.021684896 0.09947064 0.05532139 -0.090843014 0.08224686 -0.060609713 0.078166515 0.029928202 -0.014627237 -0.11581087 -0.08898683 -0.008935085 -0.08986865 -0.00092835986 -0.00882648 -0.11097309 0.07593044 0.04865346 0.03615218 0.0057795877 -0.005566943 -0.09024981 -0.012506349 -0.02822763 0.016679905 0.0609388 0.016705917 0.12686265 -0.010999203 -0.089267224 0.02726955 0.035324153 0.059082035 -0.012782299 0.06550502 -0.021011084 -0.008833878 0.027251577 -0.10288099 0.020389905 0.016233271 0.14858039 0.0031291053 0.07872564 -0.0033263403 -0.0060869423
23405 -0.0033954475 -0.061982285 0.042864516 -0.01823782 0.055645827 -0.109830044 0.075278476 0.0066648847 0.07156769 -0.024418946 -0.038780898 -0.012312028 -0.101183966 0.0852003 -0.0067825904 -0.10945878 0.03610953 0.057248935 0.045832694 0.11405345 -0.077034846 0.05069168 -0.033714287 0.043235134 -0.003503859 0.040179785 0.011240036 -0.04281611 0.03558373 0.08387647 -0.044417396 -0.021226628 -0.0029204055 0.024454052 -0.013111563 0.022471601 0.008706851 0.022735864 0.084491104 0.032785922 0.05453702 0.032281134 -0.10824175 0.06997406 -0.03609157 -0.056845617 -0.029965416 -0.119272694 -0.15181799 0.109663576 0.0110558905 0.011689728 -0.08506728 -0.055098604 0.013154843 0.086922355 0.000634793 0.012022796 0.14869677 0.0030583243 0.039328355 0.028362652 -0.037036307 -0.056373283 0.09203034 0.030618371 0.0015302747 0.028957093 0.15174024 0.008544484 0.09671633 0.011594484 0.02553125 -0.060006842 0.032158446 -0.035477772 0.024913667 0.100937545 -0.0031122712 0.002522478 -0.029456252 0.06821971 -0.023030208 0.05022483 0.051029813 0.034016162 -0.018291779 0.00027098725 -0.08254358 -0.032171868 0.0026386178 0.06513614 -0.110471986 0.058967467 0.11859854 -0.09480917 0.05341139 0.08753847 0.10477387 0.0039774086 -0.06416104 -0.05048756 0.12547809 0.0841462 -0.03321432 0.058810495 0.018206239 0.09811463 -0.014297124 -0.025410444 0.035439212 -0.10540779 0.008921457 -0.061204184 -0.04632276 0.06432088 -0.034382526 0.075076476 -0.037387867 -0.049836583 -0.035053097 0.04402029 0.072030395 -0.017219199 0.026564343 0.057380404 0.014624498 -0.03927129
3329 0.053926896 -0.0011152723 0.026982628 0.06326139 0.0024580322 -0.050347146 0.15056989 0.0073582768 0.024485352 -0.072044544 -0.09817895 0.07126644 -0.014186879 0.06951003 -0.05274083 -0.08862453 0.14421046 -0.052098926 0.04837836 0.10073784 -0.07081257 -0.06812338 0.06550577 0.0017545344 0.032071 -0.09086332 -0.031120513 -0.03198662 0.0010659236 0.02349339 -0.055575266 -0.054636896 -0.14309838 -0.069584765 -0.15908808 0.047270536 0.010293242 -0.007654625 0.08183525 0.14053757 -0.046220154 -0.03276147 0.031040184 0.058099665 0.081258334 -0.077718526 0.029445553 -0.010638705 -0.033438835 0.013548536 0.058283918 0.032826185 -0.08869058 -0.051676236 -0.025632948 0.0052764863 -0.010212188 0.010519894 -0.08125033 -0.019541454 0.10311865 -0.07161128 0.109034486 -0.0495674 0.031858474 -0.028301394 0.01262524 0.018870957 0.08419883 -0.07245658 0.08743691 0.03702157 -0.11441194 -0.025308864 0.004296173 -0.017129537 0.007956564 -0.13068631 -0.055986643 -0.03664493 -0.12463843 0.038400583 -0.048105378 0.08395894 0.15361722 -0.0677693 -0.08915294 -0.052988417 0.021523543 0.081246905 -0.021938931 0.016297594 -0.08187658 0.17284347 0.09653808 0.09435724 -0.064712636 0.13070296 0.13285926 -0.016484778 -0.12987636 0.06980803 -0.022470258 0.009194371 -0.03462127 -0.029259538 0.0017755949 0.07719414 -0.10604581 -0.07954237 0.008658517 -0.099919386 -0.055332847 -5.6686782e-05 -0.14087354 0.03671979 -0.061018392 0.06858429 -0.0023191588 0.061725594 -0.123770855 0.004086419 0.107894495 -0.04355753 0.04705556 -0.04125994 -0.052062187 -0.109466225
2885 0.0003332018 -0.0050612544 -0.06769591 -0.008446428 -0.05969224 0.014491393 0.048639506 0.041572545 0.043328047 -0.11295302 0.043153018 -0.008486056 -0.014927272 0.043517597 0.116632104 -0.00031836165 0.123110056 0.0068546045 -0.078510456 0.1563217 0.040485393 0.06414003 0.13646398 -0.0029261548 -0.07000675 -0.012016382 0.012204081 0.038170375 -0.08223465 0.04304991 0.098272994 0.05301967 -0.028982082 -0.080343075 -0.077753074 -0.13161798 0.04375303 -0.010861728 0.011856386 -0.07983035 0.060965378 0.025227487 0.09997068 0.075738445 -0.1091839 -0.07323889 -0.006384774 -0.024898438 0.0076563023 0.10581895 -0.0038446966 0.008036848 -0.083195545 0.1460881 -0.011689389 0.09912824 -0.053401023 0.062437635 -0.034912452 0.053095747 0.010867543 -0.052231424 0.05262106 -0.05624022 0.019671036 0.024425002 -0.121711455 -0.07294741 0.01469293 -0.032464296 0.0016025755 0.009423452 0.033441864 -0.06161163 0.012509472 -0.0008416713 -0.06386115 -0.03351271 0.02470662 0.037427656 -0.038230147 0.017365154 -0.023543341 0.10745831 0.035783567 0.023755446 0.019844994 -0.16165529 -0.023636578 -0.01873902 -0.05106343 0.054543313 -0.03977599 0.14364353 0.021657938 0.10438172 0.061330855 -0.07028903 0.05551071 -0.025414359 -0.02411899 -0.08007639 0.016104639 -0.0022312046 -0.055138335 -0.10873755 0.037121885 0.0015359261 -0.0058792066 0.111650445 0.013909995 -0.14496413 0.042681266 0.050502177 -0.08618141 0.027072757 -0.004301416 0.09771618 -0.036454026 0.008986755 -0.0299476 0.053963173 -0.015214599 -0.10790106 0.056072008 0.09315231 -0.005393874 0.031590264
2734 0.09538439 0.022032462 -0.038239814 0.085461564 0.042815883 -0.042705026 0.029797861 -0.08065577 -0.02835874 0.012166646 0.0675435 -0.061113603 -0.054543573 0.12561099 -0.08638633 -0.016959563 0.03973131 -0.033519298 -0.003324196 0.094715334 -0.09673508 -0.102527425 -0.09692256 -0.010687453 -0.059705596 0.12401894 0.012279489 0.0062663746 0.015169569 -0.053743605 -0.06523478 -0.01025514 -0.047888447 -0.0482239 -0.011695284 0.020780995 -0.042430732 -0.045283258 0.11936259 -0.068794414 -0.09923304 0.112695955 -0.10154082 -0.073901534 0.062309314 0.102989264 -0.01755016 0.032729473 0.10736981 -0.02375614 -0.011178506 0.012363335 0.060704775 0.10026926 -0.03545416 0.025170552 -0.00059104647 -0.019227626 -0.009805854 -0.05227169 -0.035104617 0.0032387248 -0.00024052022 0.013481225 -0.06808954 0.030625822 0.043064028 -0.021877946 0.05710899 0.04468082 0.017361976 -0.0878669 -0.12164403 -0.03430039 0.018752305 -0.053099837 0.03307285 0.0077375863 -0.06462539 -0.0015947216 0.015360473 0.08739941 0.07968365 -0.005961542 -0.0522758 -0.06835262 -0.10331893 0.05289392 0.041378766 -0.06101588 -0.071090095 0.015228429 -0.08361625 0.020866347 0.020436343 -0.007862252 -0.068027295 0.012458376 0.084401235 0.035458338 -0.018836759 0.038816515 -0.052736282 -0.07991561 0.09108789 -0.039016176 0.06310921 -0.03510323 -0.021739936 0.09650068 0.006069224 0.0015053859 0.013140224 -0.074213006 -0.015242146 0.0046630893 -0.0032025322 0.04622617 -0.013087478 -0.03256577 -0.055237018 0.0076085767 0.018406337 -0.05788499 -0.07214675 -0.061641984 -0.0328554 0.051651455
5966 0.017825369 0.05579123 -0.016947705 0.01303733 0.012000259 0.029438019 0.006108924 0.004830086 -0.048455074 0.04222949 -0.08852453 -0.03681083 -0.08138554 -0.11218448 -0.03873447 -0.017696954 0.063068345 0.03805689 0.113201655 0.057595126 0.00050697336 0.006509253 0.10826289 0.11097491 -0.04164769 0.0818934 0.00060663006 -0.041847263 -0.01291781 -0.11398342 -0.13201892 0.0358146 0.08459979 0.03661826 0.0024822853 -0.06705697 -0.06127799 0.12593542 0.050581224 -0.053883776 0.0507027 0.11725749 -0.027993323 -0.009560564 -0.051080786 -0.010595473 0.037547644 -0.026563656 0.033471216 0.013061507 -0.09915605 -0.04440158 -0.003500307 0.01152823 -0.12674256 0.07844086 0.050440628 -0.07928913 0.003791558 -0.05882262 0.14092533 0.062260337 0.06559765 -0.081054375 0.060103368 0.1018403 0.0021539195 -0.091304794 0.070350155 -0.10330021 0.11461654 0.028898224 -0.07489042 -0.14026949 -0.07531509 0.0483488 -0.010372401 0.0025629308 -0.13568114 -0.13166662 0.055468876 0.08875294 0.045550562 0.0062469435 0.11478151 -0.035658773 0.009092693 -0.078021064 0.06794717 -0.08708445 -0.050320826 -0.021612706 0.015102078 -0.06941083 -0.057663705 -0.007250577 0.06705913 -0.07440504 -0.0022011474 -0.0070305527 0.09834763 -0.018096771 0.01543547 -0.11037815 -0.07612109 -0.12671098 -0.050106123 0.12636833 0.0018847805 -0.009182852 -0.11028985 -0.030860698 -0.033612438 -0.018767776 0.039415248 -0.009723565 -0.06006811 0.071820945 -0.020737303 -0.009945094 -0.008613606 0.03479849 0.048291717 0.008640668 -0.003051684 -0.10119129 -0.09500301 -0.02032544
5747 -0.04048491 0.07974151 0.027431354 0.004434737 -0.06874152 -0.04859238 -0.02392693 -0.009621079 -0.09217041 0.040979356 -0.061883606 0.014409372 0.06898362 0.043931067 0.0828948 0.043129746 0.07248534 0.004686378 -0.00266151 0.08706956 0.13488896 0.03661882 -0.009306475 -0.056105062 0.011375198 -0.11292377 0.044551108 0.03426311 0.041038357 -0.020782134 -0.020310845 0.10957902 0.04383051 -0.051586933 0.011573179 0.006480478 0.11703614 -0.09742567 -0.069875605 0.0427256 -0.045056812 -0.0032848148 -0.04416899 -0.007814001 -0.00214705 0.02816457 -0.017499644 -0.05451746 -0.026488125 -0.054612067 -0.047126777 0.032696035 0.059759345 -0.036240436 0.055307206 -0.012164815 -0.028861618 0.0017436288 -0.027706122 0.053915516 0.042638995 0.04080715 -0.016055357 0.020004155 0.1424922 0.056861777 -0.12272758 0.0032243812 0.0032683536 0.10793338 0.087967336 0.062244114 -0.02499774 -0.078074686 -0.029632937 -0.015323455 0.008424787 0.06872952 -0.02096632 0.123290926 0.0030709927 -0.016301993 -0.009076533 0.057755005 0.10740725 -0.11265375 -0.00826341 -0.08291958 0.029900324 0.06933985 -0.14306045 -0.05790013 -0.15872207 -0.018724784 0.1590189 0.061797723 0.078240074 -0.12364571 0.024692373 -0.086345844 0.0125120375 0.058531158 0.029323732 0.05525744 -0.09139562 0.039451193 -0.100271836 0.1041726 -0.024032725 0.031735238 0.030455003 -0.009440716 0.12968563 -0.054926973 -0.0054666167 0.033480898 -0.0022077328 0.16093186 0.06152901 0.031347703 -0.09439114 -0.10075919 0.10444561 0.072162226 0.044282384 -0.09436903 0.07955381 -0.026644442
1605 -0.011593639 -0.08025331 0.006376344 0.044987846 -0.021867989 -0.034999 0.063320234 0.013027145 0.0058285813 0.048687045 -0.018364314 0.075360954 0.09597625 -0.032204878 0.027974874 -0.021494014 0.011398548 0.061625984 -0.053863395 -0.04484604 0.037483238 -0.014481842 -0.05133392 -0.13628913 0.005421687 -0.0049027996 0.06354641 0.03258342 0.108044155 0.027504962 0.075204216 0.00063899276 0.038452122 -0.10903398 -0.0963499 -0.066864766 0.092166066 -0.067418754 0.037046526 0.040936757 -0.01019866 0.0805766 -0.026234396 0.013655179 -0.0010495612 -0.043415073 0.04975874 -0.11163 0.14279164 0.011241597 -0.0955752 0.09486778 0.11104332 -0.09516674 -0.0698203 0.008225617 -0.117835306 0.011889778 -0.00053789676 -0.029488912 0.05097034 0.021758297 0.1081396 0.10668182 -0.0006435695 0.041961815 -0.03828419 -0.09156245 -0.033259425 0.03535509 0.05939897 -0.0143434275 0.119000986 -0.07275521 0.032950167 0.015248236 -0.048834454 0.04656903 -0.042306866 0.15277217 0.021396436 0.012784423 0.027568553 0.014192004 -0.06765725 0.050416224 -0.07098199 0.035152618 0.07919898 -0.018342264 -0.015728585 0.06348357 -0.0055737756 0.07844932 0.048460133 0.10213021 0.061647013 -0.0036925506 0.037621092 0.0011675662 -0.022739174 0.115169525 0.06889794 0.014916892 0.02879964 -0.014699587 -0.00077805534 -0.018352536 -0.066985354 -0.09374007 -0.09609949 0.011002861 -0.02169947 0.07724288 0.020157354 -0.030851461 -0.015532227 0.050877668 0.07524548 -0.06455106 -0.08518323 -0.025861228 0.047336474 -0.09267649 0.004826211 -0.05590877 0.035522323 -0.024005124
10252 -0.026973922 -0.016451288 -0.018152947 0.012499599 0.08212558 -0.092241466 -0.041786272 -0.014093979 0.0034805941 -0.062762186 0.016995592 0.0913328 0.10330937 -0.04877314 0.0046865633 0.11650678 0.05893738 -0.053352464 -0.06512137 0.11961511 -0.013449012 0.044804346 -0.10462754 -0.029836109 0.037812326 -0.042067096 -0.08282218 -0.04888742 -0.088323645 0.054814517 0.040109564 0.0016737663 0.07391177 -0.055551108 0.088178076 0.13044135 0.044543035 -0.068198144 -0.070899025 -0.037577283 0.034388278 -0.019398758 -0.10241748 0.05520885 -0.010429739 -0.12295848 0.0002995188 -0.012129344 -0.09081331 -0.14271812 0.007872896 0.04709866 -0.025215862 -0.0013458693 -0.029044755 0.097812384 0.0032272711 0.092068724 0.09756012 0.01646378 0.018372955 0.029643402 0.07020083 -0.08699014 0.009455865 0.025948184 -0.0010852 0.15186523 0.03747969 0.09873717 0.11900287 0.058708712 -0.014336643 -0.018602695 0.05621562 0.11250229 0.0014419706 0.008965055 0.0066800155 -0.04311194 0.00362257 0.014301904 -0.019603366 -0.05815462 0.079029195 0.058675993 -0.07269449 0.018552024 -0.014211705 0.028014177 0.079254635 -0.04730694 0.07467542 -0.06683728 -0.0051707225 0.04216276 0.08341954 -0.010870699 -0.005891547 -0.08025117 0.016955243 0.07015972 0.036696114 0.02022256 -0.029867517 -0.10922914 0.020263698 0.07889212 -0.030073846 0.035608884 0.037226934 0.01648032 0.07528993 -0.047833893 0.049679797 0.051446036 -0.016883237 0.034380697 0.012640303 0.13338545 -0.058354966 -0.057074692 0.0064840526 -0.040177334 -0.032366022 0.0028977878 -0.050748404 -0.021933913
868 -0.011626169 0.03252448 0.022039577 -0.03984252 0.066087544 -0.04782834 -0.12072474 -0.026394024 -0.018798202 -0.06056096 0.026421778 0.10640576 0.015504244 -0.112956695 0.11679704 -0.040296257 -0.026888523 0.046065677 -0.07910463 -0.061119966 0.0445443 0.039910994 -0.050370008 0.010946429 0.016187469 0.053909842 -0.04505543 -0.030637883 0.0047413474 0.06069233 0.0595425 -0.08684544 0.021675102 -0.06105667 0.037058834 -0.0021361578 0.033734653 0.03712871 0.029421007 -0.0021646898 0.02925361 -0.026644064 -0.00868533 0.025093865 -0.051106915 0.062735684 0.010964383 0.1237894 0.023126058 -0.01574364 -0.069483146 -0.03586727 -0.03150183 -0.0106660165 0.049555287 0.09227595 0.09343425 -0.048008516 -0.014272179 -0.026247062 0.072727896 0.027668323 -0.02792616 0.011014112 0.061903503 0.014349224 0.00038473998 0.088832796 0.012716242 -0.05658574 0.110118695 0.01204883 0.027997855 -0.03946211 0.025595052 -0.005347748 0.045112204 0.049863234 -0.012016637 -0.07940851 -0.0016269835 0.13356094 0.034821935 -0.055372637 0.028237427 -0.021641359 0.073867455 0.003319661 -0.013492911 -0.07553912 0.040042005 0.08063641 -0.010918009 0.0009516303 -0.025570832 0.1211369 0.082578324 -0.0059577646 0.013674007 -0.09753387 0.008756731 -0.039427143 0.05477636 0.043083422 -0.089478865 0.08158897 -0.06090857 0.11964682 0.016332557 0.043323677 0.05113125 -0.002263763 0.038108934 0.10884749 -0.052446242 -0.041595902 -0.09361895 0.00996849 0.010435283 -0.036593426 -0.065565914 -0.04939168 -0.069896676 0.048032645 0.045579273 -0.05295357 -0.019918708 -0.05008879
648 0.040866602 0.09206242 0.010183246 -0.019050786 0.051089793 -0.055724666 0.0045245136 0.04317171 0.065118395 -0.03275692 -0.053810988 -0.003896177 -0.058889363 -0.068588324 0.014722745 -0.016944584 0.0008525175 -0.13390061 0.0072776442 -0.08288591 -0.077055685 -0.13261414 -0.06391574 -0.09266413 -0.04355783 -0.012930874 0.061810844 0.044483557 -0.05386898 -0.07429056 0.100265 0.015515232 -0.07255945 -0.073229924 -0.08830105 -0.047134142 -0.03653564 -0.069304265 -0.04070273 -0.11073811 0.043097563 0.07288855 -0.014119108 -0.009706673 -0.010726759 -0.043819834 0.08324121 0.06936636 0.13086265 0.055303615 0.0027794412 -0.115668654 0.04514383 0.0066424413 -0.009294849 0.07050686 -0.031846646 -0.04820244 0.101290785 -0.1119662 -0.045963746 -0.011963118 -0.06769249 -0.090593636 0.034972597 0.009745154 -0.08206625 0.032938108 -0.09733382 -0.06495101 -0.0018570113 -0.023200626 -0.085814804 -0.003569098 0.035429813 0.050214455 -0.01608087 -0.012633455 -0.0489021 0.052913986 -0.013301274 -0.0082433745 -0.13269444 -0.03344036 0.037237313 0.06257582 0.052805074 -0.03394875 0.05655547 -0.09242577 -0.1389194 0.057498474 -0.023168802 0.03692985 0.024849787 -0.006198808 -0.06214808 -0.10348562 0.037809413 0.10418457 -0.050665222 0.039873652 -0.035352457 -0.040059976 -0.045727145 -0.05579029 -0.030730028 0.07879859 -0.15664373 -0.034805305 -0.052663427 0.090012945 -0.08505131 -0.05922689 -0.063930884 -0.012771661 -0.10742407 -0.0679956 -0.053655013 0.14468713 -0.010640682 0.12948424 0.10094789 0.05381421 -0.013172417 -0.056815654 -0.051510043 0.021578547
11171 0.008606922 -0.060927775 0.05365454 0.031417303 -0.016219826 -0.051818155 -0.01646686 0.016225006 -0.032800447 0.017931925 -0.105974905 0.10171703 0.060426205 0.00059282366 -0.04271085 0.09930485 0.013827298 0.06241359 0.011770557 -0.035215817 -0.019009277 0.007301148 -0.074133776 -0.03986321 -0.0767382 -0.06743706 -0.039917488 -0.028553255 -0.0066851145 0.00066188996 0.09342415 -0.045097813 0.07228283 0.11862422 -0.10931556 -0.024810411 0.0028326614 -0.13588744 0.02074879 0.043106396 -0.0102312025 -0.012103909 -0.015542273 0.08028546 -0.007433465 0.062014204 0.05322167 0.011032403 0.043779533 -0.04592278 -0.11949647 -0.03456755 -0.118540466 0.028947331 -0.06698532 -0.024857461 0.044183593 -0.0050245044 0.0070148385 0.021772068 -0.014092962 -0.010040976 0.013945335 -0.07308173 0.082814775 0.12782617 -0.018522983 0.010188546 -0.013140815 -0.053521827 0.025808075 -0.052629586 -0.0334827 -0.0059593017 -0.0010526562 -0.03852528 0.02845404 0.015556943 -0.011450339 -0.06552528 0.02458627 0.09293573 -0.04619754 -0.041159183 -0.03318745 -0.04313498 0.039505687 -0.03460022 0.098886795 -0.021084052 -0.1341782 0.041504335 -0.10137283 0.0069653154 0.058513667 -0.11300209 0.013123639 -0.04269534 0.1080237 -0.10081604 0.1355764 -0.026754435 -0.018869756 0.06613651 0.03516495 0.031685285 0.028287454 0.097507365 -0.13154179 -0.059919357 -0.08514921 0.048897278 0.03329096 0.059316844 0.012655717 -0.08579023 -0.02740177 0.15154843 -0.15742625 0.022039 -0.12299668 -0.009265314 -0.056855567 0.05905107 0.075481534 0.017014533 0.10018275 0.034088645
3654 0.0006898104 0.04467225 -0.049371663 0.024344988 0.018589905 0.052625507 -0.0588486 0.028840689 0.020701788 0.05423513 -0.091710016 -0.06793813 -0.020858947 0.0043373 -0.040398784 -0.017381974 0.06271012 0.07301977 0.03524209 0.10133951 0.036551382 0.064150594 0.0026581194 0.07905348 -0.006730577 0.09698749 0.027599923 -0.032802224 -0.0034250128 0.06258077 -0.00532208 0.026495416 0.042198993 0.07511058 0.0043132366 0.082246006 -0.007346703 -0.0763331 0.053735152 0.043587085 0.07902201 0.020821296 0.013201504 0.032286275 -0.018905858 0.058603123 0.05308042 0.07620224 0.017359817 0.016586289 -0.0034238792 -0.017682016 0.007143244 -0.01717095 -0.09575084 -0.012365956 -0.018265404 0.0038145937 -0.12518768 0.0443921 -0.06049552 -0.11539961 -0.00907371 -0.011162288 0.04661937 -0.060488217 -0.07018495 -0.0804683 0.022908919 0.048655692 -0.03736087 -0.012123135 0.05937998 0.08959742 0.058492858 -0.014341311 -0.052598007 0.075576924 -0.06766002 -0.011159926 0.011785986 0.038607974 0.018098954 0.05486889 0.076028116 -0.113195054 0.09354563 -0.08628008 0.053524856 0.074858315 -0.049828555 -0.044526175 -0.039808776 -0.017528635 -0.036938764 -0.08696314 -0.052670382 -0.08189943 0.00082139013 0.088245094 0.04009072 -0.006766161 0.051965956 -0.026870083 -0.08143082 -0.030266168 0.012460413 -0.010130118 -0.008920787 -0.0031264904 0.03128555 -0.011644488 -0.025257047 -0.00016903253 -0.066556394 -0.00086402666 -0.07911076 0.022016732 -0.11064881 -0.059627373 -0.034620143 -0.01850561 0.02718558 0.03941201 -0.105763346 -0.010668684 -0.037156977 0.0067872745
3315 -0.029591782 0.010887133 0.04766602 -0.12408954 -0.024899136 0.0033601127 -0.01624368 0.0610956 -0.067339934 0.09372105 -0.05502402 0.051103584 0.04124884 0.13810667 -0.083403826 -0.018269695 -0.030661207 0.022536498 -0.0672266 -0.06488537 0.013409045 -0.15470274 0.024068119 0.042353626 -0.0029799056 -0.03509136 -0.11981249 0.031777136 -0.044764005 0.06927579 0.074932665 -0.036425285 -0.1504684 0.008602532 0.03159251 -0.02476325 -0.056534745 0.03553372 -0.059413783 -0.08923531 -0.015381585 -0.03361763 -0.12368178 -0.077469185 -0.065387964 -0.1077095 -0.008244973 0.004990664 0.008953001 -0.042634014 0.09627342 -0.07578175 -0.0060112467 0.023945361 -0.017528696 0.040948752 -0.026195833 -0.0700111 -0.007052184 -0.05592943 -0.015973913 -0.058452085 0.016177498 0.02013323 -0.032337602 -0.011901955 -0.028871102 0.059485737 0.029199248 0.046395976 -0.04990206 0.0039341636 0.062026963 -0.016994562 -0.0442558 0.065895714 -0.08449057 -0.071002625 -0.13771184 0.009064895 -0.002559464 0.044508424 -0.05323178 0.13162093 0.03545377 -0.021920685 -0.02068218 -0.025762506 -0.052699484 -0.0029789903 0.071810186 -0.114140965 -0.001977224 -0.05968727 -0.04686428 0.09879465 -0.03734838 0.047639225 -0.07422206 -0.056580953 0.023492804 -0.067161135 0.02850229 -0.05700902 0.094276346 -0.06385161 -0.014817584 -0.054536983 0.03840259 -0.01713443 -0.053660735 0.016093355 -0.017056692 -0.12309145 -0.0950254 -0.037252355 -0.03997913 0.12711902 0.08220978 0.01957986 0.051715873 0.050970495 0.061802518 0.07908494 -0.006395028 -0.018400563 -0.018271228 0.06243683
3476 -0.09952917 -0.058632158 -0.062230162 0.027520046 -0.012141126 0.06782709 0.00056075223 0.07835404 -0.10190036 0.029317634 0.005426909 -0.030632934 -0.0023569078 0.06530133 -0.022054195 -0.063539155 0.0024195812 -0.0732843 -0.039463464 -0.08032976 0.10761807 0.13136947 0.034499552 0.03804443 0.08710362 -0.04557784 -0.033654775 0.0778054 0.057603184 -0.031981684 -0.04150097 0.06278475 -0.091586314 -0.04222062 0.046335723 -0.0625671 0.09229946 0.05098947 0.003258938 -0.079852074 -0.031037137 0.02165937 0.07331625 0.01153098 -0.020910012 -0.03992543 -0.019181412 0.050830018 -0.0900804 -0.0010973295 -0.03118967 -0.0109155355 0.11250329 0.022875037 0.0859184 0.020623801 0.04542619 -0.0040798173 0.016096713 -0.053323433 -0.021668665 -0.03397371 -0.042963065 0.005489307 0.019107249 -0.09213914 0.038290165 -0.011359718 -0.114403814 0.023659822 -0.020513728 0.018422788 0.03294243 -0.05351794 0.088305674 0.018571232 0.058816127 -0.02714677 -0.059295077 -0.07842369 -0.0056793913 -0.052398942 -0.076837495 0.10144658 0.027122235 -0.0557015 0.085956104 0.073705934 -0.07471301 -0.029183662 0.03983282 -0.049983468 -0.11077086 0.10598967 -0.05010695 -0.06271364 0.01805246 -0.026662655 0.008995789 -0.019276086 0.007497409 -0.00072991283 0.08647016 0.0058917427 -0.05032478 0.018885978 0.046391573 -0.021381801 -0.008634891 -0.0399465 -0.023771716 -0.06438798 -0.013258776 -0.08954629 0.04255115 -0.010981622 0.11234538 0.0689273 0.034770306 0.04583119 -0.025592962 0.023218969 -0.07196113 -0.108883046 0.09275289 0.06361108 -0.0067157014 0.039907217
79840 0.016577393 -0.056092978 -0.14700952 0.098571226 0.065841936 0.11441464 -0.06877704 -0.051361047 0.026550086 -0.03270503 0.07494165 -0.07554587 0.08982906 -0.02857794 0.012995646 -0.049565505 -1.7714858e-05 -0.108997636 -0.031364333 -0.03371939 -0.07765172 0.025232505 -0.059197396 -0.024375092 0.116261885 -0.06536883 0.033558566 0.0693976 -0.0023208421 0.039398395 -0.04639973 0.094658025 -0.08425439 -0.09876267 0.11034869 0.08041046 -0.014923928 -0.06798587 -0.035676762 -0.05918419 0.098949 -0.030147145 -0.00094087096 -0.0030613432 -0.11774691 0.07380253 -0.01586709 0.0078792395 -0.036784478 -0.0033835748 -0.10648787 -0.026924295 -0.051770236 0.08330227 -0.016316362 -0.010443769 -0.05494026 0.010464581 -0.043225378 0.010082647 -0.094241254 0.07810478 -0.08080182 0.006674835 0.026097253 -0.07362203 -0.10386485 -0.03183155 0.082562484 0.012020572 0.00043082505 0.016378615 -0.06764914 -0.036500122 -0.026474556 -0.0400221 0.018402591 -0.043070327 -0.06344739 -0.074770406 0.09926532 -0.0857793 -0.10423195 0.084220804 0.1041264 -0.052230775 0.088966265 -0.010313362 -0.03372973 0.021735473 -0.14977247 0.015371245 -0.06494567 0.002424661 -0.108141325 -0.03902739 -0.07025067 0.036264926 0.005749585 -0.01784409 0.05462041 0.036136556 0.011405285 -0.1387065 0.008165875 -0.08454031 -0.07794554 -0.0021857633 -0.022456156 -0.07241159 -0.0789152 0.062543795 0.019867627 0.09420096 -0.12719576 0.06893279 0.07877898 -0.0572622 -0.03316777 -0.042548895 -0.049909774 0.072471164 -0.07645897 0.036708694 -0.0066839517 0.0072598625 0.012037084 0.14739983
10458 0.005873508 0.029283864 -0.010921835 0.09664313 -0.005719809 -0.039987687 0.06595984 -0.07841501 0.007663892 0.03208826 -0.0044434085 -0.04537297 -0.033401173 -0.07279428 -0.015156803 0.02736244 0.019643422 -0.08476632 0.036762267 0.060138993 0.07802275 -0.15352313 0.05475063 -0.075955704 0.023543002 0.042708345 -0.066447616 -0.131418 0.01636712 0.06311245 0.15920056 0.09414043 -0.008374614 -0.09427257 -0.011902085 0.043948952 0.083287254 -0.050347716 -0.086166196 0.08108917 -0.033957638 0.13174637 -0.094588585 0.0085381 -0.0012364818 0.023262216 0.048136402 0.019675134 0.09329698 0.0016567854 -0.0731092 6.5406726e-05 0.01305747 -0.018847743 -0.092553966 -0.039017692 -0.09964393 0.03950272 0.010309347 -0.012630398 -0.005797229 -0.035246722 -0.08536712 -0.055266183 -0.044792123 -0.042247534 -0.13408475 0.035243202 0.013844983 -0.021283787 -0.08189236 -0.08962607 0.14182258 0.014120339 -0.027398003 -0.07757025 -0.04619357 -0.13677055 -0.042734623 -0.084854916 -0.07803788 0.016497217 0.055221207 0.066138096 0.075888745 -0.011574065 0.03250307 -0.051043022 -0.027388439 0.041371517 -0.04721322 0.10389784 0.02734606 0.06531123 0.0925339 0.034425493 0.1296029 0.0035333552 0.027554879 0.07089879 -0.07528306 0.0474319 -0.14624551 -0.049592976 -0.046880055 0.08028789 0.11575763 -0.04704635 -0.038197614 -0.007705365 -0.058477268 -0.039991524 0.013602773 0.07247474 -0.0040293834 -0.029260486 -0.073654294 0.0788709 0.09929258 0.027349249 0.004104065 -0.007089519 -0.070861265 0.07934083 0.08817795 0.12029888 -0.041217674 -0.043288283
55971 0.07492975 -0.00039196014 -0.09238315 -0.034246814 -0.09012398 -0.040233023 -0.0007837025 0.0124858245 0.006560924 0.0046363752 0.0013552539 0.058733743 0.059645478 -0.06596706 0.08874967 -0.026587812 0.046429176 -0.081160516 0.10799716 -0.038215265 0.13035987 0.0045515923 -0.03334238 -0.07245706 -0.08293197 -0.09493726 -0.0789428 -0.088451296 -0.051573656 0.08806598 0.10477835 0.0525308 0.0994945 -0.03619735 0.011324579 0.025798904 0.10222771 -0.0014914672 -0.010677314 -0.09908443 -0.13380776 0.03401279 -0.046436463 0.03523764 0.017737594 0.06872454 -0.038398426 -0.034346886 0.022855481 0.04535668 -0.002846805 -0.0032078554 0.0658826 -0.023064556 -0.115140915 0.040587753 -0.034488466 0.00681278 0.031019686 0.05122749 0.004088301 -0.027663032 -0.011376152 -0.07633863 -0.0014305993 -0.05692392 -0.048832018 -0.08166628 0.010537871 0.04573187 0.08368174 0.009548686 -0.03574401 0.01699102 0.043070294 -0.038326517 -0.08982471 -0.0108771175 -0.008464613 0.07203845 -0.017071662 0.0961834 0.01569739 -0.033003993 0.070886485 -0.0076287147 0.06801337 0.0015507061 -0.12863985 0.07834919 -0.12443463 -0.06051634 -0.051709954 0.05225426 0.008997729 -0.056743972 0.022787612 0.06291402 0.018495958 0.03473519 0.008709103 -0.026134819 0.0015351118 -0.008659274 -0.045787103 0.0807354 0.054248787 0.06309209 -0.00790635 -0.009580167 -0.047004987 0.10982933 0.05168338 0.007778523 0.0588984 0.07189101 -0.008683907 0.07328868 -0.05996418 0.116948776 -0.07259196 -0.020114034 -0.024636721 0.07381065 0.0126023665 0.01931334 -0.12304161 -0.04006518
6764 0.03681943 -0.027446307 0.011562873 -0.03183484 0.014610127 -0.040230088 0.059931513 0.002746172 -0.00049487926 0.0027092032 0.113829285 -0.04329613 -0.08859866 -0.056503836 0.014563467 0.08761111 0.006080885 -0.028489627 -0.00063503534 -0.0021279133 0.08248595 -0.07022298 0.06384679 0.030701242 -0.026491856 -0.10042011 -0.094087124 -0.038543988 -0.06336915 0.08079985 -0.046334837 0.030176423 -0.08671776 -0.0037283292 -0.0028937343 -0.02509153 0.09507804 -0.03694351 0.02491922 0.030236257 0.005952043 -0.058327757 0.016177256 0.024083573 0.01763191 0.09562485 -0.04274835 0.006696307 -0.058458365 -0.06672884 0.04449903 0.07388378 0.055527918 0.035749737 0.014450282 -0.018876169 0.03554536 0.020394063 -0.13641426 0.023184136 0.05159633 -0.09473458 -0.0017614178 0.12286271 0.1412685 0.007167778 -0.02138503 -0.042236887 -0.046783738 -0.093936905 0.030550128 -0.074976236 0.024874827 -0.08327798 0.0041012173 -0.0050801183 -0.0479584 -0.10463041 0.052001964 -0.0013729015 0.03735539 -0.027444923 -0.01920911 -0.07480573 0.10158888 0.0009950796 0.12637018 -0.083505824 0.14962766 0.04761842 -0.04709251 0.002829126 0.028115068 0.13834171 0.095800675 0.06156977 -0.08024521 0.04563475 0.06034357 0.07874455 0.083873376 -0.013160299 -0.06014426 -0.08825652 -0.016155984 -0.0017594409 -0.011784204 0.11739962 0.020670008 -0.023508543 -0.049180966 0.0041456013 0.04626862 -0.08057328 -0.015572321 -0.09180053 0.09236017 -0.04553062 0.004421385 -0.051093414 -0.16274686 0.03491038 0.024743324 0.07334123 0.09588908 0.03580555 0.05902197 -0.042892367
6461 -0.09573517 -0.108622156 -0.001994143 0.09839406 0.09249717 -0.07060459 0.024032298 -0.043439504 0.08905159 0.010517372 -0.008253693 0.006532544 0.005160312 0.009332304 -0.0046463395 0.035877313 -0.016313456 0.05153254 -0.077390715 0.01233648 -0.008998298 -0.07805496 -0.08218904 -0.081695415 0.011556384 -0.01806554 -0.09283214 -0.04326354 -0.09322052 -0.07840097 -0.07942275 0.12228831 -0.036492947 -0.035745002 -0.0732812 -0.023951527 -0.017820362 0.082803965 -0.0510554 -0.054999046 0.084857374 -0.10712227 -0.031760726 -0.031815164 0.028691538 0.06188446 0.004698373 -0.13357908 0.09417814 0.00050003955 0.013325511 -0.13643001 -0.03591034 0.035493452 -0.064558096 -0.026956296 0.06427909 0.10656172 -0.02602929 -0.03607711 -0.004958504 0.027009407 0.05002928 0.026832724 0.06494828 0.006318787 -0.11031517 -0.044520073 -0.04627915 -0.058349226 0.07426886 0.124206305 0.04318163 -0.14244476 0.014391185 0.06190007 0.12617303 0.021350324 0.02188375 0.036933318 0.022120316 0.03201218 0.020809852 0.13635084 0.04092713 -0.0683005 0.065328315 -0.026492642 0.022400215 -0.08295126 -0.009646777 0.06572929 0.07997565 0.07264538 -0.0893397 -0.051848963 0.021799821 -0.041571617 -0.019387009 -0.016421301 0.09075647 -0.049268566 0.055953376 -0.031797532 -0.06589868 0.11927142 0.032918856 0.092390426 -0.12644567 0.0798566 0.07132966 -0.052209757 0.01429273 0.04705337 -0.06369385 -0.019104464 -0.11093736 0.012062338 -0.09288917 0.086797066 -0.035395395 -0.111481905 -0.024095457 -0.022909269 -0.006932333 -0.014624708 0.00039741953 0.10702195
6714 -0.061388977 0.012989112 0.0010791604 0.06883421 -0.014089792 -0.0786229 -0.087400496 0.09950716 0.116372086 0.0201158 0.07251905 0.06367275 0.09299944 0.015600257 0.09148261 0.024563543 -0.024680546 0.058731724 -0.08617809 -0.11766786 -0.09003372 -0.023379872 -0.05748589 -0.05088607 0.088501185 -0.031758755 -0.09259772 -0.007434987 0.030017812 -0.01605886 0.03751088 0.04278847 -0.02026764 0.04821984 0.04110801 0.060880028 0.0020421029 0.016981825 0.07232517 0.096254766 0.05071908 0.0150069175 0.0043077264 -0.10214415 -0.057872694 0.08160242 0.060673293 -0.0274795 0.03509707 -0.020839766 -0.090788536 0.032954674 0.01824586 0.06899025 0.11527539 -0.056283187 -0.047126748 0.05142812 -0.0076253433 0.073020585 0.013994541 0.0077784047 -0.03376222 -0.02212199 0.06903202 0.05309107 -0.11976083 -0.03041737 -0.09859931 -0.036867343 0.1116886 -0.02535905 -0.03361349 -0.011926608 -0.025753267 0.014452901 -0.06254543 -0.13103254 -0.006506664 -0.057181276 0.008663884 0.030259782 -0.012653271 0.03207486 0.048159916 0.059320863 -0.034276437 -0.09695548 0.064227246 0.050341044 -0.054988768 0.050799966 0.046347607 0.040046424 -0.0093566105 0.046495236 0.048617035 -0.08113124 0.02191994 -0.10965135 -0.06012549 -0.0057386905 0.03492116 0.049064893 -0.048949737 0.007279576 0.015368338 0.037794854 -0.060512345 0.02107227 -0.07160541 0.0038503283 -0.0016681525 0.10366616 0.045121294 -0.062308412 -0.077976696 0.03054513 -0.009424895 0.07112656 -0.05225263 -0.021866966 -0.016909955 0.0622847 0.11297331 0.077314906 -0.0197346 -0.09645139
4851 0.022023395 -0.099376164 0.050296005 0.047325343 -0.030175306 0.054211337 0.14718343 0.010621687 0.038610797 -0.11869306 -0.12570618 -0.0390235 -0.073537745 -0.094014205 -0.029398417 0.008181718 -0.07194448 0.02841177 0.101199046 -0.0065025324 0.07157439 0.09502229 -0.012750186 0.017514719 -0.011246515 0.04011953 0.09090304 -0.015773833 0.031353537 0.013715229 -0.035511207 -0.07086758 0.03230774 -0.063575834 -0.098848775 -0.037996717 0.067532785 0.005770647 0.08763471 0.029601213 0.07360262 0.048227787 -0.011235369 -0.06903722 0.030691097 -0.019439878 0.09987023 -0.051677164 -0.045965727 -0.039154835 0.02150677 -0.027832478 -0.0962638 0.06268384 -0.10046844 0.09863727 0.009928539 0.075306736 0.053401235 -0.012927755 -0.1014746 -0.026268689 0.08419142 0.051493637 0.059055045 -0.09102928 0.0021038093 -0.051780716 0.024598386 -0.110553816 0.07129454 0.070368424 -0.08641617 -0.06962147 0.003674097 0.04515416 -0.06781857 0.038682498 0.061269753 0.040224493 0.04940156 0.14071827 0.003939676 0.009209567 0.10583637 0.112920456 -0.031376757 -0.08231288 -0.049226068 -0.1314272 -0.06279055 -0.07167979 -0.075113244 0.1263978 -0.07691578 0.12187846 -0.011720502 -0.070829 -0.10304667 0.11935849 0.034768086 0.023414474 0.0037309167 -0.012251277 -0.06315899 0.011923184 -0.027446628 0.02519475 0.10081255 0.018959649 -0.026568135 -0.03297076 -0.05272262 0.09196864 -0.028604064 -0.06469289 0.015693756 -0.02512095 -0.06154579 0.009873578 -0.059214827 0.07855146 -0.078869365 -0.031337705 -0.069479555 0.0021610695 0.0029373062 0.068313085
5664 0.078687504 0.003761873 0.13722582 0.057926692 0.06800153 -0.057222944 0.086900204 0.060184956 0.11245838 0.04094302 0.05717622 0.039077006 0.09474963 0.017222848 -0.011468614 -0.03180274 -0.09135188 0.0014332875 0.009095167 0.047744624 -0.090558626 0.06314623 0.088913344 0.011366843 -0.026760893 -0.04861108 0.0011792674 -0.07769709 -0.039404187 -0.013566179 -0.10956485 -0.12594 -0.00861958 -0.04786817 -0.032713592 -0.11572061 -0.04031901 -0.1099116 -0.053850707 0.015365463 -0.033336937 0.09220746 -0.017895147 -0.027598476 0.112785704 -0.11867454 -0.07145065 -0.009979635 0.13457985 -0.016627425 -0.043141756 0.044747148 -0.02315607 -0.062283866 -0.13219534 -0.07090667 0.03384362 0.017864486 0.12484943 -0.026768912 -0.06673139 0.034876797 0.08383508 -0.017946368 -0.025762362 -0.0995689 -0.010752364 0.0023873295 -0.030459125 -0.010579892 -0.022806354 -0.07237123 0.019290516 -0.14515059 -0.012622874 0.02427184 -0.024308832 0.049725138 -0.04373025 -0.03225498 0.05257194 0.011913835 0.023385098 0.033612955 0.13301682 -0.036988024 0.015281665 -0.07839605 -0.070961334 0.016226508 -0.0006648919 0.009318837 -0.1072946 0.033069544 0.072774746 0.026863376 0.027290333 -0.10554266 0.083214074 0.053436466 0.040605746 -0.053269077 0.025014807 0.052330267 -0.04533791 0.095104575 -0.06430211 -0.07430605 0.03284949 0.0034510733 -0.0512534 -0.08859371 -0.114500776 0.09007572 -0.10901594 -0.081798226 -0.017936844 -0.08334697 0.061713155 0.02111657 -0.052607104 0.097760886 -0.07762699 -0.096631125 0.016503664 0.0922177 0.06476301 -0.027595853
2549 0.08556318 -0.011202453 0.024957314 -0.07408964 -0.038190193 -0.07131879 0.13038243 -0.011702635 0.061859887 -0.11128941 -0.017985413 -0.05952789 -0.08470766 0.0019568328 -0.02583192 -0.09412224 -0.0076763583 -0.0015624834 -0.028838366 -0.055017177 0.056004513 0.055112533 -0.013772942 -0.0060064057 -0.090661876 -0.102005355 -0.13751663 0.04905099 0.0016851323 -0.033462632 0.02012454 0.09083625 -0.09115484 0.04325453 0.017374603 0.07794119 0.0572864 -0.00480117 0.067713745 -0.028649868 -0.063725695 -0.10013376 0.028560625 0.04757873 0.0055220495 0.008087299 0.060907103 0.019325316 0.12104183 0.027253535 -0.10921652 0.05631131 0.024899455 0.046919815 -0.038698778 -0.023597324 0.041733447 0.002263112 0.13505115 0.031291276 -0.034583755 -0.008786347 -0.0067552067 0.09412519 0.02070628 0.05364661 -0.0863823 0.061008625 -0.004002513 -0.019143375 0.049267523 0.13205278 0.024895165 -0.027104778 0.12186637 -0.03177054 -0.005085153 0.106823936 -0.031324655 0.021833658 0.019540062 -0.0027340448 0.06799732 -0.01514947 0.050599717 0.100822486 0.031511456 -0.16034801 0.12004729 0.08861542 -0.0427075 0.09398035 0.058317836 -0.02055595 0.12497562 -0.04239068 0.020930206 -0.050289903 0.025151994 -0.029236197 0.10814164 -0.08368165 0.008745361 0.026100866 -0.16078407 -0.024380125 -0.04891487 0.0035071373 0.054796487 0.038579736 -0.0056269835 -0.07346472 0.055666804 0.056723166 0.07931681 -0.019122321 -0.053971205 0.05357355 0.08747772 -0.021843666 -0.112872705 -0.007576461 -0.03389315 -0.10358608 -0.042972315 0.018092377 0.05381184 -0.019769037
5829 -0.07490976 0.09110271 -0.06278885 -0.108087994 0.018193454 -0.017312838 0.008156689 0.035465494 -0.054792225 -0.037498713 0.062377762 0.10297485 -0.06474049 -0.04736899 0.15442057 0.04755689 0.08825596 -0.022909733 -0.020266755 -0.06762522 -0.003861397 0.07670635 -0.06267162 -0.021101687 0.012621397 0.05283219 -0.026153449 0.010431002 0.011664438 -0.08580286 0.11121309 -0.009618358 0.100085355 -0.056944482 -0.036386512 -0.096175574 -0.018468697 -0.05162148 -0.019273534 0.060279347 0.07129701 0.06039362 0.06374209 -0.018068703 0.07331402 -0.009750649 0.14185742 0.056586105 0.026655564 -0.055854864 -0.04984051 -0.03886553 0.07527981 -0.008719951 0.014356011 0.008917835 -0.023200767 0.011802228 -0.09693691 0.030293487 0.04955142 0.03784363 0.055952717 0.06720646 0.08295669 -0.03897845 -0.06995358 0.05183829 0.057477962 -0.06779944 0.046859354 0.023435134 -0.0065315943 0.05904714 0.03723066 0.061919108 0.063604705 -0.051902834 -0.10222884 -0.034792416 0.07882145 0.10416189 -0.008026573 -0.057746284 0.08059953 0.06643227 0.07560572 -0.04173666 0.08899146 -0.0027976334 -0.05377083 -0.053657398 -0.030022154 0.021949446 0.048644256 0.0010259972 0.14160337 -0.048324402 0.10340985 -0.13120997 0.003425731 -0.065035455 0.09008932 -0.06418675 -0.07024583 0.0240198 -0.0047075506 0.11974195 -0.0163393 0.04990252 -0.067291245 -0.04954444 -0.048987955 0.0046843346 -0.03672397 -0.10805401 0.04929621 -0.027182795 0.048317716 0.039112087 0.020803828 -0.016911006 0.036872774 -0.035618793 -0.029011207 -0.008831439 -0.043474827 -0.022867233
5295 -0.047771044 -0.044158872 0.07684691 -0.011732537 -0.10640714 0.07487247 0.0120661585 0.03740375 0.034398623 -0.13675268 -0.011516016 0.003218606 -0.052648753 0.058791954 0.015644014 0.06699126 0.07093411 0.086349644 -0.018507926 0.022858823 0.017275587 0.13772221 -0.085539326 0.08486262 0.08830898 0.016968122 0.11527682 -0.015954379 0.057754625 -0.10917078 -0.01856277 0.11469148 0.06249153 -0.115273334 -0.06557245 -0.050756734 0.10540267 0.08729128 0.032769572 0.018773995 0.062352214 0.05663456 0.051072694 -0.07388949 0.061103374 0.050762746 0.036003046 -0.09781081 0.07625095 -0.108496726 0.11025997 -0.06425965 0.008919828 -0.037406303 -0.021527192 0.04203462 0.06506506 0.100585945 0.0355076 -0.06414935 -0.07453313 0.0865249 0.099688716 0.0058495505 0.084327705 0.117471285 -0.1327328 -0.02744526 0.05792063 -0.063664585 0.058770206 0.043129392 -0.05979295 -0.0043515656 0.044031195 -0.072938584 -0.005621941 -0.0067845797 0.021436986 0.14411618 0.119005874 0.056819607 -0.020329114 0.055702776 0.0836121 0.041020267 0.017211368 -0.07427926 0.046706755 -0.030236261 -0.11977179 -0.012338892 -0.010329932 0.02059286 -0.029812284 -0.048752945 0.07324443 -0.027996354 0.051800612 -0.034817245 -0.06585783 0.05663079 0.04832381 -0.06573807 -0.07304689 0.03477269 0.010280236 -0.03039997 0.03318937 -0.066319406 -0.028611584 -0.10849504 0.008212167 0.12526172 -0.10301614 0.055406455 0.107081674 0.12495478 -0.15407759 -0.022828542 -0.04390067 -0.120334074 0.029845262 0.110003635 0.06826739 -0.053909738 -0.09324813 -0.015120398
5871 0.008630746 0.03457927 -0.06520695 0.07586807 0.076250955 -0.0032770801 0.04847435 -0.037502263 -0.08477559 -0.06773534 -0.0058684293 0.08831508 0.009034632 -0.06547257 -0.1067191 0.023904506 0.10946124 0.00063728646 -0.04713064 -0.03667981 0.032009903 0.045063518 0.047266204 -0.070541665 -0.05318032 0.020387074 0.035468217 -0.055713903 0.008669177 -0.03008428 -0.054927826 0.05693039 0.013750544 0.09023285 0.06371162 0.06681409 -0.09323422 -0.01757052 -0.027655035 0.061821684 0.1035727 -0.017331442 0.023214115 0.0841979 -0.027111823 -0.020181742 0.07533273 0.023592725 -0.027168877 0.022949167 0.06848548 -0.09508164 -0.02420717 -0.0028044893 0.056699388 -0.06836305 -0.10274129 -0.023355823 0.0048714867 0.012898166 -0.05116506 -0.016884694 -0.060036182 0.053610124 -0.061509456 -0.05341872 -0.053450745 0.042943045 0.056499008 0.101866156 0.0620816 -0.1220994 -0.08629873 -0.025103273 0.0122982105 -0.0026923332 -0.023558766 0.007341832 -0.1022691 -0.025667537 0.009257071 0.03891731 -0.057383306 0.045113206 0.033328645 0.04378775 -0.08716199 -0.09910505 0.087798335 -0.060290053 -0.03827907 0.06323073 -0.0803821 -0.009265565 -0.06908237 -0.014793491 0.02171459 -0.059435405 0.112189844 0.06913924 -0.059930976 0.00092820753 -0.024784645 0.09072304 0.03172415 0.032754254 -0.0760293 -0.02607531 -0.041968685 0.060782462 -0.036745045 -0.013438073 0.026580146 0.08762309 -0.03963423 -0.07884692 0.06312231 0.05086159 -0.012545943 0.119578116 0.011193748 0.035261203 -0.039957646 0.017630592 -0.07290356 -0.008819083 0.11592828 -0.041658066
6416 0.020202588 -0.064534776 0.024312813 -0.0078118793 0.03813432 0.092846006 0.023962146 -0.06879148 -0.0028622567 -0.11967503 0.074319124 -0.005301406 0.04346568 -0.13023521 -0.093356654 0.020349644 -0.03157755 -0.09025092 0.020082394 -0.06507421 -0.03905998 0.041510966 -0.117997356 -0.07102787 -0.023921108 -0.0059029274 0.017231403 -0.030901974 -0.023850575 -0.04877897 -0.008749258 0.014645598 0.14974943 -0.04402431 0.14806327 -0.05720833 -0.06745851 -0.041629307 0.1263809 0.09362115 0.092051946 -0.15725939 -0.04034033 -0.00043361977 0.04000884 0.022787144 -0.050287746 0.05006552 -0.049136654 -0.10060163 0.06150195 -0.07883209 0.028355055 0.03461259 -0.033133537 0.019200321 0.02520113 -0.049782533 0.022246404 0.020764804 0.06300687 0.039858896 -0.013123092 0.026576124 0.044427097 -0.0949591 0.015456082 -0.060519885 0.07451372 0.08015124 0.0023374513 -0.008917651 -0.08441413 0.026198123 0.0648498 -0.049910057 -0.013244638 0.08526663 -0.048299532 -0.016717441 0.04421426 0.014000216 0.10854309 0.023499664 0.026283776 -0.039631337 0.0018833259 -0.011142918 0.04205819 -0.024474679 -0.060426045 -0.007817729 0.02142603 0.0501536 -0.0020666318 -0.014984593 0.1121318 -0.0074217757 0.035600845 0.04274947 0.07396527 -0.0009920131 0.013498653 0.010202837 0.04705169 0.10250931 0.039665885 0.037187416 0.017743627 -0.027380146 -0.00809688 -0.026539389 -0.085497096 0.038058717 0.009397451 0.0015646048 0.03088084 0.06311006 -0.030507695 0.098382935 -0.03684655 -0.00026381598 -0.010848561 0.07018963 -0.02834332 0.124994755 0.013323542 -0.06098928
302 -0.016550751 -0.035705417 -0.020123793 0.04995669 -0.020881837 -0.018446434 -0.033712015 0.0189427 0.1239633 -0.037915368 -0.04159057 0.09542893 0.109478965 0.009244325 0.054694027 0.039412227 0.09403002 0.122744344 0.020995487 -0.026015142 0.0030812658 -0.044801522 0.12506013 0.068173975 0.04207247 -0.019920051 -0.010320891 -0.09918654 0.043774758 -0.10929836 -0.1289045 -4.968111e-05 -0.054872233 -0.018481396 0.08832233 -0.03148488 0.09090335 -5.8603706e-05 0.13583674 0.11538437 0.0036155386 0.04219932 0.01294934 0.05630148 -0.0025872258 -0.057920266 0.026031826 0.040884722 -0.09078921 -0.00056919997 0.09797049 0.019362483 -0.048851836 -0.029284148 0.08076679 -0.047244124 -0.06315534 0.13165745 -0.05285265 -0.020596275 -0.12630829 -0.06308744 0.055555884 0.02158519 0.053852264 -0.0020879398 0.010206771 -0.0591388 -0.015185503 0.020003274 0.04391132 -0.0906669 -0.04746163 0.08461842 -0.0832948 0.01821454 0.041034564 0.020989818 0.020492539 0.14086728 -0.11645155 0.03526685 -0.00900747 0.08533776 0.065978564 -0.120996155 0.01080267 0.006106746 0.08602877 -1.6205442e-05 -0.02010231 0.028317142 0.016206414 0.0191965 0.05623536 -0.023460053 -0.025920313 0.037601504 0.049785476 -0.026318224 0.08255791 0.038754866 0.04998864 -0.059959836 -0.045154292 -0.06270388 -0.011228585 -0.036198046 -0.09586345 0.042708755 -0.035141747 -0.071728684 0.051801845 0.004638259 -0.04941913 -0.029735953 -0.05328762 0.0145539 0.025941687 -0.085513115 -0.059320115 0.1351905 0.028746111 0.09170082 0.050569534 0.0949115 0.0342862 -0.0064210016
3622 0.021540636 0.025571004 0.10476907 0.05799422 0.08814406 0.04038414 -0.023688802 0.0029255215 -0.11833687 0.074907616 0.11994824 0.06990042 0.03460179 0.024190374 -0.08298983 0.08436031 0.018193912 0.03733655 0.05795975 -0.0292186 0.06546569 -0.031935427 0.14092307 0.009962267 0.06956542 -0.0024530855 0.13162223 -0.10206042 0.01342931 0.04455885 0.055929042 -0.0049286457 -0.0066652372 -0.08949516 0.04107955 -0.018809559 -0.038358305 -0.13961071 -0.05389664 -0.03900426 -0.10467865 -0.10489189 -0.1010005 0.037886087 -0.025373086 0.07222858 0.030327007 -0.01011149 -0.10417184 0.05352886 -0.079932705 0.05514308 0.020438401 0.027136557 -0.09000986 -0.09595471 0.039027777 0.0070626833 -0.11079412 0.06068709 0.019082094 -0.0013491545 -0.071704075 0.06830655 0.059928164 0.05970728 -0.006949638 -0.017841246 -0.026803013 -0.065269254 -0.05847921 0.011506533 0.032450814 0.010265032 -0.0052539827 -0.09590924 0.0496458 0.04847856 -0.0018341526 0.09295769 -0.03115671 0.044639003 0.070288405 0.04006639 0.04811426 0.08322692 -0.0149115715 -0.033750966 -0.0020630953 0.035811346 -0.1250471 0.039915968 0.07079165 0.025837881 0.063625686 -0.054305814 -0.049478643 -0.058594845 0.0797195 0.06245402 0.049010895 0.031155063 0.077488974 -0.06036567 -0.06875802 0.0014111544 -0.020794807 0.091821805 -0.05670144 -0.036120743 0.06325012 0.019162823 0.11922754 -0.0583622 0.04217886 -0.042831704 0.010881174 0.10615861 0.010996506 -0.019051371 -0.074133396 0.015580766 -0.05037349 -0.017673567 -0.040557932 -0.04113476 0.030496016 0.07688349
4087 0.047535595 0.03781626 0.10465621 -0.018773403 0.03598652 0.087140046 0.077973604 0.03571899 -0.07850159 -0.040745188 0.0544356 -0.030607242 0.087367825 0.07476138 -0.04344793 0.02035612 -0.0025649546 0.009691043 0.032633875 0.08243413 0.031500738 -0.030031087 0.017145202 -0.072257765 -0.023750456 -0.13243842 -0.038885124 -0.11237851 -0.009246213 -0.010645929 0.02458037 0.028250955 -0.05927624 -0.014108633 0.004675428 0.001129018 -0.014133192 -0.038425803 -0.024531687 0.038855836 -0.012620838 -0.10393505 0.035109177 -0.015030506 -0.038682673 0.023878139 0.072111316 -0.10106816 0.07948702 0.036589626 -0.039393578 0.032960184 0.002226162 -0.073662765 -0.10500618 -0.023767412 0.0008366124 0.014423272 -0.024718007 -0.034895238 0.062333938 -0.008712316 -0.0014574446 0.0705414 0.120851785 0.12131091 -0.046308357 0.092011325 0.023803296 -0.032594673 0.07332309 -0.0028754522 0.02970762 -0.08206229 -0.062684804 -0.11511613 -0.0074351067 -0.070932224 -0.03927896 0.006803325 0.11677319 0.11437788 0.06990047 -0.057913452 -0.064830825 0.02308151 0.08995377 -0.12957053 0.15053621 0.060296174 -0.093479775 0.07381407 -0.027952062 0.028012628 0.041683648 -0.051930677 0.08467714 0.060667336 0.13681614 0.008593276 0.08984388 0.07240593 -0.055406045 -0.0484292 -0.10115149 -0.0054112 0.042951245 0.07256402 -0.14080475 0.039646354 -0.047902036 0.0020991624 0.067912385 0.0045581013 -0.023288747 4.2960222e-05 0.046092592 -0.028873393 0.013711979 0.02061638 -0.17355895 -0.04554083 0.0078745885 0.06391731 0.050731294 0.03730303 0.019409513 -0.15411113
23557 0.002453804 -0.009535164 -0.0775924 -0.113308795 0.113839485 0.018742777 0.019433288 0.06318851 -0.07291608 0.03104088 -0.030987868 0.045531783 -0.016395362 -0.11882522 -0.052972957 0.0461581 -0.08270121 -0.019579006 -0.01587114 0.034178343 -0.04162996 -0.07439616 -0.01093581 -0.011610168 -0.009274366 -0.054336764 -0.040981516 -0.038150597 -0.07664473 0.057762764 -0.05414147 0.08420962 -0.08069576 0.10721684 -0.015188938 -0.05715251 -0.054800972 0.026380448 0.019329943 0.1367347 0.023047665 0.008361563 -0.09416688 0.12636273 -0.04781476 -0.06550717 -0.049490463 -0.051419526 0.06359212 0.075156875 -0.035798945 -8.817144e-05 -0.015571562 -0.02633993 -0.032221198 -0.0014767864 0.03405573 0.04077459 -0.052772995 -0.07369339 0.07366058 -0.07595514 -0.11580683 0.12652063 -0.03676043 0.10390502 0.07243766 -0.07041921 0.035784204 -0.017476186 -0.07109025 0.018553438 -0.09248072 -0.0004285837 -0.10905588 -0.055609446 -0.061798908 0.024950337 -0.044327267 0.096632116 -0.01041587 0.022747267 0.102639295 0.0042451518 -0.04755757 -0.039314166 -0.03884995 -0.059134997 0.15755951 0.04076573 -0.016990665 0.036787134 0.048524797 0.016850827 0.01933501 -0.134368 -0.06305407 0.05071482 0.050211355 -0.10389285 0.031216841 0.10310873 -0.056761216 -0.042193677 0.048918135 0.057590533 0.06571388 -0.023790205 -0.052513886 0.058109667 -0.079551265 -0.013610934 0.0072432943 0.012425681 -0.063500136 0.11610112 -0.048831344 0.028979653 0.010262686 -0.07730611 0.033432327 -0.047488082 0.043775443 -0.08973593 0.032198686 -0.07169828 0.0038695876 0.044066817
5603 -0.016168915 -0.055323005 0.04432808 -0.028769566 0.037179504 -0.029108202 -0.01155903 0.019917542 -0.015980868 -0.022840885 0.08427185 0.011369233 -0.025109306 -0.062184565 0.012426414 -0.023753852 0.025352003 0.057987828 0.10069528 -0.025165197 0.08221368 -0.002711245 -0.008804485 0.03380644 -0.098363146 0.0588768 -0.016065288 0.061458595 -0.059637465 0.038875353 0.044216592 0.03109597 -0.08223345 0.07674683 0.004310314 0.04915812 -0.021598857 -0.023089593 -0.03037976 -0.084524326 -0.029643724 -0.10623634 -0.03464953 -0.021350028 -0.002047007 0.007316943 0.048965998 -0.0032654207 -0.055618417 0.0521769 0.07144222 0.023906061 0.0030347635 -0.016663136 0.15128583 -0.018642623 0.027290951 0.048171327 0.05066479 -0.039120413 0.014544313 -0.00021940569 0.010304437 -0.060720086 -0.055268582 0.08675738 0.0961694 0.0645654 0.017969903 -0.038063027 0.057196558 -0.021012003 -0.1287261 -0.031311233 -0.046929017 0.077356555 -0.070830956 -0.045846518 -0.03446882 -0.010813921 -0.064329684 -0.0011471016 0.046440423 -0.0031765993 -0.06649347 -0.03376188 -0.0042374046 -0.05189688 -0.051761314 -0.0053164107 -0.041321438 0.02001358 -0.024215452 0.00874851 0.07554086 -0.007557512 -0.03030366 0.038489513 0.11041311 0.0155715775 -0.049323063 -0.056845237 -0.022523869 0.040623326 -0.054935455 0.021547863 0.008159423 0.082564205 0.053345636 0.010799648 0.009089012 -0.017800575 -0.06452339 0.024974074 -0.014343238 -0.12552953 -0.071137495 0.06682665 -0.0949268 -0.09250793 0.0074723684 0.029654462 0.0038684139 0.05069244 -0.13515641 -0.08240866 0.108979225 -0.05988139
7157 0.012363624 -0.009840979 0.047472626 0.034199413 0.022428403 -0.061493136 -0.052399654 -0.0054299864 0.055794433 0.0026564405 0.06509373 0.014348153 0.09329623 -0.077941574 0.055174515 0.062303074 0.06281941 0.010723172 0.042819712 0.058894955 0.011927483 -0.03358601 0.027532494 0.01874958 0.014676443 -0.035235897 -0.07325767 -0.020627161 -0.012654027 0.06085289 -0.031610038 0.07517336 -0.030547872 -0.04478274 -0.0044879243 0.045081425 0.07834225 0.024717575 0.07424445 -0.09868357 -0.11048174 0.009240146 0.041286286 0.037419014 0.008308297 0.06828256 -0.035574745 0.07159035 -0.14873913 0.07334027 -0.04967156 0.01966409 0.052110456 -0.0026901846 -0.060433 -0.07053294 -0.04267504 0.06684062 0.037956312 -0.021509781 -0.078631334 -0.018442642 -0.02455051 -0.13522983 0.005543416 0.05290599 -0.07417663 0.07739799 -0.012935241 0.033567507 -0.014312744 -0.021144897 -0.056874953 -0.13482782 -0.006772909 -0.106009685 -0.06357378 -0.09179732 -0.03937633 0.032277156 -0.0031878324 0.034707658 0.071530566 0.13540724 0.022463564 -0.1272937 0.02722704 -0.02090772 0.027050123 0.07802732 -0.09341301 -0.0089938305 -0.01054499 0.00679955 0.11827814 -0.08782994 0.09495594 0.028725218 0.012377262 -0.1412399 0.08940534 0.0779453 0.045998644 0.13839424 0.06541758 -0.00083270535 0.00085505156 0.020230152 -0.042970702 0.013864441 0.117662475 0.08030161 0.05569148 -0.021427048 -0.10007447 -0.159218 -0.075639464 0.08820342 -0.07578646 0.0013361438 -0.042521685 -0.01701853 -0.022175284 -0.011177423 0.04586575 -0.08478117 -0.04116175 -0.076266676
5599 -0.071364 -0.07068408 -0.0034792498 -0.089943364 -0.08012055 -0.0072318334 -0.060794424 -0.08607871 -0.06213282 0.09109105 -0.08433671 -0.09842056 -0.038704984 -0.0501154 -0.026650876 -0.036105625 -0.055249054 0.010030803 0.04227202 -0.052845832 -0.08058897 0.10069082 0.044341803 -0.13847122 0.006861254 0.033383768 0.14616545 -0.0519763 0.040354073 -0.021844419 -0.03252339 -0.07139559 -0.10231748 0.07979067 0.037853308 -0.01890244 0.002903936 0.005306185 0.05962692 0.044559676 0.11307936 -0.113151796 -0.003279528 0.001504549 -0.0426132 -0.010841972 0.055943493 -0.11516836 0.08523129 -0.019525684 -0.057314754 -0.036614962 -0.050651327 0.0069024316 -0.11193396 -0.08538066 0.018864414 0.09179323 -0.08698582 -0.04931578 0.016009502 0.017469598 -0.018576397 0.05683284 -0.09983914 0.009288819 -0.059154287 0.043617297 0.04895075 -0.005595584 0.036274448 -0.07822884 0.02976948 0.029204994 0.06181767 0.057534333 -0.1627542 -0.020463442 0.060606383 0.025575368 0.11203546 0.054204345 0.018892163 -0.043765396 0.10463121 -0.07401403 0.025378712 -0.15081075 0.11419666 -0.046069447 0.070191555 -0.001201346 -0.08829418 0.045587916 0.009020829 -0.1287249 0.033238266 0.002343168 0.08527959 -0.10043827 -0.111100376 0.09623301 -0.04021374 -0.07506245 -0.012236178 -0.116164744 0.007485094 0.057922702 0.016937118 0.0007826247 -0.07163185 -0.01446533 0.072857 -0.02556062 -0.05659084 -0.13079152 0.041661676 0.067127526 -0.0020436575 0.023656292 -0.062749416 -0.034952942 0.022569098 -0.0013870643 0.062158115 0.12210682 0.015445648 0.027244853
6464 -0.015861217 0.032667413 -0.0014398261 -0.06404612 -0.07691884 -0.0020334139 0.05296216 -0.07835951 0.027211001 -0.013629994 0.01808441 0.054125942 0.09623177 -0.057830658 -0.04087842 -0.010977011 0.022873225 0.007851295 -0.044847667 -0.050687276 0.04274133 -0.058105063 0.04573521 -0.07469417 -0.10140915 0.05572553 -0.09480553 0.004463982 0.05739687 -0.09479012 -0.02866679 -0.006795273 -0.011368434 0.083964154 -0.091363035 -0.088409916 -0.00665915 -0.046921197 0.085589126 0.021321857 0.06808162 -0.07304311 0.09052482 -0.03250595 -0.12778193 0.014146801 -0.1277578 -0.07349475 -0.028606905 -0.05512664 0.08659672 0.04593519 -0.10506739 0.03259672 0.03429926 -0.01849635 0.040382285 0.054418605 0.06584318 0.07386419 0.01479497 0.07910516 0.03644941 -0.04090887 0.037044603 0.026975436 -0.10113717 -0.068866394 0.04072181 -0.050100286 0.050390314 0.07288506 -0.11249478 -0.052098785 0.0028701941 -0.06676222 0.04979226 -0.002014891 0.051662665 0.10289131 -0.020253435 0.080312625 -0.009361678 0.028016575 0.07584875 9.175268e-05 0.0034041535 -0.12499408 0.13522603 -0.0035038167 0.056307867 -0.012010129 -0.051074993 0.060626384 -0.0747875 0.04424771 0.042567804 -0.118249595 0.095986016 0.01563838 0.10351161 -0.009198205 -0.002775156 0.055290446 0.06076594 -0.032409806 -0.063555576 0.050437644 -0.013008894 -0.10470951 -0.021751141 -0.0982788 0.08359842 -0.0029535512 0.023530532 -0.08299826 0.067401625 0.070471995 -0.04369361 0.030191775 -0.12213367 -0.021471027 0.047773305 0.026910692 -0.0240047 0.07629843 -0.09923461 0.07210267
5300 0.06367899 -0.010114775 0.08404809 0.055649024 -0.077535935 0.07913714 -0.073518075 0.04090214 0.025701394 0.006453545 0.04825572 -0.051325433 0.05853115 0.015560678 -0.0067772903 0.07630848 -0.04155905 0.016202383 0.030657908 -0.031357713 0.027843576 -0.06237018 0.01972043 0.10111837 -0.05221214 -0.027640201 -0.09044449 0.025404679 0.023755588 -0.056982525 0.005336527 0.0056800363 -0.011298251 0.04100297 0.063210115 -0.09440843 -0.0026083451 0.030995738 -0.076972075 0.010051929 -0.0629717 0.065763935 -0.02181576 0.032431476 0.055150565 0.06843251 0.07612991 -0.005424411 0.002547718 -0.015311022 -0.0229662 -0.098684035 0.028493809 0.014859249 -0.07236921 -0.020918727 0.057989743 0.0063136905 0.038951244 -0.04475632 0.043805387 -0.0026730413 0.0020371545 0.038415197 0.044693857 0.08151528 -0.15981245 -0.016465904 0.029437115 -0.048438948 -0.019830436 -0.020181904 0.08509518 -0.08918715 0.03578799 -0.08345243 -0.015444901 -0.053310364 -0.10719611 0.060901638 0.12031585 0.0020031529 0.042516313 0.022715433 -0.018984819 -0.0031337051 0.06862555 0.04883161 0.09007452 -0.07677414 -0.037619825 -0.05482148 -0.07535684 -0.06666007 0.054138973 -0.14779165 -0.073009565 0.05353198 0.08161386 -0.101334214 0.07699642 0.044665635 -0.008321298 -0.019892951 -0.016707188 0.066790916 -0.0809061 -0.008605896 -0.04530975 -0.092478976 0.048143815 0.011929439 0.039230723 -0.036847662 -0.022145398 -0.029867915 -0.04153342 0.08336918 0.050765924 0.09746919 0.01637924 -0.035710122 -0.05528231 -0.013953998 0.13298474 -0.007243656 0.12085082 -0.035850696
4303 -0.098397024 -0.10193864 -0.08509674 -0.026834136 -0.049863946 -0.025998991 -0.064545 -0.09337014 -0.097878546 0.06974236 0.096886486 0.07770513 -0.10763942 0.059051897 0.002565865 -0.03039014 -0.03697902 -0.029129623 0.030445922 -0.039417833 0.0127656525 0.01804028 0.007901856 0.059508294 -0.055805884 0.044194408 0.011979682 -0.0835661 0.04097476 -0.04276643 0.024700632 0.025235035 0.09135501 0.036184642 -0.086150296 -0.082398035 -0.13791342 0.090220764 -0.06261094 0.0030322238 0.07006133 0.14269122 -0.050610714 0.088935114 0.027169462 -0.09993841 -0.10037025 -0.03467743 0.037318815 -0.0812205 0.0589749 -0.02375129 0.047942374 -0.06123847 -0.081460856 -0.0868313 0.10642382 -0.04458792 0.06813812 -0.029887013 -0.07454882 -0.018372582 0.042392544 -0.025394756 -0.061806995 -0.056324232 -0.107368246 -0.049315155 0.14214914 -0.10259301 0.067402415 -0.1024653 -0.06310218 -0.018453762 0.07362355 0.053133674 0.06729904 -0.0142179625 0.01844248 -0.1171041 0.03948556 -0.017031714 0.03543965 0.0883713 0.004224874 0.007497151 -0.08891117 -0.05668195 0.011953462 -0.08206135 -0.040114313 -0.056177244 0.043270558 -0.017112179 -0.006127424 0.06249737 0.13494915 -0.037316453 0.0912225 0.043662574 -0.06244407 0.107730694 0.005959376 0.02269171 0.085613735 -0.062389847 -0.054354344 0.0817415 -0.09116139 -0.05877425 -0.06895558 0.024362644 0.043916393 -0.014196591 -0.096167296 -0.075487174 -0.08828951 0.05091415 -0.029267613 -0.044862505 -0.101144254 0.04535386 -0.013770169 -0.0015296766 0.06325898 -0.0019874312 0.06710141 0.03152936
7531 0.016239315 -0.082803294 0.031435326 -0.014321301 -0.10764889 0.14542869 -0.018327285 -0.026456026 -0.0146745015 -0.019319324 0.05997294 0.03263211 -0.0032263496 -0.019174634 -0.054151054 -0.0083286585 0.029861202 -0.053513184 -0.008422948 0.041001342 0.0065770545 -0.035927434 0.025413988 0.10751843 0.06263017 0.05359731 -0.0055007706 0.09257583 -0.02291477 -0.0128177265 0.077302955 0.04606088 -0.002577939 -0.05233049 -0.053975306 0.022480045 -0.037620448 0.09796807 -0.09634417 0.016685894 0.0064868378 -0.046216115 -0.0995138 -0.08442913 -0.06936634 0.011216315 0.01122627 0.04529078 -0.074566185 0.03715493 0.041591637 0.05433581 -0.04034192 0.030834593 0.08612081 -0.0958037 -0.030607196 -0.009980511 -0.013882876 0.06753833 0.033619985 -0.0061679035 -0.03392664 0.06546002 -0.008569326 -0.010571922 -0.110379465 0.006751829 0.00997375 0.0054752324 -0.06908207 0.01301928 0.011632012 -0.022209093 -0.05508022 -0.057987746 0.09298038 -0.062184718 0.0133132925 -0.004022071 0.041336544 0.13793738 0.030933544 0.0880835 -0.040740825 -0.096057445 0.08413391 -0.017140398 0.026316823 -0.018733788 -0.054015774 0.05687924 0.034154493 -0.078689896 0.025854602 -0.09045445 0.03033414 -0.035058144 0.021969121 -0.014674053 0.026196504 -0.008062523 -0.010054003 0.016222829 -0.08656151 0.034336 0.017205996 0.046284072 0.011771118 -0.08488792 -0.10995583 0.032712467 -0.080143996 0.053431753 -0.004408273 0.07190493 0.08630277 0.097132675 -0.061855935 -0.007862598 -0.011551481 0.101550214 -0.009545495 -0.045901347 0.014044646 0.020717364 0.092208385 0.044940285
678 0.117719725 -0.0043039853 -0.018691408 -0.030806046 0.024454452 -0.02815374 -0.021124471 -0.050570317 -0.02595859 -0.05197554 0.12065226 0.11277439 -0.09840656 0.009486283 -0.13428032 0.027785499 0.027906537 -0.009120973 -0.05133167 0.01500365 0.030598722 -0.038030155 -0.013801986 -0.04639645 -0.054236934 -0.02024828 -0.05960182 0.12601405 -0.09123871 0.015595255 -0.013078536 0.024010377 0.0006937545 0.13523169 0.10867322 -0.05031023 0.07169939 -0.0113991955 0.111514285 -0.027330957 0.038301773 -0.024504162 -0.06844068 0.034097318 0.0020450698 0.088328764 0.039950203 0.037508123 -0.047644854 -0.008171824 0.059685677 0.06384706 0.052660324 -0.041125778 0.11314643 -0.024517557 -0.10776672 -0.018829897 -0.077207185 0.123211086 -0.06260113 0.014791861 0.0185472 0.0059071626 -0.04742531 0.04745592 -0.1139558 -0.054743234 0.10248621 0.068776585 0.038520463 0.02652675 -0.0018605036 -0.014273462 -0.059191667 0.055610258 0.028260237 -0.03706369 0.06909331 -0.018210396 0.03608434 0.030864526 -0.078298196 0.05333004 -0.05313051 0.059085388 -0.005163968 -0.01322687 -0.016619101 -0.021737188 0.039887257 0.07552153 0.08904643 -0.0418851 -0.0691959 0.009018258 0.0071861832 0.0071966755 -0.039960094 0.06483174 0.0009472221 -0.0883488 0.1043364 0.059431005 0.06918088 -0.037857145 0.07300085 0.026427068 -0.053894226 0.0179966 -0.057897408 0.057081286 -0.0051053874 0.072897874 -0.0048921215 -0.020617755 0.059929933 0.04587588 0.012541752 0.01628334 -0.017255655 -0.035165876 -0.030259041 -0.13169396 0.037270393 0.09548693 -0.03442775 0.12812153
3981 -0.06755728 0.05506027 -0.005446941 0.09185281 0.051167186 0.07336257 -0.06354033 -0.016502637 0.08806507 0.017855607 -0.005797256 -0.12852168 0.005791745 0.0061525973 0.044098713 -0.07981144 0.07222084 -0.053855333 0.034358926 0.094706796 -0.07304436 0.063111156 0.11539183 -0.09904466 0.015932145 0.023455748 -0.012000878 -0.037512604 -0.032018766 -0.010219004 -0.055884734 0.017928949 -0.0019676725 0.011948978 0.1430712 -0.044133145 0.0078812605 -0.043995712 -0.05752635 0.07983324 -0.011413261 0.034784228 0.058172893 -0.013768694 -0.10029449 0.029611295 0.03701071 -0.12855482 0.11586734 0.017279899 -0.039256528 0.08793388 -0.084020205 0.012529483 0.026202872 -0.113312066 -0.025231503 0.09012563 -0.013578323 -0.093536936 -0.063424714 0.061865404 -0.06001752 0.043879766 -0.0067758006 0.035269395 -0.09028758 0.1341367 0.10630638 0.004220648 -0.052193932 -0.030627763 -0.04020686 -0.045443654 -0.051878147 -0.042866666 0.014498831 -0.021290181 0.04303712 -0.006719575 0.07649417 0.02623205 -0.0074693765 -0.029678175 0.098083295 -0.05826224 -0.12150121 -0.1142513 -0.051679514 -0.039746147 0.013437343 0.0138171185 -0.007310886 0.055088956 -0.0002568062 -0.019851321 -0.0008497642 0.014760804 -0.04653984 -0.06663735 -0.08522369 0.046836283 0.042451896 -0.057429157 -0.11827291 0.019492082 -0.014836724 -0.04718527 -0.0012253099 0.039388213 0.03013181 0.010577754 0.0008075689 0.037094917 -0.035178546 -0.04968092 -0.0074513545 0.07801895 0.005536444 0.040586937 -0.049932867 0.14321111 0.036746394 -0.007351704 0.025675928 0.027291568 0.032092065 0.08229479
1278 0.028439054 0.027437385 -0.060780063 -0.048698053 -0.004066881 0.018741246 -0.0055802246 0.012054249 0.024871627 0.046380542 0.002045016 -0.08335994 -0.012442371 0.013287207 0.11130695 -0.03903576 0.06149055 -0.029514052 -0.06336715 0.0703157 0.068980016 0.05169908 -0.04367508 0.06522633 -0.04450297 0.004966212 0.079390794 -0.049464066 -0.011036909 -0.11363209 -0.13274404 0.061001815 -0.13342838 0.014992128 0.019656643 0.02643767 -0.1062715 -0.12167507 0.028823175 -0.010031033 -0.026796827 0.04246136 -0.029416265 0.04305253 -0.00593091 0.016273605 0.035168473 -0.059719786 0.055379443 -0.056497708 -0.020722525 0.028886179 -0.10662811 -0.0781491 -0.027222745 0.021955123 -0.085988924 -0.04569771 -0.0099680135 -0.059686825 0.046568662 -0.10116536 -0.0017670419 -0.049497418 -0.079428665 0.06594773 -0.005376456 -0.042809166 -0.024967492 -0.06694853 0.10245185 -0.061414707 -0.112531036 0.030312106 -0.017698534 0.019718263 0.09711332 -0.005682954 0.03342944 -0.0060227863 0.017463492 0.067734994 -0.007787982 0.03757387 -0.027899021 0.0006668792 -0.094789915 0.07324239 -0.02462396 -0.02172991 -0.09148241 0.07011322 -0.047764465 0.026220933 -0.028216986 -0.02551495 0.0021067858 0.031899072 -0.09729503 -0.08487832 -0.017887507 0.1046524 -0.04194287 -0.003263793 0.068422824 0.026327807 0.067127876 0.040803917 0.07772097 0.011229648 -0.03659639 -0.108403765 -0.041717175 -0.0025359208 -0.048443023 0.01012446 -0.0620521 -0.062791124 -0.083056845 0.020974346 -0.05089778 0.10792099 0.025888136 0.029801084 0.05016903 -0.07457876 -0.01618217 0.0019842798
4209 0.09805618 -0.053839203 0.027239075 -0.03549075 -0.12163776 0.07439905 -0.02895155 0.14819306 0.0030921658 -0.015221046 0.032559168 -0.048700903 0.10249484 -0.022039598 -0.007698212 0.020079503 0.030679658 0.026174711 0.007053258 0.05808564 0.0798048 -0.0001626155 0.06528503 -0.07106131 -0.022605298 -0.01978256 0.10157782 -0.046851598 0.020900905 -0.12723748 0.029115094 -0.07520678 -0.10402839 -0.03241468 0.08201007 -0.04609777 0.11525638 0.05344734 0.089820966 -0.025768474 -0.111589335 0.033792164 -0.056199364 -0.0069824867 0.051853333 0.044621855 0.005831672 -0.06981527 0.06819499 -0.0038055296 0.116703905 0.04355791 -0.1267743 -0.02225896 0.02784618 -0.027597181 0.12262737 0.13565736 -0.018591458 0.039866198 -0.067368455 -0.02277038 0.08833927 -0.080580294 0.015894637 0.02085818 0.094477475 0.017827267 0.03504189 0.0010683927 0.02486159 0.112932116 -0.04503032 0.06645593 -0.04107763 0.047274143 0.017252725 -0.017617326 0.08874956 -0.013469662 0.13588908 0.06991785 -0.0072247013 0.10438495 0.028062955 -0.030300073 -0.014199012 -0.044995815 -0.048067253 -0.061884273 -0.1148632 -0.042522937 0.044031475 -0.0025244611 -0.08122393 0.07687872 -0.10809757 -0.06880051 0.014554979 0.050134648 0.023739384 -0.028673738 -0.018458784 0.06402747 0.014200322 -0.009898344 -0.0075631696 0.06884049 -0.094198674 -0.15571198 -0.014809897 0.097559325 0.13725547 -0.05619234 0.023727437 -0.0410159 -0.010261349 0.053681068 -0.14555927 -0.019815437 -0.08491019 -0.0046557 -0.0054301755 0.02079814 0.02900294 0.03900204 -0.07618742 -0.025331099
2771 0.05185453 -0.089657746 -0.027001183 0.011346767 0.101803854 0.06407533 -0.014059117 0.04307633 0.13402614 -0.014402695 0.029384127 -0.026191778 -0.025030907 -0.038743813 -0.12299068 0.021416 0.009250105 0.06659524 0.03275825 -0.04948691 -0.010878254 0.021962969 0.0031322804 -0.022875108 0.040658057 0.16604581 -0.113078475 -0.044928227 0.06727576 0.05428644 -0.09820599 0.06772329 -0.0869926 0.020549329 0.026833132 -0.04121254 0.042515464 -0.022936067 -0.05481081 0.065076195 0.12105916 0.015613626 -0.05785191 -0.021140978 0.07610958 -0.0851145 0.07159253 0.13007906 -0.038421452 -0.042996395 0.023331655 0.08540268 0.02998051 -0.00030558492 0.13639599 0.069610216 -0.037082717 -0.058141872 -0.039093215 -0.00020814627 0.098519824 0.0073338314 0.089615166 -0.026669065 -0.023439612 0.015013432 -0.016075846 0.0012600905 0.07593747 -0.0035653592 0.0337225 0.09707223 -0.042030454 -0.028419644 -0.013951304 0.023236748 0.07905041 -0.028950414 0.001803674 0.051127493 -0.05971094 -0.04659274 -0.037272085 0.0042289365 0.043065995 -0.016149562 -0.05659787 -0.0898131 0.045794625 0.15285005 -0.0005745477 -0.0044448897 0.007774172 0.035574857 0.01128146 -0.02783861 0.16498907 -0.09358572 -0.032670327 0.055479817 -0.09589798 0.036568336 0.114902996 -0.11449328 -0.011318848 -0.041335277 0.029437462 0.053915564 0.0042008767 0.04513264 -0.036704652 -0.052029725 0.016971683 0.10211115 -0.022901267 0.10605301 0.06586525 0.16272682 -0.105503306 0.06499631 -0.0555141 0.048587784 0.09686966 0.08375527 0.0011366357 0.04757261 -0.092326745 0.0530794
5581 0.11080881 0.1578014 -0.0644699 0.046312366 0.01974266 -0.02203258 -0.031942658 -0.026122034 0.09982934 -0.053900134 -0.024859566 0.119934365 0.09709037 -0.047774766 -0.019199278 -0.010518346 -0.029088577 0.05743646 -0.0089625865 -0.08200164 -0.08071953 -0.017936017 -0.12518196 -0.0040246993 0.04164626 -0.006923713 -0.10704183 -0.047395762 -0.00051425194 -0.013096175 -0.108872734 0.00059873046 -0.0028900984 -0.027774323 -0.02068771 -0.010481265 0.03946878 -0.043703876 -0.020562623 -0.05488175 -0.11184861 -0.068916544 -0.073271535 0.03400538 0.030352497 -0.066234216 0.047682237 -0.014827865 0.023568429 -0.10594434 0.07630147 -0.002686932 -0.025012491 -0.051174976 0.04873551 -0.06274871 0.06995149 0.1072551 -0.035252556 0.081892684 0.03400178 0.032560002 -0.009748358 0.0054442347 -0.047819868 0.053398486 -0.082886346 0.0054415977 -0.07339976 -0.06536737 0.044280205 0.016651379 -0.07419664 0.005754481 0.051095095 0.019195262 -0.028965175 -0.114588946 0.025625631 -0.1400176 0.005129711 0.08346854 -0.06961929 -0.006454312 -0.02061963 0.055385984 0.026962336 -0.13205777 0.02832623 -0.03973558 0.044559833 -0.022595942 0.027340617 0.066686064 -0.033731125 -0.010493025 -0.05602039 0.13225813 0.089200646 -0.0962 0.102323845 0.104653336 -0.008664257 -0.10822709 -0.0069277217 -0.06582267 0.047036927 0.020052304 -0.12596042 -0.040404815 -0.17534737 0.0011920801 -0.074966215 -0.036568023 0.08108378 -0.1337482 -0.100922875 0.00059221213 -0.03197983 0.10580071 0.062784456 -0.06104375 0.0010484168 0.039403394 0.10639079 0.039736155 -0.1211238 -0.03289711
7186 0.054812975 -0.061228793 0.08531868 -0.02345166 -0.057615183 0.027396647 0.026283199 0.017986152 -0.057077967 -0.032190733 0.023206946 0.026497718 -0.057418 -0.094502844 0.01165319 0.0385498 -0.017972536 -0.056449864 -0.02733795 -0.06990492 -0.057878572 -0.1112465 -0.016601814 -0.07760086 -0.07464347 -0.027032746 0.037138972 -0.08761563 -0.04380812 0.06946122 0.09649344 -0.016156964 0.050951608 0.038353898 -0.032401815 0.02045709 -0.08105829 0.04073111 -0.08376125 -0.0010066038 0.0902934 0.05615535 0.012776016 0.03817011 0.089892566 0.012957486 -0.0096729845 -0.030697899 0.09085605 -0.037638478 -0.06472195 -0.1051889 0.10924438 -0.048675474 0.08395201 0.06337704 -0.12350509 -0.11174831 -0.013441048 0.045903202 0.07067168 -0.018993732 -0.049456928 -0.05438246 -0.09995162 -0.056815743 0.003196249 0.06091564 -0.018461067 0.054413978 -0.053422943 0.06133556 -0.06951269 -0.13449502 0.004398113 0.115797855 -0.13870007 0.07529586 -0.02738969 -0.018203389 -0.038092572 0.0853818 -0.02212592 0.018836956 0.053589296 0.008488243 0.1384911 -0.09406979 0.0863626 -0.11048777 0.13599253 0.0245867 -0.083986826 0.049946245 -0.053109698 -0.029298518 -0.019996792 -0.10754003 0.10313624 0.0046552946 0.004186488 -0.05110685 -0.046623945 -0.02886534 -0.03580836 -0.039516922 0.009576452 -0.002001867 -0.016612766 0.023861885 0.0027923197 0.089528315 -0.030866932 0.038420707 -0.0044442266 -0.040135846 0.13189712 0.10926968 -0.021310044 0.08361871 0.019221162 0.021381423 0.009917121 -0.07463722 0.051473666 0.06825404 -0.04247753 0.021380208
5594 -0.03770463 0.029892704 -0.07673046 0.05626059 0.06166235 0.055625763 0.04897437 0.0055431454 -0.060156483 -0.073195376 -0.13319664 -0.055569407 0.008064169 -0.0724468 0.0030874107 -0.07557594 -0.13310963 0.073788375 0.012603357 -0.10067253 -0.077807665 0.0779958 -0.11949338 -0.023586899 -0.034015052 -0.027292982 0.00530131 0.037808973 -0.017974282 -0.10013514 -0.0849302 -0.006104936 0.07874955 0.046546433 0.019011237 0.02457344 -0.017794808 -0.09603981 0.03346256 -0.02125388 -0.081809856 -0.14637321 0.019144682 -0.059072804 -0.026229765 -0.047173303 0.1247124 -0.021597326 0.060832106 0.021773672 0.0006324466 -0.029838987 0.038828995 0.053797238 -0.06452571 -0.057210445 0.0060306718 0.081555486 0.06372881 0.09591911 0.14975826 -0.041421987 0.1276909 0.028686183 0.062782966 0.039351657 -0.15897189 -0.012927708 -0.011953481 -0.14992166 -0.01140129 0.06340328 -0.060207885 -0.0077414247 0.070230074 -0.003868568 -0.0037651362 -0.022439938 0.040453523 0.012489836 0.02418121 0.07340524 0.02517183 -0.017128147 0.04269944 -0.06690143 0.0759935 -0.0679852 -0.039107043 0.009173038 -0.14585537 -0.00654274 -0.12511884 0.11565128 -0.10243808 -0.10056051 -0.07686361 0.036792148 -0.09825647 -0.07890597 0.0023441822 0.1555492 -0.061531976 -0.059349988 -0.016315447 -0.02051553 0.024553135 -0.006450213 -0.04045898 0.025156049 -0.13821395 -0.03395265 -0.013935711 -0.071917474 0.03559438 -0.051195603 -0.018504707 -0.0147227105 -0.06510841 0.017246364 -0.1165556 -0.03523442 0.130568 -0.0039783786 0.06916209 -0.034635853 -0.045167014 0.04091043
208 -0.044438727 0.15309238 -0.016405 0.024203008 0.03851887 -0.0028691208 -0.02482189 -0.10333208 -0.05452036 -0.034414914 0.0018646842 0.04010806 -0.13332589 0.011759821 -0.03732887 0.06302332 0.05951461 -0.14230095 0.05537453 0.036991544 0.046088498 0.004820492 0.050264746 -0.025054509 -0.031649753 0.0032311669 0.06823635 -0.048929643 -0.021473477 -0.06318126 0.045098417 0.1293014 0.029317977 -0.008254131 0.004662258 0.00487284 -0.09371598 -0.0031398837 0.05704738 0.03196886 0.096975125 0.03272877 -0.0071639093 -0.033188693 0.11768245 -0.030339388 -0.10729348 0.07551199 -0.047768418 -0.11743184 0.054281704 0.106383175 0.025453432 -0.07490692 -0.011276287 -0.01245308 -0.0067778276 -0.13743 0.015162237 0.0031222582 0.076870725 0.012073081 -0.07813967 -0.018968526 -0.069384575 -0.0859477 0.036075793 -0.039455853 -0.08962334 0.07202207 0.09869938 -0.10433131 -0.06314012 -0.029562518 0.062994026 -0.044671386 -0.11571465 0.058676843 -0.1496633 -0.10356869 0.05167642 -0.03951359 -0.010988371 0.09316966 0.024957323 -0.06625864 0.0064026886 -0.012170667 0.004153947 0.045890294 -0.035591345 0.020849694 0.041536797 -0.07693801 -0.020609241 0.052163728 0.04141368 -0.11976207 -0.041960422 0.07249875 0.08149152 -0.083386146 -0.12210709 -0.045568835 -0.10196234 -0.06757349 -0.05210892 0.08251972 0.02318716 0.05942713 -0.043973405 -0.13910316 -0.05267136 -0.06473009 -0.08062637 0.08684525 -0.045199025 0.17247096 -0.09380721 -0.02909474 -0.027703898 0.09303484 -0.091182694 -0.08361726 0.08182266 0.06732076 -0.03495517 -0.042927496
9545 0.082164966 -0.0506044 0.051940985 -0.032074824 0.11150642 0.029318644 0.119276285 -0.09681923 -0.059447076 -0.08764691 -0.032034133 0.08893602 -0.13727015 -0.023542836 0.01818999 0.1495384 -0.048135784 0.03766171 0.02108697 0.0027682325 0.007913435 0.119680315 0.03991158 -0.07313989 -0.0724614 0.07505275 0.031783737 -0.025882868 0.002816291 -0.08997253 -0.020580543 -0.08833041 0.020677483 0.03837639 0.07384961 -0.04661495 -0.046444822 -0.06409594 -0.0058852094 0.011094892 -0.004009879 -0.006690854 0.0046595857 -0.016539475 0.017484872 -0.024485098 0.087055594 -0.08741902 0.0338537 -0.06368107 0.024824953 0.054486297 -0.008242548 -0.017708369 0.11128388 -0.014640351 0.020696769 0.028314276 0.039250854 0.044012453 0.036683913 -0.017145898 -0.036678135 0.07447898 -0.116182856 -0.086429 0.0050936965 0.015688416 0.03649685 -0.052477594 0.066180825 -0.106293984 -0.03257502 -0.0030287371 0.014750675 0.07637848 0.027801994 0.042085472 0.018637817 -0.13377444 0.05123231 -0.025720617 -0.063012674 0.013253077 -0.04420404 0.027055789 0.007827493 0.12775676 -0.01917175 0.107454486 0.089270644 -0.02727237 -0.028342966 -0.16071583 -0.06909276 0.008936375 -0.05846588 -0.071301326 -0.07729882 0.06252765 -0.08752842 -0.047691464 -0.02619746 0.05387829 -0.039183468 -0.017384369 -0.0012766991 0.04517065 -0.008873029 0.08228253 0.06928493 -0.083514296 -0.011548488 0.022015097 -0.12918976 -0.045891516 -0.01659954 -0.004233219 0.09281006 -0.047498077 0.09569714 0.031803094 -0.020675583 -0.02001488 0.03746103 -0.0058028633 -0.02109906 0.079226725
4086 0.08730981 0.02575781 -0.07159873 -0.05074448 0.07959203 -0.013108965 0.06355278 -0.013436669 -0.032795202 -0.01728497 0.060268972 -0.0030562538 0.011704379 -0.023928206 -0.032232422 -0.01916093 -0.083286956 0.08815591 -0.0057094796 -0.006857593 0.10198004 -0.037995923 -0.102288775 -0.114994645 -0.07717865 0.02152126 -0.07508268 -0.010663772 0.054287598 -0.025799247 -0.0016464491 -0.03756773 -0.02429358 -0.067826785 1.4393358e-05 0.015226826 0.055276867 -0.048218872 -0.013557121 -0.082163565 -0.025614176 -0.1046965 0.011450854 0.10650084 0.03052847 -0.0026042736 -0.09637281 -0.063388616 -0.078472875 0.033212557 0.05413238 0.036437254 -0.11366887 -0.0019668995 -0.13401616 -0.021863613 0.06298321 0.036634717 0.047861416 0.026870906 0.044077445 -0.08471736 -0.091427885 -0.014385363 0.034312773 0.039374627 -0.023297966 0.02277587 -0.014987848 -0.07134475 0.0444692 0.01742838 0.05704273 -0.045124535 -0.075718254 -0.10579072 0.0026638762 0.042306945 0.06840691 -0.09017512 0.06201427 0.123535186 -0.08806385 0.012677796 0.06468299 -0.106503256 -0.009372945 0.0037216535 0.15473318 -0.050851915 -0.07076187 0.052587833 0.017455032 0.087725215 0.0073763547 -0.11676535 0.013795416 -0.10042582 -0.009099058 -0.09416815 0.12561475 0.07736123 0.03913136 0.098757185 -0.09855314 0.096072875 0.072576515 -0.053671364 0.02664203 0.021306733 0.015865054 -0.011888143 -0.13787013 -0.049697742 0.0017691768 -0.056664057 -0.01570557 0.05112041 -0.0074845417 0.12199357 -0.05477951 0.15990376 -0.059020232 -0.011782468 0.014018687 0.0021561745 0.022407569 -0.13696094
58533 0.017348105 0.007309422 0.033719525 -0.09229672 0.022659304 -0.03593446 0.0898708 0.010054077 0.049896162 0.00024776036 -0.0114999935 0.047409005 -0.11319277 -0.03249892 -0.057701457 -0.084944405 0.019327333 0.12735061 0.039244987 0.09636155 0.03492464 0.035264697 -0.00057312526 -0.025995262 0.04056893 0.06383986 0.031488553 0.043288782 0.024313247 -0.03408428 -0.014173666 0.0018867276 0.019605562 0.016389444 0.009938205 0.034401618 -0.0670139 0.01741229 -0.15758447 -0.03051437 0.0019226687 -0.020527642 -0.037497964 0.030394955 0.033545647 -0.04569845 0.022163805 -0.039031617 -0.07988547 0.117358774 0.04300421 -0.03544394 0.032414157 0.027524514 0.041508883 -0.13883519 0.14903733 0.028789246 0.01726029 0.0943635 0.013489163 0.014883988 -0.099115826 -1.8650164e-05 -0.014839078 0.07296242 0.031015793 -0.017344663 -0.10082365 -0.09226561 -0.029279552 -0.063297115 0.0641955 -0.048078287 -0.030685226 -0.011370379 0.038461402 -0.021514695 -0.012481871 -0.044875994 0.037884887 0.034072436 0.015392885 -0.017416934 -0.018559186 -0.019573336 0.023937466 -0.02099334 -0.02326429 -0.10531812 -0.05407782 -0.013295453 0.051265728 0.042981226 0.02006233 -0.09764174 0.02619266 -0.047597203 0.0099263685 -0.0747782 0.099184 -0.07653886 0.030970482 -0.020853367 0.018870203 0.04851462 0.10575081 0.010148497 0.03685298 -0.1174844 -0.003871276 0.031024354 -0.028561387 0.17224571 -0.07801123 0.02879959 -0.07742547 0.05914874 -0.03107187 0.08444672 -0.054723546 0.019838905 0.0131276315 0.049189586 0.024576616 0.050560415 0.015058857 -0.05946273
6809 -0.08600653 -0.10675515 0.068263344 0.028975105 0.012069494 -0.064690754 0.1215061 0.074187264 -0.09169792 0.027697576 0.08511069 -0.03277146 -0.08903859 -0.029048858 -0.084270254 0.087440304 0.14558926 -0.09462074 -0.14128074 0.054214254 0.09112388 -0.018178094 0.030772459 -0.053691093 0.054005295 0.050660964 -0.04314137 -0.08391967 0.099227175 0.020528177 -0.09379669 -0.078701265 0.015708912 -0.02343537 0.08557603 -0.009017937 -0.019945215 -0.006515652 -0.08378078 0.055488665 -0.15910253 0.021595296 0.107194714 -0.013781601 -0.0060342327 -0.0023952576 0.012335337 -0.07756247 0.086658314 -0.049762625 0.064053394 0.018447578 -0.017241308 -0.066396475 -0.011436059 0.070935026 -0.004742167 -0.1549756 -0.078872606 -0.12680694 0.04795312 -0.09336839 0.08071525 -0.07884435 0.014064817 -0.003043735 0.087057166 -0.06965738 0.041066986 0.003090465 0.12502843 0.04842351 -0.046325747 -0.1363751 -0.10269309 0.13753222 -0.11179266 -0.072972424 0.05440748 -0.07632611 -0.00058651157 0.026852306 0.054749485 0.015346272 0.07259049 0.08825711 -0.030407755 0.015533344 -0.013325246 -0.08678185 0.00985881 -0.065097846 -0.056568958 -0.027874196 -0.18121246 -0.057487532 0.051409885 0.04055716 0.024051718 0.040666822 0.04200054 0.06742107 0.05524724 -0.0019338861 0.0006080745 0.054866314 -0.110882245 -0.040708806 0.08079268 -0.038320877 0.076639876 -0.04797743 0.026396194 0.06020843 0.071813986 0.037573032 -0.016991524 0.10268767 0.005115733 -0.12725498 -0.074522376 -0.023562243 0.045223616 0.0836851 0.07886041 0.05491163 -0.096188895 0.02803547
