1303 128
4790 0.013777945 -0.10169449 0.07587627 -0.103380546 -0.054561984 -0.06938625 0.0371699 -0.026711285 -0.07422588 0.15302664 0.11356889 0.034654528 0.038888685 0.10686363 -0.101972625 0.027872795 0.043656867 -0.06291398 -0.025805235 -0.0021202336 -0.08421218 -0.030360183 -0.025384016 0.073603295 0.053457357 -0.029395333 0.11364967 0.021773664 -0.043793358 0.13577193 -0.07459115 0.050930634 0.047633294 -0.011118815 0.018941952 0.09629905 -0.023024602 -0.005628009 -0.0036714114 -0.10732972 -0.08372874 -0.1379345 0.09157685 -0.08162321 -0.0050161476 -0.092513084 0.025787221 7.662902e-05 -0.061122794 0.13544127 0.11895182 -0.07985759 -0.05543595 0.08971519 0.11067097 0.08368664 -0.06704971 -0.23549178 -0.04096389 -0.008193497 -0.0043355622 -0.20007561 -0.1730702 0.13443394 0.27840975 -0.10504637 0.044640873 0.14579618 0.034158237 -0.09203245 -0.060705744 0.19025809 -0.10950621 0.04788132 0.23462228 -0.3237837 -0.14741229 -0.14031045 -0.20219779 -0.12805219 0.22700517 -0.08144169 -0.29132867 0.058568668 0.10565945 0.040375315 0.24694435 0.22759084 -0.16607511 -0.163744 -0.28187343 0.14290854 -0.14131023 0.1456557 -0.11683497 -0.29342988 -0.23004161 -0.13294771 0.2185803 -0.24316774 -0.015088735 0.04619095 -0.2547194 -0.28970417 -0.022468649 0.10076696 -0.15783887 -0.24119094 0.21014887 -0.3209432 -0.100001596 0.14767013 0.2473369 0.17407614 -0.054078843 0.21666935 0.054555167 0.29486915 0.22494195 -0.081076145 -0.20332757 0.15057819 -0.121844195 0.29005706 0.15241145 -0.23446727 -0.21991366 0.08487791
79155 -0.006383235 -0.087394446 0.029005423 -0.1460295 -0.07793807 0.004878152 -0.0826749 0.021116018 0.02122724 0.023048516 0.12010317 -0.05916268 0.011992782 0.048296217 0.021861926 0.09110397 -0.05161252 -0.026243437 0.0480601 -0.064270124 -0.024097752 -0.12322956 -0.024808928 -0.10340763 -0.07877045 -0.07845976 -0.05867003 0.083449945 -0.036762103 0.020758362 0.04614591 -0.010969668 0.06983156 0.07951881 -0.06440509 0.025827806 -0.11336017 -0.003444767 0.056587655 -0.032966528 0.06325402 -0.05733941 0.15461335 0.08003591 0.066868365 -0.05178454 -0.120557174 -0.03746859 -0.084899075 0.07065952 0.07399402 0.11096243 -0.073415995 -0.02010218 -0.04705265 0.04678449 0.039106883 -0.08808111 0.061810274 -0.031200597 -0.05004056 0.020916432 -0.10490252 0.05724636 0.10269457 -0.101706676 0.12650596 0.19461787 0.0825293 -0.07344086 -0.06605876 0.18067253 -0.095502496 0.041568805 0.12544711 -0.27305448 -0.05171316 -0.11547973 -0.24620156 -0.1264272 0.15159713 -0.12967479 -0.19753744 -0.058503058 0.084737256 0.018516745 0.09387569 0.1890582 -0.19088788 -0.16901593 -0.2085711 0.20505074 -0.04844062 0.10882965 -0.1749315 -0.18942286 -0.15062854 -0.13656764 0.1616336 -0.19765595 0.014853276 0.08981263 -0.07338086 -0.08026021 -0.03989016 0.12458662 -0.045006797 -0.14572214 0.17661181 -0.20500754 0.042223804 0.19891718 0.06592086 0.21548031 -0.15224741 0.18570706 0.10513131 0.115515895 0.10789236 -0.16582619 -0.21819724 0.20742671 -0.21680601 0.16793619 0.04327211 -0.14535244 -0.20616099 0.19365449
5879 -0.1463595 0.056220084 -0.017834542 0.026553456 0.08517629 -0.0660263 0.01627828 0.02420049 0.14152572 0.054498624 -0.16521773 -0.064330384 -0.028364113 -0.008006326 0.16623013 -0.0015919043 -0.013159049 -0.055119812 0.18082081 0.094570756 -0.081198305 -0.050430976 0.05341384 -0.044917352 -0.11659158 0.07021272 -0.10099985 -0.017923709 0.0121025685 -0.122343324 0.010759993 -0.004170141 -0.1245741 -0.11929376 -0.047617745 -0.025493251 0.032073285 -0.116279125 -0.075555824 -0.082427 0.0919323 0.04159306 0.04697237 -0.04454999 -0.00037224125 -0.0033145272 0.0009293742 0.16203173 0.027491204 -0.00701067 0.09263566 -0.029036961 -0.045651775 -0.14781126 0.00023992377 -0.07916017 0.077176854 -0.019521449 0.13561444 0.04849819 -0.08528464 0.0015917845 0.09058044 0.06629354 0.14951321 -0.124027506 0.22728911 0.15060057 0.086628 -0.20426443 0.03101397 0.17504115 -0.09778947 -0.0039831605 0.2682913 -0.23505242 -0.07561293 -0.2268838 -0.237273 -0.14109041 0.24246015 -0.19084495 -0.2298176 0.07838313 0.11908156 0.17264836 0.24236579 -0.024399279 -0.34803367 0.04713741 -0.3650975 0.104718335 -0.20480783 0.28714967 -0.25634906 -0.15277173 -0.14111686 -0.11712889 0.24643148 -0.14086515 -0.09840384 0.10061104 -0.21733744 -0.21780537 0.12033788 0.12907526 -0.18716341 -0.23063198 0.13846028 -0.1271996 0.09703894 0.20433491 0.04861858 0.2599538 -0.24030966 0.24201784 0.1651914 0.18898961 0.14815709 -0.022208542 -0.27234083 0.16297056 -0.1617294 0.30717114 0.2713591 -0.12534584 -0.14836998 0.19763951
23568 0.1089234 0.005183732 0.03138071 -0.019238086 0.014755385 -0.0068564666 0.0774897 -0.038016047 -0.001930209 -0.065523945 0.08023597 0.027169235 -0.0367896 -0.033979777 -0.06375416 0.019959338 0.018970534 0.05242136 0.03966086 -0.0015939906 0.020984277 -0.010169728 0.018462624 -0.13240035 -0.031615324 -0.030202165 0.0067040166 0.10543776 -0.004296826 -0.15611286 -0.07455736 0.010837165 -0.021031447 -9.58672e-05 -0.08683399 0.010256745 0.07780083 0.0032708761 0.06962868 -0.06499502 0.029141 -0.053101685 0.09995072 -0.0068132905 -0.04881836 -0.049294934 -0.0034156153 0.018534219 0.023329 0.028074145 0.10074922 0.05031999 -0.03629931 0.055564437 -0.013733381 -0.06654217 0.07722896 -0.05448445 0.012793333 0.020453628 -0.17074825 0.028526 0.0013883614 0.03675977 0.1586875 -0.07766238 0.20904079 0.007804963 -0.00025434064 -0.13955384 0.061034065 0.07403451 -0.073161535 0.02046386 0.18946776 -0.119622536 -0.0022633753 -0.1277235 -0.14942117 -0.099913 0.13420779 -0.14746483 -0.13083847 0.008299443 0.037141666 0.09401933 0.12067557 0.0071603213 -0.13555375 -0.07346975 -0.1619601 0.014123976 -0.060693026 0.17140009 -0.08758762 -0.1843811 -0.086567074 -0.19225055 0.13146468 -0.15798321 -0.056737367 -0.021820802 -0.10504943 -0.09327972 -0.017782837 0.062078074 -0.018977122 -0.05153354 0.030639866 -0.14206278 0.013608268 0.073214196 -0.0075896583 0.06382466 -0.14550693 0.12720859 0.040791836 0.11558502 0.06282626 0.010602971 -0.10936506 0.09467305 -0.052611448 0.23509452 0.18898931 -0.06577665 -0.01582348 0.10283624
10206 0.14402302 -0.09673115 -0.061798736 -0.11296001 -0.014036795 0.05837905 0.08503924 0.030281264 -0.044991143 -0.09166779 -0.016800549 0.013975199 0.048274044 -0.028343316 0.1375017 0.11122267 0.028152509 -0.063602254 0.025996828 0.054691166 -0.14506452 -0.009608986 -0.0066871443 0.014857735 0.021579176 0.015211719 -0.012345684 -0.07088263 -0.06136339 0.026652152 0.02858252 0.03218251 -0.03385777 -0.028518299 0.08389514 0.0009872332 0.02539259 -0.04866715 0.09949591 0.058856037 -0.0008217822 -0.14214268 0.04176333 0.020804862 -0.03867862 0.013751366 -0.061693907 0.022149714 0.07009303 -0.013478506 0.07214067 -0.067889735 0.0024942965 0.00091255375 -0.04416027 -0.08719231 0.07591468 -0.11463326 -0.13585167 -0.06521318 -0.04178572 -0.013666858 0.030633338 0.034727074 0.17092402 -0.16583703 0.14751494 0.15370186 0.06957162 -0.09432976 0.1310093 0.041890375 -0.083021544 0.044600055 0.17888993 -0.27446094 -0.19472477 -0.11414529 -0.11724967 -0.075388394 0.15469135 -0.13243301 -0.21770528 -0.10962179 0.1339762 0.065022044 0.18756513 0.058473527 -0.17052916 0.027025353 -0.24102199 0.13410239 -0.13816765 0.25019765 -0.18741235 -0.20224912 -0.15265599 -0.17945378 0.122175366 -0.13513918 -0.26062313 0.0565617 -0.14371298 -0.06588267 -0.037535723 0.18703732 -0.14886291 -0.12674248 0.15374783 -0.11148219 0.0536081 0.24685712 0.21861684 0.21901667 -0.14870238 0.14600998 0.19928744 0.17564927 0.10542117 -0.13958105 -0.07429377 0.078519784 -0.07055997 0.22478208 0.05873036 -0.12573935 -0.0073725637 0.03924361
396 -0.026893387 -0.14860524 -0.10587097 -0.060069583 0.050270997 0.07058632 -0.06541136 0.030662805 -0.05889659 0.008983215 -0.14766897 -0.09901685 0.120057955 0.00046875136 0.24036928 0.062335074 0.11476323 0.0016806376 0.15949582 -0.0897041 -0.00019068216 0.0366154 0.09756168 0.044105634 -0.018767616 0.054710742 -0.02576757 -0.07699634 0.02912056 -0.016289888 -0.0027338103 0.021979641 -0.11152507 -0.14462611 0.00974389 0.09339206 -0.07504363 -0.16096248 0.053927314 -0.053665858 -0.019887049 -0.09597403 0.02823504 -0.037863377 0.0014004206 0.12204741 0.010902044 0.102478266 -0.016037952 -0.103421934 0.0852966 -0.08668753 0.11404078 -0.1696235 -0.08156603 -0.08459402 0.010716888 0.023986548 -0.07885278 0.010148924 -0.18938124 0.054683164 -0.013957852 0.17841394 0.13435663 -0.10744364 0.17136064 0.2441494 0.051185444 -0.12767266 0.044901527 0.18393904 -0.12863557 -0.039248634 0.16241184 -0.32663646 -0.0015552596 -0.14004073 -0.16901919 -0.14003116 0.1318063 -0.1580914 -0.10859022 -0.036942665 0.14380077 0.16355234 0.19922283 0.11097724 -0.20722587 -0.08559578 -0.281731 0.15883435 -0.18202591 0.2410467 -0.09449888 -0.24233097 -0.16978624 -0.28029373 0.16576171 -0.2712791 -0.24463607 0.04806239 -0.14556156 -0.18743974 -0.014248219 0.19030896 -0.12724724 -0.25423875 0.17938575 -0.18083669 0.034099974 0.21847537 0.18251903 0.22008853 -0.078360446 0.18427946 0.13046998 0.16660893 0.10683386 -0.12768596 -0.18080662 0.123842105 -0.14432998 0.1206204 0.23474444 -0.11353146 -0.22376657 0.060640633
5604 -0.0032789705 -0.07212491 0.07879664 -0.14784583 0.19581358 0.019608056 -0.21245255 0.08187237 0.03584861 0.116103694 -0.044661656 -0.080140024 -0.100310914 0.07389584 0.021447927 -0.096095785 -0.05530154 -0.0035077084 -0.037950087 -0.117101826 0.021871293 0.07130961 0.053246703 -0.040680308 -0.08492583 0.14597215 -0.024092799 -0.054733586 -0.010930918 -0.02609511 0.047809638 -0.018942233 -0.022957182 -0.042948294 -0.014954205 0.11359084 -0.04311941 0.045161862 -0.052417163 0.053737856 -0.20892785 0.06674288 -0.032618 0.057188213 -0.03681384 0.13072205 -0.19909608 -0.10757514 -0.08179181 0.14506884 0.038284604 0.004430574 0.09890515 -0.0047923634 0.083402835 0.08647769 -0.020463333 -0.03073349 0.06426028 -0.033838347 0.07116694 0.07745623 0.06956867 -0.014945791 0.09923061 -0.12585646 0.16565979 0.19546647 0.04239739 -0.1924565 0.18005526 0.16281423 -0.07954646 0.078695714 0.27424273 -0.20617798 -0.08691699 -0.14399987 -0.2700043 -0.21188493 0.13027656 -0.06618201 -0.23489982 0.070210226 0.052180026 0.20504026 0.18629736 0.09048567 -0.326265 -0.116732985 -0.20773582 0.07719322 -0.18233642 0.19533257 -0.18661311 -0.1953359 -0.26179853 -0.15512598 0.22495382 -0.16954339 -0.17118023 0.1348229 -0.23901793 -0.17261323 0.036252562 0.020037502 -0.15315336 -0.24728514 0.12008443 -0.16854331 -0.1104123 0.13264042 0.16996396 0.18055141 -0.16805628 0.16402985 0.17997177 0.2185944 0.08627013 -0.14392309 -0.25474754 0.13937815 -0.23264928 0.15692393 0.14071484 -0.106609575 -0.17020063 0.12724958
8837 0.022830307 -0.15946238 0.115450665 -0.034930885 0.05284276 0.027950432 -0.080524296 0.10920172 0.11911923 0.15155467 -0.019881224 0.028222898 0.16013277 0.06819474 -0.0050604073 -0.014132341 0.061707925 0.0223853 -0.007786942 -0.043222945 -0.07730927 -0.18631111 0.05909787 0.027115274 -0.07492123 0.11880265 -0.0061662686 -0.0035014213 0.009652688 0.16220778 -0.08469886 -0.0039655566 -0.08267202 -0.06390071 -0.09683377 0.05385788 0.031560715 -0.14775206 0.08256859 0.03256004 0.09604662 -0.04451199 -0.09050448 0.007316595 0.10673726 -0.030957976 -0.1873642 -0.050070923 -0.14110602 0.071316734 -0.06107273 -0.0055552595 0.16414057 0.0031179476 0.03767098 0.10949504 0.0807675 -0.06341876 0.0011390968 -0.042729635 0.09917954 -0.09097885 0.061447453 -0.0039000632 0.09993299 -0.18502475 0.1334434 0.24118695 0.13610342 -0.0659344 0.029156314 0.21437912 0.013415655 0.11499555 0.24304272 -0.32886097 -0.092961 -0.14571564 -0.20708607 -0.18940729 0.1800438 -0.09489207 -0.24938937 0.022431532 0.023121476 0.1974648 0.24295852 -0.0058076875 -0.21467523 -0.1139659 -0.22064082 0.13142154 -0.09143259 0.32116574 -0.15322958 -0.19726458 -0.18841767 -0.2685352 0.13799298 -0.23874839 -0.14728132 0.10173755 -0.13957228 -0.09229006 0.10175619 0.11906367 -0.13772197 -0.14476724 0.13087459 -0.24059033 -0.004964579 0.23036951 0.1158146 0.25240505 0.001047633 0.09528272 0.08867301 0.22549115 0.22632003 -0.11462223 -0.23764904 0.15397413 -0.0215526 0.10666828 0.16021805 -0.12687781 -0.19586386 0.15172735
5310 -0.027862357 -0.069042996 -0.0008155382 0.1747761 0.009948814 -0.14848508 -0.02707103 -0.023204157 -0.100630544 -0.06966377 0.04769143 -0.09365724 -0.041047636 -0.029024776 0.08711608 0.05309869 -0.08904899 -0.14065343 0.051322803 -0.09588049 0.10946217 0.052772928 0.04738021 -0.033692807 0.15924875 -0.041834828 0.0149101345 -0.051834274 0.028463272 -0.029607682 -0.0126148155 0.11330762 -0.038871158 0.08756893 -0.1810353 0.050612323 -0.12650432 0.118133105 -0.08221386 0.05518155 -0.010029131 0.16580284 -0.14932919 0.08348376 0.053580157 -0.06674347 0.12136939 0.091030434 -0.06773122 0.029468881 -0.055232964 0.04474785 0.0067378865 -0.09279462 -0.1514635 0.03350774 0.0067396453 0.11408788 0.08828739 -0.024437733 0.050972726 0.09257912 0.04556294 0.046534747 0.1507445 -0.19481903 0.1275645 0.0794574 0.12161391 -0.21021996 0.11465668 0.13267848 -0.04094531 -0.20216079 0.18755813 -0.19615974 -0.10906645 -0.1066538 -0.14232098 -0.2151532 0.16855758 -0.08517851 -0.17730772 0.1798286 0.09747423 0.22800161 0.16032928 0.082617104 -0.21122733 -0.21160462 -0.18221201 0.17535307 -0.18840092 0.1510174 -0.052250262 -0.2636644 -0.15203124 -0.06546963 0.2685159 -0.13713981 -0.13812938 0.10618447 -0.22403814 -0.24417248 0.095694676 0.06269809 -0.2174491 -0.21435104 0.290097 -0.12825656 0.012514845 0.20970598 0.20659173 0.10490592 -0.021215988 0.09130779 0.09714849 0.17683497 0.047409773 -0.06204366 -0.28826368 0.10175176 -0.1722856 0.26878342 0.12874904 -0.10029039 -0.21502718 0.14251047
87 0.095341824 -0.06548175 -0.07278564 -0.011583139 0.04886374 -0.07702802 0.012642169 -0.060918055 0.0018982937 -0.06383124 0.0048583313 -0.12282101 -0.0062937927 -0.07976599 0.014629075 -0.083984815 0.017803885 -0.14461137 0.12764008 -0.059827317 0.10130499 -0.011825224 0.07506262 -0.021052135 0.04398953 -0.051115483 -0.100645475 -0.09622055 -0.023144998 0.044387057 0.08186994 0.15231971 -0.038467277 0.15526487 -0.09991345 0.018067671 -0.10329837 -0.023936562 -0.049481753 -0.06801778 -0.019496627 0.06866656 -0.055567533 -0.039321728 0.0025979984 -0.078384705 0.18199006 -0.04464668 0.084173486 0.070791155 -0.1315406 -0.029978257 -0.092086606 -0.08637244 -0.092402205 -0.11455832 -0.1029224 0.077105254 0.09493633 -0.058005333 0.046482753 -0.07216129 -0.004940659 0.12931883 0.09648075 -0.1803882 0.21740292 0.27577212 0.14651605 -0.29751384 0.037387393 0.14898078 -0.062054493 0.04631914 0.2308317 -0.26820028 -0.042070854 -0.16992193 -0.1716898 -0.21437472 0.16912505 -0.11481789 -0.10786845 0.08517119 0.12744085 0.21531016 0.19407602 0.16884835 -0.2511482 -0.19019118 -0.19349894 0.026258478 -0.1946517 0.24298647 -0.034511387 -0.24619897 -0.054661736 -0.14163867 0.17604996 -0.13657133 -0.079292595 0.1968436 -0.26958606 -0.2479984 0.11290861 0.11916401 -0.22417332 -0.30969256 0.15929344 -0.1492044 0.02067645 0.2761537 0.15293922 0.20145366 -0.11682116 0.16827485 -0.032892466 0.29618397 0.053390656 -0.09961083 -0.20208152 0.07735158 -0.15253343 0.2729567 0.26112542 -0.054550305 -0.14113124 0.2532171
55366 0.01195742 -0.014959732 -0.1389467 0.061808538 -0.0017467261 0.00030899813 0.02966697 -0.0025042163 0.04603158 0.12322501 -0.015608873 -0.01833621 0.055980477 0.06742959 0.17446192 0.026336994 -0.036252588 -0.13980028 -0.018896043 0.12505217 -0.005838967 -0.005220749 0.09261035 -0.048927546 -0.050756305 -0.11168216 -0.03590973 -0.013137926 0.03107006 -0.09509019 -0.009887549 0.15238746 0.08419122 -0.05791188 -0.099045396 -0.16413072 0.06815814 0.0144304875 0.026817404 0.09419932 0.017417068 -0.01932471 -0.028804917 -0.035201672 -0.018868411 -0.1975603 -0.09864114 -0.021164615 0.09753158 -0.0010553692 -0.044117857 -0.012873839 0.016497051 0.091797024 -0.020812642 -0.07048128 0.05426092 0.004572916 0.026347091 -0.049400926 -0.0048005353 -0.10840266 0.0625665 0.10071265 0.24949054 -0.023865025 0.16728294 0.1298363 0.101380736 -0.28220463 0.012545423 0.22955327 -0.033917967 -0.12686138 0.23911613 -0.17437562 0.04244867 -0.13838735 -0.08076968 -0.23817593 0.10937262 -0.15983425 -0.119982325 0.1606411 0.15638024 0.1663193 0.21940692 0.10077128 -0.061468076 -0.09295239 -0.22861826 0.02154562 -0.2311059 0.15872845 -0.09575323 -0.16601247 -0.17315942 -0.19734746 0.15643457 -0.17118509 -0.14825223 0.085701056 -0.24420898 -0.33162823 0.023686232 0.21833038 -0.06801187 -0.17931451 0.14303741 -0.25011837 0.11647213 0.23499048 0.2317135 0.29403433 -0.092568606 0.254392 0.090570085 0.2392756 0.081807934 -0.20733844 -0.20346858 0.04291525 -0.13802326 0.20416819 0.22763036 -0.17053737 -0.13759163 0.18498644
23310 0.06048765 -0.037240587 -0.08830028 0.0471726 -0.027934512 -0.019925926 -0.13069947 -0.07227687 -0.087804 -0.0043810657 0.004604189 -0.11764563 -0.10812035 -0.05192084 0.040737983 0.0015297713 0.04742693 -0.028640337 0.037831165 0.0033087214 0.09619104 -0.0004900716 0.043073878 -0.05567482 0.014554518 -0.043245684 0.031311676 -0.067136 0.017735178 0.015595019 -0.010368433 0.10068332 0.0035152417 0.056497972 -0.006257881 -0.030415367 -0.06807491 0.012382064 -0.09417612 0.008352298 0.031895053 0.0069232876 0.01126849 -0.011871906 0.0637458 -0.09623613 -0.04844927 -0.040457234 -0.006124411 0.06299401 0.04166122 -0.07080108 -0.09092608 -0.069376305 -0.028676653 -0.052878387 -0.046698038 -0.011208452 0.020369248 0.03957772 -0.1036455 -0.037875753 0.11431804 -0.044329304 0.18378367 -0.047777098 0.040475972 0.14553788 0.15976268 -0.13430282 0.031416982 0.1354179 -0.12472476 0.06244997 0.26417983 -0.13891491 -0.065283634 -0.053687636 -0.13901001 -0.11134514 0.097672984 -0.04598111 -0.20176044 0.1561028 0.09316814 0.11268663 0.12981442 0.07156042 -0.19394153 -0.16916351 -0.20741954 0.1297018 -0.23145485 0.105006434 -0.07196559 -0.1156978 -0.14908072 -0.12480173 0.16155449 -0.17729732 -0.09476052 0.07017759 -0.15277758 -0.2558995 -0.035797235 0.06962444 -0.021168564 -0.1013492 0.1629736 -0.21957342 -0.02602392 0.15425785 0.24201517 0.19711247 -0.10725414 0.14628883 0.14115076 0.17173426 0.05910143 -0.16346201 -0.17660129 0.18803681 -0.1872997 0.19343689 0.10795927 -0.0865649 -0.17686878 0.12521778
1432 0.0025487724 0.18127823 -0.0092649665 -0.20085196 -0.038457233 0.051610395 -0.027635068 -0.0706925 -0.0394554 -0.018968955 -0.00427974 -0.11176109 -0.14458302 0.0014774518 -0.1544381 -0.047494605 0.07281194 -0.041592054 0.08337231 -0.059584454 -0.028818816 0.008269785 -0.050546426 -0.050161943 -0.08408787 0.06897031 -0.01164744 -0.12015815 -0.06759312 -0.0069043874 -0.08413749 0.08726731 -0.020318588 0.14608027 -0.089451484 0.12601969 -0.081557386 0.037398003 -0.074592955 0.054472756 -0.013228614 0.0699238 -0.12876737 0.047642343 0.026648423 0.11268109 -0.10718689 -0.017640559 0.014043008 -0.029293632 0.07007367 -0.12696116 0.015877953 -0.016133808 0.059926223 0.058296025 0.09942722 -0.12888253 0.0047546043 -0.10483604 0.08572289 0.013593209 -0.0638495 0.10766609 0.22386377 -0.0794605 0.19649209 0.14262821 0.15310407 -0.17197865 0.1447114 0.19763902 -0.08025911 -0.0026342128 0.27537763 -0.2306279 0.018234482 -0.16261998 -0.14758097 -0.2123653 0.23655057 -0.046905532 -0.18470457 0.09765599 0.062159605 0.14894 0.2809197 0.18195947 -0.17381376 -0.09288068 -0.25567222 0.053581376 -0.27336094 0.1963736 -0.23651549 -0.27487254 -0.28432858 -0.2909519 0.25474414 -0.14565137 -0.08998007 0.017946644 -0.20569374 -0.29003766 -0.006551121 0.05786642 -0.07927458 -0.20626046 0.25551134 -0.105857 0.028429013 0.10237061 0.23609614 0.22718821 -0.009041861 0.24777831 0.24258885 0.23209004 0.195911 -0.14524896 -0.27826974 0.10508009 -0.18214598 0.30233714 0.14691216 -0.05166575 -0.08316395 0.1643399
2004 -0.08409858 0.02548326 0.0067497017 0.008935054 0.13410756 -0.013788522 -0.026674833 0.06280588 0.07226108 -0.12445112 -0.0034736933 0.0048547005 -0.06238855 0.09941588 -0.07102769 0.037212875 0.023090601 0.08542737 0.14375992 -0.0069470545 0.02288703 0.12913294 0.014874604 0.00023212365 -0.060292333 -0.0043231254 0.019955946 -0.11324044 -0.040885445 0.056914426 -0.08027786 0.03848369 0.11359772 0.10143958 0.080970064 -0.08878831 0.076664925 0.014982266 -0.0617979 0.09399187 -0.03679409 0.1445433 -0.22733037 0.18962483 -0.021896396 0.008121379 -0.0060168304 -0.114324555 0.021746183 0.10473484 -0.0846796 -0.00553041 -0.015102954 0.02496475 0.02656593 -0.0034459394 0.0677684 0.1544224 0.09109849 -0.12131391 0.014577947 0.13504423 0.04446012 -0.06766208 0.23358078 -0.0343277 0.121562906 0.21360056 0.2201084 -0.11547527 0.10329958 0.110514686 -0.03212584 -0.14726797 0.16991054 -0.17395763 0.004117903 -0.15075158 -0.11621537 -0.15561873 0.1347952 -0.08811686 -0.17354201 0.100015625 0.05617317 0.17267333 0.1726511 0.10015831 -0.26562855 -0.08574435 -0.1729053 0.13829742 -0.2376908 0.20957272 -0.08129671 -0.2211982 -0.10934232 -0.09981993 0.18245293 -0.114082605 -0.07424871 0.07431777 6.207962e-05 -0.06934152 0.008059427 0.13686857 -0.07306774 -0.13124458 0.13522969 -0.16387458 0.082310766 0.043914106 0.1819167 0.15211946 -0.08419187 0.20259815 0.079051726 0.21694775 0.06792496 -0.20872292 -0.17872864 0.17606634 -0.17423093 0.13834153 0.18172242 -0.03453243 -0.02683948 0.13216585
11051 0.07374272 0.018354157 -0.0015508179 0.11779889 -0.05543107 -0.03309113 0.098146796 -0.072756164 0.05288377 -0.041132398 -0.028519541 0.1940093 -0.009501029 0.10673305 -0.035440538 -0.14443389 0.0918712 -0.024346948 -0.20454605 0.10026816 0.07099827 -0.06923951 -0.07416921 -0.028491877 0.12213728 -0.086231425 0.016727613 -0.008125252 0.032949936 -0.057202756 -0.1007841 -0.11323864 -0.08547477 -0.019684916 -0.25591663 -0.06391174 0.16425222 0.04731259 0.09732716 0.14614666 0.032603543 -0.031842876 0.14097515 0.015941663 0.010536516 -0.07844626 -0.047633544 0.0114060175 -0.06954342 -0.02616262 0.19323014 -0.04459112 -0.13188778 -0.07137189 0.018376935 -0.07996337 -0.029377213 -0.026289469 -0.13099325 -0.016134769 0.0779665 -0.09394715 -0.055022564 0.036116436 0.2239189 -0.09326001 0.161742 0.20018071 0.10070052 -0.21100453 0.16273168 0.25839525 -0.22022235 -0.072192565 0.21338184 -0.16050044 -0.041590624 -0.26368493 -0.2313638 -0.16886629 0.10097463 -0.06655314 -0.2817479 0.16308632 0.1190432 0.13036087 0.14856204 0.09473857 -0.18354245 0.03169764 -0.16148221 0.117551155 -0.27266276 0.2980756 -0.12432523 -0.17746274 -0.20400178 -0.041748274 0.21841168 -0.19072516 -0.21564953 0.109680176 -0.14136337 -0.23045295 -0.05453494 0.055513684 -0.07727336 -0.16808553 0.18530111 -0.26157805 0.1683842 0.12573405 0.13966823 0.17536873 -0.21172366 0.23325336 0.098942116 0.25795946 0.14459166 -0.15924475 -0.23044454 0.016831903 -0.057995517 0.13786685 0.15411146 -0.22247024 -0.17006211 0.012954161
3066 -0.019965308 0.19448444 -0.011171744 -0.13485391 -0.1655686 0.017200286 0.07318942 -0.0684417 0.11233058 -0.039279573 0.118767664 0.13203175 -0.08002358 0.11482239 -0.050464053 -0.07613614 0.13235347 0.116900474 -0.07593783 0.11596865 0.096199 0.1836489 0.13774653 0.08176215 -0.08304215 -0.096492045 0.04577065 0.02668521 -0.17088018 0.015220735 0.11237674 -0.010345867 0.06952415 0.014820754 -0.068721615 -0.113576226 0.15532435 0.14598542 -0.03165365 -0.06253134 -0.0073188967 -0.022956857 0.15447706 -0.031141018 -0.09378331 0.054469123 -0.18017535 0.021559266 -0.07634564 0.049007203 0.068656154 -0.041674227 -0.18289997 0.16008618 0.09906431 0.105476186 -0.11764144 -0.019767947 -0.11824655 0.07898159 -0.089465745 -0.11733133 -0.015538795 -0.08251216 0.29292408 -0.123502426 0.12835784 0.14103337 0.06086684 -0.26495883 0.046845112 0.18679757 -0.15168421 -0.072953925 0.24510966 -0.21671617 -0.13624483 -0.18470016 -0.21118128 -0.18556337 0.16509926 -0.14182556 -0.218077 0.1016767 0.1724666 0.15001829 0.13241997 0.036163706 -0.301354 -0.12596543 -0.26326227 0.19044212 -0.18918046 0.283765 -0.21768308 -0.17683771 -0.22783178 -0.13001822 0.3034283 -0.15578942 -0.11349105 0.025211828 -0.16333468 -0.22577214 -0.15124875 0.044423584 -0.016930485 -0.3011163 0.19560766 -0.11777963 0.00062724244 0.011715857 0.20577464 0.14581537 -0.09337964 0.28264424 0.14619471 0.31104425 0.19758205 -0.07524 -0.20074666 0.21036646 -0.16659175 0.1745622 0.22260612 -0.08961846 -0.19101638 0.16506268
8945 0.12985021 0.020065764 -0.031911645 0.037595164 0.055728097 -0.06534949 -0.06952996 -0.07785962 -0.08803123 0.19766319 0.09491453 -0.019201105 -0.17024338 0.06700406 -0.13972919 -0.11166104 0.14466386 -0.022158317 0.040303923 0.06460747 -0.19451937 -0.087497145 -0.0976518 -0.038053144 -0.08951136 0.08334139 0.027430616 0.10340877 -0.012584704 0.017159317 -0.02497717 0.060386267 -0.14426157 -0.18208466 -0.022657542 0.116430044 -0.06016947 -0.063377514 0.08098848 -0.0018710133 -0.11643659 0.076787494 -0.07045518 -0.0043885726 0.11092063 -0.022402849 -0.14457452 -0.08525234 -0.019194776 0.12573285 0.10222446 0.012234658 0.0069003026 0.117496826 0.05483652 0.017108135 -0.022017017 -0.021196652 -0.048963152 -0.052296393 -0.04471204 0.07148728 -0.05425927 -0.034001116 0.14471045 -0.10179485 0.14884792 0.21359125 0.14574446 -0.14425814 0.111775346 0.17994967 -0.17527871 0.044822842 0.21876298 -0.3085788 0.021236056 -0.14389695 -0.25350073 -0.16316704 0.15681362 -0.067921676 -0.14920834 0.100051515 0.065979496 0.10264706 0.0768048 0.21194492 -0.18540312 -0.20190519 -0.23343007 0.18835843 -0.24358414 0.20643629 -0.13094181 -0.23554912 -0.36230114 -0.19838515 0.29578507 -0.1864683 -0.13070191 0.16991378 -0.24076563 -0.23498604 0.09237269 0.11410552 -0.061470598 -0.27059078 0.16161557 -0.15145727 -0.013138862 0.1791706 0.23644681 0.09917744 -0.052698143 0.25986758 0.077836365 0.18968467 0.22807278 -0.14931081 -0.2447977 0.11849747 -0.22518979 0.1223466 0.042809136 -0.19728401 -0.15341389 0.18196139
5469 -0.015084613 0.06827588 0.058479764 0.007419232 -0.13326284 0.08893305 0.11309987 -0.086135775 -0.102209605 0.08870518 -0.011619054 0.08636945 -0.14592214 -0.087724954 -0.07074459 -0.01576621 0.13574149 0.09365954 -0.028801134 0.080076694 0.09849914 0.10778833 0.09592593 0.06113926 0.010716315 0.07627335 0.09691281 -0.011106073 -0.09351205 -0.008099786 -0.113387205 -0.024111923 0.1441662 0.11891974 0.057418264 -0.06300984 -0.06363276 0.2370652 0.034669794 -0.010765593 0.066354215 0.11831527 -0.025942862 0.013538385 -0.025707617 -0.0053318813 0.040015515 -0.044085354 0.10223444 -0.061692003 -0.03204322 -0.13354775 -0.1057319 0.053788602 -0.0356171 0.014980565 -0.08765256 -0.09562316 -0.029882932 0.036511183 0.12723638 -0.1137381 -0.03997735 -0.05131254 0.24350905 -0.15518503 0.23515505 0.0773773 0.14023004 -0.24292289 0.13316107 0.21032158 -0.1482537 -0.087017454 0.10518557 -0.12712899 0.0035466077 -0.17225294 -0.23368426 -0.27761194 0.16679041 -0.043871127 -0.14293095 0.040098514 0.13398077 0.07163388 0.22654155 0.1448369 -0.16001734 -0.181581 -0.19118467 0.119936205 -0.16574205 0.08630973 -0.23733835 -0.2690853 -0.21036287 -0.22854513 0.17645693 -0.10886349 -0.07410401 0.025550079 -0.17344576 -0.2938158 -0.18212283 0.078699835 -0.07861717 -0.16151376 0.20096393 -0.21222353 -0.06357758 0.14874902 0.1603185 0.11307211 -0.048344757 0.17700294 0.13140996 0.21347928 0.22745407 -0.21332389 -0.13858105 0.071578495 -0.07653152 0.14957862 0.16210502 -0.2635403 -0.25326133 0.17551675
10014 0.09497616 -0.004566977 0.07381466 0.0017397832 -0.13975789 -0.07593297 -0.014896564 -0.09273859 -0.015050663 0.007770912 0.08032467 0.10199697 -0.06600754 -0.051559724 -0.0019569644 0.061427385 0.097909674 0.006911548 -0.070273 0.085732 0.14275397 0.0435634 -0.045178834 -0.060779188 -0.0045416835 -0.15392491 0.007218138 0.077797085 -0.04010226 -0.08135605 0.071474515 0.06437918 0.047024503 -0.09191277 0.025989132 0.038096108 0.01839094 -0.10165735 -0.12842496 0.02962075 -0.031579196 0.12557273 -0.0021377925 0.04395947 0.02497045 0.07610703 0.021709345 -0.08045233 -0.03528633 -0.06969095 0.025891643 -0.08449413 0.03875622 -0.089179344 0.07655066 -0.049863983 -0.106754966 -0.05387389 -0.07727357 0.22466028 0.0417417 -0.04813483 -0.040393613 0.09575032 0.30512646 -0.07999928 0.042497363 0.18779625 0.06917468 -0.12095944 0.18538564 0.22357221 -0.15507777 -0.07364287 0.22621071 -0.27868754 -0.060944963 -0.113102846 -0.24797492 -0.1355065 0.20974468 -0.1578291 -0.22169286 0.021192977 0.13295737 0.058485314 0.13574469 0.15516107 -0.26345533 -0.024398128 -0.3561418 0.15196826 -0.2883974 0.16007063 -0.09105647 -0.2010816 -0.19180796 -0.23549598 0.23812966 -0.22392337 -0.11019241 0.1341658 -0.21155602 -0.17693739 -0.030712875 0.16534671 -0.20106648 -0.14364232 0.19176064 -0.16471356 0.1008333 0.19375625 0.2338641 0.14092112 -0.025950482 0.3123285 0.13427156 0.32837993 0.23387162 -0.15595244 -0.28354248 0.053229116 -0.07133176 0.3173404 0.11051023 -0.25446644 -0.07287256 0.12951286
7037 0.02138407 -0.012075245 0.032187104 0.08553991 -0.0059089162 -0.06741694 0.031874374 0.034568027 0.07400416 0.05669424 0.012043044 0.0010592755 0.104074195 -0.024919478 0.019522898 -0.034794725 -0.044268474 -0.01754726 -0.058720168 -0.07428942 -0.008230036 0.006152031 -0.002329176 -0.05671515 0.16915075 -0.072282515 0.0031206412 0.027235484 -0.05700898 0.0078462 0.038659506 0.010561332 0.028314473 -0.11643181 -0.066755936 -0.035899848 0.19074048 -0.06202251 -0.024455205 0.050474506 -0.061429564 0.096955284 -0.14035477 -0.0660402 0.021178236 0.032744773 0.07900596 -0.12635194 0.051719606 0.008157091 -0.09173245 0.063781 0.16203727 -0.099003844 -0.006256635 0.056051586 -0.08683849 0.0011832993 0.030159986 -0.06384605 0.11010378 -0.03851394 0.13913846 0.084393226 0.17807646 -0.044458088 0.23695162 0.16040051 0.012079104 -0.1803665 0.17745483 0.14662476 -0.06425054 -0.12112533 0.2309633 -0.2301075 -0.057262637 -0.16132602 -0.17023762 -0.14090544 0.13706349 -0.15647092 -0.11617967 -0.015349229 -0.020436667 0.16024828 0.07865401 0.2285004 -0.16827948 -0.06375554 -0.16993992 0.21701269 -0.16847329 0.24170585 0.0056042164 -0.16547605 -0.14322382 -0.15160954 0.18832466 -0.17635295 -0.13654836 0.16978389 -0.15749829 -0.1336159 0.058281973 0.1775988 -0.011263549 -0.23895322 0.21185596 -0.2626659 0.13882513 0.24353425 0.16047576 0.24636711 -0.044057004 0.20358503 -0.017924294 0.2452895 0.18080191 -0.21116097 -0.24714553 0.07200966 -0.10352263 0.091651954 0.11888683 -0.28162333 -0.09968886 0.09048183
10672 -0.035193097 -0.045708694 0.018811846 0.0088066645 0.10112074 -0.04229523 -0.1077036 -0.13398328 -0.03290408 -0.010067341 0.04329452 -0.013718317 -0.0018718493 -0.00034362625 0.033777487 0.1119088 -0.06949244 -0.044286713 -0.08890522 -0.013335356 -0.05718496 0.049171727 -0.10734426 0.044576965 0.16046418 0.099896654 -0.031542942 -0.073685154 -0.07080426 0.117526315 -0.05270309 0.00051163416 0.00044643466 -0.011755781 0.055187874 0.023699591 -0.012054359 0.035126504 -0.064101554 0.09127615 0.035049822 -0.10494092 -0.14375754 -0.01923129 0.026199382 -0.106761925 -0.0043289 -0.014479619 -0.08945706 -0.14482406 0.028841002 0.031811178 0.084627174 -0.07799531 0.0057642837 0.03234008 0.045545857 0.1309447 0.059002426 -0.024784178 0.10809288 0.016401105 0.1011189 -0.041198965 0.20355575 -0.032772742 0.16771762 0.26847997 0.10074657 -0.12746218 0.04205817 0.16255489 -0.091807455 -0.025141107 0.22141425 -0.14926712 -0.059696816 -0.1903815 -0.10743589 -0.21041203 0.20479761 -0.012801745 -0.16949974 0.010035408 0.15685482 0.20364052 0.094829924 0.097749144 -0.24069825 -0.109037876 -0.19621569 0.09510527 -0.12986252 0.13027614 -0.12060174 -0.16565493 -0.1567195 -0.12608933 0.22799072 -0.14899875 -0.06639552 0.17733416 -0.15038346 -0.16983762 -0.0754433 0.088239685 -0.080305226 -0.08464686 0.15742332 -0.19056939 0.033835977 0.20072733 0.21161476 0.10896792 0.028909886 0.18768214 0.14778362 0.20119914 0.1408015 -0.047829833 -0.26674688 0.100321285 -0.14466526 0.06751577 0.13070731 -0.11622873 -0.17397788 0.10660331
7046 -0.017309498 -0.0421988 0.0014241524 -0.09220085 0.16710362 -0.13123788 -0.2010702 0.01094072 -0.046567746 -0.11724823 0.057924125 -0.0020585228 0.017789835 -0.056676358 0.07999473 0.003333413 -0.06687798 0.036812622 0.03774455 -0.016777944 -0.008000029 -0.16647878 0.05675364 0.08025268 0.02682536 -0.029636703 -0.06323915 -0.1295187 -0.05263518 0.17792797 0.11386909 -0.09718647 -0.06438067 -0.043921694 0.043198887 0.030706244 0.007133213 0.09528003 -0.06491646 -0.082686596 -0.084223814 -0.11626385 -0.075047866 0.15982188 -0.051529627 0.079391204 -0.066850945 0.1628386 -0.032491036 0.072017 -0.07946436 -0.107136965 0.009562704 -0.0066756555 -0.0015788594 0.025824904 0.1623122 0.02985354 0.031027537 -0.083422594 0.109070875 0.017919965 0.007774085 -0.017408764 0.21451555 -0.1566044 0.20892365 0.28583312 0.15736149 -0.24138193 0.17831899 0.18680865 -0.06412609 -0.054192547 0.19240159 -0.23802197 -0.083859555 -0.12488417 -0.1291245 -0.1610463 0.18704581 -0.007853436 -0.10428163 0.055672552 0.15271421 0.12910283 0.26027876 0.19089453 -0.30911455 -0.17111747 -0.1666219 0.17451149 -0.1796077 0.14650792 -0.10264646 -0.09172467 -0.16233988 -0.22939533 0.20414235 -0.24402346 -0.09846092 0.025343293 -0.18017857 -0.091726944 -0.017939886 0.16012703 -0.12489207 -0.15959887 0.20924209 -0.1786068 0.2419758 0.20565227 0.22856283 0.23552431 -0.028583303 0.18723008 0.111217484 0.23062703 0.18051165 -0.2026532 -0.17361963 0.118950695 -0.20134373 0.15571436 0.17154771 -0.16255935 -0.21761815 0.17065756
26227 0.00050323026 0.038028557 0.04511953 0.08754418 0.059373084 0.029823558 0.039492097 0.043651212 0.10480429 -0.06287031 -0.100109555 0.06654136 -0.0037159016 -0.11997198 -0.03911117 0.047588583 0.057812076 -0.057099003 -0.023607487 0.055103928 -0.0015247315 -0.0029580125 -0.12525155 -0.11393894 -0.09539768 0.033448145 -0.03949734 -0.0022272975 -0.023022603 -0.16885552 0.037690062 -0.0948296 -0.057527397 -0.113938116 -0.014432221 -0.043106545 -0.010309372 -0.08711394 -0.0001889973 -0.07222534 0.13312365 0.035058342 -0.00522032 0.05181884 -0.02172408 0.016463852 0.111089885 0.0028013813 0.0712046 0.03351837 -0.025644735 -0.09862419 -0.016036035 -0.036757022 0.019892106 0.0033210102 -0.071038194 -0.08996233 -0.0010568039 0.03533731 -0.024060376 -0.0103357835 -0.033177212 0.011172163 0.15331005 -0.082479306 0.09490873 0.17552225 0.034105737 -0.2533766 0.17558183 0.12226305 -0.23171927 -0.0018082873 0.22047868 -0.13444138 -0.05693214 -0.17867103 -0.17298655 -0.1432673 0.20580012 -0.21329555 -0.28766283 -0.0067825764 0.030132785 0.19675046 0.16545628 0.12283788 -0.15175304 -0.100573815 -0.30848852 0.17615508 -0.22359072 0.18321633 -0.035765536 -0.21212992 -0.22030737 -0.3048832 0.19545199 -0.18748137 -0.098483436 0.1522551 -0.13975286 -0.17566414 -0.012415904 0.064551435 -0.16345796 -0.16333559 0.06115733 -0.22436225 0.052171547 0.23329277 0.1521099 0.17725019 -0.1594673 0.07156275 -0.066415235 0.09300274 0.1222239 -0.023566099 -0.16604203 0.21841888 -0.030459713 0.18938723 0.17332141 -0.21527402 -0.1304268 0.11952156
2885 -0.0094181625 -0.05222243 0.0479883 0.11006021 0.07297927 -0.13087001 -0.0049939854 0.09213764 -0.019471293 -0.1552513 -0.14261243 0.033901446 0.053452186 0.071625374 -0.039151266 0.110624366 0.050817184 0.15409955 0.17936806 -0.06210466 0.056859516 0.032022074 0.06121123 0.06958618 -0.14167002 -0.15748651 -0.09903389 0.0010027115 0.015616359 -0.05319888 0.0045011565 -0.0628034 0.044035792 0.13947259 -0.10889836 -0.15860294 0.017198987 -0.08390954 0.04132793 0.020017697 0.014530781 0.07393757 -0.05427237 0.13428256 0.053527266 0.043248363 0.2363834 0.105882354 0.058590055 -0.06502054 -0.21880284 -0.091794744 -0.160431 0.10241316 -0.14588922 -0.0580681 0.10815821 0.03552699 -0.045978002 -0.054824233 0.021638745 0.12947689 0.057973508 -0.1192135 0.21685815 -0.008519719 0.17050341 0.27946034 0.14344051 -0.286227 0.096819595 0.16483936 -0.123594634 -0.13093941 0.3009759 -0.29667965 -0.1273496 -0.21962245 -0.22986795 -0.2851115 0.24344209 -0.120937735 -0.24495988 0.063835435 -0.015865011 0.16695093 0.19538566 0.07284648 -0.19889523 -0.11795581 -0.31086293 0.18948185 -0.313595 0.2532423 -0.13986613 -0.28966376 -0.23421904 -0.2297539 0.28667977 -0.2692563 -0.023484759 0.030650986 -0.19210468 -0.15616809 0.07005424 0.13660793 -0.10914201 -0.1979141 0.045973904 -0.24397884 0.094010636 0.23717648 0.20631151 0.26934022 -0.069425695 0.12088919 -0.030864144 0.29199386 0.021590117 -0.13512348 -0.24696198 0.11856732 -0.22572951 0.2469949 0.26265204 -0.12599306 -0.03896656 0.21768957
2624 -0.034897212 0.13265167 -0.06464659 -0.11691565 -0.15236066 0.086948074 0.005917059 -0.018540114 0.07920403 0.036488738 -0.07273853 -0.0045574745 -0.14734828 0.019489322 -0.049691316 -0.08223071 0.013209843 0.014995097 0.082196474 0.061097596 0.06699729 0.02177691 0.028712418 0.029242335 -0.031219646 0.11471975 0.03332137 0.004520236 -0.0019070575 0.050020646 -0.027876737 0.10036084 0.13604167 0.06878153 0.013476558 0.06897007 0.02164488 0.02998264 0.05633999 -0.0059849904 0.041598614 -0.0361713 0.095958166 -0.009997117 -0.017506994 0.046980426 -0.042304434 0.0119378595 -0.051642917 0.08607348 0.017976135 0.0008319398 -0.12292492 0.033511538 0.031671982 -0.08685479 -0.09733331 0.007596588 -0.1426678 0.011129856 0.018964637 -0.15982807 -0.06423209 0.042207994 0.19043079 -0.20721827 0.11554366 0.11321458 0.10856024 -0.11281937 0.099945135 0.20680681 -0.018870085 0.009195863 0.20993747 -0.15377828 -0.0989197 -0.14019209 -0.19379891 -0.18733367 0.2134718 -0.06898671 -0.1538636 0.080034204 0.106039606 0.04994156 0.26339427 0.07513747 -0.18023698 -0.07997093 -0.21046302 0.09836999 -0.18936938 0.13079146 -0.16158628 -0.2701464 -0.2657698 -0.2661187 0.19208477 -0.03881305 -0.10434424 0.06748196 -0.096040934 -0.20943081 -0.109674424 0.06587085 -0.06372539 -0.19318837 0.19627713 -0.15578179 0.01761549 0.14330196 0.11793372 0.16166036 -0.072825536 0.27029124 0.0852536 0.23879194 0.14410496 -0.28470242 -0.1828097 0.02410166 -0.09825011 0.1377818 0.163291 -0.16756041 -0.204589 0.1550425
161882 0.04320457 0.0038551632 0.039569467 -0.03908738 -0.029793492 0.0024331803 -0.08120109 0.029897677 0.0118322605 0.037017528 -0.068562925 -0.0059724175 -0.022836471 0.059002545 -0.028601602 0.021251794 -0.032994546 0.07889956 -0.036102943 -0.016592847 -0.018306548 -0.10314561 -0.06746181 0.059650898 -0.042519502 0.03894443 0.0054985723 0.03760502 0.03207906 0.07157578 0.023234598 0.05199574 -0.009364617 -0.03282063 0.10859425 -0.010269527 -0.018313719 0.043546725 0.048828047 0.030791342 0.011981566 0.024123268 -0.037343554 -0.0688228 0.028284268 -0.0660082 -0.06474046 -0.018514704 0.054031916 0.08651993 0.072380945 -0.0966952 0.020590106 0.08000381 -0.058891863 -0.02633933 -0.08519776 -0.046976253 -0.061261725 0.017805321 0.045949128 -0.044151027 -0.018206151 0.09743065 0.113037765 -0.152831 0.10793507 0.13462874 0.10124553 -0.06463791 -0.006327488 0.10762456 -0.02811045 -0.033192873 0.11344956 -0.09648844 -0.056162342 -0.12512192 -0.23995924 -0.09943134 0.18389335 -0.011206082 -0.103962004 0.16068491 0.107645184 0.020249523 0.08560288 0.050186776 -0.20323142 -0.07315483 -0.07075636 -0.06032587 -0.108003244 0.033447687 -0.19827262 -0.07668128 -0.16937211 -0.048375927 0.10731446 -0.08620148 -0.05543995 0.02928454 -0.08404148 -0.1981574 0.027446838 0.048591238 -0.11328844 -0.1659883 0.14388773 -0.13807686 -0.0032479148 0.104155466 0.072587445 0.03481452 -0.14023806 0.117185526 0.09649286 0.23722547 0.23113012 -0.13219881 -0.087488554 0.14042519 -0.046188027 0.17734398 0.041329928 -0.12021963 -0.13358206 0.12728436
5501 -0.10597039 -0.06524453 -0.12907037 0.06497537 -0.09535957 0.03232481 0.017397262 -0.07340162 -0.06781037 0.06479086 0.0064943535 -0.040030487 -0.077227496 -0.007099755 0.04591251 -0.13542342 0.119669385 -0.10553704 -0.046994444 -0.046700068 0.06505836 0.16942632 -0.0012676177 0.050937206 -0.023684813 -0.09218956 -0.042989224 -0.0040186164 0.034012966 0.03659092 0.056492537 0.121610366 -0.074049726 -0.0688608 -0.037501942 -0.1074055 0.069276676 0.09473549 0.081239976 -0.008464206 0.052093968 -0.07446251 0.057323083 -0.038405925 0.071613535 -0.16169237 -0.021524224 0.07977055 0.07630604 -0.0544284 -0.044971745 -0.05218577 0.09995231 0.06363565 0.119933665 -0.11063342 -0.077518746 -0.10651872 0.026940264 0.01197277 -0.06224623 -0.07112716 -0.08540158 0.07273199 0.15285671 -0.23050937 0.10796521 0.22072943 0.062005337 -0.23515038 0.075707935 0.14333323 -0.15990722 -0.00818875 0.33327731 -0.224584 0.017457196 -0.19865862 -0.21441421 -0.27152202 0.2151382 -0.15333697 -0.25644338 0.10366963 0.02604363 0.06803821 0.26819658 0.18630637 -0.25959566 -0.082172565 -0.20219032 0.10513739 -0.24497508 0.19941641 -0.1998821 -0.29797998 -0.13980271 -0.2124876 0.15424584 -0.1418497 -0.08748977 0.14414956 -0.16446242 -0.20436464 -0.020002268 0.14363211 -0.051706612 -0.19264121 0.14445496 -0.2248953 -0.0193218 0.1408903 0.22747284 0.12089889 -0.028371328 0.18537474 0.22107579 0.2861083 0.10286931 -0.14007568 -0.19195879 0.10767925 -0.18568933 0.14770068 0.30488122 -0.09507264 -0.13592838 0.21212567
351 0.05386285 -0.078938395 0.020794222 0.13529822 0.17257382 0.1620549 -0.12753049 -0.080997966 0.022280399 -0.13032976 0.12868075 -0.0071190563 0.19189684 -0.11308447 -0.023761617 0.06753576 -0.088885576 -0.15657003 -0.040893745 -0.120443314 -0.031560592 0.018479979 -0.13107382 -0.058895744 0.12856883 -0.023306636 0.04222745 0.14010106 0.10851125 0.067550346 -0.05932369 0.13196416 -0.14887771 -0.027956177 0.10114897 0.05669296 0.041408587 -0.16700727 -0.07387294 -0.017944979 0.09809313 -0.09232142 -0.10862288 0.06224936 -0.1407741 0.024490992 -0.05302081 0.007799506 0.012933814 -0.017796764 -0.17571735 -0.05586603 -0.0045941486 0.121244684 -0.056842994 -0.019308805 -0.010914467 0.054381046 0.06266898 0.0379348 -0.12493868 0.10018825 -0.101257145 0.0017479863 0.12650955 -0.15531726 0.08185329 0.23070373 0.15948635 -0.24499993 0.05208291 0.20514831 -0.14021742 0.08055687 0.22316752 -0.2682667 0.02947046 -0.20055152 -0.20907609 -0.29989535 0.24133083 -0.1868434 -0.2825313 0.20175566 0.05720216 0.12318045 0.23866679 0.12023846 -0.21080726 -0.100299805 -0.33352298 0.13911435 -0.22381844 0.21770853 -0.20674972 -0.21827963 -0.2951408 -0.14890897 0.18966046 -0.2125656 -0.0070386273 0.14552544 -0.18035436 -0.30324605 0.04189975 0.07201 -0.18105175 -0.23382236 0.1779451 -0.28149834 0.010766516 0.28814623 0.26065987 0.2666469 -0.17631263 0.29158485 0.13941117 0.1355955 0.10844033 -0.18695115 -0.26691422 0.097006276 -0.21123594 0.22747593 0.17536063 -0.1755888 -0.13774437 0.20850873
4627 0.011443663 -0.1324534 -0.0393374 0.03241207 -0.02733997 -0.068741426 0.08339832 -0.00574024 -0.07277065 0.09259098 -0.017435092 -0.0933129 0.066110924 -0.077604875 0.07765487 0.055094957 0.009347694 -0.17916091 0.021408238 0.12867925 0.0065767057 -0.119630195 -0.0067839497 0.0045777704 0.059649523 0.04574957 -0.028923117 -0.06083253 0.087264426 0.12738276 0.15928248 0.10928808 -0.047946356 -0.05206715 -0.0083234375 -0.0052320436 0.0069420724 -0.11884684 -0.14070122 0.0020083052 0.09205751 -0.0037749677 -0.06675654 -0.09892281 0.10814054 -0.10622377 0.24083133 0.16636598 0.09316968 -0.009729035 -0.12634379 0.019675566 0.029777348 0.05573052 -0.04760661 0.0004692207 -0.0915914 -0.022268431 0.111167975 -0.05098496 0.017989581 -0.041770212 0.0022207196 0.108707964 0.14792183 -0.20320268 0.06497884 0.27339065 0.12133472 -0.22725649 -0.09294502 0.10780758 -0.020833064 -0.030109009 0.28919208 -0.32764322 -0.09560264 -0.33189496 -0.20278823 -0.2910423 0.114513196 -0.15541197 -0.18912487 0.047948018 0.058658086 0.14057045 0.18029511 0.13272811 -0.26690674 -0.05035192 -0.27850583 0.21722387 -0.1660135 0.19444706 -0.07937727 -0.15601106 -0.08897763 -0.1915503 0.15319009 -0.1404295 -0.17952542 0.15076277 -0.26559868 -0.24249789 0.08188154 0.11673057 -0.06215965 -0.25374016 0.115270816 -0.23364626 -0.013176566 0.17013139 0.2290739 0.2485313 -0.10312043 0.15967582 0.018082436 0.27674323 0.17942706 -0.20178086 -0.20836955 0.09403977 -0.2003756 0.26329595 0.26352146 -0.08359828 -0.24615332 0.2272761
23405 0.17587122 0.0028905864 -0.039206006 -0.11182333 -0.17207408 -0.06119935 0.05939258 0.0058067953 0.090504296 0.072510146 0.10474076 0.13246489 0.087022066 -0.14586133 0.0052168323 0.12193733 -0.0014372236 -0.1171849 0.028840877 -0.038484354 0.10946208 -0.0044568013 -0.0072729546 -0.0006533886 0.019672897 -0.15200017 -0.13844451 -0.01295589 -0.1375391 0.18229835 0.07138832 0.06442046 0.088582 0.033534266 0.10640665 0.0488543 0.043154813 0.010232102 -0.07716212 -0.1508781 0.040527936 -0.0491703 -0.016412357 -0.059839856 0.0103424415 0.021029817 0.019506995 -0.12216218 0.09549479 -0.053482648 0.11935231 -0.021141985 -0.046845574 -0.07230742 -0.015059043 0.07169674 -0.03990332 0.027799847 -0.056589216 0.18826456 -0.012348155 -0.08228116 -0.055890374 0.15294279 0.23509786 -0.15657026 0.12093436 0.08454239 0.016703883 -0.14909312 0.33216903 0.25038865 -0.08802 -0.08491823 0.24848557 -0.18494178 -0.17081521 -0.17693593 -0.1506381 -0.10326574 0.20403054 0.014660714 -0.23491053 -0.0030481857 0.18896197 0.1082507 0.21914102 0.057125196 -0.2433861 -0.030812096 -0.3115045 0.06150008 -0.20298333 0.24689938 -0.21508497 -0.24463838 -0.24968684 -0.09875708 0.11644599 -0.12245121 -0.042240214 0.011468179 -0.057491727 -0.2187227 -0.102731705 0.15119301 -0.12759839 -0.076514915 0.12694296 -0.23836508 0.07820378 0.25079003 0.18383776 0.18097664 -0.12646359 0.33510292 0.10894291 0.22841391 0.061611727 -0.110274054 -0.2511149 0.18727094 -0.081995435 0.231126 0.124789275 -0.15410824 -0.23011868 0.105798066
3329 0.14748178 -0.009558284 0.014393356 0.052801237 -0.05767676 -0.012739256 0.073110476 0.047129355 0.011808893 -0.0005075521 0.05349875 0.06585309 -0.091232724 -0.123973675 -0.046191365 0.16004369 -0.021590617 0.038844448 -0.15751962 -0.023035971 -0.031418037 -0.005685546 0.08479137 0.102909744 -0.013786031 -0.1044347 -0.1553084 0.044839524 -0.09550785 0.009272052 -0.058448933 0.04442308 -0.0035914294 0.00720984 0.068969466 0.0039365087 0.07037935 -0.04020305 -0.018526994 -0.014442628 0.10828228 -0.004122622 -0.08077832 0.026713807 -0.004850819 0.036320228 0.07129767 -0.03734764 0.04925781 -0.10033001 0.046758298 -0.08822879 0.040905826 -0.014011369 -0.046307802 0.009562468 -0.113208465 0.119009234 -0.12805963 0.13277376 0.09898795 -0.13299535 -0.1496172 0.15864126 0.31513 -0.11039175 0.102508806 0.15254152 -0.028769273 -0.29742604 0.1663562 0.1620241 -0.1348264 -0.1669988 0.26776072 -0.20961097 -0.11547417 -0.2223134 -0.13350777 -0.1704834 0.22568505 -0.15318298 -0.2332067 0.036154903 0.19705607 0.08917556 0.28418228 0.07848943 -0.08714519 0.011185966 -0.27144983 0.123872936 -0.15131304 0.34679034 -0.1326176 -0.20272724 -0.29048216 -0.12201069 0.14891866 -0.15488388 -0.041589238 0.0687646 -0.14029068 -0.25684798 -0.033417836 0.10959104 -0.14883268 -0.14106454 0.16425987 -0.28734654 0.1298337 0.14363429 0.20328723 0.13750835 -0.23651768 0.18861046 0.12656058 0.15397261 0.08442749 -0.17375661 -0.358278 0.17931832 -0.12095491 0.28699732 0.23132387 -0.20344767 -0.16432221 0.089092635
3915 -0.08254858 -0.12946923 -0.030727737 0.19799884 0.10303905 -0.04711461 -0.054833043 -0.02687987 0.084017925 0.007558564 0.04500331 -0.110797286 0.06678789 0.0021913177 -0.014849735 -0.0020678486 -0.08033405 -0.06558024 -0.062819764 -0.05328347 -0.11597558 -0.06401152 -0.086767 -0.08489756 0.067922644 -0.005333811 -0.042198017 -0.042899307 -0.060163755 -0.030024443 -0.04686805 0.15236256 -0.04760557 0.05461723 -0.13295902 -0.047837656 0.014302177 0.09016631 -0.15144198 -0.07470659 0.023076676 -0.09997595 -0.060776632 -0.005802679 -0.02785089 0.002482458 0.0109666055 -0.030297067 0.10938118 -0.0013115231 -0.047786754 -0.10717286 0.08944682 0.11365346 -0.095798865 0.025817791 0.12506032 0.0937944 0.050980527 0.009234829 0.018582297 -0.041986093 -0.03275204 0.107306436 0.20186417 -0.12092721 0.050622772 0.16658205 0.060527045 -0.21924053 0.16439506 0.27801993 -0.091480434 -0.07924146 0.22990574 -0.09201679 0.052018736 -0.14831999 -0.09743637 -0.12916516 0.23169477 -0.13736744 -0.17602497 0.24088188 0.12813708 0.07779475 0.19724306 0.13167307 -0.13508286 -0.14111367 -0.12641788 0.16590326 -0.1027999 0.20852648 -0.2779556 -0.21685657 -0.17914638 -0.12631306 0.12622163 -0.1571492 -0.0005274057 0.083984226 -0.14609191 -0.13813718 -0.04799971 0.19542645 -0.11714987 -0.08287059 0.061372053 -0.09730578 0.11708851 0.21464793 0.23279883 0.16581891 -0.21814592 0.14805667 0.008587421 0.13179408 0.02923848 -0.047692593 -0.18113245 -0.00037093365 -0.16445589 0.14397229 0.116306886 -0.19778666 -0.073847555 0.19517104
3912 0.015130281 0.019574556 -0.060637042 0.14167272 0.06955004 0.039459735 -0.10690549 0.0816211 0.08569029 0.05446256 0.03559285 -0.10195693 0.05978385 -0.016054112 0.030098358 -0.018713862 -0.041708864 0.08638045 -0.08813384 -0.17104307 -0.0271323 -0.016457167 -0.03341052 -0.057130348 0.041067228 -0.067156084 -0.10975189 0.07642568 -0.0051238956 -0.067995295 0.084492885 0.057384305 -0.11904144 0.036287677 -0.035022102 -0.012188055 -0.03701777 0.028041348 0.029559119 0.08975887 0.037578356 -0.027041519 0.0023712802 -0.055243563 -0.07299141 0.15937127 0.123501115 -0.039519574 -0.027915793 -0.020870434 -0.1030005 -0.0400451 0.10917281 0.059636235 0.04096234 -0.06746926 -0.019634318 0.119306944 0.037159123 0.123689406 0.11370875 -0.027059352 -0.04438962 0.037709005 0.21323112 -0.12550515 0.042848647 0.17310594 -0.0005204142 -0.20315108 0.1835104 0.16179042 -0.14553349 -0.05084458 0.113609694 -0.10053201 -0.040562306 -0.23444384 -0.097742744 -0.19797842 0.16909982 -0.09881555 -0.1890141 0.09533084 0.061396386 0.1829883 0.08230423 0.07929873 -0.19356328 0.0030147622 -0.18942422 0.19846247 -0.09523131 0.24848603 -0.20444793 -0.13816571 -0.20240888 -0.11620966 0.15167259 -0.17329577 -0.08670889 0.064622834 -0.14340346 -0.16739964 0.0012555585 0.15083578 -0.12222618 -0.08756437 0.0950205 -0.12647459 0.04124256 0.18549538 0.15886338 0.18446785 -0.08528549 0.1336564 0.042909525 0.17193884 0.1115774 -0.06601204 -0.20675905 0.061472267 -0.1155145 0.17235717 0.24534713 -0.086895384 -0.11936799 0.102864444
5335 -0.03530173 -0.13889234 0.027772041 0.044145152 0.101454675 -0.029800493 0.12872526 0.095407695 0.018011041 -0.22996236 -0.033813275 -0.1914077 -0.015190776 0.051943686 0.043260355 0.06467465 -0.18016492 0.04323311 0.1415673 -0.030021632 0.10923639 0.12254716 0.056069434 0.095929556 0.0030087214 0.14313297 0.043182924 -0.057486296 0.05511905 -0.0015036697 -0.05533894 -0.12467683 0.039833456 0.17037599 -0.087212086 -0.06301259 0.08429268 -0.019925844 0.09319129 -0.018771995 0.015794383 0.08646319 -0.10032456 -0.021764815 0.14345431 0.015742168 0.21320628 -0.01940171 -0.013252191 -0.088238224 -0.039804764 -0.03306086 -0.121489145 -0.05084855 -0.15192209 0.07948098 -0.0077433405 0.12081088 0.07486376 -0.05753566 -0.06833986 0.1383344 0.104069375 -0.098702244 0.18519278 -0.24704969 0.1798933 0.19718146 0.06386878 -0.33142245 0.22969766 0.2107181 -0.15186699 -0.19444814 0.25709534 -0.18806791 -0.21217398 -0.12727526 -0.0979641 -0.15056628 0.23198113 -0.071575254 -0.23413524 0.12291015 0.14689414 0.2800396 0.15936887 -0.03023494 -0.36654243 -0.17901853 -0.26036248 0.1464329 -0.22570673 0.30499464 -0.20495063 -0.15295094 -0.23988725 -0.26335326 0.18029343 -0.13016196 -0.07566362 -0.034524497 -0.19263978 -0.18331774 -0.0050496818 0.20755786 -0.13973585 -0.23869188 0.2605839 -0.17094968 0.07126526 0.15539579 0.11254655 0.30901188 -0.11857051 0.088811904 0.06205592 0.14078456 0.10975327 -0.10040928 -0.2662023 0.11129885 -0.26110473 0.21314722 0.16409203 -0.10125045 -0.07037844 0.18431398
5921 0.08006087 0.09504303 0.18318547 0.19377558 0.058968034 -0.08947896 0.13982424 0.18357888 0.073141 -0.073455326 -0.0328399 -0.07656344 -0.015511917 -0.0758146 -0.029747518 0.08519507 -0.13085595 0.0031876802 0.12462184 0.053699277 -0.035363212 0.031072024 0.09522263 0.06838938 -0.0012419659 -0.055852618 -0.037314992 0.011416606 -0.13333048 0.0048059686 -0.22670686 -0.13460745 -0.017063621 0.009694703 -0.088786274 -0.06042116 -0.074417904 -0.06440485 -0.033890236 -0.022305982 -0.12192876 0.064604975 -0.106562845 0.018591326 0.16184239 -0.034587655 0.038811106 0.022463946 0.118312895 -0.061898917 -0.1642676 -0.019144567 0.007330869 -0.12928157 -0.1629983 0.0017207619 0.106969215 0.09781925 0.18106203 -0.051238 0.10884374 0.10125221 0.10152732 -0.14069438 0.1406855 -0.19142255 0.12777734 0.18327206 0.08323527 -0.17227414 0.119318865 0.13491583 -0.06698731 -0.22657554 0.21660857 -0.22168253 -0.07451142 -0.12917802 -0.14892146 -0.24832161 0.21590278 -0.1160587 -0.12934554 0.10147235 0.19044061 0.2062822 0.23172279 0.021936867 -0.25860873 -0.050314374 -0.23216169 0.24721813 -0.28212684 0.24381042 -0.09001568 -0.23302537 -0.2060225 -0.30465895 0.3281803 -0.17094417 -0.1857886 -0.009987827 -0.16945934 -0.1340675 0.005259955 0.20606673 -0.24645725 -0.22046669 0.19190602 -0.16398825 0.1389151 0.12530446 0.13284567 0.2995878 -0.1592834 0.13266718 0.031935804 0.036022928 0.2235359 -0.13004522 -0.28071293 0.23174138 -0.1797051 0.11222458 0.16619341 -0.04223152 -0.07786015 0.09290472
9516 0.05354976 -0.023832561 0.0434458 -0.13912226 0.036213808 -0.042487595 0.11415598 -0.0723594 -0.009916589 -0.0676773 -0.004549965 0.016120376 -0.051876873 0.03284343 0.0683699 -0.068955645 -0.029413348 -0.023480995 0.009355317 -0.034221187 0.02561133 -0.1240661 -0.0765418 0.009835229 -0.11306357 -0.09448995 -0.05726132 0.0039628614 0.08779617 -0.08034172 0.07300353 0.00043454702 -0.13745098 0.043374907 0.012698192 0.045494214 0.040723443 0.014941146 0.17351249 -0.014445514 0.057441376 -0.08757914 0.03915519 -0.05697976 0.035357084 0.04453288 -0.03556875 0.06377768 0.075784266 -0.022284321 -0.07065166 0.11263408 0.072940916 0.09558019 -0.078885034 0.07053834 0.0837629 -0.09243447 0.10277756 0.025309384 -0.0071507776 -0.04380285 -0.05492537 0.10753823 0.120501086 -0.07860509 0.13460936 0.1579991 0.04432949 -0.1420301 0.1138983 0.22454725 -0.10330719 0.024160884 0.19947605 -0.1753574 -0.10995056 -0.05196869 -0.15151514 -0.16299011 0.12228773 -0.06956185 -0.056251906 0.021005908 0.08441231 0.20498605 0.14732282 0.09255202 -0.06575802 -0.0020729483 -0.10728771 0.1520323 -0.021073453 0.08836631 0.009525627 -0.20181087 -0.16706835 -0.19837005 0.14411435 -0.1534435 -0.062314194 0.036679793 -0.13180874 -0.106561154 -0.17480814 0.059754834 -0.13392583 -0.19271164 0.206374 -0.09349696 0.13776241 0.1388274 0.13811606 0.14979997 -0.04951687 0.13956235 0.06618635 0.12609081 0.22117358 -0.1333867 -0.17058046 0.08856446 -0.18585704 0.04991051 0.080388285 -0.09393063 -0.11780905 0.10324579
23327 0.106502086 -0.036599 0.030959936 0.014987902 0.20391436 0.05344826 0.012337683 0.044028167 -0.14240749 -0.0888367 0.084277265 0.023516601 -0.026578398 0.05432291 0.095217384 0.019754805 0.028250478 -0.1297555 0.14518924 -0.019882804 -0.035828043 -0.08554822 -0.07245155 -0.033262648 -0.008426248 0.042597838 -0.016411189 -0.004075277 0.013752228 -0.14579444 0.08922507 -0.015523867 -0.037777796 0.044004563 -0.11074081 -0.03635476 -0.14293024 -0.07091567 0.036797326 0.013876625 0.1097683 0.06964743 0.017892627 0.03026804 0.009289728 0.048688266 0.09381168 0.060016263 -0.031575248 0.0043056 0.033311244 -0.19746327 0.16577289 0.0011688378 -0.04932135 0.024548266 -0.08904582 0.021038644 -0.06287952 0.056358017 0.036347188 -0.026267752 0.17748651 0.10622209 0.17848466 -0.16222888 0.21076019 0.22614221 0.12555128 -0.2246107 0.12772314 0.19356683 -0.13648538 0.05431291 0.20471065 -0.13841136 0.02777927 -0.16035475 -0.29046804 -0.27409455 0.27241105 -0.037763394 -0.17108046 0.08404459 0.2161613 0.26472396 0.2125082 0.18655685 -0.165585 -0.10927141 -0.21667099 0.08555098 -0.18977082 0.18118721 -0.07789224 -0.2853238 -0.19104356 -0.23663342 0.29273254 -0.22276944 -0.09429215 0.053017925 -0.08722872 -0.24729782 -0.11114272 0.13798596 -0.11633853 -0.1930175 0.20279989 -0.20409706 0.017384404 0.20139247 0.12931798 0.12347849 -0.086666 0.16426109 0.19292265 0.07100538 0.26215005 -0.10720812 -0.15532579 0.14408596 -0.19435494 0.08425348 0.15132014 -0.18676169 -0.13834877 0.10397424
4869 0.04438423 0.025457218 0.042969823 0.027969351 -0.0922931 0.07173516 0.10704351 0.049565103 0.118075006 -0.013893913 0.064742684 0.079054624 0.054682814 -0.023479674 -0.011571543 0.06406893 0.025748553 0.097801335 -0.1494593 0.0277859 -0.016300341 0.13817167 -0.16560161 0.06823795 0.19200252 -0.059676126 0.058854066 0.13079481 -0.036908958 -0.081713095 0.006004021 0.09189908 -0.049950995 0.090976596 -0.08260267 0.019455014 0.099919915 0.12442504 -0.0071699014 -0.09902417 0.15809938 -0.012677714 0.09497613 -0.177326 -0.02694115 -0.027423661 0.15457037 -0.10119075 0.11725086 -0.1422984 0.13887087 0.009724285 -0.05580045 -0.069460824 -0.05348314 0.052069943 -0.09567998 0.08052819 0.005601098 0.024127124 -0.099592075 -0.06311647 0.09816727 0.15431505 0.2529127 -0.033784058 0.08043151 0.18199149 0.0916957 -0.26554468 0.10649404 0.2534351 -0.10849183 -0.13302538 0.32146388 -0.29286885 -0.11287037 -0.20561084 -0.19773534 -0.111170985 0.28917998 -0.07299605 -0.23362367 0.057205666 0.08340877 0.15642701 0.21005726 0.056904823 -0.21370076 -0.0007132375 -0.2905228 0.07835017 -0.19797741 0.26790205 -0.2216681 -0.22488472 -0.19382167 -0.15949316 0.16621098 -0.17937846 -0.19569497 0.0988863 -0.1044644 -0.28251633 -0.054829277 0.07726307 -0.05108807 -0.23336591 0.19558297 -0.21376213 0.036453012 0.15571493 0.17277643 0.27401474 -0.19176687 0.29334608 0.15403013 0.27538309 0.038347386 -0.2005184 -0.19624995 0.07740925 -0.12084095 0.29343256 0.21876186 -0.19309255 -0.25177547 0.086330906
498 0.052330207 0.06174401 -0.06239058 0.1072393 0.08126988 0.06422508 0.11176288 0.035420686 -0.12160538 0.0054364293 -0.08082472 0.037334252 0.048388463 -0.086122915 -0.08466391 0.058234997 0.049184274 0.044454705 -0.13279574 0.009082083 -0.016459886 0.034298863 -0.008681929 0.0068673464 0.0011510855 0.021793263 -0.03398324 -0.0040206946 0.041171823 0.017942078 -0.04970565 0.02440224 -0.028508844 0.056914635 0.09086241 0.19470845 -0.12500745 -0.08618968 -0.09761119 0.04095763 0.12478994 0.04343826 -0.0150475 -0.0011767427 -0.056739666 -0.108426034 0.15535176 0.057452034 0.04190948 -0.06717332 0.083973564 -0.039016895 0.03265783 -0.00025178096 0.013089889 -0.10797187 -0.14608946 -0.018560022 0.055795606 0.0074785003 0.017541427 -0.094787374 -0.009186508 0.15009484 0.1907317 -0.13114353 0.053474404 0.17190585 0.11540356 -0.185421 0.18047418 0.1208729 -0.08871829 -0.069817215 0.2878663 -0.23231177 -0.068907596 -0.16575156 -0.23731133 -0.15277587 0.18963583 -0.16437116 -0.22434703 0.029540788 0.047038555 0.18853942 0.13334835 0.043842904 -0.10636101 -0.09203576 -0.26405996 0.13099793 -0.2232292 0.20421357 -0.19459616 -0.2545535 -0.21604504 -0.22430964 0.17626923 -0.179411 -0.15290698 0.14079086 -0.18888773 -0.15902098 0.14025179 0.16390574 -0.15121172 -0.21192673 0.11260239 -0.23914632 0.05866698 0.15533173 0.2965133 0.2566494 -0.1524265 0.1683656 0.03585158 0.20077343 0.105642244 -0.15801877 -0.22623949 0.202578 -0.1701783 0.2906442 0.12152315 -0.23413375 -0.08374943 0.11936415
1650 0.25107747 -0.11982933 0.06695779 0.006011175 0.018369524 -0.04791292 0.084768474 -0.023436261 -0.040313076 -0.008151885 0.10869278 0.06883264 0.13868092 -0.12504731 -0.0044634026 0.1888162 -0.030361773 0.0064915847 -0.021014279 -0.026936736 -0.009885994 0.009819795 -0.13846186 0.014414077 0.04965121 -0.122603595 -0.10467151 -0.0017909802 -0.0997089 0.0063106553 0.045801815 -0.0046356074 0.16135831 -0.050334733 0.21591258 -0.09695947 0.10966862 -0.06515896 0.035315394 0.022551782 0.052428838 -0.038047142 -0.037358735 0.044609644 0.0536561 0.01825117 0.03963378 -0.017416514 -0.022232378 -0.07179106 0.13917941 -0.093958154 0.034208704 -0.02315249 0.0078612175 0.043683358 -0.10737905 0.050792437 -0.13842216 0.101478525 0.09317615 0.010308879 -0.06304547 0.14037864 0.26919076 -0.16193861 0.16536617 0.13894123 0.10418537 -0.13220538 0.15486065 0.23286855 -0.15377857 -0.13111964 0.2681466 -0.21871291 -0.18143436 -0.13860965 -0.2192908 -0.18993272 0.17786603 -0.13080719 -0.1293783 0.02531559 0.15103444 0.06925556 0.14340188 0.12129722 -0.1575665 0.012946663 -0.2814245 0.15597597 -0.15888475 0.23624974 -0.15431663 -0.22116481 -0.19622713 -0.11488248 0.1937227 -0.15719542 -0.025339011 0.0008589168 -0.056115817 -0.24399732 0.0034095207 0.17062306 -0.17206018 -0.19031489 0.15335205 -0.18188922 0.14269929 0.20302165 0.15658641 0.20457697 -0.20201445 0.24821016 0.123172946 0.26149395 0.09876867 -0.114837185 -0.18250172 0.162599 -0.10953533 0.24560188 0.13230129 -0.12028668 -0.13543913 0.08503621
3703 0.038735565 -0.1183076 -0.021832336 0.067748666 -0.0059037693 -0.024427863 -0.030148838 0.008693157 0.0006370387 -0.0446557 -0.06828233 -0.023751752 0.14258887 0.019238839 -0.0007495916 0.084363095 0.05810192 0.119431555 0.042547658 -0.05402844 -0.020631239 0.00046281982 0.075262554 0.05753587 0.082286134 0.020271678 -0.016773313 -0.03724098 0.043803316 -0.07191962 -0.09453022 -0.07932241 -0.035343118 -0.0761006 0.18886405 -0.05011722 0.066114224 0.0036728296 0.14013039 0.104995534 0.03221166 0.060853615 0.0001736919 0.03270903 0.03780041 0.03573912 0.012638311 0.07984759 -0.1253463 -0.044898424 0.10013821 -0.030970441 -0.03708896 -0.053839892 0.034236576 -0.036514852 -0.08114312 0.07451188 -0.07552804 -0.079975694 -0.062641494 -0.037012104 0.06676317 0.04969993 0.20137537 -0.10056658 0.12254349 0.1055246 0.077179275 -0.16366705 0.11928 0.11800237 -0.11368408 0.05755784 0.14386135 -0.11832454 -0.07254015 -0.13055073 -0.12868997 -0.051851433 0.070147656 -0.038427103 -0.0768818 0.05327064 0.06892945 0.024336388 0.17162873 0.101767614 -0.10769048 -0.09655644 -0.23479389 0.11459574 -0.14803967 0.17145382 -0.07297467 -0.22073774 -0.14644802 -0.09796312 0.16710095 -0.12727569 -0.050838605 0.037946608 -0.092154905 -0.21171756 -0.071854286 0.035378985 -0.1584823 -0.23071979 0.11062798 -0.15115505 0.013444873 0.06517532 0.11465172 0.14519973 -0.13280712 0.14894998 0.026122877 0.12815861 0.10204375 -0.19406405 -0.17888284 0.2059897 -0.059355807 0.24050045 0.1516906 -0.04909761 -0.15650672 0.12667198
1499 -0.01132806 0.086369775 0.09321848 0.08584306 0.11630863 -0.047356855 -0.04367372 -0.08870088 -0.09067083 0.061957084 0.15447266 0.013218484 -0.051687293 0.06417185 -0.005116901 0.16632618 -0.006799992 0.065413676 0.07720735 -0.16167207 0.06429191 0.00019552844 0.11397768 0.06149234 0.14370245 0.07307673 0.04187614 -0.068987116 -0.08749432 0.015011336 0.04874449 -0.00064663414 -0.014683497 -0.029914055 0.083188914 0.022866845 -0.048070073 0.07530597 -0.0013300248 -0.0317093 -0.13679156 -0.097244464 -0.11423874 0.05279415 -0.039668567 0.07434955 0.027891822 0.006510908 -0.12934428 0.17019652 -0.013719039 0.14801268 0.076407015 0.018102346 -0.046946503 -0.017366597 0.13756587 0.1138696 -0.12816006 0.0654502 0.08556698 0.121211104 -0.14037456 0.015692772 0.2602556 -0.12591594 0.1983117 0.22327828 0.11960816 -0.26189408 0.06532336 0.18344878 -0.14417966 0.016740274 0.24647899 -0.28931415 -0.040121675 -0.15925728 -0.20346679 -0.11019448 0.1511135 -0.09110684 -0.113164164 0.10066802 0.10492232 0.24016026 0.17036535 0.17164277 -0.28449547 -0.061555777 -0.31857747 0.16782309 -0.12213783 0.20693491 -0.09142488 -0.2738609 -0.3226204 -0.22801289 0.31131974 -0.12887691 -0.054889917 0.085624605 -0.1298787 -0.29804498 -0.050602175 0.12536949 -0.119095616 -0.11666291 0.13635702 -0.20837146 0.12668303 0.2511513 0.27515802 0.10394641 -0.0061430912 0.19417325 0.12864918 0.24455172 0.22779854 -0.12340538 -0.27070174 0.1214134 -0.1637624 0.12489748 0.12614219 -0.15157974 -0.11198807 0.23361252
5494 -0.011116992 0.04019876 0.09243935 -0.0562324 0.03925904 0.07752595 0.03719604 0.054000385 -0.040154405 -0.03785455 0.08895855 0.0002150114 0.09501438 0.1311569 -0.06263462 0.04098166 -0.030904153 -0.0374948 0.021274077 0.023041204 0.014051713 0.004039423 -0.043741804 -0.030956581 -0.014544679 -0.025745632 -0.00965935 -0.13498302 0.026280986 0.05494691 -0.005010912 -0.030225221 -0.024071155 0.022623394 0.03632763 0.009273526 0.0056499797 -0.01674376 -0.06883775 0.07546725 -0.015698029 -0.0849428 0.096233696 0.00056558487 -0.109081164 0.02065346 -0.008111973 0.0006561399 0.028981438 -0.03548209 -0.09153238 0.11547233 -0.026994215 -0.04780967 0.0033623823 0.062249042 0.0910686 -0.019744087 -0.10006458 -0.06568317 0.001555422 0.09802627 0.005810735 -0.034644194 0.2889073 -0.014892523 0.1651642 0.24415465 0.14929977 -0.19310322 0.12873857 0.13764282 -0.014958495 -0.0706591 0.14795068 -0.25128883 -0.0491197 -0.18635592 -0.19621387 -0.11648029 0.18840119 -0.07351664 -0.14884338 -0.031658057 0.045566738 0.13722272 0.25042403 0.051727265 -0.13959488 -0.07845561 -0.2341307 0.12292089 -0.112186655 0.17436069 -0.11949267 -0.1727623 -0.20063314 -0.15446861 0.26687962 -0.11784595 -0.06801654 0.0914973 -0.15603308 -0.23582515 -0.000393937 0.16496551 -0.081288226 -0.0705595 0.057381537 -0.1296224 0.07345255 0.14508839 0.20329404 0.119482175 -0.052103106 0.14607528 0.078852594 0.13885061 0.2014758 -0.14527634 -0.24811316 0.10772798 -0.18957587 0.1117454 0.19067642 -0.056405723 -0.14309756 0.09849224
55696 0.06104362 -0.03389603 -0.115749754 -0.009073457 0.015138803 -0.03963619 0.0008509457 0.0009748122 0.004592999 -0.03561984 0.0036126692 0.17236309 -0.011725789 -0.090470426 -0.033010095 -0.03485558 -0.09471678 -0.0014218574 -0.18605658 0.1286564 0.06843834 -0.114031345 -0.068738475 0.033499762 0.11719023 -0.11464443 -0.06590488 0.045066006 0.00044347477 -0.12757652 -0.0650495 0.089938335 -0.12592967 0.08512359 -0.1422845 -0.14901301 0.038726915 -0.0813737 -0.016641306 0.15924157 0.12610655 0.051794454 0.085178174 0.06428359 -0.07246958 -0.1630507 -0.13195609 0.012405339 0.057170276 0.005461878 0.068130076 -0.092918076 -0.07439987 -0.081720404 -0.005987435 -0.054301802 0.10938905 -0.036068346 -0.028465223 -0.09892726 0.09100636 -0.05527751 -0.09561036 0.09840017 0.11004387 -0.026434137 0.17100815 0.12259496 0.09052522 -0.17748065 0.041781034 0.1813314 -0.24750705 0.07458729 0.1550935 -0.18040709 0.010988516 -0.1428408 -0.2713024 -0.09992492 0.06910141 -0.14909974 -0.20788616 0.17367625 0.011021324 0.07316262 0.10156314 0.07014474 -0.056963142 -0.01848 -0.12966709 0.13488623 -0.20440601 0.18110217 -0.11660291 -0.27419794 -0.20581618 -0.09242283 0.20851028 -0.24785627 -0.11025868 0.15900372 -0.19569764 -0.2708582 -0.039770383 0.09943117 -0.103612475 -0.20440313 0.10719684 -0.17483181 0.108737916 0.071525685 0.19531155 0.14563118 -0.1729963 0.31234923 0.0923957 0.19064102 0.09488492 -0.23478608 -0.13328332 0.016119149 -0.10389974 0.09349867 0.13379787 -0.23137599 -0.14016783 0.1791635
6729 0.062293243 -0.07888279 0.060446337 -0.016863672 -0.02897461 -0.028087009 0.02998392 0.02344965 -0.11921711 -0.071870156 0.07030886 0.01783142 -0.04414821 -0.14430013 0.07169954 -0.0874452 0.06357975 0.037625547 0.10061125 -0.0011475288 0.030181322 -0.018064288 -0.024031613 0.07827369 -0.06142832 0.07531354 -0.014656466 -0.04586023 -0.037902806 0.08884262 0.049700357 0.11379196 -0.051872775 0.02463705 -0.038659528 0.10654392 0.031503905 0.054094303 -0.008542355 0.04657954 0.060954873 -0.04788161 -0.051920407 -0.10260462 0.08718695 -0.101946786 0.0645651 -0.02595798 -0.019840878 0.15045877 0.06486184 -0.026010266 0.10476657 -0.120979466 0.13557185 0.043034267 -0.04778375 0.034892816 0.059167437 -0.09965175 0.0009222176 0.052992623 -0.0050016833 -0.117353015 0.082272604 -0.019841164 0.13220425 0.23714517 0.09315811 -0.16861103 0.12570994 0.13886668 -0.24366623 -0.15235825 0.14312944 -0.04754306 -0.12750311 -0.13719648 -0.21176867 -0.13908455 0.090302885 -0.10772307 -0.10699651 -0.01489578 0.04462344 0.08481832 0.1957627 0.056127857 -0.23622671 -0.09375067 -0.19544706 0.106262855 -0.16970631 0.12633029 -0.10072726 -0.08141888 -0.17217837 -0.14494781 0.16743216 -0.11757791 -0.07366851 -0.047745705 -0.14455342 -0.13350679 -0.016146043 0.1318625 -0.0662636 -0.12332709 0.2127105 -0.123538814 0.104630314 0.23255654 0.07215763 0.21521315 -0.08823952 0.060700748 -0.027333444 0.22256066 0.020329652 -0.23296621 -0.1798516 0.120068714 -0.1050952 0.17025371 0.0618716 -0.20876947 -0.0745814 0.19959496
7879 0.050245237 0.021063719 -0.0045732735 0.09394792 -0.07630681 -0.08995659 -0.050617404 0.040935945 -0.0065261764 -0.03552467 0.07058869 0.0041884733 0.0761446 -0.11325987 0.13877347 0.15370639 0.04527687 -0.005632776 -0.03922262 0.07262446 -0.08810733 -0.056153264 -0.014673168 0.060402844 0.16461052 -0.12458676 -0.105199106 -0.027368726 -0.1383114 -0.08938288 0.097604774 0.13178074 -0.06049342 -0.13723812 0.051711872 0.06502372 0.1323626 -0.037391394 0.04393864 -0.016343791 0.004593443 0.08570852 0.047952186 -0.0017999328 -0.026300384 0.00039269187 0.037387837 0.040252715 -0.05002115 0.14519167 -0.14122123 0.021679565 0.03453837 -0.054819398 -0.0010324746 -0.10122535 -0.12794313 0.143059 0.05122825 0.0048701246 -0.04095921 0.048050247 0.013421337 -0.03968667 0.15046112 -0.10651763 0.18155414 0.2507083 0.073092446 -0.15809879 0.07131343 0.19045877 -0.24421331 -0.057444956 0.27129832 -0.26036832 -0.02169953 -0.22596619 -0.14130765 -0.14297995 0.1622022 -0.12925474 -0.09650658 0.08194013 0.026492298 0.019440262 0.12852184 0.14471406 -0.2298851 0.049267624 -0.2246418 0.18045045 -0.15278172 0.12615348 -0.0020336795 -0.31058213 -0.12648089 -0.16379769 0.2454452 -0.33214626 -0.17684498 0.18184683 -0.20790581 -0.059612446 0.030299414 0.15949757 -0.1403436 -0.24350409 0.15666395 -0.18109028 0.2539465 0.27620894 0.24390194 0.20249167 -0.19095495 0.1367811 -0.009559301 0.21605007 0.10434762 -0.12693189 -0.19064428 0.09116452 -0.216646 0.18143933 0.1720914 -0.3211985 -0.1657441 0.091402784
57403 -0.011905557 -0.014362017 0.036487643 0.006146502 -0.12920964 -0.079309754 -0.13707806 -0.010277033 0.010700905 0.06905362 -0.063443065 -0.040894125 0.010467287 -0.052891646 0.014332664 0.047885176 0.009931104 0.004910291 -0.016699618 0.004221117 -0.0866194 -0.023052454 0.09339912 -0.05338103 0.027677307 -0.042925958 0.05175533 -0.061658356 -0.02981467 -0.039545596 -0.072308056 0.032689273 -0.101418495 -0.011670615 -0.008435101 -0.04846877 0.044483673 0.05226647 0.044740126 -0.004277037 0.01592858 -0.055502966 0.045157272 0.08557383 0.029134115 0.014042838 0.043948296 -0.10649206 0.021722876 0.04123568 -0.11466561 -0.05614715 -0.023964921 0.041419905 -0.053301517 -0.17121224 -0.018485656 0.0386049 -0.07099051 0.032781143 0.0022894756 0.042808242 0.016649425 -0.012928338 0.05164776 -0.09785589 0.14165002 0.14412259 0.14088726 -0.1073029 0.07771222 0.09691553 -0.09788059 0.014533379 0.1844579 -0.13041581 -0.079127975 -0.15676133 -0.04790045 -0.10075144 0.18610919 0.022929974 -0.03794965 0.0043712617 0.11636483 0.041512758 0.061858878 0.02492977 -0.050695192 -0.028003806 -0.07671505 0.102716446 -0.17932615 0.13370094 -0.0896043 -0.2374149 -0.10765224 -0.154643 0.17275487 -0.19950485 -0.18399231 0.19313021 -0.10706704 -0.07871025 0.01071304 0.030225234 -0.08318849 -0.17125311 0.058368936 -0.11216879 0.0067458046 0.1322494 0.15979722 0.084370986 -0.1352231 0.046974156 0.087207764 0.09900997 0.08545446 -0.074481055 -0.1158832 0.047678307 -0.12427172 0.10616016 0.12103537 -0.07687196 0.000653279 0.10388712
3566 -0.044572596 0.0085334275 0.075973235 0.08553479 0.08399475 -0.052621093 0.029801607 -0.14312027 0.027898561 -0.058330942 0.025523813 -0.07976436 0.12006077 -0.026667077 -0.054628387 -0.08797911 -0.085211135 -0.09640914 0.10445737 -0.11307748 -0.014799857 -0.07073334 -0.022913944 -0.023938874 -0.028257005 0.06106566 -0.07873314 -0.025869824 -0.004514611 -0.06862412 -0.077441715 -0.06639125 -0.05579206 0.13332842 -0.07926181 -0.06431258 -0.012937203 -0.0147449 0.04868634 -0.019786421 -0.040540084 0.01027063 -0.0058078878 0.013727364 -0.06790429 0.043524556 -0.001287808 -0.015103991 0.020141909 -0.03467458 0.04542196 -0.053750537 -0.09810402 0.025313238 -0.13441761 0.007023866 0.04478213 0.006456643 0.12974516 0.026411597 0.08246976 0.04544236 -0.040483166 -0.043747682 0.20350988 -0.09973968 0.09177312 0.16484328 0.08278756 -0.20022741 0.14168394 0.21999316 -0.04988342 -0.060849197 0.22339286 -0.20554224 -0.0576396 -0.08275337 -0.1372212 -0.08856378 0.17254551 -0.07566074 -0.1567235 -0.038354732 0.013888065 0.12638412 0.15258951 0.14058852 -0.06353117 -0.101520926 -0.119919606 0.13002832 -0.22284766 0.18600026 -0.18465506 -0.19775933 -0.17627183 -0.22552288 0.22220425 -0.15510994 -0.06334542 0.10199089 -0.19950165 -0.100986235 0.03949862 0.12286527 -0.17621721 -0.18054575 0.2233466 -0.30613792 0.12107035 0.18011513 0.21070066 0.18242978 -0.0103864595 0.09559575 0.13630731 0.17789626 0.15457472 0.0024873419 -0.23611835 0.047842354 -0.12631294 0.22110087 0.11328294 -0.07450545 -0.16577931 0.19302942
9655 0.030752707 0.01017249 0.059876237 0.11818112 -0.07008295 0.09288911 -0.07705547 -0.04024227 0.08279569 -0.020016756 0.038220607 -0.019977512 0.09360811 -0.05094883 0.025950141 0.08754146 0.007327563 -0.037611574 0.05940759 0.015353198 -0.010503577 -0.049154088 -0.007516191 0.08235327 0.028091043 0.030001454 -0.0669574 -0.012854853 0.051004138 -0.07128739 -0.057794463 0.034274824 -0.02566578 -0.009610846 0.07426667 -0.068605065 -0.0053978553 -0.07097095 -0.03182647 0.045703076 0.018168682 0.06829339 0.017300231 0.055768996 -0.045451112 0.097038046 0.062114585 -0.021603065 -0.031420857 -0.0552254 0.01786523 -0.10803767 -0.035389792 -0.008371059 -0.052351356 0.034170102 0.10057012 0.072189376 0.035445824 -0.015413402 0.035864946 0.08183658 -0.004778416 -0.0151633965 0.1326348 -0.028427085 0.031034324 0.04061611 0.14735222 -0.13662706 0.07105282 0.12558894 -0.04204491 -0.007159193 0.18467289 -0.21116248 -0.0684385 -0.12584008 -0.17099255 -0.083978236 0.18209028 -0.15386853 -0.0973868 0.014010703 0.056641087 0.18523015 0.09677436 0.076189846 -0.06926791 -0.06346404 -0.15425098 0.08024442 -0.17347118 0.06604028 -0.060944606 -0.27599972 -0.25476238 -0.10409991 0.20258878 -0.14298965 0.016751235 0.13565044 -0.101275176 -0.11015308 0.012921716 0.07020729 -0.17610803 -0.15357159 0.09757566 -0.23642963 0.11129538 0.121536314 0.15558374 0.082394354 -0.10588638 0.08528919 0.04232919 0.118235335 0.1108583 -0.038807433 -0.100332096 0.07827977 -0.15051767 0.091769785 0.17868243 -0.080476 -0.048455007 0.16344294
5499 -0.1694724 -0.12840855 -0.082924895 -0.03487505 -0.067424744 -0.049400188 -0.13103223 -0.11697564 -0.14374629 0.16705038 0.14698532 0.10484207 -0.16614203 0.040268004 0.022484336 -0.10238525 0.021450344 0.0472517 -0.046823632 0.017481796 0.05985435 0.100300126 -0.013917035 0.070560925 -0.13295871 0.07361591 -0.039706737 -0.070836686 0.040994536 0.00922543 0.10171948 -0.0013664733 0.05654552 0.035502113 -0.0732121 -0.10895535 -0.07070456 0.07048049 -0.0041472632 0.019178135 0.016489757 0.084631406 0.032810252 0.084486134 0.10349059 -0.17496745 -0.06653488 -0.06623821 -0.029136056 -0.03845042 -0.009191244 -0.06770608 0.0997522 0.037618533 0.00020596047 -0.028766414 0.13335067 -0.040178537 0.1251418 -0.051200245 -0.028176015 -0.01799483 0.046731874 -0.013086825 0.12575588 -0.22840849 0.101459995 0.20176247 0.19953232 -0.2389483 0.10041305 0.08369646 -0.17691785 -0.002772047 0.29603213 -0.20031212 0.03816927 -0.19806682 -0.19011666 -0.32019356 0.17465067 -0.14604491 -0.14644445 0.18817364 0.023450624 0.13747358 0.19953567 0.18637474 -0.23664677 -0.13983463 -0.2600228 0.07887829 -0.10463527 0.16683318 -0.18613626 -0.22286011 -0.16304216 -0.20924655 0.27420795 -0.12928717 -0.16651079 0.15062596 -0.19844654 -0.23049217 0.03636273 0.09964359 -0.07100224 -0.1527666 0.13491619 -0.24209844 -0.017827012 0.16131493 0.23903158 0.18121369 -0.10991057 0.18681487 0.0974425 0.25775868 0.22172548 -0.1734545 -0.25004566 0.10338817 -0.19521144 0.2136253 0.25344497 -0.13155304 -0.05988889 0.2101319
5568 0.055064075 -0.0804004 0.02261266 0.044573065 0.013362332 0.06321922 -0.0007073578 -0.066023074 -0.076781005 0.0327859 0.07283937 -0.03530669 -0.0034494034 0.08122808 -0.10428959 0.024556296 0.030112663 -0.15210135 0.053028937 -0.012043435 -0.04378942 0.11916377 -0.054365966 0.09357903 0.059735555 0.11917106 0.009643548 -0.013232891 -0.09957621 0.084652826 -0.0029416191 0.06665241 0.055265475 -0.015804047 -0.06606238 0.082604095 0.0127977 0.06842142 -0.029183125 0.09839967 0.03615797 0.02156007 -0.08477588 -0.058445115 -0.0072954036 0.072310425 0.122459896 0.030766027 -0.11059094 0.025944324 0.05275954 -0.021897886 0.053074904 0.012715608 0.10144446 -0.06263197 -0.036685225 0.040071867 -0.026899433 -0.01461627 0.039257362 0.038098264 -0.049530745 0.055609595 0.17139137 -0.16471669 0.048500173 0.2204701 0.085046075 -0.2059187 0.061275166 0.20878123 -0.1812636 -0.045789327 0.21975139 -0.22008722 -0.0130863935 -0.2035024 -0.1847501 -0.17809264 0.23506309 -0.02123276 -0.16900238 0.18091878 0.049639005 0.13556951 0.2942346 0.1932776 -0.21546058 -0.101622425 -0.18017595 0.23056881 -0.11925404 0.09916559 -0.14482759 -0.29909185 -0.19201872 -0.19158757 0.22862259 -0.17731637 -0.059155513 0.06758727 -0.18077031 -0.26790646 -0.029058266 0.0736274 -0.13898702 -0.2099181 0.18126716 -0.27336177 -0.17854472 0.2316424 0.16879876 0.12052857 -0.07541874 0.23869014 0.15713099 0.2535753 0.14833008 -0.08910373 -0.23008616 0.15555558 -0.17578249 0.038199745 0.20499274 -0.17355429 -0.09621306 0.18680109
118 0.13396765 -0.030723743 0.027401192 -0.017862076 0.048925355 -0.0591177 0.0022938391 0.0047524325 -0.04578382 0.01838169 0.027176654 -0.025851065 -0.05328383 -0.0039515025 -0.12723115 -0.007176812 -0.031686436 -0.054147575 0.022501066 0.04188267 -0.10482863 0.06157002 -0.101203024 -0.049421 -0.012513902 0.03663146 -0.029525736 0.081083424 -0.1152293 0.0051501966 -0.05259781 0.103867024 0.042714007 0.095108025 0.031721327 -0.09283752 0.023731882 0.010345871 0.0024774098 -0.021382986 0.08928156 0.011215974 -0.09942065 0.010357344 -0.019209595 0.08555442 0.106574714 0.00066659716 -0.044174105 -0.027545677 0.058454264 0.063839376 0.045590337 -0.11780678 0.07439881 -0.0013860087 -0.12519391 0.038604088 -0.10410686 0.055647206 -0.0026094965 0.04559055 0.049621787 0.09127297 0.108920984 -0.07732705 0.09065517 0.15220118 0.18566121 -0.10172005 0.05694572 0.15859546 -0.16977105 -0.053864002 0.25217003 -0.15788008 -0.01602598 -0.22161436 -0.15566851 -0.21580392 0.23219244 -0.083673544 -0.28471163 0.102096595 0.050984353 0.2140532 0.1340401 0.16811271 -0.22800344 -0.061257977 -0.17479026 0.14720671 -0.06813613 0.2065057 -0.2113678 -0.23684198 -0.19028004 -0.09965351 0.116036445 -0.19543977 -0.14544496 0.043515045 -0.06793783 -0.1329921 0.0749234 0.0918555 0.01385938 -0.21381332 0.13262607 -0.21676163 -0.046623398 0.18101774 0.14873141 0.207994 -0.1505265 0.14882432 0.14439976 0.21216741 0.1922649 -0.15056328 -0.28516147 0.0646907 -0.15740962 0.052356962 0.30893418 -0.12190591 -0.1697295 0.24002436
3398 -0.10183949 0.06766901 -0.029552137 -0.0017125012 0.027985238 0.1628894 -0.006551555 0.0023858487 0.015578466 0.0041858186 -0.045354724 -0.049814314 -0.012570555 -0.057948805 -0.0012452184 -0.0496082 0.016521368 -0.021937843 0.109255254 0.13142553 -0.025609799 0.11557941 0.0797627 -0.17031743 -0.056167133 -0.03424182 0.004749644 0.011770229 -0.092666835 -0.009401153 -0.05961827 0.11404781 0.18324265 0.037741084 0.16351295 -0.09461776 0.035952978 0.04341822 -0.027662855 0.11577723 0.032298326 0.071795255 -0.026967745 0.01683893 -0.07377492 0.026889823 0.022185013 -0.11559961 0.11018891 0.07051886 0.00084136636 0.10971869 -0.012667496 -0.021720087 0.086435966 -0.09827388 -0.06550961 0.14176957 0.10902569 -0.09659833 -0.082840435 0.010654159 0.021485388 0.09247629 0.16914894 -0.020681866 0.06458576 0.27788576 0.1635319 -0.13350314 -0.018575622 0.15716892 -0.16405654 -0.06244753 0.19051725 -0.20486854 -0.02894254 -0.1469563 -0.08055774 -0.13136218 0.19993542 -0.10031446 -0.11905369 0.05556487 0.07270027 0.12040673 0.043793615 0.073327705 -0.26106998 -0.14273083 -0.13282421 0.13690934 -0.14744015 0.21186149 -0.2015421 -0.22848216 -0.13009751 -0.1161317 0.11143325 -0.17769533 -0.18294178 0.13561365 -0.123288415 -0.20793298 -0.16646102 0.19662091 -0.053927727 -0.21699785 0.1011498 -0.14137693 0.14508687 0.0938942 0.17046376 0.17201373 -0.102999195 0.15463097 0.07436643 0.27049997 0.20368761 -0.14078684 -0.17363597 0.18855898 -0.1545334 0.177706 0.24295644 -0.13924561 -0.09015385 0.21100943
54822 0.14548874 -0.036166206 -0.029616715 -0.053471573 -0.04084283 -0.03936055 0.14521497 0.04045296 0.07585273 0.026707442 -0.0057282625 -0.18794274 0.027609533 -0.016122123 0.066490896 0.004951253 0.0046918127 -0.0589226 -0.09948976 0.10987127 0.036727905 0.09805538 0.00014570175 0.08685479 0.047264174 0.09737533 0.10486689 -0.16653565 0.034315288 -0.04871042 -0.066390425 -0.013844453 -0.14083889 0.054096334 0.0041844426 0.008442745 -0.11587595 -0.14232567 0.06704339 -0.03275991 0.019603793 0.028702587 -0.072268434 0.009970331 -0.057929583 -0.0046877456 0.1424427 -0.0027860266 4.5318462e-05 -0.07545233 -0.05875063 -0.058240652 -0.0950132 -0.14859213 -0.016131314 -0.034845736 -0.14387831 -0.0012960644 -0.06890109 -0.022041053 0.03615863 -0.14077355 -0.08433825 -0.04719416 0.093636334 -0.13814425 0.13634515 0.14664361 -0.020786379 -0.24193986 0.08357498 0.09863429 -0.12997186 -0.0682684 0.17458466 -0.12746425 -0.026441589 -0.20386124 -0.111601844 -0.16330229 0.15761028 -0.072843455 -0.1791268 0.14593025 0.06324744 0.175402 0.084452026 0.1538659 -0.19733688 -0.086686835 -0.26361454 0.19943845 -0.23524912 0.14291924 -0.16183856 -0.20711575 -0.19174126 -0.15991817 0.07210846 -0.2068275 -0.07659712 0.07494727 -0.19865078 -0.17102134 0.11343933 0.10392098 -0.029341387 -0.177613 0.2330614 -0.16209175 -0.013497631 0.071108766 0.15387021 0.17760488 -0.12509495 0.15465428 0.022410916 0.093097664 0.11942904 -0.0583565 -0.13351718 0.18736339 -0.19057176 0.15768215 0.12948479 -0.16635782 -0.14503725 0.10058187
22976 0.101838835 -0.1103392 -0.016485624 0.04503211 -0.11229051 0.056970235 -0.090542376 0.08869283 -0.018758057 -0.039205663 0.09462101 -0.109112255 0.15754592 -0.15752837 0.04797629 0.028546635 -0.042846274 -0.019280558 -0.09049669 0.154418 0.10181262 0.01901857 0.09246046 -0.03972245 -0.03906306 -0.06444459 0.09659987 -0.1475997 0.09645422 -0.13442674 0.03404903 -0.037613533 -0.04684109 0.012673672 0.0555702 -0.07726347 0.0359705 0.005128599 -0.019868506 0.06434496 -0.054683194 0.106769666 -0.051932033 -0.050367683 0.048645392 -0.02182544 0.049208004 -0.110377036 0.071688734 0.025096437 0.007793245 -0.011096755 -0.10348194 -0.029112 0.032343518 -0.058182508 0.02169112 0.08306532 -0.034714494 -0.0008093582 -0.049494028 0.0041073365 0.10272179 -0.04661765 0.20218164 -0.102754824 0.20144428 0.19572209 0.14652361 -0.1791575 0.060283188 0.20930876 -0.17766367 0.08304106 0.2259757 -0.20015702 0.006833484 -0.08738206 -0.09524794 -0.20604853 0.28467587 -0.08528666 -0.23002516 0.105704404 0.086533345 0.09733277 0.21119568 0.08017826 -0.2187931 -0.05598509 -0.23154813 0.04795495 -0.19123022 0.18019561 -0.1757197 -0.18419464 -0.28632268 -0.20076093 0.17356925 -0.123265624 -0.09284291 0.017814698 -0.15302113 -0.198153 -0.047692835 0.115804054 -0.037336253 -0.20980686 0.10626943 -0.29736844 0.10695155 0.2022301 0.27274424 0.21102232 -0.07163194 0.23384579 0.13850273 0.26677394 0.044381995 -0.1403418 -0.2330731 0.09824189 -0.18741256 0.23941357 0.19282736 -0.08557123 -0.27432406 0.1971306
10111 0.03807747 -0.02270615 -0.03967812 0.079494 -0.087347604 0.020051744 0.029849904 0.06715298 0.07888226 0.037102476 0.103406265 -0.049799446 -0.008161007 -0.10427369 -0.04825772 0.056953155 -0.013325614 0.028807776 -0.13636877 -0.022389865 0.1071667 0.003237523 0.036338493 -0.082629494 0.1449133 -0.025955936 0.04351063 -0.053908244 -0.053128432 -0.099738024 -0.085041195 -0.01639149 -0.16393802 -0.09793278 -0.049596388 0.007854698 0.00072734704 0.051915016 -0.0966987 0.01930844 0.040347375 0.07623642 0.030402621 -0.09852877 -0.034003608 0.021260837 0.07863956 -0.06689762 0.06039028 -0.13109384 0.02142636 -0.00304752 0.038044475 -0.09519841 0.1278289 0.017126277 -0.121193975 -0.02043324 -0.052033123 -0.040487308 0.054922562 -0.10250749 0.0776912 0.011258952 0.10831473 -0.0898826 0.07247504 0.20285779 0.17252557 -0.16883367 0.11694509 0.21993047 -0.21595828 -0.019290162 0.18433927 -0.21540357 -0.07466309 -0.11241566 -0.15986055 -0.088650085 0.1313564 -0.15954477 -0.19414674 0.053921096 0.060459726 0.14655906 0.037588358 0.011273971 -0.14790823 0.020233102 -0.17824489 0.081018336 -0.17690748 0.17326954 -0.16132851 -0.17088373 -0.110713296 -0.26267946 0.1063501 -0.12689473 -0.25932226 0.16615735 -0.023809114 -0.2621872 -0.06572328 0.1448341 -0.13517083 -0.16594182 0.21638294 -0.18178111 0.06460932 0.15381703 0.1627215 0.25513613 -0.16388027 0.26932994 0.1527426 0.30769303 0.11540875 -0.17862615 -0.20286576 0.18570937 -0.1186634 0.25142172 0.19664422 -0.095316686 -0.2743571 0.21665941
4771 0.099893205 0.051747605 0.0014698827 0.07916319 0.10241131 -0.10945324 0.019466247 -0.036707014 0.10524994 0.004440419 -0.01018401 -0.01471409 -0.028947424 -0.07478915 -0.022447528 0.06323626 -0.10200762 0.0023825127 0.0144511 -0.10509587 -0.10742473 -0.08059026 -0.12082107 -0.06454462 0.07824246 0.07710658 -0.008027652 -0.095157675 -0.018880345 0.075144105 -0.04083615 0.009682735 -0.02602469 -0.0018804611 -0.09386133 0.011456631 0.08891511 -0.03128461 0.035260875 -0.035430215 -0.073227234 -0.076322176 -0.099673875 0.0713856 0.15048927 0.04983643 0.050932698 -0.046579186 0.094094954 -0.057737645 0.03903406 -0.02201635 0.0005373114 -0.14911884 0.0056585995 -0.037872493 -0.039102696 0.14362065 -0.06634358 0.09067863 0.033122793 0.14808907 -0.028415535 -0.009591793 0.1713359 -0.11064456 0.21668306 0.23733576 0.0009002 -0.24833927 0.123730466 0.19791482 -0.1292899 -0.07595414 0.20527586 -0.20761177 -0.1121271 -0.19025595 -0.17151448 -0.30034038 0.13451743 -0.07256725 -0.22481203 0.04170161 -0.042679258 0.2619986 0.20467436 0.03965215 -0.27293304 -0.0923769 -0.19421239 0.19066598 -0.09497804 0.19109803 -0.090151615 -0.2652192 -0.33285517 -0.12006945 0.20634493 -0.1848971 0.0026407146 0.15016936 -0.183288 -0.29845765 -0.025062794 0.040267024 -0.16544226 -0.13555215 0.026051233 -0.20494749 -0.021558661 0.14246841 0.14634912 0.12291716 -0.030262062 0.10741432 0.10506233 0.18186517 0.09068368 -0.11255152 -0.045548104 0.05703332 -0.20080727 0.13372247 0.27076763 -0.10247738 -0.22530997 0.08953985
6895 0.19085257 -0.032169476 0.06898828 0.026375476 -0.017140193 -0.021578379 0.09351853 -0.023742365 -0.12640774 -0.069885164 0.06805751 0.14388469 0.0608962 -0.17223392 0.032515816 0.13047636 -0.008649454 -0.08946558 -0.010942163 -0.053320225 -0.05268603 -0.08564466 -0.08761246 0.017090213 -0.103321284 -0.11828358 -0.108635314 -0.050469216 -0.11529623 0.11812511 0.077504955 0.09123784 0.07302868 0.059798293 0.055685304 -0.009777485 -0.028900212 -0.050903313 -0.05409449 -0.06173048 0.10607345 -0.0009153227 0.0030107351 0.07025025 0.19359304 -0.050385218 0.059197363 -0.055227228 0.17271091 -0.053753186 0.031347845 -0.07987492 0.0713414 -0.018677201 0.0072630546 0.09915362 -0.13142058 -0.0077346056 -0.10925424 0.14466909 0.13101704 0.009685845 -0.05120849 0.011354132 0.11017558 -0.1930887 0.18675892 0.24984609 0.041389138 -0.13233982 0.08415726 0.20201859 -0.1869595 -0.12663752 0.20925868 -0.11059214 -0.16143146 -0.09569586 -0.24335067 -0.22401506 0.1390141 -0.08984418 -0.1795204 -0.02902248 0.162847 0.09591707 0.2389387 0.036157478 -0.13976932 -0.09423392 -0.13219133 0.11400185 -0.19457857 0.23321417 -0.19253223 -0.17445914 -0.3062325 -0.21440831 0.2373934 -0.15205611 -0.04662225 -0.0146864215 -0.15787229 -0.23865372 -0.06760748 0.122147776 -0.10404899 -0.17052692 0.061292447 -0.16407055 0.17541116 0.30415273 0.11647308 0.21244597 -0.16664408 0.21359336 0.1500297 0.16137224 0.1430634 -0.09010247 -0.15225108 0.19303228 -0.07112267 0.072701454 0.12276362 -0.08323029 -0.21165045 0.16133493
1017 0.021880196 -0.05991859 -0.055733055 0.042062502 -0.0090720905 0.11275739 0.041408665 0.0256386 -0.06660506 0.045695234 -0.11196734 -0.04524584 -0.020841843 -0.13878566 0.14521119 -0.14313497 0.008732593 0.015132817 -0.023455806 -0.010524928 0.03120196 0.050380096 -0.0342492 -0.00020847752 0.0027148267 -0.069704115 -0.038557265 0.116589494 -0.016487187 -0.10555296 0.061201528 0.1485795 -0.033575445 -0.014051119 0.13227242 -0.007837536 -0.10487577 0.015545736 -0.018212304 -0.14937139 0.03293358 -0.03970944 0.032361347 -0.1075382 -0.009781202 -0.030002741 0.12037132 -0.08026971 0.123308025 0.06781245 0.05981408 -0.15700637 0.17118877 0.052109722 0.07579813 -0.15561862 -0.0903484 0.04626406 0.07904627 0.21157324 0.06847256 -0.069127955 0.12309801 0.1528604 0.2684264 -0.10267334 0.06501825 0.21384114 0.041834775 -0.34496117 0.02702824 0.23716147 -0.22749926 -0.0950117 0.3068722 -0.23352784 -4.757283e-06 -0.22561543 -0.21723895 -0.20161489 0.1728282 -0.062300254 -0.1648593 0.024590464 0.036935482 0.083504245 0.255542 0.09338163 -0.27828592 -0.031193158 -0.32275364 0.11752901 -0.28282636 0.20328444 -0.26278624 -0.28815702 -0.2750354 -0.11030436 0.10632381 -0.21277557 -0.14519656 0.1356563 -0.2819762 -0.29658878 -0.034899488 0.12412411 -0.08672929 -0.21331607 0.12681179 -0.1957916 -0.029151134 0.17564519 0.2160197 0.13077766 -0.09686969 0.22288464 0.06059587 0.18559973 0.08011065 -0.12941217 -0.25793076 0.108056225 -0.06438975 0.26246965 0.31104586 -0.250822 -0.19760099 0.178953
9113 -0.015975367 0.1079174 -0.070175536 0.09936373 0.1888661 0.042990822 -0.041236676 -0.121464245 -0.07704565 0.02161656 0.04308495 -0.0395208 -0.13956414 -0.036835182 -0.019812085 0.072488144 0.07579322 -0.1618914 0.06393154 0.03759016 -0.09251833 0.057153694 0.09558745 -0.14934921 -0.08795122 0.0768943 0.061313283 -0.0061710603 0.04495405 0.037935145 0.069162436 0.21545027 -0.04769372 -0.08497493 -0.04445301 -0.018159144 0.0121944845 -0.17621386 0.015967883 0.08898698 0.054938857 -0.004416388 0.0015371939 0.035432737 0.062196575 -0.12704928 -0.1375527 0.051055714 0.030021293 -0.073311225 0.009577036 0.14724436 0.027482983 0.009342884 0.02239323 -0.089984365 -0.043255188 -0.099956386 0.08200582 -0.08111231 -0.017861592 0.10650935 -0.031077817 -0.02613548 0.03924772 -0.2678085 0.1876023 0.13599415 0.047886167 -0.19143188 0.07383349 0.08318113 -0.20636229 -0.0224455 0.267417 -0.24594916 -0.09388385 -0.09910865 -0.30016798 -0.34355685 0.18856584 -0.17985846 -0.15943532 0.13702512 0.021374343 0.15930505 0.22319801 0.10875157 -0.19779253 -0.06293921 -0.23761818 0.12798087 -0.12009219 0.12356696 -0.13900107 -0.19817433 -0.24006067 -0.16329768 0.13276291 -0.12395072 -0.073271446 0.1475887 -0.3081226 -0.21042907 -0.055362344 0.022486664 -0.1853058 -0.10071166 0.10177828 -0.08539735 0.0065274914 0.057671987 0.18657614 0.07636728 -0.09538837 0.28025505 0.08503755 0.2791053 0.106841914 -0.24574916 -0.20557155 0.18558584 -0.2432334 0.056444928 0.25050023 -0.07966395 -0.20686217 0.15953116
10413 0.029650789 -0.0026051693 0.029402543 -0.12199384 0.17862476 -0.010995012 0.10090886 -0.122871935 -0.12574944 -0.020994963 0.04216364 0.099183194 -0.13342732 0.010750143 0.092742674 0.063310705 -0.007779565 0.0945412 -0.04630926 0.014603554 -0.02905057 0.060879398 -0.0060382215 -0.13022828 -0.0145437205 0.13449712 0.02534565 -0.028667305 -0.03201448 -0.082802795 0.013144466 -0.12469864 -0.023443218 -0.04795869 0.13910083 -0.034000278 -0.010960942 0.002291986 0.017534258 0.07315287 -0.104700364 -0.029909596 -0.019000178 0.018139625 0.057299882 0.016150082 0.04963982 -0.070994854 -0.010478679 0.013194964 0.07393388 0.097433686 0.081550695 -0.028274 0.032720834 -0.020541748 -0.043201774 0.1492649 -0.022957994 0.03912659 -0.04430278 0.08025624 -0.023264172 -0.032395933 0.1334416 -0.21141323 0.17934942 0.18702106 0.18507649 -0.25374413 0.17561 0.08270489 -0.10929853 -0.016581051 0.20593825 -0.180677 -0.056001548 -0.15974689 -0.16327323 -0.33005905 0.16471012 -0.14451034 -0.259708 0.08104646 0.12035645 0.23837222 0.11221147 0.21106617 -0.23438884 -0.040259916 -0.16256814 0.1515724 -0.16159387 0.14848953 -0.20095125 -0.23059277 -0.27057746 -0.16488549 0.19745582 -0.10604724 -0.21857132 0.079651535 -0.1924719 -0.18547304 -0.0138182985 0.08012512 -0.014375419 -0.18384911 0.13401528 -0.13467851 0.07388747 0.12452559 0.22421327 0.116467066 -0.23713763 0.15973619 0.14167723 0.23607966 0.20715751 -0.17629884 -0.15876928 0.1582167 -0.18378387 0.14694309 0.15491799 -0.17699866 -0.18277968 0.24372427
6733 0.096926734 0.015901282 -0.11808401 -0.06990473 0.020788958 -0.027492821 -0.028190969 -0.10085745 0.042330723 -0.009811303 0.09206519 -0.045671403 -0.0069478275 -0.11023659 -0.033083025 0.024325408 -0.0665302 -0.11248631 -0.19733737 -0.062493093 0.09644416 -0.13329731 -0.10280283 -0.12984686 -0.00397973 0.07800604 -0.14696628 0.025588105 0.1944542 -0.1361737 -0.06469701 0.018053683 -0.100135185 0.015956929 -0.14022323 -0.041385103 0.10757384 -0.022577796 -0.008256131 0.006174138 0.04232648 -0.09580427 0.09642124 0.14195332 0.048503105 -0.122803465 -0.1366929 -0.13931003 -0.15223809 0.049996153 0.09054978 0.051678013 -0.15814711 -0.09507352 -0.17530201 -0.04430714 0.11895513 -0.0076490245 -0.06677909 0.092173055 0.0016437016 -0.028525632 -0.14118226 0.020862617 0.17099674 -0.12255167 0.17510949 0.2544843 0.075012 -0.19791794 0.1691833 0.2444729 -0.053693887 0.12792633 0.14033069 -0.32079497 0.037400212 -0.23464875 -0.08622338 -0.2265186 0.21514371 -0.026648074 -0.3429992 0.09744445 0.1087952 0.116324574 0.15176147 0.12579139 -0.1175702 -0.1786454 -0.24975789 0.14589103 -0.20487238 0.27791157 -0.08939672 -0.33300963 -0.2297021 -0.28287295 0.19354315 -0.27287924 -0.06357641 0.04165825 -0.14943683 -0.15590557 -0.14724374 0.12928423 -0.010382 -0.28248686 0.20605545 -0.12734835 0.13400294 0.1992951 0.07278739 0.19024578 -0.15272863 0.17796561 0.16634369 0.22271737 0.13684927 -0.09742746 -0.19114357 0.23371683 -0.24083887 0.15869944 0.13591093 -0.09791973 -0.14644098 0.08624682
7957 0.073683366 0.062480897 0.10470718 -0.08226998 -0.002978987 -0.023417633 0.06337892 0.009017561 0.077683225 0.07777922 0.009483179 -0.015962271 -0.08471459 -0.0120978765 -0.0063340473 0.025115937 -0.07928694 0.09412172 -0.012174355 0.11025711 -0.021708133 0.07085852 -0.0031453792 -0.0394888 0.05121061 0.07525622 0.04168247 -0.017799862 0.092974834 -0.04854035 -0.0064719627 -0.08126048 0.1226431 0.07270799 -0.06112171 0.03096319 -0.014061105 -0.019541685 -0.105896816 0.034472134 -0.062529854 -0.0748388 -0.019083977 -0.009867183 -0.0054015643 -0.08735816 -0.004125239 -0.05840246 -0.08102516 0.121918626 0.024606625 -0.024925467 -0.05916778 -0.014260808 0.03788909 -0.025132356 0.13118552 0.042839736 -0.027454939 0.01628379 0.042467628 0.09146746 -0.13742773 -0.04197256 0.1002657 -0.02583278 0.2359195 0.12039168 -0.0016335472 -0.23416309 0.07835053 0.063151926 -0.054626495 -0.06964753 0.08301953 -0.14514923 0.011079423 -0.11737632 -0.116811365 -0.16739167 0.18569353 -0.064460225 -0.13176486 0.009854272 0.049428407 0.1112106 0.13412687 0.10199676 -0.17307948 -0.18176152 -0.2022338 0.11530536 -0.06904441 0.16683765 -0.017759275 -0.21422331 -0.08435331 -0.16013576 0.10125614 -0.15857716 0.0014197432 0.030805472 -0.051725477 -0.15003085 -0.028432695 0.20016596 -0.013033739 -0.1202719 0.15423292 -0.1929046 0.10185153 0.14253916 0.041240577 0.23597716 -0.10931505 0.16081773 0.029127188 0.16751345 0.109523445 0.00036095892 -0.16043316 0.095718935 -0.08070288 0.1398357 0.124572225 -0.0373609 -0.10687878 0.06519503
5747 -0.08416279 -0.1719081 0.0859861 0.10557925 0.0816972 -0.084066816 0.14024445 0.0701317 -0.14425012 -0.06848359 0.039746456 -0.11323164 -0.06972837 0.016481278 0.028984621 0.08506014 -0.059258725 -0.049091965 0.18121617 0.04864216 0.034999 -0.07499878 0.09133275 -0.035229675 0.045282412 0.042448815 -0.03882786 -0.06840768 0.13715827 0.03048044 0.00122055 -0.05985863 0.07531421 0.04315912 -0.01224588 -0.04270037 -0.014992016 -0.028503181 -0.09503586 0.03946143 -0.106266454 -0.017772848 -0.060693894 0.015760574 0.075319365 0.007420555 0.16432232 0.03977092 0.04410225 0.0018381864 0.007976747 0.096597806 0.015673656 -0.06489827 -0.16162656 0.006088822 0.1121017 0.012499043 0.09206125 -0.19652617 0.072930455 0.101882145 0.015881289 -0.11151503 0.12575838 -0.16277818 0.24451417 0.09752779 0.133864 -0.18754514 0.15609106 0.18487793 -0.11484739 -0.13423271 0.2068165 -0.19745235 -0.16506419 -0.20052417 -0.13010499 -0.32853326 0.20813839 -0.13801709 -0.10053423 0.09962794 0.08099597 0.2649481 0.11862475 0.13513789 -0.29188964 -0.18565942 -0.20155583 0.11661632 -0.22995085 0.2084963 -0.18189579 -0.28310448 -0.1869352 -0.1107989 0.24606976 -0.14362055 -0.09839512 0.13283189 -0.1928826 -0.17926884 0.05526791 0.16570109 -0.19214669 -0.24047291 0.24618025 -0.2147176 0.11919404 0.17118433 0.1516586 0.26499173 -0.018962447 0.1737625 0.0060019535 0.24426788 0.06996246 -0.2298168 -0.26629782 0.089053966 -0.19637246 0.26815757 0.24525504 -0.021268493 -0.18771215 0.24002728
1605 0.0090935575 -0.07763754 -0.0011042044 0.13004859 0.05884266 -0.06945673 0.15189566 -0.037817117 -0.044624895 -0.22462218 -0.19142075 -0.08641466 0.051444873 -0.04345521 -0.024311379 -0.09414648 -0.04667601 0.04006556 0.19170089 0.09310316 0.080061294 -0.029161112 0.0045474204 0.059066202 -0.01744307 -0.0017699315 -0.063015155 -0.1270039 -0.0211788 0.101490095 0.11248399 -0.03719069 -0.051369183 0.15656298 -0.10425602 -0.10332209 -0.069170356 -0.016945813 -0.17947507 -0.128983 0.032134082 0.10917699 -0.06801419 -0.034629278 0.012030852 -0.0046117986 0.13454013 0.05529869 0.05815194 0.012873629 -0.10266085 -0.06848101 -0.010325076 -0.078627534 0.028997695 -0.07446692 0.0041080313 0.070743784 0.19946164 -0.07390959 0.02118001 0.058869857 0.024611384 0.072885804 0.11817902 -0.16983178 0.13446906 0.18723074 0.13011447 -0.22531128 0.06736158 0.20651689 -0.039247736 -0.057096276 0.21979582 -0.19605689 -0.090709284 -0.20024408 -0.12653397 -0.17455074 0.06298597 -0.2175671 -0.19088994 0.20612754 0.091314696 0.18768802 0.29704762 0.18206675 -0.16535872 -0.10862475 -0.14989717 0.13383222 -0.097393245 0.18435256 -0.020720916 -0.24065526 -0.15400344 -0.14337973 0.30811292 -0.11136302 -0.20257851 0.06632322 -0.21977791 -0.10224632 0.023313753 0.17726994 -0.20197988 -0.110162415 0.14694948 -0.21084346 0.053420667 0.17056936 0.15042698 0.20803824 -0.11483945 0.176922 -0.07637976 0.17204723 0.031936776 -0.13401364 -0.2450491 0.05416066 -0.18823786 0.21168683 0.2148216 -0.08138834 -0.080950476 0.1769929
51393 0.12710151 -0.03945944 0.16030702 -0.024904732 0.050808765 0.021733934 0.076724745 0.14709014 -0.057448648 0.13213134 -0.01540243 0.07363861 0.028917382 0.031354792 0.011563075 0.026189214 0.06318366 -0.038368713 0.0257538 0.009004367 0.034993667 -0.0039415234 -0.080186285 0.1623009 0.010153648 0.012034178 0.033247124 -0.10342132 -0.17314963 0.031202652 0.057536405 -0.11219683 -0.06723377 0.111904 0.16160488 0.058544226 -0.017191784 0.16306324 -0.03180406 0.04733608 -0.0693829 -0.01851985 -0.13002515 -0.029908748 -0.06791061 0.041777883 0.15111895 -0.09714611 0.01536136 0.1636874 0.011282413 -0.015066004 -0.031509306 0.09348352 0.10466438 0.12257406 0.026097098 0.100727685 -0.026220338 -0.051455505 -0.008249776 0.025501985 0.068070546 0.020019457 0.20014565 0.048972532 0.15725735 0.051285233 0.10094373 -0.14570163 0.03754456 0.10728096 -0.09637164 -0.011603855 0.09560134 -0.11150041 -0.20013326 -0.10228785 -0.13198952 -0.1172093 0.151574 -0.018394234 -0.16127115 0.032857962 0.03953629 0.06274084 0.019098504 -0.012694271 -0.085798316 -0.0046087736 -0.048807614 0.11442667 -0.10919914 0.17707966 -0.031258322 -0.13379203 -0.15671207 -0.14448127 0.15226087 -0.11742416 0.0005055946 0.043232366 0.028337916 -0.118216366 0.05514644 0.051892787 0.028958332 -0.20620121 0.024275133 -0.11961016 -0.07481825 0.18771358 0.10459602 0.13740481 0.001953612 -0.014573117 -0.056404397 0.1074037 0.06775844 -0.0043117506 -0.15902796 0.19158837 -0.09042709 0.059617102 0.08981871 -0.15939794 -0.064563945 0.014341763
