2025 128
4790 -0.112861335 -0.25313124 0.03499601 -0.22029322 0.13351531 -0.09330024 0.076167345 0.046766765 -0.1786178 0.13289739 0.041344408 -0.060921524 0.0012673415 -0.056271955 0.0043777646 0.033632807 0.008292632 -0.005544724 0.13606523 -0.12348265 0.03166789 -0.05916089 -0.20989762 0.17224243 0.022561314 -0.064772315 0.13589865 -0.16054797 -0.15054967 -0.051414616 -0.08425322 -0.012920684 0.065837696 0.11973248 0.030628854 0.06991065 -0.14086476 0.04938417 0.20302433 0.12309101 -0.072483554 -0.1324104 -0.23460233 -0.11297217 0.14174582 0.06729283 -0.13702486 -0.060790762 -0.11476641 -0.05437936 -0.124800675 -0.05676463 -0.05422457 -0.070095375 0.034081742 -0.060131002 -0.025552647 -0.06800791 -0.032095876 -0.05309094 -0.018171435 -0.05914085 -0.056427244 0.15491219 0.2700007 0.17763191 0.067535676 -0.270041 0.12076003 -0.16565575 0.19064656 0.12522466 -0.17132078 0.27087057 0.2214557 -0.14041162 -0.028176785 0.0318423 0.12655671 0.2073879 0.06145722 -0.1896356 -0.3684426 -0.09914301 -0.16288649 -0.23414229 -0.19104816 0.17355175 -0.18507129 -0.27541366 0.12608959 0.18385571 0.18940017 -0.118360676 0.046291184 -0.13363256 -0.24621543 0.123752 -0.18006295 -0.24456094 0.18983415 -0.28610244 -0.1710711 -0.2561842 -0.13625447 -0.1895729 -0.0073257694 0.15932432 -0.23462136 -0.15591815 0.092105195 -0.21091783 0.27545062 0.07496077 0.24048628 0.06710636 -0.22398666 0.054281227 -0.15201466 0.22940618 -0.17926593 -0.22076459 0.1868336 -0.1825823 0.20174612 -0.27373803 -0.14780045 -0.05404591
79155 -0.009474525 0.076040395 0.022158777 -0.08189903 -0.101260714 -0.053120572 -0.0043558213 0.0793866 -0.04646032 -0.034863878 0.030702414 0.025375672 0.019514473 0.033135306 0.0038356932 0.10078548 0.017709924 0.16933216 0.030020019 -0.053598855 -0.027965896 0.015715744 -0.10122009 0.017756213 0.081924036 -0.15180452 -0.01839566 0.012566232 -0.22191344 -0.0059189848 0.025382789 -0.04827994 0.09373002 0.12905875 -0.16500986 -0.019817606 -0.104044035 0.034822624 0.10307725 -0.057102203 0.061744675 -0.018711504 -0.11086293 0.007115843 0.10556527 0.15097001 -0.07365468 0.037930913 -0.15340905 -0.09763532 -0.08224225 0.17856328 0.033596445 -0.17445529 0.10113968 -0.08907019 -0.031243613 -0.011000872 0.020964444 0.03739572 0.030620659 0.07846046 0.13742894 0.103377506 0.2127248 0.2598289 0.13309942 -0.17706992 0.1791545 -0.16769841 0.15532415 -0.035580896 -0.18814202 0.22440855 0.20146312 -0.16672893 0.088187605 0.096972264 0.13869388 0.1901657 -0.02767294 -0.19737482 -0.38394177 -0.044876706 -0.15982237 -0.2105449 -0.20700902 0.1721092 -0.19565096 -0.21437761 0.123410046 0.23339279 0.25156274 -0.25059593 0.10266595 -0.2177724 -0.17308849 0.22399722 -0.15870528 -0.26702708 0.20100093 -0.21716288 -0.11074385 -0.1557513 -0.18042262 -0.2803235 0.1691243 0.33022335 -0.22384138 -0.15434518 0.11736984 -0.06947552 0.15151037 0.18743564 0.11713514 0.086173266 -0.2331524 0.01879564 -0.16883181 0.17740668 -0.26824233 -0.17198838 0.13331015 -0.14727244 0.21181718 -0.18584713 -0.19246632 -0.12503403
154796 0.13185054 -0.035069693 -0.06329309 0.018457431 0.05787786 -0.10222944 -0.14681274 -0.097396486 0.10150162 0.0049009495 -0.14488861 0.021301495 -0.10328523 0.20279185 0.08606717 0.04919666 -0.122729585 -0.03080023 -0.13870701 0.20178455 -0.19284654 0.17206109 0.10270379 -0.12668987 -0.21136105 0.041858997 -0.07255415 0.0894505 -0.0037303418 -0.054915003 -0.11152616 0.0011481197 0.10492363 -0.075778335 -0.06996588 0.12929837 0.19255958 -0.079898044 -0.022516852 -0.25054654 0.13407111 0.16324565 0.04973809 -0.0348969 -0.12361682 0.016150774 0.018097294 0.08618327 -0.15982014 0.12179246 0.01471393 -0.020477068 -0.05938167 -0.20274742 0.043269616 -0.04147482 0.085558966 0.016934142 0.072126955 -0.08145347 -0.15576416 0.14762366 0.079308614 -0.014242705 0.18005194 0.17040683 0.24836275 -0.2636706 0.22294983 -0.24024259 0.27819064 0.04275048 -0.16402338 0.26795846 0.26183695 -0.10765967 0.19765484 0.0070589543 0.09670609 0.24040517 0.0048933574 -0.26633516 -0.055085868 -0.21200915 -0.15881333 -0.15126972 -0.15929635 0.09707312 -0.30705503 -0.17237118 0.07831513 0.15456483 0.2269304 -0.0066708857 -0.169778 -0.1503124 -0.16590497 0.2507917 -0.17567638 -0.17815953 0.15681164 -0.0972577 -0.25749698 -0.14414483 -0.13312787 -0.009308418 0.13728528 0.10713997 -0.24069813 -0.17534265 0.24340604 -0.14668532 0.119722664 0.07658783 0.10673643 0.11988507 -0.025698759 -0.05399391 -0.17824847 0.14224598 -0.28603175 -0.12671338 0.19694524 -0.14595161 0.19235526 -0.30034372 -0.1980125 -0.27126974
7408 0.012992758 0.02957148 0.089974135 0.06105861 0.035040732 0.041940995 0.12535256 -0.042612907 -0.08601371 -0.0935618 0.04822104 -0.18470667 0.04625273 -0.042472824 -0.110628545 0.04675664 0.04154627 0.08962975 -0.056818575 0.033819295 -0.057931744 0.120552175 0.10094302 -0.1815057 -0.12988235 -0.017262753 0.037106246 0.058092147 0.060497455 0.007367265 -0.0790327 0.03252769 0.04620001 -0.09178463 -0.1314334 -0.03276451 0.15296707 -0.06047646 -0.1273198 -0.06932797 -0.012856694 0.0044867047 0.059514742 0.18310006 -0.22540897 -0.21155928 -0.042318188 0.037055627 0.21614318 0.12557699 0.08225531 0.020530533 0.039364174 0.041306183 0.016175732 0.080120355 0.02512682 -0.058266968 0.01241738 0.049129013 0.06219957 0.06819234 -0.087799765 0.045040235 0.2102885 0.18344629 0.3310483 -0.2722682 0.14271475 -0.17442556 0.24451213 -0.055394188 -0.26391193 0.24581155 0.16226001 -0.013426117 -0.029790616 0.01553023 0.08840368 0.22172858 -0.10885073 -0.2794096 0.07834692 -0.046392184 -0.26196066 -0.19646615 -0.18646376 0.07615793 -0.22868156 -0.2590329 0.13472533 0.111833066 0.23822725 -0.14070264 0.114935584 -0.17780896 -0.16551301 0.08971105 -0.14528225 -0.140549 0.20686963 -0.2478259 -0.1604343 -0.17413467 -0.18250822 -0.06255571 0.21481544 0.19164363 -0.27188924 -0.16160846 0.20040384 -0.16887733 0.16435228 0.017201444 0.07385527 0.044132207 -0.1579813 0.13267405 -0.19212237 0.20988016 -0.1504275 -0.14157249 0.27047214 -0.04794017 0.27642164 -0.19160278 -0.011865926 -0.07556793
57154 0.19614713 -0.012302061 0.0032498857 -0.14243282 0.061944272 0.050595053 0.18599963 -0.118152246 -0.009380298 -0.17120384 0.08283178 -0.064388774 -0.1535318 0.03706855 0.23521928 -0.11027314 -0.04594775 -0.20209171 -0.17175454 -0.106202185 -0.084591165 0.24554884 0.003921787 0.015333072 -0.013122132 0.024251798 -0.0007569556 0.07548165 0.1295683 -0.02383258 0.05695724 -0.081536934 -0.045744188 0.12756784 0.07032269 0.12015278 -0.017745297 -0.09468428 -0.0047064256 0.20197491 -0.12430865 -0.14023499 0.11077387 -0.074797414 0.034918584 -0.12165911 0.16071203 0.057779215 0.009012215 0.008553024 0.1649973 0.015176874 -0.13859536 0.08551709 -0.012479383 -0.019120753 0.056595005 0.060860127 -0.12298343 -0.10935002 -0.0048585464 0.10486464 -0.07990957 -0.15514213 0.2638241 0.1911967 0.18026409 -0.2513706 0.16941452 -0.21066661 0.2049372 -0.1611406 -0.1533523 0.27368477 0.2449884 -0.32620808 -0.26279142 0.060531173 0.26560175 0.17613772 0.019457573 -0.15329762 -0.12397543 -0.2360459 -0.18671879 -0.066099726 -0.18652378 0.23962754 -0.20418692 -0.245072 0.1277339 0.2727248 0.15085465 -0.12533715 -0.08544055 -0.13114317 -0.2583961 0.21251921 -0.21124871 -0.16877319 0.015204742 -0.14593126 -0.15571536 -0.18626049 -0.26002997 -0.05140409 0.118125714 0.005304694 -0.1957628 0.119904906 0.13785301 -0.06577571 0.25667855 0.32249779 0.2387954 0.15562144 -0.08040246 0.0036038295 -0.2234823 0.19362146 -0.2089964 -0.2003258 0.21799488 -0.14569296 0.094491646 -0.24878684 -0.17473099 -0.066042505
3309 -0.08007659 -0.13076268 -0.01714938 -0.14805038 0.043535832 0.10646087 6.648099e-05 -0.21123075 0.036137868 -0.0295729 -0.011689487 -0.27135018 0.10564769 -0.022812566 0.28739676 -0.08123952 0.012824715 -0.10134386 0.08609151 -0.08055809 -0.09410688 -0.1512697 -0.008330837 -0.09733236 -0.0407525 0.058977067 -0.0052041607 -0.051639434 0.01783083 -0.102731444 -0.17008506 -0.12986922 0.060154617 0.09671164 0.12036449 0.08276392 -0.045616046 -0.17396158 0.061006565 0.19475764 -0.00528095 -0.050526995 0.030711042 0.004363163 0.14864905 0.0044509536 -0.047406644 0.03885722 -0.08338811 -0.27600855 0.08985823 -0.13122655 -0.034744427 -0.10968008 0.02782009 -0.08316678 0.10864551 0.12577248 -0.16951613 -0.12932843 -0.13440137 0.061929256 -0.16005275 0.22937985 0.1522778 0.2105404 0.16333683 -0.24436037 0.15453798 -0.14964256 0.1424041 -0.074310206 -0.20470363 0.2301362 0.13018312 -0.12653862 -0.25292617 0.11895551 0.24112077 0.26594228 -0.059388187 -0.27962977 0.060845934 -0.23629823 -0.15217943 -0.103128985 -0.22345015 0.20500357 -0.20938936 -0.21332543 0.07898666 0.19217807 0.18672992 -0.13544405 0.20701613 -0.12531538 -0.2801721 -0.00806857 -0.19209717 -0.18922651 0.058549922 -0.28679693 -0.130161 -0.17681846 -0.2941547 -0.044059355 -0.08104657 0.022765622 -0.2841157 -0.08880748 0.15965965 -0.14667602 0.2825791 0.22882149 0.28762263 0.34149992 -0.1690449 -0.08025977 -0.290052 0.13436279 -0.11935793 -0.17740314 0.15480645 -0.16515385 0.23217268 -0.24030481 -0.21822803 -0.3066172
5879 0.13125898 0.011955899 -0.15798797 0.10340299 0.116360515 0.14201878 -0.095764846 0.077905975 0.1835957 0.055423696 -0.23950939 -0.007850557 -0.052831925 -0.056328323 0.15964179 0.02627271 -0.015533877 -0.048153818 -0.11739969 0.0992415 0.064247034 0.06810077 0.13425092 -0.06432904 0.1328076 0.0022193426 -0.03518134 -0.16032903 -0.021216838 0.15237406 0.22031115 -0.07288948 0.05521649 -0.004911281 0.10216847 0.13275975 0.046307206 0.07399807 -0.20570955 0.11940282 -0.0997729 0.22857027 0.16252708 0.19306672 -0.027073327 0.11634705 0.172925 0.0016796858 -0.18002284 0.17350428 0.15200056 0.023421343 0.03658037 -0.14628202 0.1339243 0.14000708 0.009853798 0.11363184 0.17753145 0.29336584 -0.052671384 0.03057747 0.018286493 0.020293668 0.31315205 0.2282298 0.21025586 -0.19039473 0.16844101 -0.22874364 0.20430446 -0.34075943 -0.059881434 0.28011283 0.22328587 0.023260375 -0.09634579 0.1442077 0.11927782 0.19125995 0.016297532 -0.09461028 -0.16186376 0.18695962 -0.18767263 -0.15878591 -0.20596118 0.15954731 -0.288024 -0.16682269 0.17022789 0.22875138 0.21363996 -0.16704442 0.11185275 -0.08846636 -0.28027838 0.21510285 -0.1118867 -0.18201947 0.061071586 -0.18034004 -0.24696636 -0.12940156 -0.24240287 0.10775193 0.14703017 -0.06672061 -0.20042737 0.037248325 0.08527719 -0.14346366 0.2202995 0.15161738 0.104744606 -0.20865852 -0.12642024 0.25902247 -0.2959268 0.032638244 -0.22453044 -0.18063167 0.24446645 -0.23973395 0.2380807 -0.25447944 -0.10239254 -0.10716114
23568 0.107308395 -0.11852264 -0.0050772144 -0.0046567866 -0.075622596 -0.010026697 -0.14424017 0.060515825 0.051605597 -0.020448886 -0.10785943 0.013792638 0.14196485 0.014810056 -0.047876533 -0.011896638 -0.06438158 0.1168735 -0.1770248 -0.045281805 -0.019627333 -0.04707832 0.01526744 -0.10464492 -0.034880694 -0.065428965 -0.0034212428 -0.027590692 0.019090524 0.111250035 0.038965113 -0.12878771 0.06157787 -0.069776006 -0.105171815 0.017821198 0.074311644 -0.027085513 -0.08059252 -0.06204979 0.121019416 0.0339097 0.03216807 -0.0022322019 0.042888906 0.1257146 0.01861489 -0.0296688 -0.06564242 0.024234433 -0.03159895 -0.03831679 -0.018646885 -0.086516134 0.062497832 0.08749255 0.16559431 -0.033701517 0.12934096 0.048753776 0.053016994 0.10066775 0.06023393 0.029867157 0.14950301 0.1098267 0.18670833 -0.13771039 0.16379593 -0.1117352 0.23196882 -0.21892488 -0.087519564 0.21169634 0.1812549 -0.11156784 -0.009481755 -0.0014228685 0.14132293 0.11788595 -0.08853763 -0.11061735 -0.21601006 0.08110377 -0.13451728 -0.043433543 -0.103172846 0.048087608 -0.09104298 -0.1316161 0.1740395 0.16253646 0.2034701 -0.109081306 0.02372222 -0.07239727 -0.19715881 0.12786464 -0.16587369 -0.22703187 0.0998301 -0.11360587 -0.09917563 -0.14823985 -0.12693161 -0.06569158 0.14221025 0.039771628 -0.14398333 -0.115506455 0.09514094 -0.1248884 0.15630123 0.17904514 0.13227412 0.029764129 -0.15524532 0.08556126 -0.16503702 0.07467583 -0.09114545 -0.086766355 0.15455079 -0.160633 0.13543195 -0.16379969 -0.13330375 -0.2057041
1855 0.026235307 -0.15766984 -0.028740766 0.08372027 -0.017030101 -0.1162329 -0.008757371 0.04826437 0.027509235 0.00507182 -0.10825077 -0.004084215 0.05841983 -0.021559495 0.19125907 0.08671447 0.020133054 0.04615118 -0.24424808 -0.09699724 0.025623923 0.29618683 0.25470176 -0.14493641 0.06116115 0.0048970627 -0.085020676 0.058439378 0.12656307 -0.08385137 -0.06755456 0.2150173 -0.088649265 0.041490722 0.0039344793 0.17900556 -0.014242837 0.036240403 -0.05632201 -0.18204969 0.09859083 0.112817846 -0.055722997 -0.027767904 0.06423387 0.0003885646 0.07628366 0.06646388 -0.10726719 0.10964966 -0.013379593 -0.035228852 0.027518926 -0.0070725027 0.0104166 0.29607722 -0.15600611 0.03661414 0.11546102 0.07528277 -0.0012791503 -0.0027095256 0.021009525 -0.098632164 0.19372268 0.24350868 0.17856278 -0.28715175 0.27793112 -0.2335009 0.20712306 -0.09906924 -0.13330407 0.18947488 0.21819368 -0.29340407 0.15031692 0.17476499 0.23407581 0.15257172 0.055070754 -0.13276903 -0.15931766 -0.0778482 -0.1715856 0.002754559 -0.28211832 0.129294 -0.16533345 -0.27074033 0.13128813 0.19517829 0.20588389 -0.15078862 0.020029621 -0.19192104 -0.20500107 0.360238 -0.16878317 -0.19107607 0.14125617 -0.05489326 -0.23707817 -0.20134756 -0.1083569 -0.107030295 0.23516664 0.019946298 -0.13107744 -0.009988825 0.06547951 -0.06736817 0.25920755 0.21496809 0.24054332 -0.0846536 -0.17587472 -0.026263738 -0.26206225 0.21876773 -0.26977974 -0.23815727 0.16561198 -0.12641266 0.16950935 -0.1621416 -0.22361639 -0.14734061
8312 0.034703486 -0.21191067 -0.045616932 -0.21946098 0.061107185 -0.1972199 -0.08964073 0.03618734 -0.00075913593 -0.08685353 0.011835167 0.06672994 0.1361878 0.1137719 0.05563414 0.06745625 0.08225438 0.098215364 -0.1815074 -0.04965037 -0.0032060794 0.16779567 0.17939807 0.08243872 -0.0067837173 -0.017113563 -0.04870871 -0.12725703 0.07213217 0.10110957 0.051075816 0.027547646 -0.01944871 0.028356444 -0.12169098 0.27288023 0.0020768298 0.08201806 -0.044484098 -0.15780556 0.12037736 0.045598507 -0.061452564 -0.0629098 -0.016316101 -0.0256752 0.15302113 -0.11772682 -0.09935493 0.104820475 -0.09010904 -0.013545795 -0.14505628 -0.1704122 -0.14858902 0.080881335 -0.15113103 0.11892574 0.12714393 -0.12936258 0.025572246 -0.1422323 0.0679408 -0.11866364 0.18135884 0.18998055 0.26576626 -0.20992152 0.28999344 -0.28632888 0.18689807 -0.0852205 -0.08351734 0.29214564 0.22299375 -0.50570285 0.12937003 0.0656713 0.23262192 0.1984747 0.047428392 -0.21637343 -0.12490619 -0.16271703 -0.13025409 -0.01037994 -0.24318458 0.17297563 -0.2811705 -0.24562578 0.14342755 0.20076808 0.16523993 -0.043107856 0.05997726 -0.20015018 -0.1831244 0.17271538 -0.22076346 -0.20281316 0.12947612 -0.023020746 -0.16363865 -0.3050753 -0.13512181 0.024203591 0.029813321 -0.06954167 -0.26162687 -0.039619885 0.13856852 -0.05574177 0.22276135 0.14991918 0.22926572 -0.022595435 -0.22244784 0.08047905 -0.2211564 0.15355735 -0.18962763 -0.24874948 0.17907722 -0.14869747 0.18545766 -0.14078957 -0.14163856 0.031287253
10206 -0.11690945 0.08374015 -0.10738439 0.049598243 0.10192211 0.060736068 0.02604336 0.05077992 0.20506793 -0.08363785 -0.07586503 -0.047357284 0.026014851 0.0982915 0.15738131 -0.081507914 -0.0815827 -0.109636895 -0.113448694 -0.062867865 -0.10065319 0.14995651 0.10454572 -0.014350102 0.022322493 -0.0065778596 0.16720304 0.04630609 0.038267586 -0.014116476 -0.02416344 0.1189251 0.191714 -0.06226336 -0.054400403 -0.08893408 0.15388407 0.025145056 -0.017878924 0.2199478 -0.08090232 0.09282588 -0.06237677 -0.08261052 0.025744744 -0.038780775 -0.009925152 0.11392537 -0.08215211 -0.13464715 0.097796515 0.011346601 -0.047705363 0.1362836 -0.09758337 -0.063144825 -0.019542925 -0.030561635 0.07935151 0.13032947 0.0060696593 0.027035939 -0.022603577 0.081398964 0.24958542 0.234094 0.24306142 -0.15433238 0.26442415 -0.26594815 0.11660388 -0.1829357 -0.13072868 0.15474936 0.15600902 -0.07841816 -0.028995208 -0.017411625 0.18312198 0.13896063 -0.06883534 -0.18378073 -0.2362224 -0.033520836 -0.100150794 -0.20038399 -0.11298303 0.13321826 -0.12521143 -0.26054534 0.13858253 0.08105411 0.1530741 -0.16896485 0.15265037 -0.08418341 -0.23380812 0.1347094 -0.21551374 -0.2152211 0.05243914 -0.1804379 -0.22263478 -0.31903028 -0.12475573 -0.122719415 0.07461792 0.17991841 -0.16032219 -0.03064779 0.23814802 -0.14018483 0.19923033 0.23886348 0.2558681 0.12536508 -0.15669687 0.10125902 -0.2439883 0.11579943 -0.18504986 -0.19588691 0.1528035 -0.10680763 0.30017683 -0.18008643 -0.16989946 -0.09888612
396 0.057227183 0.07476799 -0.06545214 0.20020035 -0.13431409 0.055744488 -0.13441326 -0.08971746 0.08855682 -0.16523133 -0.07149954 -0.1869021 -0.0976825 -0.027736979 0.108277336 0.00032031938 0.05421781 -0.06411973 -0.09364724 -0.014833566 0.07130397 -0.07976972 0.12404695 -0.0030892538 0.10858874 -0.092195615 0.05452552 -0.01042196 0.1285515 0.20517944 -0.09726036 0.058705468 0.061458454 -0.14382328 -0.06675725 -0.15925659 -0.08358365 0.15880689 0.011879407 0.07345554 0.094658636 0.09876549 -0.011189479 0.13242114 -0.13872454 -0.081479155 0.022866806 -0.102730155 0.0013139271 -0.004487547 0.18897218 -0.0031239016 -0.049969804 0.071397915 0.058211267 0.1742323 -0.086655065 0.08906377 0.2004979 0.0607301 -0.21429232 0.014726268 -0.029121727 -0.1108401 0.24359396 0.19875905 0.08607623 -0.21175079 0.20058854 -0.17557804 0.0990107 -0.40274584 -0.11969631 0.3211546 0.16205859 0.045348585 -0.018179137 0.04381725 0.21787 0.26039597 -0.087910265 -0.09685281 -0.22183877 0.22081979 -0.1374486 -0.12314245 -0.19985059 0.10924007 -0.30562562 -0.20438336 0.06397713 0.25531557 0.14818224 -0.20213951 0.27953738 -0.092411205 -0.22131196 0.18497567 -0.08824787 -0.09131833 0.14239183 -0.19630376 -0.16699125 -0.2841118 -0.22259653 -0.030666519 0.17159264 0.17552318 -0.278938 -0.07702801 0.124557726 -0.2049553 0.28119478 0.16257828 0.20011446 -0.043177754 -0.10530378 0.0406292 -0.2486252 0.074639246 -0.16633998 -0.111814335 0.19778022 -0.17867899 0.073541254 -0.20878105 -0.20227404 -0.1693579
10577 0.101108104 0.021025194 0.075784564 -0.04819787 -0.024293639 -0.13989301 0.015095648 0.04274253 -0.011668156 0.060689665 0.037830956 0.024745626 -0.0238673 0.02723226 -0.025191544 -0.11458384 0.0084264325 -0.09007628 -0.22353521 0.14258918 0.05124207 -0.014349259 -0.11952635 -0.012043589 0.029675117 0.046928037 -0.015566488 0.016808245 0.04658401 -0.096379474 -0.091756575 0.01658804 -0.048572533 -0.069249526 -0.14463267 -0.005311796 -0.036023088 -0.05482204 0.05196349 -0.082026474 0.06309919 0.009060856 -0.029003 0.005547776 -0.11009759 0.016112244 -0.06803809 0.080787264 0.0016625074 0.09282896 0.16243152 -0.09108575 -0.055805314 0.17898065 0.011291746 0.04922792 0.084650345 -0.009878161 0.09923548 0.079271145 0.004358422 0.07508647 -0.10371643 -0.056178033 0.21843086 0.19052681 0.16157122 -0.2066726 0.17473076 -0.17630628 0.21524921 -0.011113822 -0.10451967 0.12164568 0.097232826 -0.06473006 0.2021768 -0.0010393262 0.14064312 0.14001162 -0.15186898 -0.07425953 -0.10320372 -0.09362654 -0.12297268 -0.11078953 -0.14702377 0.091608025 -0.13492195 -0.13216132 0.25887898 0.1308167 0.07399098 -0.10108072 0.03600602 -0.17812254 -0.20885284 0.11434602 -0.14309992 -0.1247889 0.290898 -0.1948895 -0.08524768 -0.25878304 -0.15759064 -0.060681432 0.1656276 0.12333805 -0.18196899 -0.023858303 0.21571857 -0.17401579 0.2365718 0.17136085 0.18358278 0.14375265 -0.13608317 0.07902738 -0.19193937 0.10813079 -0.100060634 -0.21087548 0.18579529 -0.007931828 0.1749096 -0.09587446 -0.08464613 -0.018494077
4864 -0.08486619 -0.06396319 -0.026016442 -0.05665296 0.09793259 -0.006783778 -0.09514448 0.014080112 0.08827926 0.046611052 -0.04992716 -0.0920877 -0.0016363771 -0.020086298 -0.04363869 0.053616848 0.050735943 0.04819186 0.059723895 0.18267341 -0.19012873 -0.041115876 -0.18887891 0.058502737 0.005716487 -0.12714937 0.032627024 -0.07916431 -0.20607056 0.099332534 0.009899842 0.059274714 -0.011041546 0.05772979 0.04801201 -0.00026547062 -0.080138266 -0.029422892 -0.06879329 -0.09485543 -0.03360167 0.07866173 -0.18300761 -0.095108435 -0.10434319 0.07557079 -0.06833633 -0.11874456 -0.18291208 0.086529255 0.023650136 -0.04376201 -0.03022232 0.13082273 0.04616948 0.1303671 0.006156892 0.0042618974 0.13283424 -0.0025852232 0.10539144 -0.096342504 0.09874466 0.14437044 0.24710721 0.26182115 0.16166146 -0.14655036 0.24789941 -0.100085005 0.14482972 0.059466094 -0.07893619 0.12782691 0.18501109 -0.14341605 -0.00017479072 0.108660005 0.18332303 0.14892086 -0.07227787 -0.15413387 -0.008457288 -0.012973933 -0.12698 -0.013190953 -0.12898771 0.113935426 -0.22734314 -0.09420337 0.21238384 0.17212185 0.059883073 -0.16473468 0.2397224 -0.18220869 -0.17625993 0.13086314 -0.09550564 -0.13218781 0.017180119 -0.14778495 -0.058569115 -0.14042737 -0.11865256 0.04639844 0.061798166 0.2030439 -0.15631615 -0.056353547 0.17761713 -0.26455858 0.20949562 0.006933354 0.17073402 0.36428797 -0.14744626 0.23616299 -0.22114968 0.09813921 -0.08133776 -0.1659971 0.17293091 -0.18536288 0.17530403 -0.10261218 -0.12467286 -0.029650355
5604 -0.06629197 0.17984821 0.08460703 0.14545117 -0.11893118 -0.12713222 0.18344359 0.10327074 -0.10298024 0.0039583663 -0.12641175 0.15147303 0.05814021 -0.20806214 -0.01762903 -0.043399617 0.19033572 -0.177187 0.12561157 0.13891299 -0.06402126 0.0016772611 -0.06546509 0.21718492 -0.16099514 -0.1721727 -0.061139368 0.06622647 -0.1218459 0.15373456 0.04630302 -0.0036285995 0.050233364 -0.18942492 -0.1546756 -0.022828646 0.060679022 0.16242552 0.04832063 0.0044415616 -0.047238104 -0.0150822885 -0.07993957 0.040639136 -0.055048246 -0.051311966 0.046093322 -0.09424704 0.022353819 0.1615981 0.080505736 -0.002633246 -0.03307427 -0.044835377 0.056413066 -0.10803028 -0.069513254 0.06311249 0.0245151 0.034174882 0.069310255 -0.12502936 0.091645084 -0.020992888 0.26199546 0.20094478 0.20828828 -0.269917 0.2304858 -0.20691127 0.102094546 -0.12964793 -0.1624697 0.21714634 0.15191971 0.004189852 0.10684687 -0.047271598 0.09957769 0.26858482 -0.049092326 -0.18812294 -0.081617504 0.049711946 -0.10599941 -0.15898618 -0.24362305 0.15885091 -0.21500835 -0.12863663 0.1843609 0.18153173 0.17280225 0.026093336 0.4355045 -0.09985298 -0.3270441 0.3148657 -0.23265865 -0.20947528 0.031321272 -0.118451744 -0.034991156 -0.17373362 -0.24729344 -0.119744934 0.17582296 0.06376271 -0.25812238 -0.18313424 0.34264177 -0.21043652 0.18533067 0.14753115 0.034829646 -0.0002821911 -0.18898374 0.3462471 -0.13881782 0.19149221 -0.14393198 -0.17930983 0.28886288 -0.25256708 0.17834628 -0.2575529 -0.12742558 -0.0023838154
8837 -0.015537974 0.14893377 -0.099864356 0.025696937 -0.11880528 0.10255003 0.006964262 0.10039527 -0.12484679 -0.12461878 -0.008084435 -0.11679937 0.096124694 -0.08815557 0.17830108 0.018484097 0.16770649 -0.07070338 -0.20363864 0.1295965 -0.020514417 0.13371627 0.095486715 -0.048020773 -0.14602427 -0.13337572 0.1374271 0.0012475556 -0.12585458 0.176166 0.11736121 -0.098107144 -0.02529422 0.080341 -0.1033145 -0.16664833 -0.04827521 0.023668114 0.094660595 -0.09351759 0.022420952 -0.0033949474 -0.0015720867 -0.08935202 -0.091268435 -0.046955463 0.06956772 0.01851739 0.008627006 0.095145494 0.14017455 0.11462293 -0.118147075 0.16682129 0.12705976 0.19918288 -0.03790381 0.16258581 0.04170892 0.26962945 -0.099840835 -0.05898317 0.14208153 0.0097708255 0.24775498 0.17416504 0.17885168 -0.35892358 0.21760607 -0.20692943 0.18392397 -0.21272911 -0.15698954 0.22342545 0.15363325 -0.061957028 0.017421678 0.10495752 0.14360932 0.21179768 -0.078600995 -0.20338121 -0.058112998 0.01372826 -0.1736977 -0.15051797 -0.2517191 0.17182453 -0.28220025 -0.15419699 0.2138382 0.23188277 0.18142828 -0.06037895 0.17381777 -0.051362768 -0.20329075 0.19805138 -0.22552669 -0.12934294 0.10124125 -0.218037 -0.16320364 -0.19535665 -0.16830091 -0.12578505 0.043299954 0.03609717 -0.17714323 0.017055627 0.15510833 -0.21328247 0.23822634 0.24054891 0.15883817 -0.06441137 -0.16019346 0.41073057 -0.17361955 0.27338496 -0.107582584 -0.17903487 0.17953865 -0.18549858 0.283235 -0.18844372 -0.20022215 0.053330813
10801 0.061882257 0.044004433 -0.06341833 0.020027362 -0.08037255 0.0150020365 0.0764287 -0.14816652 0.021859296 0.012849745 0.10807577 -0.023148071 -0.076566 0.13644554 -0.021243658 0.022377178 0.06340816 -0.034514185 -0.039525248 0.14925407 -0.123502925 -0.22234169 -0.0362962 -0.12638377 -0.10931927 0.008140985 -0.04761048 0.062338874 0.060984563 -0.01222488 -0.15265936 0.07953295 0.041851547 0.07266261 -0.015826996 -0.058984447 -0.064689994 -0.023726515 0.07109358 -0.011886195 0.111764595 0.1162741 -0.028956637 -0.021527054 0.091625884 0.0800441 -0.043819204 0.033772066 0.042574346 -0.16810168 0.05884993 -0.03636192 0.05280061 -0.058767743 0.1176281 0.05185061 0.15411876 0.034252368 -0.042329043 -0.009598553 -0.082796246 0.012810362 -0.080535114 -0.023518767 0.14637685 0.19378187 0.16542266 -0.17345028 0.24425769 -0.21460466 0.20675068 -0.30717853 -0.21890694 0.22315188 0.20537633 -0.1867691 -0.08409077 0.09182186 0.1018512 0.16185853 -0.059524585 -0.16265073 0.04669754 -0.00839785 -0.2483936 -0.1639428 -0.2801185 0.19747373 -0.21253952 -0.24078207 0.10980447 0.17795856 0.18341938 -0.19133936 0.10989235 -0.12115087 -0.29343265 0.18683454 -0.1233752 -0.16949894 0.119403765 -0.13421471 -0.20367284 -0.2101616 -0.15043488 -0.15492892 0.027935874 0.25789255 -0.17117599 -0.120349415 0.15645969 -0.12303065 0.22256672 0.15178862 0.18025148 0.2571954 -0.19219263 0.005179943 -0.1542807 0.12459511 -0.24010858 -0.17248023 0.15722239 -0.25894982 0.18510567 -0.2516211 -0.14380608 -0.078457646
9217 0.121096164 0.062107924 0.07266484 -0.13651067 0.08564837 0.053018406 0.10295248 0.042631526 -0.018556561 0.014105512 -0.017929288 -0.118993804 0.038410094 -0.1109738 -0.14762294 -0.21738654 -0.11390657 0.051920272 0.12851533 0.14024363 -0.09005093 -0.13992107 0.009180428 -0.0448986 -0.11114149 0.14869876 0.08124774 -0.07001367 0.088324375 -0.037391987 -0.10093157 -0.0660201 0.109910004 0.22731623 -0.0107291015 -0.07120516 -0.030538429 0.16636503 0.055131707 -0.1495458 -0.011891831 0.18915173 0.14092347 -0.04111784 0.058184832 -0.084519066 0.107801005 -0.009185344 0.15848945 -0.07939513 -0.047219045 0.029563863 -0.03730893 -0.09122425 -0.039314117 0.024341991 0.14015517 -0.062007397 -0.11013892 -0.067153335 0.030771136 -0.07285891 -0.05082079 -0.042565443 0.1634878 0.26170588 0.24381906 -0.24739419 0.20735846 -0.25609624 0.22288331 -0.1363009 -0.12072841 0.11584241 0.094973736 -0.037891254 -0.10682741 0.13943523 0.050415754 0.098013796 -0.10713668 -0.15364824 0.0936567 0.07445958 -0.2102311 -0.2927684 -0.14739159 0.09646468 -0.11730367 -0.22882295 0.051502015 0.15526451 0.21329859 -0.24323134 0.08736409 -0.19746402 -0.19339518 0.016513921 -0.14737113 -0.09226328 0.23351267 -0.18749832 -0.24394812 -0.26081035 -0.18878315 -0.322883 -5.7927813e-05 0.19991367 -0.1992921 -0.15654683 0.10094887 -0.1568768 0.15460378 0.06971426 0.23853129 0.08497758 -0.26922706 -0.009240297 -0.20245603 0.1037938 -0.15880628 -0.2017728 0.1912213 -0.121585615 0.21417333 -0.28148958 -0.18877491 -0.2757054
5310 0.099568486 0.084923565 0.102189 0.15342513 0.03435888 -0.006076044 -0.12014154 0.11207774 -0.046816327 0.07457519 -0.020418536 -0.020571513 0.20274702 -0.13759057 -0.02517361 -0.004761451 0.048801903 -0.028788727 0.03510671 0.28170022 -0.013219667 0.1466939 0.20821795 -0.040104985 0.110068314 -0.29837647 -0.0006639279 -0.05822537 -0.12136093 0.24613297 0.16270104 0.054207813 0.003950734 0.07493902 -0.058343146 0.010219508 0.26364762 0.21935955 -0.28543282 -0.035759997 -0.062640615 0.10100087 -0.06469317 -0.0935612 -0.1498259 0.023368364 -0.037993446 -0.0337233 0.0018095963 0.100189805 -0.14960794 0.07945391 0.08698841 -0.04501325 0.01901682 0.0483667 -0.0951283 0.1229645 0.12468514 0.2396765 0.021303385 -0.14271978 0.0040430725 0.24997339 0.21304844 0.25351167 0.15925166 -0.2264727 0.15236484 -0.12601195 0.14950353 0.14284997 -0.26617023 0.24434704 0.16923136 -0.18814272 -0.015445871 0.072654165 0.24201189 0.31739584 -0.08415273 -0.23285879 -0.09520948 0.16996889 -0.21529913 -0.17230938 -0.17492294 0.11058918 -0.25169653 -0.0688579 -0.022362458 0.18607713 0.1663478 -0.08941423 0.35600314 -0.17596672 -0.23185246 0.1355078 -0.13462918 -0.20057513 0.13267025 -0.14274807 -0.24383001 -0.18063089 -0.23527852 0.06841351 0.10589698 -0.0070895865 -0.20581305 -0.026943093 0.24332447 -0.13339768 0.31216568 -0.00037552882 0.23942402 -0.021089576 -0.1719855 0.16116759 -0.12425663 0.2648315 -0.09737147 -0.35042396 0.30582184 -0.13129787 0.3002533 -0.26957628 -0.030602856 -0.25841108
87 -0.05118426 -0.21713682 0.14825687 0.19097294 0.20073217 0.0025551035 0.011033051 0.0506669 0.09565471 0.11456578 0.04095353 -0.077521145 0.10786502 -0.05290101 -0.039776906 -0.17572594 -0.040282115 -0.062579624 0.057789132 0.045702763 -0.111996226 0.028397959 0.12933764 -0.11378641 0.09311535 -0.06038527 0.15357134 0.0044034705 -0.19312629 0.026120031 0.16265027 0.045018673 0.14330648 -0.025664197 -0.0513328 0.049041435 0.24086568 0.048305463 0.12575823 0.10060223 -0.043318573 0.040967043 -0.03234366 0.13870919 0.050136324 -0.09426757 -0.029386744 -0.0994939 -0.063001364 0.075402886 -0.12408508 0.0650796 0.23268412 -0.11496729 0.023418974 0.111448154 -0.12276563 0.13171029 -0.0845038 0.08276216 0.040839896 -0.05420682 -0.11444008 0.31588718 0.1909096 0.2657986 0.1813861 -0.25507838 0.12869336 -0.20490672 0.14882219 0.1223853 -0.15969788 0.2726046 0.24073845 0.08338717 0.0597608 0.0620187 0.18051343 0.25380507 -0.056577444 -0.13387658 -0.074028745 0.15447801 -0.32034376 -0.15383217 -0.2742492 0.20606606 -0.19755764 -0.10224281 0.12246962 0.30441824 0.24428464 -0.117915116 0.1065453 -0.13922508 -0.23354776 0.14605542 -0.16804212 -0.15552881 0.17879051 -0.09554577 -0.16980976 -0.2406118 -0.19797584 -0.07808468 -0.011458638 -0.0071725757 -0.26327488 -0.07411241 0.116519265 -0.085874595 0.24110475 0.054581515 0.18674415 -0.016043294 -0.12244826 -0.015532796 -0.20666702 0.08900195 -0.15347181 -0.21622045 0.2532617 -0.22836792 0.21463522 -0.3207435 -0.13068385 -0.19591412
55366 0.056894917 -0.035473946 -0.011968868 0.1629665 0.015342427 0.037312146 -0.03740128 -0.0838297 -0.055115983 -0.12974255 -0.014598873 0.10624888 0.060177814 -0.15546328 0.03994194 0.13746741 -0.088023275 0.033569764 -0.12546414 0.0713238 0.06307639 0.03721925 -0.08633771 -0.04306224 0.071158014 -0.060732756 -0.14844874 -0.13668978 -0.1524638 0.16711825 -0.1350339 -0.11373165 0.071690686 -0.11511224 0.102616124 0.0841862 0.06954699 -0.016647868 -0.17514426 -0.02827098 -0.048170336 -0.051752202 -0.11388059 0.025212595 -0.08309672 -0.022683073 0.022486743 -0.0074710716 -0.2174978 -0.19752575 0.034316834 0.14201947 -0.05037993 -0.031134846 0.025732175 0.14597777 0.055078957 0.06343304 0.16024838 0.07080527 -0.07781829 -0.049082246 -0.004724146 -0.061506063 0.25704616 0.22065313 0.19295166 -0.09241852 0.20180313 -0.12965952 0.1925821 0.12512544 -0.079915725 0.24481033 0.19051023 0.07863585 0.026934247 0.19757774 0.18520558 0.2205583 -0.030106094 -0.096992314 -0.05714779 -0.06302967 -0.14092048 0.035549328 -0.26387835 0.18110472 -0.22698468 -0.104492925 0.2512704 0.13754205 0.26009285 -0.19648716 0.07580087 -0.10597373 -0.21823525 0.0812197 -0.1775859 -0.20602866 0.015344165 -0.09269499 -0.07899103 -0.25332674 -0.1806731 -0.031993106 -0.0001001018 0.101198584 -0.23714462 -0.12364456 0.16462335 -0.1234443 0.25908765 0.05940519 0.25944507 0.21440387 -0.110935286 0.27019835 -0.22621928 0.18742713 -0.15106943 -0.23022906 0.19212438 -0.18076305 0.1834662 -0.22779238 -0.09619348 -0.05284449
23310 0.028550701 0.026212996 -0.009249175 0.10875393 0.12845203 0.04200772 -0.050553285 -0.022361768 -0.013090242 -0.08473736 0.059848472 0.0661026 0.14142674 -0.10527625 0.021356026 -0.1089584 0.0026136136 0.02098845 -0.11428058 -0.030451188 -0.0349822 0.113884114 -0.10602995 0.09115971 0.101140656 0.0047235964 -0.021010173 -0.013290296 -0.07920949 0.058673687 -0.053221308 -0.10971949 0.055787046 -0.02415777 -0.06835208 0.0030860845 0.06778152 0.0657408 -0.031302314 -0.14110301 0.005478166 -0.058291983 -0.16590619 0.04103075 -0.14404318 0.038667884 0.022871094 -0.04363677 -0.045959897 -0.09615965 -0.13542862 -0.04374552 -0.042966325 -0.0059931716 0.0073600844 0.034751017 0.06399795 -0.011218234 0.057958685 -0.009445864 -0.06765851 0.04955253 0.060121004 -0.14764406 0.21324082 0.17799339 0.15770347 -0.06306126 0.14897071 -0.19658701 0.21868628 0.08597878 -0.1079947 0.17558932 0.14778315 0.0013927151 0.02266197 0.15812893 0.1724307 0.07673764 -0.053599846 -0.05633631 0.03978326 -0.17881611 -0.16305035 -0.03212083 -0.14495157 0.19656573 -0.17285457 -0.18128504 0.20789337 0.21464561 0.16787957 -0.19415124 -0.031110492 -0.04613684 -0.20844692 0.06201963 -0.15821704 -0.25967988 0.15881422 -0.1737242 -0.073764466 -0.19448231 -0.24968137 -0.059688367 -0.001799549 0.16703075 -0.208909 -0.11541244 0.2290114 -0.2386817 0.24791141 0.12248174 0.119223386 0.23789129 -0.16912109 0.019747688 -0.19921902 0.08008565 -0.17180419 -0.21993089 0.15667479 -0.16101357 0.167439 -0.17027055 -0.15841916 -0.12838039
149041 -0.07653849 0.17279018 0.13856812 0.09833337 0.18677889 -0.07712799 0.07060958 0.051095143 0.03400515 -0.12548868 -0.072886184 -0.071180455 -0.030367507 -0.018341 0.07616972 -0.12675537 0.031186337 0.0012488476 -0.19187197 -0.021603081 -0.07673117 0.02147508 -0.14824745 -0.124970615 -0.08144571 0.007996815 0.09274972 0.036372345 0.010189236 -0.1402034 0.101475194 -0.12294956 0.10016455 0.09638357 -0.065209776 0.1726776 0.031545993 -0.15279044 0.03141934 0.0113171125 0.056191113 0.010409266 -0.09036783 -0.21873206 0.07865621 -0.070797496 0.0028744037 0.2042473 0.113907725 0.04379086 0.21249703 -0.06848993 -0.12687384 0.19776681 -0.103016324 0.06271089 -0.046891704 0.056649067 0.11864173 -0.15020086 0.11216417 0.079781525 -0.080015264 -0.15665747 0.17003109 0.13569741 0.12490538 -0.15363272 0.049075276 -0.22291963 0.17101653 -0.26309097 -0.12536176 0.24460281 0.16400218 -0.21039736 -0.04679497 -0.13795029 0.097537704 0.2368748 -0.062392622 -0.15787905 -0.1996473 -0.229369 -0.14236985 -0.16329713 -0.17111349 0.15746947 -0.08570488 -0.2004603 0.0945372 0.1775377 0.109396905 -0.09449354 0.14683945 -0.11165859 -0.20748672 0.12834819 -0.1618636 -0.10996319 0.117665604 -0.16802917 -0.1333037 -0.1519849 -0.12945634 -0.1390073 0.19432534 0.15700059 -0.27709255 -0.07196421 0.081413336 -0.01801657 0.12077888 0.11724744 0.19503388 -0.03412983 -0.17758285 0.025555514 -0.15445653 0.21581243 -0.049847875 -0.073012754 0.18153162 -0.07887288 0.18214934 -0.1970872 -0.18002348 -0.020622293
7327 -0.05828478 -0.11193527 -0.059647076 0.17567885 -0.042108394 0.027081601 0.0026259087 0.09537431 0.00571294 -0.14077537 -0.07701576 -0.036956538 0.04148326 -0.15801495 0.1349802 0.00879071 0.15791431 0.08418829 -0.12618189 -0.02285151 -0.06987324 0.08684978 -0.07881807 -0.09681541 -0.21795185 -0.029062519 0.1684672 0.16367649 -0.03758762 -0.19217473 0.13916221 -0.08130566 0.1433315 0.20407787 -0.19059661 0.114515856 0.13417318 -0.18389677 0.07273166 0.01668509 0.11062969 -0.028668022 -0.19845363 -0.07948228 0.050396767 -0.18287452 0.005128008 0.11048132 0.11283537 -0.0076531577 0.0023168493 -0.060089108 -0.21454084 0.0828001 -0.10134461 0.14244992 0.17795467 -0.04328978 -0.0762626 -0.11609257 0.03498967 0.11468262 0.021528533 -0.08308841 0.2510191 0.26368588 0.21608175 -0.2382808 0.21054915 -0.2625694 0.1992944 -0.3188512 -0.12834659 0.2691042 0.17782754 -0.2878141 -0.1595711 -0.050239768 0.112545215 0.16301018 0.06283293 -0.17049377 -0.21702407 -0.13134171 -0.1315459 -0.12204907 -0.21581316 0.08962483 -0.10375605 -0.19239524 0.0735986 0.16795899 0.08236202 -0.11230569 0.05284077 -0.14345412 -0.19005087 0.15897655 -0.17994098 -0.22385724 0.13335559 -0.15137619 -0.14206274 -0.096929856 -0.10648328 -0.1649102 0.12735637 -0.019309867 -0.273698 -0.1078322 0.055204626 -0.034442775 0.18828331 0.15237518 0.22810425 -0.10489481 -0.15795119 0.2150734 -0.3358204 0.20813788 -0.17448369 -0.18016195 0.15285294 -0.15748087 0.28281465 -0.21049547 -0.074363425 0.02924241
1432 -0.16126318 0.17191148 -0.20346633 0.041905634 -0.06856595 0.015614012 -0.0020522806 0.27367118 -0.061174527 0.079334214 -0.10068905 0.050444227 -0.031513102 -0.202318 -0.13656443 0.0118341865 0.23535338 -0.11347023 0.17361788 0.03675549 0.06060928 0.134306 -0.05730453 0.15610263 0.21418677 0.17753558 -0.049587633 0.050407514 -0.07858216 0.079791576 0.117584266 0.21224181 -0.0081667565 -0.055432267 -0.1372127 0.08597444 0.02351084 -0.032986775 0.14962277 -0.007494121 0.18574882 0.024170883 -0.16201876 0.16381991 -0.10080831 0.11081446 0.0014672112 0.17636442 -0.07618023 0.15546459 0.074853286 0.0035346246 0.08013576 -0.09849761 -0.104898065 -0.12423343 -0.11704366 0.10965432 -0.11461887 0.067923345 0.074869454 -0.09250475 0.071558766 0.06688208 0.2723263 0.18962249 0.13517997 -0.2994166 0.26491496 -0.19940592 0.12749031 0.020857321 -0.11226111 0.2959577 0.23051895 0.050932523 0.18481782 -0.06128903 0.12235963 0.24905801 -0.09735136 -0.15974286 -0.0904901 0.06432295 -0.15191713 -0.21603146 -0.15070203 0.15824278 -0.19604693 -0.0927144 0.11013196 0.2615776 0.19032048 -0.1798916 0.029693505 -0.1969551 -0.30143386 0.07779008 -0.18651226 -0.097946666 0.19405343 -0.2094215 0.0010238364 -0.17697236 -0.2331922 -0.1163314 0.12617286 -0.009024595 -0.24129708 -0.11447034 0.28028283 -0.1408274 0.2095324 0.040714953 0.12606461 -0.04153283 -0.24539481 0.29801133 -0.2599688 0.17179695 -0.11037739 -0.25968388 0.26032484 -0.21986315 0.12700497 -0.25778112 -0.20671238 0.11344958
2004 -0.024777068 0.06406889 -0.0031226878 -0.042491954 -0.09795787 0.0019131984 -0.056828797 0.0017625443 -0.052312847 0.09741207 -0.04815451 0.08512349 -0.01540058 -0.030580381 -0.15967041 -0.0018878698 0.1374522 0.05200994 0.06912915 -0.04213047 -0.05229368 -0.06291875 0.19471447 0.022532865 0.006382409 0.038537852 -0.045922752 0.06752954 0.05078115 0.11908759 0.02134174 0.09925132 -0.12227545 -0.116615005 0.008012289 -0.12778606 0.016419312 -0.04318379 -0.035461653 -0.12036026 0.16346833 -0.0265014 0.0028623634 0.046335068 -0.14457075 -0.00066018227 0.106016666 -0.06153024 -0.09024088 0.11542761 -0.09304201 -0.014387056 0.07614355 -0.01570749 -0.03314386 0.051923636 -0.021359809 -0.021859854 -0.122757964 0.019739883 -0.03611743 -0.13788345 0.1454164 0.035983995 0.18371496 0.13440734 0.16041782 -0.20162578 0.23381647 -0.14996648 0.09258967 -0.15977076 -0.07895187 0.23390141 0.17033923 -0.068955876 0.2232126 -0.14089543 0.097369604 0.23777497 -0.12577975 -0.19753654 -0.1403647 0.09394866 -0.1820482 -0.17174274 -0.22156736 0.17409791 -0.25145245 -0.19072443 0.20263736 0.16789362 0.12546141 -0.15712762 0.050863903 -0.17445749 -0.21946388 0.09824731 -0.25790694 -0.15947755 0.17928949 -0.22203872 -0.08877607 -0.19194004 -0.14989619 -0.33262172 0.24516119 0.053387243 -0.17952311 -0.27590558 0.17079695 -0.15081099 0.15991145 0.06548871 0.11139799 0.029342731 -0.15104963 0.29219836 -0.10866379 0.1580315 -0.1598667 -0.11752769 0.21749552 -0.19200365 0.17826626 -0.20886612 -0.21836413 0.0009174267
10664 0.045185883 -0.059011165 -0.09987873 -0.008485407 -0.06281219 -0.056094456 0.06987508 -0.07620349 -0.11564755 0.005295861 0.09863588 -0.06590638 -0.14711541 0.087954015 0.067515 -0.024673745 -0.007312924 -0.028657425 -0.038920294 -0.092099495 0.23589718 0.017274942 -0.041455314 0.02861921 0.025276834 -0.018167004 -0.1691951 0.089130335 0.16134265 -0.15771207 -0.14918278 0.15157405 -0.23126888 0.122366935 0.05182467 -0.064650565 -0.05442538 0.1096533 0.04383211 -0.04411734 -0.052361008 -0.03433231 0.0741685 0.13580844 -0.014347553 0.13551731 -0.08370444 -0.05253885 0.1074194 -0.08789162 -0.13913146 0.02636169 0.05909927 -0.17415744 0.10152435 -0.11355392 0.11098024 -0.020760126 -0.11633259 -0.02677173 -0.012648896 0.013977443 0.0116060525 0.05715656 0.20541744 0.10455473 0.15814884 -0.24411005 0.13738118 -0.22949106 0.20743607 0.022516089 -0.12845479 0.17602761 0.245395 -0.032950323 0.08873868 -0.0124717355 0.108043656 0.10689941 -0.0598894 -0.20217745 -0.34486437 0.004211706 -0.21602784 -0.06291796 -0.17137979 0.24115486 -0.2400916 -0.2596963 0.28982815 0.20457691 0.085470654 -0.21567635 -0.07816214 -0.232965 -0.20820284 0.13366048 -0.1714528 -0.187331 0.2636219 -0.22908948 -0.08116679 -0.18559878 -0.20036313 -0.28531018 0.02071798 0.16066906 -0.21511798 -0.14450695 0.12817678 -0.2630116 0.24203068 0.12551469 0.23728098 0.20565842 -0.09075403 0.013281673 -0.1532194 0.1436004 -0.201784 -0.18028857 0.13209091 -0.28658986 0.21939918 -0.15084085 -0.110181004 -0.090755634
3146 -0.029596373 -0.14171349 -0.1041529 -0.17797764 0.015812453 -0.04336831 -0.11577732 0.06655651 -0.015357826 0.010874619 -0.068007916 0.037844237 -0.10799012 0.073869176 -0.23875448 0.0044257264 0.03664288 -0.0889833 0.13250236 0.11495374 0.047177587 0.0381365 -0.12829892 0.10369015 0.10520865 -0.046181496 -0.06104188 0.015071807 0.16255449 0.07480461 -0.026740078 0.15096258 -0.043727703 -0.07495928 0.023672128 0.09763364 -0.29206252 -0.058865327 0.058961403 -0.003612921 0.23131137 -0.10171567 -0.053547278 0.08894171 -0.03596966 0.074982606 -0.12069081 -0.16194275 0.18837145 0.13829982 -0.11623829 -0.15178342 0.057343207 0.11505416 -0.084119774 -0.01877271 -0.03023662 -0.21682778 -0.23519452 -0.07724042 0.058467325 -0.052135535 0.012419529 0.17202047 0.24110813 0.13921659 0.10435656 -0.26526594 0.24510062 -0.27013516 0.24050418 0.056360185 -0.23872718 0.20817766 0.22166471 -0.05940801 0.28567845 -0.22765619 0.11726128 0.15505815 -0.051679734 -0.23713572 -0.42581907 -0.091288894 -0.1427134 -0.089498565 -0.20296225 0.32770893 -0.2160812 -0.14977321 0.12210963 0.27688295 0.10627638 -0.18793926 -0.06990682 -0.15402547 -0.29016808 0.15910918 -0.1839437 -0.1531367 0.291352 -0.17971927 -0.12618975 -0.32203192 -0.11807927 -0.16491033 0.07950216 0.07045819 -0.28396088 -0.19823253 0.10690955 -0.17234023 0.2601168 0.035674706 0.16668716 0.14923754 -0.15610908 -0.075342074 -0.18499622 0.067083895 -0.14965765 -0.18499087 0.1005354 -0.17721857 0.24090266 -0.18765438 -0.12788829 -0.007130937
56254 0.07454489 0.06405616 -0.031851802 -0.010303248 0.11880405 -0.268521 0.14292367 -0.011073582 0.018306294 0.108636335 0.06964777 -0.061966985 0.0524455 -0.016685946 -0.012327146 0.07074305 0.014458202 0.006829677 -0.079148114 0.12572992 -0.018977769 -0.021371284 0.016590238 -0.2336533 0.07431945 0.12712663 -0.18687406 -0.11833245 0.2883852 0.0873151 0.18295045 -0.007165031 0.06421994 -0.053847656 0.02466066 0.086844794 -0.0008796554 -0.123440385 -0.020183053 -0.041545633 -0.021788863 -0.023286523 -0.09137866 0.1262681 0.25456935 -0.12683462 -0.11842777 0.060799103 0.15352134 -0.053243697 -0.09572889 -0.15753047 -0.2249292 -0.00014577128 -0.047510352 0.032615528 -0.08765022 0.13867739 0.11516815 0.040546488 0.1408481 -0.010563281 0.03843111 -0.1223578 0.10984257 0.16914034 0.1184515 -0.1834403 0.13135456 -0.2308954 0.1090904 -0.23023646 0.023487205 0.26474747 0.21206686 -0.28391883 0.021701552 -0.39324453 0.13505532 0.16986172 -0.24893677 -0.20679663 -0.041557092 -0.012507168 -0.21528663 -0.059228648 -0.14233896 0.20836887 -0.21643296 -0.15751733 0.21232681 0.2650921 0.16428368 -0.20060347 0.14547502 -0.09071741 -0.13132076 0.092298955 -0.16418014 -0.17434621 0.15013403 -0.16519403 -0.18149903 -0.2626461 -0.2556646 -0.13635792 0.17211267 0.036582157 -0.2773129 -0.11508151 0.13043422 -0.20004947 0.30737913 0.28607112 0.19842263 0.089549534 -0.14891315 -0.06843271 -0.085856855 0.09568301 -0.20398569 -0.18293956 0.17419487 -0.10906286 0.20566045 -0.12725359 -0.13253708 -0.046300367
51322 0.19180524 -0.066630594 -0.015577441 0.0659828 0.06446406 -0.13072751 0.11377931 0.023286754 0.08538454 0.12542485 0.060517587 0.15923366 0.09530583 0.0025269971 0.04928531 0.022936719 0.023705425 -0.036672622 0.12614144 0.06501469 0.09193512 -0.053116437 -0.024418203 -0.16067974 0.011008437 -0.048489623 -0.04731925 0.037815094 0.0724386 0.002220694 0.121611096 0.06808542 0.10812624 0.0039094747 0.023023447 0.011846088 0.17199227 -0.032240592 -0.070213 0.007781931 -0.0517312 0.079545654 -0.05127003 0.10869259 0.11662657 0.04766778 -0.135687 -0.0057036104 -0.057053965 -0.025343895 -0.13989046 0.021479383 -0.059675377 0.026240103 -0.11363296 0.06756419 0.017546164 0.040744904 0.25003198 0.055675797 0.08816929 -0.01568638 -0.035208073 -0.13058446 0.12429804 0.13307565 0.13112397 -0.21578345 0.17707692 -0.17419547 0.21017441 -0.123988815 -0.071791835 0.21089613 0.18109012 -0.21604672 -0.06140332 -0.16254549 0.14988221 0.27664757 -0.2562513 -0.10846242 -0.18220216 -0.0031554485 -0.18911421 0.0033509359 -0.11992482 0.21906067 -0.2712094 -0.11392801 0.11194174 0.15041924 0.13399719 -0.04464296 0.049286842 -0.13436991 -0.21098007 0.18361044 -0.19749519 -0.09402893 0.13012284 -0.16400826 -0.11942455 -0.2628022 -0.202195 -0.046283346 0.22889532 0.12689623 -0.16990466 -0.15196872 0.09355014 -0.09120232 0.29661262 0.24368456 0.3131222 0.10354987 -0.12985805 -0.023763118 -0.1861342 0.22336961 -0.25025716 -0.16064383 0.10006839 -0.16307884 0.1780926 -0.12450081 -0.19169225 -0.082699694
11051 -0.08204335 -0.13463128 0.043420084 -0.03644018 0.030433059 0.008756667 0.14346057 -0.09725089 0.15712385 0.06581946 0.018016707 -0.24355677 -0.25285578 -0.06721597 -0.027935633 0.04188741 -0.12395768 -0.12855515 0.037653923 -0.015404626 -0.006256533 -0.08040631 -0.09864348 -0.14665982 0.014852381 -0.038202126 -0.11127753 0.17797472 0.11189145 0.029134795 -0.12152145 0.22941783 -0.17781349 -0.12423209 0.06369868 -0.12842084 0.2594057 -0.2147153 -0.092328474 0.14643738 -0.03350261 -0.08940146 0.13668633 0.14322835 -0.06799565 -0.05961762 -0.0571412 0.0950364 -0.006127877 -0.1594101 0.11374493 0.05242392 0.18763061 0.03607015 -0.039663956 -0.09832647 0.15821551 -0.006433383 -0.18010542 -0.045675136 -0.106271125 0.10274315 -0.13197263 0.023497414 0.250074 0.1907192 0.06762614 -0.2603103 0.11982968 -0.34801716 0.18431439 0.0102268895 -0.23276845 0.23386054 0.2582804 0.013634175 -0.0653312 -0.25642437 0.12162272 0.14430937 -0.25499064 -0.18741068 -0.055457152 -0.08313919 -0.15834174 0.015033941 -0.11570268 0.1949683 -0.13892671 -0.16598684 0.07152535 0.27181375 0.2527196 -0.07964349 0.10660157 -0.107144214 -0.28173748 0.3276257 -0.13924024 -0.16477828 0.1964543 -0.18450916 -0.15491812 -0.22430022 -0.17901032 -0.20013681 -0.026172565 0.4176291 -0.22131202 -0.29218537 0.12762548 -0.1582999 0.24933323 0.04416917 0.17376158 0.15756063 -0.06519665 -0.23348169 -0.16919933 0.17411348 -0.2480153 -0.25092584 0.19605364 -0.19083665 0.19941887 -0.23172258 -0.13387845 -0.34364325
3066 -0.26866138 -0.088763736 0.051751185 -0.16846155 -0.079416715 -0.26975304 -0.1444715 -0.07089377 0.0050510284 0.104348265 -0.03469413 0.043448925 -0.31363446 0.21331371 -0.17078206 0.18832368 -0.04750666 0.14506015 -0.00037201808 -0.032023348 0.084693536 -0.25514898 -0.26376045 0.1858123 0.098735794 0.041824117 -0.18265074 -0.029896505 -0.042053398 -0.14822878 -0.1558198 0.07001687 -0.302663 -0.13974483 -0.15096425 0.016398432 -0.39832544 0.013991855 -0.08701366 -0.09567932 0.055558346 -0.24341023 -0.10236703 -0.039834343 0.16020536 0.10260466 -0.24871369 -0.15721393 0.24206443 0.008085099 -0.06286474 -0.12396989 0.085105784 0.21896477 -0.05656417 0.010608103 0.18669663 -0.24055518 -0.010657029 -0.2347158 0.043341283 -0.057290565 0.19146635 0.21029902 0.3236122 0.18098852 0.076067775 -0.2132234 0.107634395 -0.2988877 0.31064773 0.13978358 -0.08005584 0.13959298 0.2555309 0.20764442 0.6160433 -0.3310204 0.10944707 0.18468371 -0.2175506 -0.10497064 -0.19932932 -0.17003216 -0.23817436 0.012088925 -0.18655959 0.27275655 -0.12716109 -0.23407416 0.25999078 0.2663461 0.16053237 -0.06789122 -0.26862776 -0.21101306 -0.206784 -0.046843257 -0.2273332 -0.16083576 0.35673365 -0.24212009 -0.070106074 -0.24758266 -0.17032905 -0.045293257 0.087654635 0.30961338 -0.30297992 -0.15747876 0.18188328 -0.2784591 0.2793117 -0.032627642 0.16548336 0.21262647 -0.2406942 -0.24216124 -0.30725884 0.0864314 -0.097954124 -0.32225457 0.1789115 -0.22414574 0.2071361 -0.22626065 -0.1506614 -0.0067616063
8945 -0.07725222 -0.15340582 -0.08664657 0.08766975 0.20911121 -0.06305954 -0.085961394 0.38931045 0.21609724 0.14472432 -0.16264944 0.06368458 0.056192715 0.00613593 0.23841225 0.0101816375 0.033726655 0.118942894 -0.084747426 -0.123390265 -0.12540108 0.032072525 0.12773637 0.12655403 0.19122818 -0.037829567 -0.049138915 -0.06309481 0.075250946 -0.04697652 -0.15162854 0.14050126 -0.12379161 0.023410331 -0.09953102 0.18950194 0.09495286 -0.12738238 0.16931757 0.21127689 -0.03363546 -0.02779544 0.04048091 -0.30086845 0.07345114 0.0015729306 0.07623199 0.045360025 -0.070781365 0.11384587 -0.17262384 -0.12670533 -0.02588363 0.06394488 0.18094414 -0.1227472 -0.20466474 0.09294039 0.151017 0.052360956 0.03733085 -0.11687103 -0.07535025 -0.11750051 0.28008032 0.16476457 0.14268775 -0.23842072 0.15186147 -0.21726182 0.2768364 -0.1333623 -0.099331595 0.24366267 0.1611266 -0.09732737 -0.23217884 -0.009514245 0.17198715 0.19605243 -0.013925902 -0.16797219 -0.18225104 -0.19290575 -0.15851511 -0.16657998 -0.274202 0.087386064 -0.2482805 -0.1435027 0.09209591 0.20880947 0.26983604 -0.10573089 -0.042240925 -0.11086277 -0.21873535 0.12913261 -0.2096336 -0.25293845 0.096275516 -0.1000877 -0.117391035 -0.23292667 -0.15943335 0.013291805 0.09325832 0.23267144 -0.25391743 -0.026662787 0.1521252 -0.1062375 0.21722269 0.17916544 0.2505792 0.11581705 -0.20238271 -0.064051226 -0.18852212 0.29039636 -0.23256356 -0.20119257 0.16746253 -0.16487081 0.2271446 -0.25258467 -0.1939999 -0.17815234
246184 0.10036174 0.12586306 0.18641324 0.24701142 -0.11450108 -0.14964949 0.25241596 0.20873342 0.18034993 -0.17223968 -0.038291465 0.11805949 -0.0037021805 0.08440579 -0.26543373 -0.0050011952 -0.09685028 0.186763 0.11962847 -0.013941515 0.04047233 0.20501631 -0.053088836 0.078218356 0.17105564 -0.030728959 -0.0854506 -0.0049954406 -0.08414377 0.08628466 0.10331373 -0.061837014 -0.12087035 -0.24687892 -0.17581354 -0.076850824 0.04207155 -0.21149077 0.048683938 0.13385855 0.22449118 0.08099287 0.18847448 -0.048934106 -0.06976116 0.03967404 0.025709407 0.084797 -0.07657832 0.0888204 -0.23025164 -0.19500422 -0.11777644 0.12544352 -0.2382527 0.05320497 0.16066574 -0.071524926 0.034657657 0.012147087 0.16348383 -0.24449965 0.07174007 -0.011873001 0.21391737 0.03722337 0.3064233 -0.22715718 0.15558459 -0.2783267 0.32875702 -0.18253092 -0.18020102 0.13927379 0.20266066 0.14349015 -0.21718682 -0.27851316 0.13497025 0.13884163 -0.2613707 0.07594145 0.11368092 -0.41042086 -0.061244454 0.03634178 -0.18848479 0.12685712 -0.43527344 -0.33240604 0.18515146 0.21318536 0.11661324 -0.107078046 -0.05364946 -0.2619243 -0.20791654 -0.09725645 -0.28156808 0.010544678 0.12512445 -0.1437375 -0.13056323 -0.13158967 -0.30273673 -0.141014 0.22823717 0.10497464 -0.2181472 -0.034971792 0.080082804 -0.21632816 0.29437754 0.5107708 0.062650405 0.045738373 -0.15972057 -0.09074811 -0.19927879 0.21493873 -0.2885085 -0.098957606 0.18734589 -0.223408 0.06927751 -0.16781934 -0.091174945 0.07884914
51434 0.10625507 0.27052322 0.14845167 0.31397772 -0.14317952 -0.18347499 0.3762776 0.18171832 0.14267936 0.105702765 -0.01506771 0.10266439 0.13983306 0.042979136 -0.21124713 -0.076660536 -0.07070877 0.1634441 0.043014225 0.021596119 -0.051376864 0.16651888 -0.06958095 0.04029719 0.15526676 -0.17340116 -0.13182683 0.036741618 -0.064067304 0.056326732 0.13287859 -0.13196 -0.05803096 -0.2582282 -0.2219821 -0.22105888 -0.020143736 -0.19938119 -0.19569696 0.052838326 0.21532781 0.08253243 0.19800116 0.054107297 -0.099039376 0.020293774 0.02736011 -0.015630677 -0.10153839 0.15202007 -0.24253601 -0.16791902 -0.04298569 0.054689985 -0.2766649 0.060547527 0.13494986 -0.11915559 0.09806408 0.1351238 0.13238327 -0.16701423 -0.028572509 -0.0880247 0.19423813 0.03763457 0.32617366 -0.22333254 0.21505384 -0.23940088 0.23277767 -0.1967727 -0.14014007 0.1210904 0.23077063 0.11885074 -0.11209675 -0.33023685 0.11466494 0.12329238 -0.26961654 -0.051238675 0.07541012 -0.29653543 -0.089000955 -0.016356353 -0.19625162 0.18856415 -0.39253715 -0.2526944 0.23660496 0.3101984 0.09043396 -0.22573273 0.05745332 -0.25399342 -0.21636178 -0.081824236 -0.21049635 -0.091389574 0.16191292 -0.20914008 -0.09093509 -0.124093115 -0.30694196 -0.08171411 0.14698604 0.008979369 -0.24859281 0.017259538 0.08495819 -0.29987925 0.28581238 0.4633155 0.09480811 0.14140424 -0.21657218 -0.17714421 -0.16053729 0.17788151 -0.25668925 -0.13160393 0.21316859 -0.29229233 0.10805125 -0.12339192 -0.074544266 -0.06212116
5469 0.0071124593 0.24094245 0.05972545 -0.18969885 -0.16243914 -0.16885686 0.022110885 0.07766547 0.0007297996 -0.13294964 -0.0068916995 0.01202773 -0.05197836 0.11869816 0.020433858 -0.11453633 0.052635454 0.08439746 -0.06892963 -0.14838073 0.021531297 0.028959254 -0.004610113 0.07799792 -0.06850839 -0.022861585 -0.23676169 -0.059410643 0.04485864 0.080948435 -0.11747319 -0.08925818 -0.080521174 0.019456157 -0.07622268 0.13374178 -0.008876722 0.027287042 0.19273053 -0.16983089 0.07389734 -0.12670287 -0.06014571 -0.032682717 -0.016099123 -0.015440795 -0.08952639 -0.04998721 0.08142429 0.04498308 -0.17002383 0.14421795 -0.011105848 -0.056237623 0.015705913 -0.057202708 0.021861468 -0.15934595 0.119563475 -0.12136149 0.120686166 -0.17126034 0.09378286 -0.028466037 0.17134531 0.23970798 0.17289677 -0.18249354 0.23396304 -0.20244767 0.18511236 0.14045028 -0.117771454 0.21298298 0.23196381 -0.10117542 0.4340769 -0.2854702 0.06898685 0.2653266 -0.16644585 -0.187066 -0.4068633 -0.37237683 -0.18214211 0.012449581 -0.2041624 0.13732451 -0.13490312 -0.1133201 0.10188998 0.3113506 0.19889861 -0.13894849 -0.018153206 -0.17243972 -0.21701334 0.024952369 -0.24599464 -0.16918729 0.32656467 -0.2654079 -0.07937342 -0.1376463 -0.22750643 -0.342796 0.047656864 0.07550669 -0.1830526 -0.15881747 0.26313084 -0.19768766 0.25624722 -0.013325954 0.23449461 0.24991953 -0.18730167 0.05229601 -0.17275065 -0.028528402 -0.23153031 -0.27004236 0.14917731 -0.3696446 0.14276843 -0.10934427 -0.041586895 4.6811445e-05
10014 -0.14904714 -0.06699966 -0.040442802 -0.16778843 0.10721032 -0.021005813 0.053172298 0.02008629 -0.09035438 0.17334181 0.06793697 0.08360435 -0.203235 0.07958072 0.110941425 0.3437014 0.029036174 -0.10843141 -0.096600235 -0.22516681 0.07134874 -0.2434256 -0.10638474 0.14848718 -0.006489574 0.011990185 -0.18847452 -0.14005786 0.009556978 -0.27813432 -0.012797571 -0.07011633 -0.07685512 0.10904268 -0.025842227 -0.18982476 -0.237101 -0.13208586 -0.07724534 0.23986149 -0.04178556 0.10559314 0.14251906 0.060152274 0.19276763 -0.14971824 0.09855836 -0.12791212 -0.11397414 -0.13368003 -0.06955188 0.007107244 0.01954046 0.10957768 -0.09525961 0.040160775 -0.10155367 -0.106119104 -0.16810736 -0.10331873 0.038440205 0.033131216 0.07177924 0.0106989145 0.2838333 0.21997821 0.09565768 -0.18698473 0.24021545 -0.28711456 0.19052836 -0.00018803946 -0.23758607 0.28868857 0.26010984 0.1727427 0.029838005 0.10981624 0.07491027 0.16650458 0.047373194 -0.12771413 0.0856579 -0.13403727 -0.13928396 0.10846357 -0.2078952 0.21493036 -0.15329136 -0.2063136 0.23846146 0.19944426 0.1635198 -0.15748788 0.012644741 -0.2144175 -0.21629202 0.01902985 -0.12479182 -0.30466568 0.14357893 -0.27737707 -0.1342705 -0.30214706 -0.20226307 -0.16967465 -0.022318011 0.07035099 -0.26028335 0.0019079446 0.15427002 -0.28911608 0.22491746 0.0015242128 0.2894367 0.20875932 -0.14547959 -0.2877484 -0.20414785 0.13310194 -0.14826804 -0.2600077 0.22717223 -0.19823061 0.16438897 -0.2837723 -0.22565736 -0.09764664
7037 0.046048403 -0.21989484 0.050437786 0.06938741 0.104711644 0.22666846 0.019846182 0.07233387 -0.010177625 -0.15432796 0.0960727 -0.07916168 0.11111301 -0.049595695 -0.045198143 0.1752574 0.008850182 -0.017088566 0.021865448 0.055055443 0.027097665 0.11477023 -0.0036031066 -0.08188164 0.022414377 -0.115339264 0.1543332 -0.19684494 -0.11237084 0.13941972 -0.042009067 0.036739025 0.10940935 -0.044598572 0.20561805 0.090555534 0.17915592 0.15409148 -0.04701896 -0.07006403 0.056174334 0.16571155 -0.02669489 0.07611144 -0.08355748 -0.049843036 0.11697603 -0.124336794 0.1321597 -0.062950894 -0.0018342679 -0.006483987 0.080626994 -0.011477247 -0.0059245955 0.096622035 -0.070191026 0.1582998 0.07756876 0.060369942 -0.17030956 -0.10439408 0.022629917 0.012572038 0.26455778 0.25366426 0.17454945 -0.2270976 0.28816077 -0.2034035 0.21688026 -0.07724168 -0.25992942 0.16270988 0.19789232 -0.15819533 -0.15499747 -0.13937946 0.20760769 0.24361707 0.0901655 -0.19064952 0.0024448289 0.078745395 -0.1378533 -0.16689184 -0.2154856 0.12622905 -0.1746415 -0.19224514 0.10577832 0.12753041 0.18803456 -0.15628633 0.12747127 -0.20721148 -0.15297064 0.15614882 -0.16210368 -0.22479056 0.07358696 -0.1695078 -0.10890198 -0.2483409 -0.16945332 -0.039714657 0.071048535 0.044303052 -0.20079155 -0.14041647 0.19566941 -0.15162759 0.2078899 0.15658958 0.14538991 0.20144749 -0.11792538 0.22733544 -0.29071578 0.21696353 -0.081063665 -0.26970425 0.17954385 -0.07206073 0.26068273 -0.2709806 -0.20668527 -0.22203203
10672 -0.022364436 -0.057931714 0.0150152845 -0.03181055 0.083568 -0.0064982297 0.029374046 0.059701353 -0.110493936 0.051406305 0.17552866 -0.013997443 0.20311742 -0.16112433 -0.13351946 0.030875253 0.21723035 -0.104185596 0.10869834 -0.13207172 0.09172138 0.03385926 0.26180485 0.010929233 0.021393137 -0.07109589 -0.00072491594 -0.05008613 0.06794825 0.018025808 0.030369822 0.035394292 -0.055130824 -0.061931856 0.11880811 0.08783653 -0.070986815 0.0015606155 -0.059499267 -0.08992644 0.119736426 -0.018658422 -0.090016544 0.03970581 -0.11908129 0.052397635 0.09695224 0.028998848 0.004665248 0.06815477 -0.05350797 -0.048503604 -0.067387186 -0.10010493 -0.022442851 -0.054887414 -0.08398078 0.11656221 0.094743475 0.019168118 -0.11073703 -0.15462004 0.09988022 0.022476226 0.1855008 0.21059082 0.15059556 -0.22380711 0.2464525 -0.21439888 0.18520907 -0.13012317 -0.24474712 0.20687217 0.18990107 -0.22894607 0.18812922 -0.034184042 0.14901431 0.2126116 -0.10923462 -0.23742038 -0.10646671 0.114662424 -0.163733 -0.17767493 -0.24755813 0.059505414 -0.15328257 -0.21539249 0.11682504 0.2550441 0.23393868 -0.1209327 0.14864838 -0.15751718 -0.24080278 0.25100166 -0.17380415 -0.19512138 0.11132855 -0.122895546 -0.15189101 -0.10309726 -0.17213482 -0.032531448 0.05360482 0.07262156 -0.19315809 -0.10128322 0.18508407 -0.15800333 0.18377464 0.15437987 0.1266901 -0.09728245 -0.08986496 0.16136762 -0.20536515 0.2681016 -0.07459701 -0.15646562 0.13390101 -0.14009358 0.12102798 -0.2386708 -0.10742327 -0.24774404
7046 0.25309983 -0.1903645 -0.038110804 -0.18271476 0.082684636 -0.045568764 0.14098017 -0.018334948 -0.1885495 -0.11851579 0.02897376 0.058385737 0.11543265 -0.20017736 -0.030705111 -0.009166046 0.03931243 -0.20693906 -0.1508467 -0.030376013 0.09612193 0.23327854 -0.008391975 0.09282023 0.09212691 -0.010781508 0.027568804 -0.12141073 0.13882817 -0.025822021 0.14991258 -0.045785613 -0.035154555 -0.12600999 0.094810955 0.01205426 -0.16230561 0.039714213 0.07790057 -0.12688617 0.25477085 -0.061477646 -0.048835672 -0.010426626 -0.0103226835 0.15107733 0.096789 0.1553014 -0.059334856 -0.06643686 0.06698555 0.024258086 -0.19196384 -0.04408574 -0.09248662 0.14227019 -0.03262164 0.12696938 -0.009555208 -0.025039498 -0.07986224 0.04418336 -0.04359614 -0.08726675 0.24264252 0.14632644 0.16705135 -0.29977363 0.23938903 -0.2013431 0.2021695 -0.18370262 -0.14870884 0.23457149 0.19966185 -0.42419252 0.099832684 -0.004986369 0.15221795 0.22600201 0.12726417 -0.19094968 -0.08689253 0.094713144 -0.23684835 -0.07194968 -0.23781495 0.13320607 -0.12001967 -0.18412267 0.13086045 0.26544794 0.16597876 -0.19606532 -0.10049616 -0.085300386 -0.22770081 0.2652926 -0.23543854 -0.031256784 0.2085055 -0.07641016 -0.06006506 -0.20428915 -0.1670998 -0.022633731 0.118966945 0.04819235 -0.22790654 -0.08256459 0.23778106 -0.14142135 0.19295014 0.3720696 0.2073504 0.12858246 -0.13484347 0.29815364 -0.2535345 0.24745893 -0.19475964 -0.21449709 0.23722355 -0.10890583 0.10561897 -0.16454771 -0.21942385 -0.06977465
26227 -0.031665016 -0.13941759 -0.046770476 0.03186946 -0.053298492 -0.0032605836 -0.060314827 -0.018905438 0.14770986 0.10718606 -0.0030008743 0.044587776 0.041913792 -0.019482112 0.15089586 0.0018914363 -0.10168605 0.038378686 0.0757695 0.087048426 0.0568162 -0.0902783 -0.010532611 0.029775482 0.0266795 -0.04619339 -0.10120576 0.0020017012 0.0018184814 -0.035779327 -0.11999029 0.024972396 -0.020385748 -0.056634128 0.05629549 -0.08188684 0.07927823 0.032161634 0.15150325 0.008396027 0.02519134 0.074071884 0.13080654 0.19775863 0.049941696 -0.04919383 0.032394048 0.037916463 0.00064932765 -0.16871117 0.03301097 -0.12326367 0.027532063 -0.14894097 0.111501254 -0.0034823976 -0.031482138 0.13581242 -0.07838974 -0.0055767433 -0.18761177 0.04404033 -0.03372237 0.048060346 0.21385469 0.22056042 0.16111127 -0.2113536 0.22517063 -0.16937134 0.18141381 -0.3454137 -0.1742791 0.3057366 0.12790044 0.07652231 -0.12898919 0.058502685 0.19730963 0.30572045 -0.20211574 -0.100146644 -0.12408322 -0.02744287 -0.126834 -0.0959949 -0.20471409 0.19168568 -0.16514224 -0.17113058 0.1796997 0.21377766 0.15164314 -0.23815909 0.17403841 -0.20759168 -0.18266293 0.21957242 -0.13490431 -0.1990099 0.17573991 -0.18849044 -0.20210056 -0.19899999 -0.24718925 -0.08441657 0.055653974 0.15529294 -0.27253622 -0.13288577 0.099503726 -0.2244831 0.24580443 0.07762661 0.17335966 0.20823196 -0.18105601 0.06389505 -0.24124785 0.106707685 -0.17456912 -0.08036179 0.22290032 -0.13011515 0.22197613 -0.11242193 -0.1670468 -0.21694426
2885 0.099360496 0.10818855 0.150381 0.023373775 -0.039662756 0.1940898 -0.043901086 -0.0549165 -0.22316702 0.26481256 0.19766288 0.1363334 0.116520464 -0.029223636 -0.18965395 0.13643588 0.14050488 0.097218625 0.18233861 0.09734024 0.06650952 0.0031657575 0.21502511 0.08905063 0.21324167 -0.0650743 0.17438264 0.06782419 0.050985996 0.061494164 0.23870258 -0.026772665 0.012918158 -0.22742577 0.14463653 -0.20529291 -0.0032481754 0.04590905 -0.20503478 -0.15164986 -0.27255645 -0.017509833 0.04775262 0.24624814 -0.17686135 0.07822677 0.28687084 0.12491459 -0.24248181 -0.026740579 -0.16802922 0.19527127 0.2316273 -0.08228583 0.16470285 -0.027253738 0.120435916 0.18876591 -0.18679656 0.14603709 0.025214417 0.11619716 -0.08639616 0.11223736 0.2650377 0.3290583 0.23198132 -0.25263676 0.18696804 -0.2634683 0.11772657 0.115536645 -0.08771919 0.37969083 0.17832515 -0.006223438 -0.08076747 0.22894883 0.130564 0.27776617 -0.083832644 -0.13373075 0.20352289 0.17804074 -0.24090604 0.0820636 -0.24384923 0.19714254 -0.27303678 -0.07730823 0.06218068 0.2538786 0.2872741 -0.06261921 0.2562975 -0.20832871 -0.32276645 -0.018923126 -0.13877967 -0.10019762 0.14625874 -0.24189648 -0.021975089 -0.2843304 -0.18496722 -0.057482805 0.034036458 -0.041214626 -0.22721453 -0.060406722 0.26850122 -0.10294309 0.32033032 0.031574357 0.21390639 -0.18728682 -0.08641371 0.106838904 -0.25375733 0.06904284 -0.09355147 -0.21554387 0.19780593 -0.16933583 0.17996396 -0.2713111 -0.119648874 0.043070395
6602 -0.049363323 0.010832841 0.07944565 -0.1540605 -0.044017322 -0.12734674 -0.033469282 0.13374501 -0.15440664 0.14926776 0.06750659 0.063520506 -0.06386443 0.1313226 -0.15045577 0.19091985 -0.13710923 0.13541265 0.045233693 0.014939922 -0.018885259 0.012493577 -0.06892528 0.08487153 -0.011986458 -0.058969855 -0.15450323 -0.06871664 -0.034180813 -0.063730784 0.13077983 0.13126622 -0.070741184 -0.17173366 -0.039098546 0.12357886 -0.2438696 -0.010669311 0.15036692 -0.05787444 -0.02396585 -0.22135714 -0.166523 0.06038303 -0.11431983 0.051892366 -0.08209359 -0.09059345 0.10580364 0.027790312 -0.09752034 0.113906726 -0.030386997 -0.033949 -0.061997563 0.06304168 -0.0018121979 -0.1916692 -0.04719686 -0.16271421 0.09628891 0.03739551 0.15119556 0.16849624 0.28606722 0.3407246 0.103521794 -0.10488028 0.23814045 -0.27065733 0.21743649 0.12024858 -0.053280417 0.21821766 0.22803617 0.05439031 0.41601822 -0.3292442 0.04927613 0.18727589 -0.13068831 -0.20661315 -0.14680272 -0.07724877 -0.29766098 0.01771699 -0.19475019 0.16070828 -0.1535014 -0.168093 0.16462258 0.28298274 0.113943756 -0.14666383 -0.014489442 -0.19328171 -0.23738158 0.16964184 -0.17109644 -0.18919899 0.25171107 -0.21044451 -0.10332834 -0.19629154 -0.16782086 -0.204767 0.037528444 0.16144666 -0.28730452 -0.21067059 0.19308667 -0.17241928 0.36370546 0.022880016 0.18193486 0.18821251 -0.14418061 -0.10800265 -0.15007226 0.057379495 -0.22704105 -0.2616868 0.11671372 -0.13685971 0.18328428 -0.18276405 -0.09192864 -0.09849522
64599 0.046760168 0.015104484 -0.10271753 0.077244796 0.08877042 0.010362184 0.14457135 0.025494188 -0.07811812 0.14592032 -0.10690007 0.01861537 0.0003411169 -0.038047526 0.043212473 0.1424045 -0.0844161 -0.02370396 -0.11717896 0.08136376 -0.017476236 -0.053545345 -0.15822607 -0.15202092 -0.0014019115 -0.023820305 -0.037329547 0.028174827 -0.09827222 0.05645291 -0.0033682447 0.14615342 -0.12464262 0.021961063 -0.054293692 -0.0057278443 -0.0011796323 -0.08015034 -0.16466488 -0.07796514 0.046793718 0.1466307 -0.0058639036 0.07621969 -0.032130614 0.04676204 -0.16393119 0.114885665 0.124027215 0.011815985 -0.13748658 -0.024717761 0.013124135 -0.16971838 0.08863605 -0.058160454 0.13471949 -0.062104527 0.044571493 -0.16337071 -0.1260154 -0.0024849297 0.029425053 0.1537807 0.16002262 0.24284054 0.22199336 -0.25363278 0.18282346 -0.17769675 0.054647524 0.03491014 -0.15596594 0.20029823 0.09179188 -0.036351867 0.12594579 -0.00902974 0.16553861 0.22616944 -0.11956679 -0.16104127 -0.053547114 -0.059358176 -0.17584454 -0.22222465 -0.17353906 0.09576096 -0.15967698 -0.101691954 0.1516216 0.22004563 0.20186372 -0.1163246 0.1130438 -0.23041028 -0.2636987 0.25169858 -0.108666286 -0.24140826 0.16179954 -0.08166304 -0.18120769 -0.18651742 -0.09351212 -0.102354415 0.1566548 0.06397911 -0.211935 -0.25526223 0.16490309 -0.17216812 0.1191173 0.008548225 0.11921879 0.14273743 -0.17590134 -0.03518279 -0.13851583 0.11954421 -0.14626296 -0.273029 0.16777349 -0.2178896 0.116397984 -0.15253176 -0.07632836 -0.16088533
6772 -0.036392204 0.003945289 -0.058645196 -0.18022183 -0.14560734 0.11736046 -0.014673636 0.21995206 -0.12421503 0.022590838 0.095287524 0.07139754 -0.034575485 -0.1338417 0.111361414 -0.09117617 0.004465236 0.058911644 0.2543995 0.11090981 0.19893509 0.16188517 0.088768065 0.3256383 0.20058644 0.15087405 -0.04167474 -0.15447599 -0.034763183 0.083537996 0.020541439 0.00980998 -0.11418421 -0.027005184 -0.059992097 -0.011123053 0.008982937 -0.009972367 -0.011453333 -0.03898334 0.107040234 -0.046260014 -0.09542108 0.089315526 -0.12748003 0.092469834 0.027679307 0.0039930115 0.0833055 0.022285473 0.117000386 0.0075506177 0.07479117 -0.08045034 0.19188467 0.10497977 0.069620535 0.09910351 -0.0017427055 0.11475879 0.08425038 -0.056492466 0.11464226 0.14897409 0.20721565 0.28102365 0.2774079 -0.18484217 0.23153792 -0.3283207 0.21076469 -0.17979631 -0.14428483 0.24679448 0.22910726 -0.019669324 0.15664348 -0.008004777 0.1051191 0.19003908 -0.041558813 -0.19953674 -0.1783627 -0.022988431 -0.21916118 -0.15582944 -0.2206446 0.13724019 -0.22235334 -0.14465503 0.18192321 0.20965551 0.15011846 -0.1423024 0.053680327 -0.2110054 -0.2976709 0.12016596 -0.10311265 -0.21909647 0.08894328 -0.25223872 -0.14288087 -0.16217992 -0.23785354 -0.016334513 0.17733099 0.07456631 -0.19180048 -0.04933487 0.23010135 -0.20064788 0.18706626 0.051212113 0.1432349 -0.18396562 -0.26812375 0.27100307 -0.27399626 0.06447142 -0.04881236 -0.23551638 0.21936725 -0.14867987 0.10607747 -0.27931008 -0.024735322 -0.071837366
7852 -0.027565017 0.07794862 -0.0065334006 -0.14927329 0.02549114 0.019644465 0.022016482 0.08316999 -0.08657238 -0.118669346 0.15826496 -0.046701863 0.14831239 -0.12817772 0.016636124 0.033507075 0.16973466 0.114144385 0.22863178 0.20172389 -0.024158567 0.009674506 0.21012396 0.04219852 0.038510486 -0.0666274 -0.06786248 0.057243403 -0.04712837 0.031800203 0.03923357 0.07492462 -0.0040138597 -0.11287751 0.06523748 0.09296029 -0.06674828 0.11168143 0.1177927 -0.20506822 -0.09783253 -0.09011735 -0.13786013 0.010140032 -0.031226888 0.19716056 0.0017155675 -0.056735095 -0.12567669 0.10366437 -0.013838934 0.010180633 -0.050958123 -0.11585155 -0.04794504 -0.13423441 -0.018600037 -0.0042850985 0.03074901 -0.042354137 -0.16324215 -0.18955463 0.10797659 -0.23620906 0.18876801 0.27533153 0.20605576 -0.2047575 0.23604174 -0.14612825 0.15067557 -0.13505101 -0.24192113 0.19143304 0.20924081 -0.2712749 -0.097898245 -0.14525095 0.12039069 0.18255503 -0.0660031 -0.21490633 -0.004744559 0.13369769 -0.1657567 -0.19042835 -0.17051221 0.10711221 -0.23655169 -0.10391764 0.18197496 0.23540045 0.23689388 -0.17330761 0.3067849 -0.18948823 -0.17575414 0.17069529 -0.1593616 -0.20687263 0.069640785 -0.1852565 -0.07111777 -0.100801274 -0.14734577 0.00020483913 0.2467845 0.07790723 -0.20776536 -0.15483439 0.32209685 -0.06366152 0.27066502 0.1500867 0.08386786 -0.10632985 -0.17355333 0.15615414 -0.22097246 0.21236154 -0.031287253 -0.2108673 0.14835928 -0.120739534 0.26982173 -0.2911584 -0.13112697 -0.13427944
2624 -0.19311744 -0.104227476 -0.030586062 -0.17200364 -0.14661802 -0.23346944 -0.10850287 0.022424897 0.0990134 0.14117289 -0.15917625 0.013939928 -0.14070022 0.0468927 0.06403316 0.05823209 0.12988362 0.08121783 0.069338776 -0.13809367 -0.035341308 -0.016388923 -0.10344112 0.1096873 -0.12004232 0.21266378 -0.1220276 -0.14638215 0.08365503 -0.091208234 -0.03220967 -0.020450398 -0.1877306 -0.01907958 -0.01256873 0.003714958 -0.18233274 -0.044742804 0.10344784 -0.013480287 0.17278089 -0.1276248 -0.025215238 -0.05829978 0.080520116 0.18361196 0.01705831 -0.1355071 -0.03646738 0.049321283 -0.119231515 -0.110999264 -0.049407534 -0.07455814 -0.037072092 -0.14211483 -0.16154745 -0.017915787 -0.02517133 -0.09788286 0.12573647 -0.104495704 -0.0034374665 -0.07348149 0.18980989 0.25187156 0.17572816 -0.16794708 0.24104111 -0.20073704 0.25589168 0.08716589 -0.07095569 0.22141136 0.23709778 0.053215798 0.24830018 -0.22789763 0.22154474 0.26236075 -0.009266427 -0.15934075 -0.31745088 -0.2965654 -0.17297496 -0.07012308 -0.2452894 0.13836859 -0.13236731 -0.20150132 0.2784495 0.21908425 0.118487075 -0.12117232 -0.08494722 -0.1929273 -0.23739897 0.10081121 -0.23049259 -0.24764709 0.17389655 -0.20154618 -0.10724665 -0.17794651 -0.1288621 -0.20969564 0.18925 0.17665657 -0.25467426 -0.114501834 0.1652753 -0.290106 0.26695558 -0.06921804 0.17083183 0.13999248 -0.118130066 0.019801347 -0.19729286 0.14353538 -0.17518492 -0.24380274 0.20505267 -0.22751062 0.24699724 -0.11546427 -0.10636965 -0.026852868
161882 -0.05572862 -0.07397067 0.08931283 -0.06567312 -0.06526135 -0.17711248 -0.11379347 0.01937721 0.13026111 -0.017625635 0.027754199 0.08150817 -0.0013084988 0.08425655 -0.09995596 0.08377411 -0.10263715 0.029624406 -0.015656697 -0.10989752 -0.04218861 -0.026414566 0.082818136 -0.004162397 -0.15386344 0.054812483 -0.1260519 -0.06236685 -0.007116446 0.048943404 0.11597357 -0.17407584 0.008353694 0.0058530676 -0.09191363 -0.0045645214 -0.10142733 -0.05068694 -0.04140628 0.04292652 0.10147725 -0.20080376 0.103367075 0.048654262 -0.026771355 0.114344195 -0.04450905 -0.07767086 -0.013856847 0.087247744 0.06564326 -0.0567247 -0.15075633 0.16643564 -0.06343988 -0.07692549 -0.047410786 -0.021214299 0.105179265 -0.047184277 0.10843932 0.04984112 0.06828926 -0.10133488 0.15784036 0.16576771 0.11726037 -0.14631517 0.1954826 -0.17402907 0.19816332 -0.011956059 -0.15250231 0.13938226 0.1892451 -0.0060469834 0.19008176 -0.061300896 0.19892597 0.21008374 -0.110669255 -0.1126921 -0.15963875 0.032371633 -0.11815529 -0.21386392 -0.18269725 0.13245243 -0.0610673 -0.18505785 0.16921775 0.17586483 0.099844255 -0.06593981 0.029692529 -0.14120308 -0.20825478 0.05473777 -0.081428915 -0.16887806 0.15887603 -0.11872375 -0.17789002 -0.10967173 -0.06601765 -0.1829288 0.15265107 0.089521684 -0.15856333 -0.17543866 0.17308618 -0.21431877 0.21672858 -0.021349043 0.18200888 -0.035017487 -0.10044921 -0.0067627556 -0.15976284 0.11701962 -0.25332147 -0.23791979 0.15932103 -0.14092115 0.17940526 -0.12567055 -0.185521 0.043689508
55832 0.008907364 0.02459455 0.04592418 0.11030317 -0.0624038 0.013819419 -0.032064762 -0.11461063 0.2557753 -0.0027690865 0.031962827 -0.049844667 -0.07359316 0.036703385 0.086281165 0.08564193 -0.1807196 -0.048295252 0.10979686 -0.11583129 0.10297551 -0.2727577 -0.17700118 0.11885313 -0.00022290653 0.08095121 -0.12279484 0.040042434 0.098621085 -0.095975004 -0.13460733 0.27185342 -0.13528572 0.09622718 0.15504164 -0.3081412 0.19868429 -0.08044262 -0.16921234 0.2622405 -0.2882497 0.16131513 0.22128208 0.062743515 0.15769076 -0.06195865 0.14078061 0.027629767 0.12727281 -0.22720857 0.0069784108 -0.18135765 0.20593186 -0.061825812 0.056957323 -0.11261945 -0.004377765 -0.050272822 -0.18557793 -0.046736978 0.0034644469 0.16691658 -0.10746775 -0.08719897 0.23797275 0.28315976 0.06618111 -0.23315574 0.25359178 -0.30406657 0.18777731 0.07837579 -0.028277209 0.2224419 0.30149257 0.05148108 -0.34746295 0.15680563 0.046691224 0.19768047 0.1714673 -0.25053054 0.08421048 -0.059985332 -0.21005121 0.15471162 -0.25036985 0.31390685 -0.16176908 -0.15570538 0.18615448 0.17619044 0.11506216 -0.21102145 -0.045955416 -0.2882102 -0.27762985 0.10132049 -0.096791364 -0.2867427 0.23077938 -0.19784066 -0.116656765 -0.1842865 -0.220056 -0.17968701 -0.08997937 0.023744404 -0.23149055 -0.18638815 0.119683966 -0.22035569 0.30439913 0.01511542 0.2312409 0.14784695 -0.170779 -0.16913974 -0.23158151 0.18631591 -0.15702921 -0.26258224 0.07918398 -0.23169826 0.24289237 -0.25859892 -0.096817575 -0.065998204
1832 -0.1522784 -0.12180299 0.018210154 0.015585616 0.06269746 -0.13064016 -0.13851257 -0.18590936 -0.0413672 0.11983982 0.019709973 0.05435567 0.009136758 0.06380932 0.1341776 -0.06697779 0.06752252 -0.10564087 0.15190926 0.0051657856 0.0011979353 0.022997068 -0.10594094 0.019368855 -0.09657523 -0.05943637 0.1483469 -0.1077738 0.039871097 -0.010598585 -0.049494162 -0.09746611 0.13180734 0.07878222 -0.08579908 -0.0041848025 -0.08295719 0.12632535 -0.05087763 0.058101088 -0.017842965 0.18795498 -0.02399218 0.17708163 0.06142742 -0.10213019 -0.18656805 -0.044188738 -0.0031334274 -0.005463524 -0.028306931 -0.09311971 0.08355952 -0.093900226 -0.04703882 -0.22913958 0.114918835 0.054987673 -0.036673326 -0.013577911 -0.11616612 0.022163019 -0.013881259 0.086111896 0.15659088 0.14943644 0.10227159 -0.22350934 0.27554527 -0.3387257 0.22411981 -0.078767724 -0.16576806 0.28419694 0.27188203 -0.049782924 -0.07961252 -0.023656458 0.14990415 0.12883413 -0.0133282365 -0.297795 -0.14883731 0.070039436 -0.17084418 -0.1442394 -0.23219754 0.20008203 -0.24453814 -0.22154045 0.11802999 0.19569069 0.24880736 -0.114105485 0.17858502 -0.16709866 -0.17838527 0.03516506 -0.12649906 -0.15004355 0.12518589 -0.17893532 -0.11553623 -0.21291609 -0.17614451 -0.0747079 -0.03902271 0.18929365 -0.31352276 -0.15455413 0.112219475 -0.12798151 0.28153953 0.028454058 0.16590554 0.09079862 -0.20604253 0.08944687 -0.17934944 0.17807607 -0.24390835 -0.16790186 0.15839377 -0.19317117 0.2364613 -0.21282741 -0.12997155 -0.22871624
5501 0.065612584 -0.14583188 0.045516513 0.0016031713 -0.13043599 0.20353109 -0.10734823 -0.10166306 -0.072025254 0.08828238 0.14997892 0.11735338 0.013591694 0.08792952 -0.07546142 0.026636655 0.12151846 0.03440294 -0.017752044 -0.04961642 0.017174236 0.0013723102 0.1183711 0.1735917 0.07995659 -0.13201874 0.015194013 0.17088096 -0.035365757 -0.08518534 0.041077442 0.06613235 -0.05208822 0.015416438 -0.12557478 0.11740439 0.03195636 0.08369829 0.030171458 -0.024533022 -0.081199236 -0.026955888 -0.14357924 -0.23216838 -0.21413662 0.11471525 0.097894885 0.0018278363 0.021753209 0.23854323 0.027046017 0.020627232 -0.019491717 -0.03629108 0.13204917 -0.14673367 0.004934616 -0.0192132 0.00047114628 0.042619355 -0.11740071 0.113119274 0.10334887 0.03571485 0.1935256 0.1824235 0.12241617 -0.2143783 0.1952778 -0.23718378 0.18511148 0.07429773 -0.06695484 0.27907944 0.1734186 -0.05354685 0.16126692 -0.00986876 0.14988652 0.18242522 -0.18951075 -0.1137469 -0.15251495 0.014588897 -0.29100028 -0.07792797 -0.18608886 0.18251744 -0.22179273 -0.19926839 0.15454762 0.21196862 0.21726099 -0.22134191 0.09269835 -0.21566859 -0.24508464 0.09798202 -0.24536794 -0.14083014 0.19556198 -0.23967142 -0.09883885 -0.20856982 -0.1988192 -0.060208097 0.05026874 0.09477967 -0.22228034 -0.2504731 0.16203013 -0.18740198 0.15657285 0.124133945 0.22042155 0.02878517 -0.09650747 0.044699896 -0.24072011 0.06976135 -0.08342351 -0.11664121 0.25375602 -0.27164903 0.25668663 -0.21329933 -0.09079043 -0.045438915
351 0.2950155 -0.08517558 -0.21285129 -0.098423295 0.02642416 -0.057770308 -0.0010491738 0.09907498 -0.012988471 -0.14670034 0.12624337 0.30600485 0.030539468 -0.05704075 -0.25067726 -0.11603879 0.09439162 -0.030407717 -0.019518843 -0.06408981 -0.105731 -0.056347385 0.15841427 -0.2804865 -0.26316878 -0.030838426 -0.028775124 0.34543636 0.035921283 -0.03421519 0.054915026 0.22036591 -0.00074742985 0.14012179 0.09517073 -0.03462352 0.262974 -0.04327109 0.2703489 -0.24371603 0.14693324 0.03331252 -0.14744142 0.050848067 0.039245978 0.13355748 0.17879269 0.12800498 -0.13553922 0.00082461373 0.17349955 0.06942975 0.10424665 -0.21739434 0.07150362 0.054648105 -0.017206933 0.034143616 0.091666795 0.21360445 -0.11447393 0.054495897 0.14342502 -0.09928369 0.20509115 0.30592504 0.10762115 -0.2637213 0.26627272 -0.14356776 0.16794486 0.028114002 -0.08883337 0.28355947 0.192187 0.08630152 -0.023534473 0.10893678 0.2105943 0.18570542 0.099486336 -0.12952009 -0.062107403 0.2036713 -0.2306076 0.090498686 -0.21276884 0.16724464 -0.20850997 -0.213444 0.17893791 0.31951714 0.2992771 -0.09117252 -0.14702828 -0.12911776 -0.2709873 0.07842513 -0.30105367 -0.12461351 0.11955739 -0.2126916 -0.038219213 -0.1316733 -0.10184205 0.078695394 0.15749687 -0.0074256468 -0.29389712 0.0036535591 0.09452172 -0.1328703 0.2665366 0.1505051 0.23450737 -0.12305223 -0.10841654 0.017367356 -0.19949597 0.22694184 -0.15318827 -0.20697701 0.1290676 -0.24793106 0.24667773 -0.21023425 -0.13920322 0.11871425
23081 -0.2075603 -0.11460137 -0.03577218 -0.10263357 0.056997262 0.048734102 -0.09931295 0.15318018 0.048654962 0.10116497 -0.004220381 -0.099826425 -0.1109781 0.15246111 -0.03408418 0.07860448 0.13012746 0.07693756 0.025523413 0.08647917 -0.06567168 0.026453817 0.037848134 0.049689695 0.04450607 0.02362521 -0.032191165 -0.09638832 -0.042858023 -0.033562336 -0.14898047 0.13105327 -0.010853378 -0.074127644 0.060886525 0.039354954 -0.055837188 -0.047858432 -0.05621703 0.07240058 -0.059897725 -0.011713723 -0.0816049 -0.067867965 -0.16285186 0.10079916 -0.016685788 -0.15895395 0.16720667 0.033181213 -0.07740626 0.07566969 -0.12313036 0.01684382 0.06416266 -0.082340695 -0.06916226 -0.003226499 -0.063312 -0.17049871 0.046309 -0.10704131 0.07319072 -0.04082879 0.1385673 0.18714285 0.10181148 -0.058867853 0.22968133 -0.1661242 0.1494745 -0.02010224 -0.14906433 0.1496706 0.119673796 -0.034864087 0.18522747 -0.101925306 0.19002025 0.17416893 -0.078524046 -0.15639386 -0.09470716 -0.09575789 -0.12236732 -0.020470604 -0.24689326 0.14836848 -0.18871884 -0.17324854 0.20498943 0.18139711 0.15719737 -0.10049928 0.029819336 -0.16037707 -0.14170194 0.09070609 -0.17351234 -0.20368767 0.08411318 -0.09272712 -0.13116151 -0.16846727 -0.19575238 -0.06922394 0.088187635 0.110874586 -0.19392796 -0.10591129 0.1949577 -0.20817731 0.18177257 0.05184644 0.12984465 0.07586231 -0.13775544 -0.026181528 -0.098117255 0.099861525 -0.15944003 -0.068588875 0.16876562 -0.17477015 0.1379081 -0.14589496 -0.091069475 0.005834956
3065 -0.15910286 -0.06638608 -0.006627148 -0.26500124 -0.17802706 -0.25133407 -0.049978446 0.019922677 -0.070010684 0.12903824 0.095680244 0.051531028 -0.30513474 0.13225903 -0.110678636 0.15977265 0.050375123 0.11337058 -0.024860948 -0.103938945 0.17647746 -0.18216987 -0.25855073 0.15337652 0.05279582 0.14148876 -0.097882316 -0.117996044 0.1188949 -0.13643259 -0.19661835 0.04596151 -0.34268543 -0.05983046 -0.040969167 0.04480088 -0.45322683 -0.14609763 -0.09486627 -0.05959381 -0.012093226 -0.08335131 -0.0975732 0.039467584 0.028087733 0.049670562 -0.14731881 -0.25265017 0.25344738 -0.00263931 -0.16615729 -0.11686043 -0.109905444 -0.07651908 0.0029336186 0.020664383 0.045959976 -0.27086797 -0.0808924 -0.23958056 0.17826717 -0.1814556 0.18317989 -0.0724694 0.2380222 0.19828705 0.06646378 -0.25122082 0.16066281 -0.29492596 0.3063939 0.11454287 -0.11179142 0.24107344 0.24364558 0.16409905 0.6210435 -0.22881904 0.14345843 0.15525857 -0.18100452 -0.13552973 -0.18795475 -0.1690304 -0.20941754 0.122853115 -0.30344933 0.2758055 -0.17943873 -0.15847713 0.19723564 0.28912833 0.06363975 -0.14955509 -0.2251109 -0.13753338 -0.2677619 -0.021866925 -0.26271603 -0.2482357 0.20042802 -0.20660046 -0.088152304 -0.31541938 -0.092055924 -0.14346032 0.05179633 0.2227308 -0.23168772 -0.18563008 0.12931678 -0.2841451 0.19673297 -0.03242931 0.20935193 0.17601427 -0.12357562 -0.24269673 -0.24688184 0.066678636 -0.10816341 -0.21502934 0.20631331 -0.18881041 0.2264306 -0.2686954 -0.10030184 -0.006397473
4627 0.11516379 -0.04880336 0.06733396 -0.02483759 -0.039300982 0.2566468 -0.19280659 -0.110581145 -0.0027303807 0.14245129 0.20885736 -0.116157584 0.27195892 -0.06015041 0.048131675 0.10942159 -0.046654813 0.17645793 -0.07647885 0.05095084 0.0709375 -0.048458166 0.15244642 -0.06454182 0.18241677 -0.13973515 0.1353074 -0.02142511 -0.18289372 -0.064033814 0.11506284 -0.11937147 0.023263449 0.025205359 0.22887181 0.05845856 0.15470715 0.076276615 0.13521335 -0.010085014 -0.0959894 0.028105183 0.10195005 0.14134863 0.07577866 0.055880006 0.06273996 -0.16176647 -0.1373411 -0.03976129 -0.16340788 0.14148366 -0.08176734 -0.13721229 0.041450866 -0.13316295 0.12534526 0.14718924 -0.012977861 0.1315119 -0.28119397 0.021827172 -0.101948544 -0.01905632 0.22519854 0.23205195 0.23941608 -0.21275677 0.24444024 -0.16653442 0.19876269 0.20885979 -0.20184056 0.30145392 0.10813358 -0.0021434387 -0.16954528 0.23170689 0.24789873 0.22905257 0.00046615858 -0.15306014 0.023137411 0.06356749 -0.19018668 -0.13434285 -0.22522579 0.17047283 -0.27378106 -0.16675392 0.09930708 0.17757069 0.3306284 -0.13188623 0.06824728 -0.09036512 -0.36218604 0.0871008 -0.2017228 -0.22563258 0.09812867 -0.248539 -0.109969795 -0.2250413 -0.20398843 0.049092166 0.00040417275 0.04066484 -0.2924949 -0.0780079 0.13758136 -0.0698455 0.2952009 0.026447378 0.21759194 -0.017142575 -0.16159356 0.035858084 -0.25824073 0.14415288 -0.12145355 -0.22691838 0.19713514 -0.104698114 0.24579836 -0.22376403 -0.11764256 -0.09847155
2074 -0.016581414 0.029795509 0.10370944 -0.12999846 0.0030249075 -0.12694947 -0.034144472 0.086975634 0.06182175 -0.11910849 -0.11335575 -0.06427711 -0.016194373 0.053121656 -0.07438144 0.10501617 -0.008787089 0.15388294 0.022872245 -0.12044989 -0.052712597 -0.111185625 0.029524866 -0.002977038 -0.025665369 0.19842064 -0.060119256 0.03827076 0.11921123 0.033794224 -0.11086806 -0.015470202 -0.11422715 -0.04183087 0.10254694 0.068819985 -0.03137397 -0.15887196 -0.18989708 0.15403597 0.0043856353 -0.048361253 -0.0017315539 -0.06447288 0.052051753 -0.09252148 -0.058536556 0.06244391 0.17057829 -0.13267326 0.06151141 -0.057845168 -0.049871128 -0.09334828 0.120546 0.014202556 -0.046272315 -0.08764388 -0.06388334 -0.13431896 0.21260408 -0.008602517 0.13511948 -0.038267717 0.26686984 0.24178372 0.11038448 -0.19693053 0.18326356 -0.29560643 0.18772306 0.06421423 -0.08593928 0.1634495 0.17383473 0.041480176 0.20342526 -0.16478898 0.14176613 0.2622685 -0.13163592 -0.2580561 -0.14426912 -0.20503382 -0.17654136 -0.107315056 -0.22760686 0.22336642 -0.2179293 -0.041714896 0.22404212 0.1626403 0.087939255 -0.177436 0.03766327 -0.20856509 -0.12673037 0.08250063 -0.20707206 -0.17540236 0.19157563 -0.13930394 -0.09805442 -0.29477707 -0.15860905 -0.08129244 0.02974317 0.3037447 -0.1918535 -0.077848695 0.14100116 -0.17657183 0.2795946 0.11573826 0.15197511 0.21418783 -0.14048377 0.066615954 -0.2668182 0.17885943 -0.18770252 -0.1498181 0.19062157 -0.18572703 0.21643205 -0.19168814 -0.14764322 0.039355364
6733 -0.031120166 0.08699209 -0.047537375 0.22339484 -0.14813702 0.024258515 0.027845794 -0.010742461 0.15164664 0.04740506 -0.02311731 0.0577085 -0.037363146 -0.07995586 0.004947466 0.029506184 -0.10055582 0.04749248 -0.044928554 -0.14441785 -0.23133594 -0.043205697 -0.056874964 -0.14102904 0.058343586 -0.03558659 -0.13089885 0.07247466 0.034296755 0.082650095 -0.15921558 0.0880983 -0.08552782 -0.03459163 -0.14071967 -0.12868656 0.0979671 -0.22240081 -0.049449284 0.06268549 -0.13819258 0.07456465 0.05114955 0.18369024 0.029803827 0.00010578654 -0.038611013 0.12751088 0.085937284 -0.1809451 -0.055709194 -0.052204873 0.13352048 -0.1502539 0.020721536 -0.19277313 0.13297097 0.17357582 -0.062663086 0.14615327 0.036737 0.2262466 -0.026760602 0.12227321 0.1983345 0.23901239 0.11798766 -0.19333081 0.11295 -0.25901723 0.21731311 0.031557474 -0.21991439 0.21091042 0.2834125 -0.005752328 -0.09460517 0.054696064 0.16881 0.13726293 -0.08077952 -0.18134826 -0.01249414 -0.055206746 -0.22852132 0.1440399 -0.13975662 0.10738393 -0.21871641 -0.19174923 0.17520048 0.17357439 0.26914677 -0.14110735 -0.10969201 -0.109156944 -0.3788115 0.37225425 -0.15271589 -0.21597531 0.22811909 -0.06741193 -0.14293623 -0.21338667 -0.20730819 -0.013594258 0.006400148 0.11391841 -0.3209493 -0.05822063 0.026743466 -0.16806705 0.18605593 0.0409318 0.19419652 -0.049011145 -0.19301239 -0.09003463 -0.18716948 0.19139867 -0.06551896 -0.22612865 0.04717345 -0.15123512 0.27471787 -0.21749744 -0.25497586 -0.23570336
249 0.0348597 0.1904894 0.0026372564 0.15355016 -0.1178895 0.14001994 0.13030736 -0.08301519 -0.07498591 -0.0874991 -0.0014287967 -0.03345706 -0.015355804 -0.21347351 0.06786688 -0.035349153 -0.16689865 -0.12036725 -0.19168027 -0.130758 -0.093854815 0.0026897974 -0.10043991 0.018569006 -0.106195 -0.05879492 0.11197807 0.055067822 -0.03342169 -0.04054899 0.024248065 -0.06631357 0.10193546 0.19126624 -0.08190778 -0.04955373 -0.021317184 -0.054904103 0.03434973 0.053325843 -0.044526294 0.07073867 -0.12824848 -0.08077546 0.09667577 -3.804791e-05 0.035083182 -0.009323386 0.10629375 -0.1292001 -0.037222408 0.07260844 0.014358468 0.07885216 0.10234429 0.09618166 -0.08339888 -0.021934133 -0.03816336 0.19413216 0.020990646 0.10947804 -0.0037560214 0.06263042 0.11445187 0.07212173 0.15388605 -0.15687945 0.1515568 -0.1290527 0.08475719 -0.18390152 -0.24830033 0.04605614 0.1846991 -0.07529806 -0.110351935 0.13755193 0.13814914 0.13798106 -0.06440893 -0.08728013 -0.023532404 -0.12930578 -0.19170451 -0.12012605 -0.119783245 0.09015263 -0.16109824 -0.20507075 0.20587204 0.14546798 0.10906319 -0.16690029 0.11910744 -0.12601605 -0.17163014 0.14894639 -0.11716788 -0.09838722 0.16058297 -0.16590267 -0.22797324 -0.17031747 -0.23326169 -0.14799444 0.07443394 0.15224627 -0.1684477 -0.07641687 0.15979841 -0.09928483 0.10010125 0.19701084 0.1979533 0.061960515 -0.1025696 0.23112805 -0.15764934 0.21360475 -0.03394955 -0.1626892 0.16471864 -0.19670227 0.21215373 -0.14185327 -0.21132511 -0.09488048
23405 0.06604661 0.13953188 0.05691191 0.22702327 0.10451222 0.11234098 -0.027723353 -0.21725322 0.013164886 0.001370684 -0.009305396 -0.03903921 -0.14642268 0.016676718 -0.105048634 0.0049101 -0.084510796 -0.101081006 0.036729775 -0.07615737 0.11917872 -0.12916546 -0.23113412 -0.030841282 -0.106435776 0.03892172 0.104333736 0.048443068 0.05604118 -0.25864372 -0.17562142 0.028596079 0.06261369 0.29526514 0.080701426 -0.1607948 -0.06341656 -0.29262882 -0.043477442 0.21177134 -0.17227204 0.21048279 0.12408597 -0.2358057 0.002184236 0.11901529 0.07122401 0.11488278 0.27451062 -0.1054441 -0.02095192 0.18822211 0.03668876 0.16926652 -0.16970676 -0.15281689 0.25578138 -0.17944561 -0.2225384 0.22979702 -0.020240707 0.124950744 0.14929004 0.14481713 0.25816995 0.182191 0.06022648 -0.21521533 0.16658404 -0.26248378 0.14062446 0.14799401 -0.1770303 0.2509605 0.28215292 0.060403787 -0.2826053 0.031152004 0.07511151 0.14631875 -0.09126834 -0.15632683 0.08922377 -0.011602916 -0.17592286 -0.2224019 -0.12347999 0.23667891 -0.25252762 -0.20102407 0.100698985 0.1815289 0.18721695 -0.15913531 -0.06738372 -0.38484836 -0.3675284 -0.04978456 -0.24666783 -0.34886694 0.16745017 -0.056184933 -0.4024941 -0.26721227 -0.22286487 -0.07391183 -0.05991867 0.07321371 -0.26374725 -0.0064060236 -0.029326173 -0.16527694 0.13261488 -0.019394893 0.3852456 0.34982377 -0.1347463 -0.21434635 -0.1799324 0.13504548 -0.31798267 -0.20091724 0.21662308 -0.14641272 0.1746169 -0.29206023 -0.13172676 -0.22211838
3329 0.060100026 0.059247553 0.005524533 0.16174684 0.09483603 0.13328262 -0.10246573 -0.19179429 0.028001681 0.0018915932 0.029607106 -0.02793465 -0.15883718 0.009711264 -0.090159506 -0.04163424 -0.011179322 -0.2546309 0.110488586 0.10123256 -0.034290496 -0.21489131 -0.07275541 -0.11789996 -0.039446626 -0.05724993 0.11219311 -0.0980074 -0.08773314 -0.09243023 -0.19332892 0.12935919 0.042032912 0.24114493 0.017429998 -0.15386099 -0.057849813 -0.09051952 -0.12041808 0.21685356 0.02547436 0.29060125 0.08324395 -0.21321458 0.058121134 0.055330426 0.007656622 0.17659211 0.0032500804 -0.11242857 0.12244278 0.12613624 0.1341409 0.028455205 -0.188618 -0.17284548 0.109484136 -0.13710791 -0.09977684 0.07541826 -0.036697865 -0.02984234 -0.26306534 -0.0008116818 0.12987833 0.21258505 0.18033299 -0.2331621 0.12120608 -0.23046462 0.20176378 -0.0329606 -0.18485908 0.24380068 0.25033504 0.043183316 -0.4181207 0.12813383 0.027864633 0.13805382 -0.0068723145 -0.2524192 0.10106896 0.12288127 -0.16485621 -0.17593555 -0.19334945 0.30440938 -0.20063126 -0.21527563 0.1720073 0.24135585 0.2465681 -0.21270232 0.07868717 -0.19798265 -0.23187643 -0.012118821 -0.21704912 -0.16653003 0.1950674 -0.2631123 -0.22937056 -0.21198599 -0.270184 -0.009319844 -0.10750056 0.17197779 -0.2540328 -0.03048854 0.11671636 -0.28622562 0.21632716 0.029083645 0.22808933 0.348264 -0.18590157 -0.044610735 -0.22950345 0.17054653 -0.2377965 -0.16944934 0.14896096 -0.27164888 0.26290327 -0.23923257 -0.15440726 -0.3399085
3915 0.13071306 -0.006359336 -0.030557066 -0.004087322 0.053900685 -0.041353248 0.023072828 -0.07660164 -0.0068548517 -0.13435684 -0.014602702 0.075618796 -0.06817691 -0.06781627 -0.10463937 0.11634408 -0.10357998 -0.039857566 0.0051399493 -0.0032990207 0.018263869 -0.07439038 0.035029653 -0.26241335 -0.18315408 -0.030917672 -0.019635404 -0.031416092 -0.092388235 -0.048831273 -0.019324753 -0.060631566 0.092402816 0.08196566 0.12998876 -0.07903733 0.01030532 -0.08877264 0.019112179 -0.17763111 0.02943966 -0.060978174 0.023324665 0.08500961 0.059342183 0.1288202 -0.012565367 0.050553888 -0.20115408 -0.10861412 0.11034328 0.17743823 -0.06184575 0.017698497 0.05723092 -0.0012442935 0.06375918 0.05019817 0.05771818 -0.031768344 -0.13668561 0.016404947 -0.068807766 0.05971891 0.1020888 0.1757581 0.18773112 -0.13121963 0.23526105 -0.19903608 0.1753684 -0.024337828 -0.23618522 0.19654548 0.16201214 -0.17244703 -0.081125 0.08136973 0.27326202 0.09753518 0.006151628 -0.18175131 -0.07993305 0.0010723894 -0.22306015 -0.041022383 -0.17669079 0.19864413 -0.2195488 -0.03557265 0.22103998 0.19605476 0.16783856 -0.21557248 0.11659196 -0.13904046 -0.27120495 0.16526176 -0.25353134 -0.14544271 -0.0005325595 -0.23620887 -0.15194866 -0.07156168 -0.18456139 -0.0036676126 0.18680546 0.037262525 -0.18558286 -0.096117005 0.18924312 -0.2124751 0.20373571 0.09709616 0.07586873 0.02747167 -0.18869439 0.27871206 -0.12117794 0.14387079 -0.10583534 -0.17494638 0.12398024 -0.22589035 0.22867833 -0.23355967 -0.21910954 -0.12375292
3912 0.052416902 0.054994952 -0.030680882 -0.09139104 0.059719842 -0.036317296 0.005189997 -0.02547734 0.06615142 -0.09920329 0.10331324 0.010224419 -0.03552108 -0.04372571 0.0058215223 -0.02550767 -0.17907147 -0.03011997 0.008521135 0.04089138 0.034859654 -0.11602621 -0.10136515 -0.25262827 -0.25756648 0.082362205 -0.02506379 -0.050315466 -0.07774219 -0.01849286 0.007564348 -0.21302685 0.11242631 0.052043304 0.03426593 -0.091910474 -0.06958216 -0.04204382 0.054572944 -0.07392423 -0.021244217 -0.21653526 -0.04428095 0.0938048 0.04399986 0.06536503 -0.12534527 -0.045354854 -0.11274534 -0.025076112 0.19498171 -0.03228143 0.054000262 0.093421936 -0.02269791 -0.028034393 0.056360964 -0.021023007 0.07809261 -0.2307393 0.04970105 0.024356792 -0.16430914 -0.049784563 0.13832684 0.19398023 0.22554193 -0.19095165 0.18182608 -0.17865439 0.17543392 -0.0659687 -0.102363355 0.21970071 0.13709892 -0.18623666 0.015791563 0.04078089 0.21624285 0.18007296 0.03429007 -0.19469953 -0.108181015 -0.05216628 -0.1048266 -0.124055326 -0.25904962 0.20373124 -0.14365947 -0.12755385 0.14350368 0.20278437 0.1703263 -0.16842926 0.03484276 -0.13993935 -0.24232586 0.040349033 -0.25695175 -0.18629423 0.12586111 -0.15572171 -0.15281022 -0.11477388 -0.1703438 0.042438865 0.06777733 0.07981459 -0.1398646 -0.01031716 0.23059696 -0.17329666 0.17324856 0.06905532 0.18968 0.13408758 -0.18647088 0.12292113 -0.2243113 0.15988132 -0.12068891 -0.06442062 0.08418093 -0.261537 0.24665642 -0.17065683 -0.13570282 -0.11686336
10933 -0.074384585 0.117270865 0.24791186 -0.1943647 -0.1686802 -0.13868517 -0.00993236 -0.016076459 0.01920669 0.15907206 0.19655965 0.05458209 -0.3145938 -0.008153768 -0.1802876 -0.07662485 0.026070578 0.20686811 0.058456063 -0.010194475 0.14324464 -0.15716162 -0.0028815847 -0.13935441 -0.18515417 0.11554908 -0.079723254 0.040283464 -0.09951041 -0.0825118 -0.19955093 0.07490596 -0.053960532 -0.05723182 0.07978796 -0.0059701297 -0.028192377 0.027781993 -0.024995022 -0.17266025 0.006700394 -0.10204893 0.120767444 0.109914556 -0.04000565 0.068730965 -0.058189444 -0.12611651 0.16892797 -0.015256797 -0.009442917 -0.10498057 0.04154323 -0.06707942 0.20064333 -0.09782919 0.20118842 -0.058687706 0.0042315708 -0.19542886 0.050557002 -0.0846564 0.12873422 0.05910548 0.18852568 0.24546877 0.23675403 -0.25811782 0.13619387 -0.32103854 0.07003922 0.025340363 -0.13800088 0.13370197 0.14437906 -0.027067374 0.20102899 -0.045745037 0.17010427 0.12845035 -0.11455953 -0.11460263 -0.085416235 -0.35106692 -0.21982394 -0.017230902 -0.23892502 0.17841165 -0.22623484 -0.24802288 0.10002384 0.18560715 0.18506268 -0.1273695 -0.029968387 -0.23332366 -0.19429156 -0.008213237 -0.25172472 -0.1990947 0.28942636 -0.19073786 -0.121230885 -0.19469588 -0.13829906 -0.11525059 0.041667197 0.2458311 -0.19730388 -0.25082234 0.14840367 -0.21263 0.22288439 0.25657275 0.1296679 0.17322084 -0.30775547 0.14465098 -0.21101068 0.1505564 -0.18645085 -0.1698173 0.15721944 -0.1599452 0.17269415 -0.20434217 -0.1752703 -0.15296333
3837 0.13193922 -0.11649954 0.15427473 0.17962125 0.05282005 0.12067436 0.1151996 -0.13014773 -0.16085751 -0.12894101 0.213247 -0.14368257 -0.25729865 0.03151377 -0.043552503 0.10836026 -0.0058593927 -0.12227735 0.0064827423 0.10686667 0.09311746 -0.29659554 -0.030884843 -0.09993873 -0.114005074 0.1074881 0.010250478 -0.14186443 -0.07733549 -0.2467063 -0.08262622 -0.08984824 0.02107218 0.07429218 0.17828621 -0.12976864 0.02781641 -0.005410533 -0.08891561 0.25332892 -0.10354412 0.17330274 0.3330891 0.08420825 -0.053401165 -0.016690454 -0.069221124 0.059385475 0.12849945 -0.118552074 0.15931852 0.09663622 0.15453422 0.041178647 -0.15781502 0.018299535 0.10162531 -0.22624157 -0.030855766 -0.12879854 0.10707121 -0.023450326 -0.15806633 0.030374533 0.21053813 0.23650427 0.22484605 -0.26944622 0.1798672 -0.26136345 0.21361004 0.03868922 -0.15742958 0.18642867 0.19694254 0.105651416 -0.32229537 0.16818215 0.14081705 0.10932123 0.0018367384 -0.26240075 0.09713545 -0.10601192 -0.18668254 0.08151295 -0.2203242 0.2825402 -0.2371308 -0.2885487 0.26295134 0.18207711 0.1445313 -0.18688013 -0.1261039 -0.19772905 -0.1510656 0.1609689 -0.19625366 -0.1462794 0.22128949 -0.18685575 -0.16702564 -0.2687818 -0.23051311 -0.019057238 -0.06417597 0.03432939 -0.18059072 -0.06060471 0.20558342 -0.19783475 0.28443053 0.11471052 0.22769597 0.16665535 -0.17137058 0.03782732 -0.17809898 0.042895492 -0.22714104 -0.21974073 0.21887995 -0.13885626 0.29829648 -0.27359614 -0.25775224 -0.13059881
5335 0.14146937 0.042123567 0.073254235 0.07517635 -0.17340663 0.059574325 -0.057036854 -0.061975278 -0.045723774 0.06133633 -0.09361361 0.036830414 0.22301403 -0.19417025 -0.101562336 0.11924252 0.18314683 0.07432464 0.26699066 0.21637648 0.026764154 0.05524058 0.22856307 0.2418143 0.15733412 -0.14501907 0.07378949 -0.017486464 -0.06460045 0.24174647 0.3008071 -0.07477586 -0.18242109 -0.18005057 0.10828796 -0.085993275 -0.008556139 0.224959 -0.18141304 -0.275646 -0.07196334 -0.07399054 0.05438024 0.08915542 -0.2489692 0.055604763 0.17864978 -0.050494287 -0.10376862 0.1918923 0.06205897 0.11446251 0.12333645 0.008285877 0.2653895 0.11368001 -0.081890024 0.0072552534 0.059006516 0.22024116 -0.014554674 -0.025909618 0.10471144 0.044481885 0.17302029 0.29456174 0.29396573 -0.28484985 0.23180933 -0.28278908 0.018653292 -0.113431774 -0.12060479 0.24606615 0.12528482 -0.21974315 0.18619557 0.014951112 0.21588339 0.3079078 -0.22748268 -0.16154769 0.00048052814 0.31270516 -0.16417672 0.023010211 -0.16975589 0.12719628 -0.14569204 -0.102591 0.1948813 0.20731151 0.2868947 -0.08306764 0.39738402 -0.19886287 -0.2373748 0.16315103 -0.15103742 -0.1604627 0.09321384 -0.1627724 -0.094044246 -0.097420834 -0.24201457 0.067399904 0.23542625 -0.023242587 -0.19080827 -0.21077783 0.23274088 -0.17005141 0.23295622 0.07784719 0.062735885 -0.11088465 -0.19665508 0.30725074 -0.3534645 0.15906385 -0.07461869 -0.26638043 0.19723538 -0.09772052 0.20280334 -0.22749756 -0.077633545 -0.0078955265
5921 0.18348333 0.14030136 0.119089544 0.04581351 0.10643779 0.17602637 -0.02777535 0.05774684 -0.14847387 0.20442219 -0.066762395 -0.05610077 0.16859512 -0.055326834 0.06285851 0.01461767 0.24537769 -0.07672057 0.087366015 0.17392042 0.044450283 0.13972305 0.1551142 0.08646045 0.06422146 -0.1284186 -0.0038533772 -0.09435344 -0.17256048 0.2517944 0.2280417 -0.15912458 -0.14020458 -0.015192095 0.18885268 -0.09179069 0.17043981 0.18072289 -0.07348745 -0.19188586 -0.045953304 0.0086595025 -0.02347699 -0.014658187 -0.25354406 0.22071718 0.28662407 -0.00018139504 -0.03169338 0.14299478 0.053240146 0.21999389 0.085912965 0.08720211 0.06294874 0.21841513 -0.1339922 0.032839414 -0.010208332 0.14255469 -0.10491146 -0.09018576 0.10017139 -0.014046264 0.23543608 0.30766708 0.26297873 -0.30835786 0.22621824 -0.25573143 0.07443872 -0.20372921 -0.18162966 0.26510137 0.19909632 -0.29217345 -0.1597657 0.061814446 0.2010633 0.2765304 -0.11119082 -0.11836947 0.10420931 0.16338564 -0.26085272 -0.15571031 -0.22327149 0.13268572 -0.22634482 -0.076559104 0.17854244 0.20955618 0.19420351 -0.07623259 0.3528108 -0.11696303 -0.2954204 0.16863373 -0.1256102 -0.17538884 0.1372341 -0.1816535 0.01811601 -0.18519361 -0.19514035 0.015877822 0.3496466 -0.065135345 -0.22948514 -0.14691755 0.1485776 -0.050468195 0.26026076 0.16807413 0.16856869 -0.25340694 -0.21963291 0.35972986 -0.23604394 0.19422263 -0.084982775 -0.14701588 0.13484313 -0.13531007 0.23055848 -0.26468936 -0.13533296 -0.16610087
