2564 128
351 -0.037377995 0.284454 0.056679893 0.11463467 0.035186537 -0.04055974 0.0057842834 0.3555157 -0.46835232 0.0133387605 -0.21884638 0.3107584 -0.009146954 0.25506535 0.05670129 -0.29165855 0.35344392 -0.39940518 -0.34077308 0.24758744 0.18805939 -0.28829393 0.14375162 0.08074157 -0.13765536 0.042329006 -0.42236555 0.3990236 0.37900984 -0.04118402 0.2672423 0.05668922 -0.033974532 0.41448382 0.13496794 -0.23536655 0.079155564 -0.26779962 0.109900035 -0.0005610135 0.030847475 0.1735838 -0.025680091 -0.40386993 -0.5135118 0.68677574 -0.6317548 0.29317293 0.031146888 -0.21227624 0.19318275 -0.22936106 -0.10185073 -0.046914365 -0.32639575 -0.42596635 -0.1285316 -0.14597139 -0.39806184 0.26065594 -0.07940209 0.03567308 0.06660932 -0.095630586 -0.037316877 -0.13969222 -0.096391656 -0.43481323 -0.18218723 0.06504236 -0.1753444 0.18584469 0.20014282 -0.3594368 0.0785868 0.0103807105 0.12003397 0.109962076 -0.2200553 -0.39012468 0.27961895 -0.06514002 0.21292508 0.059565075 -0.31449232 -0.11449487 -0.060242575 -0.20286983 0.049592357 0.20494016 0.10136633 -0.21390688 -0.09148153 0.06662145 -0.21011183 -0.0077581033 -0.3216092 -0.10004412 -0.037178345 0.48858383 0.1826844 -0.078054674 -0.30613002 -0.2097626 0.09707974 -0.11354017 -0.090350084 0.22646269 -0.5767806 -0.25395578 -0.005606805 -0.25902522 -0.3911884 0.2363792 -0.12940715 0.3157126 0.34941512 -0.25818136 0.042246237 0.031712838 0.005525316 -0.27573836 -0.116994604 -0.07497896 0.15917335 0.066205055 0.07599278 -0.06326461
7157 0.019124946 0.50575584 0.19426884 0.22371282 -0.10460985 0.1692689 0.16350946 0.1171073 -0.06734322 0.49430072 0.04748994 0.05869982 0.12572539 -0.10146857 0.12209099 -0.082191855 0.19229463 0.31641093 -0.214285 -0.10743011 -0.39370018 -0.105154395 0.19221278 0.16138297 0.08446574 -0.14548953 -0.026606467 0.08576535 0.044079788 0.17326851 0.398774 -0.1784837 -0.06554939 0.076263696 0.2554708 0.006431327 -0.10230719 -0.2487791 -0.19907513 -0.02893173 0.28341553 -0.05179103 -0.044944026 0.04089909 -0.11044808 0.13110624 -0.07914396 0.23111214 -0.09975932 0.13573673 0.110466056 -0.06345968 -0.09498757 0.02696082 -0.36972442 -0.13969506 0.15643556 -0.3068694 0.15260716 0.06307699 0.5202327 -0.0056047207 0.044013772 -0.011442826 0.063882634 -0.057663653 0.09977574 0.047617316 -0.006192467 -0.19178541 0.07683239 -0.19429235 0.099995084 0.016331518 0.17045557 -0.08375753 0.23205996 -0.046440147 -0.38589522 0.18065096 -0.37654495 0.04957351 -0.3711435 -0.01295406 -0.24920169 0.10373166 -0.5395477 -0.14094631 0.044509765 -0.06883446 0.12146879 -0.19222502 0.24934524 -0.25256205 -0.28567573 0.16259614 0.24037936 -0.18012665 0.06257638 0.08045721 0.15232399 -0.0520995 0.01068064 0.36639124 0.02566148 0.13117002 -0.044522673 0.2865596 -0.26471904 -0.27419782 0.26916814 0.15237431 -0.09927287 -0.07777229 0.21932887 -0.059986826 0.35562634 -0.10408606 -0.10055108 0.12568162 -0.029591497 0.16499963 0.012231938 0.30055627 -0.07615018 -0.103998505 0.030639708 -0.38697642
1956 0.29174554 0.08784606 0.17767768 0.005916958 0.07687867 -0.2020259 -0.40098345 -0.14948094 0.3151758 0.38050762 -0.6766456 -0.1730435 0.085334085 -0.23314586 -0.082268454 -0.2464603 0.15403269 0.29706138 -0.16893607 -0.06564584 0.31194106 -0.17110635 -0.08474663 0.35819045 0.06772085 0.07442694 -0.17288847 0.35043994 0.20401661 0.17518403 0.24681303 -0.28391597 -0.10608337 -0.43695953 -0.049621876 0.16175498 0.34967992 0.32242426 -0.029165892 -0.30194888 0.14289947 0.1541304 -0.15200451 0.14489153 0.11878027 0.2364289 -0.0044764765 -0.13170138 -0.13578677 -0.21212626 0.1783889 0.08863381 0.044031993 0.06015652 -0.052979015 -0.47114083 0.0002999566 -0.15976295 0.040846564 0.3197758 -0.15990598 0.13155271 -0.07638647 0.014496576 0.16471183 -0.09447093 -0.08677695 -0.12404151 0.117073216 -0.005880588 -0.15452188 -0.13631986 0.29931873 -0.025871057 0.38853005 0.09323542 0.21567698 0.008275197 -0.093296066 0.2179132 0.11242399 0.28309965 -0.14142166 -0.1633147 -0.03450346 -0.3582333 -0.07740835 -0.3496401 0.01517806 0.2667587 0.38940194 -0.0974635 0.057520166 -0.09401927 0.20737192 -0.10418967 -0.15943266 -0.09223261 0.011233863 -0.2844497 0.13666682 -0.032562185 0.3005864 0.14154741 -0.16240267 0.038730226 -0.059161197 0.31272605 -0.28989822 -0.04762491 -0.0998527 0.032183066 -0.16499516 0.103463046 -0.16491865 -0.10188047 0.2232674 0.2906274 -0.04484129 0.28809968 -0.52757865 0.111744896 -0.15386268 0.14683956 -0.25419775 0.23824093 0.117429644 -0.08333736
2885 0.06323121 0.25051734 0.050815288 0.06793053 0.30663148 -0.30706292 -0.07771472 -0.2996618 -0.14190732 0.007549316 -0.20139757 0.10431887 0.18666026 -0.08567831 0.06427497 -0.028524611 0.03671421 0.0009066117 0.33092847 -0.06544774 0.047145773 -0.015286995 -0.052485313 0.4448478 0.24172485 -0.13450256 0.09415903 0.40465912 -0.10770523 0.09574676 -0.102951124 -0.20133871 0.088076614 -0.08226209 0.26874486 0.4461889 0.07034265 0.14492206 -0.28199592 0.15707184 0.2862508 -0.13704121 0.10858153 0.14724033 0.1661368 0.3846779 -0.1550743 0.10301237 0.15250847 -0.19161241 0.13169622 -0.03251775 -0.22973202 0.14691083 -0.0015268096 -0.28315923 -0.25745723 -0.031081107 0.0226696 0.031533863 -0.27062643 0.19741757 -0.11312389 -0.16230659 -0.20887984 0.09081692 -0.11575542 -0.006297248 -0.1696845 -0.22880578 0.055459205 0.28631824 -0.10289912 -0.017693413 0.031767316 0.16512735 -0.29538417 -0.09515293 -0.045306142 -0.0022393889 -0.18014666 -0.007992253 -0.40721098 -0.077755354 -0.18937697 -0.18378663 0.2976577 -0.19523126 0.11999788 0.23061922 0.41527912 -0.29519454 -0.0625751 -0.15084492 0.29936045 -0.10007798 -0.035878528 -0.20248313 -0.31081793 0.13323131 0.23033783 -0.12554562 0.17515488 0.23180652 -0.21167925 0.40208152 0.1280926 0.46023968 -0.19317393 -0.41590953 -0.17692256 0.022997035 -0.07926377 -0.18981081 -0.076216675 0.30225256 0.13478976 0.082054265 0.19419569 0.0044618924 0.0584905 0.013522148 -0.1941699 0.022633648 -0.7099461 0.010948911 -0.080528885 -0.38239908
10482 0.38046727 0.13580059 0.063488096 0.12666664 -0.3337878 0.031154132 -0.14856039 0.1261699 0.21837665 -0.05524305 -0.12656106 -0.3724837 0.06761366 0.34663174 -0.046778228 -0.15133038 0.28865588 -0.15000336 0.012957684 0.15964368 -0.32812756 -0.23775117 0.026556903 -0.06517049 -0.3404605 -0.3288321 0.18000413 -0.05917167 0.49667168 0.07629818 0.15162669 0.093916 -0.11323185 0.51231873 -0.033155475 -0.15306379 0.23455611 -0.32014397 -0.41713068 0.41218117 0.2743587 0.051044427 0.14791088 0.4292301 0.18467249 -0.18072353 -0.10340625 0.06073192 -0.26267722 -0.1431746 -0.15753494 0.10008101 -0.51682955 0.042297527 -0.15249984 -0.2399169 -0.004776079 -0.15753554 0.35276726 0.2778451 0.20041174 0.15022856 -0.12860504 0.096437186 0.20700747 -0.13046262 0.0069640568 -0.3087588 -0.22187117 -0.09725854 -0.08194436 0.32941204 0.030672936 0.4892683 -0.009043293 0.116211385 0.22147028 -0.0836872 -0.31364557 0.2227797 0.026683668 0.398501 -0.2894437 0.540262 -0.24285132 0.26185673 -0.35133845 -0.09126922 -0.07021611 -0.04627119 0.19922327 0.13123114 -0.020483844 -0.065711334 0.124054685 0.052935816 0.091339946 -0.24319166 0.08784738 0.39896902 -0.2242347 -0.06939728 -0.2500925 0.44511423 -0.045808587 -0.26782522 -0.21515746 0.10839965 -0.28524068 -0.4063855 -0.12835637 -0.07141129 -0.129345 0.11095241 -0.1541033 -0.22715583 -0.19793923 -0.16049412 0.55807936 0.73695725 -0.124741614 0.29012653 0.19697689 0.2608426 0.020732757 0.032131854 -0.2879817 -0.32935932
1017 -0.12561457 0.31628636 0.041996155 0.03416691 0.054945264 0.039024487 -0.09056128 -0.03677045 0.13126984 -0.3763956 -0.21047245 0.15226716 -0.05257377 0.012203259 0.0870818 0.19773751 0.2906615 0.1689588 -0.047929022 -0.20142329 -0.22497062 0.19559652 -0.13938786 0.20640147 -0.22166151 -0.1529502 0.099215634 0.14926834 0.18721752 0.02654279 0.332771 0.33486488 -0.059191298 -0.11125726 0.20428468 0.1299337 -0.0019051314 0.13614368 -0.27192158 -0.26209226 -0.12682252 0.096640706 -0.08722003 -0.03934318 0.14275543 -0.089173466 -0.35426196 -0.20278826 0.052967355 -0.1494645 -0.29205537 -0.11466404 -0.025308723 -0.039773863 -0.1592198 -0.28506887 0.1433601 -0.22493014 0.050823133 -0.07724918 0.18467611 0.2516006 -0.094977304 -0.32136005 -0.046349775 0.16522247 0.020524984 -0.07669082 -0.11111923 -0.20339255 -0.0011889444 -0.30772266 0.11396535 -0.19297631 0.37269762 0.31376567 0.22159958 -0.18255627 -0.3826373 0.30007976 -0.24490984 0.119190596 -0.058952525 0.20815693 -0.11676658 -0.12072047 -0.051296618 0.09661018 -0.4155238 0.18026312 0.02254212 -0.16912499 0.2594282 -0.08837436 -0.3613979 0.05763151 -0.34175205 -0.122222655 0.10866001 -0.028414307 0.29639524 -0.187073 -0.085479476 0.4064136 0.12282909 -0.094414756 -0.14301503 0.37219995 0.013357944 -0.4622156 -0.22856918 0.027710179 -0.07458757 -0.2041034 0.006561885 0.045712415 0.0698553 0.29275706 -0.02481164 0.20942913 0.039888963 -0.06558311 0.17175357 0.13851815 -0.19387567 0.20814823 -0.29723865 -0.4565804
8452 -0.0008098673 0.091424406 0.02150371 0.17862211 -0.069301166 -0.38632455 0.10428399 -0.15052712 0.032300998 0.11945175 -0.024377627 0.2216721 0.048370127 -0.03245332 0.14339635 0.10907966 0.21764302 -0.20797043 0.16057222 0.022658166 0.22834964 0.06472309 -0.14461479 0.25390026 0.25132748 -0.10368175 -0.2828434 -0.04391454 0.103442766 -0.030952007 0.47562793 0.091303945 0.34382313 -0.14086276 -0.06365201 0.019038068 0.42349124 0.124527924 -0.33393455 -0.09276322 -0.02655129 0.23561227 0.023150269 0.25212508 -0.14544128 0.15073575 0.05309575 0.13787659 -0.23914523 -0.09665133 -0.04280545 0.04751237 -0.2605724 0.115597576 -0.29280186 0.26781946 -0.30742678 -0.050282035 -0.120108105 -0.069942154 -0.12828682 0.17830834 0.29127437 -0.1403601 -0.14511217 -0.44930804 0.45044863 -0.11536552 -0.14005455 -0.19259708 0.0689559 0.012872332 0.17416015 0.07007886 0.30768362 0.42482185 -0.0033904125 -0.18711285 -0.13889131 0.3463982 0.002931821 -0.025643567 -0.12417801 0.24613906 -0.18439649 -0.16317189 -0.052710574 -0.3525201 0.101198 0.20730092 0.25930735 0.18686031 0.2736024 -0.16680379 0.03173531 0.35141298 -0.38998768 -0.100945875 -0.2051529 -0.02727677 0.07705909 -0.05410781 -0.13341056 0.26969093 0.1108976 -0.08534779 0.1777147 0.32111555 -0.27491945 -0.24747624 0.076882236 0.19997597 0.08597236 0.1994832 0.35401255 0.025349598 0.22668426 -0.3450273 0.13014781 0.33547083 0.1677408 0.1646644 -0.089356326 0.25255257 -0.069085 0.0601968 -0.1586368 -0.08932685
3320 -0.2663801 0.26909286 0.31088367 0.108294174 0.17873706 0.1711318 0.06965082 0.15439779 -0.081646524 0.1461079 0.004814701 -0.033065196 0.6073971 0.3356923 -0.15183096 -0.19703709 -0.021827135 0.18072194 0.17393902 -0.10855128 -0.21318574 -0.28517753 0.060844913 0.41322187 0.0073353024 -0.21784231 -0.30257747 0.024567898 0.21981983 -0.050461292 0.18201715 -0.019911842 0.17030191 0.1748986 0.28621867 0.20727928 0.06639272 -0.21783766 -0.3011376 -0.0034071447 0.15150028 0.07574132 -0.095464595 0.33617482 0.051100727 0.30394575 0.0025122128 0.016169239 -0.20450048 0.115508616 0.120551065 0.03032809 -0.4846397 -0.12345364 0.24816817 -0.16892551 0.054730892 0.09970954 -0.0022478206 0.07807965 0.18501766 -0.13169108 0.057720788 -0.19510707 0.02536951 -0.45020193 -0.25514433 0.00036110578 0.034481116 -0.122937694 0.07876969 0.107354335 -0.11712927 0.2811384 -0.032729946 0.0055708373 -0.022873892 0.0069977455 -0.18598887 0.0021395285 0.13464598 0.13960634 -0.30001065 -0.08030183 -0.32544357 -0.28001443 -0.16641834 -0.40290216 -0.20641862 -0.13472842 0.15000051 -0.044339135 -0.0065819286 -0.24089505 0.0019946573 -0.085565396 -0.0567917 -0.056885723 -0.15928279 -0.19908448 0.08595887 -0.3683943 0.4647987 0.102404796 0.20170936 0.12647416 -0.06209986 -0.0431362 -0.32334343 -0.26141867 0.010754997 -0.16267686 -0.0036938093 0.18727137 0.1681763 -0.23809531 0.39888063 0.42033052 -0.32427055 0.16616736 0.23738767 -0.09164905 -0.06172938 -0.35092402 -0.081064425 0.053420104 0.14272363 -0.3800977
2335 0.004262792 0.24762075 0.011658058 -0.10913376 -0.20939603 0.05789435 -0.30565113 0.17271402 0.23616871 -0.26723903 0.056413397 0.06701019 0.16776137 0.079432674 0.26152754 0.1476645 -0.006876244 0.14977236 0.10841064 0.14667633 -0.30542788 -0.20213503 0.008052031 0.3977119 0.29588273 0.0030900852 -0.23456897 0.1855389 -0.14284131 0.12471485 0.27455592 0.16677524 0.26876333 -0.11511604 0.41106498 0.17095326 0.07541943 0.02447608 -0.4371944 0.38962126 -0.14378162 0.2103438 0.25451586 0.022256222 0.017409617 0.2527491 -0.073201075 0.18927425 -0.099310055 -0.18094176 -0.21380597 0.49800763 -0.20083933 0.010505297 -0.1673318 -0.12287334 -0.081889555 -0.14628123 -0.2093184 0.050994787 -0.1448654 -0.007339031 -0.02141997 -0.25922927 0.15793943 0.06622023 0.046500307 0.07493741 -0.21771686 -0.13045344 -0.19895895 0.02194409 0.17982502 -0.43881515 0.2138385 -0.004906477 0.03925702 -0.21658443 0.21613593 0.20435214 -0.19506916 0.023760121 0.03745222 0.31362492 -0.56957173 -0.023020681 0.25840533 -0.30964673 -0.3676204 0.056767218 0.20635681 0.24865189 -0.3148489 -0.09557817 -0.41007775 -0.14132121 -0.062240593 -0.31173167 -0.33582622 -0.30420467 0.31721187 0.0004800064 -0.16159508 0.24094681 0.24831519 -0.0060512153 0.15275091 0.24458122 0.051403783 -0.448912 -0.067433484 0.090233944 -0.30318618 0.29371846 -0.11216352 -0.25148842 0.058819283 0.2223907 -0.054901607 -0.06488908 0.099655226 -0.12153128 -0.45813015 0.13308865 -0.08350551 -0.26462272 0.20990692 0.17403643
3065 0.09235502 0.20914154 -0.03492675 0.34316757 -0.28582492 -0.06518001 0.15690084 -0.05141064 0.15314916 -0.035602886 0.077505015 -0.13078785 -0.07719079 -0.2647101 0.35313433 0.001614219 -0.039370738 -0.4001539 0.065386415 -0.21826789 -0.20469806 0.25170812 0.17784162 0.34038442 0.035939973 0.028784977 -0.12886898 0.06562998 0.36427495 0.29421765 0.2158933 0.0448888 -0.095988266 0.08741084 -0.010404229 0.0024415113 0.18174599 0.24725093 0.123060726 0.1521729 -0.19711599 -0.11552885 -0.024722049 0.18581767 0.12605265 0.16399199 -0.19719693 0.1657816 0.09855383 0.2223459 0.17288347 -0.25531867 -0.53059477 -0.057135213 -0.12525621 -0.24779803 0.06811812 -0.06431233 -0.036285605 -0.080906615 -0.034189057 -0.015836263 0.06012737 -0.6282849 -0.24439141 -0.25214896 -0.0017874525 -0.1269113 -0.12707007 -0.3289483 0.13961834 0.19854233 -0.06885279 -0.28211346 0.4788046 -0.18329139 0.06316745 0.29476508 -0.20348695 -0.07577152 -0.20810945 -0.19921441 -0.10314445 0.08223098 -0.19384201 -0.032732986 -0.37152195 -0.024869686 0.17140825 0.22223824 0.08632283 -0.20491278 0.37752643 -0.3898627 -0.1183031 0.02715125 -0.26731893 -0.19298735 -0.12506081 0.07437411 0.081287906 0.01511899 0.18298653 0.057324946 0.2294837 0.084025435 0.0098188035 0.08322915 -0.23036768 -0.19775614 -0.09125989 0.011563042 -0.2862719 0.14279896 0.050722778 -0.005523723 0.23498884 -0.3724341 -0.0117540825 0.14533602 0.15529631 0.21166006 -0.06419734 0.35798854 -0.16906156 0.19070439 -0.095438786 0.07123685
672 -0.10979463 0.43334937 0.10996819 0.115117416 -0.12646607 -0.24201706 -0.13198614 0.015770817 -0.17439014 -0.009467849 -0.11267286 0.37695965 0.08444082 0.102117054 0.23066892 0.07344832 -0.030369291 -0.3825246 -0.080494165 0.044666898 -0.1607792 0.32525522 0.00016808356 0.14409022 -0.0036443083 -0.5855083 -0.073797345 -0.0015627965 -0.0233876 0.15858507 0.12397019 -0.3264093 0.18754965 0.09499839 -0.13521963 0.11310062 0.038629618 -0.091198765 0.17090364 0.052717995 0.25573125 0.31516802 -0.16871205 0.16482742 -0.14966354 0.12386563 -0.21093094 -0.21926068 -0.09517363 0.18632104 0.1247781 -0.04388395 -0.5248417 -0.21076874 -0.1535383 0.11118766 0.33149862 -0.032304924 -0.105236284 0.048563156 0.20256487 0.21718149 0.04218992 -0.39076787 0.18479733 -0.16955648 -0.16815269 0.18158598 0.056856323 -0.29641306 0.07587479 -0.04186268 -0.28049162 0.16698436 -0.033993527 0.16471496 0.084814556 0.067036495 -0.3619149 0.07121676 -0.47271416 -0.39774325 0.010063696 0.2255897 -0.006524476 -0.09682716 0.060213156 -0.32409754 -0.27678993 0.04112676 0.44651264 -0.020158852 0.0914711 -0.26506075 0.12664483 -0.037908245 0.10388942 -0.22852673 -0.07993228 0.23042783 0.0004966323 -0.13761173 0.13842675 -0.053836294 0.23047651 -0.2428488 -0.072256684 0.11564872 -0.18498373 -0.22166121 -0.24032234 -0.354415 -0.48336264 -0.272821 0.12406992 0.15458815 0.04020911 0.25472155 0.00043201225 0.22263122 0.053673673 0.5854182 0.016179984 0.55500835 -0.23427157 -0.12530343 0.040753264 -0.13149865
2033 -0.06903336 -0.028164767 -0.088578574 0.027196722 -0.025289133 0.3909009 0.04661131 -0.21435349 0.05727193 0.20560375 0.20279387 -0.12811542 0.19037536 -0.19498682 0.34556586 -0.46941987 0.21119834 -0.3437278 0.015119735 -0.16118075 -0.10924051 -0.23275176 -0.09036954 0.15137398 0.1090398 -0.2247153 0.042018063 -0.12257283 0.05412456 -0.15708704 0.18891239 0.055287745 0.26477093 0.050074853 0.002154216 -0.13773492 0.072892256 0.0007734617 -0.27648106 -0.050751064 -0.09168443 0.1833667 0.04066102 0.2273684 -0.20043261 -0.0069325306 -0.18445683 -0.101807654 -0.07998239 0.108055614 0.14718588 -0.24049266 -0.34815133 -0.030279037 -0.16791733 0.005985828 0.18741065 0.06888626 -0.02416494 0.38470855 0.022880806 0.017624518 -0.13569348 -0.37396166 0.11684099 -0.37212032 0.003941811 -0.00075497944 -0.09674939 -0.22485495 0.05739097 0.022344913 0.25727123 -0.13726793 0.17113785 -0.33445123 0.009423918 -0.18609658 -0.113801695 0.032618064 -0.2507293 -0.44482064 0.10303996 -0.016371286 -0.40513596 0.07465479 -0.26853186 -0.096003465 0.3103764 0.17631043 0.14618678 0.29781738 0.0025836052 -0.316326 0.039739687 -0.21627603 0.13707092 -0.17319366 -0.18275407 0.19059601 0.17073248 -0.09454449 0.28930882 0.05371962 0.25080636 -0.19710316 -0.18923938 0.078721605 -0.22878042 -0.19368638 0.23672153 -0.17954424 -0.28877407 -0.060828216 -0.16074151 0.046703942 0.15744676 0.16643612 0.050269768 -0.04939756 0.35462725 0.42883897 -0.102464415 0.29712602 -0.3088053 0.09622946 -0.24318025 0.037199248
4609 -0.17236528 0.27157485 0.08512248 -0.08056573 0.36200932 -0.36930695 0.0972576 -0.27182955 0.114041544 -0.3529285 -0.13028008 0.31912673 0.17375952 -0.11761264 0.05874358 -0.15314128 0.050441086 0.10736827 0.0015305297 0.11350683 -0.15514638 0.17967504 0.09776821 0.017078687 -0.061812714 -0.24261135 -0.15427655 -0.48685735 0.09345363 0.10441381 -0.038574982 0.05545902 0.27962548 0.10181805 0.17606491 0.10540482 0.22341545 0.06147622 0.22185563 -0.062112298 0.11057164 0.16974886 -0.061189447 0.5950376 -0.074997954 0.45437446 -0.09255952 0.0935243 0.06513277 0.3983289 0.14892912 0.11440701 -0.13284509 -0.050905418 0.08639468 -0.48199323 0.13665617 0.111564025 0.14621803 -0.019818382 0.3125147 0.11480795 0.10341611 -0.2799965 0.0070204646 0.13022819 0.17084764 -0.2577604 -0.092159934 -0.33276 -0.14136162 -0.32491487 -0.17712878 0.055615995 0.32185873 0.32426247 0.41210517 0.10797948 -0.14922433 0.23198707 -0.053383797 0.029638546 -0.061308563 0.06879052 -0.33328918 -0.13132535 -0.4677208 -0.11135023 0.23967525 0.08692643 -0.032228995 -0.14496443 -0.044460647 0.016972188 -0.4131294 0.10628898 0.1483952 0.09177988 -0.11682582 0.16429347 0.38776293 -0.16748013 -0.07752575 0.52594197 -0.18251167 0.047875796 0.14433894 0.42842472 -0.5483671 -0.007947446 0.019052058 0.12906711 -0.23567218 -0.020169303 0.28156132 0.24792416 0.2732647 -0.17795087 0.037416376 0.4675972 -0.14040467 0.14127788 0.009447843 0.03759065 -0.028547242 0.083697535 0.15745546 0.13891898
10987 0.20484328 0.10183802 0.1601494 0.18006088 -0.2143743 -0.08772086 -0.10932197 -0.20721675 0.19111319 0.108260326 -0.09234186 -0.18600354 0.07567645 0.15630375 -0.10189676 0.09864278 0.069692224 -0.12053542 -0.072972365 -0.31573448 0.042202152 0.10146367 -0.24712226 0.07237144 0.22399499 -0.2026268 -0.46083033 -0.18311632 -0.17101069 -0.10576401 0.28180093 0.17029448 -0.10085723 -0.019584255 0.37932068 0.35411063 0.30477336 -0.0046385136 -0.11898559 0.13868223 -0.20662293 -0.0095007615 0.41638502 -0.14791168 -0.15519285 0.2884441 0.029220162 -0.00769586 -0.14074773 -0.05375482 -0.23037791 0.20086004 -0.226556 -0.12914284 -0.08572851 0.098549634 -0.26780516 -0.11761868 -0.15992044 0.028324911 -0.2628832 -0.008251104 -0.20634694 -0.3262716 -0.09404365 -0.1428407 -0.031719245 -0.57684195 0.026192477 -0.4279463 0.069632456 -0.26597893 0.058570866 -0.08258255 0.28778142 0.21699107 0.26795694 -0.28226796 -0.15604928 0.27205348 0.02164007 -0.2707026 -0.048898812 0.30331492 -0.3491663 -0.14219914 -0.15351523 -0.035308845 -0.13102621 -0.07148823 0.19488731 -0.004882848 0.19540498 -0.36633667 0.31027064 0.33021915 -0.087945975 -0.42701396 -0.32128587 0.00859277 0.11179605 -0.27211076 0.13408633 0.35208598 0.040298652 0.09051314 0.2785772 0.22264852 -0.09279625 -0.011629718 0.059334483 -0.03945508 -0.21809106 0.12180988 0.31134427 -0.1151752 -0.0037122532 -0.012274482 -0.03149268 0.30147538 0.4860889 0.23972933 -0.14655896 0.24855196 -0.22757688 -0.25264138 -0.102483645 -0.1912206
7189 0.08172131 -0.18106763 0.19698003 0.050244108 -0.08664878 -0.03191607 -0.3076132 0.34092757 0.21010754 0.2001606 0.30454165 -0.20990717 0.10051114 0.28903666 0.41335905 -0.25090036 0.22160447 0.06412276 0.26027724 -0.14546025 -0.22880183 0.047638983 -0.021877544 -0.23002651 0.18440568 0.22000979 0.003688323 -0.00060184684 -0.23214209 -0.2465567 0.051327787 0.037443727 -0.042013038 0.014723641 0.18324696 -0.33021015 0.19366783 0.30505657 0.2480617 -0.12478012 0.051472135 0.14031275 -0.2802512 0.31267956 0.15807346 0.16004415 -0.2370271 -0.017948575 -0.4062933 -0.05735304 0.19484763 0.09675795 -0.40435398 -0.05288343 -0.22241755 -0.41551307 0.12574948 -0.03297348 -0.08910436 0.056590483 -0.20517485 0.40740976 -0.27262124 -0.062683135 -0.23653394 -0.26718488 0.1407599 -0.107539676 -0.11875602 0.099790014 0.030972306 0.15983565 0.15580003 0.00884999 0.39647806 0.17656446 0.08105784 0.04897452 -0.19978085 0.13333383 0.06234492 0.55818594 -0.055407424 0.18455523 -0.2966176 -0.26720753 0.052610893 -0.044203572 -0.18644398 0.26898193 0.115170844 -0.22321366 0.033514097 -0.2007771 -0.4014219 0.20169105 0.11224839 -0.486487 0.0730574 0.17321286 0.4543581 -0.21847703 0.060255114 0.06711632 -0.04129702 0.15406708 0.091078065 0.05723192 -0.112320386 -0.15573645 -0.12348251 -0.21821627 -0.10245226 -0.14476512 0.15807477 0.15996876 0.17496255 0.36250287 -0.07645719 0.26320738 -0.12502733 0.26827276 -0.20377962 -0.22773543 -0.16669993 0.33092993 -0.1602891 0.2523894
7415 -0.18605901 0.11042732 0.074650146 -0.09494073 -0.15718949 0.36260468 -0.08599094 -0.19607982 0.071049996 0.22570293 0.23445216 0.35259056 0.22465612 -0.048292454 0.18008305 -0.049636267 -0.10783299 -0.11689352 0.33354318 -0.05543901 0.029352002 -0.012783666 0.31437385 -0.014094527 0.16939528 0.10544736 -0.2697479 0.1890602 0.2725965 0.29678196 -0.20373107 -0.34095183 0.12931979 0.31233335 0.2413297 -0.4818719 0.24606903 0.25686264 0.019195002 0.01459855 0.27471635 -0.0068266955 -0.5006319 0.045890212 -0.11240175 0.2342955 -0.24504827 -0.22350621 0.027990898 0.09594315 0.043373246 0.042038158 -0.26139 -0.06528305 0.15541784 -0.08480186 -0.015500396 -0.38200516 -0.29902637 0.5167718 0.07968535 0.26374176 -0.08282848 0.13204099 0.40244383 -0.110139586 0.076640576 -0.051707186 -0.1328708 -0.096995845 0.14285485 0.056373984 0.3106811 0.29552856 0.543307 0.2605036 0.19555026 -0.116957426 0.076740876 -0.0010045691 -0.09156194 0.009717634 0.12495221 0.08859973 -0.011969744 0.017872643 -0.056337766 0.17285067 -0.34669876 -0.34608856 0.37065342 0.02160576 -0.085098244 0.080364235 -0.027151715 0.38205835 0.08190797 -0.38420704 0.10309626 -0.18685743 0.2546998 0.03596126 0.13767709 0.17629114 -0.08324797 -0.22828156 -0.34379774 0.41731146 -0.12461362 -0.15814939 0.3819201 0.012650399 -0.48037103 0.18524504 0.18313691 -0.17628427 0.08360238 -0.03145434 -0.07135848 0.2690054 0.3054743 0.08427246 0.026069647 0.08604509 -0.28322205 0.070409335 -0.27521476 -0.006039479
6714 0.0053989985 0.046107408 0.16320558 0.07355535 0.19385755 -0.10549058 0.054392315 -0.027609434 -0.27008316 -0.01320391 -0.23017266 0.07956629 0.19014488 -0.14671241 0.0879326 -0.2895065 -0.09141185 -0.10630154 -0.054996703 -0.30020556 -0.2138369 -0.2664777 -0.011285407 0.17446618 0.116491534 0.21220106 -0.078202285 0.044831928 -0.08825785 -0.043755792 -0.49541372 -0.16042617 0.2863903 0.07013525 0.16069217 0.03495414 0.29967773 0.15824534 0.0763425 0.05277086 0.077126354 0.0634441 0.040456127 -0.17085151 0.17040785 0.031194441 0.04616198 -0.22416295 -0.0068124547 -0.16299926 0.051502615 -0.05092253 -0.2026121 -0.2554902 0.09621456 -0.12258428 -0.04785098 -0.4536747 0.19001937 0.33393544 -0.10269789 0.1325614 -0.16753934 -0.16237497 -0.168291 -0.12913655 -0.10020635 -0.08761523 -0.41466928 -0.5243075 0.09934106 -0.34387863 -0.14821829 0.1383109 -0.20837031 0.20281605 -0.32111093 -0.039130524 -0.32220346 0.12591454 0.1707545 -0.018375989 -0.13112874 0.18991424 -0.3893334 -0.2003813 0.002740478 -0.34017402 -0.0850381 0.103348956 -0.19121733 0.0066679167 0.04038396 0.33595562 0.15229984 0.12990075 -0.10253306 -0.2668164 -0.24960463 -0.1172092 0.46368232 -0.38096568 0.094431706 0.26696944 -0.042625565 -0.01793391 -0.1636192 0.056790393 -0.3124609 -0.39643028 -0.094015606 -0.09601607 0.13899294 0.0794954 -0.11602638 0.14969298 0.39860615 0.20316975 -0.1817911 0.13912444 -0.30731902 0.15234949 -0.09265402 0.0068749273 -0.3283266 -0.097410694 0.21463512 -0.33359504
207 -0.098694615 0.25653124 0.014978521 -0.07235777 0.018132249 0.21924359 -0.095325425 -0.38254672 0.22697389 0.44510674 0.36362967 0.10189585 0.090726726 0.11433287 -0.18481712 -0.1168659 0.04340216 -0.37342837 -0.14559302 0.17775312 0.0068323966 -0.06937091 0.14844564 0.24874479 0.064516194 0.008533289 -0.45025408 -0.4123282 0.29945296 -0.20626336 -0.08565248 0.1383456 0.29028574 0.040455077 0.25650284 -0.12719765 0.017168688 -0.08193403 -0.16296661 -0.054020025 0.22028285 0.06614941 -0.16303217 0.13431269 0.62702453 0.086867906 -0.07093455 0.23290034 -0.12153957 -0.097740814 0.1229811 -0.095345 0.23994792 -0.4381146 0.1615223 0.007237579 -0.02561899 -0.30051652 0.15303217 0.18314612 0.34856647 0.14827223 -0.037913892 -0.06484945 -0.26481825 0.0012930819 -0.02210958 -0.15973288 -0.044772528 -0.25709608 0.10613757 -0.45657888 -0.07954964 -0.38465244 0.16573845 -0.08755183 -0.14289176 -0.35550934 -0.30445993 0.08927323 0.0042022467 0.08549443 -0.080271944 0.17497744 -0.08695854 -0.55706954 -0.060531676 0.021431366 0.15039913 -0.039929308 0.39453754 -0.025685135 -0.020227412 -0.19568309 0.20916013 -0.015679205 0.038398206 -0.35184833 -0.27671483 0.18470024 0.07591593 -0.35444936 0.046255983 0.09822721 0.08532801 -0.2587843 -0.18881293 0.120044306 -0.0370329 -0.51761425 0.1890406 0.07607523 -0.07280898 0.057623085 0.5865671 0.015182035 0.2611601 -0.2803231 -0.08970361 0.12866265 0.16337048 0.015554163 -0.17763469 -0.030105788 -0.16491722 -0.010847466 0.020281596 0.03110886
4193 -0.27766165 0.43956533 -0.01759832 -0.026947752 0.083222285 0.2347359 -0.068350755 0.20831797 0.15626489 0.08001499 0.15294419 -0.24137574 -0.09596489 -0.38764158 0.15506968 -0.31648812 0.036344875 -0.12770435 -0.038800005 0.24587855 -0.1411894 0.14874373 0.057956092 -0.17828704 0.11025169 0.03913868 -0.21171196 0.20569593 0.12765661 -0.12545432 0.09512835 -0.0036797775 -0.036242027 -0.07730544 0.31217805 0.2035267 0.0044251746 -0.06915262 -0.09445564 -0.27909446 0.1386196 -0.11378292 0.13880615 0.38281837 -0.072708085 0.7487494 0.07879206 -0.047497876 0.05271702 0.11148848 0.42362717 0.32683456 -0.08452162 0.074108936 -0.20685425 -0.00015698597 0.033931512 -0.3496773 -0.11474819 0.3895236 0.17359312 0.12857962 -0.10600563 -0.32970896 0.044294402 -0.28065768 -0.077911235 -0.19523504 0.22464022 -0.251178 0.102533616 -0.2113562 -0.012559517 0.0058218124 0.43408525 0.026898475 0.24556546 -0.018787934 -0.2025195 0.10369977 -0.53245133 -0.20920892 -0.062436387 0.011635545 0.09638626 -0.12609388 -0.07913783 -0.027646137 -0.123762034 0.028981308 0.08410188 0.03281771 0.37994418 -0.43463206 0.13435629 -0.41477787 0.2797992 -0.059321277 0.22304748 0.17273887 0.1667009 -0.23107891 -0.106211856 0.4037577 0.2278891 -0.07928135 -0.017932637 0.10180643 -0.028718697 -0.38661465 -0.15564804 -0.1566218 -0.089931585 0.08613474 -0.21549694 0.26121297 0.2756926 0.22339979 -0.15486093 0.09926091 -0.048036408 0.31651765 0.3266926 0.081259035 -0.18885352 -0.04712855 0.2905283 -0.29733884
8454 0.12769485 0.35179946 -0.1647815 0.10269536 -0.13137668 0.055956777 -0.28540757 -0.09003167 -0.07916492 -0.27141976 -0.0052866093 0.15010983 -0.046427567 0.21439405 0.14198044 -0.046930294 -0.178829 0.08005973 0.18416846 -0.123710796 0.012150874 0.11539074 -0.2814539 0.13995245 -0.097061135 0.07588942 -0.08340535 -0.050987493 0.100638956 -0.2576503 0.2990894 0.0954789 0.30398208 -0.0760999 0.44962457 0.18194339 0.17053597 0.25662062 -0.24342476 -0.10758422 0.099933594 0.26154232 0.3804118 0.18005107 -0.071560174 0.29426122 -0.21495622 0.1493825 -0.21903871 -0.27153838 0.077459 -0.011789241 0.023694105 -0.29966035 0.08510583 0.21314968 -0.18001951 -0.19435386 0.020656938 0.3222977 0.22161616 -0.018148663 0.26846218 -0.56496894 -0.0133689875 -0.07748308 0.033609044 -0.32431036 0.025529798 -0.23055324 0.1826323 -0.29421347 0.071924925 -0.069077946 0.24864879 0.14768079 0.44157362 -0.116170414 -0.3415041 0.028328849 -0.31031227 -0.12537439 0.12660734 0.051545016 -0.18323238 -0.07931813 -0.0019034238 0.10261024 0.021092026 -0.0141651295 0.2710391 0.07152005 0.19602005 -0.36207706 0.09042804 0.21419625 -0.1559397 -0.44390646 0.08203367 -0.020490482 0.060533483 -0.13112922 -0.00910412 0.36108387 -0.283546 0.13583326 -0.13969252 0.15424971 -0.21244386 -0.17858723 0.07658692 0.24166101 0.11849775 0.13671619 -0.017669905 0.13542914 0.34675008 -0.18255387 0.017863538 0.20812666 0.56920224 -0.006151271 -0.17789848 -0.03529954 -0.28766805 0.03299057 -0.19410017 -0.19516532
1457 0.1698889 0.29108796 -0.26099554 0.16683143 0.23280083 0.44427815 -0.25964177 -0.20461205 0.086996496 -0.30477667 0.38720462 0.047286395 0.59460324 -0.088798285 0.048483375 -0.16347817 0.0054710177 -0.19317567 0.03611114 0.36138022 0.03556355 -0.09007143 0.28155428 0.2133321 -0.31454802 -0.083611354 0.0970494 0.0866892 0.0153297875 -0.16346696 -0.1411566 0.15386885 0.08008106 -0.13436098 0.22536257 -0.043967895 -0.02743884 -0.2355416 -0.10669704 -0.3159155 -0.37568235 0.25170547 -0.23169929 -0.0760824 -0.2701727 0.110890694 -0.21581742 -0.2694404 0.09852038 0.047014706 0.23656684 0.16268277 -0.25361174 -0.01865122 0.009146336 -0.23276035 -0.030799784 -0.14747593 0.078271136 0.054909423 0.39042413 0.1546312 -0.078316286 -0.32403728 0.18757136 -0.12212561 0.13072433 -0.1504841 -0.40515843 -0.17436121 -0.26059824 -0.06669514 -0.0407553 0.15565996 0.06328497 0.64082456 -0.16141987 0.05650076 -0.00082120387 -0.19805455 -0.17837876 0.06365548 -0.12677236 -0.050041508 -0.3573374 -0.24956398 -0.053206947 -0.33326122 0.3269257 0.3958454 0.32889858 -0.36006665 0.3491904 -0.37528822 -0.18235354 0.041295886 -0.04339807 -0.45309237 -0.29748514 -0.32218456 -0.2829346 0.049458057 -0.008015433 0.052906603 0.20476618 -0.054832853 -0.2946682 0.115361586 0.010997296 -0.16836475 0.041607767 -0.04363276 -0.2801147 0.37341493 -0.03988518 0.1572115 0.050225567 -0.093487024 0.19670302 0.15271185 -0.036470413 -0.09441808 -0.044423964 0.31635725 0.04402431 -0.35187766 0.1328426 0.12606691
1499 0.22946943 -0.047668315 0.40836823 -0.006511075 0.40765652 0.40022874 -0.20544027 -0.32179555 0.040688623 0.18047164 0.032857582 -0.318354 -0.13515803 -0.062728375 0.06189122 -0.15795544 -0.16637787 -0.013092888 -0.097573206 -0.16209283 -0.24005069 0.0408495 0.12321023 -0.040245075 -0.08221537 -0.29284054 -0.101082794 0.32094577 -0.05687371 0.03796959 -0.011494626 0.14683917 0.14722237 0.19187327 0.025905661 -0.16565871 0.35156247 0.18905513 -0.1180496 -0.17218423 -0.16503721 0.26254597 0.058799338 -0.20883526 0.11797629 0.3185523 0.259129 0.39869836 0.33436656 -0.012386671 0.06515807 -0.1586143 -0.32920888 -0.03508908 -0.05197675 -0.077623546 0.5328053 -0.18458816 -0.021298893 0.28075433 0.11227192 0.16896887 -0.4541032 -0.39146677 -0.23169382 -0.115896836 0.3478994 -0.14842498 0.009524647 -0.1247436 0.11947627 0.010054524 0.22743711 -0.25495753 -0.09598355 -0.22180161 -0.019602563 0.20301484 0.101991355 0.11586845 0.0063026166 -0.33452362 -0.2740681 0.33003014 -0.13934556 -0.16087525 -0.069863334 -0.14935586 -0.085605614 -0.24496041 0.083259895 -0.4325933 0.13790378 -0.5652822 -0.33856794 -0.13060865 -0.14413282 -0.12980989 0.054186672 0.11738378 0.38273063 -0.115516365 0.26850525 0.17771618 0.12027039 -0.097881705 0.12646547 -0.038087342 -0.25953045 -0.1909041 0.23447785 0.25897726 0.14978884 0.045182336 0.16583435 0.18031886 0.36834124 0.34016842 -0.23064296 0.22286896 -0.17251562 0.27458352 -0.23230323 0.2065817 -0.21533912 -0.042575188 -0.021197654 -0.1272153
6045 -0.11378392 0.01320248 -0.2332918 -0.33143222 -0.14833865 0.022702673 -0.1868216 0.050953012 0.21871145 0.1335428 -0.36868092 -0.08048402 0.2141376 -0.117478184 0.025668237 -0.31171265 0.06961788 0.046381596 0.2780194 0.074309126 0.0872574 0.15758403 0.05905355 0.27828038 -0.06996804 -0.053138033 0.052566476 0.20174599 0.07667558 0.28321534 0.15062685 0.12271603 0.2790043 -0.005868263 0.4705076 0.0699078 0.008187982 0.07003934 -0.029894635 -0.31802705 0.09671712 0.3276906 0.013195228 0.42420742 -0.10005652 0.14347759 0.1168394 0.106990114 -0.12817012 -0.0507 0.18341123 -0.124789506 -0.23389485 0.3289639 0.18386072 0.03119296 0.27074653 0.109130695 -0.014595236 0.18639609 -0.007083828 0.13598627 -0.38132042 -0.17880577 0.35201517 -0.11203838 -0.25993598 -0.46864146 -0.282629 -0.45198914 0.26747856 -0.1356104 0.088874325 -0.08655131 0.20624498 0.29013497 0.25714603 0.012219385 -0.05990411 0.21385208 -0.17058972 0.059006255 0.18532723 0.13948923 -0.094490774 0.07172301 -0.2799601 -0.20040148 -0.5781419 -0.11986124 -0.00429934 -0.36046198 0.45727202 -0.27934417 -0.2868572 0.15432887 -0.42279088 -0.4851409 0.074437246 0.31359148 0.059516158 -0.1434161 -0.04218234 -0.0651175 0.46942046 0.072225764 0.1561314 0.27127266 -0.2235787 0.059011593 -0.5772132 -0.12819491 -0.1043743 0.1520977 0.35546377 -0.090862006 0.024231702 -0.2316379 0.0904242 0.33466083 0.09629164 -0.0897489 0.15122259 0.14625584 -0.13244095 0.12948254 0.19840524 -0.1500365
3312 -0.14233163 -0.09520915 0.0034223583 0.080995746 0.12735498 0.11137396 -0.1532266 -0.27307975 -0.047025234 0.16922186 0.07086755 -0.07989092 0.07236413 0.10590807 0.22648416 -0.3742866 0.24804993 0.22764945 0.22423556 0.013067652 -0.21272287 0.072431535 -0.2430243 0.30263597 -0.12018947 0.15719649 -0.24392408 0.13422321 0.09146668 0.095521726 0.120473854 -0.1145321 0.13402756 0.029910607 0.1875199 -0.014715299 0.111220606 0.21484368 -0.27698445 0.2603849 0.07742573 -0.036161356 0.20830809 0.13382623 0.1584398 0.51236445 -0.15570334 0.17947885 -0.01637259 0.17843504 0.07000341 0.13130987 -0.22431627 -0.40832582 0.0713457 0.06758603 -0.22845702 0.01662342 -0.06081831 0.35064098 0.18742333 0.099282935 -0.34938905 -0.25760883 0.2833564 -0.2243031 -0.12035333 -0.068876415 -0.26872495 -0.089340255 0.1625707 -0.05653838 -0.26200408 0.12574136 0.23519959 -0.05408821 0.13639006 -0.25429788 -0.107349575 -0.21797056 0.2798493 0.26484928 -0.17373003 0.2519251 -0.2223035 -0.1494059 -0.15252662 -0.07744574 -0.08151816 -0.11844309 0.19934942 -0.17035383 0.20636016 -0.32685843 -0.5950109 0.04321725 -0.33487016 -0.0017199975 -0.21872994 0.22828242 0.28326228 -0.24332583 0.16144009 -0.11061161 -0.006744671 0.19631675 -0.14090216 0.0844917 0.0043181274 -0.31595203 -0.04276694 0.22355987 -0.26676413 0.11489009 0.3583824 0.35985732 0.2643957 0.1641018 0.0009788799 0.13794273 0.140951 0.08751769 -0.08200026 -0.13286966 0.10882845 0.19628784 -0.13064037 -0.088443495
4869 0.043135043 0.22268002 -0.35583267 0.08444129 -0.025914753 0.20190194 -0.4531657 -0.123364545 -0.079921894 -0.13072067 -0.13871674 0.027656944 0.39952073 0.13359027 0.23223123 -0.14899562 -0.119817704 -0.030651603 0.20308824 0.11990052 -0.30756953 -0.043729734 -0.13604768 -0.06529104 0.18775979 -0.25856516 -0.11092379 -0.11719107 0.2857152 -0.019813275 0.029821144 0.09945976 0.08825067 0.2678243 0.20617378 0.089885145 -0.0914246 0.3425336 -0.38887024 0.030321317 -0.20909488 -0.2460723 -0.03571959 0.0045375833 -0.024119558 0.27185315 0.09061701 0.22348146 -0.39921537 0.05214088 0.016555507 0.1757428 -0.083649255 0.002110833 -0.082005836 0.086343594 -0.3454904 -0.07868659 -0.16590914 0.5155806 -0.19400403 -0.03541161 -0.19969322 -0.19498768 0.11064317 0.20138782 0.0066947755 -0.36873382 0.14642201 -0.01244692 0.07474393 -0.07352365 -0.03846901 0.02391552 0.47290722 -0.21575129 0.044574313 -0.16009423 -0.058284365 0.14144842 -0.32123122 -0.059716616 0.3493587 -0.05968715 -0.21651353 -0.28332895 -0.16177042 -0.24685836 -0.26913068 0.23534082 -0.18038341 0.23569676 -0.029953113 -0.25919834 -0.32333678 -0.15941459 -0.08477734 -0.3017759 -0.16661166 0.0074123144 -0.15658122 0.23239134 0.109325096 0.25300655 -0.18312883 -0.0038096977 -0.51830196 0.05186688 -0.025376337 -0.4396493 -0.20614119 0.071113594 -0.083081245 0.060868986 0.44011056 0.08125444 -0.06134446 -0.038704757 0.20102777 0.54269946 0.14995505 0.29507592 -0.1173174 0.35160854 0.015310192 0.1918839 0.06495514 -0.15276012
6667 0.02447448 -0.08768906 0.24879931 0.040787388 0.2557966 0.10518335 -0.24758981 1.9372172e-05 -0.010035417 0.13990727 -0.119751565 -0.10585253 -0.07597359 0.017623454 0.19722025 -0.20356826 -0.01228948 -0.49262553 0.013572255 -0.21262647 -0.0095145535 0.28796104 -0.34704265 0.4196181 0.29189807 -0.041443896 0.26599833 -0.18366192 0.6387258 0.24661967 0.14455438 -0.15348616 0.025218312 0.02234747 0.063693315 0.2887249 -0.024790334 -0.3453662 0.11164325 -0.14861563 -0.19728662 -0.08850973 -0.33665487 -0.07039368 -0.043298002 0.098087884 -0.31936407 -0.004848293 0.18456393 0.14439535 -0.07319135 -0.24583773 0.016476061 0.016432008 -0.2435207 0.013825887 0.045018468 0.015348402 0.19433741 0.15295856 0.24179964 0.10517106 -0.39294553 -0.5129822 0.2745551 -0.24705705 -0.21250762 -0.41723397 -0.29861465 -0.10622115 0.228011 -0.17248635 -0.20776527 -0.14003761 0.3724052 -0.07683367 -0.068062514 -0.19103478 -0.43756157 0.1330043 -0.15921143 0.12646616 -0.12560487 -0.55468524 -0.07194238 -0.207747 0.016643915 -0.36029693 0.012774814 0.41377637 0.30404934 -0.121128306 -0.16568403 -0.2966317 -0.23956221 0.26350507 0.33440557 -0.08661194 -0.25225222 -0.064197935 -0.11222054 -0.038242254 -0.0013330766 0.044522736 0.115757905 0.1906741 -0.026801387 0.17215462 0.1435499 -0.53259045 0.11515216 0.112467594 -0.21909806 -0.11715961 0.041404925 -0.040519647 0.46266526 0.16471757 -0.01850656 0.0192186 -0.50000614 0.08746456 -0.42606428 -0.035402846 -0.12475684 0.23870435 -0.003578224 -0.14257424
26270 -0.13412929 0.47801608 0.055752944 0.25767988 0.18557669 0.054490536 -0.1744291 -0.48735946 -0.03838021 -0.062202252 -0.47093415 0.23492126 0.09970134 -0.00059005216 0.34019974 0.11589752 0.1384186 0.15960735 0.3495148 0.05204665 -0.0565283 0.34450904 -0.23233101 0.49082372 0.02967729 -0.022034181 -0.19080944 -0.20768416 0.122458644 -0.0061679026 -0.040226817 0.19905962 0.62268364 0.31846574 -0.22370522 -0.028274916 0.07817066 0.57065266 -0.065572426 0.093892604 0.123110846 -0.0039280383 0.011417528 0.21286933 0.10606423 -0.002614608 -0.15058199 -0.08596936 -0.29689807 -0.44995788 -0.00645223 -0.117901735 0.05249354 0.45596784 -0.3281522 -0.29912186 0.0897633 -0.04043808 0.20252636 0.17042454 0.011301748 0.18010607 -0.24117906 -0.23646522 0.19720784 0.2420596 -0.014036113 -0.50094575 -0.07189689 -0.29525402 -0.05070264 0.14172788 0.48866817 0.1753627 0.036559332 0.32959834 0.27575272 -0.00044172956 0.1938787 0.11218042 -0.23816039 -0.077903084 0.040110763 0.29958996 -0.26784843 0.1079492 0.055560835 -0.114004806 -0.037980486 -0.083418645 0.31697604 0.197178 0.05224492 -0.28388134 -0.13666654 0.32854268 0.23113938 0.035950463 0.18416762 -0.037120834 0.5975059 0.17873606 -0.13363248 0.15961039 0.16149633 -0.19178666 -0.47235674 0.28864354 -0.149399 -0.20173647 -0.35381487 0.18124363 -0.05127687 0.3637898 0.5015989 -0.1650861 0.3184121 0.15490551 -0.005854131 0.08785088 -0.17638613 -0.43534344 0.016186845 0.260689 -0.051430244 0.27436003 -0.22912283 0.19801545
5970 -0.10087554 0.005670932 -0.005057317 0.07289289 -0.09920942 0.14621343 -0.34262094 -0.30229843 -0.33066615 0.06023132 0.15238562 -0.09365812 0.49581835 -0.11917099 0.3673053 -0.539998 0.0336185 -0.084537424 0.2566602 -0.057260204 -0.04367126 -0.0071799485 -0.08296959 -0.023383753 -0.049202424 -0.07393891 -0.27565962 0.082374126 0.061707232 0.15592533 -0.42144996 0.02787777 0.15086378 0.0474978 0.2749941 0.21529187 0.037258465 -0.11497927 0.029352767 -0.055359434 -0.10491106 0.10145101 -0.033914804 0.18150677 -0.19314471 0.014588707 -0.02795085 -0.33107188 0.13323441 0.32552627 0.06946873 -0.12932326 -0.27979994 -0.32212937 0.017872598 -0.1864376 -0.14964464 -0.19863519 -0.28514063 0.15549767 0.03053923 -0.15991886 0.09434575 -0.64491165 0.22675158 -0.024657058 0.023367625 0.09931518 -0.2504501 -0.4692165 0.22475271 -0.057538766 0.10733815 0.052441105 0.0037536256 -0.052134737 0.26394564 0.012731324 -0.37589377 0.13039012 -0.46300355 -0.43461004 0.009927611 0.227051 -0.099795915 -0.04320839 -0.183002 -0.25281918 0.04841737 0.17812176 0.37246147 -0.0819272 0.20308174 -0.09453638 0.0060204323 0.14432381 0.2022047 -0.18362671 0.064306125 -0.0880612 0.4197116 -0.14612511 -0.16556077 0.103249446 -0.2545683 0.17106342 0.083295785 -0.08484947 -0.44485363 -0.22534081 -0.03831754 0.321277 0.03764402 -0.048411217 0.2657387 0.071386464 0.019738672 -0.08086591 -0.106490694 0.13316002 -0.052568898 0.03481912 -0.19659139 -0.040663585 -0.24212718 0.16915174 -0.17353824 0.044870146
1387 -0.04283527 -0.29986602 0.21861173 0.22647075 0.17181829 0.108429484 -0.050356098 -0.5519374 0.060794953 0.23242815 0.2944664 0.061331466 0.27574703 -0.028357916 0.47621948 -0.40590382 -0.1723135 -0.042956665 -0.045146037 0.0056337435 -0.22860813 -0.06046556 0.088584356 0.21734883 -0.11569988 -0.12021811 -0.0066602034 0.096035846 0.16701876 -0.17298779 0.01533738 0.10462336 0.19492735 -0.17279904 0.08560919 -0.18746768 0.035665806 -0.23690383 -0.5992227 -0.089847304 -0.09474569 0.16256452 -0.038545944 0.33395165 -0.17995301 -0.017528912 -0.40904728 -0.065267794 0.20634687 -0.037244417 0.14611733 -0.050421868 -0.5014098 0.15892138 -0.1953781 -0.10147172 0.16317214 0.11314951 0.10422892 0.27506176 0.11932059 -0.24243933 0.076107755 -0.26218486 -0.11138367 -0.47852576 0.10697332 -0.13570464 -0.14955632 -0.19943522 0.32366812 -0.3350076 0.27744675 -0.11480215 0.1912812 -0.11116129 0.17424148 -0.28227928 -0.040539127 0.075375 -0.40181777 -0.12719177 0.039132725 0.19755243 -0.28309646 -0.3275494 -0.31359074 -0.11341158 0.53029794 0.28333786 -0.23464318 0.25583145 -0.012652705 -0.26672128 0.03043706 -0.0029185787 -0.119708605 -0.26179504 -0.19405723 0.08187096 0.30692095 -0.114519365 0.03097777 0.04365394 0.23083213 -0.18415582 0.066284 -0.053381696 0.18940663 -0.116682395 0.053901512 -0.27044764 -0.017401332 0.07837115 -0.37867564 0.33162254 0.027683586 0.26996297 -0.17451775 0.075481795 0.11009911 0.17882057 -0.044232223 0.50337976 -0.18290064 0.08993813 -0.13053043 -0.31126314
5594 0.30988476 0.18253696 0.1997527 -0.016966287 -0.07725543 0.021189667 -0.23387587 -0.059024133 0.28145292 -0.33993593 -0.39784515 -0.18645455 0.45967922 0.12462347 0.12929451 -0.13688114 0.07333732 -0.49783248 0.0149211 0.0045176707 -0.15574254 0.115630426 0.06906958 -0.10993142 0.116327174 0.26130342 0.24002424 0.038496837 -0.01573765 0.20545985 -0.14157847 0.1516732 0.16697863 -0.1776157 -0.07667496 -0.27449965 0.010885174 -0.005101751 -0.017068798 0.26731798 -0.35982528 0.2884092 -0.13760622 -0.07377933 0.0312858 0.12806295 -0.29979172 -0.19987638 -0.17090413 0.07098224 0.21279122 0.39517578 -0.09640692 0.076152526 -0.28564054 -0.059326123 -0.22563739 -0.11777229 0.13069738 0.25708598 0.09677462 0.2723179 0.05462752 -0.035620604 0.118491024 0.100861065 -0.1657946 -0.26982868 -0.24742629 -0.093242064 0.2576513 -0.38453075 0.07633069 -0.24333991 0.106483266 -0.33979163 0.065641925 -0.06662605 -0.26421565 -0.11588092 0.16044047 -0.2887294 0.014227849 0.105055794 -0.19827718 -0.42683175 -0.03537335 -0.08824198 0.37284985 0.1854374 0.24379423 0.027125495 0.03877179 -0.113176085 0.18998808 -0.09005488 -0.18442728 0.05288954 0.033237856 -0.04889345 0.5219213 -0.5538733 0.09022467 0.23173177 0.14818944 -0.25134915 -0.46901157 0.266655 -0.39831945 -0.45483845 0.23221375 0.0044147945 0.09318441 0.14083357 0.3601797 -0.02668698 0.17355603 0.43947533 0.03311273 0.017039202 0.07904948 0.07349851 0.08734779 -0.12074533 -0.36674348 0.3726502 0.00074681937 -0.39779517
3309 -0.083026856 0.008619547 -0.14009781 0.102554835 -0.09731016 0.011370795 -0.15231256 -0.1775435 -0.020565767 -0.074107304 0.062298443 0.11659921 0.09440267 -0.14277099 0.19954208 -0.25820827 0.004630343 0.11352241 0.18531139 -0.1834755 -0.07233411 -0.016479868 -0.12039024 0.1781601 0.025853833 -0.26162475 -0.2796333 0.21201806 0.27120793 -0.03532617 0.11777304 -0.15175469 0.1405965 0.15444505 0.39133668 0.14910893 -0.06740536 0.34659883 -0.11358705 0.14701165 0.22049536 -0.068964705 -0.202501 0.10882586 0.042330068 0.22248112 -0.23208688 -0.15018065 -0.44763103 0.14318722 -0.0156135 0.056390576 -0.28224656 -0.37347287 0.10756823 -0.021345558 -0.12117672 -0.012297721 0.07949723 0.2758987 -0.062167585 0.30232126 -0.0764529 -0.35155678 0.13367169 0.040892776 -0.13731861 0.1916916 0.08555948 -0.14115494 0.24383299 0.030105619 -0.21193103 0.03633973 0.26396367 0.22044317 0.33790627 0.067544036 0.28552848 0.11556958 0.23364998 -0.029215297 -0.4131936 -0.00018709264 -0.3507912 -0.035646114 -0.18934965 0.063931085 0.17068633 0.15607975 0.22851288 -0.1209717 0.08818737 -0.3257893 -0.35130057 -0.1016296 -0.08846895 -0.45972008 -0.19896185 0.12226611 0.14645037 -0.072160624 -0.016000304 0.18786792 0.360482 0.07126682 -0.019855542 0.29894403 -0.15829186 -0.41618288 0.60688454 -0.07469241 -0.49607146 0.30285877 0.10950586 0.28809512 0.09780624 0.08393413 -0.09540676 0.0647807 -0.4923046 -0.28429025 0.13647766 -0.17534932 0.14109795 -0.28452232 -0.058491547 -0.3081246
3326 -0.041480877 0.076191396 0.07608761 0.12652776 0.22013208 0.006370566 -0.095528215 -0.07928711 0.16067743 0.17988245 -0.040721297 -0.06717652 0.4392098 -0.06979559 0.09015813 -0.122495644 0.052357536 -0.020710617 0.16192548 -0.13463975 -0.15374483 -0.20443723 -0.3503695 0.34408006 -0.020261522 -0.12061769 -0.35208476 -0.15464585 0.41800916 0.16871276 0.11376561 0.13128568 0.45769018 0.23459367 0.40221104 0.2647163 -0.016608145 -0.011919828 -0.27604058 -0.04172745 -0.15699337 -0.05053536 -0.19367613 -0.054090016 0.11432614 0.30605462 0.043956075 -0.011954496 0.014640126 0.14839496 -0.011081685 -0.03548557 -0.19962503 -0.3131397 0.027959706 -0.17632052 0.020615274 0.29918337 0.00039084017 0.2612007 -0.22484548 0.3257958 -0.0734108 -0.10890652 0.051951867 -0.03619921 -0.0059755207 0.10076315 0.18881094 -0.15940914 -0.043275267 0.083831705 -0.17446788 0.13831294 0.08064113 0.08117566 0.13437456 -0.011562439 -0.33034778 0.24780348 0.12946497 0.12744096 -0.14562917 0.47780636 -0.20800577 -0.4359585 -0.14024192 -0.3400394 -0.1681406 0.21867275 0.40001255 -0.27669814 0.038792033 -0.038184706 -0.09681484 -0.05425633 -0.12335646 -0.2939251 -0.07830572 0.008066682 0.1404085 -0.2824132 0.33634937 0.052575044 -0.139266 0.051022373 -0.2224022 0.19898617 0.16741331 -0.16018023 -0.021418849 -0.25321192 -0.19673045 0.11640563 0.0270411 0.19090432 0.029291596 0.37028033 -0.008791703 0.32350516 0.04709122 0.026550276 0.004121894 -0.050876394 0.061826408 0.2401981 0.025048267 -0.03876276
7329 0.25641045 0.41833904 0.18381603 -0.21165474 0.13509536 0.35226753 -0.022777691 0.033548612 -0.073490195 0.25426093 0.14248426 -0.29553345 0.4882764 -0.11647101 0.21483399 0.039386675 0.17392217 0.049637035 0.26198536 -0.27829918 0.04446874 -0.09462618 0.20721503 -0.0695905 -0.21347582 0.11428708 -0.20515458 0.19787769 -0.010066895 0.121054694 -0.07910084 -0.058162436 0.10022866 -0.19481622 0.14953755 0.104970194 -0.14821261 -0.2597678 0.14945795 0.12979282 -0.48097995 -0.16570252 -0.15308112 0.11590079 -0.13600571 -0.07257798 0.01149393 0.2056444 -0.3205301 -0.1842364 0.074606754 0.004189 -0.44518948 0.06260441 0.31240097 0.045841128 0.009887432 0.037988 0.061194453 0.15047467 -0.20239687 -0.096493505 -0.10061896 -0.10678447 -0.020098012 -0.166686 0.22028886 -0.4857499 -0.21329245 -0.570864 -0.1946796 -0.30890292 -0.1321355 -0.17153606 0.12954356 0.15605624 0.29015943 -0.031663127 -0.2433243 0.050883524 -0.11791629 -0.2818495 -0.09264219 0.034511942 -0.20740262 0.29337147 -0.073551364 -0.28455344 0.2616056 -0.13672063 -0.21471299 -0.26046 -0.042393066 -0.13135432 -0.030049054 0.10974553 -0.045858998 -0.082665 0.1804579 -0.17684674 0.6140577 0.28381252 0.24748401 0.32590955 0.18571119 -0.26546392 -0.3478214 0.15149225 0.123593315 -0.25379834 0.20880216 -0.03613486 -0.30542088 0.07610118 0.22634766 -0.060230356 0.24521595 0.023796363 0.15398367 0.6144581 0.005513244 0.3724096 -0.18070817 0.14153334 -0.3424066 0.15934838 0.08438297 -0.082603835
4088 0.28632265 -0.055618588 0.041874334 -0.0111002615 -0.18054068 0.19108324 -0.106340066 -0.35415706 -0.09483854 0.1398615 -0.10712286 -0.1580881 -0.0009684414 -0.26268485 0.07941742 0.3720779 0.20020306 0.32737055 0.20494886 0.35867321 0.03511257 0.17392094 0.24430323 0.16665623 0.2484682 0.086107776 -0.16383407 -0.07086159 0.23714252 -0.26115382 -0.060977127 0.014404859 0.14555141 -0.03306138 -0.14624052 -0.089611456 0.11479876 -0.21062131 -0.024905676 -0.003508484 -0.06640894 0.021191683 -0.017299222 0.06214844 -0.3102984 0.34518865 -0.3410894 -0.024448955 0.100575686 0.26004878 0.40022355 -0.3003245 -0.21239299 0.082338035 -0.5873555 -0.35338446 0.030125802 0.010238726 0.10256503 0.3358524 0.003594511 0.06846314 -0.088144764 -0.42498067 0.10646599 0.044979855 0.2666511 -0.25630823 -0.06075989 -0.3597623 -0.15573654 0.20501094 0.06437977 0.06840107 0.03876391 -0.25662607 -0.1365918 -0.09022504 -0.0436864 0.23565897 -0.34131315 0.025936658 -0.029785654 0.20009944 -0.5826606 0.18089063 -0.280152 -0.25156096 0.050496884 -0.18175083 -0.08545128 -0.15078649 0.00888952 -0.2546478 0.2890852 0.04870337 -0.04360396 0.08491157 -0.43456024 -0.11320304 0.07469247 0.18264252 0.24261595 0.3632115 0.2159262 0.0075708157 0.17770162 -0.034940675 -0.17559482 -0.5521853 -0.062166248 0.112918235 -0.1185215 -0.19397478 -0.08864066 -0.1647167 0.1728648 0.21534076 -0.17569679 0.26171678 -0.24556331 0.22649215 -0.34895483 0.1659294 -0.39041775 0.11380236 -0.006972526 -0.13906206
7532 0.07710073 0.44560933 0.1665802 -0.24129137 0.0031864205 -0.10015722 -0.07425193 -0.06568712 0.14049046 0.014702089 -0.085482806 0.23590815 0.08834584 -0.094959065 -0.29294217 -0.45608753 0.054109354 -0.13637751 0.26755327 -0.28409025 0.10935894 -0.31272647 0.09467702 -0.16159798 0.033117075 0.07600936 0.011420085 0.04821236 -0.1307961 -0.27675954 -0.24586459 0.22566773 0.017011741 0.1448448 -0.3308047 -0.2166929 -0.028413719 -0.084845364 -0.40435755 -0.18747656 0.3001041 -0.35463652 -0.099369936 0.08060131 -0.119749285 0.19342081 0.031850375 0.037122488 -0.16396447 -0.084970884 -0.33971012 0.053043433 0.1800493 -0.1582546 -0.052298464 -0.07894836 -0.008904484 -0.05892011 0.1861117 0.24960917 -0.02827377 0.2340452 -0.03816211 -0.3699728 -0.07732508 0.12894852 -0.3155175 0.08288252 -0.055585347 -0.07801507 0.5138994 0.22269754 0.2609271 -0.1764017 0.08581933 0.014653228 0.07708106 -0.011942282 -0.16881865 0.09283862 -0.2916663 -0.17965476 -0.2612956 0.46279207 -0.25064617 -0.2544345 -0.21487834 -0.18625356 -0.38482872 0.050801598 0.19674474 -0.34540606 -0.05373175 -0.35367244 -0.015641589 0.10022889 -0.22445126 -0.18922283 -0.13890184 0.17266323 0.07085099 0.029753031 0.26346767 -0.00018280349 0.16745271 -0.18449463 -0.15172751 0.37653053 -0.03508091 -0.3533709 -0.109224066 -0.060436357 -0.17682026 0.5208381 0.1371491 -0.05254464 0.28775665 0.032570053 -0.3125829 0.4742087 0.18481818 0.0005695142 -0.31186324 0.1730036 -0.56496704 0.024718588 -0.011837121 -0.19700061
8517 0.021364149 0.11763207 0.26579988 0.0035733208 0.2025765 -0.14692813 -0.38905314 0.33302182 -0.029468976 -0.063781574 0.452128 -0.2032172 0.17934941 0.27186847 0.31442264 0.04440485 0.3841177 -0.35568112 0.25313324 0.25596416 0.033897072 -0.021687577 0.10709527 0.014014259 0.0020503781 0.13970098 -0.17339489 -0.046677478 0.06276927 -0.054801304 0.29433346 0.36228704 0.032282118 0.13340107 0.20807864 0.10004354 -0.4402476 0.0040914197 0.13620253 -0.17350073 -0.122202374 0.32344294 -0.07563025 0.33557266 -0.14048652 0.24150595 -0.37877887 -0.34055638 -0.16491324 0.15601061 -0.1520833 -0.0070449393 0.005815997 -0.16039881 0.00015973642 -0.40524963 -0.26316485 -0.1515611 -0.10206056 0.34784272 -0.097533986 -0.005008562 0.14345409 -0.33993256 -0.4378783 -0.080856256 -0.07267503 -0.14264494 -0.21935594 -0.5229965 0.27524367 0.21967669 0.12135668 0.3244578 0.1794521 -0.05878441 0.08729615 0.09729917 -0.117719084 0.18710163 -0.110438 0.16392286 0.09008002 -0.033782694 0.023118636 -0.15759525 -0.113803506 -0.109611325 -0.31429413 0.13541287 0.43012205 -0.16128175 0.10245906 0.12197319 -0.19088092 0.079898074 -0.11594588 -0.27655333 -0.18769623 0.15912315 0.12171241 0.20210978 -0.111539125 -0.041694295 -0.209657 -0.054885965 0.036104526 0.25975776 0.07431522 -0.4434854 -0.10197427 0.12891327 0.024715517 0.4236603 0.10409238 0.17701346 0.13712625 0.16093148 -0.05900374 0.26937228 0.0740918 -0.11954279 -0.11872604 -0.08109603 0.09698394 0.37329537 0.020475855 -0.35547015
983 -0.059177633 0.22723578 0.08154414 -0.11130361 0.14584833 -0.042420086 0.17706627 0.0686104 0.08600606 -0.117359444 -0.3058468 0.045168906 0.06825806 0.106285155 -0.24933545 -0.13222554 0.20537925 0.13627005 -0.15273586 0.4055949 -0.20790003 -0.019845154 0.2931454 0.40407372 -0.23887335 0.19202457 0.24850069 -0.03987305 -0.123742595 -0.11093172 0.36141804 0.14577195 -0.28175578 -0.064597934 0.25606164 -0.09223305 0.08204631 0.15741342 -0.29545802 -0.33807644 -0.3044828 0.18788546 0.14791866 -0.11697038 0.12047645 0.050839998 -0.14033535 0.12952632 -0.20067681 -0.02796137 -0.32013366 -0.17431103 -0.19490188 -0.07536427 -0.045663957 -0.03383012 0.062286057 -0.23064499 -0.27571097 0.1316405 0.41445455 0.38553536 0.2751411 -0.3463232 0.11021793 0.35436836 0.13560465 -0.21904342 -0.2638892 0.42787486 -0.23140629 0.19490425 0.354663 -0.20191732 0.12583359 -0.040068086 0.084507674 -0.08904833 -0.50106424 0.061487693 -0.37402564 -0.34630674 -0.019284444 -0.0675857 -0.2930803 -0.38219175 -0.24933855 0.054824866 0.046208303 0.3940914 -0.15565747 -0.2548384 0.35593137 -0.17016052 0.057505183 0.3010684 -0.24217652 -0.30002964 -0.16202645 -0.15112725 0.31351128 -0.09275829 -0.04380458 0.32950062 0.372668 -0.08240795 -0.16453034 -0.01571857 -0.17700657 -0.40345567 -0.1954947 0.08980003 -0.064985864 -0.08069243 0.44701073 0.083146974 0.05209292 0.2772592 0.045929957 0.3889725 -0.21445772 0.18289864 0.016934356 0.009104728 -0.36949 0.054911174 -0.072203085 -0.6729012
7186 0.1995786 0.23936833 0.10256505 0.14133103 -0.1473434 0.19046056 -0.43853566 -0.076047115 0.29042932 0.40661854 0.2928078 -0.01603807 0.5769495 0.0039331303 0.34090176 -0.09874821 -0.09538908 -0.117534176 -0.25615716 0.4707847 -0.037683588 0.016389249 0.2211511 -0.06129414 0.23181403 -0.12599546 -0.23941733 -0.19319105 -0.011255515 -0.1537257 -0.0967679 0.043843698 0.011711026 -0.18304975 0.14665234 0.4147628 -0.15586188 0.33359477 -0.013717969 0.042254414 0.16386051 -0.015389867 0.07724944 -0.03344123 0.103186384 -0.2275664 0.029528212 0.19685495 -0.29159728 -0.06634885 0.082151376 -0.3073629 -0.0011553934 -0.23288932 -0.111426264 -0.22290754 0.22516659 -0.10873055 0.1405893 0.14649959 -0.2186747 0.3729164 -0.05052143 -0.75820494 -0.20345823 -0.0003774051 0.258311 0.13150728 -0.08628503 0.089102425 0.28695753 0.18467861 -0.097333916 0.21275893 0.4511227 0.029178144 -0.14873947 0.2657947 -0.1497346 -0.093889326 0.18212947 0.01512507 -0.052445453 0.098809056 -0.24360164 0.36946568 -0.5459358 0.050808046 -0.1112674 0.3876767 0.097660735 0.09659641 -0.3177661 -0.06220577 -0.09638257 0.13993685 -0.060665563 -0.30736887 -0.17891127 0.0034936573 0.32489452 -0.40061587 -0.01176406 -0.117410876 0.087584645 -0.20164032 0.2328665 0.3046668 -0.4505453 -0.23630036 0.07434886 -0.1548738 -0.08205414 -0.038526174 0.33227137 -0.2556982 0.27845722 0.20749736 -0.14886858 0.34823406 -0.27557665 0.3203716 -0.109737664 -0.31888342 -0.0014896775 -0.13278951 -0.34333864 0.0076634646
10075 -0.25078633 0.059149418 -0.1380963 0.19319463 -0.051432572 0.39742512 -0.1759784 -0.32495794 -0.0037332966 0.059993956 -0.09448757 0.04744194 0.030261667 -0.06460976 0.15026075 0.022586063 0.021610592 -0.14189006 0.24249406 0.21717548 -0.17752087 0.1320582 0.33023092 -0.0567015 0.021157267 -0.20750925 0.22923572 -0.44723183 -0.03871681 -0.15121982 0.29225376 0.047319654 0.42547065 0.43570104 0.37360084 0.06586374 0.33254862 0.07958788 -0.35709804 0.050197672 0.25902596 0.039965294 0.11482311 -0.07250128 0.032121647 0.4413191 0.057945102 0.26716927 -0.1808169 -0.19863908 -0.07657061 0.0080186585 -0.2847266 0.14407003 -0.108700976 -0.1015187 -0.2010856 0.009453311 0.14867346 -0.023873728 -0.1296279 0.093218684 0.08502508 -0.020583387 0.11516097 -0.107218996 -0.12330887 -0.0744659 0.011088757 -0.16346629 0.2156064 0.1096624 -0.22396198 -0.19000278 0.2382328 0.39041612 0.23352572 -0.055842627 0.12583677 0.0086337095 -0.06484233 -0.043294452 0.20843217 0.40499353 -0.17170726 -0.5425534 -0.1280504 -0.37767613 -0.03306447 0.5746285 0.3068923 0.07208382 0.32378328 -0.16122247 -0.2602412 -0.055727996 0.023408195 -0.36069354 -0.16033909 0.32863346 0.24332424 -0.24073789 -0.32880297 -0.065301985 0.05671066 -0.03605802 0.091711 -0.050924025 0.006391992 0.022778554 -0.10551347 -0.04091447 -0.3664608 0.16780424 0.048346475 0.30348295 0.65365577 0.2208092 -0.17169242 -0.16009349 -0.18175885 -0.33939844 -0.27266508 0.3103348 -0.16265683 0.46768615 0.053582005 0.054246902
4087 -0.10349817 -0.17219935 -0.07084451 0.21421137 0.102916986 0.044440027 -0.03752303 -0.37802613 -0.1352931 0.097178236 0.14327028 -0.07428122 -0.13286136 -0.3351988 -0.083253115 0.108076826 0.12605281 0.4257426 0.062743805 0.34454855 -0.06396038 0.09160559 0.23940466 0.13346429 0.11989555 -0.17634985 -0.014246593 0.037774295 0.14228392 -0.17407613 0.0718511 0.58069307 0.43537992 0.20992519 -0.32621953 -0.092875086 -0.047971375 -0.32300413 0.24874093 0.055208728 0.05546569 -0.04881231 -0.18955849 0.14604639 -0.44681838 0.42857105 -0.35062882 0.0035990418 -0.21366379 -0.011456798 0.47507796 -0.1651682 -0.5682324 -0.10960852 -0.36391357 -0.40027955 0.10307705 0.015196403 0.12280134 0.23243946 -0.06682434 0.16419639 0.136306 -0.08307181 0.28664944 0.09287156 -0.044437636 -0.2539446 -0.19905296 -0.5761487 -0.11905262 -0.022192232 -0.0050391955 0.18070237 0.089196615 -0.05855949 0.008613867 -0.27146655 -0.0243185 0.41523406 -0.19273058 -0.18368831 0.03417671 -0.058849867 -0.46189564 -0.20590314 -0.57572603 -0.400462 -0.0063782725 0.10895093 -0.07371091 -0.1159537 0.121155106 -0.07348232 0.32403877 0.08631057 -0.27619454 0.14030771 -0.18857826 0.26083007 -0.19576028 -0.088713326 0.36523768 0.2675419 -0.18002515 -0.044842824 0.019482588 0.019741315 0.015378013 -0.6407316 -0.19362725 -0.045818552 -0.25287908 -0.26025492 0.044208016 -0.07795371 0.034214634 -0.091779724 -0.116176866 0.2629421 -0.3090674 0.12405929 -0.2131118 0.12518536 -0.20570956 0.13107546 -0.091878854 -0.26947796
7428 -0.3294015 -0.06613858 0.129347 0.08198003 -0.15328905 -0.0051057176 -0.14178269 -0.2952768 -0.16736086 0.35473576 -0.039461505 -0.17139123 0.4219417 0.24522208 0.19374052 -0.05631803 0.22284974 -0.031679016 0.22569029 -0.20492238 -0.33777666 0.11191594 -0.38219637 -0.21239814 0.23093657 0.03904768 0.07427406 0.0043148324 -0.10478687 -0.14101511 -0.19317004 -0.27474415 0.17854244 0.3020571 0.51640713 -0.1740535 0.3597583 0.013670668 -0.09950932 -0.40278465 -0.14076105 -0.33676323 -0.17098007 0.12414026 -0.48441124 0.017779253 -0.0136022 -0.064256735 -0.11611458 -0.04846493 -0.09583278 0.19274376 -0.0928779 -0.46495903 0.010370301 -0.4198494 -0.03227994 -0.16659038 -0.15697823 0.3030728 -0.50818104 0.26855785 0.15218581 -0.26808965 -0.045534637 -0.07314669 0.1704931 -0.33189836 -0.35545254 0.22482952 -0.30106047 0.14596121 -0.039850004 0.22384103 0.19017603 0.37302905 -0.23787525 -0.04528861 -0.3953236 0.15460172 -0.19867098 0.17598987 0.10861019 0.17741995 -0.21435608 -0.05594106 -0.405967 -0.08545584 -0.2784865 0.10886049 -0.036329173 -0.055976257 -0.04066399 0.27143934 -0.3634379 0.00047879084 -0.052536163 -0.36079058 -0.26132923 0.29310504 0.37506527 -0.11567601 -0.2306317 0.22239773 0.0077624856 -0.051302027 0.30029917 0.39731437 0.040053796 -0.49170655 -0.09892688 0.63957506 0.04926505 0.049913026 0.29700637 -0.16659999 0.11513309 -0.21599649 0.11588895 -0.065629326 0.047489982 -0.1043893 -0.061151374 0.36251125 -0.015229765 0.31260526 0.062209956 -0.29827815
3066 0.13080198 0.2221026 -0.16689718 0.16711183 -0.18893899 0.00025076303 0.084171094 0.010782985 -0.13496931 -0.043974124 0.03225998 -0.09359422 -0.06532769 -0.38917485 0.22688662 -0.15850393 -0.31678993 -0.28481412 -0.13049752 -0.10517454 -0.19838041 0.07176589 -0.045753073 0.13698003 0.014937164 -0.0037735542 -0.06998712 0.10544761 0.37988904 0.38458893 0.16656278 -0.13282132 0.2526801 -0.050135385 0.09645323 -0.13159886 0.053229004 0.1649837 0.06471694 0.0951065 -0.25734806 -0.13459046 -0.1061781 0.27962047 0.08452079 0.0058404636 -0.2882713 0.20522957 -0.14394684 0.010957963 0.055515714 -0.3134466 -0.4465008 -0.07539204 -0.2704538 -0.36024395 0.25642827 -0.03725358 -0.076919205 0.24348374 -0.12904935 -0.04759723 -0.024238827 -0.58285564 -0.10396957 -0.34554225 -0.08295253 -0.15913919 -0.12100551 -0.09228694 0.35426247 0.12528723 -0.14559892 -0.16497603 0.3406523 -0.021279523 0.016716449 0.14490911 -0.25945887 -0.22027528 -0.40741995 -0.23702894 0.037290923 0.018049112 -0.1883984 -0.055949513 -0.42626297 -0.043587763 0.005421744 0.093176246 0.09835661 -0.10859266 0.5841665 -0.38389295 -0.1838223 0.037462577 0.071149126 -0.105706826 -0.16859312 -0.11981961 0.25879964 -0.10899518 0.06501609 -0.06057589 0.15711537 -0.25287703 -0.19614059 0.1537891 -0.17069325 -0.16761556 -0.033208877 -0.05731472 -0.20578468 0.0364732 0.20368572 -0.039425462 0.25573307 -0.2587247 0.095795915 0.032129396 0.1366286 0.22194245 -0.39200285 0.23061994 -0.14227673 0.09538591 -0.11715118 0.056757145
5578 0.053654492 0.43386453 0.21634808 0.14014368 0.1638933 -0.03714381 -0.32820904 -0.19651322 0.05131666 -0.021463491 0.08575069 -0.050074715 -0.03215529 0.08622202 0.3529967 -0.45898733 -0.14510556 0.16406052 0.23023273 -0.1944829 0.1168939 -0.010306321 0.23383167 -0.09918083 -0.056588236 -0.13030967 -0.24057813 0.13427843 0.23071104 0.20244986 0.0050442186 0.044125658 0.051204495 0.32485443 0.0443692 0.18822731 -0.0014291722 0.072442435 0.17755543 0.028448304 -0.024850296 -0.033148784 0.051038984 -0.040250864 -0.12906641 0.31323856 -0.018091395 0.16025913 0.05636226 0.040109493 0.101749666 0.14986604 -0.071620904 -0.009322324 0.5143299 -0.372271 0.46320868 -0.1746735 0.18728212 0.20158646 -0.19163637 -0.009119985 -0.07085543 -0.2937436 0.054342665 -0.39950457 0.18751207 -0.34907177 -0.1431429 0.011120695 0.22957572 -0.023607412 0.418531 0.07995287 0.107571654 -0.20700976 -0.29366565 -0.13818318 -0.18117183 0.28866103 0.52919704 0.25745395 -0.024049096 0.040212836 -0.59481555 -0.2612783 0.11169685 -0.26240724 0.09628894 0.2714611 0.1694006 0.22767748 -0.062021557 -0.06157943 0.1344581 -0.028657997 -0.3610486 -0.49461493 0.09369167 0.002536971 0.041158035 0.024277985 0.11610144 0.25750417 0.45805955 0.06920027 0.02129504 -0.32646382 -0.099600315 -0.8134654 0.036942396 -0.2522727 0.056672696 0.24483685 0.14233054 -0.25763595 0.07145672 0.1918781 0.28726846 -0.22418079 0.0786348 -0.0076231263 0.20217654 -0.0020173718 -0.16986428 0.10556458 0.035320364 -0.27480614
8726 -0.13234413 0.27242944 0.024993947 -0.28040865 0.020329159 -0.08906768 -0.44756895 -0.08636894 0.11003935 0.24088722 -0.043325424 0.07104127 0.22336794 -0.11095491 -0.053917874 0.18315549 0.30612797 0.0903081 0.549392 -0.30385855 -0.38901985 0.37713444 0.08964899 0.22643961 -0.069087125 -0.07778088 -0.29809082 0.0025097597 0.37205222 -0.06835031 0.09282304 0.05793055 0.43112546 -0.080068864 0.09934149 0.39083555 0.21837439 -0.106512666 -0.16374856 0.08201861 -0.14370833 0.29793307 0.043290902 -0.10133153 -0.09721038 -0.15327841 -0.37191597 0.19192441 -0.09740746 0.19096206 -0.31210795 -0.03677473 0.06491617 0.2813624 -0.034385014 0.1406956 0.09196764 0.22118752 0.16055259 0.37023556 0.118767835 0.2958408 -0.39199537 0.0015314633 0.23510462 0.060410928 -0.2099339 -0.16219613 -0.22772747 -0.37614733 0.29426894 0.31956056 -0.28844345 -0.11972694 0.36325553 0.19227977 0.040995724 -0.052176967 0.0019866298 -0.061090916 -0.22590284 -0.0012476468 -0.23384395 0.38489082 -0.17721191 0.0619969 -0.4239857 -0.19271782 -0.44509917 0.05484965 0.04924559 0.011165551 0.4740411 -0.11499586 -0.058600556 -0.021863017 -0.028087545 -0.42088968 -0.22575904 -0.012006865 0.31628478 -0.37690195 0.07524247 0.38534275 0.21343876 -0.14958878 0.10044471 0.16481909 -0.23553835 -0.2508567 -0.10756191 0.08682675 -0.12526913 0.2997945 0.10425567 0.1824234 0.16563715 -0.41999528 0.05108892 0.15827347 -0.12564129 0.09266812 0.19023077 0.022943255 0.089370295 -0.134112 0.10688614 0.033314917
5595 0.080324516 -0.046794895 0.28911418 0.030836398 -0.09513831 -0.004844598 -0.31732026 0.02908925 0.20527643 -0.31036577 -0.1834249 -0.13852474 0.5595609 0.044266466 0.13778773 0.0142100705 0.08573973 -0.5377736 -0.17863667 0.08652921 -0.10254249 0.13178474 0.2573283 -0.15570971 0.07424049 0.16050619 0.27884963 0.021327674 0.17801389 0.36931136 -0.081911035 0.121326745 0.09217461 -0.026653767 0.25556892 -0.1477632 0.07891536 -0.10759124 -0.047712065 0.06006145 -0.2627123 0.13272236 -0.35678786 -0.18266809 0.03495988 -0.14070852 -0.34430113 -0.3643735 -0.19994138 -0.011684122 0.20660803 0.14338416 -0.28431115 0.1377284 -0.17373005 -0.11544423 0.062227953 0.08568008 0.1201016 0.32639202 0.059045296 0.33385262 -0.121893086 0.07417333 0.29527572 0.008525414 -0.13443565 -0.22381699 -0.17527811 -0.16534379 0.19238424 0.05765072 -0.04405001 -0.39081806 0.22520326 -0.32469606 -0.2265294 -0.11984729 -0.23750561 -0.10265189 0.109882034 -0.107771985 0.06826025 -0.07534247 -0.4581638 -0.51211846 0.23213795 -0.02945003 0.25071105 0.06273338 0.25560293 0.18352376 0.03987565 -0.14253482 0.05048743 -0.051721334 -0.45088053 -0.037615612 0.043019865 -0.2784185 0.41373146 -0.44914126 0.15854712 0.3169067 0.17409636 -0.3150797 -0.25824872 0.09745997 -0.25662217 -0.24416433 0.27166823 0.015152934 0.015871445 0.14589238 0.49649003 0.16687629 0.3771125 0.4123316 0.19852544 -0.20103239 0.006309429 0.04340101 -0.20726664 0.00030002286 -0.22786418 0.42744076 0.18466324 -0.47212726
10014 -0.12581179 -0.11129692 -0.23207164 -0.10303491 -0.17647474 -0.095027395 -0.2120838 -0.04355874 0.14463314 -0.13415246 -0.0650078 0.025860528 0.06347574 -0.12405908 0.2654188 0.09284433 0.24215916 -0.32810485 0.1042482 -0.13551427 -0.22405179 0.004596308 0.038076755 0.16124718 -0.036737032 -0.08627022 -0.04557133 -0.040454827 -0.046147022 -0.07727555 0.33428997 0.06498827 -0.16312124 0.13260189 -0.10944235 -0.13059573 0.29552683 0.32553777 -0.11905974 0.217657 -0.096998036 0.26586795 0.10124876 0.18679076 0.13889006 0.21650581 -0.24611112 0.10284139 -0.19696596 0.049594298 -0.2699363 -0.29024673 -0.40698543 0.3559777 -0.015757488 -0.16423681 -0.19830751 -0.19833688 0.029392436 0.067075275 -0.17957588 -0.26750866 -0.15769961 -0.274875 0.00152485 -0.23951979 0.027262136 0.012973247 0.13741826 -0.3445247 -0.002608519 0.059374273 0.08238469 -0.0014141465 0.39168578 0.2343099 0.20145102 0.27439728 -0.3247171 0.2638565 0.01465295 -0.09347208 -0.14761454 0.49204576 -0.11097374 -0.42411524 0.09562479 -0.61528105 -0.07563762 0.07078006 0.33613166 0.06392186 0.22305061 -0.30277896 -0.18392007 -0.15540051 0.18289691 -0.024878208 -0.022377955 0.071570806 0.107100144 -0.3765784 0.24281004 -0.007362197 0.40334296 -0.023042012 -0.057526145 0.021431386 0.13063642 -0.4025175 0.14818935 0.18667738 -0.4923185 0.19713812 0.29383087 0.06789828 0.4425863 -0.16015123 -0.2902163 0.16733296 0.34104243 0.09113774 -0.06260902 0.28919443 -0.27076137 0.2164858 0.10629481 -0.1405238
3725 -0.10579094 -0.20333719 0.092486724 0.39878693 0.06254458 0.13004541 -0.06693525 -0.15454273 0.25574103 -0.017806929 0.08643339 0.15726875 0.38566983 0.28853813 0.20718569 -0.14839658 0.17466068 -0.56299126 0.17663515 0.17552358 0.22523083 0.0027800952 0.08501748 0.2454199 -0.24919285 0.16484118 -0.15019435 -0.08016834 0.103657015 -0.14380951 -0.09463628 -0.1162687 0.013129565 -0.23996781 0.07276201 0.39805135 0.18188505 0.1619325 0.09305033 -0.09414197 -0.18953209 0.1125544 -0.13173461 0.08059146 -0.20728312 0.23045003 -0.107783735 0.35041627 -0.03025672 0.20551892 -0.22748072 -0.35719198 -0.31830928 -0.079731725 0.16307497 -0.31388444 0.06532071 -0.08942407 -0.15077612 0.32097003 0.09726899 -0.03998676 -0.103881486 0.0017510221 0.4345488 -0.042399164 0.1242962 -0.15949301 -0.19529593 -0.19271854 -0.25993645 -0.35429385 -0.063077845 -0.21062085 0.07532291 -0.3463845 0.075543545 0.094601594 -0.14581586 0.25405446 -0.29933614 -0.37888387 -0.17839871 0.22984155 -0.16190383 -0.3943483 -0.5087534 0.29785603 -0.05025444 0.069155075 0.27145946 -0.018897675 0.023565352 -0.22417162 -0.06198216 -0.040296633 -0.23397224 -0.07447705 -0.14181368 0.06521247 -0.12678798 -0.29931065 -0.072460786 0.22742988 -0.12839425 -0.043186236 -0.12836544 -0.048842378 -0.056304395 -0.32788998 0.31471112 0.06223705 0.1081537 -0.06448264 -0.110616185 0.09678172 0.45796734 0.07900882 0.008450062 0.26322287 -0.031558298 0.010762225 -0.011219906 0.22058535 -0.48923942 0.13733482 0.02282426 -0.12509383
3308 -0.035746023 0.17760164 0.4550482 0.024773767 0.15158556 0.45766354 0.2697994 -0.224767 0.15753096 0.22117186 0.22300647 -0.036442626 0.12978907 -0.16086237 0.1284642 -0.31810623 -0.04234269 -0.08877741 0.29469416 0.0007101531 -0.53051203 -0.1996431 -0.02567658 0.41545552 0.055008136 -0.39357746 -0.10590434 -0.0010174456 0.16839921 -0.10143567 -0.16336869 0.08767307 0.014802724 0.059595045 0.25841343 -0.09142044 0.04078849 -0.09864316 -0.26053068 0.13111189 0.10472502 0.10435498 0.06995203 0.5126213 0.18588632 0.14762743 -0.33551362 0.18058805 -0.32740456 0.074106574 -0.16352892 0.11466016 -0.17346624 -0.18198904 0.28577754 0.06542076 0.02642387 -0.17680459 -0.1439115 0.24590147 0.049138192 -0.17608446 0.046893764 -0.46406642 0.21485673 -0.06434794 -0.093904816 0.21913613 0.04345696 -0.07626698 0.0659548 0.29865474 -0.21674994 0.2330374 0.30120754 0.21987244 0.1596644 -0.21278632 -0.43991765 -0.054392368 -0.07172311 -0.09351995 -0.24954848 0.10433766 -0.3532361 -0.13061872 0.1963892 0.15414856 -0.078160465 -0.19608131 0.32198733 0.09884999 0.2037932 -0.28462806 -0.20480804 -0.20146982 -0.35172445 -0.07034078 -0.25361356 0.11732376 -0.008718843 0.052743416 0.051521774 0.19470187 0.025631694 0.21722049 -0.020493956 -0.17197742 -0.2997565 -0.087659985 -0.12445273 0.15152691 -0.3761234 0.12964842 0.26311174 0.12777504 0.22190459 0.20864418 -0.12267958 0.14003994 -0.10107772 0.017662652 -0.3150429 -0.016111745 0.07957158 0.17758101 0.07926709 -0.15153813
9531 0.30816242 0.3459304 0.11394964 0.27117845 -0.021381518 -0.21299091 -0.46090016 -0.08664463 0.27177614 0.17249146 0.37852797 0.083834656 0.033005875 -0.33807865 0.11025092 0.063621305 -0.092324555 0.33980444 -0.071417555 -0.22848085 -0.021028487 -0.2910219 -0.39869386 -0.2282381 -0.118368976 0.27392048 0.1951501 -0.121540815 0.31260782 -0.12799221 0.2801857 0.007928832 0.5565712 -0.1937613 0.15100692 0.17278339 0.008546863 0.24833502 -0.13889967 0.14125793 0.021178514 -0.1013841 -0.06744533 -0.30089852 0.18032424 0.5001891 -0.31266707 -0.05423331 -0.15141232 -0.40632415 0.14145361 -0.0055563115 -0.22454187 -0.25869936 0.012345589 0.092623964 0.39986065 -0.062340602 -0.36035192 0.21039464 0.09827593 0.057031523 0.2778404 0.014971167 0.33050957 -0.18737747 0.17913914 0.07170563 -0.52186966 -0.17869918 -0.43725014 -0.09322358 -0.007918087 0.10717729 0.041423555 0.28346664 0.006013011 -0.08374965 -0.74600315 0.044390798 0.5117151 0.21274754 -0.06355046 0.12338345 0.008013391 -0.19565469 -0.19937849 -0.2561483 0.09843377 -0.10878689 0.37999526 0.3177003 0.39626518 0.17248747 -0.39736027 -0.23121065 0.119944766 -0.25415742 -0.3735706 0.3879438 0.5205237 -0.10812919 -0.22217184 -0.09830271 0.21219712 0.04370716 0.034558807 0.5742011 -0.45182502 0.1524232 -0.07090536 -0.13571611 -0.2935595 -0.00511631 -0.02679898 0.16490935 0.38888603 0.34725937 -0.036575276 -0.0028032684 -0.24227722 -0.08891037 0.057638627 0.22895145 -0.3880815 0.04507281 0.2119284 -0.06208534
7431 -0.119967 0.25271267 -0.14980097 0.29599506 -0.076343745 -0.1373736 0.04818109 -0.14020053 0.17181355 -0.10649493 -0.09183313 0.045125198 0.64515626 0.098727405 0.13333519 -0.035781644 -0.32167494 0.224787 0.13283691 -0.090139605 -0.04831028 0.054492667 0.14121829 0.08150779 -0.3010198 0.18957199 -0.20618805 0.112073466 0.4486601 0.03806687 0.061463967 0.11837916 0.13877593 0.09130619 0.33820745 0.31743228 0.5482442 -0.1262697 -0.07552121 0.083052635 0.015963977 -0.25175485 0.23644944 0.2247388 -0.008575565 0.04955251 -0.24756183 0.0030373798 -0.23301885 -0.08000405 0.08505171 -0.23823445 0.16285643 0.15051062 -0.23496498 0.119404726 -0.020068983 -0.11241251 0.017307347 0.109733924 0.015705906 0.27835637 0.021673927 -0.2802685 -0.06316594 -0.28580388 0.035842728 0.18625985 -0.15441415 -0.18985166 -0.24505186 0.043098565 0.06266222 0.31155047 0.003716064 -0.11759883 -0.024182647 -0.1400814 -0.35688978 0.08065449 0.20277818 0.052507058 -0.15890065 0.07135238 -0.19821243 -0.38358322 -0.14405991 -0.002976339 -0.31199357 0.0091707185 0.25793156 -0.22297707 0.09370082 -0.302278 -0.17866486 0.022187233 -0.1266612 -0.07112471 -0.17509101 -0.028290587 0.26813513 -0.3542992 -0.028785812 0.046375006 0.23201442 0.5653842 -0.30062538 0.37865642 -0.20128724 -0.3120075 0.10769242 -0.09295394 0.07153982 0.0016909481 0.41701692 0.41954932 -0.03390257 0.19818923 -0.2259623 0.18591973 -0.011481069 0.11594121 0.13174908 -0.04764817 0.051421847 -0.12195736 0.08822188 0.04814394
4627 -0.040469725 0.38635975 0.12266773 0.17528968 -0.055716403 -0.09819644 0.0970782 -0.14698198 -0.026062807 -0.12428782 0.37400404 0.07709593 -0.15464385 -0.045611866 -0.27916273 -0.20759659 -0.026722036 0.6764569 0.3469259 -0.17515972 0.124516465 0.116502546 0.03154515 0.5076414 -0.18908033 -0.30297863 0.1760509 0.11004979 -0.096541144 0.03443028 -0.069290794 -0.3181836 0.25774428 -0.009829148 0.28109923 -0.015048464 0.14180523 -0.266163 0.102691874 -0.05178163 -0.08523039 0.092754394 -0.15066627 -0.105857946 0.2606809 0.09998347 -0.23935632 0.0051722145 -0.27128068 -0.10257019 -0.17461157 -0.014962551 -0.209427 0.118241 -0.053076256 -0.1546711 0.023592485 -0.5082527 0.097668506 0.33476472 -0.09683127 -0.09150887 -0.36598456 -0.48521903 0.19032517 0.06926505 -0.20394635 0.22699815 -0.10333776 -0.18021213 0.02117857 0.19633271 0.18468136 -0.15068606 0.13782753 -0.2788094 0.3216948 0.03929012 -0.33723915 0.034888238 0.0546519 0.1333153 -0.20709005 -0.099789314 0.16469215 -0.36009568 -0.22498229 0.013544055 -0.38871574 0.23003608 0.4072241 -0.12428034 -0.29363087 -0.06426035 -0.17058878 0.18293366 -0.16427413 -0.20945585 0.29090118 -0.18819268 0.38289624 -0.28798392 -0.05846971 0.10557436 0.013552968 0.082434036 -0.058493342 0.23875298 -0.039191097 -0.33431622 0.23011854 0.082322694 -0.068969265 0.15556568 0.019781958 -0.073725104 -0.24744454 0.14725403 -0.30852178 0.18441966 -0.039529193 0.24510022 -0.025393326 0.35633782 -0.27100506 -0.12484292 -0.14031893 -0.40807486
55832 0.115447685 0.17179754 -0.2202008 0.1797496 0.17118461 -0.07336669 -0.16714856 -0.037572812 0.13275631 -0.105710536 -0.16542529 -0.08525957 -0.033114232 -0.0660147 -0.046937466 -0.024699235 0.082332976 0.14078073 0.26635078 -0.08783062 0.012450964 0.10067105 -0.19205908 0.17267227 0.26584062 -0.17267756 -0.3786884 -0.0059306496 -0.010345776 -0.11747837 0.07897797 -0.13529584 0.18292136 0.119502395 0.1122899 0.35542095 0.2561366 0.21220143 -0.19478567 0.19464578 -0.13739815 0.32985088 0.25101092 0.15847872 -0.19874169 0.2309466 -0.04495971 0.065556556 -0.39640483 0.07166446 -0.140992 0.31996933 -0.20027088 0.20781006 -0.5202152 0.15571451 -0.33372077 -0.054785118 -0.14740837 -0.024637375 -0.022909988 0.24844173 0.277272 -0.28453824 -0.14649354 -0.38071078 0.23602343 -0.16359964 -0.38324636 -0.23351422 0.36222354 0.06627073 0.24194415 -0.11691018 0.44053814 0.1476156 0.007870345 -0.04009519 -0.24842161 0.11197592 -0.43157297 -0.13027632 -0.005006131 0.3114294 -0.21413493 -0.00748967 0.039379567 -0.10266519 -0.2795364 0.05031697 0.23516637 0.1385602 0.09509314 -0.1959796 0.12964144 0.20154776 -0.12944742 -0.4775448 -0.20378609 -0.18649691 0.18979788 -0.1556849 0.10942393 0.34454158 -0.026098708 0.15628947 0.14234748 0.31773838 0.15468568 -0.050355684 -0.26389876 0.36324733 -0.043523286 0.28451017 0.3799694 0.060152773 0.4266862 -0.44183952 0.018264549 0.31311086 0.314363 -0.0151863145 -0.024143303 0.085467815 -0.14741293 -0.13489795 0.065169595 -0.1756926
5566 0.20096278 0.6770173 0.1619682 0.09734578 -0.115145914 -0.12701924 -0.19201213 -0.39054546 -0.09878224 0.058799732 -0.25031784 -0.11092362 -0.12440741 0.16395566 0.19692236 -0.28441438 -0.13480125 -0.3374014 0.15616396 -0.04395899 0.17505479 0.028536927 -0.043553185 -0.033415064 0.024025783 0.084078476 -0.07661371 0.07268056 -0.04585329 0.24597453 -0.19600591 0.39541486 -0.16189702 0.4925506 0.11908854 0.0891636 0.051188774 -0.10445076 -0.1844316 -0.28724733 -0.073479295 -0.053247236 0.08461019 -0.15962026 0.22325125 0.23520593 -0.51592207 0.4784455 0.032022156 -0.15108556 0.21427754 -0.104674295 -0.044563245 -0.15097627 0.16184218 -0.49548945 0.32175976 -0.10623375 -0.49907443 -0.076094925 0.056035884 -0.33434916 -0.1485389 -0.050365265 -0.39020836 -0.11614775 -0.19234097 -0.059010226 -0.12790196 -0.34396026 -0.22799276 -0.1532796 0.17239274 0.13051432 0.25102866 0.16666776 -0.22931042 -0.13317527 -0.04494657 0.48817518 -0.0009302638 -0.43192703 -0.04539236 0.021849953 -0.07858064 -0.19442752 0.22146772 -0.077296056 0.103226885 -0.11648721 -0.061368726 0.50749123 0.48089173 -0.24779056 0.22161725 -0.15786058 -0.5342349 -0.42691287 0.008150574 -0.2586004 0.02213491 -0.14186423 -0.18428105 0.4183516 0.067282125 -0.21727909 -0.34658855 0.23812807 -0.22989225 -0.5621092 0.21658258 -0.14725085 -0.20681612 0.036005374 0.19317837 0.17770347 -0.28887972 0.4458608 0.054806735 0.15600663 0.11126779 0.16695419 -0.39686954 0.10620335 0.27866885 -0.13213663 -0.10315287 -0.13544631
2534 0.23411274 0.06579614 0.13182306 0.011590209 0.5108241 0.07324987 -0.19007978 0.14899096 -0.09671219 0.11331228 0.020257697 -0.022104088 0.18514515 0.21152993 0.09472643 -0.3013125 0.018808201 -0.031498067 0.17278838 0.14107881 0.13050891 -0.039751828 0.12455986 0.47541383 0.08290527 0.05695157 0.20536232 -0.14969969 -0.13795206 0.011788765 -0.48169988 -0.47601295 0.37495732 0.2648808 0.014260965 0.023046836 0.30841517 0.30471694 0.10587627 0.16210638 0.3333676 -0.019913964 -0.15581849 0.07840086 0.21865994 0.19954401 0.06280163 0.19142225 0.115874365 -0.3211764 -0.21853638 0.10298635 -0.21046789 -0.023154251 -0.12358055 -0.1851069 -0.18169641 -0.20390403 -0.010777926 0.54621714 -0.41071248 0.06506462 -0.05634657 -0.35347322 -0.29945603 0.02623555 -0.034575686 0.07215518 -0.37533423 0.037622824 0.12034852 -0.23709059 -0.023960717 -0.018910602 0.0006013568 -0.060291693 -0.22645475 -0.029300315 0.13897349 0.16826127 -0.14343281 -0.16836452 -0.17576271 -0.26761827 -0.21278223 -0.3563704 0.027746197 -0.14573146 0.3537631 0.30008686 -0.024871714 -0.3347274 -0.16766405 0.05038253 0.37197548 0.08635987 -0.3471831 -0.29590306 -0.14161755 -0.35877374 0.27413863 -0.339883 0.11296018 0.25572482 -0.00789096 0.08093378 0.25267807 0.3022291 -0.6678644 -0.20305155 -0.24254017 -0.1529802 -0.34470347 0.116497725 -0.07870746 0.39795235 0.2512165 0.20410565 0.054468606 0.14803576 0.28382283 0.49419737 0.10482823 -0.06550567 -0.3823735 0.11054779 0.16689086 -0.23109645
1432 0.24371222 -0.22064976 -0.056553196 0.11363759 -0.19824709 0.11351345 -0.47334448 -0.007784048 -0.003298264 0.005682634 -0.24891724 0.21603529 0.34041402 0.19522975 -0.0021208504 -0.31815982 0.053289093 -0.20526475 0.15341981 0.5386212 -0.20212969 -0.07591008 0.065128654 -0.1322851 -0.06178815 -0.032971114 -0.10734561 0.16434786 -0.011846898 0.26757026 -0.14505751 0.35398102 0.2674259 0.20365058 0.1582466 -0.108039215 -0.1719427 -0.004832684 -0.24888854 -0.15876356 -0.3297173 0.22579126 -0.42103627 -0.17260201 0.09082269 0.13353977 -0.24990815 -0.19524202 -0.2833711 -0.22882788 -0.09610595 -0.036031887 -0.060198326 0.39214146 -0.6196663 -0.10368009 0.14777017 -0.096787915 0.1496362 -0.0259011 0.010733407 0.17986591 0.17770389 -0.23326768 0.113865726 -0.09703042 -0.08652579 -0.14074127 0.020679293 -0.719078 -0.23285444 0.023210833 -0.26075158 0.007132296 0.24480762 -0.08920256 -0.14879654 -0.29999486 -0.2642438 -0.07368722 0.11995406 -0.4058892 -0.22860917 0.14587261 -0.27777725 -0.3114659 -0.1746712 -0.072568074 0.30507857 0.09066247 0.07037575 -0.09265403 -0.0025392529 -0.40698513 0.16921045 -0.14195037 -0.18497272 0.18407702 -0.26576915 0.075566985 0.2795238 -0.4323065 0.21416722 0.48957354 0.10315891 0.022700822 -0.14310496 0.14454938 -0.105379455 -0.37589207 0.14889199 0.06929707 -0.095138706 0.40049854 0.15904933 -0.2770387 -0.20083521 0.23091915 0.117361926 -0.11629509 0.61085933 0.088099666 -0.30458647 -0.30244836 -0.24300744 0.14968091 -0.053718153 -0.24855684
2932 0.12921348 0.52805835 0.14075078 -0.08797748 0.052525394 0.12455988 -0.05770829 -0.29878306 0.24920528 -0.31315717 0.0528289 -0.1033628 0.3836689 0.022232667 0.029870339 -0.01065772 -0.23245403 0.06859427 0.023895977 0.14416455 -0.42061114 -0.18732035 -0.06948864 -0.18100792 0.055891126 -0.15664184 0.044448186 -0.03556451 -0.00039267231 0.13517536 -0.054847322 -0.08524355 -0.09043503 0.2749196 0.09317644 -0.36357814 -0.06545784 -0.20076202 0.028554248 -0.1924078 -0.24121414 -0.11474917 0.06758292 0.10657338 0.40267155 -0.04239312 -0.28655526 -0.0151319625 -0.2569804 -0.024904504 0.075690016 -0.32303727 -0.30194414 -0.23579581 -0.1277078 -0.15566576 -0.09056534 0.3049831 -0.3453078 0.3200442 0.09831716 -0.010683679 -0.08313121 -0.10478927 0.16424221 -0.32762173 -0.1158752 -0.28283024 0.16945042 -0.15292485 -0.08919463 -0.15060988 0.40130407 -0.1628415 0.028435806 -0.15781534 0.4769413 0.2457968 0.07320702 0.17859559 -0.21361285 -0.07738013 -0.020970449 0.18303485 -0.12303301 -0.16496818 0.027829193 -0.15297905 0.23512541 0.47169006 0.42476845 0.019395333 0.09196078 -0.77472275 0.53328633 -0.1384841 -0.56085545 -0.097831264 -0.25339827 0.09505334 0.21399736 0.045574687 0.044540063 0.2625569 0.15443394 0.29616973 -0.13639365 0.17053328 -0.24134137 -0.33607745 0.23162855 -0.059497505 -0.04092038 -0.050459806 0.18979715 -0.26581925 0.45443213 0.27882898 -0.09410685 0.14015014 -0.124964066 -0.010270583 -0.11493345 -0.62549174 0.15035485 -0.04788772 0.026076304 -0.30688727
801 -0.19686998 0.44837365 0.19203183 -0.012554128 -0.0091562215 -0.08704455 -0.15587059 -0.18990088 -0.441882 -0.22028324 -0.36562312 -0.16102126 0.25457293 -0.039974842 -0.014682371 -0.4342136 0.36905482 -0.12122039 0.3303877 0.01756295 -0.009801379 0.29819664 -0.16290289 0.057898205 -0.3293656 0.01980266 -0.079212196 -0.10901605 -0.28665715 -0.0270986 -0.036790524 -0.28040412 0.2716615 0.28876594 -0.051683243 0.022816902 -0.30763558 0.05046975 0.2583544 -0.12999304 -0.15867458 0.22295913 0.008316698 0.12046595 0.19784297 0.4629957 0.07229038 -0.099048965 0.003742054 0.07775844 0.28685933 -0.33378005 -0.34609145 -0.3272091 -0.113230646 -0.15145855 -0.07622542 -0.25172767 0.20376258 0.10343586 -0.06657176 0.35381624 0.12935407 -0.03399503 -0.43022698 -0.27032176 -0.12074927 -0.24552658 0.11146107 -0.28843403 -0.013528101 0.22430468 0.16509315 -0.008720375 0.32020396 0.07731226 -0.04766486 -0.47050563 -0.08759911 0.06823955 0.41825932 0.19903268 -0.12123177 0.051309615 -0.25999224 0.05049098 -0.25208914 0.10359239 -0.21265419 0.21601057 0.10964049 -0.037800487 -0.075574696 -0.35247034 -0.2837616 -0.30773377 -0.35975027 -0.55157137 -0.19620529 -0.109550156 -0.021297274 -0.060865812 0.20770903 0.3280285 0.14450347 -0.38872403 -0.3926889 0.043929014 -0.07602899 -0.3068688 -0.18968719 -0.01936342 0.2572743 -0.079825155 0.43375993 0.014993925 0.050943974 0.29700717 -0.23714744 0.07231602 -0.12494183 -0.09892627 -0.32786414 -0.029378781 -0.14968671 0.008720581 -0.013042556 -0.119525604
7531 0.2619144 0.37033385 -0.24446034 -0.20857498 -0.1575439 0.09999826 -0.1544348 -0.156509 -0.009501228 -0.012231186 -0.005244842 0.09959358 0.2547595 -0.1599771 -0.10711709 -0.37892348 -0.09871592 -0.16442224 0.11110683 0.067961775 0.046216972 -0.4258953 0.23982513 -0.082953334 0.07323856 0.25996742 0.03453345 0.03525305 -0.12487557 0.3427999 0.016956942 0.092153974 -0.1291992 0.009855769 -0.13457103 -0.16093206 -0.14905673 -0.01926373 -0.2913385 -0.101216055 0.17731194 -0.31584337 -0.16531475 -0.015199129 0.022538228 0.35131177 0.024319716 0.06234332 -0.23606871 -0.07181468 -0.105560176 -0.16228826 0.07337653 -0.1681814 0.02254916 -0.23681468 0.11211135 -0.042503238 0.17262457 0.18601467 0.2340788 0.014769224 0.10718665 -0.39052886 0.023093488 0.1779699 -0.11059394 0.18156795 0.054704256 -0.34127942 0.08005532 0.08991936 0.20431706 -0.31093132 0.22496094 0.19278106 0.14315988 0.08436562 -0.38148728 0.3012509 -0.01735676 -0.13688187 -0.12559587 0.24994227 -0.21665998 -0.15917023 0.054170042 0.04003887 -0.0038802486 0.27429783 0.19614454 -0.22672541 -0.20312966 -0.4574896 -0.26646936 0.091831975 -0.29075372 -0.37192455 0.0018805835 0.109423906 0.21115252 -0.32847792 0.26926875 -0.049859725 -0.057667706 -0.35794523 -0.060785685 0.36123458 0.09567744 -0.0135962805 -0.1489735 0.015998257 -0.03995332 0.50567716 -0.03574621 0.23816006 0.37386033 0.13394326 -0.18636352 0.44834146 -0.07750411 -0.29991883 -0.14933145 0.1291913 -0.489734 0.14672217 -0.0009064266 0.09898014
6774 0.1000533 0.066848844 0.25928915 0.33060402 0.008812668 -0.23717815 -0.40326354 0.018345889 0.011845802 0.10332411 0.0384576 -0.20475769 0.052390248 -0.049180508 -0.20432477 -0.395621 0.06859529 -0.028122028 0.13145113 -0.035828307 -0.31998602 0.36734384 0.082042895 0.44401842 -0.30063176 0.15023103 -0.26368883 0.07365279 0.13129182 0.11977293 0.16555245 -0.05787666 0.15436463 -0.1561656 -0.42119533 -0.04849748 0.14519665 0.42692104 -0.24699558 0.31167537 -0.3978841 -0.1381252 0.10625193 0.07867508 0.19560723 0.49853182 0.05717365 -0.031426106 0.105350554 -0.04683547 -0.101994626 0.06019982 -0.2132344 0.17038193 -0.36344287 -0.2862352 -0.15984716 0.09345079 -0.042346753 0.07306653 0.111652926 -0.19356425 -0.21938865 -0.4296844 0.025171774 -0.32545692 0.2487466 0.04686866 -0.27604616 -0.3057966 -0.116713904 -0.35639825 -0.38968647 -0.07284145 0.010667677 -0.30847314 0.14836991 -0.075772636 -0.20623747 0.088058345 -0.21982338 -0.103134066 0.29929513 -0.03324164 -0.4613936 -0.2679595 -0.536365 0.31883067 -0.018588318 0.36946666 -0.20300408 -0.17286132 0.03737429 -0.11043361 0.37451625 -0.23926619 0.20336132 -0.33930668 -0.19302301 0.048575934 0.443495 -0.23341021 -0.25562075 0.45206818 0.10472445 -0.10971457 -0.2642831 0.15341161 -0.031670764 -0.17498282 -0.20203942 0.136596 -0.050152764 0.24922518 0.19895388 -0.07072071 0.05714874 0.2827239 0.12235012 0.11877492 -0.061482858 0.26798198 0.19944519 -0.014897904 0.06317679 -0.09151206 -0.2863659 -0.020879006
7529 0.00876229 0.549413 0.060915194 -0.08140397 -0.04036677 -0.17990518 0.07946828 -0.107065886 0.47748348 0.098459974 0.047717817 0.14369613 0.2715359 -0.14288808 -0.30101138 -0.4828069 0.13159743 -0.030131841 0.18626198 -0.20264487 -0.055809766 -0.4049925 0.26482663 -0.13644035 -0.035255536 0.35641417 -0.06398279 -0.31470907 0.0066885357 0.21694343 0.07809336 -0.20593652 0.14717083 -0.27283585 -0.14448933 -0.48446584 -0.12377731 -0.27612862 -0.07906852 -0.16423383 0.15636933 -0.33530888 -0.28673372 0.12091233 -0.0602376 0.2014559 0.03833814 0.27486652 0.12767813 0.12853454 -0.1398945 0.005541133 -0.10702338 -0.34955958 0.1709053 -0.56392455 -0.034383066 -0.396756 0.24831218 0.4226033 0.33517927 0.19059041 -0.07650626 -0.081955366 -0.0016055391 -0.14735469 0.04127169 -0.27674988 -0.06389191 -0.19683251 0.1376132 0.33784354 0.041374452 -0.090566225 0.0699535 0.1602869 -0.1833351 0.107232176 -0.19357765 0.16253695 0.26913297 -0.21418701 -0.20588186 0.32330662 0.15796144 -0.23965219 0.06580477 0.0695784 -0.096259914 0.19328158 0.23046298 -0.03273262 -0.103368685 -0.1699468 -0.016774684 0.3829597 -0.23741524 -0.41181588 -0.17628947 0.277231 0.1850477 -0.23829556 0.25344726 -0.059388097 -0.11050853 0.0074840896 -0.09735743 0.08000656 0.12130323 -0.21766336 -0.08380389 -0.17633379 -0.030116545 0.42540896 0.08154763 -0.07981807 0.49723086 -0.007875962 0.10673642 0.43280566 0.13260481 0.024270982 -0.30607274 0.18722546 -0.261906 0.3526614 -0.23302282 0.20966245
10273 -0.10678415 0.19315562 0.5572501 -0.08059238 0.079399236 0.10724567 0.18491484 -0.17153297 0.027382065 0.19427878 0.25019675 -0.029252924 0.34956038 -0.2578457 0.117549464 -0.25142893 0.09623655 -0.075691305 0.023925684 -0.20732686 -0.45690736 -0.21620795 0.110865146 0.32784718 0.3126003 0.033863872 -0.14078052 -0.23515086 0.3269684 -0.13104549 0.25109893 -0.07021918 0.2953525 0.36743823 0.18960202 -0.13903473 0.05950515 0.08901863 0.028474152 -0.10870634 0.39006373 0.12871036 0.14484632 0.2789469 0.17261003 0.16404784 -0.09435314 -0.22336076 -0.39425668 -0.1734063 0.16565818 0.035018288 -0.27375916 -0.27012044 0.019081842 -0.0451066 0.07879513 -0.22651827 0.011247051 -0.17916822 -0.007060125 -0.12129594 -0.18141092 -0.231894 0.47985053 -0.38557613 -0.10809681 -0.26218143 -0.004506923 -0.20286828 -0.09050721 0.42083734 -0.00025674366 -0.06511586 0.15320386 0.13792057 0.04803255 0.22238933 -0.28721127 -0.047027785 -0.13862945 0.10944682 0.14092861 0.14681634 -0.10787753 -0.07458346 0.08596001 0.014525697 -0.3532592 -0.03404798 0.10100328 0.0793124 0.249096 -0.36643577 -0.12174037 -0.033512235 -0.42914286 -0.0723703 -0.21591084 0.13319606 0.20680262 -0.14615048 -0.10523945 0.111259505 0.045638878 -0.041141897 0.0076790424 0.010399842 -0.17938942 -0.09290201 0.0019442217 0.001300294 -0.09307909 -0.010177975 0.3159045 -0.05520106 0.09360461 0.54914546 0.0046704253 0.12368451 -0.22440842 0.18811017 -0.38520935 -0.15129036 0.003985959 0.20781428 -0.19943783 -0.20349248
5295 -0.045923498 0.15034313 0.009246549 -0.1401574 0.30555457 0.20759608 -0.3317625 0.13473363 -0.2538638 0.1430703 0.124664195 0.22093439 0.09361565 0.078885786 0.12061323 -0.31504515 -0.12589274 0.09678724 0.0039157863 0.22004761 -0.3438582 -0.010540048 0.12202363 0.36807337 -0.09521577 -0.0068551884 0.0018974512 -0.118574984 -0.03785579 0.17574677 -0.14444539 -0.4218053 0.06872271 -0.16041507 0.045316815 -0.08204202 0.20669839 0.012410253 0.21383062 -0.008677815 -0.12769851 -0.0233735 -0.18752983 -0.12918049 0.29463255 0.3820461 0.46344775 0.01417872 -0.08749336 -0.08349314 0.036889654 0.20546623 -0.18353389 -0.1017665 0.25806355 -0.3224942 -0.043706324 -0.3157814 -0.2583767 0.21171558 -0.30964473 0.1959596 -0.41754937 -0.035075568 0.031241443 -0.16639754 0.12513582 -0.20103753 0.0055269888 -0.2966282 0.22144605 -0.060044307 -0.045399297 -0.034781344 -0.024728505 0.38634732 -0.23379263 -0.04233246 -0.15042609 0.10363428 0.033727333 -0.12972154 -0.027488086 0.048017193 -0.28939506 -0.35305998 0.1239319 0.030969307 -0.03636054 0.029579785 -0.12976055 -0.18752225 -0.018499177 -0.29726988 0.28790757 -0.2613049 -0.012015871 -0.56225544 -0.093444295 0.051916506 0.32846367 -0.36803284 0.12735978 0.15630063 -0.24578169 0.21852104 0.036047116 0.12288771 -0.23579854 -0.5348476 -0.25279495 0.17123777 0.13807009 0.029531399 -0.2787511 0.010854426 0.21751164 0.22727145 0.17851454 -0.15670764 -0.040818285 0.4041525 -0.26653844 0.07211482 -0.29871744 0.11058261 -0.15925206 -0.2679774
7132 0.08511856 0.24860476 -0.2280348 0.017232405 0.18315664 0.017511725 -0.07808641 -0.5415532 0.045078643 0.101165846 0.17067215 0.027066384 0.23219594 0.2021698 0.593834 -0.063373454 -0.12191453 -0.11189086 -0.18771188 0.30413553 -0.2360957 0.22086196 0.034984197 0.50349385 0.06687834 0.10008896 -0.17826587 -0.06730465 -0.17237294 -0.105737634 0.006862497 -0.27769285 0.11038737 -0.3250743 -0.24410492 0.021549633 -0.309758 -0.17380102 0.103041425 0.16854694 -0.119000636 0.13015682 0.42919338 -0.06029749 0.33670706 0.1761769 0.13033342 0.015865672 -0.40919828 -0.069607764 -0.032684773 0.112254575 -0.19107385 0.20123523 -0.06911281 -0.1761268 0.16721037 0.0204925 0.12878351 0.37481913 -0.14819907 -0.078127235 -0.089763515 0.03250624 -0.38295206 -0.28029 -0.0072380383 -0.22635373 -0.3091696 -0.1758535 -0.1354582 0.091336794 -0.036736317 0.23598874 0.3842172 0.3401382 0.453689 0.1938904 -0.053487293 -0.016144497 -0.069706485 -0.115522385 -0.5206552 0.06090683 -0.10395336 0.019139502 -0.016822437 -0.7102422 0.078324035 0.057000563 0.2545964 -0.19197582 -0.17214514 0.2314462 0.03555492 0.31268832 -0.23525876 -0.49271208 0.2355826 0.07478625 0.25891027 -0.012195134 -0.068074696 -0.085061476 -0.050468676 -0.0007987195 0.036557622 0.28109008 -0.077540375 -0.52748066 0.051080525 0.12527527 -0.29899502 0.4653559 0.19428843 -0.19714296 0.10054374 0.104359314 -0.06988977 0.045029745 0.21235411 -0.044045974 -0.14307712 0.051383868 -0.08351905 0.020865295 -0.11185186 -0.23853905
3315 -0.10359291 0.06697654 0.013654806 0.37431744 -0.17766753 0.16999608 -0.027127108 -0.303453 -0.09490149 0.12757991 -0.009159351 0.062646404 -0.20880973 0.031570204 0.10713961 0.21767567 0.13625427 0.025696823 0.39061695 0.28855768 -0.34636483 -0.41819915 0.13448612 0.05620514 0.20098777 0.34371826 0.04638217 -0.17718214 0.23139627 0.19327182 0.32716113 -0.098089874 0.37911707 0.2657027 0.09011428 -0.20377523 -0.15234768 -0.03644254 -0.025830086 -0.2089554 0.05345177 0.13916364 0.37333786 -0.09130153 0.12878141 0.2376614 0.14804396 -0.24660216 0.007406311 0.1039276 -0.120836966 -0.22817694 -0.33169374 0.08484329 0.05163808 -0.2827584 0.114516094 -0.49434763 0.28672278 0.26874167 -0.08796969 -0.12502618 0.07740585 0.015053064 0.26828274 -0.5587445 0.11688508 0.059309278 -0.46819076 -0.11021145 0.11798673 -0.055485036 -0.09927596 -0.03439915 0.2241882 -0.11111736 -0.060725078 -0.15036188 -0.23593727 0.038492933 0.016711814 0.08227329 -0.13579951 0.20026281 -0.42492613 0.040104844 0.15189452 -0.10014487 -0.10401646 0.40788516 0.04359224 -0.22122765 0.28516304 -0.17869191 -0.21029142 0.062337857 -0.14510438 -0.41281945 -0.38114718 0.20483732 0.281566 -0.09106892 -0.1014124 0.20195672 0.50007683 -0.03460628 -0.028199477 0.13865638 -0.048824973 -0.07957426 -0.054527827 -0.44456893 -0.27685422 0.08271135 0.12411051 -0.17458165 0.035186287 0.42431122 0.37594718 0.49670988 0.22469561 -0.31847915 0.014587277 -0.25559425 -0.37198013 0.18873847 -0.1277064 0.05023602
8945 0.32224447 0.128951 -0.19827014 0.11809444 -0.1734842 0.005393853 -0.46604985 -0.39952567 -0.113572806 -0.23845266 0.06490052 0.12233104 0.14158991 -0.14783111 -0.13351472 0.06441287 -0.22418 -0.004546332 0.2966656 0.30591324 -0.15769497 0.14951327 -0.23825553 -0.119256094 0.19979742 -0.033283062 0.19278595 -0.17672987 0.18244596 -0.14008193 -0.17708753 0.13352646 0.32031494 0.23210572 0.32226178 0.16181147 0.33272928 0.041501448 -0.029254928 -0.23116793 0.13071844 -0.15700193 -0.065039255 0.182404 0.18638782 0.38116857 -0.1703602 -0.03574225 0.2131828 0.43502104 -0.008157995 -0.11931068 -0.13740793 -0.27188802 -0.29332936 0.22007248 0.14961952 -0.2968445 0.06794013 0.16068134 0.18554543 0.3461497 -0.020084765 -0.3946067 0.12960887 -0.329116 0.024187574 -0.008073584 -0.13582824 -0.23091742 0.29986343 0.09290328 0.0670321 -0.23580708 -0.02397924 0.24228542 0.014297903 0.17397581 -0.26892155 0.06282349 -0.16457662 0.074589096 0.10650083 -0.06576036 -0.14423242 0.104183875 -0.179748 -0.26397878 0.08114108 0.26572877 0.027466416 0.02186297 0.03261864 -0.31118193 0.21968634 0.16232193 -0.40118343 -0.19617164 -0.18435898 -0.08367904 0.6436444 -0.15026887 -0.04161654 0.2059793 0.2543521 -0.08816957 -0.25734976 -0.10754153 -0.1806672 0.17908174 0.16427612 0.06850431 -0.122136064 0.28900942 -0.105111904 -0.17643535 0.24313334 0.27497813 -0.095583126 0.184644 0.371879 0.0046791714 -0.28666335 -0.19545147 -0.11202571 0.1535599 -0.05655695 -0.24879275
3329 0.32685506 0.31425393 -0.098893024 -0.0072185867 0.07901685 0.013446764 0.15584761 -0.20201278 0.0069472673 -0.15557902 0.09168569 0.078659646 -0.03365479 0.112671405 0.39997122 -0.082450375 -0.24892803 -0.113661766 0.12493411 0.06123777 -0.5431344 -0.28678003 -0.063652895 0.5168926 -0.29680702 0.06534198 -0.12759899 -0.0066935457 0.19179149 0.09620678 0.15091906 0.13039611 0.2904122 0.42853913 0.51997167 0.0937056 0.14684127 0.52435803 0.04861884 0.033895977 0.22559845 -0.004178468 -0.13691217 -0.09084651 -0.18120635 0.22708327 -0.14379832 0.06807611 -0.11126822 -0.13170753 -0.13891648 0.368768 -0.035673056 -0.31498682 -0.12829132 -0.28369918 -0.21524502 -0.016843606 0.19626686 0.20201911 -0.0015584829 0.34800544 -0.11395208 -0.4172494 -0.017727932 0.005980109 0.006824172 0.048127417 -0.17044884 -0.18412848 -0.16990092 0.12595898 -0.19684905 -0.07498998 0.0027481315 -0.030100837 0.3265447 -0.119838625 -0.060661387 0.038503867 0.1105262 -0.28505376 0.124491125 0.32169142 -0.06828579 0.3382646 -0.14737025 -0.19196075 0.04439485 -0.003676184 0.35589293 -0.23090158 0.041278392 -0.112969205 -0.050693315 -0.010415675 -0.13111144 -0.38097882 0.31236544 -0.2335264 0.0505329 -0.19576457 0.03795771 0.08817242 0.02080417 0.41954955 -0.067764126 0.2218736 0.017470753 -0.19805051 -0.058770508 0.16287653 -0.027453179 0.38491 0.32279477 0.23083165 0.08031257 0.2708152 -0.011456766 0.45618483 0.039180405 -0.06793861 -0.015931366 0.22710547 -0.24290682 0.16857697 -0.0034229707 -0.05833156
23363 0.010266375 0.37605193 -0.30845532 0.11689616 -0.153845 -0.17550923 -0.26701874 -0.17595729 -0.018778693 -0.037572052 0.05434127 -0.10363027 -0.005646417 -0.22083926 0.19202143 0.11607034 0.049899045 -0.051905636 0.1878171 0.13765861 -0.3027411 0.29013342 -0.08611672 0.39355937 0.5059697 -0.29609075 -0.34068438 0.08074051 -0.061468706 0.41793877 0.09650712 0.18789187 0.44473097 0.046726223 0.24868791 0.13998331 0.24206252 0.20423046 -0.20492445 0.179201 -0.24772704 0.08469819 -0.20522682 -0.0032958046 -0.13747312 0.2464999 -0.2218935 0.11231563 -0.33235905 0.0728719 -0.27665192 -0.27051803 -0.3317319 0.239335 0.045307424 0.210132 0.09530919 -0.30512562 0.1691274 0.049745675 0.057888843 0.23044613 0.14147668 -0.042955503 -0.02773983 -0.04781117 -0.10375823 -0.2059072 0.101274095 -0.11061357 -0.019830877 -0.036968023 0.3410008 0.0148558 0.25388432 0.104892775 0.003994191 0.05478293 -0.07987712 0.3794878 -0.19611584 0.10230124 -0.17192514 0.2693078 -0.16893159 -0.13840389 0.27757847 -0.33977044 0.009179472 0.1570664 0.26345113 -0.2700494 -0.15378053 -0.11507568 -0.23685476 -0.088139065 -0.25038373 -0.52951944 -0.06949371 -0.2468138 0.21099587 -0.08102919 -0.033897154 0.43131307 0.054498825 -0.1599232 0.093859404 0.1598739 0.09762495 -0.20449513 -0.24595252 0.079598285 -0.64529294 0.16743211 0.19934551 0.02331743 0.1032387 -0.03964391 -0.008407213 -0.030381352 0.4537475 0.28481495 -0.09249216 0.11032056 -0.09080095 0.09950845 0.1898466 0.029006092
