1021 64
351 0.45765468 0.2150754 -0.08734465 -0.087217465 -0.3452987 -0.36500844 -0.02890108 -0.03106263 -0.058136094 -0.14366385 -0.07451534 -0.30680782 0.27650857 -0.3517687 0.22314012 -0.06250203 -0.51036555 -0.10169124 0.1658662 -0.01721421 0.055160847 0.23443681 -0.34016794 -0.37060106 0.30293933 -0.091454364 0.11595021 0.07584321 0.2765482 0.13216424 0.26401263 -0.0069278507 0.15695238 -0.3702284 -0.06308751 0.6041404 -0.11179166 0.08767429 0.16301109 0.12718388 -0.007277697 -0.21294212 -0.0026640145 -0.39666286 0.21538983 -0.25498024 0.20045999 0.44971192 -0.13942859 -0.13874005 0.5266963 0.047191422 -0.03182108 0.012263587 0.09257088 -0.00041215474 0.16147274 0.076836474 -0.27256334 -0.19253193 0.03426558 0.17221297 -0.24692753 -0.13832559
7157 0.21204993 -0.10470086 -0.015436779 -0.01598257 -0.006389546 0.07880075 -0.16513832 0.31625977 -0.13012399 -0.0003140815 -0.15738784 0.022640888 0.2727477 -0.2123871 0.2628693 -0.11133662 0.03785966 -0.21661787 0.1350666 -0.22731863 -0.2668823 -0.005137367 -0.047085263 -0.09585636 0.5433871 0.024163473 0.12035805 0.26733616 -0.13906164 -0.054218084 0.2034362 0.21335809 0.26762122 -0.0017562549 -0.38602665 -0.032620024 -0.1284682 0.24439813 -0.2566294 -0.08625257 -0.14086501 0.13648656 0.1096203 0.16527687 0.12215761 0.5237324 0.12816277 0.13773605 0.24352586 -0.037122075 -0.14285588 -0.052746486 -0.15702514 -0.17760678 0.08812712 -0.13415161 -0.30624807 -0.019493341 -0.38744467 -0.21153963 0.14418928 0.13500862 -0.4490491 0.19107778
2885 0.15450418 -0.07144711 -0.34003508 0.30569956 -0.020645412 -0.2448906 -0.5248116 0.27761674 0.21021488 -0.18064895 -0.52460736 -0.16456088 -0.05099058 -0.014659725 0.22402091 -0.0799515 -0.051118236 -0.06356289 0.06966348 -0.055881172 -0.06829582 0.03562762 0.16129406 0.035208914 -0.012797631 0.18201122 -0.17909904 -0.06289306 0.47345006 0.08431284 0.4636801 -0.029693581 -0.06594337 0.038521986 -0.1583016 0.3754321 0.021898279 -0.07294649 -0.24417719 0.121097066 0.18062499 -0.04849537 0.37716603 0.21349318 0.06053409 0.5175994 -0.03956506 -0.11096427 -0.06484889 -0.4068018 0.079905815 0.32895207 0.043688845 -0.17743385 -0.06855399 -0.34390768 0.07197922 0.2793134 0.1021844 0.0895561 -0.116388984 0.22717719 0.30094245 0.036484156
1956 0.26268363 -0.10967287 -0.05855038 -0.07914711 -0.38342273 -0.4111971 -0.29057238 0.18717392 0.24091654 -0.37656283 -0.121085234 0.10370054 0.16556135 0.23398218 -0.13753021 -0.017709287 -0.25897944 -0.30001765 0.16407947 0.3279344 0.07156618 -0.36578637 -0.04310975 -0.19803059 0.2966845 0.26190698 0.13744482 0.37636435 0.022023456 0.21807043 0.31770372 0.3003128 -0.09140491 0.034509506 -0.38588983 0.2873435 -0.05511659 -0.07574807 -0.041023806 -0.19786972 -0.0705177 -0.39312586 0.124138005 -0.055243604 -0.051998395 -0.18011788 0.031506952 0.030094016 -0.10008269 0.077489845 0.18151179 0.21590123 -0.0017245557 -0.14209814 -0.1958849 0.15141222 0.078577586 0.03179842 0.09454358 -0.13083509 -0.14109643 -0.11469007 0.017030463 0.01260193
1017 0.082470275 -0.1472935 0.29865187 0.07407469 -0.04224978 0.34138536 -0.07246664 0.1519197 0.3247907 0.028004156 0.14013295 -0.0580945 0.10562855 -0.28110453 -0.04740161 -0.2351555 0.018420331 -0.60512906 0.043318074 0.19066937 -0.030559745 -0.13366479 0.0750635 0.27738062 0.3513671 0.3015513 -0.48601606 -0.018092878 0.31507874 -0.018140446 0.29112834 0.15604122 0.018993147 -0.10472771 -0.40146288 -0.30961 0.07707769 -0.039405387 0.079976745 0.056246582 -0.19533175 -0.1024754 -0.18505521 -0.19246002 0.2762413 0.20733845 0.016940536 0.028737443 0.15266494 0.028182996 0.24131559 0.09791996 -0.25149485 -0.14051223 -0.052752785 -0.024568673 0.020857869 0.15906319 -0.44980147 0.082920045 0.24108952 0.19623639 -0.2686114 -0.25523505
3065 -0.22412567 0.11703586 -0.0342277 -0.05934761 0.2285003 0.07401818 -0.564482 0.1383067 -0.20819177 0.61902136 -0.24683693 -0.064995065 -0.06441753 0.1604737 0.22770813 -0.092049904 0.044255868 0.053735167 0.004753439 -0.21488786 0.16843355 -0.06289321 -0.15308733 -0.1654863 0.29326537 0.27924976 -0.20110397 -0.035631295 -0.07771757 -0.28251737 -0.12753811 -0.08729775 0.19697712 0.239458 -0.35739133 0.3299625 -0.3871861 0.19318374 0.011394745 0.30411083 -0.06628417 -0.2613758 0.2964564 -0.45340165 0.05179837 0.09003252 0.11882286 0.22916435 -0.11744467 -0.02035439 -0.023801995 0.27566287 0.035576716 -0.26760277 0.04906568 -0.12537636 -0.24365601 0.08035456 -0.29116476 -0.14567964 0.39532334 0.36419898 -0.22411714 0.024935007
6714 -0.03192298 -0.015236673 -0.26247057 0.23709874 0.10690494 -0.4260534 -0.1675287 0.328141 0.35483947 -0.058416627 0.033621315 0.07119654 0.28242713 -0.03805118 -0.015982045 -0.049734343 -0.34299755 -0.36579436 -0.00836701 0.25039524 -0.15884943 -0.3213179 -0.05706091 -0.14235787 0.020229675 -0.086733714 -0.2951118 -0.13187458 0.26038212 -0.25356084 0.38813332 0.40468967 -0.13706508 -0.14136846 -0.10696732 -0.2347109 -0.09792015 -0.26331875 -0.3102041 -0.13108155 -0.037175313 -0.40554813 0.15000583 0.06116174 -0.053919524 -0.01997562 -0.094458856 -0.123431444 -0.3872383 0.12935603 0.03618533 0.06802375 -0.10434325 -0.15861899 0.016298175 -0.15552002 -0.39662367 0.045302477 -0.042292826 -0.17154065 0.055108763 -0.0027518664 -0.102727056 -0.011394406
2335 0.363685 0.1833876 -0.2660032 0.09282847 0.00040413183 -0.115385875 -0.45875004 0.17947434 0.09209671 0.023371316 -0.012625168 -0.25945255 -0.059871927 -0.24956231 -0.17867139 0.15292484 0.33348116 -0.13777052 0.11485984 -0.017241457 -0.065802306 -0.120862335 -0.009671874 0.0045568044 0.495487 0.5735013 -0.14859107 0.1853376 -0.03434875 0.40724847 0.7164227 -0.3176614 -0.031531665 0.23933868 -0.0009177901 -0.20928575 0.16490503 -0.098366775 -0.08465298 0.17598253 0.104231454 -0.10111304 0.120477244 -0.017702043 0.119534895 -0.008332509 0.030357225 -0.003862517 0.06139421 -0.15237519 0.040705297 0.18337105 -0.066333875 -0.025669327 0.042735197 -0.32356012 -0.31697986 0.15530406 0.2156947 -0.032404024 -0.061518565 0.4985558 -0.3326391 -0.5053196
6667 0.12841535 -0.064724505 0.035669334 -0.13479611 0.41963413 -0.13433829 -0.3328464 0.11396241 0.22524594 0.7983817 -0.24008349 0.31280088 -0.056293238 0.09543284 -0.24306643 -0.48356935 0.105308026 -0.32702166 -0.07082943 0.17659177 -0.095889896 -0.05277032 -0.19805427 -0.18046431 0.12864716 0.06983232 -0.17698187 0.35979992 0.2738334 -0.32653967 0.0011259456 0.086126715 0.17120193 0.06347554 -0.37254155 0.09654293 0.2201376 0.014507854 -0.17143439 0.21543692 0.034679677 -0.13736251 0.20073013 -0.0010251432 -0.03813489 -0.066985935 0.009665411 0.05010295 -0.034705784 -0.30409646 0.23914044 0.05979861 -0.45784223 -0.10789672 0.029096503 -0.11097871 -0.22409438 0.13481213 -0.19225106 -0.06022323 -0.012532851 -0.054891195 -0.21031988 0.008481902
672 -0.23012 0.025300443 0.08379238 0.067864545 -0.08433332 -0.0047510993 -0.43877348 -0.06944084 0.17558897 0.32163268 -0.046777323 -0.2001933 -0.106534414 -0.08855201 0.13398215 0.07459406 -0.21029255 -0.28744513 0.3329542 0.22284953 -0.030367117 -0.29268658 0.2710264 0.11836015 0.1615119 -0.061446145 -0.03078119 0.1574482 0.18598366 -0.35950282 -0.20043674 0.08903028 0.40208992 -0.05864974 -0.06727688 0.2183479 -0.4863907 0.14987178 0.051810313 0.16493438 0.52933216 -0.4167216 -0.087386906 -0.028465508 0.16232693 0.22078644 0.24327834 0.046932053 -0.022885289 -0.34764078 -0.14131722 0.43032196 -0.16198128 0.028602269 0.010389764 0.11441557 -0.13538675 0.21971902 -0.25290176 -0.04980307 -0.1510891 0.5870838 0.009063324 -0.568555
8452 0.2954135 -0.19325821 0.10060391 0.36505362 -0.28805438 -0.14059618 -0.30760714 0.0015431744 -0.13118683 0.033111397 -0.029924423 -0.49215224 -0.2424847 0.008241567 0.180551 0.15508138 0.44026405 -0.51209 0.25723848 0.022717558 -0.004247098 -0.35154766 0.39594612 0.0018436494 0.4865891 0.35835657 0.009720503 0.16648953 0.42641908 -0.30586234 0.18039562 -0.11026548 -0.09566432 -0.06533186 -0.26898926 0.0592481 -0.50800675 -0.42212614 0.18612872 0.12976915 0.18422747 -0.17319262 0.37780607 0.022618715 -0.0113019915 0.11788265 0.021734301 0.33808833 0.17924294 0.007352311 -0.23710088 0.2849204 0.15457298 -0.17311402 -0.0687905 -0.10731007 -0.08745835 0.05567949 -0.26181793 -0.14792612 0.26444906 0.16434027 0.30573997 -0.22073083
1499 -0.22302346 0.38248783 -0.07402954 0.08275062 -0.15176018 -0.11018101 -0.18230145 0.1684068 -0.14256127 -0.13479336 0.18617077 0.032771233 -0.18490586 0.06031061 -0.10707684 0.04298153 -0.017771754 -0.003062949 -0.12977245 0.19802046 0.11536731 0.085781276 0.37138164 -0.1221112 0.011999232 0.0070299082 0.31191292 -0.258385 0.6111637 0.015339003 0.2101071 0.14396438 0.06422047 0.27066615 -0.6393179 -0.024851317 -0.43495497 -0.05821267 -0.22831976 -0.028134061 0.29622433 -0.5130481 -0.071328975 -0.06296099 -0.19690606 -0.034920365 0.17918994 0.28226885 -0.10874224 -0.20609838 -0.11401877 -0.25304872 -0.22133665 -0.29283807 -0.18321855 0.13392353 -0.27657935 0.34159788 -0.14730243 0.06776213 0.27050114 -0.20288906 -0.3346322 0.28333053
207 0.053781424 -0.049852837 -0.007412815 0.40147534 -0.13872302 0.11978251 -0.1909833 0.28116006 -0.18838818 -0.21204284 -0.27902216 0.0012074751 0.17202066 -0.023052644 0.40285313 -0.056504052 -0.050813604 -0.24501145 -0.007366866 -0.010535231 -0.087077186 -0.34847295 -0.079499125 0.05478234 -0.26642692 -0.053304203 0.1730781 -0.23264192 0.122660995 0.24153048 0.06361197 0.115154006 0.100139834 -0.38083217 -0.51241183 0.16446126 -0.048789725 0.042626914 0.08942223 -0.049715754 0.10840996 -0.4049746 -0.19536391 0.05974736 0.089593165 0.27676535 -0.19700967 0.370603 -0.34308237 -0.12252348 0.20746617 -0.26108888 -0.15083043 -0.6216275 0.124001384 0.081981935 0.23632996 -0.24509814 -0.067656286 -0.32450235 0.28655294 0.041283008 -0.1808631 0.115115225
7189 0.1557806 0.065062344 -0.23022386 0.026829485 0.16526838 -0.4502148 -0.121740274 -0.08992082 0.2078424 -0.014370516 -0.14100653 0.062375683 0.036685403 -0.11602179 0.13727705 0.17461574 -0.14034486 -0.105492845 0.083877765 -0.33555734 -0.5403775 -0.047621313 -0.118110746 -0.1043515 0.3798906 0.20739084 -0.32554984 0.090346165 -0.2595145 -0.021985745 0.1324111 0.07453929 -0.15006629 -0.30908677 -0.33069676 -0.31475967 0.12940006 -0.027062137 0.09963435 0.36047488 0.25769195 -0.35858375 -0.60359806 0.116698466 0.088851616 -0.5132009 0.25038055 0.2765559 0.41682786 -0.22486973 0.3096744 0.0680542 -0.18707521 -0.5731757 -0.12325863 0.2497636 0.102309614 -0.11617592 -0.05413954 0.002900596 0.29180786 0.025598275 -0.087916896 0.10211254
5594 0.41940227 0.19201913 0.23305893 -0.26087 -0.096229516 0.4616179 -0.16109288 0.23005298 -0.12193373 -0.18380773 -0.12641561 0.08618114 0.38927388 -0.01854538 0.18255305 -0.050630968 -0.27070007 -0.49328 -0.13769415 -0.18352251 -0.22986753 -0.23746161 -0.23505764 -0.014305955 -0.032639563 -0.010869615 -0.046228275 0.31226996 -0.29825032 -0.2015087 0.18824627 0.34808087 0.037532486 -0.09591041 -0.32332203 0.115554735 -0.2746437 0.009075721 0.2194023 0.09412935 -0.09014937 -0.46717694 0.11001844 0.20497584 -0.005578055 -0.104357824 0.14976725 -0.11355546 -0.3155889 -0.053222016 -0.1374786 0.34598655 -0.28878927 -0.015569204 0.43885112 -0.03423781 0.09571167 0.39322466 0.26791078 0.025401663 0.21555826 -0.020683357 -0.25145635 -0.085533515
4609 0.04739659 -0.44379815 0.16891131 0.17862254 0.16749367 -0.062211372 -0.19508451 0.31595254 -0.30820718 0.19807848 -0.117461674 -0.14524359 -0.112380326 -0.056318566 -0.02868831 0.09452494 -0.15642813 -0.02824144 -0.05480119 -0.00078596635 -0.63667077 -0.3603649 -0.010630831 -0.38407883 0.2500213 0.48346275 0.60251033 0.13131654 0.14085703 -0.050705273 0.22159505 0.006983323 0.19361354 -0.09139267 0.029526962 0.074393466 -0.30623046 0.11133624 0.051265694 -0.18607925 -0.033115227 -0.15768072 -0.31612659 0.24243034 0.15065065 0.22579665 0.18574353 0.14740051 0.14562154 -0.34116465 0.013775201 0.2576409 -0.070157096 -0.006907172 0.06430875 -0.034381427 -0.057509717 0.2660023 -0.18536964 0.2727944 0.3048764 0.22203906 -0.23624948 -0.2516064
10987 0.053569663 -0.19074307 0.043242954 0.45709515 -0.35199648 -0.15587737 -0.10660565 -0.13923857 -0.25829446 0.35592526 0.21268941 -0.20953003 -0.09388317 -0.10716245 0.19552277 0.32297558 0.40541235 -0.19260454 -0.16145782 0.06227733 -0.2634719 -0.14309536 0.17259878 0.21267454 0.10299552 0.43490645 -0.06876931 0.012346656 0.116193235 -0.10845062 0.47551876 -0.22569408 0.041360926 -0.06373252 -0.2527402 0.10949249 -0.2683905 -0.015509497 -0.0014664013 0.041012913 0.24139203 -0.49982268 0.1968914 -0.4697435 0.117753655 0.07382639 0.123324454 0.012485618 -0.09178065 -0.107485436 -0.4611028 0.23158042 -0.09224019 -0.1530267 -0.09077567 -0.081447095 -0.2660174 -0.035183866 -0.08372674 -0.18909636 0.060811948 0.36555776 -0.16395517 -0.20342813
4088 -0.19781215 0.343866 0.25217786 0.030829782 0.057621736 0.48667672 -0.14980061 0.07373062 -0.030179814 -0.026612211 -0.2629531 -0.24070564 0.3007337 -0.12744789 0.21703121 -0.2959334 0.13163887 0.003635807 -0.006837047 -0.07159229 -0.45989734 -0.09678269 0.1853572 -0.14973748 0.15104617 0.18098637 -0.046165023 0.22277436 0.20316362 -0.40823388 -0.006727598 -0.11568578 0.14366727 0.4974923 -0.3849111 0.18482171 0.068722904 -0.06576471 -0.09209549 -0.022017512 0.06544137 -0.06826338 -0.19554918 0.085514076 0.04035327 0.1754418 0.10134424 0.384897 -0.2983619 -0.3052753 0.05081165 0.15399803 -0.24790783 -0.34834084 -0.23610027 0.20888996 -0.2697126 0.32765567 -0.27124187 0.2377545 0.14377925 -0.14610787 -0.33047038 0.18418261
4087 -0.33149007 0.11927651 0.37094182 -0.14114398 -0.16935891 0.35415265 -0.075282425 0.47463623 0.050311375 -0.12361718 -0.37298825 -0.3526587 0.0015022209 -0.12326612 0.29296818 0.11546223 0.043297328 0.0006014829 -0.034137145 0.12521404 -0.23612532 -0.13912722 0.059503477 -0.19598393 0.43170604 0.33714652 -0.25336894 0.32401574 0.12583339 -0.1462679 -0.38395575 -0.24373157 0.16521057 0.040698353 -0.106570095 0.5377131 0.15753616 0.10524875 -0.06728484 0.094181396 0.22045611 -0.19158106 -0.13027678 -0.18189801 -0.1066622 0.33130342 0.11287895 0.29512325 -0.35663366 -0.09274161 -0.0333935 -0.0030349088 -0.17099094 -0.13109753 3.2721837e-05 0.20708 -0.1979251 0.4740531 -0.0024800976 0.09524606 0.48009512 -0.3378023 -0.5510584 -0.0057797134
5595 0.34886482 0.04871029 0.34290883 -0.19963047 0.059342977 0.41350496 -0.2549428 0.3349906 -0.1127895 -0.05389121 -0.2547941 0.12391874 0.10492706 -0.096753426 0.11204398 -0.11551949 -0.09816301 -0.21161322 -0.24254309 -0.09507549 -0.0859677 -0.5077622 -0.17364185 -0.29353243 0.06661016 0.23281631 0.10347152 0.3984991 -0.120157056 -0.006320609 0.09142285 0.49711066 -0.07681463 -0.045458537 -0.42125833 -0.0035590862 -0.3790973 0.008224885 0.091371074 0.24746287 0.096893296 -0.4732431 0.18325286 0.18750991 -0.16929291 0.0051654894 0.03264985 -0.2797171 -0.30658385 -0.1489125 -0.081183024 0.21533926 -0.39855766 -0.12411384 0.3088658 0.035539303 -0.034327958 -0.002597467 0.4247437 0.11494679 0.1342908 -0.07207775 -0.32441476 -0.103824325
7532 0.27418587 -0.08903366 -0.39241895 -0.04451605 0.119004644 -0.17389673 -0.1971357 0.3385859 0.122819945 -0.24411756 0.033873063 -0.22859617 0.15869597 -0.6983839 -0.1567361 0.024954177 0.15534997 -0.46197608 0.1936566 0.018791478 0.06424968 -0.29599714 -0.046415187 0.07965806 0.079823844 0.050183956 -0.011271348 -0.30576333 0.18120416 0.42547074 0.15679444 -0.14485973 0.10237529 -0.18266708 -0.4241387 -0.0048827766 -0.20936057 -0.16524553 0.12541157 -0.53379196 -0.14114487 -0.2772304 0.35160846 -0.15157557 0.2982783 0.26243585 -0.008810963 0.23498587 -0.05342651 0.26823977 0.022564687 0.016170818 -0.09881675 -0.08307463 -0.020061051 0.22046827 -0.29727474 0.39990923 -0.2887205 0.10740466 0.42006344 0.14708407 -0.008787698 -0.1365723
5970 0.009273939 0.20816539 -0.18650468 -0.24742338 0.048455395 -0.096043184 -0.6005576 -0.048695188 -0.05948511 0.45497972 -0.07154171 -0.028858492 0.12124633 -0.14730996 0.29786313 -0.1913592 0.17798212 -0.6663853 -0.0019530038 -0.1273539 -0.49317026 -0.119248986 -0.13378039 -0.12951583 -0.089249276 0.27879485 0.120841675 0.47400478 0.44681945 -0.32180578 -0.13932896 -0.10651657 -0.26622987 0.0461675 -0.13365154 -0.01033029 -0.18801183 0.07575919 -0.032540217 -0.36321163 -0.15555494 -0.058993526 -0.10270573 -0.030290682 -0.06394064 0.20515206 -0.052565586 0.05562083 0.050613817 0.2470337 0.08105079 -0.018560361 -0.39306813 -0.016623294 -0.011210931 -0.049912654 -0.115988865 0.3191777 -0.032798983 0.08536844 0.047778115 0.3309597 -0.2998438 0.06604797
5578 -0.0033350696 -0.04000818 -0.3797008 0.5789344 -0.22820932 -0.30433786 -0.2695669 0.1517873 -0.26741266 0.30021995 -0.15555927 -0.1565659 0.18252757 -0.2851928 -0.5101917 0.16711353 -0.17064232 -0.23545313 0.024945933 -0.08281952 -0.22500603 -0.05838411 -0.12732093 0.06876299 0.33458838 0.05473624 0.10045648 0.23250766 0.5390607 -0.34490675 0.10142896 0.2771513 -0.3390845 -0.009113763 -0.3640539 -0.17583919 0.089484386 0.09083258 -0.24056081 0.030198637 -0.048787154 -0.17204855 0.12581806 -0.29147935 -0.34012505 0.31801438 -0.30870146 0.10506335 -0.3770692 -0.058050983 0.24145935 0.20221546 -0.03596382 0.15213417 0.065934874 -0.060594168 -0.5601204 -0.04910085 0.102135286 0.13859521 0.2444503 -0.4900715 -0.09289945 -0.13765079
1432 0.4775458 -0.34888068 0.11484577 -0.15773746 -0.09116613 0.39375225 -0.42353207 0.13786484 -0.079261065 0.0029292952 -0.12670572 -0.08552266 0.44714972 0.15451403 0.18378522 -0.014093929 -0.018253317 -0.29684246 -0.5325368 0.06848982 -0.24841398 -0.08087978 -0.17864496 -0.06324865 -0.24630576 0.20978639 0.30629796 -0.16424917 0.16997285 0.32755202 0.08170735 0.18904188 -0.24948674 0.22850667 -0.25387603 0.17942739 -0.12876901 0.26924813 0.36471456 0.24341443 0.05510517 -0.26224253 0.17738321 0.13549884 0.11186337 -0.06455599 -0.03489881 -0.22378759 -0.20125827 -0.15766682 -0.10489488 0.7294306 -0.2098624 -0.28960857 -0.3329122 0.004629192 0.08243662 0.33405513 0.109497584 -0.27989042 0.15985936 -0.006845741 -0.33920735 0.103954814
5599 0.30487147 -0.18122964 0.37920442 -0.19494396 -0.5094639 0.10287816 -0.07816081 0.39400733 0.05298362 0.030017072 0.012988328 0.019325608 0.5532608 0.13524519 -0.12559411 0.1633598 0.040172666 -0.29022998 -0.04547667 -0.09373643 -0.23429587 -0.37319133 0.009125417 0.12311989 -0.05756834 -0.018137751 0.36160454 -0.21741626 0.11934073 -0.3896778 0.015513116 -0.08687132 -0.20260546 0.07279693 -0.43001428 0.12877904 -0.06215122 0.19397306 -0.10289829 0.31914175 0.018080262 -0.3154278 0.039641693 0.30154186 0.27563483 0.030359564 0.17330065 0.032499637 -0.5391466 -0.17251046 -0.22347033 0.20024954 -0.31165168 -0.24757579 -0.28245112 -0.3372341 0.014160352 0.0004903106 0.2725528 -0.018006474 0.32330266 0.19784983 -0.14349683 0.23038222
8517 -0.018255815 -0.19029686 0.08714943 -0.17836405 -0.02446169 -0.2941216 -0.1871873 0.0031811811 0.016638126 0.19456159 -0.041973602 -0.12673795 0.2288056 -0.25018558 0.064970694 0.0059847413 -0.029201444 -0.6073993 0.1082035 -0.36800876 -0.5947739 0.065533854 0.08354269 0.068242334 0.29752353 0.57205164 -0.27119943 0.45330152 0.22768171 0.080444045 -0.13203382 0.07511976 -0.09306007 -0.29494655 0.13494354 -0.030625138 -0.22791588 -0.16798101 0.42279664 0.32811183 -0.25248244 -0.40369862 -0.32513946 0.11529301 -0.071707614 0.16446778 0.07655911 -0.028435087 -0.3247649 0.13330753 -0.022846503 -0.08796057 0.16053636 -0.24730293 -0.54687536 0.3379566 0.03499533 -0.010352085 -0.1510224 -0.28322494 0.20620053 0.14108759 -0.10274989 0.2201805
3725 0.28731623 0.18696608 0.122037135 0.18999624 -0.039453063 0.19969551 -0.153695 0.11647319 0.18359436 0.2876496 -0.32597 -0.14442225 0.15581794 -0.03231723 0.19949198 -0.2761978 0.14607133 -0.3382911 -0.18434758 -0.06587447 -0.3081584 0.08176566 -0.25163418 0.13626538 0.22660007 0.18168801 0.09036263 -0.09226886 -0.13803248 -0.1458003 -0.15753089 0.1329848 -0.20798391 -0.09106521 -0.4719058 0.5277102 0.17196321 0.21578528 -0.1348121 -0.4059828 0.0049643377 -0.12056757 -0.34585458 -0.30300468 0.13360818 -0.16379662 0.26358673 -0.108261034 -0.19087742 -0.15040661 -0.08051843 0.39012474 -0.3251624 -0.005786099 -0.12933725 0.03565256 -0.39735952 0.28016913 -0.2904046 -0.24717568 0.28283873 0.08488308 0.095454715 -0.08948084
3676 0.20991503 0.14184776 -0.2886196 0.18700118 -0.23379642 -0.083738506 -0.4600963 0.08404095 0.05246069 -0.07083793 -0.10308178 -0.30447465 -0.15990356 -0.11975288 -0.051085956 0.2240623 0.054592017 0.009037543 0.22031063 -0.15058531 0.10901053 -0.35134834 -0.0970953 0.10728715 0.46051502 0.4472629 -0.43734756 0.116184816 0.09557175 0.27685717 0.5055467 -0.14198421 -0.12659582 0.119899474 -0.15467893 -0.34870183 -0.13713661 -0.16811728 0.15847562 0.20762783 0.293805 -0.3045066 0.20199943 -0.31446406 0.040217347 0.35745797 -0.20782201 -0.11047602 0.05102635 -0.42790776 -0.04682634 -0.05857663 -0.2739528 0.103379555 -0.08046731 -0.485961 -0.26218003 0.090675496 0.09375862 0.18072091 0.1364615 0.5955569 -0.18984535 -0.33002284
408 -0.18572475 0.11281599 -0.3590619 0.024688555 -0.051351395 0.07937733 -0.23739624 -0.09747259 -0.038474157 -0.28270674 -0.30114946 0.30401203 -0.03692447 -0.218588 0.51483834 0.25639272 0.40806594 -0.12869044 0.01063667 0.15418217 -0.14674821 -0.080288835 -0.24324171 0.1062496 0.39405525 0.29833245 -0.13963109 -0.074493416 0.169374 0.010811446 0.086113855 0.3228827 -0.08574679 -0.029808547 -0.55512446 0.23808329 -0.04673768 -0.29793853 0.10812495 -0.06916886 -0.08547483 -0.3498116 0.06638028 -0.20040454 0.22017382 0.32608697 0.4229718 0.039351493 -0.06672615 -0.25165027 0.027025504 0.22520012 0.26787034 -0.5938114 0.21273305 -0.40236595 -0.12531032 -0.21604449 0.38784793 -0.11626822 -0.052519735 0.41556305 -0.16058697 -0.68309563
7186 0.16339986 0.052501336 -0.27195337 0.14527088 0.120247915 -0.7363637 0.023645759 -0.33678958 0.24613048 -0.22876546 0.030450713 0.16847612 0.5391745 0.09497613 0.21376406 0.20300221 0.23937504 -0.32497007 -0.19175686 -0.6997854 -0.4203581 -0.16043766 0.2632669 -0.15273204 0.1215751 -0.2725963 0.07534212 -0.056376982 0.23654942 0.2573357 0.05543637 -0.072657436 -0.22365397 -0.06024892 -0.44591227 -0.41057456 0.18585274 0.3157711 -0.1589452 0.16294076 -0.2146651 -0.38087207 -0.32609636 -0.28761494 0.029571285 -0.09088417 0.24952608 -0.13714287 -0.33551532 -0.2492807 -0.23572692 0.11659277 0.04382238 -0.31637898 -0.08162133 0.35316718 0.12244859 -0.025938997 -0.50424814 -0.087425984 0.07984108 0.07405159 -0.3194356 -0.19163705
7412 0.2342761 0.20761652 -0.13454117 0.11113382 -0.43170732 -0.18548046 -0.6124327 0.022636965 -0.16080011 -0.24170175 -0.09545666 -0.41382167 -0.17296916 -0.2308315 -0.108189836 0.3601844 0.21482651 -0.29619926 0.119042166 -0.03777231 0.07976136 -0.28975713 -0.27116582 0.0043127406 0.39283454 0.4400429 -0.36617863 0.18931572 0.047737278 0.35331962 0.49349284 -0.13642159 -0.13908046 0.07717004 -0.08466259 -0.2928136 -0.09978367 -0.12874179 0.096410185 0.38735446 0.4548415 -0.075890265 0.12456118 -0.32432213 0.07071051 0.078474574 -0.1672179 -0.08704106 -0.06810137 -0.20757511 0.03657512 0.14328349 -0.14280017 -0.13027701 0.0713882 -0.24564852 -0.2498931 0.06586947 0.0675332 0.12086647 0.06414135 0.52591753 0.10251674 -0.3724093
2932 -0.6277715 0.17594397 -0.25451627 0.15140907 -0.023226848 -0.015252849 0.0013775247 -0.26448783 -0.63917804 -0.04165666 0.3469827 0.030138426 0.15260234 0.17733398 0.3912652 0.21888138 -0.38685378 -0.4238689 -0.51628757 -0.47490424 0.03410462 -0.4508921 -0.36069635 -0.2024432 0.32344443 0.12464805 0.31227374 -0.08915664 0.34040973 0.2045748 -0.04004896 0.2590261 -0.073053546 -0.08356724 -0.3328312 0.58231634 -0.08147486 0.24657187 -0.2214381 -0.18239836 -0.28388456 -0.33783314 -0.13859099 0.067322314 0.18005541 0.13824853 -0.122516945 0.026128644 -0.10747185 -0.013688873 0.12413557 0.23524016 -0.47597927 -0.18726066 0.12539805 -0.1846114 -0.1351462 0.10558066 0.039944418 -0.08255204 0.14373845 0.053589072 -0.17128605 0.05413219
3309 -0.06660572 -0.2221713 0.28354377 -0.46489617 0.27552646 -0.3224857 -0.015476663 -0.037464455 -0.15566945 0.18974905 -0.2688666 0.2146497 -0.00795675 -0.041420747 0.33664045 0.1526069 0.17368141 -0.2479644 0.30755597 -0.2113215 -0.22463061 0.12140743 0.11229634 0.30304176 0.13536794 0.254049 0.25597474 0.16578966 0.47515854 -0.10508082 0.5408393 0.022872204 -0.44029415 -0.039205875 -0.22414984 0.0904084 0.06565274 0.33915463 0.26051918 0.04866074 -0.07926368 -0.27130377 0.26789224 -0.16484383 -0.11302805 -0.021598248 0.14075062 0.028755525 0.08157748 -0.37599266 0.22641496 0.06817455 0.009732315 -0.27012578 -0.059788454 -0.25576863 -0.14869027 0.069669284 -0.46978268 -0.29577172 0.006339269 0.22242926 0.023560556 -0.30331132
7428 0.15731929 -0.3385386 -0.0028555447 0.07711074 -0.11552299 -0.37777045 -0.48735335 0.46227568 0.12418655 0.38628444 0.04237585 0.04509646 -0.19803019 -0.42931464 -0.13861577 0.058050573 -0.037789058 -0.041135218 -0.23454043 -0.37720093 0.099771574 -0.004253819 0.22246738 -0.12732409 0.29653138 0.19541883 -0.17737265 0.25879472 0.39026648 -0.01609629 0.7997214 0.18680358 0.12774013 -0.23592976 -0.05924078 -0.18551609 0.22113033 0.25953075 -0.31619474 0.101585664 -0.14809342 -0.14726824 -0.22934012 -0.18850073 0.45983487 0.07716534 0.58027226 0.4574788 0.33045566 0.25489485 -0.156339 0.27693895 -0.17563455 -0.37509176 0.0924382 -0.03411645 0.07899283 0.09351463 0.10411596 0.15133943 -0.04884467 0.20662655 -0.27463803 0.073854074
7531 0.3128939 -0.18308906 -0.039179385 0.0066167684 0.16151035 -0.3745632 -0.12639174 0.05449438 0.075563304 -0.3782136 -0.13144001 -0.1689043 0.16444646 -0.48736754 -0.23049511 -0.10473705 0.52601784 -0.7113973 -0.016185261 0.121080115 -0.14591824 -0.27745807 -0.3225884 0.09154587 -0.05060175 -0.01243732 0.2436253 -0.16680892 -0.103213176 0.21979296 0.35123318 -0.05410171 0.38626394 0.0656809 -0.45013285 0.33295456 -0.041491725 -0.1670408 0.004514234 -0.51904297 -0.018435065 -0.3339603 0.28396598 -0.09846937 0.085395046 0.18797106 0.0039743 -0.21112111 -0.10271737 -0.14455509 0.04689666 0.13341232 -0.058099005 -0.33085918 0.0013714234 0.2638281 0.11951136 0.26386085 -0.051059246 -0.11675691 0.087642975 0.4101965 0.21611094 -0.18495078
5295 -0.059227116 0.0066729025 -0.2255191 0.117155954 0.2502003 0.027121225 -0.5561971 0.4247783 0.2535005 -0.17216597 -0.13500851 0.41155726 0.24665679 0.02393221 0.11246421 0.16226187 -0.2823479 -0.099478856 0.37291747 -0.02062186 -0.086766504 -0.30331647 0.1778918 0.082876526 -0.08673705 0.1440064 -0.20668197 -0.15481758 0.4955333 -0.31888548 0.35041788 0.29944974 -0.103804305 -0.12959129 -0.31447425 0.1570391 -0.053715594 -0.15448561 -0.13206929 -0.18460037 0.38351387 -0.19327064 0.07945807 0.52330124 -0.07053323 -0.18464124 0.045310233 -0.0071276296 -0.4018311 0.10232188 0.57743865 0.21129441 0.09284744 -0.2469339 0.04733269 0.03649126 0.22690523 0.42816502 0.21694297 -0.087896295 -0.09897636 -0.035699703 -0.18334326 0.3517729
5566 0.0029667208 -0.03559265 -0.24963067 0.5553368 -0.18393628 -0.32894805 -0.032351933 -0.16827308 -0.06524478 0.21645266 0.22468965 -0.16822593 0.14278093 0.34716922 -0.19630471 -0.25931647 -0.062191945 -0.7736399 0.16731851 0.21574391 0.112893604 0.11326262 0.047985755 -0.018459147 0.48831078 -0.08455048 -0.15261969 -0.4160407 0.3066776 -0.028610026 0.009336906 0.27947128 0.32167515 0.09695483 -0.37135038 0.4706071 0.1905428 -0.24717067 -0.1704782 0.14702094 -0.2871708 -0.38102892 -0.017761381 -0.13440818 -0.4628671 0.23433407 -0.31093395 -0.19019341 -0.1982701 0.14738482 -0.020217305 0.1540266 -0.47311214 -0.122748084 -0.13816732 -0.4252273 -0.10843461 -0.028284699 0.16763641 -0.004384998 0.36392003 -0.12334674 -0.4619545 0.032136325
7431 0.29091465 -0.02742127 -0.25858957 0.10604213 -0.13792457 -0.17961404 -0.09459287 0.1282183 -0.2358562 -0.010504567 -0.054810155 0.007614126 0.04000731 -0.5663527 0.18197739 -0.08464428 0.035243236 -0.24022575 0.29827288 -0.34684217 0.004174088 -0.16322848 -0.4113166 0.427608 0.033008818 0.33091813 -0.23295899 0.14405528 0.2592827 -0.0039656106 0.2240006 0.026543023 0.44652206 0.42596292 -0.3189261 -0.06783479 0.1716359 0.21266459 -0.102292 -0.21593776 -0.25163668 -0.16314739 -0.2611612 -0.15645726 -0.39213216 -0.19246845 -0.43722576 -0.015178955 -0.054364838 -0.046291396 -0.19011706 0.2691598 -0.38784915 -0.16005996 0.0035066493 -0.0762459 0.007276827 0.13613206 -0.16501065 0.24377224 0.1638523 0.054607145 -0.086921 -0.24343288
10014 -0.17030826 0.13937223 0.30967048 0.1790964 -0.0597277 0.0042360052 -0.82700175 -0.16736718 0.023200653 0.23906499 -0.35760093 -0.1289929 -0.49032214 0.0017235081 0.21585172 0.28453392 0.20559092 -0.046772197 0.20034458 -0.11991133 0.24306498 0.05087183 -0.22160245 0.03140454 0.12772565 0.30624375 -0.21174742 0.17154771 0.038760487 0.15256862 0.18058807 0.0037939558 0.14404999 0.1638685 -0.5147618 0.14298885 -0.27162707 -0.2553898 0.27975652 0.24349318 -0.100831956 -0.2542582 0.241688 -0.2954406 0.11041622 -0.078780875 0.1267525 -0.11710706 -0.06372083 0.04702239 -0.079428285 0.21777461 -0.17105573 -0.43211618 -0.2539676 -0.025530368 -0.4991991 0.20590146 -0.18574896 -0.3531289 0.26815188 0.35356897 0.1360154 -0.21413891
2316 0.077550136 0.092658915 0.010681343 0.12330377 -0.1373178 0.02648059 -0.45008215 -0.17261145 0.10998391 0.056956783 0.15430653 -0.22522865 0.28197554 -0.37484717 0.08325013 0.062646315 0.060213603 -0.30333674 -0.08390158 0.050506826 -0.41962814 0.01759851 0.023644267 0.24950105 0.33959293 0.22628947 -0.34850425 -0.29488224 0.16620664 0.13399166 -0.18627475 0.30388585 -0.048591077 0.36660287 -0.30075267 0.07571768 0.6312552 -0.20862992 -0.023142116 0.09831216 -0.14045042 -0.18701243 -0.026812078 0.09925125 0.038460433 0.115128376 0.17407952 -0.2007941 0.0506904 -0.28379923 0.38540664 0.07101842 0.4482991 -0.067790344 -0.13866027 -0.14522935 -0.11786498 0.55184454 -0.36710986 -0.040885616 0.04090391 0.002315828 -0.12871026 -0.18814325
4089 0.05173947 0.105937965 0.120687485 -0.22168761 0.049873766 0.10682437 -0.33701348 0.23688298 -0.0270318 -0.08301339 -0.23821397 -0.11515105 0.09083652 0.29801172 0.56640273 -0.17306234 -0.032022335 -0.06550105 -0.25397193 -0.09943396 -0.31475383 -0.16235863 0.006990714 -0.050642494 0.014603964 0.22710212 0.05705104 -0.061208468 -0.050864425 -0.00052628387 0.15955195 -0.400062 0.1911859 0.19780357 -0.58169854 0.28613892 0.24842523 -0.04235652 0.02963918 -0.016320525 0.4040774 0.013753858 -0.29490963 -0.11488651 0.06633543 0.014953907 -0.15096399 0.52054423 -0.6485825 -0.014939269 -0.5691239 0.05604059 -0.077906035 0.24579896 -0.06296568 -0.0025342384 -0.2813318 0.5465533 -0.681847 0.026743533 0.2695167 -0.21008286 -0.28985116 -0.19171935
6885 -0.022879438 -0.04542661 -0.22247267 -0.2321338 -0.16674948 -0.29884532 -0.26939493 -0.34924978 0.3193816 0.20363505 -0.02260543 -0.06250816 0.3468671 0.057461414 0.6056672 -0.031441092 0.34210348 -0.14431432 -0.077427916 -0.11626308 -0.5981894 0.037647605 -0.03618593 -0.10465473 0.10500282 0.13878927 -0.17142244 0.2810409 -0.120796025 -0.10643515 -0.13201036 -0.2014048 -0.037730288 0.19881332 -0.3200582 -0.25328326 -0.22274432 -0.083793275 0.0903393 0.18277815 -0.0246283 -0.4365632 -0.25702375 0.08564413 0.22225215 0.037670054 -0.085124016 0.031420626 -0.16849999 -0.17277601 0.27033207 0.21949807 -0.14157967 -0.79125345 -0.4169334 0.25143802 0.09266349 0.13120872 -0.12697797 -0.3622698 0.34492737 0.03918839 0.22308734 0.05379831
5371 -0.2279745 -0.006262543 0.505628 0.22375101 0.01912102 0.029302718 -0.16539803 0.39105794 0.19702166 0.25303513 -0.21975462 -0.07019053 0.15024517 0.020681104 0.2515089 -0.20839375 0.094423145 -0.20638761 0.06595297 0.07347356 -0.30575457 0.14616519 0.13697046 -0.25640067 0.16042057 -0.0052991514 0.11729159 0.11167424 -0.17613836 -0.1111933 0.09813547 0.112465315 -0.0009673382 0.38735276 -0.29173228 0.2631147 -0.055795927 0.4101129 -0.00043596164 0.03786992 0.045557875 -0.22513823 0.0723559 -0.18764697 0.09770998 -0.25177443 0.25323075 0.10900201 -0.30846682 -0.36512396 0.17236018 0.15251173 -0.3237339 -0.27021414 0.099437214 0.102519445 -0.258517 0.17502928 -0.40733883 0.6543169 0.4072309 -0.118040815 -0.1406335 0.26441374
7132 -0.28927076 0.05437133 -0.30776402 -0.07044967 0.07841469 -0.20038141 -0.28023216 -0.013413906 0.027187588 -0.12053312 -0.109518304 -0.071484126 0.22789648 0.27228996 -0.114832245 0.28702223 0.16302189 -0.30956155 0.38558152 -0.71700585 -0.4135239 -0.27891567 0.44835615 0.37125677 0.3511292 0.2674181 -0.604546 0.2598885 0.03979703 -0.32901007 0.037850868 0.02526068 -0.06675041 0.21617785 -0.07845631 0.2633721 -0.325888 -0.26660895 0.12385418 0.24129005 0.042644165 -0.57164377 0.2665905 0.224173 -0.13714904 -0.29571107 0.12765615 0.06363663 -0.27212504 -0.25749248 0.0988617 0.091151215 0.055188987 -0.28276327 0.1627945 -0.03999281 -0.0736729 -0.13900143 -0.0014365308 0.039311558 -0.061939657 0.56907034 0.29184005 -0.14429228
2534 -0.2882509 -0.38426477 -0.09345951 0.18319894 -0.10341632 -0.44597882 -0.4386946 0.54990447 0.18219672 0.18802954 -0.1611378 -0.06277627 0.47778803 0.004508843 -0.047268964 -0.06797486 -0.4889329 -0.3277044 0.0035495982 0.24032314 0.058831695 -0.10733911 -0.19067743 -0.11153488 0.06852595 -0.09279707 -0.41364387 -0.2112419 0.08185495 0.09411642 0.50340337 0.2917015 -0.19917677 0.068529196 -0.28238803 0.28441375 0.04823927 -0.19754776 -0.17032816 0.299163 0.10185736 -0.4525256 -0.07707611 0.44697377 -0.4153597 -0.08747695 0.1502934 -0.17760487 0.17310792 -0.542508 -0.052571546 -0.06360527 0.13946076 -0.16446412 -0.05434606 0.16558154 -0.049065635 0.2832367 -0.08286217 -0.16020417 0.063878775 -0.12841676 0.07918025 0.3707974
1147 0.081031226 -0.054784965 -0.13796623 -0.19030187 0.07005054 -0.2458746 -0.3439757 -0.20318575 -0.18287712 -0.067830496 -0.056047603 0.09977121 0.13689211 -0.3921951 0.3042965 0.060931 0.07819434 -0.21083337 0.0071100616 -0.08103038 -0.6946887 -0.07059309 0.5120892 -0.10983406 0.013200887 0.38477942 -0.009388294 0.47777325 0.12987089 0.041444123 -0.3772217 -0.014465085 0.12437503 -0.30568138 -0.30637035 -0.18325731 -0.057451032 -0.071379244 -0.02923135 0.10287385 -0.041453864 -0.58195454 0.0025900595 0.19763316 0.088410415 0.3664369 0.0660221 -0.066035874 -0.31153947 -0.22113755 0.24692842 -0.34740248 -0.31602687 -0.24227154 -0.39909998 0.03162362 0.024759721 0.015184132 0.031448796 0.04759835 0.30848798 -0.08918478 -0.0938473 -0.0090672895
1386 0.33294174 -0.16504134 -0.36741373 0.31789532 -0.28445634 0.47295064 -0.29868358 0.27665818 -0.30416292 -0.123412244 -0.26134956 0.21665154 0.10681385 -0.24867444 -0.08536272 -0.378681 -0.29123765 -0.10861226 0.20732827 -0.3030768 0.07678289 -0.116543114 -0.027394557 -0.08436297 0.061298575 0.29881287 -0.06600034 -0.2441979 0.41840157 -0.04560692 0.3243356 -0.116853096 0.117609575 0.3677954 -0.13112572 -0.02572699 0.33478758 -0.51816785 0.24695711 0.19486786 0.08140105 -0.36263382 -0.28728682 -0.06047023 -0.025681986 -0.2061039 0.14677568 0.0065493914 0.17106383 -0.08690575 -0.10981782 0.73987114 -0.33064502 -0.12884606 -0.32145426 -0.009944006 -0.26189786 -0.07790242 -0.004791378 -0.090042345 0.31327125 -0.04238033 -0.42092597 -0.33681247
3066 -0.2708988 0.19520576 0.13421324 -0.34145167 0.33049506 -0.15726966 -0.6521009 0.38208547 -0.32298627 0.85583013 -0.22164665 0.1846206 -0.047276217 -0.04905455 0.32798043 0.014132125 0.069785625 0.04670803 0.15368494 -0.056843027 0.05466996 0.07417407 -0.06094751 -0.419294 0.40634745 -0.004198462 0.016554601 -0.019579547 0.13780613 -0.5034093 -0.26347986 0.13283397 0.17366493 0.18110014 -0.17793857 0.11901396 -0.54638314 0.3587781 -0.29811433 0.059746668 -0.3067072 -0.2373059 0.13276173 -0.38796282 0.26316988 0.06248269 0.056908168 -0.020926699 -0.23026508 -0.09218296 0.19132286 0.062064484 -0.14065242 -0.35495532 0.06541099 -0.1878385 -0.03596702 0.3395005 -0.31834334 0.00085826905 0.30116627 0.30943057 -0.44093722 0.022116257
998 0.18720789 -0.07199666 -0.12236167 -0.20447417 -0.44521037 -0.19487111 -0.4602645 0.0073626568 0.23806608 -0.507165 -0.045911025 0.27259898 0.72091925 0.39414534 -0.13975033 0.26868466 0.049458917 -0.38698745 -0.099227816 -0.35547292 -0.7875628 -0.5790376 -0.03236787 0.3851236 0.24484973 0.11416004 0.13861568 -0.4208896 0.11603149 -0.22980821 0.29043418 0.24445958 0.69624496 -0.4282601 -0.23584324 -0.06243601 0.27220675 -0.03301599 0.014102549 0.038939107 0.032022562 0.367294 0.43422574 -0.4787205 -0.016135167 0.10162801 0.19714013 -0.023108583 0.086297825 -0.42227826 0.13878329 0.058265533 0.121256284 -0.1890799 0.17118414 -0.009861125 -0.097268686 0.1032743 0.04956198 0.0011008052 0.08030911 0.025808519 -0.030922027 -0.061032504
8945 0.052466635 0.038484886 -0.006549949 -0.32989198 0.36890414 -0.39985794 -0.20000261 -0.073334455 -0.22422244 0.044753052 0.22156559 -0.07406999 -0.1262028 -0.15126725 0.20066012 -0.17132966 0.19716674 -0.6890563 0.06784015 -0.16050503 -0.13162504 -0.1740726 -0.004038581 -0.50521016 0.3043507 0.12118047 0.53300756 -0.120413244 0.39485464 -0.19748522 -0.108443715 -0.11841448 0.16132994 0.2446856 -0.2753511 -0.12757821 0.3262823 -0.071568586 0.08944396 -0.07997476 -0.11052121 -0.101981424 0.41989076 0.46661228 0.4098512 0.34173033 -0.158973 0.36180678 -0.089186795 -0.080936566 -0.16787463 0.17829326 -0.42987093 -0.04203942 -0.45642215 0.07218085 -0.055046305 0.12533276 -0.066559434 0.014408145 0.3312227 0.31540582 -0.22064087 0.16669616
4691 0.10945594 -0.011223859 -0.0005358442 -0.0634056 -0.14126247 -0.08361573 -0.118223645 0.32334498 -0.48715565 0.32379788 -0.25678757 0.5718809 -0.0090835225 -0.17515999 0.36365062 -0.18429035 0.2909675 -0.42061016 0.36234853 -0.07368595 -0.007885692 0.18083745 -0.024860352 0.23017493 0.4799522 0.54299617 0.122447565 0.12337427 0.51543826 0.26102003 0.41248807 -0.22509392 -0.13430156 -0.23573127 -0.029236302 -0.11367318 -0.019101016 0.13722757 -0.20380689 -0.08773719 0.54539704 0.025256054 -0.096728005 -0.062444523 -0.0921424 0.025816718 -0.06745026 -0.0036019864 0.21807663 0.045593627 -0.17942838 0.23948719 -0.44649488 -0.3740196 0.27912185 -0.1209665 -0.041466177 0.4046392 -0.1563849 0.25765768 -0.21284789 0.07777647 -0.1781031 -0.5176092
6774 -0.15688972 -0.22444475 -0.026476841 0.06829214 0.35173026 -0.05932861 -0.6950429 0.5948516 -0.30408493 0.32042852 0.16272901 -0.22071725 0.2129703 0.2022928 0.2744181 -0.023672681 -0.13565893 -0.39911816 -0.010165371 0.20918968 -0.6664855 -0.23719141 -0.27561775 0.019808054 -0.34244245 -0.0075292313 -0.25065386 0.23237135 -0.079562455 -0.1161418 0.063854754 0.20964772 -0.031822864 0.18740547 -0.35350433 -0.15064958 -0.18195945 0.38087517 -0.33095533 0.10669202 0.4290705 -0.2289768 -0.31770778 -0.22373317 -0.17591941 -0.53310406 0.25215048 -0.24424937 -0.0073456056 -0.047127765 0.120549746 0.34150383 -0.25927892 0.0767714 -0.13464682 -0.03352674 -0.08992864 0.28604007 0.14514874 -0.062034037 0.27051434 0.1350355 -0.0031935344 0.19005425
57154 -0.12504216 -0.004468337 -0.08551633 -0.22705157 -0.15526459 -0.40176857 -0.20966358 -0.340193 -0.17012683 -0.05280038 -0.18420383 -0.086901315 0.2023422 0.082797855 0.61283684 0.06394821 0.4552907 0.039303195 0.30206037 -0.04900989 0.08032881 -0.20883392 0.033023324 -0.10382439 0.44623885 0.26425496 -0.14407283 0.06797223 0.3412199 -0.14004438 0.2670745 0.0013895574 0.06743772 0.14351983 -0.38530654 -0.20994943 0.28962937 0.17886235 0.4712022 0.15131946 0.15290084 0.0165609 -0.31946298 0.30645996 0.23997547 0.051275853 -0.08443941 0.5583192 -0.33939296 0.1859855 -0.4172267 0.086923964 0.16311623 -0.29704067 0.037464302 0.25380293 -0.14324477 0.71065134 -0.23440678 -0.06269386 -0.054420773 0.117216304 -0.58041877 0.096575335
4215 0.19983767 0.18183067 -0.15122038 -0.094273694 -0.14885582 -0.36551607 -0.33420363 -0.38397378 -0.13384083 -0.044587214 -0.038564313 -0.08356272 -0.040786162 -0.3649504 0.48277524 -0.0515005 0.2621551 -0.20176072 0.11947054 -0.16230518 -0.04042282 -0.016193343 0.26852062 -0.054923918 0.1410975 0.43887457 -0.44285938 0.017007813 0.1456164 0.0065873675 0.20250942 0.41399032 0.03759419 -0.07595139 -0.30349976 0.3445507 -0.21766527 -0.30399007 0.70421106 0.11350601 -0.16597009 -0.66389287 -0.03516854 0.0024074614 -0.15307699 0.32087913 -0.07650468 0.029759808 -0.18157338 -0.45876715 0.05177904 0.14400704 -0.012702727 -0.018280424 -0.1682018 -0.15659547 -0.11147401 -0.16878936 0.20007138 0.15448675 0.16101436 0.8314363 0.21405831 -0.2876409
4790 -0.005337158 0.45928112 0.07263513 -0.049654167 -0.13211761 -0.3672565 -0.34294614 0.029235074 -0.0029448334 0.3158914 -0.013186118 0.101441406 0.11803773 -0.21441123 0.3299376 -0.14933605 -0.077579886 -0.4527413 0.08251423 -0.047816347 -0.6687713 0.19218577 0.33206913 0.058632176 -0.022345224 0.22649564 0.28923848 0.082233824 0.3889531 -0.30222824 -0.09557905 0.07245109 -0.06653282 0.32852352 -0.30382958 0.14666031 -0.20572285 -0.29196522 0.22645377 0.02412698 -0.17537306 -0.08957764 -0.027100362 -0.12428944 -0.25613007 0.27455127 -0.097954825 -0.10700582 0.18602766 0.26683712 0.35421985 -0.20978342 -0.48758128 0.014287533 -0.008350009 -0.45776364 -0.22926101 0.13918781 -0.08186149 0.1587818 0.4381887 0.2818878 -0.23529881 -0.10476713
4214 0.1705908 0.23489764 -0.093418375 0.068241835 -0.089555055 -0.112854876 -0.056236077 -0.345781 0.04795796 -0.2303889 -0.058468744 -0.08843958 -0.1804049 -0.238516 0.4744759 0.35991016 0.12622823 0.07652303 0.006712669 -0.39511862 -0.20005219 -0.004638102 -0.0015950983 0.020298693 0.22969998 0.20441093 -0.19194601 0.039069396 0.0024319638 -0.020195955 -0.15157558 -0.21671975 -0.0070042517 -0.0074348017 -0.57110184 -0.053134244 -0.26660076 -0.02276521 -0.051746868 0.09432568 0.26175413 -0.70945597 0.22676922 0.22577323 0.1433849 0.5446376 0.20900945 -0.060616523 0.08488894 -0.3565936 -0.05737804 0.65082324 0.22953445 -0.19627708 0.028741978 -0.17842223 -0.42836252 0.26426226 0.38899422 -0.024065355 0.19272017 0.48125008 -0.0033921178 -0.45116705
6772 0.09626159 0.21626565 0.053286023 0.05141982 0.13777712 -0.42648524 -0.27420336 0.41033882 -0.20828769 0.11395347 -0.010210256 -0.2583998 0.50112396 -0.16446269 0.32255563 0.086249664 -0.21696554 -0.48295158 0.094919436 0.22802128 -0.55976194 -0.099515244 -0.15045145 -0.10419678 -0.34521365 0.27018547 -0.28734925 0.10877589 0.08044395 -0.124517016 -0.28300747 0.4215154 -0.14023258 0.5883623 -0.29584807 -0.19605017 -0.048097372 0.55729973 -0.07446922 0.10005067 0.24128594 -0.23274487 0.31973484 -0.14357032 -0.3433733 -0.43462422 0.26040223 0.1510375 -0.09784918 0.0051401113 -0.20397343 0.15192552 0.17551953 -0.18388943 0.072996885 0.37229225 0.03339741 0.052145086 0.092081904 -0.07175562 -0.028861515 0.22285345 -0.12969658 -0.2799033
4627 -0.20121823 -0.19798394 -0.014433437 -0.0880441 -0.098163344 0.015000786 -0.17567307 0.18905501 -0.19141679 -0.059507523 -0.32728252 -0.25160873 -0.21080743 -0.55027485 0.4183105 0.012668712 -0.19422442 -0.250007 0.1332615 -0.014895689 -0.5231152 0.06921161 0.15786496 0.28170967 0.54811835 0.08948674 -0.5226204 0.09702292 0.39083552 0.4135496 0.17996262 0.45651636 -0.20753457 0.3192137 -0.16509819 0.0074627823 0.30645 0.040129174 -0.015658582 0.09040479 -0.13697167 -0.18957722 0.20549263 -0.05379185 -0.24969839 0.1231947 0.12124291 -0.23352411 0.020475198 -0.34056342 0.5169504 -0.2829074 0.17389253 -0.0531413 -0.21886764 -0.19542311 -0.3541375 0.28518522 -0.3778725 0.09590378 -0.16453217 -0.025090901 0.060577948 -0.33218557
2023 0.01745866 -0.07563607 -0.049030807 -0.10711886 -0.5041361 -0.41139147 -0.070759214 0.5892955 -0.019198647 0.22216882 -0.35336003 0.25810412 -0.060815413 -0.47960895 0.15876222 -0.28066906 -0.12728624 -0.40741667 0.35762894 -0.12695299 0.049774356 0.23245518 0.093195476 -0.06680101 0.05243363 0.2507264 -0.45535937 -0.37726206 0.07307105 -0.0041128555 -0.103778124 -0.20650364 0.26828274 0.064358614 -0.03173642 -0.172158 0.10617254 -0.06214226 -0.32279837 0.09240516 -0.060188185 -0.32516822 -0.163733 0.010328606 0.2511903 -0.3328609 -0.84571105 0.3132278 -0.28121987 -0.6023984 -0.34410372 0.25892258 -0.38441807 -0.36775148 -0.10407774 -0.25209877 -0.08964658 0.14017713 -0.106191866 -0.0482352 -0.20950589 0.4788624 0.088798575 0.18601488
5879 -0.12648082 0.040485132 0.041490734 -0.12270087 -0.38677695 -0.10859851 -0.5901561 0.15021561 0.18510376 -0.25007755 -0.14863122 -0.1296316 0.0389782 0.2345322 -0.18873872 0.10953559 -0.28486153 -0.73927873 0.1597827 -0.15528595 -0.75450826 -0.68656355 -0.12884256 0.5644433 -0.06520989 -0.079359494 -0.037801743 -0.40174258 -0.15768506 0.235878 0.34909979 0.17955643 0.018275892 -0.2528025 -0.076324284 0.10733912 0.4953348 0.2799181 -0.3711796 0.5445565 0.32001433 -0.15819 0.22510302 -0.056887195 0.19693598 -0.036165506 -0.24001162 0.23246855 -0.03977412 0.13449915 0.2999987 -0.3787292 0.65384233 -0.24168509 0.017830063 0.40267283 -0.27622852 0.32250032 -0.044865396 0.18163317 0.12996429 -0.025508467 -0.25073364 -0.3619162
3315 -0.13330126 0.1056679 -0.17340945 0.18733951 -0.016731478 -0.19354695 -0.0047534723 0.2598223 -0.15708843 -0.0023929307 0.23214906 -0.11329171 0.11609935 -0.54589695 0.081456244 -0.07843198 0.19361538 -0.30063528 0.030756153 -0.038744975 -0.31470707 -0.36156636 0.037224755 0.2783084 -0.050877377 0.49625877 0.12689665 0.008125777 0.22244594 -0.016499544 0.25571606 0.16918138 0.5197232 -0.08670429 -0.40566164 -0.14360557 -0.023563795 0.1289479 -0.14114484 0.2010008 0.10594588 -0.080021545 -0.06005816 0.11964778 -0.21087015 -0.19470547 -0.41729188 0.27343997 -0.30879855 -0.18654957 0.27331457 0.075863585 -0.17866494 0.15133248 -0.6288519 -0.5572809 -0.09473995 -0.40785968 -0.044758357 -0.29663154 0.5706047 -0.053074963 0.040744774 -0.26016462
6597 0.050868183 0.43887943 -0.053882346 0.18996792 0.06170621 -0.03242135 -0.340749 0.22915694 -0.39668676 0.39619932 -0.39032394 -0.12862623 0.09127438 0.302811 0.06926331 -0.07450504 0.45948356 -0.278507 0.14316547 0.17147765 0.027530804 -0.35290748 0.054550562 -0.19268532 0.27989566 0.20932603 0.13037954 -0.14139378 0.11341361 -0.38385406 0.031885825 0.21219252 0.5261929 0.20839491 -0.19090952 0.116585106 -0.49743408 0.34194306 -0.3657177 0.47732806 0.06861229 0.15821749 -0.283347 -0.035745 -0.11748083 -0.057870753 0.2657022 0.13497199 -0.19570127 0.079455175 -0.005158761 0.58281994 -0.0634939 0.16153553 -0.21370453 0.10268527 -0.11179328 -0.01835048 -0.5863559 0.025321878 0.42337584 -0.15410551 -0.653997 0.010098469
8841 0.010521175 0.017780738 0.38575792 0.3960106 0.4867996 -0.00111944 -0.8029946 0.2941821 0.3006249 0.6094598 -0.24954672 0.19529408 -0.06227365 0.2617586 0.13604206 0.12606333 0.09955548 -0.21439935 -0.042428974 -0.21101108 -0.10944035 0.00975375 -0.08710533 -0.40949273 -0.15788995 0.17220739 -0.21339814 0.046389207 0.111912765 0.096169055 -0.12184 0.087715775 -0.07180972 0.10529224 -0.29064405 0.07453907 -0.24685244 0.08026657 0.011440121 0.040016603 0.039271254 -0.06596932 -0.2016422 -0.3550039 0.06264122 0.013590465 0.3302869 -0.08137323 -0.27687243 0.003072263 -0.002356019 0.22741032 -0.35987043 -0.2933394 -0.14047588 -0.09716492 -0.30829498 0.18289751 -0.31571347 -0.12457207 0.39594093 0.1688503 -0.26702225 0.10758875
2547 -0.16732031 0.08846999 0.44809696 -0.09989632 -0.348671 -0.02464258 -0.09312257 0.15752234 0.14539722 -0.25969073 -0.096042685 0.5902668 0.21877395 -0.13950993 0.303823 0.2905461 -0.24398288 -0.24822596 0.5527171 0.05403724 -0.07963168 0.16253087 0.35083368 -0.09644861 0.2775303 0.17526087 0.48055655 0.16766308 0.4709642 0.30786508 0.22153443 0.2548032 0.40018162 0.8144071 -0.2996922 -0.097160995 0.13520534 0.16024874 -0.14483908 0.21254711 0.2441257 -0.21135922 -0.277034 0.02461798 0.09475908 0.1978394 -0.19423465 -0.16896817 0.0076454533 -0.055068634 -0.016612165 0.3021972 -0.6369591 -0.1722038 0.3449317 -0.10301596 -0.055496596 -0.062517144 -0.19446422 0.11202401 0.08210617 0.44258398 0.06178758 7.5492084e-05
409 0.055519987 -0.03851565 -0.15332963 -0.016928645 -0.38638642 0.047025874 -0.04573404 0.18466693 -0.15053509 -0.12597296 -0.21067137 0.2610461 0.047118027 -0.2803271 0.4887693 0.3392033 0.18482961 -0.15036304 -0.1444221 0.1876885 -0.08714243 0.016635092 0.053587016 -0.119836204 0.25573027 0.115947925 0.03782248 0.09288245 0.30305222 0.022498483 0.10665754 0.41767424 -0.15656933 -0.14065066 -0.7096857 -0.271723 -0.13460587 -0.08302866 -0.6242822 -0.43569624 -0.17667465 -0.13677558 0.14420937 0.0076707257 0.075811505 0.16428314 0.0076466044 0.0016307343 0.032024134 -0.25057462 0.24879739 0.08369377 0.5097717 -0.6027253 0.077724226 -0.17808792 0.18970981 0.13855246 -0.02867413 0.07634933 0.275733 0.1039324 -0.28377753 -0.52663577
5925 0.015033889 -0.081727214 0.17758934 0.09304336 0.3766546 0.39714998 -0.19647926 0.1650555 -0.059462912 0.39140436 -0.2662762 0.1666536 0.24102929 0.14313982 0.08357628 -0.3962148 -0.11157343 -0.58121365 -0.106308185 -0.090696804 -0.05924662 -0.062867835 0.21870562 0.20149262 0.1606443 -0.06741784 -0.10119499 -0.08756631 0.0347445 -0.6143776 0.13579056 -0.20993064 0.27500442 0.017779833 -0.32755217 -0.0839509 -0.15389259 0.25405264 -0.36253846 -0.11033243 0.34458983 -0.10213958 0.009940292 0.12514111 -0.20107414 0.10110975 0.32634655 0.18598671 -0.13427441 -0.076653965 0.40806252 0.60394967 -0.29965973 -0.09720207 0.14939635 -0.21241526 0.08471544 0.22252622 -0.27791902 0.20198438 0.3426111 0.25979984 -0.42263576 -0.1034627
5300 -0.25963655 -0.0067342985 0.3991381 0.25980127 -0.11094338 0.21847223 0.08755863 -0.03185788 0.3969268 0.026946137 -0.0052800896 -0.06429812 -0.011229981 -0.10962528 0.43054762 -0.010968691 -0.095164776 -0.28303346 0.078229114 -0.08404715 0.02081861 -0.6270888 0.0003600717 -0.38712737 -0.09011788 0.23085606 -0.17409533 -0.18182279 0.1251403 -0.2792249 0.2911119 -0.060021095 0.025134135 -0.16990499 -0.2237851 0.21375905 0.30876005 0.0023078814 -0.033878803 0.08041761 -0.016099075 -0.26788387 0.006602729 -0.40377182 0.1409136 -0.06269757 -0.035619166 0.24999987 0.0063697402 -0.47589496 -0.09409968 -0.26987624 -0.60272956 -0.31321687 -0.117399335 0.035542756 -0.3437806 0.042607747 -0.006631306 0.4196335 0.16375339 0.5538519 -0.5103247 0.17989793
5601 0.4010233 -0.16545904 0.03281244 -0.4346078 -0.5993176 0.15714283 0.03581423 0.049422253 -0.21988718 -0.12873258 -0.33224493 0.35264367 0.4598963 0.09785867 0.03238597 -0.020570256 0.17961939 0.08099457 -0.48602903 0.12368102 -0.15070494 -0.031814754 0.045266517 0.36540276 0.07601632 -0.00025268277 0.26868948 -0.24517113 0.033398703 -0.122942545 0.101171196 -0.13114956 0.041872926 0.0652723 -0.48945627 0.1763624 0.0354644 0.2543055 -0.28576317 0.2291604 0.2279774 -0.57596713 0.09731378 -0.019200789 0.035355035 0.32854694 0.34441712 0.08012679 -0.36016804 -0.3555856 0.012477077 0.36746436 -0.22013743 -0.19954714 -0.4219342 -0.079513036 -0.026270611 0.05131353 0.09447554 -0.22169746 0.42441005 0.07055269 -0.34917757 0.0786645
5747 -0.11109969 0.18258798 -0.13998812 0.027490404 0.0064656595 -0.39377627 -0.18999317 0.4325312 0.19523637 0.030026615 0.11752689 -0.35174894 0.25560018 0.13772638 0.07123658 0.17222756 -0.5159103 -0.06140645 0.24230799 0.036040615 0.12588899 -0.6476122 -0.36712843 0.37861452 -0.20071478 0.2889649 -0.49692577 -0.15177557 0.14345251 -0.239711 0.46511826 0.056896243 -0.11920014 0.31855723 -0.10436972 -0.03732541 -0.0087606935 0.40273285 -0.06795966 -0.36912012 -0.11011009 -0.7002 -0.08147915 0.1926989 -0.33765385 0.18137491 0.029183272 -0.2737248 -0.13340889 -0.21750368 0.12870203 -0.10880155 0.07982011 -0.4066419 0.26337963 0.091779396 -0.032951668 0.39304826 -0.035209656 -0.21803482 0.01942736 0.100429215 -0.16054797 0.096535966
836 -0.22416596 0.15081635 -0.013235594 0.20348467 -0.17172682 -0.027594063 -0.4560593 0.30631715 0.22131668 0.00703996 -0.26876724 0.34529036 0.46382645 -0.107537314 -0.357196 0.10602182 -0.047245093 -0.3564501 -0.16818509 0.076796904 -0.037956223 -0.43861416 -0.19971478 0.55850893 0.06858013 -0.34570903 0.43017003 -0.07571252 0.12811556 0.17684208 0.12585807 0.027782125 0.32280552 0.11827932 -0.27123013 -0.1388229 0.12240392 0.3086885 0.04473444 0.26411858 -0.1995367 -0.14250152 0.38970327 0.2989965 -0.4478884 0.26290497 -0.11661657 0.23291466 -0.06278541 -0.29955253 0.35950023 0.20835857 -0.37015903 -0.113916256 -0.42992303 0.26970467 0.40964404 -0.309531 -0.40211606 0.09219625 0.31888586 0.12980695 -0.5435668 -0.46160164
3329 -0.009933622 0.06870869 0.07356828 0.23372896 -0.19678573 0.012437502 -0.28441364 0.15099621 -0.33077037 0.25762966 -0.042896368 0.14592624 0.1985095 0.1584959 0.046734765 -0.06959293 -0.10953494 -0.46278173 0.46785298 0.14947638 0.13764593 0.5846713 -0.17075813 -0.0014845029 0.4719548 0.29788157 0.023551319 0.1845321 0.37179273 0.31916 0.3539638 -0.2649695 0.26399603 0.18738873 0.086241655 0.3065591 -0.081389025 0.013188973 0.27937093 0.010763553 0.26066294 -0.41278547 0.33306956 0.013037406 0.12569134 -0.18030612 -0.39822492 0.19804636 0.086965226 -0.12738797 0.0069396975 0.40111107 -0.0615641 -0.510286 -0.2228088 -0.28054157 0.22689764 0.19203342 -0.38463897 0.27509105 -0.00477113 -0.100555435 0.09844775 -0.101667166
2353 0.27960372 -0.17480132 -0.20380759 -0.0238357 -0.5185169 0.07474104 0.2332622 0.24994749 0.033712585 0.1322104 -0.2732219 0.13875611 0.14985198 -0.113870986 0.46149206 -0.37722585 -0.042174526 -0.25044638 -0.062014367 0.013900804 -0.34291178 -0.116856135 0.17645003 -0.16188842 0.06704898 -0.0345681 0.17804946 0.055129144 0.36188143 -0.36632663 -0.15854444 -0.057220943 -0.45830467 0.08391568 -0.03234919 0.45154983 -0.13945048 0.09820481 0.088968635 -0.13670531 -0.085443184 0.055046916 -0.39373282 -0.15128091 0.06845691 -0.3474605 0.26398784 -0.012510278 -0.30615237 -0.19048235 0.019890295 0.46082607 -0.8975159 -0.39260364 -0.0031669983 -0.4672708 -0.32329065 0.37163118 -0.050278995 -0.09334114 0.37502196 -0.053151708 -0.27550057 -0.031115819
5728 0.032791797 -0.17735437 -0.38210133 -0.2227018 -0.030867489 -0.4282328 -0.38122952 -0.1267303 -0.32270667 -0.25283852 -0.25888136 -0.38216427 -0.52810603 0.2713385 -0.23832305 -0.18941697 0.2662808 -0.45998722 0.2536093 0.10835486 -0.32120618 -0.07246578 -0.26566243 0.31199032 0.4343272 0.06923423 0.01688793 -0.02880162 -0.023160577 0.23760258 0.3133087 0.642806 -0.35319805 0.020666858 -0.2934985 -0.13826628 -0.20726737 0.13568398 0.38096812 -0.46444172 -0.14999995 -0.4285206 -0.36577806 0.49176073 0.5052677 0.06521279 -0.18078585 -0.047347676 0.15030643 -0.20454197 0.23475614 -0.028872762 -0.3373489 -0.40034223 0.30124435 -0.13812958 -0.0040101325 -0.0142680295 -0.56937873 -0.1609924 -0.052944664 0.092352994 -0.8182291 0.553737
472 -0.45430785 0.127465 -0.40045866 -0.17037097 -0.5455274 0.40020493 -0.043420214 0.52037716 0.17965956 0.6641484 0.08154702 -0.20343427 0.10685191 -0.06496865 0.055356484 -0.31995746 -0.07562562 -0.7520715 -0.33841798 -0.42416498 -0.11977843 -0.039553016 0.06468212 -0.07702958 -0.0034482009 -0.06878627 0.46177092 0.51538706 0.39515093 -0.12108027 0.08163883 0.11256868 0.64631295 0.036421448 -0.42325556 -0.15451919 0.14893065 0.13075241 -0.1030904 0.116225325 0.3266414 0.05599964 -0.28396922 0.030864893 0.17492718 0.3160891 0.053338733 -0.3125253 0.22929619 0.06726168 -0.0665089 0.30301508 0.09308827 -0.33843675 -0.013233347 0.6622254 0.086526036 0.21399072 0.19532093 -0.9024994 0.2572809 0.30210343 -0.16839609 0.096523255
5335 -0.17368174 0.24867883 -0.312497 0.7596158 -0.19385143 -0.16737725 -0.1473405 0.11691323 0.29739425 0.12532505 -0.19056317 -0.32523087 0.20391631 -0.26574162 -0.14744191 0.051256146 -0.1847903 -0.22596562 -0.34103873 0.34696248 -0.21217228 0.1652781 -0.16644755 -0.02767807 -0.21344946 0.40206894 -0.37587026 0.18939498 0.3810425 -0.39437118 0.45556346 0.6269661 0.07766374 -0.27873564 -0.4694711 0.05466488 0.488307 -0.06425731 -0.13844597 0.39704075 0.37187627 -0.3211703 0.6279348 0.25581756 -0.274195 0.38670358 -0.14080077 -0.43057078 -0.4449533 0.17285608 0.24371628 0.25757658 0.007130473 -0.37325686 0.6055181 0.23574696 -0.0071821697 0.2889566 -0.1837462 0.060761675 -0.10740174 -0.03985885 0.14018647 0.43194106
7046 -0.27251008 -0.1661424 -0.26381713 -0.1734711 -0.093560465 -0.25668204 -0.11610766 -0.13553995 0.33304438 0.23390837 0.13943791 0.04660378 0.05241528 0.3105302 0.38478926 0.058123775 -0.15680236 0.27614143 -0.10308665 0.11998313 -0.7568054 -0.036617458 0.4208463 0.0405643 0.093677156 0.13569549 0.01796988 -0.06314294 0.2491932 -0.030838272 0.40119463 -0.13108188 0.37027308 0.13471599 -0.6599718 0.22629525 0.26972952 -0.14287505 0.4497885 0.383756 -0.16559361 0.0049721184 -0.045470137 0.20126188 0.08555593 -0.35755092 -0.25523737 0.4467163 -0.31385252 -0.13638699 0.31734994 -0.11467995 -0.17472248 -0.6409581 0.31834137 -0.09246032 -0.17325863 0.80287844 0.19076443 0.07029179 0.23604925 -0.4733121 -0.29844642 -0.018205116
10013 -0.4853006 -0.023291629 -0.1289188 0.008436219 -0.17107467 -0.034565236 -0.3710705 0.2534346 -0.13454695 -0.07303727 -0.38678157 0.14211154 0.039976995 0.3196454 0.057613786 -0.17001666 0.4256578 0.031236771 0.077711195 -0.070753485 -0.012895187 -0.093987696 0.13229327 -0.09922792 0.44883835 0.2892199 -0.17041509 0.719668 0.1612486 0.10110528 0.4498177 0.09496177 -0.11281636 0.102199644 -0.30965835 0.12788749 -0.30589858 0.044046115 0.50625885 0.2022121 0.326079 -0.7478107 0.18170664 0.0011603931 0.28571615 0.54336566 -0.058596086 0.07708786 -0.009740738 -0.27467686 -0.19285698 0.25297892 0.016916472 0.0974452 0.04249126 -0.24956097 -0.6026994 -0.15982196 0.19635177 -0.33085155 0.38014078 0.38735482 0.4312697 -0.036587745
10155 0.15438895 0.417995 0.18511932 -0.15034953 0.086995184 -0.119076565 -0.27008402 0.38902876 -0.070213914 0.44766548 0.13880807 -0.28634232 -0.30898172 -0.14098814 0.17485979 0.08984539 -0.12399856 -0.4543091 -0.15834755 -0.06503027 -0.111520894 -0.10080965 0.13551424 0.23290694 -0.21460861 0.3438859 -0.088980354 0.3068472 -0.12869768 0.29038703 0.48204616 0.1027283 -4.2991218e-05 0.14059211 -0.35369378 0.15536667 -0.18987897 -0.1915954 -0.58756626 0.24239807 0.17587835 0.42927378 -0.32830578 0.22496264 -0.13345045 -0.08856484 0.14720905 0.25083995 -0.119408965 0.21266687 -0.20961918 0.14351347 -0.030612646 -0.34005827 -0.2839266 -0.08338931 -0.31656864 -0.16820581 -0.37135592 -0.27575648 0.4339234 0.5839651 -0.44214314 -0.18007204
8878 0.044879608 -0.11148587 0.2521631 0.13989936 0.29608923 0.028215086 -0.17748885 0.20230038 0.119958684 -0.022030428 -0.21482836 -0.08450231 0.057718914 -0.06280427 0.28571382 -0.23620631 0.05546821 0.24709533 0.26397097 -0.2650429 -0.75821114 0.13378368 -0.086777836 -0.2206293 0.37547734 0.42834035 0.22421637 0.24537505 0.4545592 -0.21749854 0.588646 0.31393752 0.017874317 -0.09318849 -0.23831935 0.2573837 -0.28217068 -0.2157961 0.4568684 0.18164867 0.021438677 -0.15432882 -0.41235456 0.55350417 -0.20999657 0.16211052 -0.13354835 0.5550374 -0.49011576 0.059592668 -0.35935128 0.070696995 -0.1324953 -0.19367196 -0.14844684 0.07454581 -0.021872394 0.027577285 0.25817558 -0.090514086 0.39163762 -0.21126506 -0.031431183 -0.18502158
324 -0.13843334 0.59916383 0.08460839 -0.36655927 -0.08978655 -0.3179288 0.47079647 0.1584757 0.059345264 -0.14188321 0.43620032 -0.29096773 -0.5995236 0.11579734 0.12315245 0.018130228 0.29571867 -0.48230407 -0.19740647 -0.09636458 -0.30164838 0.07802727 -0.22945097 0.15037958 0.40250242 -0.01044357 0.07138087 -0.29779902 0.5543413 -0.1495571 0.57983077 0.21915269 -0.1871142 -0.062736526 -0.5148954 -0.16124411 0.40169626 -0.03248005 0.13928778 0.1612551 -0.051736914 -0.3241923 0.1352923 -0.28228572 0.04925673 0.6011997 0.27168864 0.14571823 0.024368828 -0.25260502 0.012623246 -0.08005393 -0.42560047 -0.30875525 -0.25281212 -0.104371004 -0.65304375 0.20554136 -0.20665649 0.026856659 -0.020613927 0.12563635 0.20326093 -0.17455177
5580 0.11134865 -0.40602478 -0.3423473 0.24217859 -0.13580087 0.11972099 -0.41326457 0.5528575 -0.33793518 0.32582548 -0.11342838 -0.1368442 -0.039451588 -0.36170328 0.2754094 0.088938124 0.07767924 -0.08232604 0.1844773 0.06240057 -0.23926952 -0.18619615 -0.15250742 -0.18360437 0.28603157 -0.039621674 -0.3640117 0.1805622 -0.012615036 -0.105042025 0.679291 0.3866624 0.14108202 -0.23845093 -0.07326818 -0.120239116 0.025768884 -0.18779211 -0.11483594 -0.13126375 -0.14068615 -0.5804337 0.1346791 0.05297988 -0.38311628 0.035700977 0.16275024 0.063551284 -0.18982448 -0.098588 0.03132544 0.054268967 -0.21967237 -0.18198903 -0.23861302 -0.035807475 -0.003590793 0.21083139 0.32399768 -0.1672061 0.116361685 -0.3883175 0.13022535 -0.21619517
1642 -0.23833272 -0.10954172 0.33189 0.038988594 -0.074137285 -0.3171209 0.262267 -0.07441979 -0.17621149 0.6226421 -0.013367906 -0.18672773 -0.29204223 -0.39683905 0.17526634 0.04736464 -0.24460118 -0.36745125 0.38005665 -0.34100786 -0.056118924 -0.2442046 0.18217434 -0.17823634 0.18106957 0.32607237 -0.03892346 -0.5152474 0.08891047 -0.09825632 0.13598536 0.03770979 -0.007839713 -0.4201174 -0.4602726 0.0063116434 -0.29676947 0.21190813 0.48432076 -0.26896274 0.2191488 -0.19248217 0.6134877 0.16226833 0.09712335 -0.011629072 0.30593577 0.23573008 0.37416437 -0.21620831 -0.018318126 0.3411214 -0.20605835 0.06580518 -0.15889926 0.21590208 -0.28709096 0.032257684 -0.39857504 -0.34338474 0.44611245 -0.044367384 -0.6770091 0.26273713
6464 0.06777698 -0.22191235 0.022192935 0.3154947 -0.07787533 -0.35880902 -0.1160952 0.25872198 -0.072227255 -0.047311205 -0.16146997 -0.079042755 0.20415998 -0.21678172 -0.17274031 0.10990111 -0.20315444 -0.08254152 0.006617197 0.36406106 -0.25405726 -0.03308949 -0.41494054 -0.15976454 0.08306385 0.57591254 -0.3091955 0.20809709 0.5218893 -0.280895 0.68166745 -0.03177393 -0.33512864 -0.09646743 -0.10536036 0.08315134 -0.02624482 0.29961035 -0.23578161 -0.07774369 0.018581646 -0.50325555 0.4491768 0.307894 -0.18654217 -0.01869683 0.39214957 -0.17445959 -0.14018765 -0.20104575 0.18151222 0.2074635 0.0048361705 -0.06265734 0.07391422 0.07734739 -0.052644715 0.32501727 0.094301686 -0.28731653 -0.14056174 0.0020959263 0.15456389 0.24092321
23411 0.048149932 0.13582051 0.2321564 0.12148134 -0.20138046 0.10619555 -0.21384725 0.24239676 -0.3265284 0.01904758 -0.37544727 -0.07372441 0.202297 0.24092416 0.116540454 -0.05661233 -0.1373736 -0.17471755 0.3663714 -0.032567754 0.16654071 -0.14552408 0.06352557 -0.35745063 -0.008347799 -0.07539027 0.3867195 0.16649824 0.46350068 -0.19649269 0.44094098 0.040103763 0.28102908 0.29319713 -0.09109215 0.11547603 -0.05388541 0.57388747 -0.3391821 -0.21935913 0.21652932 -0.15002567 -0.501144 -0.097871505 0.43135545 0.18253838 -0.016820347 0.039612375 -0.4326016 0.4722571 0.34242684 0.12280249 0.18512551 -0.68100405 -0.03637701 -0.28778225 -0.21683419 0.22273612 -0.49508503 -0.20995492 0.5293081 -0.11393001 0.006662943 -0.29757372
3091 -0.04115265 0.31738 -0.05630814 -0.14161777 0.2913736 0.19110908 -0.3894615 0.5218878 -0.060049817 0.3151183 0.16400272 0.22375415 -0.13519607 -0.16944885 -0.15354498 -0.014701632 0.22532637 -0.38163006 0.0135731995 -0.039872248 -0.26557863 -0.18634874 -0.0055812807 -0.13053805 0.32366022 0.3373991 0.26235574 0.30321684 -0.14864275 -0.36024594 0.12949957 0.250229 0.24563915 -0.07832351 -0.2775416 0.04835568 -0.45115718 0.2955673 -0.20533934 -0.39914384 0.031884573 -0.34351254 -0.33662456 0.32723704 0.032843772 -0.43111888 0.21466199 0.2783152 -0.019402139 0.12422532 -0.043591175 0.26751778 -0.0028252327 -0.05167153 -0.10471086 -0.15176648 -0.72997075 0.29892212 -0.15450276 0.20351772 -0.07433834 0.31882173 -0.22389789 0.40668598
5058 0.3801966 0.1353104 -0.041699994 -0.06411808 0.042717043 -0.053112943 -0.29839382 0.10243648 0.29653075 -0.35102606 0.18331368 -0.17631733 0.16744702 0.031186486 -0.04765484 0.12346412 -0.19395809 -0.24936716 0.08975441 -0.04781141 -0.11794705 -0.48961186 -0.17934012 0.04226158 0.08148517 0.28543478 -0.4915673 -0.26846653 -0.051623654 0.15254712 0.32436192 0.0684009 0.37138736 -0.054886155 -0.679434 0.2861753 0.052318376 0.17014903 0.032718692 0.12855917 -0.06434341 -0.12285141 0.015663454 0.06485274 -0.06242595 0.6271813 -0.18967701 0.3335587 -0.061067678 0.18044831 -0.38122165 0.16554008 0.03033433 -0.21353991 0.2206896 0.026584491 0.16483748 0.86116344 0.28084102 -0.26090935 0.10913105 -0.19983855 0.045976404 0.15965031
5515 -0.4336514 0.18746115 0.1334967 0.13822694 -0.009818846 -0.1667663 -0.3733793 -0.11666238 -0.048134614 -0.27651313 -0.26914984 0.070155196 -0.07704988 -0.27315658 0.29066166 -0.22751449 -0.38286203 -0.49281585 0.080371544 0.22377399 -0.34361836 -0.4157528 0.14394435 -0.46055773 0.1185522 0.2229484 -0.072118245 0.027954338 -0.16166833 0.53331095 0.4896492 0.53899354 0.3550053 0.09750949 0.1018509 -0.16486692 0.34369087 -0.040074475 -0.0137146665 0.0136076845 0.18658246 -0.5296334 -0.0731586 0.0508621 -0.06726679 0.0995702 0.38702556 0.35379213 -0.1636542 0.17262033 -0.09451947 -0.3112191 -0.052087 0.12078544 -0.07071675 -0.023269646 -0.3892092 0.12600166 -0.014580961 -0.06475824 0.15868239 0.30537868 -0.045400675 -0.35980383
9146 0.52877545 0.52063173 0.026891824 0.11850837 -0.12669466 -0.22176775 0.16857101 -0.20940858 0.079476364 -0.07549346 0.04364855 -0.20990637 -0.4201489 0.22335814 -0.026253052 -0.20859194 -0.45198432 0.13155097 0.09404324 -0.30996037 -0.3581749 -0.3198508 -0.23933777 -0.06477558 -0.065208256 0.52191865 -0.012575692 0.45303202 0.14736201 -0.04481209 -0.007968773 0.34014454 0.0988273 0.3676831 -0.56558853 0.19753963 0.005327585 -0.42708907 -0.519387 0.07864156 0.053941082 -0.020608881 0.08272507 -0.37988427 -0.027901415 0.25852814 -0.09959113 0.490506 -0.32578367 -0.58911717 0.117749155 0.72154385 0.48174205 -0.5465305 -0.10358674 0.2061996 0.21308696 0.3673456 0.13898574 0.0786614 -0.2830331 -0.4763155 -0.40552327 -0.04107197
3654 0.22567911 -0.08904071 0.35696727 -0.0048934673 0.33614275 -0.3395065 -0.07522179 0.018683946 -0.52107483 0.16502641 -0.15288787 -0.20754033 -0.15839007 -0.016559 0.47580436 0.24665654 -0.1212846 -0.31616566 -0.048136856 -0.20100085 -1.0378125 -0.17195499 -0.2327456 -0.1655894 0.27157563 -0.038594615 -0.18247637 -0.08050545 0.075811386 0.13480182 0.15631697 0.3524552 -0.060142197 -0.0564678 -0.28667772 -0.076499514 -0.013316866 -0.59976673 -0.016046623 0.21121748 0.3817684 -0.3420515 -0.14486334 0.32487848 0.054842975 -0.3824181 0.12336663 0.34895933 -0.35991493 -0.20118894 -0.15527703 -0.16647357 -0.36059883 -0.32586753 -0.7034577 0.08133711 0.4939136 -0.08444294 -0.04101212 -0.2667008 -0.092266984 0.15729603 0.33530226 -0.1886683
5829 -0.10218943 0.097218126 0.25443208 0.03070649 -0.07698134 -0.2735996 -0.19642061 0.3462871 -0.017648965 -0.44771743 -0.03743561 0.1447848 0.23830757 -0.0488915 -0.31295684 0.19947407 -0.50119627 -0.20517792 -0.2839045 0.077275425 -0.031103766 -0.61333954 -0.3518178 -0.023208302 -0.07959016 0.31317446 -0.22694911 -0.021691758 -0.026640676 0.20605117 0.45564827 0.272726 0.04818247 0.16794324 -0.027512744 -0.14321163 -0.1358617 0.25090963 0.025900854 -0.07488108 0.2837234 -0.8539722 0.018476274 0.401204 -0.0902192 0.12787205 -0.6379796 -0.08936891 0.17426915 -0.48458317 -0.03787155 0.17076303 -0.23490031 0.22139634 0.2893634 -0.15669914 -0.024188915 0.56280774 -0.039260555 -0.4014344 0.017323 -0.10361641 -0.16356997 0.054943625
9611 0.32447624 0.53751975 0.18082485 0.3886467 0.5619095 -0.10881642 -0.81117016 0.16479908 0.19864646 0.34274104 -0.40440214 -0.13153625 0.023887346 -0.15305583 0.4122442 0.17483926 0.25508925 -0.020797763 0.25105554 -0.26855654 -0.11670096 0.41060203 -0.02426711 -0.39108628 0.09927461 0.34906578 0.28717506 -0.088612534 0.051046204 0.019971482 -0.22580907 0.119400874 0.30533516 0.3054476 -0.25920776 0.4107717 -0.2150902 -0.19481836 -0.35996965 0.18427029 0.07555419 -0.035365302 0.06921273 0.027036214 0.00951825 0.19096708 0.19600584 0.024687415 -0.49186626 0.29706568 0.15306167 0.013211337 -0.4599902 -0.12083304 0.03341423 -0.11046692 -0.4096608 0.14959525 -0.24076074 -0.043784115 0.6419598 -0.07822073 -0.10465756 0.16071908
4792 0.006676251 -0.20557049 0.235696 -0.26837894 0.21885772 -0.6559187 -0.47950974 0.09057278 0.09519524 0.139283 -0.20420618 0.29750445 0.2980597 -0.26335886 0.5031447 0.48027104 0.050731786 -0.44552857 -0.20605828 -0.18750405 -0.36280516 0.029564057 0.13854495 -0.24259631 -0.047302224 0.4191751 -0.120776266 0.15159726 0.30568045 -0.24412113 -0.29434544 0.17586711 0.16504286 -0.21086432 -0.003420829 0.011054672 -0.045229733 -0.0113810655 0.39883542 -0.08451985 -0.20818014 -0.07574024 0.22350499 -0.035618216 -0.25090566 0.1251448 0.037041854 -0.015062209 -0.19516444 0.16183549 0.1347081 0.038967993 -0.07832708 -0.24503063 -0.5520062 -0.33995968 0.14401172 0.14448103 0.2099831 -0.13861585 0.59875697 0.22568782 -0.24728456 -0.15455385
4851 -0.350941 0.5843038 0.07309149 0.09663169 0.2873766 -0.025390418 -0.583289 0.105900146 -0.17476721 -0.27886364 -0.011791426 0.40046003 -0.17863676 0.15723918 -0.5639107 0.1317499 -0.13263604 -0.4876437 -0.08034872 -0.014725033 -0.057231005 -0.18326572 0.044413023 -0.30328658 0.07508517 0.5712953 0.44241145 0.12915376 0.28479052 -0.16107112 -0.04950886 -0.1654637 0.31580833 -0.16642359 -0.7298556 -0.006737436 -0.070647515 -0.16971856 0.08244991 0.15086547 -0.30184615 0.1578141 -0.44260412 0.08013904 0.007821819 0.14863262 0.24566673 0.18560371 -0.06014762 -0.01677144 0.7272025 0.23039164 -0.055408094 -0.3377061 0.40265426 -0.12523237 -0.20411305 0.323864 0.060756464 -0.41180953 -0.086055025 0.37306094 -0.42914444 0.04287344
3717 -0.11389752 -0.2114278 -0.08299844 0.0707832 0.19773445 -0.47388577 -0.39567745 0.32920757 -0.07800377 0.15371771 -0.13471521 -0.14057349 0.21722324 -0.01752344 0.15232193 0.24004345 -0.6140227 -0.6295434 -0.12489869 0.1998332 -0.30015528 -0.42374912 0.23459809 -0.038255177 -0.11370937 0.12193491 -0.5351517 0.22306597 0.09792321 -0.010990362 0.5377438 0.5737512 -0.12178269 0.16304009 0.04871121 0.3682454 -0.2683614 -0.14744277 -0.25598478 -0.12548468 0.4106286 -0.31572708 0.079871714 0.17955521 -0.19737493 0.026747603 0.37363133 -0.13052242 0.07881391 0.2811115 0.028935682 0.17608409 -0.11739253 -0.3148752 0.1598931 0.023468763 0.41976407 0.21658188 0.37508097 -0.015018682 0.1471763 0.19403449 0.19655444 0.17669578
83737 -0.33727437 0.36265114 0.38435963 0.17863038 -0.45673427 -0.41671246 -0.03923201 0.012498112 0.4264445 -0.21411607 0.07550898 -0.10989247 0.5419658 0.25182825 0.14659734 -0.5975919 0.22469093 -0.24326883 0.33090234 0.26398563 -0.14494444 -0.05836528 0.03752724 0.066019304 0.40605485 -0.078108296 0.006905619 0.39217663 -0.069019414 0.09662672 -0.13921146 0.045935117 -0.057080742 0.064506635 -0.67220676 0.19571376 0.08011906 -0.2629058 -0.20117086 -0.20812014 -0.094308466 -0.058200426 -0.507558 0.35742515 -0.19102153 0.2590744 -0.044466373 0.06672332 0.02288111 -0.33497432 -0.02212029 0.2976773 0.49325493 -0.7045265 -0.044066537 -0.26660925 -0.285486 0.051497173 0.07318138 -0.10096953 0.17948 0.0020451602 -0.621942 -0.064811535
302 -0.13153258 -0.06455504 -0.07583724 -0.1816681 -0.30364668 -0.22616652 -0.32659185 0.34966967 -0.309735 0.2183799 0.027811835 0.07070644 0.2370497 -0.5104326 -7.677214e-05 -0.09873044 -0.21271576 -0.2237969 0.2219386 0.084653124 -0.3419051 0.13968158 -0.3128125 0.34349063 0.27668872 0.30074897 -0.26291525 0.30718893 0.11860164 0.287357 0.53090316 0.18621783 0.10668405 -0.117818564 -0.12515296 -0.2190985 0.11163999 -0.09028872 -0.1841915 -0.2592199 -0.1294065 0.089744 -0.0948762 -0.07385446 0.1031864 -0.2873101 -0.07844868 -0.32492614 0.13341245 -0.44439006 0.13383819 0.061721507 -0.21993701 -0.48243123 -0.22922316 -0.23515663 -0.21734284 0.12832427 -0.32273275 0.24735737 -0.109153345 -0.008002165 -0.040380966 -0.20456189
8312 -0.53084356 0.103271045 0.05470215 -0.09082623 0.30669758 -0.11170856 0.120359324 -0.3121667 -0.040233217 -0.36364108 0.21465653 -0.27582976 0.1430454 -0.0002999422 0.6634098 0.2152063 -0.24725243 -0.35693687 -0.27815485 -0.20841536 0.1758033 -0.22753648 0.24142662 -0.19372651 0.60152 0.021290066 0.2740103 -0.01825361 0.43328562 0.27187043 0.1009859 -0.004913686 0.16307764 0.5399149 -0.06330067 0.20317261 0.035899635 0.30395037 -0.33846018 -0.12685633 -0.045721356 -0.17903326 -0.0183857 0.31520864 0.12545377 0.21275957 0.46681687 0.1888971 -0.2182677 -0.22557265 0.112189665 -0.1805927 -0.22445929 -0.7326043 -0.099285394 0.25719756 -0.7128883 0.7856155 0.026332477 0.2111832 0.039418913 -0.20648922 -0.112436265 0.02488782
7414 0.26129964 0.023879573 0.21654508 0.15033647 -0.06274992 -0.4299883 0.12768486 0.64296216 0.28589645 -0.3627306 -0.30241865 0.074156016 -0.30118164 -0.6128614 -0.31677923 0.2789548 -0.4305228 -0.09075145 0.10925909 -0.21510066 -0.19256635 -0.4350105 -0.29394984 0.3704709 0.10851833 0.2616689 -0.47672072 -0.20498714 0.08893734 -0.068865515 0.39818108 -0.15947059 0.061266206 0.40131956 -0.07459145 -0.26730967 -0.25703436 -0.25217324 0.06229254 -0.49500123 -0.06932587 -0.36604494 0.24318801 -0.46780363 0.14331403 0.21865453 -0.4598353 -0.17082031 0.01879526 -0.52066207 0.3711932 -0.019584058 -0.08990529 -0.2467032 -0.13570222 -0.53703856 -0.21736668 0.44914177 -0.07732609 -0.33540165 0.05264761 -0.20866255 -0.28526103 -0.30180946
6850 -0.1641141 0.6108133 -0.25108108 0.08254621 0.21934809 -0.47888175 -0.16821896 0.16116558 0.44947368 0.34461373 -0.3937275 0.22703107 0.40848002 -0.119878024 -0.08926096 -0.210702 -0.09336044 0.0577737 0.17974323 0.07591801 -0.39395818 -0.38603124 -0.3688147 -0.015549439 0.0971203 0.10987964 -0.52914363 0.13166268 0.21899286 0.093413584 0.31625625 0.3019999 -0.39240083 0.021917636 -0.39944243 -0.15568402 -0.3322276 0.32119823 0.015959876 0.5367312 0.34788015 -0.36886808 0.20469835 -0.010429042 -0.24760243 -0.097777076 -0.31604317 -0.26860318 -0.31651306 -0.10414253 0.27159294 0.09389913 0.011731375 -0.1176656 0.13890228 0.17079706 0.12429144 0.009656529 -0.276338 -0.5319404 0.076831914 0.1096159 0.57631123 0.40628675
11331 -0.11794262 0.5550328 0.17018789 0.25535828 -0.50279015 0.0636207 -0.38017654 0.25140172 -0.024529854 0.44391668 -0.44045117 -0.08127606 -0.029972361 0.23394157 0.25393483 0.16650473 -0.06259949 0.38304847 0.3478309 -0.16198525 0.1907286 -0.13489829 -0.20131966 0.09521648 0.06706439 0.54813015 0.02297582 0.014824592 0.39438605 0.41427144 0.10727336 0.3222977 0.09373611 -0.44805202 -0.25153562 -0.22987643 -0.1829319 -0.5509917 -0.117035605 0.006053511 0.5207119 -0.080939285 0.03746088 0.040211827 0.18504962 -0.25084686 -0.11573646 -0.2537928 0.08959094 0.37334958 -0.08705813 -0.06894321 -0.45742935 -0.21083865 -0.38383546 0.089254305 -0.44182146 0.47749797 -0.45188424 0.33919597 0.32080603 0.09211964 -0.523156 -0.47825316
4086 -0.45506352 0.021816447 0.032740857 -0.042343296 0.19369584 0.053176586 -0.027085029 0.11555637 -0.29162693 0.08051724 0.14429204 -0.17426005 0.271055 0.14450936 0.48666492 -0.39552277 -0.32914102 0.23773396 -0.080198236 -0.25223422 -0.114233665 -0.09178303 -0.14621809 -0.17214513 0.38283187 0.43381292 0.09514551 0.25026152 -0.12309906 -0.012756779 0.06356148 -0.3471929 0.5020351 0.19404033 -0.825458 0.086480506 -0.0011191437 0.25134686 0.03619689 0.08947935 0.03846198 -0.14069508 -0.13880295 -0.3677967 -0.016902106 0.10113507 -0.008640712 0.7456924 -0.5680562 -0.041918032 -0.08257658 0.27664548 0.23119155 -0.21081966 0.13871837 -0.02840961 -0.08638569 0.80668473 0.0042316 0.008189613 0.13045877 -0.34344518 -0.2540213 -0.21654014
6497 -0.3486778 0.037059642 0.34143457 0.07549578 0.69051915 0.14076214 -0.347797 0.44801718 -0.16734129 -0.16156971 -0.277477 -0.3361944 0.018975722 0.29591617 0.18560003 -0.21407108 0.10381808 -0.28276107 0.18806951 -0.48832655 -0.2103211 0.38122016 -0.3695494 0.2790595 -0.083796605 0.6208799 0.18247683 0.04836036 0.23807575 0.2360727 0.24269783 -0.6114461 -0.008492067 0.47589365 -0.42942312 0.18759021 0.117284074 0.071979344 -0.14146785 0.09929435 0.29172376 -0.07402 0.20982075 -0.17735183 0.14212823 -0.15681016 0.34984136 0.17699148 -0.41093245 0.04641105 -0.0020930886 -0.046893157 -0.106513746 -0.753304 0.20673177 0.20293936 -0.058956813 0.021815898 -0.28558046 0.013585215 0.6449097 -0.24059866 0.029980466 0.0077583487
498 0.0018113741 -0.12948525 0.0055264775 -0.19061244 -0.022291716 -0.44687957 -0.14680167 0.0053522782 -0.44393042 -0.016141765 -0.1717446 0.263303 0.12914513 -0.272443 0.022520967 -0.24566245 -0.046026904 -0.46698403 0.24106339 -0.2628063 -0.030086687 0.08852614 -0.21405151 0.25780442 0.23399776 0.75266314 -0.10628648 -0.15345421 0.48224002 0.49643496 0.4368562 -0.1779609 -0.06353585 0.029899236 -0.19022298 0.15133685 -0.03595508 -0.34751904 0.13919175 -0.32140076 -0.0061465064 0.018457524 -0.011754726 0.15494338 0.08143128 -0.03924819 -0.14230533 0.081810445 -0.01234212 -0.171805 0.024592176 0.16372865 -0.41377696 -0.45201305 0.037438385 0.02976327 -0.09519286 -0.12898882 -0.3543861 -0.0026776006 -0.27519408 0.1892781 0.08469692 -0.3610925
5581 -0.17464429 -0.48513198 -0.53545636 0.43589985 -0.28774884 0.27629158 -0.25312462 0.20565186 -0.49964446 0.11890528 0.03732662 -0.013824864 0.1296005 0.0073869135 -0.0128111765 0.23915957 -0.106222704 -0.2299732 0.24438006 0.02328881 -0.36919633 -0.13868816 -0.66426617 -0.24930745 0.19478968 -0.20633082 -0.110212274 0.5459149 0.16030142 -0.046846878 0.37985015 0.36977437 -0.19959566 0.16682988 -0.4181128 -0.1660518 -0.025403114 -0.3379144 0.054642186 0.1940058 -0.14923257 -0.40162513 0.18119456 -0.21882132 -0.57745296 0.018192925 -0.30193025 -0.04681528 -0.078576885 -0.29554167 0.14451355 0.2328516 -0.40435347 -0.20456414 -0.30928147 -0.036399707 -0.37490597 0.1270488 0.21927856 -0.19648261 0.36300656 -0.25711757 0.10693095 -0.10510109
5781 -0.20539623 0.09231299 -0.1642462 0.16652922 -0.092889994 -0.50711536 -0.36229652 0.24011958 0.10733375 -0.23153761 -0.12848479 0.0066824835 0.46154803 0.12888086 0.21233763 0.2332791 -0.3839766 -0.26765567 -0.17943211 0.074691005 -0.28943288 -0.2708036 -0.21295196 -0.42168832 -0.19408128 0.49014932 -0.4445865 -0.01640385 0.36589697 -0.033981483 0.4768972 0.23115775 -0.20393197 0.073622756 -0.34197122 0.17411503 -0.1920256 0.23113695 -0.36584195 -0.062712364 0.16134803 -0.59739196 0.332496 0.45995343 -0.259205 0.014944147 0.21177389 -0.2291081 -0.14390549 -0.037387587 0.22081847 0.34173945 -0.0337618 0.08762977 0.2853338 -0.016354509 0.09946993 0.18206711 0.37759572 0.28940076 -0.1503128 -0.37590507 0.17566308 0.16631527
387 -0.10279034 -0.021816283 -0.21287844 0.14903274 -0.49721035 -0.36618477 -0.319652 0.08263297 0.16128626 -0.1521203 -0.010430642 -0.1712512 0.27962452 -0.025499348 -0.20259525 0.5318319 0.014284116 -0.78327733 0.19546504 -0.34276345 -0.21453133 -0.278208 0.2965948 0.4223851 0.5891096 -0.03359952 -0.11993248 -0.12185978 -0.11901398 -0.41164994 -0.27747133 0.3903586 -0.0039417082 -0.43252966 -0.25495064 0.4593127 0.40861306 0.07156099 0.25259888 0.25478834 -0.034066677 -0.050060675 0.16296954 0.32622945 -0.5160536 0.12895471 -0.00990469 0.33296686 -0.31610724 0.46964332 -0.1456615 -0.24015003 0.34986633 -0.533451 0.2514542 -0.250495 -0.006754617 0.52253366 -0.01434713 0.27382377 0.41009095 -0.09572783 -0.146877 -0.22444065
3688 0.22042687 0.08084358 -0.18561599 0.30693647 -0.12295097 0.0414279 -0.059924006 0.31468982 0.18469857 0.17765833 -0.1702976 -0.6588662 -0.115107685 0.20941395 -0.19166872 0.44140187 -0.5640893 0.109702125 0.17114492 -0.057442967 -0.22080337 0.025695018 -0.5764227 0.25744754 0.28380063 0.51698995 -0.18054521 -0.008893707 0.44421586 0.27655062 0.46536252 -0.28346628 0.008204577 0.42057577 0.28729272 -0.27782246 0.4705729 -0.033317953 -0.29431954 -0.10108912 -0.08800386 -0.7324451 0.34909326 0.4258959 -0.2778568 -0.41917813 -0.4179986 -0.034501612 0.19228914 -0.6898073 -0.105187334 -0.11564377 -0.067074865 0.13187245 0.18438081 -0.34422693 -0.07139684 0.46476665 0.12810384 -0.86241746 0.5264021 -0.040370982 -0.83882093 -0.15432027
648 0.13313277 -0.08799522 0.14407544 -0.13035102 0.20486414 0.19644623 -0.27537152 0.009173964 -0.46796745 0.26070854 -0.4116543 -0.49051607 -0.4496738 0.095659666 0.5513234 -0.061821185 -0.12756433 -0.5117979 -0.23120502 0.21859671 -0.12198948 -0.5068568 0.46104032 -0.115157515 0.26698515 0.053257745 0.23825233 -0.25397816 0.5805277 0.19360264 0.2138233 0.025768768 -0.13936473 -0.3852264 -0.35710037 -0.4937827 -0.17399748 -0.089108534 0.34264907 0.032676656 -0.31961533 -0.14994365 0.24002333 -0.011878718 0.043332692 -0.34732616 -0.33790427 0.10971023 0.48052117 -0.10058356 0.08337568 0.57970446 0.08370062 -0.45272547 0.53487456 0.008106614 -0.1106852 -0.07095078 -0.8135069 -0.84328175 0.044399187 0.09171984 -0.33694682 -0.08070072
208 0.14406975 0.27644116 0.023948425 0.3203846 -0.09343296 0.10180122 -0.561539 0.30694067 -0.005021603 -0.3084779 0.10844472 0.15242532 -0.020295803 -0.1781924 0.004257796 -0.06768664 -0.17900215 -0.4625834 -0.11024737 0.04994592 -0.15945883 -0.35069346 -0.041056365 0.25826624 -0.58081317 -0.22903189 0.058219578 0.2048687 0.07363565 0.3736868 0.004015809 0.17864275 0.24917147 -0.2814939 -0.479667 0.32532123 -0.18000995 0.02254314 -0.018804869 -0.06630267 0.12558953 -0.633912 -0.14806513 0.1694863 0.27389324 0.14151259 -0.14962763 0.4837037 -0.37316713 -0.40654704 0.4136317 -0.37464955 -0.40912035 -0.7371584 0.101801224 0.10184391 0.6121291 -0.34246036 -0.18323573 0.2641339 0.19755317 0.083123274 -0.01382963 0.07652818
1051 0.40544719 0.09103823 -0.22817925 0.07361359 0.03149163 0.09186164 -0.19431674 -0.15352447 -0.20169906 0.17646322 -0.23676191 0.15129805 0.13554704 0.4407331 0.057213243 -0.5120424 -0.13931757 -0.51760703 -0.27524033 0.14778505 -0.24471293 -0.2013963 -0.10239341 -0.070866786 0.17338969 0.21731889 0.0008627114 0.11219129 0.08389027 -0.19596347 -0.105019644 0.20378555 -0.10293372 0.40274376 -0.33564156 0.6029507 -0.18832797 0.17191002 -0.43371463 0.085893266 -0.056452572 0.11938307 -0.066651955 -0.022842262 0.024851432 -0.02829334 0.09521277 0.083734296 -0.067149326 0.06886715 -0.07916614 0.37092265 -0.41211468 0.123289205 -0.13891913 -0.20640534 -0.43714672 0.258436 -0.21089756 -0.12368082 0.613755 -0.11800846 -0.336055 -0.14431877
4092 -0.653391 0.06338543 0.18257768 -0.02517048 -0.1919643 -0.16335775 -0.1681515 0.04004319 -0.014527284 0.10778178 -0.030270487 0.05021613 0.39998388 0.07168208 0.37546837 -0.122528434 0.41719693 0.24497147 -0.115087174 0.016330644 0.072723545 -0.08678016 0.10770761 -0.19183 0.24028571 -0.1125374 0.35275787 0.22526534 0.23344792 -0.25532323 0.23532084 0.08368385 0.24314997 0.7232761 -0.47289908 0.4354202 0.011284719 0.12014545 0.36550096 0.1962111 0.41798276 -0.16894765 -0.13569757 0.051254343 0.35264152 -0.14017285 -0.22138096 0.25916216 -0.28247383 -0.14483353 0.033813626 -0.06751663 -0.15865524 -0.7319502 0.15686586 0.22043687 -0.45215175 0.44687468 0.38997728 -0.08923347 0.24789782 0.16341574 -0.46243635 0.08382185
51741 0.12566772 0.29779243 -0.16564944 -0.31367242 0.021364525 -0.5389668 -0.073274955 0.5376863 -0.14400113 0.21085544 0.1389638 -0.28676945 0.18147637 -0.10529094 0.015603613 0.055974152 0.041833527 -0.7777506 0.17881243 -0.0082730455 0.3057653 -0.2380166 -0.3030854 -0.05485164 0.14222436 -0.5212172 0.1448057 0.27800098 0.13483651 -0.27983618 0.1689712 0.06432086 -0.04217931 -0.14936237 0.051458046 0.090821914 -0.20793603 -0.26616493 -0.61514586 0.38923484 0.0045171515 0.10667484 -0.36676985 0.15679072 0.4755203 0.22426704 -0.6584884 0.03508783 -0.025128035 -0.2725887 -0.33382383 0.22340949 0.52238184 -0.861091 -0.08185858 -0.104572415 -0.8399395 0.10889729 -0.33225343 0.10391848 0.4065545 -0.039243914 -0.33600134 -0.06658091
3064 0.1952533 0.13930793 0.2710364 0.30599 0.012117616 -0.72182673 -0.26517686 0.42587888 0.3410602 0.0026611935 -0.538714 0.27640316 -0.42839557 0.045449857 0.44064522 -0.25481865 -0.114104174 -0.11660687 0.15738074 0.12577912 -0.25923747 -0.027678471 -0.1354551 0.3514195 0.14160526 -0.11879069 0.35773423 0.23315217 -0.10394414 0.42506972 0.16415893 0.21428187 0.42294115 0.22227 -0.21421397 0.26751083 0.1912638 0.28680837 -0.059195127 0.24991797 0.13330989 -0.48179078 -0.2623913 0.6935956 -0.41040862 0.41496328 0.2388623 0.18496986 -0.12229512 0.14271292 -0.011438255 -0.2268007 -0.32950944 -0.5782014 0.028687963 0.24761039 -0.1694457 -0.24724852 0.34995118 0.29334667 0.1606945 -0.061320003 -0.38098854 0.08949103
4690 -0.074428655 -0.031258296 -0.3606086 -0.3578606 -0.075662866 -0.33115742 -0.32236892 0.3875012 0.65440345 -0.07408044 0.036580488 -0.14611243 0.14031361 0.66362214 0.2627645 -0.083400644 -0.4577665 -0.21714967 0.09660699 -0.03646389 -0.19437434 -0.20981029 -0.275364 0.06605872 -0.26237148 -0.012134619 -0.1971569 0.24950978 0.049937367 -0.32528925 0.71219915 0.3073426 -0.26558158 -0.32806867 -0.11574598 0.30838344 -0.09050563 0.032198798 -0.20950188 0.7257128 0.31620684 -0.41588053 0.35975334 0.31928393 -0.13862279 0.5155982 -0.22285394 -0.17074487 -0.1498549 -0.30957353 0.25945878 0.09993748 0.010891167 -0.23833519 0.18273841 0.09626686 0.17365657 0.58785325 -0.41698697 -0.45183778 -0.41168454 0.20034014 0.047029898 0.1861921
5966 -0.104860395 -0.019606745 0.2350215 -0.27964458 -0.14639705 -0.14855677 -0.4573917 -0.25838134 0.35987413 -0.027092133 -0.22637811 0.2104866 -0.14400062 -0.037318114 -0.10633518 0.08407949 0.15682122 -1.1910408 0.023784745 0.016233187 -0.26788753 -0.0021854008 -0.13309327 -0.11349012 -0.4649287 0.3890582 0.57911336 0.35887042 0.52756524 -0.33478546 -0.11785509 -0.12616946 -0.112665854 -0.059402555 -0.26509437 -0.08474249 -0.09560928 -0.29020828 0.2079882 0.023406265 -0.13126919 -0.4924658 -0.17854215 -0.08716183 -0.09743837 -0.12559839 0.08253915 -0.022570943 -0.23366858 -0.22503279 0.3849766 -0.4954568 -0.047669012 0.23735881 -0.2191841 -0.41476923 0.17223755 0.640472 -0.10456554 0.2746725 0.41250938 0.27440563 -0.21457827 0.58567804
5914 -0.05184703 0.12969014 0.05873572 0.2660392 0.36567155 0.022847055 -0.30980882 0.311377 0.4342976 0.24118373 -0.2733257 -0.1744866 0.12312216 -0.07602632 0.2784401 -0.108276255 -0.014116731 -0.5878909 0.47048852 0.012185423 0.044420756 -0.07654551 -0.2347726 -0.5536677 0.21998021 0.2355403 0.48329833 -0.13374461 0.046857387 -0.23473825 0.17933965 0.23469993 -0.08915703 -0.027143031 -0.1051679 0.013783225 -0.011826661 0.24182573 -0.35986078 0.26840767 -0.19641918 0.14886445 -0.10447946 -0.31967622 0.11287095 -0.013994528 -0.10416337 0.02214356 -0.803295 0.0043469477 0.16593708 0.12073503 -0.74133056 -0.13646677 0.4692007 0.012396198 -0.42011875 -0.05314141 -0.21984957 0.0068111303 0.6050422 0.0676387 0.24157125 -0.38125685
7528 -0.0699918 0.0709884 0.23524322 -0.1095398 0.14106841 0.004808042 -0.7909368 0.32691702 -0.28148156 0.35458863 -0.37339762 0.35643777 0.16086207 0.21050556 0.20292099 -0.14929785 -0.13240655 -0.21896379 0.24864545 0.035785936 -0.3267083 0.189184 -0.03027894 -0.17260827 -0.10363068 0.21847098 0.39339295 -0.10473661 0.36898848 -0.22409467 -0.050242525 -0.22197467 0.055306233 0.17149691 -0.27315038 0.055260602 0.053920146 0.12363155 0.059693698 0.27847052 -0.15932745 -0.09134033 0.11742347 -0.34480658 0.04131719 0.18723087 0.22901101 0.39978874 0.4134279 -0.087806046 -0.033343036 0.20930825 -0.20671086 -0.11518394 0.44301498 -0.29220346 -0.22418241 0.30904955 -0.23693144 -0.14101508 0.13529208 0.16123177 -0.31770766 -0.26020178
7430 -0.052090723 0.290748 -0.31651172 0.4808508 -0.10027633 -0.52936226 -0.15269414 0.5775639 0.09337408 0.10987589 -0.06387963 -0.28542483 0.21560727 -0.2746006 -0.48101535 0.022548482 -0.16252099 -0.27438292 0.3611676 -0.23593333 0.21719939 -0.24564463 0.48457184 0.42901635 0.08613701 0.20113087 -0.19312339 -0.19844876 0.36432004 -0.22110684 -0.17584044 0.57642007 -0.4224419 0.031630818 -0.12616874 -0.15506783 -0.039900936 0.1497275 -0.2132796 0.22521338 -0.09601261 -0.571385 -0.31061506 0.37506625 0.08521418 -0.4117946 -0.4072573 0.3941891 -0.13587579 -0.21613654 -0.35239273 0.15271522 -0.16463226 -0.34281245 0.14964023 0.051696733 0.16591577 0.2890703 0.16397245 0.048160676 0.34659114 0.17110494 0.24025328 -0.028527249
7048 -0.04659722 -0.2342872 -0.5169186 -0.31134394 0.16623478 -0.31017378 -0.39734402 -0.176892 0.23964202 0.39636266 -0.15045236 0.33310568 0.34108213 0.20896296 0.06094926 -0.18884967 0.11591829 0.19193135 0.22433454 0.34051895 -0.5892519 -0.4446315 0.35265693 -0.21140952 0.14490199 -0.1103091 -0.19127917 0.18286552 0.32307902 -0.06311443 0.42770472 -0.013975114 0.40915918 0.40079415 -0.6192124 0.4460613 0.36333802 -0.10749229 0.34159794 0.045412876 0.2593917 0.053413223 0.06306876 0.012967897 0.37546104 -0.6495144 -0.37056795 0.30406448 -0.07870795 -0.25209308 0.15075023 -0.17859511 0.008338338 -0.32208508 0.23373914 0.028231204 -0.086215 0.7622956 0.21481213 -0.18634601 0.11456853 -0.46760315 -0.3390737 0.21880245
5604 0.23559506 -0.1671955 0.11540726 -0.065134935 -0.22565565 -0.23148617 0.05508912 -0.2395853 0.0800254 0.061658055 0.011530476 0.22001605 0.09379816 0.011412894 0.22514728 0.13052782 -0.15490893 -0.03132466 -0.42425138 -0.12891287 -0.36805087 -0.36433578 -0.4938688 -0.0692632 0.18134572 -0.019331988 0.075813025 -0.034808557 0.021831326 0.18753481 0.113934964 -0.049899157 -0.12042069 -0.22327681 -0.7747091 0.07709804 -0.21911845 0.24550219 -0.22173117 -0.33468097 -0.048807688 -0.6034336 -0.025041588 0.71890426 0.027334876 0.27816173 0.055583265 0.040491544 -0.11153096 -0.16544218 0.35777515 0.7261487 -0.1439303 -0.20800959 -0.2471 0.34099692 0.27470145 0.1617286 0.29121134 0.56620836 0.12568091 0.28867567 -0.086888835 -0.30102423
4163 0.28660437 0.3636951 -0.21860889 -0.29531303 -0.8115369 -0.28315848 -0.43277422 0.1818157 0.050661974 0.37817863 -0.3257078 -0.08078511 -0.02007547 -0.7053042 -0.53973645 -0.048388846 -0.37828973 -0.27791694 0.5132756 -0.53811675 0.18457511 0.08560172 0.035552196 0.09998082 -0.1470393 0.40159 0.0821179 0.37082633 0.44181234 -0.03191722 0.18702802 0.46329343 0.05953753 -0.29195625 -0.24728306 -0.16747375 -0.13221022 0.21885425 0.4558251 0.2900495 0.027659524 -0.3177397 -0.6618859 -0.30380195 0.28490755 0.19437501 0.5624246 0.36352873 0.11506881 -0.3299085 -0.15486193 -0.23082787 -0.390653 0.089938715 -0.3305372 0.022139657 0.05311829 0.4418987 0.035204515 0.1509214 0.20800082 0.03925964 0.329402 -0.18730952
7187 0.06734829 0.34176305 -0.24535975 0.058510665 0.21378046 -0.3793942 0.38455996 -0.46944436 0.5431354 0.012152354 -0.4876755 0.5620818 0.46670666 0.22444487 0.03772129 0.07089591 0.07889917 -0.37047043 -0.050974123 -0.5840158 -0.5055891 -0.6099336 -0.36948243 -0.032273598 0.28770116 -0.2064488 -0.5174831 0.31038144 0.4848914 -0.10537583 0.06438446 -0.3333595 -0.34201923 0.17115375 -0.4127004 -0.17094594 0.09584497 0.0022610803 0.0008963758 0.21692201 0.23669213 -0.61373717 -0.12619494 0.14682104 -0.24056785 0.072117716 -0.10423477 0.17119898 -0.2482961 0.00077634654 -0.15140943 -0.04540971 0.015413321 -0.15141898 -0.36246294 0.5974317 0.37647724 -0.07203652 -0.61639017 -0.031450752 -0.17254859 0.45013285 -0.19608271 -0.3222749
301 -0.13275601 -0.06613178 -0.29622263 -0.11047411 -0.18414196 -0.4023477 -0.17067678 0.3017172 -0.49082947 0.0861779 0.001095105 -0.02542552 0.39636254 -0.26660916 0.13567057 -0.3799156 -0.21501587 -0.5980298 0.55057156 -0.04455758 -0.102084346 0.007836794 -0.42730126 0.0656249 0.39230475 0.44478998 -0.0631373 0.14420229 0.49040467 -0.12800686 0.1597769 -0.019218363 0.32128742 0.061615337 0.006125501 -0.4990246 0.09338153 -0.5831961 -0.12757577 0.06713986 0.059788518 -0.11896791 -0.0216838 -0.043842424 -0.3495966 -0.058794413 -0.37110734 -0.31323618 -0.33100787 -0.022610651 -0.23934644 0.10430108 -0.34179008 -0.47575626 -0.44708392 -0.2854685 -0.13702981 -0.34747893 0.012344575 0.2992352 0.048245706 0.14306043 0.031893954 -0.16026993
51474 -0.12732536 -0.13056056 0.024756907 0.39611048 -0.14479224 0.007067324 -0.15791503 0.068904646 0.4072658 -0.59376425 0.06345656 0.15481538 0.08719882 -0.4765469 0.43141428 -0.0075634574 0.072872475 -0.32909507 0.06961426 0.0688069 -0.7078181 -0.11755149 -0.016481837 0.27845794 0.6875009 0.04443379 -0.3168277 -0.21701561 0.16959341 0.30704805 0.28507173 0.6411999 0.06862484 -0.06431849 0.010192658 -0.093788974 0.54185456 -0.27475855 0.17058375 -0.109136485 -0.42785832 -0.103883855 0.1869177 -0.044080414 0.076293975 -0.11090471 -0.101120844 -0.12797669 -0.018042302 -0.08026487 0.38916746 0.06170356 0.39426705 -0.08763592 0.0912771 -0.16378462 -0.25236773 0.41524568 -0.54481536 0.035775263 -0.13023098 0.09902981 -0.5551996 -0.42482263
8239 -0.57165796 0.15413707 -0.012396352 -0.09176655 -0.20822278 -0.4283024 0.11096532 0.07113804 0.15552591 -0.3398824 0.10859191 0.13536252 -0.1836436 -0.13351513 -0.092037566 -0.41800448 0.42544118 -0.4151328 -0.6632233 -0.36930943 -0.41571993 -0.10012888 0.01812122 -0.2806729 0.11654975 0.5724888 0.2503119 0.48851427 0.27376953 0.22793281 -0.43306485 0.025570894 -0.06673775 -0.081713066 -0.37825966 0.23203824 0.011551258 0.21826264 -0.1335287 -0.21790053 0.14316392 -0.49257022 0.12635334 -0.13343456 0.040071007 0.063875325 0.17648354 0.14478138 0.02567306 -0.2007499 -0.16422576 -0.0760458 -0.08659575 -0.35490802 -0.305906 0.03414768 -0.1621825 0.3512328 0.18424833 -0.32486963 0.36333188 -0.09108145 0.06741961 -0.1519829
6733 0.40445054 0.2200636 -0.009501429 -0.49967685 -0.3145949 -0.3625106 0.192391 0.38863346 -0.39691657 0.18401 -0.37441695 -0.3528635 0.3144533 0.12654169 0.7905123 0.04715244 0.49742058 -0.30018178 0.27632415 0.22651441 -0.09823335 -0.51737195 0.5090698 -0.12843701 0.07829333 0.1592827 0.20474531 0.521067 0.4602752 0.6128812 -0.03578225 -0.34222436 0.2269832 -0.95871973 -0.23891903 -0.32975882 0.37000334 -0.23825425 -0.26929948 -0.44506654 -0.16203181 -0.5049747 0.107104994 -0.0739355 -0.5181477 -0.057058435 -0.20271294 0.23662308 0.003389115 0.09915011 0.6196877 0.3131307 0.065086305 -0.024438772 0.32065496 -0.35043767 -0.12500292 0.5005912 -0.36208695 0.11096049 0.23233643 -0.0868978 0.22011274 0.47073865
1020 0.51602966 0.11285014 -0.23321435 0.17277758 0.17167236 -0.10379752 -0.107919954 0.2228446 0.06718898 -0.2527613 0.27728352 -0.08224407 0.027915997 -0.21815091 -0.1190663 -0.281423 -0.57097614 -0.02433709 -0.33352953 -0.13177033 0.22350125 -0.12563956 -0.008151414 0.15988219 2.6986083e-05 -0.30430257 -0.33551624 0.0017224759 0.19291303 -0.09231144 0.18824477 0.2580256 0.40108305 -0.05703937 -0.14799541 0.00036575913 -0.088883035 0.060071692 0.0034227413 -0.03174168 0.25830737 -0.20491585 -0.059126236 0.3402297 -0.23608103 0.15916108 0.16803612 0.07274493 -0.1161815 -0.29161358 -0.030947326 0.5762887 -0.7499906 0.12464801 0.10256492 0.45874032 -0.049385924 0.58622867 -0.20090066 -0.5183837 0.30053625 0.34204295 -0.47739172 -0.26924565
3728 -0.031563427 0.03228403 0.02014704 -0.41322803 -0.203715 -0.3946057 -0.3572229 0.24187456 0.085958734 -0.6050339 0.54338825 0.04369206 -0.078011386 -0.08493984 -0.27176818 0.27308315 -0.18747006 -0.23584726 -0.018233543 0.5295012 -0.19883871 -0.041966666 0.50157505 0.5493745 0.4394215 0.05772875 0.1741833 0.03422011 0.6814649 -0.05116398 -0.019820666 0.7243315 -0.050808303 0.4414473 -0.28403124 0.010853572 0.12636939 -0.2753131 0.101796135 0.08699418 0.1974136 -0.35195687 0.191433 -0.16166441 0.14892438 -0.00546677 0.2198541 -0.569108 0.032476913 -0.27669406 -0.4554565 -0.17735472 -0.22891529 -0.17715345 -0.41109228 0.4639869 -0.5459213 0.2547507 -0.7686417 0.281783 0.11461157 -0.016430192 -0.41967633 -0.018409444
1936 0.2884316 -0.20561251 -0.041805226 0.030532666 -0.2820713 -0.13895965 -0.40301812 0.041501094 0.5162775 -0.30295387 0.021753544 -0.026089562 0.013247244 -0.24688461 0.034154706 -0.19902456 0.23166601 0.09286593 0.07797065 -0.39724305 -0.4125955 -0.31293273 -0.36261708 0.27741513 0.2224607 0.4588238 -0.050040103 -0.084002316 0.7524512 -0.016151465 0.47890684 0.37744144 -0.0037330284 -0.24265079 0.04264457 0.058222845 0.46794763 0.36454377 0.08158811 -0.030354852 0.3815025 0.21432912 -0.5115462 -0.1544792 0.12607841 -0.075449 0.118977405 0.2465611 -0.24054295 0.12008272 0.22625946 0.4422112 -0.3006739 0.030242717 -0.11297886 -0.2126539 -0.48193502 -0.08714092 0.07207768 0.10363333 0.33452174 0.053454548 -0.09452672 0.099002905
861 0.1799823 0.064788595 0.21705107 0.20121942 0.62137765 0.07588661 -0.18375273 -0.18359937 -0.26810572 0.2765647 -0.10850122 0.050648853 0.19905725 -0.054567076 -0.04279762 -0.6103756 0.038225714 -0.33049974 0.13625582 -0.113975964 -0.31380665 -0.076195374 -0.019719208 -0.3912491 0.18727952 0.54321474 0.2879814 -0.3484601 -0.4930769 -0.39875224 -0.24452533 -0.019496359 0.15472862 0.06840994 -0.6593751 0.1065082 0.02239344 0.26128957 -0.11362373 0.32517883 0.28566113 -0.30436933 -0.29984578 -0.6449158 0.07819966 0.09219045 0.28540584 0.29893243 -0.022752719 0.005392417 0.3191039 0.40835226 -0.27989784 -0.14820854 0.3614383 0.12668054 -0.26459637 0.57943934 0.05534977 0.1744104 0.45334595 0.1751509 -0.23553438 0.06192517
2064 0.07843071 0.19027202 -0.3682854 -0.00740556 -0.32035667 -0.42639163 -0.43850166 0.27798668 0.22170895 0.12332275 -0.094036065 -0.006805529 0.41492775 0.07384894 0.32355112 -0.10678477 -0.6312863 0.17381677 0.06569681 0.6079982 0.06717738 -0.5059083 0.19553676 0.007498601 0.22179747 0.24002197 -0.33299085 0.06557343 0.43368033 -0.23829544 0.58805877 0.1362326 0.02305415 -0.10686154 -0.37509093 0.09567216 -0.0023454516 0.24958342 0.022400614 -0.2151492 0.18929487 -0.55345386 0.25757837 -0.13598663 -0.1668621 0.00089623925 -0.2553047 -0.43296987 -0.045244638 0.04616782 -0.17652135 0.27373314 0.009360408 -0.10733263 -0.40113848 0.12882933 -0.18202719 0.2835355 0.56619245 0.11466384 0.044613346 -0.15361668 0.14687586 0.74227196
6310 0.1035152 0.16683382 0.08355468 1.2092144 0.46795824 -0.4990413 -0.338086 0.40897512 0.17608908 -0.068759374 -0.08456406 -0.3134055 0.2287837 -0.2734815 0.66269267 -0.23188634 0.027843755 -1.216395 -0.47076482 -0.37815565 -0.08048365 -0.07044364 0.019708019 0.26498777 0.21235974 -0.19121027 0.34560907 0.026273705 0.09060381 0.19019878 0.07700102 -0.29686978 -0.12251034 0.56719047 -0.17146116 0.46707305 -0.47450554 -0.1300968 0.11357062 0.4951936 0.1141125 -0.6877854 -0.1626099 0.03501092 0.32074654 -0.068470314 0.012458456 -0.2511556 0.28406742 -0.20438252 0.15384257 -0.6486395 0.08244156 0.2755913 0.09261597 -0.117673665 0.2777118 0.29111648 0.022246433 0.5122013 -0.2702545 -0.32106593 -0.4220571 0.373934
5204 0.62821794 -0.25508264 0.05670673 0.14409924 0.38006288 -0.71154565 0.2471669 -0.44187972 0.023098059 0.7448209 -0.5998861 -0.12003163 0.16096845 -0.23340544 0.07891737 -0.16024397 0.10774662 -0.11881982 -0.18611568 -0.15120369 -0.08275462 -0.23398206 -0.09141203 -0.27775565 -0.5386999 0.16807526 0.1823603 -0.07615428 0.60607225 0.17855874 0.31457904 0.6470441 0.09894557 0.15990625 0.113025755 0.4290592 0.23344435 -0.2188701 -0.26774865 0.08896169 -0.50424224 -0.1222006 -0.29097196 -0.21315254 -0.06811873 0.43279955 0.06641129 0.25171617 0.0018243882 -0.629885 -0.15324223 0.17388886 0.15236871 -0.3511751 -0.22409952 -0.16794363 -0.07220049 0.27023363 -0.3038514 0.052742276 0.3631924 0.6017172 -0.36489075 0.38503516
10413 -0.7127462 0.4124346 0.44228387 -0.049029943 -0.093679816 -0.38172716 0.16404228 0.44166943 -0.12060606 0.14728162 -0.0323239 -0.41202787 0.00016829322 -0.17276198 -0.23787056 -0.5184131 0.083424926 -0.15938665 -0.09159483 0.035565265 0.0016159741 -0.11282499 -0.32795343 -0.5278136 0.025518438 0.27885306 0.23998728 -0.13815945 0.091317356 0.059793066 -0.3898036 -0.013370801 0.12367842 -0.16179214 -1.0063146 0.122932896 0.21761355 0.10766807 -0.212788 -0.41674224 0.0625871 -0.6337639 -0.054026835 0.031738285 0.29482675 -0.029095339 -0.41238883 0.61491585 0.060698207 -0.06875354 0.11491824 0.10957253 -0.08209063 -0.33883947 -0.029944418 0.2842482 -0.13357897 0.37699267 0.2548882 0.5247512 0.15118363 0.34712553 -0.115435526 -0.09447651
