1884 128
351 0.18011783 0.48395848 -0.087165624 -0.057855032 -0.11056856 0.4138048 -0.1408486 -0.10484042 0.26056334 0.1708327 0.15151854 0.48358005 0.0076408233 0.06617251 -0.3266139 -0.21327566 0.090202644 -0.08285061 0.13991399 0.11650027 0.19473256 0.020421715 0.08322303 -0.15726511 -0.04814033 -0.20247072 0.1529697 0.28372684 0.4047267 -0.23169942 0.08153112 -0.24298005 -0.15454 -0.046907067 -0.20494603 -0.17922464 -0.016336486 -0.4329668 -0.19324842 -0.1396499 0.16079941 -0.065043844 -0.10212174 -0.11712889 -0.15867658 0.30744177 -0.2548919 0.13512142 -0.107705936 -0.077713616 -0.23111871 -0.39453202 0.23426777 0.078051545 -0.14593518 -0.28579825 0.10957852 -0.1255415 0.074113525 0.31137794 -0.027578041 -0.25383317 -0.29360998 -0.51827323 0.14629525 0.18187125 -0.11253951 -0.3788053 0.21225101 -0.33391762 0.30906305 -0.01832192 -0.090157546 0.15534978 -0.28386766 0.26656127 0.31425542 0.32457042 0.05726474 -0.10636816 0.045774978 -0.18084458 0.14549431 0.2462674 -0.2403265 0.23456919 0.13334776 -0.056077644 0.04443874 0.200663 -0.13584334 0.070003174 0.16535191 0.3277129 -0.21962376 -0.35709032 -0.37512437 -0.28549442 0.17115834 -0.03768571 0.1626113 -0.25730965 0.15902637 0.022154402 0.08812912 0.012679103 -0.31398782 0.0010453886 0.042061623 0.03632373 0.05148298 -0.37333313 -0.33336505 -0.04393102 0.0018374465 0.046907663 0.045587428 0.1092508 -0.35226077 0.3691101 -0.03390596 0.14719406 0.007191982 0.074136056 -0.06243463 0.09174329 0.018691657 -0.038279485
7157 0.13753095 0.2725474 0.05784451 0.16902599 -0.11251238 0.11760862 0.16591547 -0.23824784 0.11836608 0.10213706 0.052257247 0.15751308 0.3666043 0.08704196 0.0122808395 -0.03710656 -0.14771095 -0.15015396 -0.027689628 0.08990478 -0.103647895 -0.010599172 0.03302461 0.05401139 -0.07747741 -0.10772178 0.19364585 0.25060958 0.25890493 0.040503416 -0.050860792 0.04880389 0.25629368 0.062769875 0.17847246 0.16212451 -0.21373335 0.24393971 0.13310812 0.1952922 -0.15957938 -0.10320205 -0.19737631 0.07669239 -0.15433522 -0.056233834 -0.09163335 0.23283336 -0.18790793 0.032651924 0.26633903 -0.24215181 -0.16774341 -0.3734866 -0.08902696 -0.07708822 -0.13788447 -0.33357593 -0.13159366 0.048991304 0.148826 0.18468393 -0.06403727 -0.055886902 -0.06269247 -0.16151306 -0.032480724 -0.060863357 0.115031995 -0.22043401 -0.020315552 0.24976014 -0.14788626 -0.16338678 0.06520711 0.26583445 0.2189379 0.024452772 0.03787128 -0.2500112 -0.062026404 0.11034441 0.06161854 0.086707346 -0.12373157 -0.033800352 -0.43164968 -0.028201869 0.0926755 0.008149428 0.20863678 -0.20671931 0.4768523 -0.10233145 -0.040618677 0.28875002 -0.029923059 0.038103066 0.103129566 -0.038409863 0.008006191 -0.0665831 0.26328075 0.26852813 0.06767742 0.11259733 -0.04248927 0.1858553 -0.23390585 -0.088358246 -0.03998376 -0.291456 -0.19103403 -0.19839025 -0.19840185 -0.023566963 0.33984774 0.24849224 -0.19715394 0.035524305 0.1514418 0.31816292 0.049872223 0.16150878 0.030007536 0.2615057 0.0019320579 -0.32811433
1956 0.37962896 0.16075176 0.0030100532 0.18154158 0.17617805 0.2111274 -0.24642457 -0.2316761 0.07322421 0.19560395 -0.4483966 0.22701247 -0.18543649 0.33015636 0.02376922 -0.2120276 0.14852305 -0.005557463 0.27451348 0.25755152 0.15704812 -0.092885345 0.01758667 0.42526987 0.09822157 -0.23094909 0.23991065 0.053857137 0.12924494 0.28706434 0.14840387 0.21480286 0.058679443 0.13817658 -0.026638407 0.2721662 0.12903908 -0.069783226 0.19555847 0.053902026 -0.042682152 -0.02386767 -0.0938515 0.08066967 0.20921858 0.031620678 0.13773851 -0.24223582 -0.09360506 -0.030129166 0.12623167 -0.054397665 0.043340027 0.15161075 0.30127183 -0.42976362 -0.081438504 -0.02174543 0.057703655 0.11858175 -0.045978528 0.21087565 0.11002914 -0.16974294 -0.13515204 0.0333818 -0.10275303 -0.12794343 -0.18966784 -0.081182815 -0.059176847 -0.18196242 0.020376947 0.0692452 0.09437726 0.46708184 0.12831773 0.14071207 -0.090113506 -0.07658201 0.09567071 -0.03437557 0.09356386 0.0976385 -0.30308786 -0.07188422 -0.12996174 -0.28436542 -0.04192806 -0.19736417 -0.015591995 -0.054472703 -0.0043350062 0.17564024 -0.072242014 0.13872196 -0.34807608 0.23952395 0.015707046 0.07109828 0.21187367 -0.16235958 -0.049741127 0.20082091 -0.1963557 -0.15695241 -0.00463227 0.22056903 -0.3926603 0.05517436 0.0978947 0.10621091 -0.35997367 0.09645909 0.1309326 -0.11420503 0.11669743 0.31571993 -0.43817765 -0.002832902 -0.08177633 0.13653262 -0.23757628 0.11883143 0.09419119 0.16082051 0.2761796 -0.13092531
2885 0.56807697 0.14422303 0.18680434 0.005282149 -0.1288311 -0.05836902 0.031436455 -0.12773715 0.2934427 0.119307324 0.14007078 -0.037009653 -0.052289777 0.017435588 0.077355705 -0.022580083 -0.32268777 0.051983856 0.0686317 0.19481403 -0.20627397 0.2635526 0.1850735 0.16048038 0.15757576 0.024932126 0.097673595 0.06491518 0.1258455 0.20699292 0.25618783 0.04722919 -0.03604571 -0.1206492 -0.043411616 0.35284197 0.24443555 0.21251015 0.16403343 -0.06278423 -0.048276953 -0.22439025 0.043717418 -0.0028176422 0.17517647 0.117616475 0.04403237 -0.0033923814 0.2225326 0.042274717 -0.04270773 -0.11663265 0.07807107 0.21307167 0.16361031 -0.058973733 0.087679364 0.049993273 0.009958891 -0.10676758 -0.28067437 0.102745734 0.009450677 -0.021274928 -0.21017264 0.041129597 -0.15193214 -0.20916247 -0.2722294 -0.6149621 -0.045353614 0.36908227 -0.14719917 0.31439897 0.086866185 0.14929183 0.040966205 -0.11770027 0.07110132 0.21490724 -0.022474932 0.2511598 -0.31627375 0.001216298 -0.16947904 0.042523257 0.08865507 -0.1878506 0.12913366 -0.1706094 0.24624503 -0.27771187 -0.22886312 0.21511139 -0.06737979 -0.07081377 -0.18253054 0.083355665 -0.24460673 -0.14188261 -0.05965897 -0.12868229 0.1775768 0.11834809 -0.16036446 -0.046393648 0.06776726 0.43203822 -0.5791475 0.08740348 0.09168894 -0.0025043509 -0.46710834 -0.09954155 -0.23091397 0.053901628 0.13363533 0.37890816 -0.06011124 -0.05018098 0.27672458 0.44601318 -0.12785037 0.21874279 -0.21672718 0.038310964 -0.014298395 -0.14284487
3320 -0.046206098 0.322292 0.14552163 0.16738854 0.16255897 0.14131936 -0.02403737 -0.0081121335 0.06997029 0.036154512 -0.1396698 0.03671092 0.34009966 0.32925457 -0.25691867 0.10199825 -0.08737986 0.15703484 0.28064057 0.05623466 -0.14320707 -0.06433784 0.12205608 -0.016637078 0.23859335 0.1855109 -0.11677446 -0.12505268 -0.07624555 0.050558537 0.15889712 0.116737045 -0.033400755 0.16615681 -0.048855904 0.063814856 0.12668784 -0.06037881 -0.19655485 0.15643175 -0.23988292 -0.18328749 -0.08046963 0.2960026 -0.20686217 0.5111053 0.0034827725 -0.045161318 -0.04899329 -0.028576367 0.010497772 -0.15761575 -0.20889471 -0.16301394 -7.245339e-05 -0.19576412 -0.47878337 -0.2738564 0.011339643 -0.07170563 0.083336055 0.07354529 -0.19129115 -0.51922935 0.22528096 -0.2611085 -0.21488853 0.044177007 0.012622704 -0.20369641 -0.101051226 0.32730046 -0.0052669686 0.108541325 0.069506876 0.059445564 -0.045903824 0.12539701 -0.2634866 0.23551746 -0.00441696 -0.016787762 -0.056377623 0.053231966 -0.29964384 -0.16876137 0.19889352 -0.3576365 -0.09592055 0.31668356 0.15471245 0.124201864 0.11762908 -0.02936817 -0.15787663 -0.12635338 -0.06761471 -0.03320607 -0.105658345 0.03342414 0.009753179 -0.2811585 0.51585793 0.48224086 0.21428536 0.05255488 0.057694364 0.04598241 -0.02372164 -0.15680961 -0.027662707 -0.37563327 0.07701431 0.33067352 -0.010885084 -0.08088498 0.15565279 0.5667073 -0.053671326 0.08305374 0.24018371 0.17189503 -0.052092157 0.13875465 0.017110474 0.29181725 -0.067345925 0.0061335834
1017 -0.22336361 0.08567988 0.08561737 0.43868026 -0.24491224 0.03544393 -0.16794229 -0.114850804 0.015940197 -0.19931068 0.07940843 -0.016540421 0.042862922 0.08105114 0.16738333 -0.2034938 0.14385173 0.015975306 0.24545333 0.009406392 0.026147962 -0.052399013 -0.10139926 -0.02550155 0.3537156 -0.091385275 0.39139056 0.24482155 0.47819114 0.26485115 0.09667141 0.29861125 0.18714407 -0.43431243 0.14803612 -0.0918678 0.09058207 0.18357378 0.051849782 0.11392909 0.075921185 0.036471836 0.15473226 -0.18765275 0.011897638 -0.14361836 -0.37145135 -0.22215529 0.342145 -0.036437426 0.27319014 -0.34483096 -0.074439004 0.020848837 -0.059460007 -0.2600263 0.024136536 -0.14488031 0.11978533 -0.10299807 -0.090418436 0.34348103 0.0053947205 -0.32836774 -0.07976732 -0.21684305 0.07250594 -0.11126122 -0.037931386 0.07148318 0.12553118 -0.03607979 -0.03342502 -0.12325768 -0.09428251 0.032816753 -0.0043535335 -0.109318905 -0.10884332 0.1146492 -0.3025546 0.072640255 -0.13176115 0.40156433 -0.14398909 -0.3996761 -0.07342372 -0.18265197 -0.08817637 0.019423677 0.051662095 -0.105141796 0.2871787 0.15493976 -0.29062146 0.033420064 -0.1315572 -0.14226104 0.1844581 0.020302843 0.04339632 -0.17307809 -0.10890639 0.3407967 0.11735302 -0.03071725 -0.022493146 0.052539077 -0.39124912 -0.02358016 0.07356879 0.1773845 -0.23277594 -0.19881861 -0.023248127 0.2072576 0.1759651 0.46280715 -0.19513804 0.0038417054 0.03498865 0.09827246 0.18102476 0.12634341 0.0996016 0.51573104 -0.11995827 -0.29720467
8452 0.16608843 0.06817507 -0.047199003 0.15310837 -0.10734992 -0.22221968 -0.21646018 -0.33503062 -0.07615148 -0.056371573 -0.06896311 0.29498696 0.4047842 0.07757492 0.2707204 -0.038912673 0.008361468 -0.21457998 0.032682385 -0.15694833 0.007057973 0.34414566 -0.06437774 -0.116379574 0.031533707 -0.2648831 0.054433085 0.039952442 0.12561399 0.18572351 0.10934196 -0.053478133 0.16142984 0.15703288 -0.041089967 -0.023599684 0.30766696 0.25652313 -0.09832925 -0.13041046 0.091480345 -0.08565071 0.10423215 0.013781707 -0.13861018 0.3478049 -0.31760052 -0.015303523 -0.18063867 0.03233316 0.10827265 -0.11386436 0.13734208 0.09357114 -0.14816514 -0.16539879 0.042544797 0.022371653 -0.22469793 -0.1532606 -0.45071888 0.15282618 -0.0014685208 -0.015497707 -0.1440302 -0.47099423 0.08450231 -0.09988392 -0.049379665 -0.19635928 -0.37374508 0.022269137 -0.038975928 -0.024243604 0.41541326 0.04105756 0.23918049 -0.36629277 0.105351426 0.20922737 -0.337959 -0.03393809 -0.061707936 0.29482654 -0.37298882 0.20435266 -0.00712014 -0.29661345 0.09861057 -0.30217353 0.13495299 -0.21997333 0.30938536 -0.11738474 -0.14166869 0.0019893304 -0.30444446 -0.19670117 0.028864928 0.2573546 -0.045614973 0.0047833025 -0.07173278 0.31056416 0.23016752 -0.052605733 0.07901964 -0.06294751 -0.2131254 0.1074255 0.06317256 -0.13369709 -0.35293958 0.057119463 0.30921206 0.35848802 0.19616954 0.029813081 0.07585045 0.3438031 0.04570898 0.19282064 -0.011309471 0.17031711 0.00029588764 0.1823005 0.033193335 0.082507566
3065 -0.047890373 0.03507713 0.016153999 0.19737165 -0.14685202 0.14930956 0.11503132 -0.19543564 0.1892192 -0.116860114 -0.007091681 -0.074246526 0.18122005 -0.017391335 0.14486279 -0.0028140142 -0.13513929 -0.32272515 0.012857359 -0.04921654 -0.2762165 0.093038246 -0.12054795 0.31006652 -0.29211363 -0.15820222 0.13131422 0.10645877 0.26962984 0.2682225 0.016321441 -0.063232966 0.033684563 -0.27701265 0.07869511 0.19192928 -0.25872 -0.044304963 0.24287239 -0.16446565 -0.15493684 -0.058273003 -0.013464448 0.32614177 -0.2998613 -0.13624093 -0.16468237 0.15493669 0.0927322 0.21449609 -0.046885803 -0.36341533 -0.16559649 -0.10334456 0.12730512 -0.1907742 0.19775945 0.05079502 0.08972058 0.03312759 -0.0009505562 0.17040737 -0.061735887 -0.24602668 -0.019108001 -0.26790056 -0.5031625 -0.09561929 0.059708137 -0.64235663 -0.005274202 -0.076461114 0.022565179 0.007005521 0.21656092 -0.07671751 0.033949353 -0.06549809 -0.17038655 -0.05449755 0.0074780304 -0.22060329 -0.06940271 0.23456919 -0.33101392 0.14073049 -0.5554248 0.089122795 0.23173977 0.055246394 0.24153255 -0.19949067 0.35134974 -0.19397636 -0.13549161 -0.031395867 -0.20612042 -0.07058607 -0.028106535 0.17411149 0.16664188 -0.06469224 0.11087722 0.1527912 0.18498936 -0.1276972 0.025217537 0.017257188 -0.21802714 -0.04361131 -0.041864038 0.06665794 -0.13998227 -0.16440076 0.076860465 -0.036094513 0.08257301 -0.14619263 -0.013007172 0.3053243 0.30277458 0.2480829 -0.3077101 -0.026181417 0.01759729 0.2351463 -0.27280554 -0.03580288
2335 -0.107957594 0.19967131 0.2022606 0.06749095 -0.37704706 0.0058764582 -0.2954472 -0.39515445 0.090678856 0.01766249 0.342831 0.16565219 0.17541476 0.2275476 0.34289926 0.16959123 -0.27677915 -0.113493994 0.10468505 -0.053767685 -0.07831015 -0.007262686 -0.27944848 0.29660207 0.15412855 -0.2625468 -0.009802356 0.158528 0.026643371 0.14278276 0.08222596 0.17251219 0.36231384 -0.05110664 -0.09298176 0.10935318 0.04190697 -0.21881686 -0.13317116 0.28973064 -0.019678552 0.04402067 0.060894985 0.33005202 -0.11126935 0.0670054 -0.038403872 0.05867755 -0.007605888 0.032812078 0.16301847 0.22086169 0.024745746 0.064183906 -0.05900851 0.15785438 -0.1122494 0.1426744 -0.04164463 0.1583368 -0.031418156 0.20204441 -0.30448508 -0.08257433 0.24645753 0.17963551 0.16012767 0.06746772 0.030083824 -0.07917264 -0.18052779 -0.044650782 0.035730872 -0.0012107145 0.10182994 0.14487009 0.28876352 -0.36195785 0.04423358 0.28660458 -0.05708174 0.14997874 -0.014607805 0.44487283 -0.454391 0.13498606 0.16139935 -0.18612964 -0.13263674 -0.1339063 0.12814212 0.14664127 0.037517976 0.2306931 -0.11983231 -0.18628126 -0.36882377 -0.06969932 -0.14135064 -0.006621406 0.055428542 0.040071264 0.19613366 0.37678605 -0.04453254 0.23040807 0.17721258 0.19248334 -0.33663306 -0.037997 0.22592327 0.11014189 -0.63487625 0.02343669 0.14132832 -0.018222298 0.08550083 0.3764316 0.0067263073 0.27056116 0.039281186 0.29025495 -0.15283754 0.24340393 -0.010308038 -0.014721635 -0.02180624 0.10709901
4609 -0.0109797595 0.37683278 0.18881977 0.049422212 0.04162581 -0.21184024 -0.095534176 -0.444278 0.12205278 -0.0070706853 -0.23267952 0.2736245 0.3727358 0.2853478 0.07926056 -0.02958232 0.22210477 -0.3302564 0.08391967 -0.020919556 -0.18029709 0.28963646 0.25374645 0.15697621 0.12779987 -0.08568007 0.32726133 -0.07692973 0.21384372 0.10243878 0.17874628 0.043526944 0.11103439 0.0010808305 -0.13847525 -0.36220086 -0.009838482 0.00812709 0.24805257 0.004984674 -0.22931539 0.22248554 -0.037105676 0.12120799 0.019908499 -0.12551908 -0.18961541 0.06423156 0.35486472 0.017941663 0.05598978 -0.33700073 0.09591409 -0.30202675 0.13876638 0.136727 -0.22886832 0.0065074246 -0.079966426 0.19384718 -0.1462482 0.14797369 -0.0022009544 -0.31943277 -0.0418305 -0.28535184 -0.2790871 -0.3915918 0.03958149 -0.11574567 0.080052435 0.008893577 0.15520115 0.013447537 -0.21781932 -0.08411378 0.34369355 -0.10027653 0.072643645 -0.14317298 -0.1373788 -0.15016122 0.325813 0.2882655 -0.23747568 0.14138468 -0.37869066 -0.0114906095 0.15106615 0.05482691 0.02991119 -0.34281042 0.19939816 -0.030277269 -0.23970656 -0.069364645 -0.15242742 0.14342241 0.3444678 0.2593583 0.19949439 -0.06320741 0.36566272 0.41563118 0.118220866 0.21684909 0.006517511 0.028503504 -0.3537404 0.09060828 0.15975279 0.06570649 -0.19396847 -0.10765463 0.027996395 0.16778564 0.36027247 -0.037246015 -0.15366277 0.08297428 -0.12505507 -0.03372124 -0.109198354 0.22587952 0.01155872 0.24598366 0.27491793 -0.021634134
672 -0.22622678 0.26395178 -0.0672413 0.022996897 0.16673899 0.17907692 -0.34724733 -0.12258159 0.041647647 -0.042745862 -0.059065055 0.36394003 0.5499579 -0.09357459 0.083057426 0.25326198 0.105395325 -0.1411861 0.21738148 -0.077473484 -0.094893165 0.102357574 -0.015207827 0.30982187 -0.15681571 -0.38793233 0.033925347 0.05231458 -0.029060738 0.081526294 -0.07185587 0.063861415 0.035858728 -0.15124844 0.35400563 0.09508313 -0.11663624 -0.032111585 -0.23218863 0.14546558 0.059263498 -0.1106628 -0.11052625 0.19265246 0.18931282 -0.050945055 -0.24229367 -0.09761627 0.26823512 0.0813784 -0.1290658 -0.5078378 -0.16948833 0.05112254 0.029620107 -0.119768605 -0.04963283 0.21191001 -0.004322322 -0.2010205 -0.18429111 0.13167153 0.13418558 -0.35225347 0.09145006 -0.08759995 -0.21077013 -0.013842312 -0.055185586 -0.41293 0.044386156 0.4163151 0.150636 0.19278878 -0.053591423 0.023951063 0.15952992 -0.17362833 -0.4045907 -0.040256016 -0.31918368 -0.2064518 0.017293012 0.17810692 0.050335005 0.18606853 -0.26486614 0.1282303 0.119593315 0.16899715 -0.03579788 -0.1957741 -0.03682592 0.11059793 0.2170082 0.056832276 -0.06221836 0.107895434 0.1333842 0.18198906 -0.22700143 -0.16405904 -0.002664489 0.073179476 -0.0693655 -0.11714554 0.18319993 0.1819082 -0.041800156 0.01179898 -0.05458477 -0.050300613 -0.37850472 -0.3061207 0.28972065 -0.044686873 0.14819577 0.34001252 0.16325983 0.04900581 0.08549668 0.5242678 -0.09139817 0.3908249 -0.3023393 0.057597056 -0.29128817 0.2630442
2033 -0.10267265 -0.05837292 -0.019958373 0.14416665 0.13596016 0.13958645 0.047575727 -0.036342338 0.28755513 -0.13752712 -0.19889076 0.24878033 0.35828775 -0.1791096 0.3407538 -0.29105365 -0.17547855 0.025756966 0.07780014 -0.07447585 0.02916567 -0.058138482 -0.17503156 0.1304684 0.023084983 -0.07886582 0.05801852 -0.046726555 0.13637577 -0.014358022 0.2308455 0.026671957 -0.15525809 -0.1425974 -0.15187636 0.16353188 -0.13465257 -0.25242946 0.084656626 -0.20423773 -0.12175769 -0.10415546 -0.04438869 0.29161555 -0.37715638 0.059879355 -0.28825864 -0.25489068 -0.022810418 0.30066064 -0.1602195 -0.3287856 -0.13473918 -0.45297176 0.0039124684 -0.27418482 -0.14816363 -0.01993776 -0.049215827 -0.06281689 0.05968192 0.047459908 0.09568944 -0.3311836 -0.16212456 -0.23668367 -0.14662285 0.13063736 -0.13331628 -0.09613619 0.015147154 0.039242234 -0.12618989 0.022609282 -0.013543152 -0.17441876 0.09358192 0.18226339 -0.11713262 -0.052774027 -0.3408567 -0.3664303 0.23356478 0.06404122 -0.25972033 0.05049285 -0.13709174 0.14396176 0.16190074 -0.03941769 -0.10419462 -0.08148016 0.34557036 -0.025751933 -0.113709524 0.15384944 -0.29464886 -0.003954136 -0.36001074 0.119344205 -0.036555663 -0.0696586 0.28119633 0.48733467 -0.017620748 -0.15480067 -0.120549634 0.16462597 0.21703646 -0.02359051 0.08877499 -0.09846363 -0.29150587 -0.29836312 -0.1635181 0.030084757 0.3762368 0.22033565 -0.024433551 0.27312973 0.22794715 0.47479206 -0.13840885 0.12404796 0.17475583 0.16971251 -0.091368556 0.032511633
7415 -0.093202144 0.09752298 -0.2429384 0.14066923 -0.05615773 -0.019785218 -0.13772266 -0.38565508 0.06656569 0.03823549 0.041118216 0.5966135 0.33324257 0.3002238 0.33968267 0.20496368 0.15816222 -0.4501787 0.3996139 -0.06456258 -0.010061712 -0.09676364 -0.06804765 0.42926416 -0.17862259 0.0842385 -0.08793095 0.21228185 0.21565574 -0.030512849 -0.10424295 0.09523787 -0.0031101059 -0.04631909 0.09946826 0.14170392 0.21530323 0.17713676 0.22469729 0.17068526 -0.040701002 -0.24313395 0.04281934 -0.058113612 -0.11318564 0.23686346 0.035919305 -0.026695967 -0.04293636 -0.14984122 0.010770808 -0.1282971 0.009930115 -0.13351788 -0.0467776 -0.23153828 -0.18855877 -0.18031284 -0.44631848 0.017626757 -0.20221621 0.3344476 -0.35057065 0.017408451 -0.064066015 -0.19223988 -0.03516762 -0.06992148 0.13663138 -0.26400805 -0.10140871 0.16945188 0.094019435 -0.07544407 0.18635152 0.2901425 0.29538465 0.31595206 -0.004736102 0.15722041 0.091277674 0.2145473 -0.1629233 0.121628344 0.16111751 -0.33351403 -0.18125695 -0.13408957 0.0818439 -0.17563629 0.014142035 -0.021361249 -0.027076311 0.1621871 0.18864754 0.008678379 0.08491265 -0.070626415 -0.071885735 -0.09960724 0.24046052 -0.21960072 0.06531797 0.5503847 -0.31423265 -0.20253018 -0.36653996 0.5105188 -0.027085783 -0.2143026 0.20115422 0.13724117 -0.15486321 -0.17224036 0.19115816 -0.17690912 -0.09545655 0.08239354 -0.29526415 0.048756994 0.004159819 0.3058396 -0.09807604 -0.11727915 -0.30598295 -0.072466545 -0.21458487 -0.10754502
207 0.23360394 0.30734238 0.0027878294 0.11096613 -0.101494744 -0.060926102 0.11195496 -0.17831676 0.002297294 0.22201161 -0.12312323 0.15201628 0.18576631 -0.011229356 0.3016999 -0.27228177 0.10439866 -0.10899314 0.078894354 -0.039643873 0.035979044 0.08206279 0.0838421 0.15553029 -0.3938191 -0.025047911 0.111700416 -0.07113441 0.3782558 -0.15285374 -0.05696692 -0.014633507 0.014920214 0.07153539 0.31357244 -0.03384091 0.12666152 0.2323035 -0.017747058 0.035038356 -0.13547091 -0.036454752 0.08890654 0.22831571 0.2090862 0.041071683 -0.14253554 -0.20976382 0.014770908 0.029526582 -0.009278716 -0.05715557 0.41977626 -0.16063894 0.42351428 -0.180602 -0.14734368 -0.25025585 -0.12986262 0.06858002 -0.057629526 0.2791015 0.23090784 -0.1246807 -0.1123003 0.08922294 -0.023758162 -0.1289364 0.087021485 -0.19264825 0.16294144 -0.1426292 -0.112783834 -0.40797323 0.115489714 -0.173409 0.16368808 -0.06631917 -0.22684819 0.370207 0.021023506 -0.30031267 -0.29441622 0.22870454 -0.17133653 -0.39360875 -0.14875935 -0.49824932 0.23852189 -0.0107491035 0.16973154 -0.11156181 0.07929393 -0.023808021 0.13787808 0.12104627 -0.26932645 0.17019817 -0.26101437 0.13334154 0.12251273 -0.3862251 0.13996397 0.13655122 0.12731887 -0.015127045 0.045916714 -0.06751457 0.07725219 -0.30941525 0.13263772 -0.122492075 -0.17614464 0.11299783 0.05112428 0.09786826 0.15372807 0.17005362 -0.042301886 0.32822165 0.41003987 0.19907029 -0.6311918 -0.16556062 -0.22564985 0.06928176 -0.12884298 -0.08271545
3312 0.0802103 -0.1559063 0.021132136 -0.009295147 0.08697473 0.10627599 -0.10995893 -0.091745496 -0.10332006 0.13701989 -0.23288293 -0.08067756 0.031925287 0.09812443 -0.100815535 -0.2508993 0.13784365 0.18573311 0.4051527 0.08618717 -0.22533153 0.019041942 0.083667405 0.118055224 0.08599644 0.15635641 0.29488444 -0.2298061 0.31683174 -0.048331186 -0.003259955 -0.25691888 0.07343197 -0.05107337 0.17809853 0.11457269 0.14866239 0.14826058 -0.03341928 0.07774109 0.016455673 -0.13980821 0.13192306 0.083725385 -0.04398952 0.3706882 -0.031178677 -0.10804749 0.008647048 0.055846978 0.2264216 -0.1322455 0.28881818 0.014644553 -0.052974157 -0.27213877 -0.039887637 -0.14748274 0.13840306 0.060047965 -0.0033285841 0.40299553 -0.12681174 -0.3098399 0.057283234 0.102169074 -0.18884347 -0.13058834 0.062102653 -0.26145867 0.014262032 0.23479377 -0.21704815 0.36439717 0.2610596 0.042102545 0.30288756 0.006306544 -0.07175094 0.083624154 0.014280802 0.19528481 0.3089705 0.2582685 -0.20468538 -0.008698543 -0.17426616 0.1312157 -0.48987198 0.042697784 0.2649977 -0.019274458 0.27481025 0.04183531 -0.26209047 -0.30342865 -0.3151358 0.13559523 -0.33622104 0.0067926385 0.091166645 -0.28416023 0.24174026 0.0964642 -0.06518298 0.015771091 0.12455855 0.16633539 -0.15448059 -0.27022946 -0.033952262 -0.20950502 -0.35279346 0.0412768 0.041801646 0.19811425 0.23550557 0.20608988 -0.13831802 0.26882878 0.26709378 0.36076114 -0.22124378 -0.018604267 -0.053918567 0.17481206 -0.26399505 0.094809845
7189 0.17490858 -0.04309001 0.14313263 0.12323812 -0.14061606 0.22994116 -0.16838902 -0.31331316 0.0627078 0.32563034 0.13714996 0.5066549 0.370878 0.22869043 0.3455713 -0.21021336 0.0022278202 0.27003312 0.17392157 0.14606003 -0.224512 0.07002222 0.45945 0.08247934 0.12337413 0.07741781 0.09223352 -0.044144917 0.068610944 -0.08510884 0.07222365 0.24723367 0.045053717 -0.02372599 -0.029617863 -0.32785115 0.21002838 -0.30967018 0.006597661 0.05924441 -0.3285253 -0.0007602363 -0.045078874 0.29088655 0.14261231 0.42970136 -0.27770868 -0.25752544 -0.11823143 0.16363373 0.040890206 0.22603661 -0.3071518 -0.07073218 0.08610284 -0.39665735 -0.067513555 -0.11707183 0.22198147 0.029703446 0.04455419 0.082572006 -0.2948951 -0.29413238 -0.26577112 -0.09993934 0.14459702 -0.32717088 0.32049504 0.049544174 0.1494361 -0.2836177 -0.22591351 0.03944511 0.3890992 0.25072086 0.1367078 -0.006350648 -0.36052537 0.033827294 -0.15026309 0.08951173 0.15402012 0.0042220643 -0.15282089 -0.039922934 0.1419393 -0.04182511 -0.23834556 0.20024137 0.092552245 -0.13367052 0.46204755 -0.054804303 -0.16003604 -0.16445002 -0.036987882 -0.16424909 -0.26242918 -0.0049313935 0.067325965 -0.16424415 0.14160387 0.0680342 -0.018805915 -0.097683504 -0.05916658 -0.08468821 -0.06923304 0.025558349 0.12608112 -0.091430634 -0.04770742 -0.2844668 0.17846203 -0.0024474976 0.20732154 0.23132622 -0.03865096 0.008670805 -0.24961169 -0.09233031 -0.07872733 0.13990796 0.009058089 0.37967134 -0.12519906 -0.1408232
1499 0.0630193 0.016161721 0.37039265 0.23714899 0.3104362 -0.18884769 -0.11015808 -0.2744786 -0.33098844 -0.025348857 -0.027177282 0.13336027 0.28715402 0.06562962 0.20754912 0.07032805 -0.11722249 0.11070029 0.104356326 0.0072609736 -0.39982334 0.11100075 -0.14878082 0.08506763 -0.004149431 -0.31007475 -0.11890521 0.1191451 0.4239807 -0.2659661 -0.045445245 0.010211391 -0.096945055 0.10444894 0.00945891 0.24733317 0.01681404 -0.10536728 -0.31746098 -0.111036405 -0.21318662 0.056544937 -0.10131882 -0.068554096 0.033595547 0.121394984 -0.02630362 -0.022752132 0.5026483 0.2214578 -0.10779755 -0.14755175 -0.4911785 0.055955164 0.05118831 -0.34799 -0.16811368 -0.20502129 -0.239229 0.3320645 -0.024493124 0.116571814 -0.040246278 -0.16003434 -0.20805413 0.05774446 0.17091666 -0.042701844 -0.16310066 -0.12255402 0.09692118 -0.3155071 -0.17877063 -0.15836833 -0.1421426 -0.04826189 -0.21669899 -0.040145397 -0.0749431 0.13018107 -0.16370924 -0.24721839 -0.22924708 0.080848746 -0.21492337 -0.55962956 -0.47595406 -0.27576065 -0.19173485 -0.068182446 0.11138054 -0.49135664 0.16656518 -0.11259855 -0.08730893 0.012227768 -0.25073513 0.14734685 -0.32589632 0.16147792 0.1275151 0.095018074 0.481168 0.22477157 -0.057957757 -0.0816288 -0.13177131 -0.08629925 -0.29508832 -0.25671667 0.16329747 -0.05626346 0.10164164 0.10739096 -0.0143542 -0.13265139 0.35872874 0.110769354 0.003157226 0.28876016 -0.011966479 0.24340549 -0.042231925 0.12603088 -0.08284793 -0.2061896 -0.298953 -0.15551841
6714 0.23611183 0.28965354 0.10406829 0.38699526 0.1695138 -0.12777603 -0.2261377 -0.15658616 -0.24314839 -0.07515308 -0.23741697 -0.04839408 0.116029054 0.0149041815 0.07247377 -0.4040806 -0.27130014 -0.008689825 0.24077219 0.08293601 0.15865043 -0.05153602 0.02794228 0.33382002 -0.25459278 0.1557242 -0.038962733 0.071942024 0.13746601 0.00552811 0.11931615 0.17691322 0.060479134 0.12262698 0.100658774 0.34275028 0.2071081 -0.05018801 0.42947653 0.19872011 0.12087943 -0.273508 0.009355569 -0.14055882 0.084635176 0.22199471 -0.0657538 -0.20646271 0.2549747 0.19891311 -0.24016912 -0.28351718 -0.0067944373 0.029844776 0.4286342 -0.1975506 0.046807535 -0.18644604 0.40125585 0.10449758 0.03588776 0.013650162 -0.38761947 -0.56156445 -0.47193852 -0.104710326 -0.19168776 0.0017373101 -0.34996235 -0.25373194 -0.090522274 -0.14351231 -0.16046079 0.004987704 0.061639667 0.19165602 0.05783485 0.22199982 -0.09564215 0.19674017 -0.072547905 -0.05002132 -0.022087755 0.25519237 -0.10368834 0.028680956 -0.06036016 -0.21766198 0.052230623 -0.16659798 0.0013616238 -0.036346987 -0.2566834 -0.10265055 0.10334768 0.13240844 -0.28284943 0.026095673 -0.24035788 0.014232031 0.015710825 -0.3046555 -0.302425 0.12069719 -0.26475662 -0.0034825604 0.08872553 0.10633059 -0.22917287 -0.2713069 -0.00055387913 -0.21854396 -0.082158566 0.15295702 0.14825423 0.05982263 0.45483387 0.50100076 -0.19849242 -0.1357728 -0.04866608 0.23240197 -0.07223655 0.10615566 0.059593342 0.0044492786 0.25991976 -0.22793742
6667 -0.16054381 0.12804495 0.30396214 -0.117654964 0.13016954 -0.019495863 -0.046217557 0.02002076 -0.25544852 0.11756143 -0.22627416 0.1392614 0.01827145 0.2806237 0.09649435 -0.0015134574 -0.110126965 -0.12916768 0.2447812 0.0499174 -0.054767944 0.100641675 -0.44701213 0.34152377 0.030261017 -0.00485003 -0.09454181 -0.066882975 0.07138724 -0.04317971 0.06670222 0.12920234 0.06930645 -0.16744104 -0.19426829 0.2791282 -0.14116292 -0.3442404 0.3432303 0.053866997 -0.45624658 -0.101672985 0.023072124 0.064012416 -0.25867605 -0.18584053 -0.19847 -0.30368316 0.20613877 0.15267988 0.22095181 -0.36694863 0.037229396 0.14927173 -0.31408396 -0.20689078 -0.06763956 0.12315906 0.27114192 -0.14117017 0.06739956 0.2786963 -0.2039853 -0.28551462 0.0014643262 0.02520936 -0.1845266 -0.43657637 -0.28494698 -0.2504737 -0.036294293 0.19968592 -0.10986485 -0.022904202 -0.013877094 -0.32881975 0.024969662 -0.19800021 -0.55732673 0.18628816 -0.16922292 0.11021387 -0.05785398 0.050469365 0.035141967 -0.032323036 0.0013527608 -0.19696471 -0.012371414 -0.030314183 -0.15386824 -0.09698456 0.123186 -0.07575656 -0.22639886 -0.111781135 0.046001498 0.15329102 -0.2039245 0.3463275 -0.19789307 -0.098686025 0.08824867 0.4027107 0.20023227 -0.017051678 0.003242704 0.13109183 -0.040827587 -0.17209128 0.04547177 -0.07209236 -0.3750413 -0.2516881 -0.2004891 0.32477507 0.2997236 0.38061434 -0.072884284 -0.15231282 0.06285511 0.04978356 -0.7378427 -0.062286574 -0.052480772 0.18857887 -0.14423747 -0.20696524
10987 0.29227588 0.022020062 0.10834207 0.21627282 -0.2108256 -0.06462732 -0.08850185 -0.37581593 0.059978683 -0.27884153 0.14889315 -0.07815269 0.38021293 -0.09243507 0.07734341 0.14361474 -0.21389925 -0.09388414 0.20980075 -0.22140391 -0.09016336 0.12166515 0.08367234 0.17120892 -0.13424352 -0.07738137 -0.2420187 0.21604744 -0.3508626 -0.0286792 0.21893029 0.01559334 0.15995598 0.08583766 -0.069951534 0.19841166 0.24730065 -0.024059013 -0.07217028 -0.14019062 -0.18339223 -0.1514865 0.30247074 -0.13583413 -0.013462092 0.1921143 -0.4140675 -0.15721646 -0.0854542 0.18380357 0.23807824 0.13703665 -0.11013777 0.019864937 0.019819817 -0.25111437 0.02783471 0.044933025 -0.02617058 -0.12429121 0.07472199 0.23817945 -0.08348843 -0.12837781 -0.10164542 -0.11943527 -0.10194404 -0.15950818 0.21639265 -0.36074898 -0.064083554 -0.08156397 0.15203735 -0.036674604 0.16187698 -0.29685342 0.20415719 -0.47662008 -0.24104762 -0.14525181 -0.11672655 -0.30260944 -0.042186134 0.643751 -0.12882346 -0.051490206 0.43829834 0.026088668 0.033912968 -0.13722156 0.6490064 -0.028709201 0.09893797 0.021747189 0.11495472 0.1147407 -0.510421 -0.06632443 -0.10986853 0.29434523 0.03891854 -0.28165567 0.035448384 0.35314003 0.23200555 -0.10423123 0.24249199 0.107180454 -0.08252176 0.13425924 0.0069187554 -0.13937618 -0.29592034 -0.025716716 -0.0039535393 0.19610289 0.3792875 0.18303531 0.047852304 0.3105674 0.21882738 0.32949787 0.13522682 0.1574303 -0.25995243 0.09786242 -0.0273668 -0.058656286
4193 -0.2526844 0.13151902 0.04247578 0.14127207 0.15920125 0.065269835 0.36204687 0.028058775 0.19638762 0.2732665 0.041396525 0.18850376 0.21601482 -0.11729803 0.17098917 -0.1496832 -0.23723438 0.35286695 0.19011019 0.06745021 0.00035415942 -0.08857529 -0.025380582 -0.12641327 -0.2611677 -0.17245263 -0.20591156 0.5566328 0.5763795 -0.0465269 0.077245004 -0.12798046 0.2911415 0.33994037 -0.06540287 0.19960627 -0.2802694 0.16468258 0.20836623 0.18721834 -0.18603556 0.19435517 0.24811304 0.20899878 0.22342241 -0.06928131 -0.23910779 0.1770969 -0.07021372 -0.042443372 0.08651174 0.100911334 -0.08379451 -0.42854294 0.19369438 -0.1862377 -0.3349194 -0.018236624 -0.3550168 0.21993682 -0.13720857 -0.0428816 -0.018342169 -0.2949146 -0.09475461 -0.40120003 -0.08456073 -0.05429253 0.12231933 -0.40284038 0.11175029 0.04065063 0.16402747 -0.09288584 0.18835723 0.05592474 -0.043132383 -0.10638197 -0.4108119 0.020685643 -0.10467699 0.14810345 -0.015059233 -0.13942713 -0.29857042 0.15034819 -0.054544676 0.08115957 0.2218117 0.06201417 0.119788535 0.003194025 0.33286536 0.024578722 0.01510289 -0.34888622 -0.27681783 0.31047198 0.026321925 -0.008849906 0.17917722 -0.16663529 0.2054252 0.037875853 -0.11408284 -0.32411546 0.17573996 0.21484394 -0.1470912 0.084284276 0.044417698 -0.1898167 -0.1331394 -0.14552388 0.1859157 -0.1442227 0.28580096 0.3501027 -0.24945378 -0.10806407 0.15648568 0.41507626 -0.09306908 0.38794118 -0.042440765 0.14104094 -0.16003604 -0.3521131
4869 -0.026224691 0.0633617 -0.17753929 0.37865657 -0.021304956 -0.14500697 -0.02065685 0.055960506 0.026323022 0.19266751 0.081413485 -0.0015794479 0.08392666 -0.16685714 0.1780191 0.0979263 -0.109055795 0.13944356 0.19452171 0.04881247 -0.3239541 0.061768293 -0.08314164 0.56760967 -0.23290478 -0.11316006 0.009801047 0.05372883 0.16285104 0.022229752 0.0076266574 0.2484531 0.07997755 -0.22084022 -0.29061428 0.3157998 -0.08614761 0.06803748 0.01635513 0.072973445 -0.38683295 -0.018692473 0.016156666 0.16766803 0.050801303 -0.09579906 -0.2505635 0.042736534 0.012623598 0.18173838 0.1740092 -0.11012729 0.19303441 -0.16437103 0.050395593 -0.17664067 -0.4557696 -0.12095446 -0.22325246 0.14435023 -0.27527267 0.14312735 -0.2143452 0.031948037 0.025843197 -0.20769635 -0.07078396 -0.30270702 -0.09568087 0.2470958 0.08590562 0.22793488 -0.042245176 -0.15092035 0.071684234 -0.13276416 -0.0979344 -0.4058932 -0.08130737 0.15399855 -0.2050003 0.23594116 -0.081969686 0.1883276 -0.2577169 0.09019598 0.028388564 -0.15798478 -0.1524235 0.27906582 0.013384761 -0.10105447 0.25082824 0.09113493 -0.062452964 -0.28355363 -0.14514805 0.05809426 -0.4445232 0.13141882 0.2007734 -0.19062497 0.01845018 0.22728167 -0.048053 -0.08378166 -0.26603436 0.30244112 -0.14272942 0.119733505 -0.20297955 0.04279151 -0.513761 -0.16262424 -0.0020134137 0.29040152 0.0120257065 0.19299227 0.008455484 0.529059 0.18564726 0.15857022 0.2818301 0.3145607 0.056507364 0.20451799 -0.022122879 0.038067266
1457 0.054364547 0.30575466 0.018970279 0.07342632 0.07965312 0.33109516 0.00594408 -0.27329826 0.273709 -0.14609705 0.07646915 0.24348718 0.039396007 0.13214833 0.006121931 -0.3042996 0.20170863 -0.22079574 0.14170842 -0.024554595 0.004696458 -0.33601707 -0.13915536 0.024020944 -0.23504607 -0.10833414 0.28532743 0.07752473 0.04670057 -0.123463325 0.10566825 -0.08699436 0.29498523 -0.12850538 0.14718573 -0.013795958 -0.22964266 -0.29409203 -0.38963264 -0.12633702 -0.4772708 0.2297679 -0.101967685 0.07799147 0.013413024 -0.20116095 0.022577692 -0.31586984 -0.1337086 0.1114276 -0.01085907 -0.08548209 -0.1682271 0.045247044 0.03168456 -0.017632728 -0.012281924 -0.25952986 0.12976253 0.08383874 0.07122933 0.24023458 -0.3338888 -0.38678852 0.12287975 -0.21282353 0.15337804 -0.08494336 -0.06779665 -0.32337147 -0.04786221 0.12998635 0.2733929 0.35783848 0.22705656 -0.045814026 -0.029164452 -0.08779739 -0.01279481 0.24109367 -0.020952087 0.2100331 0.04948371 0.00069538085 -0.35887277 0.05474602 -0.52260154 -0.28694755 0.54046863 0.08595563 0.18259567 0.199655 0.41413105 0.10029603 0.12882192 -0.27803144 -0.18626352 0.45256832 -0.41339648 0.09114132 -0.33621162 -0.48407605 -0.018783763 -0.020295687 0.15272303 -0.094253406 -0.04417418 0.22258937 -0.41153258 0.108315505 0.24235596 0.15785363 -0.2521934 0.18065467 -0.2468547 0.12489159 0.20010298 0.24003437 -0.05548691 0.05195639 0.15994701 -0.22616051 0.004044449 0.29931635 0.06317555 -0.3520682 -0.11432982 -0.09418049
8454 -0.0035354074 0.13988803 -0.10997488 0.31213754 -0.1636671 -0.035562415 -0.20182012 -0.57861745 -0.14085989 -0.0700166 0.03491271 0.13418132 0.37780845 0.18179311 0.36612633 -0.0010028684 -0.058749966 0.17842624 0.082587376 -0.087370485 0.078255296 0.16733585 -0.27938986 0.17786103 -0.1640405 0.089382105 0.13228332 0.2940974 -0.060575 -0.021078454 0.02379362 -0.15167582 0.18922493 0.053578585 0.07203264 0.011167363 0.12720285 0.49364668 -0.08173018 -0.12486947 -0.112585425 0.0725228 0.4296316 0.017516462 -0.12478827 0.014948249 -0.06470433 -0.07761777 0.058069147 -0.04498995 0.3971094 -0.09326264 0.16633108 -0.14152001 -0.04548124 -0.1564623 -0.49030602 -0.12508227 -0.19986032 0.046245687 0.13389364 0.12895586 0.0201225 -0.30178058 -0.27107468 -0.31512198 0.018663866 -0.18547435 0.044833917 -0.1375931 0.12480074 0.525199 0.01870847 -0.235293 0.05853314 -0.058025472 0.29028597 -0.36295602 0.0069679604 -0.14389534 -0.19141215 -0.2712208 -0.035708107 0.5254577 -0.11048495 -0.14129427 0.06542985 -0.060976774 0.008159596 -0.13380797 0.41145578 -0.0778984 0.33810762 0.11185833 -0.14853293 -0.1807949 -0.32630873 -0.06744783 -0.29798672 0.15946531 0.18953383 -0.10859708 -0.120003134 -0.15309493 0.27797997 -0.11034983 0.036040332 0.26875776 0.011817731 -0.0095829675 -0.044986755 0.111622706 -0.28983206 0.09509809 -0.27182117 0.18061236 0.5934528 0.1194747 -0.064772785 0.2528096 0.4343687 -0.068893224 0.11662019 0.23177563 0.08572394 0.060243916 -0.03608369 -0.0023073105
6045 -0.01351434 -0.14725563 0.04624458 -0.33958483 -0.0050719837 -0.027306836 0.12022303 -0.24155715 0.14809215 -0.112803034 -0.2912634 0.21128121 0.4838665 -0.13609193 0.10574609 -0.14933765 0.008103459 0.023019208 0.44083816 0.22154757 -0.16661215 -0.05860831 -0.001217503 0.29715738 -0.24610344 -0.027661331 0.2188894 0.14390562 0.0914718 0.12758242 0.33041075 0.44160435 0.16201587 -0.10769561 0.24265836 -0.027913943 0.27779952 0.22766736 -0.2232848 -0.23146519 -0.197246 0.07634276 0.18916714 0.068205625 0.034938518 0.21948889 -0.23764452 0.017423375 -0.10513084 -0.06727317 0.23060878 -0.3346673 -0.24390644 -0.07046467 0.1348526 -0.054530498 -0.056358658 -0.03003484 0.2450574 0.103271484 -0.1650336 0.4679962 -0.11846736 -0.27469298 0.12568013 -0.21070777 -0.3432665 -0.29056334 0.035720143 -0.25244778 0.08198312 0.17127094 0.01223309 -0.18312937 0.15901846 0.0639247 0.2095079 -0.35047084 0.10696127 0.11977109 -0.21267857 0.23947653 0.2240992 -0.2876267 0.1715647 -0.010715625 -0.07595654 -0.22075605 -0.27973995 -0.043250456 0.08123367 -0.24835473 0.26222295 0.18834612 -0.2161975 -0.030551719 -0.28373665 -0.30322796 -0.43931368 0.27207416 0.11243307 -0.17844976 0.020482661 0.38412932 0.21471092 -0.25873268 0.21116841 0.30686897 -0.2612211 0.2592544 0.16603269 0.09913641 -0.13358934 0.10333899 0.24810988 -0.06462678 0.0036105767 -0.04162245 -0.120058656 0.12700923 -0.26648042 0.049196366 -0.08922405 0.32955986 -0.28506902 0.17524423 0.15121345 -0.108434536
1387 -0.02052991 0.10710355 0.2544078 0.18134788 0.40646628 0.16736399 0.10127879 -0.04962634 0.3324518 -0.13286921 0.070173286 0.13668889 0.22496092 0.057521604 0.18642043 -0.49589756 -0.13986592 0.050899383 0.09430977 -0.009259092 -0.36938462 0.013705536 -0.082258746 0.11891013 -0.15262912 -0.079641454 0.07143028 0.097825386 0.15250696 0.017742964 0.296373 0.2240313 0.032982215 -0.2417326 -0.18082304 0.1569376 -0.1904831 -0.31253633 -0.11155606 -0.09576601 -0.08477347 0.072344966 0.018902363 0.34966838 -0.5063639 0.03820543 -0.32920313 -0.28933743 0.18120417 0.100206755 0.1859658 -0.02272087 0.0899302 -0.18720724 -0.06657434 -0.3230146 -0.0412681 -0.2986349 0.018837588 -0.21458064 -0.028913153 0.09666821 0.24747267 -0.37038317 -0.13451017 -0.34235322 -0.12031231 0.060647458 -0.088652104 -0.19295485 0.4127477 -0.15096661 -0.119012594 0.016150309 -0.00074675266 -0.27690735 0.20391843 0.120391764 -0.046097126 -0.11498311 -0.2685276 -0.077702746 0.36783272 0.19841354 -0.27642205 -0.054917302 -0.2539363 -0.25106743 0.3769108 -0.012143203 -0.005741772 0.16014439 0.089210235 0.0115954345 0.14669852 -0.043843422 -0.08317162 0.3024843 -0.13507572 0.10773453 0.13356686 -0.18475457 0.10338276 0.3599729 -0.05194961 -0.0657579 -0.08343374 0.20388314 -0.0726352 -0.254209 0.06840763 0.03267786 -0.21861729 -0.042167522 -0.16012497 0.14881364 0.13234727 0.38310686 0.22440791 0.08270271 0.0003949773 0.18960838 0.040766723 0.05724261 0.060368273 0.21347818 -0.06416919 0.16276303
5970 0.25787422 0.28946906 -0.026124164 0.12549941 -0.15948531 0.1427534 -0.25867805 -0.043678287 -0.023234358 -0.03748988 -0.17219739 0.078685276 0.2902328 -0.18700145 0.31645423 -0.39921293 -0.48560822 0.021912131 0.09263598 0.091676764 -0.06375205 -0.017337361 -0.060836025 0.03736925 0.002607384 0.13332492 0.2890904 -0.20836315 0.12560067 0.040463287 -0.031743266 -0.116858155 0.050080366 -0.33282596 -0.039231516 0.10278629 -0.23541574 0.19184938 -0.058201596 -0.14458895 -0.009820193 -0.026293391 -0.024749134 0.12785308 -0.25827387 -0.17159723 -0.0123222815 -0.13023205 -0.050871704 0.13375477 0.034784593 -0.2642635 -0.1463935 -0.4237192 -0.025070209 -0.1447152 -0.2764612 -0.04166403 -0.20902587 0.13928048 -0.052448306 -0.21239994 -0.041306365 -0.283158 -0.008050106 -0.6419964 -0.09963297 -0.16971505 0.007795338 -0.15731679 -0.081101194 0.22131427 -0.0818636 0.08973055 0.26639614 -0.14301386 0.011078405 -0.04671862 -0.12670638 0.15649763 -0.048953865 0.050540388 0.17424431 0.07735983 -0.0020237789 -0.044416867 -0.41386455 -0.016797947 -0.07222276 0.03033007 0.083016686 0.08395736 0.29094315 0.09784443 -0.04859915 0.080802724 -0.24610463 0.31052718 -0.11589063 0.06218669 -0.04698216 -0.3141597 0.23296165 0.36985773 -0.2660752 -0.19204456 0.2507946 0.19340537 -0.3752163 -0.11315695 0.10172553 0.08322929 -0.123278216 0.1199269 0.29937643 0.2839438 0.30865124 0.1917437 -0.1302894 -0.12977238 -0.014976087 0.37990475 -0.23826157 0.17912385 0.015041769 0.3237902 -0.12749527 -0.20345381
3309 0.10738304 0.16521788 -0.064516574 -0.10418767 0.12836622 -0.0800878 -0.14010169 -0.09513247 0.12172681 0.2764025 0.004437598 0.13678378 0.20055468 0.40680796 -0.23473811 -0.10037982 0.09376489 0.039065618 0.6621876 -0.019476082 -0.22803937 0.0077608842 0.04689195 0.13812026 0.1405662 0.081247605 0.012307839 -0.22564194 0.1447494 -0.3800053 0.23951505 0.11783273 0.040521413 -0.09312879 0.107069224 0.36338657 -0.06048967 0.15928411 -0.17230007 0.19598606 0.15774108 -0.1794698 0.018889122 0.24522996 0.04957154 0.044579476 -0.112359785 -0.2379345 -0.33184648 -0.18994871 0.028661039 -0.018657777 -0.053256284 0.066434205 0.30278617 0.109450914 0.05131405 -0.23869021 -0.010402547 0.14116758 0.015448979 0.35948884 -0.19999464 -0.031956892 -0.03829272 -0.03553261 0.04995082 -0.08029801 -0.05901245 0.0022453188 0.10206007 -0.026619915 -0.014068483 0.15713045 0.14790745 0.024024807 0.40355128 -0.28370392 -0.043206576 0.10966756 0.23634948 0.15013604 -0.09507407 0.546082 0.117688194 -0.075418204 -0.128413 0.07171254 0.018068321 -0.0065004993 0.29121923 0.020888694 0.39168712 -0.27218872 -0.1621347 -0.61951506 -0.13085826 -0.08807484 -0.16783608 -0.024549147 -0.07435131 -0.088937595 0.35433707 0.15277398 0.20137696 -0.021022158 -0.10905128 0.44017196 -0.09239404 -0.31444108 0.15333137 0.08864194 -0.17578052 0.13965979 -0.17215106 0.31523222 0.4752321 0.097624786 -0.4372117 0.19046004 -0.09189061 0.32361215 -0.14124392 0.13474737 -0.06503605 0.019922053 -0.19687103 0.045175515
4088 0.16670583 -0.13440898 -0.025601959 0.07441219 0.23385783 0.06229273 -0.18000685 -0.57185555 -0.010624436 0.15299098 0.056603268 0.11424269 0.21972457 0.108406805 0.28890714 0.26239315 -0.15326995 0.056132693 0.22042151 0.042463895 0.03184491 -0.10463323 0.34585533 -0.15156214 0.07177991 0.01053711 0.027537517 -0.14561094 0.41909087 -0.34938526 -0.16098523 -0.2566225 -0.051194932 -0.008598635 -0.23084088 0.24956413 -0.35912746 -0.17293252 0.11682509 -0.23003052 0.017511422 -0.08833031 -0.3680415 0.069104865 -0.1442957 0.32331967 -0.29361987 -0.08784532 -0.09514822 0.35167617 0.07493718 -0.26661935 -0.07486774 -0.2308614 -0.31829414 -0.23852636 -0.1522662 0.08680068 0.18175933 -0.08766553 -0.29551303 -0.0011482319 0.32109794 -0.334658 -0.20471199 -0.21199486 0.08621573 0.03469627 0.09804371 -0.3756565 -0.18348402 -0.07492663 -0.03140268 -0.19394328 -0.35716102 -0.1683218 -0.07045302 0.17795348 0.0130191175 0.20709862 -0.21145473 0.33019722 -0.1715605 0.3117038 -0.22931981 0.16397397 -0.28972715 -0.14850557 0.29132658 0.1384708 -0.28345352 -0.12248496 0.13041136 0.051667273 0.062813796 0.001680507 -0.37882793 0.12262546 -0.22909287 0.18888897 -0.19019304 -0.12931703 0.18735811 0.30066845 0.010178546 0.07225891 0.18937261 -0.08907102 -0.52858436 0.10893858 -0.011824806 -0.20956366 0.0015191486 -0.13166869 -0.16292907 0.23651709 0.31429514 0.40845865 -0.31196025 0.10426587 -0.25917417 0.25432998 -0.4046298 0.014730676 -0.10740651 0.20780203 -0.2549096 0.11127659
26270 -0.06330321 0.05369418 0.06276355 -0.13010883 0.024693713 0.24256064 -0.15899672 -0.31029627 -0.12979786 0.032137726 -0.29238585 0.092208944 0.19766606 0.2964037 0.2678844 0.02001645 0.08016212 -0.16226356 0.3771933 0.14462496 -0.091627106 0.21174622 -0.35880172 0.3750095 0.05501405 -0.20094328 0.14530008 0.11411495 0.06274528 0.11332407 0.23263142 0.28022543 0.054808598 0.04177313 -0.07192275 0.22016776 0.3515032 -0.015610249 0.44720778 -0.03528214 0.34002098 -0.17659888 -0.18876415 -0.1315018 0.22726445 0.31918043 -0.08198489 -0.24814932 0.14321327 -0.16899714 0.19333547 0.056004483 -0.11665076 0.23152368 -0.1536029 0.2250576 -0.13435441 0.31819096 0.011492148 0.3865217 -0.4208852 0.080470674 0.028780593 -0.109990716 -0.15781707 -0.21784718 -0.058907304 -0.31248036 0.18745235 -0.22225542 0.05565529 0.29205552 -0.16099694 0.083496116 0.05457806 0.19540888 0.32538727 -0.13856694 0.21167408 0.04071211 -0.23818532 -0.1699695 -0.31462097 0.5885979 -0.1621718 0.085637055 0.051375788 -0.28288585 0.16693786 0.012389628 0.12314813 -0.03124833 0.083471626 0.014012587 -0.19137368 -0.074655354 -0.046196964 0.032035682 0.10483652 0.058988027 0.21471362 0.11469522 0.06645462 0.34438542 0.293844 -0.24019814 -0.08122281 0.15352504 -0.3640041 0.043148704 0.08832006 0.11609953 -0.16571584 0.19866379 0.48669696 -0.109102584 0.39918956 -0.0037212076 -0.1876147 0.52886873 0.10647786 -0.048192453 -0.1347081 0.47915965 -0.00989842 0.19419672 -0.21930605 0.13010001
3326 -0.0047557056 0.06383297 0.06644505 -0.07524476 0.1691999 -0.027112152 -0.34548205 0.039673805 0.0186148 0.34480876 -0.19187345 0.1704738 0.06573965 -0.023297194 -0.1723464 0.046431884 0.082636 0.10866518 0.11543509 -0.10334992 -0.19486867 -0.024490865 -0.0032500126 0.26893187 -0.08193478 -0.03335038 0.16490334 -0.07624979 0.22140019 0.066238314 0.3479991 0.28208542 0.27834404 -0.14072807 0.33172667 0.07000802 0.3277896 -0.17502852 -0.12236311 0.15016946 0.059047733 -0.03750254 0.17114767 0.16049059 -0.16650636 0.2103081 0.1220833 -0.1787213 0.1160264 0.15671146 -0.08453845 -0.3032361 -0.042299237 0.15280467 0.32366312 -0.062341373 -0.316695 -0.07681416 0.06840309 0.22610077 -0.10622967 -0.028863065 -0.09713878 -0.24587312 0.0861641 -0.23560195 -0.25688925 -0.26810905 0.33623612 -0.11230656 0.089930184 0.39509797 0.16060406 0.25403443 0.113086335 -0.09645438 0.1880391 -0.05545538 -0.09580683 0.17779312 -0.30860648 0.29557282 0.08634248 0.21681969 -0.24096651 0.036903117 -0.06012438 -0.28229147 -0.031296924 0.1820686 0.39119613 0.023565505 0.16179018 0.044221822 -0.053078495 -0.26312187 -0.23315457 -0.16914985 -0.13491634 0.06524309 0.06218827 -0.2876217 0.32464746 0.17513163 0.025224015 0.049378667 -0.1390444 -0.03187522 -0.03876633 -0.18397318 0.003124877 -0.24246691 -0.25209722 -0.065909795 -0.05349434 0.22308868 -0.017017132 0.33269903 -0.21983692 0.13760597 0.19573925 0.2708252 0.011564186 0.083319284 0.11151756 0.14420122 -0.13173172 -0.03301148
5594 0.20383634 0.08572823 0.12631905 0.14975758 0.084835224 -0.122862324 -0.068354756 -0.029047849 0.09499095 -0.0028297973 -0.1846747 -0.07142461 0.56612575 0.05004002 0.12997371 -0.08660479 0.06556182 -0.17737022 0.2208995 0.34514064 0.06383196 0.1387851 0.15901487 0.031903177 0.03825079 -0.2982473 0.30120313 0.01963562 0.33360773 0.016813507 -0.29370755 0.030268537 -0.11881399 -0.43054718 -0.39563882 0.016783278 -0.06828477 -0.21957396 -0.03698233 0.33277932 0.1262985 0.24753939 -0.26231763 0.16714787 -0.20298158 -0.0073522907 -0.28849748 -0.31546697 -0.105780154 0.035652984 0.30976993 -0.005469443 0.07632835 -0.015799742 0.13249807 -0.2784287 -0.22634035 -0.23346075 0.35345078 0.31821534 -0.080322996 0.15162432 0.07983678 -0.044374492 -0.11876913 -0.026859978 -0.09331851 0.24775906 -0.23265243 -0.036208652 0.16212916 0.029628383 -0.11589166 -0.3598389 0.32986054 -0.029024057 -0.13948934 -0.044143636 -0.07789072 -0.30703476 0.0014578073 -0.025382893 0.15990718 -0.1216174 -0.168183 -0.038258098 0.03969713 -0.12372095 0.23003398 0.2385336 0.0032514115 0.06820476 0.21716717 0.117242426 0.2336327 -0.22536276 -0.5297021 -0.15449965 -0.07357264 0.11793358 -0.3337094 -0.52656335 -0.05877153 0.17255041 -0.08742775 -0.36698034 -0.050726324 0.2743504 -0.040564258 -0.076469086 -0.031212011 -0.065503076 -0.08218727 0.026461022 0.21496592 0.011323442 0.46684316 0.5556361 -0.13555686 0.36318335 0.13753065 0.10416184 0.14669898 0.018596021 -0.050503545 0.3015978 -0.15863082 -0.4223187
4087 0.0761139 0.16457471 0.118776195 0.4377234 0.25043708 0.32033634 -0.17652944 -0.83070856 -0.060843006 0.07479736 -0.17748573 -0.049860626 -0.053515304 -0.13079779 0.047038354 0.063133836 0.2026095 -0.032115947 0.25659648 -0.036480263 0.14206351 0.014177992 0.3039919 -0.22693583 -0.12830107 -0.09274804 0.4071187 -0.0292214 0.33066165 -0.15091024 -0.057796814 -0.060123675 0.33250043 0.14703903 -0.45072928 -0.08622989 -0.4477472 -0.1126698 0.5177177 -0.05740761 0.31599104 -0.25169477 -0.28075123 -0.16904289 -0.012804243 0.22562389 -0.20658913 -0.11660783 -0.26104456 0.05585602 0.23800695 -0.24688278 0.04394298 0.084084 -0.2367858 -0.2507193 -0.124126434 0.17504425 0.07086708 -0.07225391 -0.19854292 0.038164303 0.08863551 -0.11494062 -0.2873697 -0.30245236 -0.09222108 0.052385658 0.1968874 -0.2926095 -0.1344507 -0.26525462 -0.080532044 0.06653279 0.10897997 -0.21978101 -0.2616103 -0.2059123 -0.15843992 0.22030054 -0.37306312 0.18496422 -0.09798688 0.054670136 -0.17060474 0.10415463 -0.4120842 -0.21280812 0.2027673 0.11867059 -0.25260964 -0.36063758 -0.01947102 0.06842107 0.05237377 0.016701778 -0.35981253 0.11781688 0.013461518 0.25269297 -0.024025511 -0.4093955 0.30369976 0.608942 -0.11832797 -0.12305534 -0.15606391 -0.1040066 0.022556731 -0.023949102 -0.2369432 -0.044192586 0.029615968 -0.32480043 -0.22533213 0.12616058 0.16534857 0.16754393 -0.13838571 0.14403851 -0.288718 0.21785457 -0.13596384 0.15464269 0.20413002 0.18349044 -0.28777358 0.29167882
3066 -0.12691763 -0.085732214 0.096074656 0.3681303 0.13292582 0.34589377 0.08386692 -0.10135786 0.13283359 0.0042960183 -0.010830754 -0.09212061 0.25154343 -0.020367093 0.18333887 0.0751577 -0.20646217 -0.33099958 0.11494932 0.080519855 -0.27327988 0.15951787 -0.17302601 0.47228733 -0.20616198 -0.115530804 0.0868128 0.10767626 0.5741727 0.27143583 0.10062196 0.20418237 -0.006432191 -0.41573244 0.11970822 0.0070272763 -0.35168254 0.17902383 0.22510004 -0.03242978 -0.11230126 0.0344862 -0.076204 0.27019447 -0.26450214 -0.2778153 -0.18896076 0.2662662 -0.08981747 0.1634106 -0.1866488 -0.41212437 -0.20368125 -0.09870124 0.10345591 -0.21912418 0.14072716 0.13874249 -0.05890488 -0.01217029 0.23574685 -0.049232237 -0.07368047 -0.44206417 -0.0029272528 -0.13858293 -0.39504725 -0.19062686 0.040964372 -0.30707094 -0.023512522 -0.07304894 -0.14860465 0.058319353 0.2566832 -0.067492925 -0.07408145 -0.014108506 -0.13162504 0.11170549 -0.12213099 -0.47652492 0.047616515 0.14472848 -0.2358429 -0.034188956 -0.44456542 -0.03401986 -0.113805585 0.01253013 0.24275394 -0.18187355 0.44582638 -0.025647076 -0.22048704 -0.0072788317 0.011940717 0.030614449 -0.2986056 0.15563042 0.2433291 -0.30196375 0.1094433 -0.0032725336 0.18864119 -0.07092407 -0.1601368 0.11066015 -0.142831 0.14598541 -0.032435738 -0.2227473 -0.17309904 -0.23505802 -0.075987 -0.17950937 0.2830024 -0.16865276 0.0750899 0.13273233 0.03885616 0.17602023 -0.27913305 0.013328045 -0.12906408 0.21895403 -0.385314 0.052427504
3725 0.1806397 -0.12154374 0.16633184 0.06612518 0.07393478 0.08930449 0.17011501 -0.116709724 0.25952 -0.04040816 0.011313309 -0.03878946 0.26454306 -0.06398339 -0.06825048 -0.33598885 0.041919306 -0.2937943 0.049494486 0.07357146 0.11155132 0.26348177 0.087235086 -0.20620486 -0.09863631 0.15467267 0.2509735 0.19601612 -0.06322783 0.14949445 -0.21282125 0.13484117 -0.21193627 -0.12327446 0.09909798 0.24587454 -0.34702912 -0.06648173 0.21632983 0.008066562 -0.43216768 -0.1901164 0.010495251 0.21515271 0.061372902 0.17323713 -0.27042362 0.08260042 0.037848633 0.21966593 0.09237413 -0.47601238 0.25176167 -0.052382376 0.26791018 -0.4460873 -0.042634025 -0.090630114 -0.013867105 0.11659905 0.15096815 -0.2634521 -0.11074372 -0.12734681 0.40647817 -0.5080645 -0.19171828 -0.12492289 0.044956848 0.22152136 0.06824963 0.26436985 -0.042871952 0.03569055 0.031757567 -0.043929987 -0.022112098 -0.08336976 -0.21254866 0.22978942 -0.36271864 -0.38257968 0.049098283 0.3196562 -0.14670795 -0.37108502 -0.5381867 0.028823292 0.2392965 0.15797336 0.3004402 -0.19054109 -0.028282965 0.3921697 0.01669438 0.12885316 -0.26254284 -0.13954128 -0.13508186 0.04447291 -0.22954127 0.14134158 -0.23014715 0.35702586 -0.060338467 0.003658322 -0.09288979 0.056207363 -0.37248325 -0.044291124 0.22123839 -0.052097116 -0.20621727 -0.12878408 -0.07903442 0.039046086 0.28308216 0.40983397 -0.15269965 0.39975324 0.08442262 0.15069613 -0.037716717 0.23225808 -0.4406377 0.18949258 0.085228965 -0.12227847
23363 -0.27492446 0.25520965 -0.14359346 0.07718506 -0.23065877 -0.41515562 -0.14208528 -0.4987377 0.20793118 -0.20156354 0.05813553 0.020585166 0.14141193 0.051474452 0.1319512 0.32535514 -0.29578114 -0.09495682 0.26407588 0.0837067 -0.35712585 0.19965178 0.05637192 0.57467306 0.21199246 -0.40696582 0.061192982 0.2187093 0.2699137 0.2147616 0.14561626 0.33035266 0.41753328 -0.08457748 0.07596156 0.381687 0.16217595 0.2603201 -0.1827879 -0.062130805 0.027599365 -0.053298324 0.18043776 0.12522069 -0.026016854 0.09253223 -0.30595595 0.05841015 0.06052765 0.006575225 0.16903098 -0.3548013 -0.036071736 0.255269 0.19018283 -0.13074152 0.09971267 -0.23203196 0.10025964 -0.13039482 -0.06405791 0.063258 -0.2668968 -0.016262254 -0.07785061 -0.35431355 0.0071479534 -0.34673616 -0.08085074 -0.15889397 -0.29985017 0.08598569 0.2501269 -0.01345307 0.44325918 -0.20205735 0.047687754 -0.18160516 -0.18802121 0.30571523 -0.2745096 0.14161877 -0.090961784 0.41794243 0.076609455 0.13921414 0.083502494 -0.035557874 0.10527105 -0.06488251 0.08196974 -0.16628732 0.109570235 0.054038122 -0.08597093 -0.24277435 -0.012615647 -0.2147753 -0.007563921 0.00012866898 0.16989651 0.22705203 -0.02256923 0.27795953 0.2107415 -0.061906815 -0.012663911 0.19033912 -0.02278707 0.110603884 0.28102216 -0.044572193 -0.47998258 -0.24343744 -0.12109189 -0.094473384 0.036620855 0.12128495 -0.050939966 0.2590433 0.29396507 0.20304824 0.047557052 0.23746525 -0.14579369 0.17323081 -0.021766653 0.16945234
8517 -0.21365029 -0.06296242 -0.10917539 0.50733525 0.3710478 0.28469902 -0.54663706 0.023096615 0.09121985 0.50999373 0.35513502 0.075380765 0.25311103 0.42984596 0.25060758 -0.22829132 0.13616002 -0.17433478 0.15614407 -0.11089579 -0.17871447 0.044326723 0.1942653 -0.17109576 -0.2517623 -0.059280194 -0.15567715 0.09795649 0.034324687 -0.29765356 0.03341209 0.04240371 0.19724372 0.005483301 -0.059170283 -0.09406303 -0.026116421 -0.02696842 0.054979466 -0.18715343 -0.29028383 -0.025113024 0.18350892 0.28980574 0.07879872 0.14657858 -0.18777266 -0.00083821994 0.16805388 -0.025976162 -0.042131435 -0.13753915 0.053117763 -0.07912268 0.04058395 -0.08937949 -0.0034500514 -0.056898523 0.042897772 0.07069134 0.13537556 -0.20538263 0.02508893 -0.2571265 -0.29899916 -0.2941934 0.19586563 -0.20389603 0.3888311 -0.27072296 0.18585539 0.5186425 0.22331703 0.08495729 0.07134173 0.13096628 0.25581 0.013288247 -0.25480366 0.21640378 -0.037011284 0.12522228 0.10808559 0.29142833 -0.17933737 -0.061969798 -0.21518193 -0.14372127 -0.4386861 -0.27798274 0.05616507 0.009803799 0.038788218 0.33935848 -0.04574334 -0.24683407 -0.3454961 -0.13773043 0.035177454 -0.02966683 -0.10335256 -0.30089378 0.024193298 0.4480708 0.0037119754 -0.2609301 0.29735866 0.17978509 -0.29771468 -0.11840496 0.016969439 -0.11749087 -0.10433919 0.11717511 -0.030045517 0.28822443 -0.04664312 0.2077084 0.19167107 -0.011824877 0.29795733 0.052176356 0.009082576 -0.05567662 -0.028300984 0.6136503 0.17859142 -0.2119691
7428 0.08261217 0.14155196 0.09736275 0.19382986 -0.34547925 0.24382798 -0.2010807 -0.040950824 -0.07377888 0.16246954 0.07403361 0.004466683 0.38084403 0.37118992 0.30838656 0.100676514 0.1451268 0.105860256 0.16393474 -0.15446338 -0.00021021621 -0.15769069 0.010979988 0.1817876 0.31854802 0.09001373 -0.3944159 -0.2213149 0.09909786 -0.08103049 -0.09387368 0.16895576 0.14622997 -0.11024924 0.027545836 -0.208795 0.05530691 0.11449415 -0.090272784 0.10307782 -0.26532435 -0.22454204 -0.005850933 0.06654526 -0.14078225 0.20135836 -0.31555298 -0.077548265 0.23298381 -0.12125059 -0.21104471 -0.02317827 0.0763928 -0.13236114 -0.023533767 -0.31502098 0.025360003 -0.24563456 -0.16691287 -0.25439176 -0.118304156 -0.15549941 0.0068071717 -0.46135944 -0.051994924 -0.22531427 0.22248942 -0.49892864 0.28551123 -0.026133446 -0.48893383 0.026580784 -0.102455266 -0.13850915 -0.16035163 0.2759394 -0.005617884 -0.18264727 0.10286303 0.12190067 -0.09237152 0.22946699 -0.056375958 0.44933134 0.10187442 -0.03932972 -0.08502969 -0.005763883 -0.00081018906 0.1163035 0.033695143 -0.24544488 0.15158789 0.080409534 -0.40097657 -0.15934445 -0.26437542 -0.30056962 -0.41361436 0.087443225 -0.013885355 -0.659351 0.2661873 0.12566274 0.2281609 -0.07659278 0.22458118 0.31088546 -0.45331103 -0.16081531 -0.19920725 -0.043860298 -0.38562688 -0.07921181 0.33296847 -0.05933772 0.47283664 -0.10657345 -0.010496499 -0.24337167 0.06442034 -0.043717504 0.3553233 0.44057578 0.18006296 0.27234823 -0.0063571334 -0.24837446
7532 0.05469584 0.65374255 0.4010064 0.14409125 -0.0030409545 -0.06844463 -0.07205408 0.2950312 0.10263596 -0.06053531 0.4393467 0.31326595 0.1435698 0.047453817 0.013913056 -0.14833485 0.051470056 0.26304558 0.5678657 0.04254991 0.06462405 -0.23807406 0.17434956 0.15344207 0.15968369 -0.2158487 0.26879722 0.18432026 0.10371741 0.04633947 0.018204236 0.1443178 0.211371 0.24802159 -0.42487094 -0.1528757 0.14088212 0.25085053 -0.07694946 0.08511259 0.13317 -0.37462226 -0.000672054 0.075551376 -0.03390579 -0.22940744 -0.30755472 0.2954407 0.022672398 -0.017013464 -0.11179275 -0.18726933 0.09163641 -0.5307015 -0.2250908 -0.3130824 0.0883499 -0.17288192 -0.26712495 0.025445411 -0.18798438 0.13427633 0.38737437 -0.14480202 -0.16886958 0.21349801 0.0788134 0.1675872 0.23595783 -0.20901306 -0.12902112 0.16724563 -0.08016651 0.05254107 0.049900033 -0.078464635 0.37633464 0.36815506 -0.119646944 0.25382012 0.10521812 -0.09502424 -0.13137498 0.22289053 0.06513544 -0.1146512 -0.08684299 -0.62267554 -0.23646007 0.46122047 0.12481808 -0.14850928 0.07376661 0.07100108 -0.048412833 -0.12307338 -0.031947806 0.012776383 -0.32721525 0.22529851 -0.03748811 0.025583023 -0.1308082 0.3651501 -0.18097854 -0.22119887 -0.08083295 0.27951577 -0.20133254 -0.1189623 0.36265844 0.0032884341 -0.5316142 0.28379428 -0.001096661 -0.023471473 0.09179209 0.41171902 -0.21971726 0.660228 -0.21699199 -0.16870311 0.006654343 0.1324401 -0.15929979 0.020779852 -0.20851561 -0.17596617
7186 -0.10120001 -0.08294458 -0.22718807 0.038598362 -0.019422768 0.44958645 -0.006579707 -0.3798948 0.114364 0.21485184 0.15908818 0.24209222 0.5828193 0.27685043 0.25275758 -0.11890347 -0.11870003 -0.088413924 -0.15109307 0.19002572 0.15369228 -0.15310504 0.28336722 -0.09751917 0.18296415 0.20410001 -0.18154964 -0.15298708 0.08945331 -0.07546365 -0.095299184 0.3791582 0.12402981 -0.16509862 0.33665967 0.03965779 -0.13250801 0.041325685 0.23950127 -0.01923314 -0.40952682 0.12397845 0.16559689 0.23426767 0.32689735 0.3699308 -0.16376881 0.08480592 -0.2629629 0.10390247 0.11048351 -0.3739322 -0.280982 -0.28152528 0.11878593 -0.295078 0.16378148 -0.21216214 -0.09581966 0.31588992 0.051601287 0.09860321 -0.040237818 -0.18134904 -0.05408886 0.24606681 0.25948068 -0.24769971 0.17891325 -0.5341348 -0.199209 -0.060581874 -0.13619854 0.13259086 0.3614721 0.29126954 0.25666496 -0.03781519 -0.15696329 0.31216645 0.06352186 -0.3421956 -0.0028615277 0.08887602 -0.34128046 -0.021387935 -0.4015943 -0.12413201 -0.13166165 0.2783353 0.17712373 -0.049877096 -0.020991841 -0.15850054 0.12345807 -0.22487482 -0.08934059 0.120362855 -0.06884251 0.42311758 0.031350818 -0.21079417 0.02667524 0.0785353 0.013192878 -0.17739278 0.18802994 -0.15344806 -0.14954989 -0.1650627 0.270533 -0.49344698 -0.26704174 0.11669092 -0.032767862 -0.3147656 0.073938556 0.29084256 -0.14461768 0.22597833 -0.21898808 0.6224042 0.22322896 -0.36644897 0.25379482 -0.054187246 0.08381515 -0.110597536
5578 0.065760836 0.20511013 -0.08668289 0.1934636 -0.06375218 -0.0022850751 -0.32559913 -0.38704813 -0.39720696 0.09153275 0.08305445 0.1938721 0.034323808 0.22153902 -0.07500029 -0.10420543 -0.28631356 0.12996955 0.20389014 0.14798577 -0.047017604 -0.13639411 0.43577737 -0.041237324 -0.20262547 0.04250824 0.08992072 -0.09472265 0.60297906 0.041735034 -0.24653217 0.3322946 -0.18048388 -0.06940053 0.09998918 0.4065902 -0.13882694 -0.5259323 -0.020987438 0.31115028 -0.35877925 -0.34899056 0.3153021 -0.10027921 -0.20681632 0.13579912 -0.14422497 0.19643715 0.2203134 0.26829743 0.09730789 -0.15875529 0.10104154 0.12390166 0.18295227 -0.1831206 -0.23859677 0.13334668 0.3758962 0.03168745 -0.06844891 0.2542293 0.091427654 -0.2201252 -0.14341564 -0.19053881 -0.07706211 0.04789109 -0.119148426 0.15084994 0.29323742 -0.27845785 0.10265487 0.09911461 0.1885768 -0.048212767 0.15282989 -0.08740808 -0.21629137 0.35952786 0.48301557 -0.32791522 -0.23443231 0.12118381 -0.21582781 0.069718674 0.015762731 -0.5239916 0.15796655 -0.17404614 -0.00021567517 0.26886898 0.06441215 0.024072107 0.4112667 0.22706108 -0.34902382 -0.07362651 -0.16552144 -0.005455708 0.017320774 -0.096830994 0.3973455 0.48042613 0.31726962 -0.10770999 -0.15225238 0.34960347 -0.10966295 -0.06475129 0.12278186 -0.440373 -0.348415 0.12348402 -0.07046338 -0.10847151 0.112774156 0.07620858 0.07836713 -0.0011744626 0.0590289 0.21346313 0.17298144 0.503778 -0.2167852 -0.22306253 0.13442153 -0.20148692
983 -0.089977466 0.49583608 0.14225282 -0.15334412 0.105982125 -0.022222701 -0.05033901 -0.20197833 0.3638288 0.17922819 0.26886633 0.45433575 0.13267267 0.35364947 0.10544086 -0.33585376 0.0045862654 -0.42151687 0.18136811 -0.07302565 -0.11860962 -0.08968493 -0.022803586 0.15512921 -0.09984085 0.06614428 0.1332483 -0.109161675 0.47088876 0.1353451 0.083371796 0.015895769 0.2846502 -0.033803847 -0.11835261 -0.11613904 -0.13175203 0.18403722 -0.024269639 -0.20615126 -0.12558217 -0.16258574 0.023994895 -0.35954496 0.109329514 0.12747379 -0.19556688 -0.0016194001 0.06379762 0.019124074 -0.032308236 -0.4550217 -0.041190084 0.16958882 0.1924126 -0.26952535 -0.45932 -0.112122945 0.053054564 -0.2882739 0.19112188 0.572606 -0.10722743 -0.4400244 0.19104536 0.0859999 -0.028940357 0.18758689 0.14480342 0.21271513 0.21197861 0.2708811 0.221229 -0.44350418 0.03703673 0.014874759 -0.13394326 -0.18102933 -0.2592348 0.12107374 -0.10674052 -0.26901776 0.042453095 0.07657454 -0.17962553 -0.36499316 0.10343727 -0.070408 0.1450464 0.13507137 -0.10848308 0.19642313 0.19765092 -0.07532447 -0.06358338 -0.009676825 -0.04091387 -0.106564514 -0.03563997 -0.25029826 0.010752234 -0.0029481116 0.24591316 -0.26568547 0.19169764 0.12141126 -0.07216294 0.04675152 -0.108523436 0.055395674 0.07737833 -0.2421021 -0.19327956 -0.2076242 -0.09373436 0.2347734 0.56001776 0.48079574 -0.29066327 -0.027015839 0.065744765 0.1767019 -0.015579993 0.22344789 -0.065169156 0.33578417 -0.21108635 -0.48392347
10075 0.04908224 0.08819063 0.15888566 0.18767932 0.013825121 0.1977057 -0.29494548 -0.34215602 -0.14023814 0.24748625 -0.2200721 -0.039336763 0.09705752 -0.22086917 0.34163234 0.08314658 0.24733604 0.017780688 0.034207847 0.012896127 -0.20066579 0.23039767 0.23213206 0.2578469 0.22459872 -0.46033618 0.34992144 -0.3155616 -0.040386837 0.1496101 0.36932552 -0.14674951 -0.06729884 -0.12020407 0.13791965 0.2419644 0.22905296 -0.17165422 -0.09498588 0.05628121 -0.046770606 -0.110137984 0.364012 -0.07695893 -0.1370881 -0.06756978 0.08261952 0.17757624 0.09953099 0.14489718 0.3860245 0.028647486 -0.19669066 -0.03231167 0.0024048158 -0.39477795 -0.1981586 -0.01390832 -0.195421 -0.057789277 -0.036197513 0.24736801 -0.43023825 0.0014430963 0.04897544 -0.082238704 0.058666833 -0.29271007 0.30758837 -0.1938931 0.27029684 0.28124356 0.11058032 0.12086151 0.3090389 -0.0024787362 0.21957591 -0.063520744 0.3624455 0.56530744 -0.41777974 0.25025395 0.13148591 0.27673605 -0.20911309 -0.10079064 -0.0060972883 -0.106195256 0.159166 0.11074029 -0.025527278 0.26240164 0.25568193 -0.04783285 -0.20771956 -0.3526053 0.021627702 0.11537513 -0.094526835 0.03109743 0.25365606 0.035475507 0.1427326 0.17853999 0.24825108 0.08584221 -0.0418417 0.07800074 -0.41026056 -0.11486181 0.15622233 -0.15189852 -0.105983846 0.13299745 0.11319697 0.08744004 0.49453956 0.32210284 0.19031519 0.15388626 0.064583935 0.009644203 -0.08370847 0.5019684 -0.013947458 0.4929228 -2.2527187e-05 0.08433658
5595 0.1557587 -0.15296218 0.15190426 0.249906 0.003458781 -0.17107324 -0.050305467 -0.1493276 0.14432007 -0.018412247 0.01601429 -0.10491922 0.7955763 -0.014970683 0.09124449 0.13346358 -0.024544492 -0.23197766 0.092549436 0.26530153 -0.08538282 0.3482428 0.002660682 0.07139683 -0.038873136 -0.3731779 0.21529393 0.12008228 0.23891832 0.17602676 -0.10656066 0.010410809 0.10326018 -0.22515336 -0.36447266 0.093112096 -0.08595253 -0.13887666 -0.1594975 0.46444213 0.12574084 0.4176941 -0.3725241 0.2078185 -0.15278254 0.040364087 -0.10607553 -0.41812426 -0.22951879 -0.27450034 0.15109503 -0.071529336 0.2902837 0.0758726 0.09151866 -0.06634498 -0.19385578 -0.15248902 0.14818455 0.30816963 0.010610517 0.002426898 0.08628221 -0.14571969 -0.15136394 -0.0054460755 -0.19781178 0.06811873 -0.12052599 0.041166104 -0.13372056 -0.010381278 -0.096251406 -0.29091123 0.2872221 -0.07929577 -0.19411713 -0.14912497 -0.4518612 0.00015977415 -0.020635894 0.018944444 0.085946836 -0.07259165 -0.36072585 -0.121426575 -0.11676205 -0.2824828 0.26208648 0.2372654 0.00075873156 0.2805859 0.14957368 -0.03264894 0.18758267 -0.20596522 -0.21552047 -0.05048406 -0.12001516 0.033318646 -0.07954221 -0.4298641 0.022702692 0.14541568 0.027892293 -0.467184 -0.046769008 0.2574149 -0.095554456 -0.16903141 0.020904563 -0.132014 -0.055391517 -0.075243466 0.038237434 0.22599272 0.4948524 0.30403566 -0.10379934 0.37669492 0.4483435 0.040621012 -0.036618464 -0.081603095 -0.2376698 0.48737425 -0.13462447 -0.25486302
10014 -0.21584505 -0.014447969 -0.028386386 0.39170226 -0.094485104 -0.032703687 -0.10984823 -0.30428606 0.34384528 0.0133676315 -0.0136314295 0.11342861 0.078956336 0.041469846 0.2507012 -0.030828372 -0.23231055 -0.28998947 0.06336782 -0.044651285 -0.26814362 0.084937915 0.03862215 0.39891598 -0.07836147 -0.37261721 0.4293748 -0.15937355 0.2043441 0.057077553 0.29756021 0.14096934 -0.0586695 0.15412664 -0.21194665 0.26420942 0.13472477 0.300511 -0.14621362 -0.0587598 -0.1134378 -0.046663743 0.26214698 0.31670192 -0.06693092 0.15070015 -0.22160275 0.30409327 0.11732834 0.07598672 0.018207528 -0.21560396 -0.24564293 0.099700145 0.379983 -0.3372076 0.0040169596 0.050709642 0.04823426 0.067026824 -0.10331071 -0.07787475 -0.061133057 -0.24091762 -0.0049713515 -0.12474741 -0.21037106 0.009274838 0.30878052 -0.16469796 -0.07833104 -0.08532847 -0.08675084 0.21151026 0.32220194 -0.098300636 0.25232962 -0.16228938 0.039547313 0.4521426 0.06956363 0.072413795 0.00037773245 0.3672865 0.019838246 -0.19275418 0.21993044 0.017064689 0.0020603538 -0.0914359 -0.13719675 -0.10027467 0.40989625 0.19655389 -0.027179345 -0.44961846 -0.2654432 -0.025634918 -0.07717391 0.07674202 0.006779714 0.09149632 0.09477096 0.4027066 0.52532446 0.16417782 0.1316376 -0.1769068 0.01162734 -0.022411602 -0.1613889 0.28926474 -0.36750227 -0.21572961 0.019256968 0.26049116 0.099695794 0.37528387 0.012073875 0.49901348 -0.014454426 0.29368627 -0.0016410406 0.09764605 -0.16253628 0.115217745 -0.11606154 0.22181873
2932 0.010023191 0.011527957 0.13872556 0.2584128 -0.000583132 0.24938853 -0.26845142 -0.040461995 -0.007779459 -0.37913442 -0.19323286 -0.22188492 0.10804435 0.37016606 -0.003474912 -0.017672246 -0.18806428 -0.15030046 0.05342416 0.38321903 -0.34691107 0.3366783 -0.032496486 -0.19827679 0.2871429 0.20299798 0.17157052 -0.11320681 0.07770337 -0.03484567 0.058237065 -0.027918331 -0.32745522 0.05387593 -0.4551776 -0.16398855 -0.017735653 -0.049005076 -0.12583067 -0.120255455 -0.19029738 0.15905923 0.17599167 0.06615264 -0.13179466 -0.02455355 0.046232156 -0.30658194 -0.4604699 -0.013003846 0.030304248 -0.08764136 -0.13053451 0.053446982 -0.037133954 -0.30119014 -0.08442997 -0.11836697 -0.21824507 0.20482711 0.17568111 0.048985012 0.058773596 0.018924337 -0.0017057772 -0.067543775 -0.15469134 -0.16995789 -0.360727 -0.35791266 0.3625152 -0.11346455 0.39601412 -0.27416125 -0.03430613 0.0015008148 0.39136887 0.09079966 -0.042565074 0.40275058 -0.49245742 0.01989891 -0.006037582 0.13320974 -0.11105662 -0.34464288 -0.12147542 -0.4828403 0.037521593 0.19807395 0.11515126 -0.020981701 0.08318722 -0.26523957 -0.12924889 -0.101269454 -0.4632881 0.08771826 -0.014408196 -0.0698795 0.07530545 -0.08706629 0.4144202 0.347043 0.05259509 -0.010622893 0.080251284 0.34201548 0.057912577 -0.45775014 0.16256449 -0.30354 -0.121243306 -0.12308913 0.2526963 0.054694872 0.3117431 0.3614701 -0.3295666 0.14548127 0.4199517 0.0448351 -0.06718398 -0.052200187 -0.012529349 -0.12457562 -0.07380008 -0.22331783
7431 0.18820877 -0.25702965 -0.3280823 0.2167916 0.11358848 -0.07722379 -0.13278809 -0.28966612 0.10243361 0.07748105 0.055439945 0.1385089 0.65329057 -0.14463095 -0.2603932 -0.18271026 -0.20772852 0.39549774 0.14331307 0.010479509 -0.17078234 -0.09875947 0.31270176 0.12248377 -0.31476974 0.011668989 0.18740612 0.123275675 0.33883092 0.027431656 0.22020452 -0.05769645 0.13895515 -0.09477871 0.17377323 0.20818244 0.38002917 -0.06584612 0.048835356 0.10082902 -0.031948917 -0.1823455 -0.055639632 0.11974451 0.27303463 0.04858864 -0.13997383 -0.14362466 0.04481271 0.14465512 0.17327788 -0.45683083 0.05793637 -0.15153089 -0.011980618 -0.18674032 -0.111325525 -0.08624703 -0.22557777 -0.085042626 -0.077654645 0.34420863 -0.09786873 -0.34586313 0.028193152 -0.17968887 -0.23277447 -0.10904973 0.074886836 -0.019323057 -0.0058286474 0.008912498 0.028047437 0.3987488 0.03859334 -0.17664947 -0.0674645 -0.03549178 -0.048725393 0.1792472 -0.25624743 -0.10785844 0.048180033 0.033639252 -0.14771928 0.06402625 -0.10818264 -0.2803574 -0.033676248 0.26209724 0.462119 0.21289197 -0.018878574 0.06901517 -0.05798677 -0.43207636 -0.059319057 0.02011825 -0.08802987 -0.06014102 0.26719502 -0.12878242 0.13866381 0.2949999 0.005464414 0.42692593 -0.17491205 0.06914771 -0.050880734 -0.038159065 0.09112677 -0.21044648 -0.35762665 -0.18784134 0.119308986 0.14885473 0.06569729 -0.10982033 -0.19562352 0.3622911 0.0040740026 0.024100503 0.1172511 0.2770896 -0.07171461 0.15682173 -0.015443286 0.029710246
4627 -0.11492852 0.41501373 -0.35377583 0.06447586 0.009921822 -0.05108449 0.01751064 -0.24189417 -0.08140215 0.02604487 0.23289417 -0.07565789 0.1399712 0.15359001 0.06387884 -0.020983446 -0.11498522 0.018913945 0.77478456 0.30790025 0.107696705 0.15016888 -0.23922667 0.26116568 -0.022902863 -0.093967415 0.2540665 0.26395682 0.44111487 -0.11275233 0.07481787 0.5604429 0.18696114 -0.03529752 -0.1762343 -0.20556337 0.06266322 -0.12967074 0.16573091 0.12647147 -0.29006723 -0.20625018 -0.068829626 -0.07610492 -0.024526231 -0.20155457 -0.14970647 -0.082015015 -0.16640657 -0.05600522 -0.12607317 -0.19853982 -0.079594724 0.016863588 0.31804428 -0.2017371 -0.2452308 -0.30775836 -0.00071688794 -0.35286015 -0.14535496 -0.009001269 -0.11162274 -0.08543707 -0.014627424 -0.07656431 -0.18458077 0.04608507 -0.26387283 0.10961496 0.02934405 0.14943765 -0.24327366 0.15623641 0.24749577 -0.050840463 0.10188447 0.122079544 -0.0035138554 0.21180254 -0.08191825 0.3345346 -0.10266319 0.023246488 -0.05830368 -0.12110721 -0.32864296 -0.1394763 -0.2749103 -0.07526059 0.1664241 0.12846887 -0.18347336 0.19831096 -0.25111008 0.043592192 -0.2081018 0.23688035 0.021625077 0.3693635 -0.037849266 -0.12838255 0.1605478 -0.10827985 0.04771321 -0.11431798 0.11452052 0.08875123 -0.26015666 -0.5497792 -0.21910454 0.22606911 -0.1883671 -0.0023377284 -0.44133967 0.34200943 -0.07464574 0.47133535 -0.49245963 0.19095187 -0.35205692 -0.038518786 -0.16230094 0.3612951 0.15010954 0.050770804 -0.076526664 -0.25605676
9531 0.2801695 0.008626711 0.30151156 0.116192095 0.18424292 0.015981145 -0.19473581 -0.34241685 -0.10214939 0.4722963 -0.0077463617 0.1601838 0.3173196 -0.21634321 0.07907293 0.0660951 -0.30027974 -0.26950112 0.22597137 -0.30369073 0.22838257 -0.15575954 0.20637116 0.11189034 0.2384508 0.005262211 0.4973949 -0.14478052 0.25254324 0.14601183 -0.30460027 -0.15292826 0.35192037 0.16926023 -0.17707226 -0.5852614 0.39995685 -0.33298028 0.25041237 0.20081042 -0.0529159 -0.20094183 -0.29151288 -0.22142905 -0.09878431 0.22906692 -0.16290675 0.21052836 0.0352354 0.1489238 -0.022387745 -0.23119748 0.18082252 0.16053827 -0.14082566 0.3149041 0.10277595 -0.5168114 0.36578777 0.14094299 -0.28719836 0.060503773 0.04665626 -0.20178705 -0.19224876 -0.0012877055 -0.015879571 -0.5652394 0.15367563 -0.068569295 -0.027720725 0.06767794 -0.18971056 -0.20595875 0.032434188 0.079632506 0.3725932 -0.104993306 -0.0015987896 0.4867123 0.36982325 0.095227815 -0.18976536 -0.15288982 0.3190716 -0.012920963 -0.1653949 -0.15011738 -0.21304502 -0.4172886 0.5954487 -0.13270904 0.23982747 -0.2851938 -0.17862917 -0.15647307 0.14216116 0.0118626235 -0.25917602 0.16798341 0.49027452 -0.10811519 0.12475939 0.04314592 0.06361622 -0.011080802 0.178237 -0.08799762 -0.31972063 -0.12425719 -0.028447025 -0.24827331 -0.4300348 -0.53337747 -0.0691841 0.50735915 0.46079594 0.116241015 -0.053994693 -0.08648369 0.22700438 0.5305571 0.037387196 0.19316141 0.23904987 0.3673138 -0.37893653 0.0059905825
5566 -0.11050148 0.011706614 0.14728849 -0.03953894 -0.2599417 -0.111898385 -0.1641809 -0.31611136 0.03578369 -0.15067838 0.0031457518 0.20160061 0.15492477 0.35187596 -0.13878968 0.009178539 0.0032507402 -0.3485968 0.2915794 -0.4191359 -0.19911882 0.065291524 -0.048185125 0.02045457 0.0664742 0.18798056 -0.05858099 0.55398613 0.34511602 0.038317908 -0.37685773 0.024325911 -0.058688372 -0.08313738 -0.0019180621 0.23828635 -0.13693655 -0.4055907 -0.045129545 -0.21443763 0.31067476 0.115708426 0.019420374 -0.03661092 0.11405426 -0.31397954 -0.34605032 0.36162904 0.0025776299 0.17446338 0.16348867 -0.16948693 0.121510066 0.021460945 0.5067883 -0.29929465 -0.057009667 -0.018833157 0.053785797 0.069930546 -0.03123454 0.2626672 -0.4559697 -0.20413145 -0.10494599 -0.1986557 -0.13822013 0.060690075 -0.42258036 -0.08740149 0.2885423 -0.017987084 0.3612554 0.1525758 -0.017419968 0.04233808 0.018500635 -0.046337575 -0.1497542 0.61354035 -0.08590919 -0.31949502 -0.15178314 -0.23220107 -0.053514566 -0.083165795 0.23074368 -0.20234863 -0.13012625 0.009907326 0.14137772 0.114792444 0.19573969 -0.106413305 0.12783767 0.052586395 -0.19231103 -0.0066526053 -0.1329044 -0.08464158 -0.30553257 -0.40800342 0.010349587 0.57403255 -0.07950529 -0.18753591 -0.2871086 -0.080414735 -0.17530394 -0.6457465 0.47124773 -0.28977212 -0.41582116 0.12333504 0.01737453 0.06507997 -0.056646593 0.12651667 -0.13347523 0.0015470922 0.05327712 0.38189435 -0.11689175 0.40937346 0.09389727 0.2276681 -0.25616834 -0.21403357
1432 0.37567437 -0.03003712 0.070495404 0.4751218 -0.36413962 0.18730047 0.062557675 -0.25488004 0.24928209 0.4017895 -0.25249538 0.117143266 0.35795304 -0.1028968 -0.035408173 -0.11889786 -0.22026213 -0.017474677 0.3120769 0.31680223 -0.19325173 0.031671833 0.19492038 -0.040275153 0.07331706 -0.1758125 0.3030018 0.2134162 0.29363972 0.2666913 -0.13172783 -0.01545335 0.17607236 -0.2381254 -0.20567624 -0.049417514 0.08933096 -0.4524899 -0.15471984 0.0005511581 -0.17479743 0.22247915 -0.14076637 0.057103064 -0.16159078 -0.15737355 0.054319367 -0.1304191 0.07450639 0.027656084 0.4276052 0.04097993 -0.32198957 0.21280709 0.20445126 -0.31501263 -0.13041806 0.016335437 0.4134216 0.14558157 0.12141807 0.08978486 0.32316837 -0.025558261 -0.09945447 -0.13240835 -0.07422805 0.058215126 -0.13448884 -0.12397521 -0.22745737 -0.0092727775 0.076647274 -0.059388902 0.23698968 -0.2550274 0.13940208 -0.12669893 -0.035725784 0.14981487 -0.034450557 -0.27149707 -0.20130502 0.20273216 0.059877038 -0.07538795 -0.07453323 0.1753372 0.22613966 0.13444564 0.1802652 -0.24789588 -0.13948795 0.12601936 0.0815888 -0.32807487 -0.31771144 0.2912487 -0.14859687 0.13955446 -0.007916549 -0.43148226 -0.10111316 0.36528927 0.09496391 -0.030605955 -0.16933872 0.39874172 -0.08392548 -0.21998207 0.07324454 -0.23754427 -0.2540519 0.29405913 -0.23153527 0.26282942 0.00840619 0.42965874 -0.15125425 -0.023046322 0.17081119 -0.2708543 -0.15116593 0.0023948906 -0.06421349 0.20490046 -0.079055384 0.08966124
8726 -0.010445349 0.10822014 -0.16445911 -0.20266256 0.12547033 0.15472116 -0.17428379 -0.14975417 0.0656649 0.10046086 0.051139805 0.22287011 0.18473579 -0.032665774 -0.030266084 0.32340947 -0.28892943 0.22137891 0.59055537 0.061010443 -0.37383762 -0.14257115 0.023089487 0.20149368 0.073161 -0.116830274 0.1241381 -0.013916223 0.24873929 0.18229422 0.030871317 0.44285718 0.2420714 -0.28650236 0.090683825 0.123788245 0.20600224 0.24500725 -0.21622619 0.012753369 0.03046297 0.28760612 0.031857274 0.03269165 -0.16339852 -0.14260356 -0.46182057 0.3395352 0.002661081 0.09974165 0.09803017 -0.4250562 0.063391864 0.07562071 0.095498204 -0.12359434 -0.09932683 -0.13651584 0.06065211 0.29645252 -0.011014416 0.26652104 0.07669165 -0.06262828 0.23061264 0.030230036 0.059483457 -0.23858652 -0.28193346 -0.50750417 -0.11120242 0.2510495 -0.06777631 -0.102748744 0.23934299 0.026469698 0.055499204 0.105358645 -0.26864254 -0.0637012 -0.216808 0.26568913 -0.038679905 0.47538581 0.17268223 0.14904764 -0.21804304 -0.018748352 0.07716617 0.16262665 -0.0481751 -0.40160665 0.34238997 0.4876631 -0.08679459 -0.21290986 -0.2602603 -0.36633205 -0.20292127 -0.102925174 0.27836582 -0.246045 0.16399173 0.5069567 -0.15397963 -0.13937977 0.24033664 0.26610053 -0.1199693 0.1107536 0.041556712 0.21786515 -0.17509826 0.2146649 0.03459407 0.08047416 0.23391618 -0.08268063 -0.16962478 0.22816096 0.051828463 -0.05420358 0.123497725 0.37494302 0.1208468 0.07153883 -0.10073287 0.1407407
7531 -0.0068810433 0.37711126 0.34988457 -0.1256062 0.06832056 -0.32399386 0.07480315 0.042915907 0.23008141 0.16923065 0.25991392 0.23455827 0.39665893 0.23477346 -0.04749441 -0.14786206 -0.0862881 -0.1654255 0.2402576 0.1464039 0.32127717 -0.096410744 0.20547712 0.34875163 0.3756328 -0.24256267 0.30338132 0.17339641 0.27596635 0.14555375 0.13277842 0.014624775 0.35678363 0.011864067 -0.2916536 0.2318383 0.018167412 0.0049861213 0.20610805 -0.0048312675 0.10439887 -0.14005814 0.1612521 0.079526775 -0.22977574 0.07970517 0.16078708 0.04070244 -0.24438182 0.09734272 -0.11720635 -0.23916693 0.24104741 -0.30643123 0.08013532 -0.3288774 0.10061149 -0.1801993 -0.14188845 -0.15526947 -0.030291699 0.054307263 0.15627567 -0.17658125 -0.24944958 0.028883515 -0.20995145 0.3728503 0.12116809 -0.20683591 -0.13047925 0.14575799 -0.00597594 -0.09619462 0.21119724 0.17973673 0.453277 0.17727406 -0.09783434 0.41618317 -0.12640515 -0.10353005 -0.2784481 0.25775692 -0.2958844 0.1130661 0.124180354 -0.48527825 -0.3068087 0.22250408 0.2719193 -0.23043688 0.027950455 -0.29421437 0.03538825 -0.32234398 0.025957584 -0.0062071807 -0.31779182 -0.038240563 -0.013862719 0.017803038 -0.03212645 0.33967006 0.09457953 -0.22401185 0.015695013 0.1723123 -0.11127978 0.121850125 0.6334101 0.029686742 -0.22834992 0.11387997 -0.16621517 0.14681214 0.14130157 0.36408818 -0.38109383 0.52457494 -0.033575896 -0.2823889 -0.4378142 -0.08603869 -0.13754444 -0.121227704 0.045125734 0.027133552
2534 0.31088904 -0.050825484 0.36337617 -0.098370746 0.35350218 -0.08898764 -0.14660765 -0.33640927 0.022277715 0.14285871 0.11027322 -0.09942772 0.259286 0.026569072 0.29564762 -0.08993018 -0.45074162 0.042560887 0.28716984 0.27080506 -0.04959152 0.07464137 0.112270884 0.3026981 -0.06032008 0.20829506 0.09668783 0.12674467 0.010951652 -0.13180347 0.19387771 -0.0061699334 -0.10666703 -0.041228108 0.114069425 0.27365863 0.1896872 -0.04888603 0.028270248 0.16772273 -0.14839323 -0.22183165 -0.1280383 -0.0544515 0.10909031 0.08076716 0.12022779 -0.24082862 -0.038856484 -0.33414757 -0.075518385 -0.022623913 -0.123311795 0.20411807 0.18618666 -0.20348457 0.050823797 -0.23351152 0.11903193 0.066616386 -0.23873112 0.123239435 -0.32646912 -0.52254003 -0.46991682 -0.0781175 -0.32676724 0.24561298 -0.49586874 -0.37966883 0.09747184 0.19704567 -0.11575709 0.13651411 0.18161826 0.089129254 -0.03121976 -0.28652295 -0.060963906 0.29779652 -0.3403886 -0.2783723 -0.14590158 0.021574445 -0.22923814 -0.13728261 -0.05920614 0.034506746 0.3228755 0.04811079 -0.16458122 -0.21490729 -0.49192336 0.056365 0.10616333 0.07026084 -0.014517407 -0.0012050101 -0.11998051 -0.27164975 0.08642825 -0.17397594 -0.16663931 0.3693864 -0.028896512 0.27378768 0.15286864 0.15469253 -0.50222266 -0.09900609 -0.09056819 -0.085138336 -0.38989857 -0.17917627 -0.21748467 -0.10049989 -0.09969743 0.32470804 -0.123311445 0.05371733 0.16595043 0.035552543 -0.0012682194 0.046006877 -0.12301802 0.28174043 0.29750243 -0.2877414
10856 -0.1352898 -0.13168588 0.17187482 0.15258084 -0.08330184 -0.19288285 -0.20616575 -0.091872565 -0.03235145 0.19574592 -0.015483258 0.010412251 0.35615763 -0.06442844 0.060681667 -0.0024429236 0.26680505 -0.1040884 0.14640342 0.08801178 -0.4342685 0.1564308 -0.103970855 0.24938664 -0.23365057 -0.08811335 0.08670733 -0.028138744 0.39968497 0.22901171 0.01639658 0.5241055 -0.057555515 -0.076323844 0.25589857 0.23482123 0.37854034 0.105112776 -0.11206729 -0.20164658 0.04120925 -0.1640119 -0.06463392 -0.07814599 -0.30956972 -0.02110219 0.22484694 0.25237244 -0.010593969 -0.06966919 -0.120607495 -0.13378428 -0.19964321 -0.15408415 0.2485215 -0.23219226 -0.3051992 0.20856375 -0.35218263 0.18592243 -0.30114815 0.05694437 0.16272515 -0.2796705 -0.040393632 -0.07768024 -0.02355869 -0.2859399 -0.015311712 -0.016142773 -0.0085885385 0.15082277 0.005087137 0.13810307 0.19053616 -0.021079253 0.3232426 0.0052590272 -0.0788003 -0.009158743 -0.10299837 -0.27771297 -0.023387464 0.22341517 -0.4484763 -0.007211661 -0.15187606 -0.08640964 -0.15019801 -0.002857977 0.15962628 -0.32664877 0.23246588 0.20180298 -0.25335982 -0.16320002 0.2029877 -0.1412126 0.21477476 0.06301284 -0.05433458 -0.48484954 0.07030284 0.51316816 -0.1420418 -0.23144159 -0.06681654 0.02265687 -0.1462035 -0.037794538 -0.08905948 -0.23847023 -0.25349605 -0.076951094 -0.14924525 0.23600185 0.31497493 0.14796323 -0.34751862 0.26629728 0.11169123 0.29052123 -0.0379869 -0.07654284 0.14481702 0.04899871 0.0529628 0.19381718
801 -0.05385196 0.36497185 0.099641286 0.503711 0.13392834 -0.062460996 -0.14420557 -0.11431918 -0.2779896 -0.04522587 0.23622313 0.084366955 0.14925015 -0.002455727 0.25749746 -0.2964559 0.24198642 -0.0133360345 0.345772 0.06607306 0.042071216 0.41671863 0.2121361 -0.121460564 -0.018881395 -0.07064184 -0.22407635 0.1053382 0.27163994 0.31084695 -0.008905595 -0.0023750497 0.1562341 0.024206888 0.009262551 0.02894999 -0.26870897 -0.08432689 -0.0049756253 0.12468703 -0.1587089 -0.32304183 -0.15021531 -0.1822865 0.078780256 0.13133009 0.28355178 -0.254102 -0.3809143 -0.0985472 -0.011149653 -0.60063314 -0.1556675 0.2317187 0.3303486 -0.2638059 0.06301422 0.053849068 -0.109414555 -0.11669596 0.032543883 0.324207 0.20365427 -0.38853714 -0.19177985 -0.33158955 -0.2417582 -0.21496873 0.06038643 -0.14339682 0.39982763 0.010663411 0.33329797 -0.073399544 0.50366485 -0.044505194 0.027927626 0.0770485 0.03836043 -0.2542943 -0.015284138 -0.04823366 -0.23320533 -0.12317686 -0.15400423 0.2628456 -0.24234214 -0.08306234 0.019810503 -0.06573052 -0.00877011 -0.10588088 -0.072209135 0.24764268 -0.3870575 -0.6370035 -0.28705168 -0.53142524 -0.15096277 0.17851566 -0.16440682 -0.040638324 0.29409832 0.29175103 0.06820413 -0.11257428 -0.20595117 0.030086612 -0.1187977 -0.15389043 0.06436074 -0.2675892 -0.37082443 0.34717125 0.106715195 -0.33773792 -0.10625228 0.28425774 -0.49101567 -0.008220158 0.21550137 0.28647816 -0.15129796 0.010847783 0.04085619 0.116824165 0.055113666 0.07577565
6774 0.3961069 0.075031735 0.3164516 0.23107292 0.24128224 -0.09356918 -0.3429015 0.2040588 0.10594845 0.33477688 0.061507437 0.24732934 0.14010534 0.2198495 0.13751213 -0.4826942 -0.40937316 -0.30990386 0.2832745 0.24412765 -0.014588327 0.42725828 -0.012072466 0.13772602 0.071653016 0.099712744 -0.031243376 0.28188527 0.25521946 0.08343651 0.11979782 -0.38023576 0.04953645 0.14001991 -0.31292742 -0.1368054 0.14689969 -0.09695676 0.38392973 0.20129769 -0.2671418 0.029511163 0.11189747 0.2733402 -0.138621 -0.05423619 -0.035668906 0.108917326 0.12672818 -0.12775865 0.061628606 0.022875406 -0.27704918 0.12478139 0.21258478 -0.34496284 -0.39040595 0.13672423 0.015955102 0.11372559 0.07779401 0.05611169 -0.22468919 -0.40265355 -0.10794844 -0.42207783 -8.0157406e-05 0.11737853 -0.08020757 -0.15693429 0.085467905 -0.064133845 -0.19953857 -0.1327794 0.1496209 -0.21572408 0.023025017 -0.38667274 0.103046164 -0.07644131 -0.165133 -0.2661513 0.2350883 0.14944147 -0.13003643 -0.14713669 -0.42301935 -0.14086938 -0.048164494 -0.078312956 0.15081212 -0.33201763 0.08724908 0.03079196 0.27635232 -0.36054197 -0.06266112 0.06588298 0.13439278 -0.102392614 0.10043189 -0.25684053 0.016037129 0.36802712 -0.03641793 0.19314511 0.2560257 0.2451144 -0.15957326 -0.14997646 -0.21775106 0.040690783 -0.16590402 0.015723126 -0.17205533 -0.06815624 -0.005020819 0.22400622 0.17295596 0.177715 -0.033054627 0.43387514 0.1956918 0.022453487 0.17634192 0.24248526 -0.37332144 0.13121024
7132 0.09850446 0.4032127 -0.12014347 0.10853916 0.09017446 0.20548989 -0.19322418 -0.41699508 0.25811753 0.0777998 -0.012047467 -0.2082077 0.28125802 0.47357818 0.37598392 -0.050191667 -0.26799908 -0.09199083 0.1314542 0.08462527 -0.19071437 0.34568623 -0.074300796 0.3739133 -0.05413357 -0.2429754 -0.045366175 0.10834389 -0.06948307 -0.051749635 0.05403062 0.18383808 0.03437255 -0.27347136 0.288842 -0.041709177 -0.20298618 -0.23246467 -0.021080822 -0.10699684 -0.04281976 -0.28253296 0.4116792 -0.14001773 0.38593715 0.33825654 -0.3089738 -0.20902717 -0.076912604 0.07399451 -0.067183174 0.08317927 -0.5169396 -0.17000851 0.14043085 0.058256052 0.36484915 0.09633818 -0.07504253 0.28510922 -0.34219787 0.00854317 -0.11525846 0.027486363 -0.29245338 -0.12872317 0.07268213 0.2506659 -0.2526596 -0.3519323 -0.10691761 0.5747695 -0.15471378 0.4418674 0.4635682 0.20348048 0.13969201 -0.010709973 -0.09502282 -0.084823534 -0.11464977 -0.038000066 0.09309721 0.18460838 -0.036922686 0.31382856 -0.054059394 -0.1773535 -0.037348393 -0.19150218 0.257389 -0.057158403 0.13030605 0.16259868 0.3637893 -0.2161787 -0.15914074 -0.029313494 0.085547514 -0.007405233 -0.122481644 -0.23053718 0.05847854 0.0037232945 0.3116389 -0.048024915 0.23132885 0.10273838 0.008591753 -0.25057504 0.05734068 0.012102633 -0.49712405 0.2611549 0.3087547 0.08124426 0.15277931 0.31430626 -0.05959741 0.2538634 0.117225304 -0.098278254 -0.14151695 0.24561913 -0.14374273 0.16429561 -0.034388106 -0.2511517
5925 -0.07266205 0.10367366 0.27140036 0.08029925 -0.04020018 -0.252078 0.13911974 -0.22673146 0.11316718 -0.12043675 -0.025192793 0.31559855 0.030143417 0.24789894 0.2398157 0.069610655 -0.025249436 0.13061018 0.039113283 0.10213012 -0.23669356 -0.060927738 -0.12097611 -0.020047901 0.01174977 -0.0064546717 0.05247756 -0.07451466 0.31998104 -0.189851 0.053767134 -0.10880298 0.3045459 -0.08971604 0.095962696 0.26781029 -0.32032627 0.10005196 -0.081893645 0.1520237 0.21924703 0.14175545 -0.11460528 0.113587625 -0.09625431 -0.106693596 -0.060173206 0.030493855 0.057465777 0.21105383 -0.02558337 -0.38067874 -0.04093872 0.01748469 -0.24544656 -0.27283502 -0.20752421 -0.23606397 0.17319655 -0.030135557 -0.07594245 0.1158981 0.129716 -0.6522068 0.0254579 -0.1845282 -0.10054187 0.058890134 -0.33221555 0.06584568 -0.09565905 -0.09586614 -0.0087279035 -0.05559323 0.089599505 -0.017366981 0.15589942 -0.013485856 0.0015064065 0.11142099 -0.19404817 0.120348066 0.10586971 0.21895282 -0.030593049 0.120683275 -0.1798558 -0.083454646 0.4777813 0.26189286 -0.3726869 -0.3781382 0.16248293 -0.33744684 -0.06554423 -0.09622969 0.09337336 0.08027854 -0.29805744 0.046481304 -0.17649506 -0.39021626 0.031729415 0.14898834 -0.14570293 0.033306748 0.29805952 0.3266675 0.045054328 -0.1921412 0.048318792 -0.017649809 -0.49480835 0.08483198 0.1771032 0.14878552 0.21242593 0.26927134 -0.16770662 0.5141246 0.20055328 0.33829087 -0.29978785 0.052070297 0.08537748 0.35335952 -0.1080391 -0.37553194
4790 0.08191351 0.15552251 0.030148251 0.03543357 -0.05003893 0.15386909 -0.16850029 -0.2058217 -0.23904724 -0.18730488 0.07403663 0.12321193 0.20040251 -0.10676242 -0.055945423 -0.49099043 -0.26774928 -0.060306985 0.059799325 0.077269726 -0.35679808 0.076564275 -0.0061100284 -0.014060007 -0.15002052 -0.09784738 0.28729254 -0.16349351 0.04801925 -0.19406602 -0.11993347 -0.02308473 -0.08545954 -0.2485271 -0.067797385 -0.010414557 0.08757633 0.10288865 -0.023704294 -0.10573944 -0.15775974 -0.023924451 0.07541738 0.08401692 -0.26126078 -0.094262086 -0.08039989 -0.28511494 -0.22560474 -0.14869322 0.039692 -0.47825664 -0.18600123 -0.11176765 0.016313149 -0.25684255 -0.021105992 -0.06294309 -0.45005697 -0.044121463 0.027844645 -0.09933948 -0.04277934 -0.4135021 -0.25398558 -0.39278525 -0.08500154 0.15799463 -0.010993822 -0.4507683 0.2490244 0.07321798 -0.09485836 0.21462248 0.24211723 0.033006094 -0.018537974 -0.29017666 -0.14885664 0.38810316 -0.0074736257 0.17086744 -0.0046878695 0.20285875 0.070708565 0.111062996 -0.3968055 -0.12052298 -0.15800233 -0.14913176 0.28993434 0.06365216 0.19971938 0.21619846 -0.028421726 0.10598669 -0.3198639 -0.12409546 -0.076756425 -0.20714362 -0.14715384 -0.33183157 -0.11117429 0.42530733 0.00833041 -0.020014059 0.051439017 0.19072977 -0.16985582 -0.2715223 0.14848994 0.22279543 -0.065262094 0.14146961 -0.0956413 0.3450284 0.27685997 -0.03231604 -0.07132805 0.19494961 -0.20322426 0.19044806 -0.1615878 0.19586697 -0.019472742 0.2815699 -0.26587442 -0.21544102
8945 0.18210925 -0.48857424 0.047828924 0.039862804 -0.12438726 0.016983321 -0.40588096 -0.37355757 -0.090188555 0.010196908 0.28517282 -0.09057843 0.30209062 0.085539654 0.1519125 -0.059296757 -0.16349952 0.09242525 0.20037726 0.3202245 -0.030208481 0.12530884 -0.12401377 0.28978166 0.106927566 -0.06592876 0.408886 0.03273148 0.4562609 -0.10456937 -0.020850573 -0.02018476 0.07075973 -0.085459046 0.14510459 -0.014219102 -0.015824389 0.17029263 0.030202784 -0.045749266 -0.012228231 -0.00975064 0.4556124 -0.064460956 -0.1800122 0.022870546 0.239836 0.056442477 0.5003948 0.34022427 0.13379432 -0.14826278 0.010167698 -0.30666173 -0.18620864 0.04970847 -0.14070196 -0.10403554 0.042894427 -0.05786471 -0.017194046 0.2844829 0.28552452 -0.25174823 -0.0017368795 -0.41236985 0.00091527344 0.022188824 -0.23895381 -0.420096 0.41574246 0.11983276 0.40389886 -0.26207894 0.25438836 0.22813609 0.36370015 0.09353365 0.084481835 0.11103488 -0.42102507 -0.35478574 -0.14378978 -0.14363247 0.028918602 -0.16699818 -0.092090555 -0.12162392 0.18960476 -0.085179925 -0.06799322 0.09487237 -0.0140319625 -0.055339985 -0.14748667 -0.12595418 -0.26461908 0.25764376 -0.2933676 0.310103 0.26939544 -0.24636906 -0.4194742 0.22486903 0.2375923 -0.52095485 -0.17055827 0.048502523 -0.18456022 0.11532963 0.18768631 -0.07013691 -0.08897037 -0.012491673 -0.008108847 0.03913935 0.4148119 0.055552047 -0.025484154 0.04922399 0.30922985 0.17270939 -0.17782614 -0.10046944 0.023430988 0.10221942 -0.29897276 -0.09607645
6597 -0.044713918 0.12637743 -0.04315734 0.17318615 -0.0016248807 0.04651865 0.03126892 -0.26661676 0.22676003 -0.1466727 -0.10800501 0.00096791866 0.019028457 -0.059906755 0.036338776 -0.23787804 -0.122936696 -0.29923615 0.09288874 0.05038051 -0.26586068 0.09763627 0.18630981 0.13865894 -0.08012593 0.09083014 -0.14446595 0.23659293 0.46371982 0.11271707 0.031763006 -0.22078942 0.1790419 -0.110672496 0.010840318 0.15537226 -0.18158424 -0.22412494 -0.0807962 0.07529381 -0.114618845 -0.32177895 -0.044825424 0.29996607 -0.5145326 0.06679835 -0.4952716 0.2638737 0.079836674 0.26417893 -0.028292352 -0.38005307 -0.16548243 -0.11879588 0.0070692296 -0.10812436 0.00081409916 0.16063553 -0.080010034 0.09558323 -0.058939986 0.057798706 0.07402549 -0.19232693 0.12446886 -0.26563329 0.082716085 0.088337205 -0.33255374 -0.62726665 0.04410006 0.04351479 0.064778544 0.06904031 0.2889994 -0.14490288 0.41048333 -0.28193715 0.07790917 -0.08251769 -0.23341872 0.13002606 0.056322504 0.28285685 -0.27823696 -0.17228085 -0.27211547 -0.031708654 0.0058561107 0.09540736 0.1689352 -0.1709677 -0.091781415 -0.34599984 -0.012062843 -0.039553378 0.03755996 0.11149792 0.19940066 -0.10577606 -0.046985354 -0.4513646 -0.2151475 0.3100067 -0.072443224 -0.091271035 -0.23859021 0.13228059 -0.018360713 -0.200317 0.15562677 0.22544016 -0.02678635 -0.13559665 -0.10132528 -0.023441669 0.23857805 0.190572 0.06094865 0.09689363 0.038572486 0.516172 0.11645001 -0.07064737 -0.27435076 0.38933238 0.071200535 0.38659504
3315 -0.061514337 -0.4741296 0.0368975 0.30140185 -0.36842573 0.0692575 -0.31220216 -0.49358457 -0.32302395 0.5248234 0.21464598 0.21314424 0.27669954 0.20384711 0.24997967 -0.25385284 -0.04013592 0.14001408 0.16281638 -0.059953537 -0.044494674 -0.411315 -0.0027206982 -0.00032459394 -0.25401556 -0.31241405 0.10971592 -0.022491436 0.31567177 0.18249576 0.30793938 -0.0916517 0.030535653 0.18502374 0.050960485 -0.34433514 -0.335648 -0.35200533 0.007211619 0.22578897 -0.26384425 0.024723547 0.019711252 0.013097105 0.015035327 0.09262324 -0.09711455 -0.22227609 0.17247832 0.11818587 -0.07662533 -0.35507756 -0.2048195 0.36346635 0.33822504 -0.30923215 -0.1803146 -0.08741518 0.012746569 0.16165908 -0.30068475 0.16802023 0.09482248 -0.13726047 0.37859687 -0.21184246 0.25663027 0.48334733 0.11405682 -0.3257096 -0.12703146 0.30379272 0.119033955 -0.069059394 -0.077438936 -0.15831706 0.26637936 -0.38376454 -0.062929384 0.18622579 -0.23366708 0.21643618 -0.06585525 0.23186962 -0.22918998 -0.097023 -0.08104063 -0.23005089 -0.18648803 0.06486264 0.230198 0.19376595 0.48194763 -0.086084336 -0.43399605 0.14086069 -0.038718022 0.1303872 -0.12443411 0.14340961 0.15830623 -0.12547468 0.11869654 0.36370933 -0.052950818 -0.077756464 0.062195368 0.36740097 -0.23822764 0.10948382 0.22417131 -0.26561555 -0.16686296 -0.001426467 0.14476639 0.15009682 0.028231138 0.18689638 0.119765185 0.100754835 0.12061866 -0.047179293 -0.123490036 -0.039684262 -0.10406099 -0.0871131 -0.11326897 0.039691698
408 -0.17295533 0.49536973 0.18040468 0.04623376 0.0272663 -0.04829503 -0.11453123 -0.50485885 0.16560762 0.06629966 0.24064425 0.2627969 0.1764898 0.036703177 -0.13044651 0.02556988 -0.0892483 -0.007859479 0.09034376 0.013942719 -0.12702048 -0.046587937 0.21562663 0.12830487 -0.30783838 -0.29723656 0.25465593 0.10805397 0.015465406 -0.030484868 -0.22987315 -0.010970498 0.1341367 -0.34771734 0.15085483 -0.2011894 -0.16009165 0.031326838 0.114690006 -0.15644097 -0.06279217 -0.11215475 0.27902788 -0.008200352 -0.06661875 -0.027452013 0.05705779 -0.24850902 -0.1505607 0.2672208 0.04136798 -0.04569631 -0.25355348 -0.10303958 0.32118368 -0.15102126 -0.21079092 -0.28171095 0.17031206 -0.040688735 -0.27345037 -0.032877397 -0.00010949118 0.092614435 -0.036905214 -0.056720052 -0.103538625 -0.15951982 0.015024095 -0.43253013 -0.32901347 -0.23293938 -0.09167911 0.37238553 0.48112875 -0.10160871 0.22927663 -0.20702726 -0.09285481 0.016565526 0.0977228 -0.044058256 -0.5274697 0.3450776 -0.46793157 -0.15218405 -0.12673758 -0.03830132 -0.09109888 -0.034825217 0.06800403 0.09314428 -0.38069776 -0.0703646 0.02314254 -0.10831971 -0.40748775 -0.2005825 -0.2970224 0.06584832 0.11958598 -0.15476601 -0.121393144 0.26347893 0.3220695 -0.038660176 0.046806138 0.19815654 -0.16730963 -0.23526455 -0.0032906102 -0.21676949 -0.39403793 -0.32729036 0.31797802 0.027644733 0.019333566 0.15418479 -0.014719719 0.2718127 0.2721246 0.11457895 -0.016708624 0.19738272 0.059088234 -0.103237934 -0.16788326 0.17880481
2316 0.2892018 0.24412335 0.18658602 0.021367462 0.055391405 -0.035125647 0.17850994 -0.18265079 -0.113304056 -0.15576991 0.2598374 0.06093291 -0.062065843 0.2780059 0.20736472 -0.17090672 -0.22918448 0.132266 0.6130174 0.035655525 -0.06899128 -0.010153326 -0.025853613 0.07004352 0.37058827 -0.038774144 0.27601156 -0.02347634 0.12802431 0.2646038 0.23320605 0.09244189 0.14404798 -0.13406397 -0.10877906 0.31827217 -0.14679715 -0.032058824 0.084412105 0.048240747 -0.005037534 -0.27548498 -0.027693307 -0.21078698 0.041338723 0.15338783 -0.2600702 -0.22441177 -0.060011916 0.28551462 -0.049198728 -0.26570657 -0.14227939 0.021829037 0.15043847 -0.19365638 -0.100734815 0.037021235 -0.029304 -0.22731222 -0.033004235 0.09416653 0.06631509 -0.2699561 0.22473912 -0.20939057 0.01747895 -0.2382042 -0.22907625 -0.12029554 0.10164618 -0.23933488 0.19200084 -0.2094836 0.2654871 -0.03918837 0.09959722 0.076896824 -0.11622201 0.26132298 0.05165988 -0.25867495 -0.4001517 0.21002169 -0.40935943 0.20531842 -0.12596634 0.2159532 -0.34369665 0.07158954 0.1302272 0.123303905 -0.21245681 0.38594717 -0.14003186 0.088812485 -0.17769103 0.089030854 -0.1603938 0.085339755 -0.031177165 -0.15887149 -0.1339851 0.1388922 -0.00086797855 -0.05841519 0.02367998 0.032458525 -0.4400292 -0.45904413 0.105720714 -0.18567851 0.07392444 -0.094772324 -0.33646637 0.089947425 -0.042266183 0.61502945 -0.30853775 0.27854276 0.14260574 -0.24668357 -0.25398347 0.22968349 -0.15582618 0.0030752097 0.14920434 -0.2491272
4691 -0.057121452 0.13844195 -0.10241224 0.17198914 0.10978605 0.2674038 -0.17506182 -0.03983786 -0.03489365 -0.06546921 0.057566896 -0.0008369853 0.16045806 -0.038357954 -0.16514228 0.047815286 0.09410355 0.17438866 0.50434345 -0.09062764 -0.37785348 0.08344837 0.22549108 0.17645167 -0.04029942 0.051562615 -0.10679783 -0.08515898 0.22024791 0.16900796 0.019474795 0.2701162 0.5011543 -0.0061173625 -0.005198699 0.29602897 -0.287413 0.5168841 0.0072246217 0.17859189 -0.17106946 0.20947047 -0.1429342 0.16194223 -0.12611036 0.044202413 -0.18501362 0.08654234 -0.25284833 0.34047294 -0.13517871 -0.17731921 -0.08311402 -0.109045036 -0.1258388 -0.073412634 -0.2007867 -0.32548422 -0.21674643 0.25157225 -0.5288433 0.09186201 -0.020281527 -0.014487278 0.047018062 0.09286902 -0.045844097 -0.24562474 -0.09397979 0.034683093 0.023960857 0.146818 -0.08009557 0.019070351 0.22598816 -0.061789446 0.16783388 -0.38954592 0.09357098 0.21520498 -0.23423599 0.15211049 -0.055251196 0.15726277 -0.0679609 -0.09069107 0.16395415 -0.25967318 -0.21894392 0.042145643 0.10934526 -0.09900498 0.15721782 0.014135995 -0.2370174 -0.20024873 -0.100364745 0.24152641 -0.2227986 -0.20518287 0.19541164 -0.08688009 0.09778726 0.2221051 -0.0010676412 0.09602193 -0.13755092 0.14637771 -0.25525323 -0.2525713 -0.22722788 0.04567543 -0.31435695 -0.0319414 0.027201282 0.24671037 0.081065945 0.37157243 -0.2950597 0.3751334 0.21700077 0.21967043 0.00856881 0.16820152 0.055168062 0.034871392 -0.21414168 -0.12864953
5371 -0.07422954 0.14394984 0.35210812 0.3320278 -0.022773638 0.40862897 0.038784508 -0.25854594 0.05309999 0.17721207 0.06129202 0.2317533 0.16460244 0.08186291 0.19558047 0.039759133 0.06482665 0.0036068596 0.4191673 0.16540864 -0.039162047 0.08421747 0.067312226 0.21935408 -0.24708565 -0.09816978 -0.24763401 0.032600876 0.12291173 0.1151575 -0.09931925 -0.084513 -0.25699177 0.036634274 0.12947005 0.19718687 -0.21487866 -0.17180586 0.19516547 -0.060941566 -0.30938956 -0.015362068 -0.04122198 -0.070523955 -0.47771102 0.09149068 -0.12966385 0.06449269 0.08176191 0.17787442 0.28379783 -0.35992068 -0.32272837 -0.02534879 0.005293601 0.13662171 -0.15035863 0.026079565 0.11547655 -0.031765122 0.02449661 0.14647634 0.21630742 -0.54002774 -0.15624353 -0.17794594 -0.07848976 -0.13645895 -0.09970774 0.09682199 -0.24860044 -0.04384345 -0.019499699 -0.17351805 -0.006613757 0.22175226 -0.07620076 0.13627717 -0.088574745 0.17256741 -0.20548831 -0.31449056 0.062328756 0.040785838 -0.15581524 0.114549115 -0.56981105 -0.22431259 0.13926648 0.3365426 0.1730761 -0.13147786 0.32777137 -0.20499519 -0.08188262 0.11173286 -0.43454003 -0.10690965 -0.1820842 -0.1708471 -0.116878755 -0.21909094 0.2480369 -0.0019940734 0.019944461 -0.033195455 -0.05440803 -0.13780136 0.0009497307 0.09765451 -0.061007615 0.2617478 -0.19645503 -0.23068811 -0.16581477 0.14408271 0.19237307 0.14913806 0.039124552 0.17415771 0.010386648 0.10097673 -0.24706155 0.14004658 -0.41213334 0.111507505 -0.11118804 -0.044026025
