data_edgelists_mast_cell.edgelist__351 0.047140 0.299953 0.028395 -0.097085 -0.117007 -0.146271 -0.004559 0.148590 0.098473 0.138857 -0.037578 -0.092154 0.117824 -0.182460 0.120659 0.183635 -0.100331 -0.087568 -0.038080 -0.204346 0.156536 -0.167186 0.196975 0.186246 -0.130592 -0.052262 0.281013 0.355941 -0.005999 0.076402 -0.037632 -0.134125 0.132380 -0.048111 -0.008218 0.146571 0.014791 0.092279 0.146145 -0.069380 -0.349214 0.046261 -0.236233 -0.139184 0.028897 0.009739 -0.204579 -0.003673 -0.217202 -0.364257 0.178347 -0.151659 -0.009010 0.001630 -0.022139 -0.013665 -0.079229 0.207208 0.090065 0.200704 -0.071044 0.292640 -0.073754 0.142596 0.158425 -0.038253 -0.096371 0.047375 -0.021679 -0.183390 0.011628 0.051113 -0.179324 -0.128789 -0.030476 -0.038748 0.076243 -0.344608 0.076253 -0.111787 -0.071702 0.052135 -0.060259 -0.202081 -0.101142 -0.150623 0.053095 -0.083453 -0.169892 -0.142530 0.386533 0.152445 -0.063636 -0.170115 -0.230495 -0.018316 -0.097448 0.022197 0.024988 0.126649 0.049866 -0.033425 0.097464 -0.059782 0.009979 -0.194673 0.104737 0.064585 0.171958 0.180437 -0.001446 -0.068048 -0.133579 0.047402 0.233661 -0.084696 0.111188 -0.095691 -0.229003 0.219986 0.009999 0.046764 0.039611 0.023462 -0.253014 -0.073218 0.219441 0.036374
data_edgelists_mast_cell.edgelist__7157 0.059537 0.344038 0.031103 -0.110951 -0.136642 -0.174632 -0.005109 0.163632 0.110829 0.159964 -0.048514 -0.107701 0.130448 -0.199536 0.134772 0.209118 -0.123278 -0.094833 -0.050675 -0.230995 0.177598 -0.199766 0.227028 0.220432 -0.151798 -0.058228 0.324868 0.407749 -0.002818 0.086679 -0.033661 -0.152470 0.153676 -0.060640 0.000659 0.159164 0.017863 0.105662 0.171329 -0.070278 -0.404274 0.048108 -0.266574 -0.157620 0.031028 0.011799 -0.234335 -0.003092 -0.240878 -0.415998 0.206508 -0.166960 -0.019685 -0.001368 -0.024700 -0.015869 -0.087245 0.239060 0.097620 0.232323 -0.072981 0.328714 -0.090377 0.165299 0.183571 -0.041272 -0.109797 0.052820 -0.030422 -0.208278 0.018853 0.054923 -0.202852 -0.139615 -0.042228 -0.043824 0.083788 -0.391197 0.081776 -0.128571 -0.085151 0.055271 -0.074325 -0.242528 -0.120996 -0.183874 0.061507 -0.090696 -0.205777 -0.161589 0.441983 0.173203 -0.077520 -0.190566 -0.264776 -0.024781 -0.106300 0.029124 0.030421 0.148006 0.059828 -0.031129 0.111814 -0.081794 0.013323 -0.220862 0.119115 0.074236 0.207862 0.208659 0.006908 -0.076050 -0.144004 0.057102 0.268292 -0.104620 0.129896 -0.114435 -0.267054 0.260969 0.009156 0.052430 0.036581 0.020338 -0.286701 -0.069159 0.240134 0.040501
data_edgelists_mast_cell.edgelist__2885 0.056088 0.330494 0.028892 -0.100043 -0.127244 -0.161702 -0.007224 0.157038 0.102858 0.155529 -0.043203 -0.103078 0.126781 -0.188678 0.131481 0.201715 -0.116864 -0.091900 -0.049255 -0.221944 0.166475 -0.195380 0.213239 0.210676 -0.149859 -0.055251 0.314455 0.391710 -0.004753 0.080893 -0.032925 -0.145687 0.150405 -0.054836 0.000561 0.157575 0.014799 0.105268 0.163330 -0.068625 -0.392530 0.048360 -0.254146 -0.151813 0.029985 0.013846 -0.227659 -0.004647 -0.232644 -0.398118 0.198781 -0.161706 -0.021620 -0.002331 -0.027929 -0.008913 -0.078078 0.227808 0.095920 0.223891 -0.075769 0.315995 -0.086873 0.160171 0.174476 -0.040540 -0.109235 0.052167 -0.030596 -0.198650 0.017486 0.055061 -0.195326 -0.135498 -0.039828 -0.044639 0.082853 -0.377263 0.081106 -0.124294 -0.083429 0.052639 -0.070948 -0.236095 -0.112366 -0.177081 0.054509 -0.087034 -0.196549 -0.156433 0.429243 0.165431 -0.074328 -0.182574 -0.251832 -0.020677 -0.099797 0.027761 0.027281 0.139317 0.058063 -0.025638 0.107244 -0.081318 0.008404 -0.216590 0.111673 0.069662 0.199978 0.202571 0.003612 -0.073131 -0.140484 0.056191 0.256429 -0.097875 0.124946 -0.108493 -0.259675 0.252964 0.012483 0.048259 0.036216 0.015770 -0.273318 -0.068220 0.227817 0.038289
data_edgelists_mast_cell.edgelist__1956 0.058682 0.331186 0.029294 -0.099411 -0.129791 -0.167489 -0.010371 0.153949 0.097600 0.161029 -0.040501 -0.105530 0.126283 -0.187824 0.131965 0.199818 -0.122567 -0.089514 -0.049142 -0.220374 0.168264 -0.196534 0.213769 0.211013 -0.152335 -0.059415 0.315329 0.393610 0.000398 0.082978 -0.029029 -0.142269 0.149112 -0.054617 0.001671 0.155016 0.014810 0.110588 0.164274 -0.065547 -0.399220 0.042269 -0.255268 -0.152072 0.028443 0.013526 -0.230431 0.000201 -0.234272 -0.401503 0.199822 -0.161793 -0.022516 -0.004865 -0.025354 -0.008219 -0.080895 0.231518 0.092170 0.226244 -0.071264 0.316032 -0.089308 0.160175 0.179771 -0.041150 -0.108821 0.050063 -0.030221 -0.203208 0.016900 0.053670 -0.195206 -0.132988 -0.042885 -0.044276 0.079409 -0.378630 0.081060 -0.124530 -0.082183 0.052295 -0.072738 -0.242318 -0.112665 -0.180305 0.057114 -0.086633 -0.201439 -0.157189 0.431000 0.164013 -0.074470 -0.182719 -0.255011 -0.022085 -0.102765 0.026554 0.028188 0.144212 0.059127 -0.023279 0.106586 -0.086796 0.010883 -0.215481 0.111717 0.067609 0.206688 0.206053 0.005745 -0.072164 -0.140003 0.056519 0.255977 -0.099720 0.121869 -0.108518 -0.261895 0.258848 0.011597 0.050430 0.029321 0.015919 -0.271860 -0.064451 0.225169 0.038178
data_edgelists_mast_cell.edgelist__3065 0.053469 0.312491 0.026813 -0.107818 -0.128387 -0.156104 -0.002825 0.146376 0.108603 0.145363 -0.044196 -0.096644 0.118994 -0.183172 0.118694 0.190640 -0.109934 -0.087860 -0.043163 -0.205133 0.163006 -0.181891 0.205290 0.200482 -0.134991 -0.056948 0.294542 0.373097 -0.002871 0.074645 -0.033959 -0.134824 0.136503 -0.055351 0.000528 0.142327 0.018803 0.097917 0.149987 -0.068296 -0.366007 0.041206 -0.244176 -0.142539 0.024971 0.010399 -0.207890 -0.003063 -0.217858 -0.375620 0.186604 -0.151399 -0.013043 -0.000493 -0.018975 -0.014069 -0.077791 0.216578 0.088211 0.214673 -0.063519 0.294667 -0.076487 0.148886 0.166264 -0.035963 -0.100308 0.045775 -0.029462 -0.189017 0.014845 0.051154 -0.188805 -0.123397 -0.038564 -0.038653 0.076564 -0.350533 0.070743 -0.115759 -0.078083 0.055781 -0.067007 -0.216563 -0.113531 -0.170628 0.055594 -0.083803 -0.184363 -0.144185 0.398233 0.158463 -0.071443 -0.173019 -0.237062 -0.023985 -0.096798 0.019867 0.027771 0.130849 0.052836 -0.024163 0.098167 -0.073725 0.013632 -0.196090 0.106043 0.073347 0.189584 0.191408 0.004490 -0.060573 -0.134506 0.055386 0.241626 -0.087908 0.118564 -0.103802 -0.244296 0.238056 0.004089 0.052201 0.032837 0.016219 -0.261763 -0.060084 0.212624 0.040856
data_edgelists_mast_cell.edgelist__6714 0.058435 0.332503 0.030827 -0.103160 -0.131303 -0.168755 -0.005380 0.153104 0.106316 0.160578 -0.046782 -0.106276 0.128150 -0.187271 0.128542 0.202072 -0.120963 -0.093204 -0.050249 -0.221788 0.168469 -0.195039 0.214387 0.212575 -0.152608 -0.056776 0.318572 0.398051 -0.004432 0.082395 -0.030549 -0.145535 0.149572 -0.058440 -0.000477 0.155320 0.015755 0.105062 0.165804 -0.069782 -0.398562 0.043623 -0.255665 -0.150150 0.029909 0.015505 -0.226932 -0.001824 -0.231290 -0.401949 0.200685 -0.161452 -0.019109 -0.003237 -0.021991 -0.010341 -0.082142 0.229322 0.092322 0.228939 -0.072667 0.316526 -0.090091 0.160812 0.178765 -0.039098 -0.108415 0.050822 -0.030326 -0.200573 0.017711 0.052288 -0.196142 -0.132436 -0.042273 -0.041887 0.081885 -0.378220 0.080575 -0.125438 -0.084515 0.053262 -0.068346 -0.240693 -0.117549 -0.184283 0.057683 -0.087150 -0.202180 -0.154663 0.432525 0.167503 -0.075334 -0.183097 -0.254798 -0.023628 -0.102544 0.026811 0.027605 0.141022 0.058714 -0.022394 0.107761 -0.086489 0.008601 -0.216857 0.113386 0.071260 0.205719 0.204926 0.005827 -0.071574 -0.142443 0.057639 0.258322 -0.101397 0.125165 -0.109938 -0.262713 0.257624 0.012164 0.051260 0.032271 0.011594 -0.275059 -0.061371 0.227626 0.038094
data_edgelists_mast_cell.edgelist__6667 0.054106 0.315967 0.030057 -0.105042 -0.128075 -0.157805 -0.005317 0.147983 0.105605 0.151376 -0.043024 -0.097341 0.121283 -0.183997 0.121057 0.190301 -0.114622 -0.088587 -0.046609 -0.208106 0.164159 -0.186626 0.205857 0.201508 -0.138325 -0.056500 0.299117 0.380273 -0.003873 0.076886 -0.037789 -0.135180 0.140590 -0.053577 -0.002086 0.146547 0.016846 0.101303 0.151473 -0.069981 -0.376412 0.043271 -0.246388 -0.144656 0.027148 0.015130 -0.212698 -0.002394 -0.220181 -0.381134 0.189630 -0.154428 -0.015437 -0.000236 -0.021225 -0.009950 -0.078731 0.217173 0.090682 0.214911 -0.069139 0.301578 -0.081564 0.153096 0.168213 -0.035793 -0.103938 0.048474 -0.028263 -0.192838 0.014125 0.050993 -0.192675 -0.126952 -0.039297 -0.040396 0.077973 -0.357052 0.074907 -0.117907 -0.076361 0.053262 -0.066536 -0.226047 -0.111602 -0.171917 0.056368 -0.082962 -0.188142 -0.147991 0.409519 0.160560 -0.073026 -0.172909 -0.241001 -0.021893 -0.097980 0.023916 0.027869 0.131320 0.054489 -0.023267 0.099273 -0.074030 0.009929 -0.200356 0.107147 0.070451 0.190915 0.195048 0.001659 -0.064769 -0.136363 0.057174 0.244550 -0.088920 0.121059 -0.105108 -0.248190 0.241854 0.005619 0.050015 0.031247 0.013466 -0.264954 -0.061601 0.215384 0.040137
data_edgelists_mast_cell.edgelist__2335 0.053200 0.315783 0.028612 -0.102854 -0.125913 -0.156442 -0.005274 0.143553 0.105547 0.153485 -0.040824 -0.098554 0.118702 -0.181302 0.118151 0.191273 -0.116659 -0.086431 -0.042966 -0.204893 0.163432 -0.184295 0.201812 0.204052 -0.140152 -0.059651 0.297570 0.377459 -0.002655 0.074796 -0.033863 -0.132403 0.139918 -0.052115 -0.004923 0.143568 0.015578 0.101740 0.149358 -0.067732 -0.373918 0.043842 -0.242025 -0.143637 0.026857 0.014461 -0.209993 -0.000488 -0.217889 -0.379412 0.187756 -0.151234 -0.014285 -0.001994 -0.023421 -0.011613 -0.075054 0.214744 0.088850 0.212615 -0.068302 0.298481 -0.080813 0.150838 0.168518 -0.037279 -0.103061 0.045441 -0.029422 -0.189435 0.013440 0.051083 -0.189441 -0.121684 -0.037314 -0.040785 0.077692 -0.355254 0.070502 -0.117990 -0.076892 0.051178 -0.065752 -0.224567 -0.115137 -0.172082 0.054514 -0.080792 -0.186222 -0.147825 0.409057 0.157323 -0.073593 -0.170844 -0.238970 -0.023515 -0.098161 0.023193 0.026698 0.131085 0.051875 -0.022508 0.099286 -0.072633 0.010368 -0.203518 0.105607 0.068655 0.192637 0.191560 0.003262 -0.060685 -0.139567 0.059811 0.241159 -0.087258 0.118422 -0.103717 -0.248840 0.239350 0.005514 0.051396 0.032037 0.007898 -0.261097 -0.058258 0.210765 0.038110
data_edgelists_mast_cell.edgelist__5594 0.061444 0.341821 0.030293 -0.109772 -0.138389 -0.176855 -0.006086 0.156554 0.113186 0.165477 -0.048241 -0.108419 0.129196 -0.190271 0.130143 0.207027 -0.129569 -0.091322 -0.052463 -0.225313 0.173637 -0.204065 0.222913 0.221525 -0.158181 -0.058842 0.324947 0.410701 -0.000912 0.082058 -0.029462 -0.146117 0.151528 -0.061247 0.001728 0.153506 0.019806 0.108801 0.170305 -0.072608 -0.413098 0.042519 -0.263816 -0.157916 0.028183 0.016004 -0.231017 -0.000484 -0.237452 -0.413420 0.207191 -0.161754 -0.022403 -0.004553 -0.021916 -0.009865 -0.081369 0.233079 0.093549 0.233500 -0.070991 0.323760 -0.092680 0.162722 0.182531 -0.039455 -0.114432 0.049421 -0.031389 -0.205983 0.017529 0.052403 -0.202299 -0.134730 -0.044578 -0.043664 0.082935 -0.387188 0.079454 -0.128288 -0.088443 0.056342 -0.073579 -0.249624 -0.123730 -0.194706 0.059905 -0.086965 -0.210869 -0.159722 0.444243 0.170968 -0.079160 -0.186422 -0.263297 -0.025134 -0.103823 0.026305 0.029491 0.142240 0.062367 -0.018390 0.108365 -0.087312 0.011718 -0.221314 0.118000 0.072994 0.213588 0.212510 0.008431 -0.070251 -0.144132 0.061889 0.267041 -0.104721 0.128876 -0.115360 -0.271258 0.267088 0.009338 0.054229 0.030020 0.010901 -0.282183 -0.056959 0.229390 0.040074
data_edgelists_mast_cell.edgelist__8452 0.054222 0.317025 0.028879 -0.103808 -0.128534 -0.158295 -0.005101 0.142140 0.106045 0.153292 -0.042749 -0.098120 0.120294 -0.184586 0.118608 0.191659 -0.115837 -0.085728 -0.044478 -0.207251 0.166052 -0.185283 0.206221 0.204630 -0.141003 -0.058161 0.298076 0.382580 -0.001874 0.074699 -0.035557 -0.133519 0.139053 -0.053699 -0.001099 0.142342 0.017576 0.103045 0.150369 -0.068438 -0.378503 0.043028 -0.244932 -0.143653 0.025270 0.013528 -0.210463 -0.000949 -0.220561 -0.379871 0.192632 -0.153061 -0.015400 -0.002550 -0.022116 -0.010136 -0.078408 0.217226 0.090654 0.215839 -0.069135 0.300089 -0.083948 0.150838 0.168841 -0.039242 -0.105415 0.047743 -0.026553 -0.190563 0.013404 0.050603 -0.192382 -0.123772 -0.038812 -0.040450 0.078323 -0.357723 0.072926 -0.120078 -0.076248 0.051823 -0.066416 -0.226392 -0.113383 -0.171963 0.055006 -0.081672 -0.187934 -0.149319 0.410662 0.158076 -0.076450 -0.172783 -0.240738 -0.022635 -0.099928 0.022115 0.027400 0.132330 0.054663 -0.022984 0.102375 -0.075790 0.012611 -0.202458 0.106629 0.072067 0.192925 0.193115 0.002968 -0.060865 -0.138848 0.057871 0.244631 -0.088736 0.117839 -0.105520 -0.250361 0.241996 0.002071 0.050138 0.031821 0.009476 -0.263945 -0.059998 0.211577 0.040475
data_edgelists_mast_cell.edgelist__672 0.054101 0.310728 0.028838 -0.104518 -0.130644 -0.158912 -0.002834 0.140537 0.107387 0.153840 -0.045737 -0.096069 0.117425 -0.179605 0.113477 0.186169 -0.121704 -0.082680 -0.046555 -0.201740 0.163527 -0.188170 0.203689 0.206543 -0.140443 -0.057474 0.298222 0.379431 -0.001182 0.072307 -0.034696 -0.130475 0.134821 -0.057459 0.000169 0.137251 0.020063 0.099534 0.151109 -0.069805 -0.376892 0.038774 -0.240900 -0.142409 0.025864 0.014111 -0.206915 -0.001063 -0.215524 -0.376065 0.188475 -0.149120 -0.017740 -0.000682 -0.019371 -0.011220 -0.074645 0.215326 0.082399 0.216608 -0.064584 0.293083 -0.084239 0.149304 0.169499 -0.036510 -0.102447 0.044998 -0.028847 -0.187536 0.014588 0.047649 -0.189424 -0.121170 -0.038121 -0.039976 0.075860 -0.352418 0.070614 -0.116596 -0.078661 0.051691 -0.067262 -0.229800 -0.116923 -0.175639 0.057085 -0.080501 -0.187781 -0.146502 0.409400 0.154725 -0.076728 -0.169413 -0.240123 -0.026656 -0.096558 0.020913 0.028352 0.128663 0.054883 -0.016634 0.100734 -0.077967 0.011166 -0.197368 0.102371 0.072691 0.196654 0.194745 0.007019 -0.056291 -0.133890 0.058462 0.240944 -0.088238 0.117842 -0.106774 -0.250003 0.240979 0.001586 0.051740 0.028560 0.006327 -0.260857 -0.051644 0.206283 0.041503
data_edgelists_mast_cell.edgelist__207 0.055716 0.310507 0.030295 -0.101824 -0.123415 -0.154429 -0.001783 0.134222 0.104093 0.153636 -0.043182 -0.095874 0.118553 -0.177891 0.112441 0.189748 -0.116219 -0.085003 -0.048747 -0.200231 0.164553 -0.185875 0.200685 0.202816 -0.141252 -0.055699 0.295612 0.375320 -0.000398 0.072973 -0.030178 -0.129486 0.139565 -0.055106 -0.003646 0.136757 0.016374 0.102127 0.148560 -0.070309 -0.377627 0.040228 -0.238642 -0.141560 0.023585 0.016621 -0.206918 0.001494 -0.212845 -0.373727 0.186561 -0.145527 -0.015851 -0.003331 -0.019462 -0.005681 -0.074533 0.209131 0.087613 0.215621 -0.067306 0.292253 -0.083814 0.146314 0.167384 -0.035072 -0.105178 0.043828 -0.028776 -0.188727 0.011314 0.049425 -0.190013 -0.118082 -0.041094 -0.040712 0.077721 -0.348925 0.071545 -0.114113 -0.078849 0.049653 -0.062581 -0.231339 -0.113770 -0.175020 0.055785 -0.077079 -0.188339 -0.146202 0.403468 0.155452 -0.074942 -0.166200 -0.235582 -0.023365 -0.096197 0.024900 0.025921 0.129847 0.056240 -0.017375 0.098551 -0.077300 0.008370 -0.197217 0.103551 0.067376 0.193774 0.195262 0.006278 -0.056584 -0.135095 0.059035 0.239100 -0.089155 0.118237 -0.104381 -0.250213 0.242105 0.002754 0.053574 0.027238 0.004714 -0.257404 -0.049562 0.202366 0.037509
data_edgelists_mast_cell.edgelist__1017 0.057194 0.320801 0.028476 -0.107077 -0.132061 -0.161760 -0.003639 0.148303 0.110066 0.155228 -0.043189 -0.098792 0.122670 -0.187462 0.122374 0.194770 -0.115278 -0.090103 -0.046095 -0.209587 0.167559 -0.187893 0.208929 0.205592 -0.140993 -0.060057 0.302231 0.384057 -0.001986 0.076839 -0.033433 -0.136197 0.140450 -0.056117 -0.000724 0.144959 0.018273 0.101363 0.154672 -0.071302 -0.379586 0.041726 -0.249772 -0.146579 0.025389 0.011021 -0.213413 -0.000409 -0.220628 -0.385137 0.190605 -0.154924 -0.013271 -0.002067 -0.019017 -0.012456 -0.080926 0.221109 0.090462 0.218148 -0.067383 0.304646 -0.083088 0.151423 0.171324 -0.037993 -0.103893 0.047445 -0.026780 -0.194454 0.012922 0.050025 -0.193370 -0.125177 -0.039708 -0.039804 0.079049 -0.359723 0.073221 -0.118696 -0.078338 0.056423 -0.065293 -0.228456 -0.116205 -0.174554 0.056671 -0.085488 -0.190411 -0.150059 0.412459 0.160837 -0.075412 -0.174293 -0.243342 -0.026433 -0.101225 0.021220 0.028634 0.132338 0.053995 -0.022933 0.100445 -0.077104 0.012813 -0.202496 0.108761 0.073311 0.195234 0.197030 0.005298 -0.061797 -0.139801 0.057626 0.247363 -0.089817 0.120388 -0.107010 -0.252852 0.244109 0.003253 0.052660 0.031557 0.011767 -0.267451 -0.058722 0.216476 0.042052
data_edgelists_mast_cell.edgelist__4088 0.061839 0.344234 0.032150 -0.109164 -0.138713 -0.172149 -0.005742 0.162764 0.113046 0.163303 -0.048074 -0.107887 0.131121 -0.198783 0.135287 0.210727 -0.126030 -0.097542 -0.052623 -0.228993 0.176672 -0.202556 0.228628 0.221094 -0.156432 -0.059560 0.324904 0.409763 -0.003078 0.084886 -0.033997 -0.150866 0.152588 -0.061035 0.001741 0.158657 0.019424 0.108128 0.171117 -0.072614 -0.409300 0.045966 -0.268276 -0.160055 0.028474 0.011160 -0.233554 0.000252 -0.239309 -0.417342 0.206607 -0.167380 -0.017722 0.000480 -0.023679 -0.013436 -0.086920 0.240116 0.095991 0.235890 -0.072605 0.329539 -0.089799 0.163177 0.183588 -0.040469 -0.112909 0.050396 -0.029516 -0.208390 0.019261 0.055418 -0.206368 -0.138176 -0.041714 -0.041577 0.086738 -0.388723 0.080438 -0.130176 -0.086501 0.057603 -0.073392 -0.242754 -0.122267 -0.186006 0.061008 -0.093220 -0.208083 -0.157370 0.444678 0.173168 -0.079519 -0.191431 -0.262436 -0.028800 -0.104709 0.026631 0.028728 0.147785 0.059145 -0.024452 0.110371 -0.084118 0.015370 -0.218732 0.119108 0.074751 0.208917 0.211334 0.005234 -0.073270 -0.147384 0.057578 0.271887 -0.101370 0.128355 -0.115900 -0.270234 0.262174 0.009385 0.056234 0.036553 0.020450 -0.286138 -0.067092 0.238913 0.041766
data_edgelists_mast_cell.edgelist__1499 0.051990 0.336314 0.031076 -0.103808 -0.134537 -0.165987 -0.008044 0.170052 0.106147 0.148002 -0.043384 -0.102778 0.128268 -0.200286 0.143022 0.205232 -0.107144 -0.098367 -0.044675 -0.231329 0.169330 -0.189571 0.222887 0.203799 -0.145434 -0.060466 0.315991 0.392320 -0.004563 0.088141 -0.039600 -0.154166 0.147909 -0.056380 -0.001989 0.166641 0.017807 0.101691 0.168086 -0.071082 -0.385012 0.050017 -0.260094 -0.152545 0.035563 0.004774 -0.229340 -0.003834 -0.241548 -0.406938 0.198523 -0.171719 -0.017392 0.004114 -0.025866 -0.019276 -0.090700 0.238587 0.100647 0.222934 -0.073325 0.323139 -0.079667 0.163419 0.174861 -0.043758 -0.104603 0.055900 -0.026106 -0.206628 0.018595 0.060205 -0.196024 -0.144486 -0.034383 -0.042463 0.084371 -0.381028 0.084076 -0.125997 -0.079382 0.056739 -0.072713 -0.220705 -0.108518 -0.164608 0.057620 -0.098418 -0.193842 -0.155854 0.426920 0.168176 -0.068153 -0.193243 -0.258038 -0.021362 -0.106224 0.024308 0.030025 0.146003 0.056480 -0.040666 0.106633 -0.068846 0.015240 -0.215339 0.118902 0.073888 0.188965 0.199911 0.000369 -0.079900 -0.139551 0.050288 0.266814 -0.097935 0.122818 -0.108240 -0.254255 0.245121 0.012942 0.048261 0.045527 0.036637 -0.279387 -0.082387 0.249393 0.040599
data_edgelists_mast_cell.edgelist__10987 0.063677 0.339911 0.031078 -0.107539 -0.138047 -0.174525 -0.005668 0.146849 0.116018 0.172438 -0.048065 -0.105984 0.129056 -0.186359 0.122640 0.205885 -0.136141 -0.088663 -0.051478 -0.217653 0.174838 -0.205157 0.220498 0.226113 -0.160281 -0.059654 0.323399 0.410851 -0.000252 0.077667 -0.027987 -0.140384 0.150743 -0.061416 0.003305 0.148236 0.016854 0.110581 0.165963 -0.071170 -0.415667 0.039507 -0.258610 -0.158031 0.024820 0.016212 -0.228586 0.000952 -0.233278 -0.407251 0.208580 -0.158884 -0.022553 -0.008135 -0.022067 -0.008840 -0.077533 0.227810 0.089914 0.236271 -0.066826 0.319069 -0.096671 0.158662 0.183146 -0.039957 -0.112547 0.048217 -0.032391 -0.200377 0.016006 0.049124 -0.199669 -0.125973 -0.045555 -0.043405 0.082534 -0.381870 0.073673 -0.129935 -0.086440 0.052211 -0.071718 -0.254427 -0.130680 -0.197457 0.061293 -0.082872 -0.210282 -0.160045 0.447633 0.167546 -0.084704 -0.179649 -0.260800 -0.029146 -0.102790 0.026347 0.028922 0.140117 0.061994 -0.015221 0.109820 -0.093861 0.012100 -0.219548 0.112051 0.073602 0.221220 0.211104 0.012161 -0.060767 -0.146007 0.066873 0.261966 -0.099736 0.127283 -0.117003 -0.275476 0.268095 0.002407 0.055641 0.027855 0.000873 -0.280250 -0.052374 0.216880 0.041122
data_edgelists_mast_cell.edgelist__4087 0.057261 0.329581 0.030867 -0.104958 -0.132601 -0.166419 -0.006173 0.156456 0.106009 0.152109 -0.045019 -0.102046 0.126742 -0.190987 0.132475 0.198687 -0.117074 -0.091529 -0.049545 -0.221741 0.169786 -0.193167 0.218528 0.207550 -0.146425 -0.054625 0.308910 0.391354 -0.002288 0.081563 -0.033726 -0.144070 0.146630 -0.059794 0.000275 0.153997 0.017533 0.102560 0.163036 -0.069477 -0.388150 0.045865 -0.256611 -0.151636 0.025855 0.010291 -0.224884 -0.003208 -0.231738 -0.397754 0.199450 -0.162769 -0.020329 0.000439 -0.023664 -0.013250 -0.085544 0.230468 0.096395 0.222795 -0.070982 0.315160 -0.084201 0.160008 0.174237 -0.041084 -0.107766 0.053253 -0.027813 -0.201003 0.017888 0.053878 -0.196375 -0.133162 -0.038274 -0.042529 0.081933 -0.372042 0.077983 -0.123337 -0.081084 0.055188 -0.071584 -0.229112 -0.112382 -0.175851 0.058678 -0.089438 -0.196207 -0.154342 0.421109 0.165186 -0.075620 -0.183870 -0.252394 -0.023873 -0.103432 0.025649 0.028192 0.141162 0.059369 -0.029097 0.104903 -0.078971 0.013664 -0.210985 0.113943 0.072040 0.197878 0.199982 0.004984 -0.073693 -0.140022 0.055182 0.256060 -0.098929 0.122121 -0.111056 -0.257846 0.249823 0.009268 0.050295 0.036911 0.023206 -0.274574 -0.069212 0.230256 0.038157
data_edgelists_mast_cell.edgelist__7189 0.059857 0.344387 0.033084 -0.107515 -0.137147 -0.175161 -0.005923 0.159342 0.108361 0.163211 -0.046234 -0.107233 0.131682 -0.196956 0.132643 0.207420 -0.126082 -0.091647 -0.050733 -0.230208 0.178007 -0.203342 0.225118 0.218343 -0.155042 -0.060364 0.326473 0.410451 -0.003669 0.085570 -0.036282 -0.149821 0.155375 -0.060773 0.000168 0.158554 0.018801 0.111899 0.169345 -0.069826 -0.410548 0.048083 -0.264721 -0.160172 0.027357 0.015262 -0.234850 -0.000478 -0.241956 -0.417021 0.208074 -0.167380 -0.023305 -0.001355 -0.026680 -0.011894 -0.086283 0.237466 0.096941 0.233776 -0.075026 0.326574 -0.093103 0.165614 0.182428 -0.043878 -0.115487 0.052413 -0.029733 -0.209634 0.018202 0.055923 -0.208312 -0.140824 -0.043397 -0.044066 0.085839 -0.392004 0.083036 -0.130440 -0.086413 0.054436 -0.074518 -0.248689 -0.118604 -0.186691 0.060620 -0.087370 -0.209051 -0.163233 0.446083 0.170900 -0.081072 -0.188530 -0.261865 -0.023371 -0.104161 0.027958 0.028486 0.147651 0.061669 -0.025007 0.112967 -0.088618 0.009824 -0.220920 0.118442 0.072985 0.210681 0.213220 0.003935 -0.074437 -0.146598 0.058869 0.268095 -0.103181 0.130941 -0.116111 -0.272428 0.265606 0.009599 0.053171 0.034296 0.017683 -0.287090 -0.065878 0.236106 0.040368
data_edgelists_mast_cell.edgelist__4609 0.051527 0.317270 0.028009 -0.105436 -0.127306 -0.155819 -0.005590 0.150145 0.106721 0.151627 -0.041285 -0.097259 0.122654 -0.187859 0.121768 0.194311 -0.112346 -0.091123 -0.043967 -0.210712 0.165762 -0.182606 0.206793 0.203148 -0.137935 -0.055563 0.300139 0.380993 -0.003508 0.078030 -0.036674 -0.136476 0.138978 -0.054428 -0.002613 0.149030 0.017111 0.100420 0.153731 -0.069725 -0.374882 0.043390 -0.248717 -0.146660 0.026273 0.012128 -0.212674 -0.001382 -0.223527 -0.384369 0.189540 -0.155938 -0.013367 -0.000034 -0.020045 -0.014502 -0.080601 0.219981 0.090635 0.215537 -0.069382 0.302050 -0.078659 0.152062 0.168902 -0.038766 -0.104149 0.047080 -0.027153 -0.194149 0.012564 0.050496 -0.193403 -0.128277 -0.037803 -0.037776 0.078801 -0.360236 0.075398 -0.117768 -0.076575 0.055365 -0.064494 -0.222181 -0.112522 -0.169137 0.054774 -0.085377 -0.186679 -0.148871 0.408164 0.159446 -0.072846 -0.176056 -0.242891 -0.021948 -0.100265 0.021408 0.027546 0.132770 0.052222 -0.026874 0.099500 -0.072053 0.011991 -0.203352 0.109854 0.069285 0.189977 0.193462 0.001654 -0.063415 -0.137651 0.057871 0.244862 -0.087714 0.117695 -0.105205 -0.248893 0.238749 0.005620 0.051779 0.033314 0.017308 -0.266047 -0.064589 0.219898 0.041283
data_edgelists_mast_cell.edgelist__5595 0.055836 0.334599 0.030041 -0.105642 -0.134693 -0.168564 -0.007275 0.164134 0.107785 0.154161 -0.044591 -0.104010 0.128776 -0.196418 0.136373 0.203899 -0.113157 -0.097670 -0.048897 -0.226252 0.171078 -0.192266 0.221271 0.209944 -0.147961 -0.057801 0.313950 0.394544 -0.004475 0.086492 -0.032427 -0.148835 0.147496 -0.057026 -0.001767 0.158913 0.016555 0.103950 0.167338 -0.068693 -0.394237 0.047307 -0.262022 -0.152187 0.032226 0.010848 -0.228272 -0.000868 -0.238424 -0.404334 0.200112 -0.166191 -0.017870 0.000814 -0.026400 -0.015476 -0.085954 0.232498 0.095331 0.226369 -0.071901 0.322724 -0.083083 0.159874 0.175750 -0.042894 -0.107877 0.053791 -0.028391 -0.201429 0.018770 0.054489 -0.196055 -0.139231 -0.037396 -0.043150 0.082177 -0.380489 0.084728 -0.125767 -0.082343 0.056998 -0.073378 -0.229449 -0.112024 -0.172315 0.057930 -0.091278 -0.198655 -0.155999 0.429203 0.167846 -0.070941 -0.190834 -0.257875 -0.020693 -0.104918 0.027552 0.029460 0.141925 0.057713 -0.031257 0.106684 -0.075139 0.011273 -0.214486 0.116004 0.073921 0.196305 0.202830 0.004130 -0.078406 -0.142237 0.055561 0.259212 -0.100592 0.124064 -0.109684 -0.256725 0.252152 0.013108 0.048316 0.038172 0.026510 -0.278859 -0.072068 0.237464 0.042495
data_edgelists_mast_cell.edgelist__5970 0.056685 0.340635 0.030815 -0.110088 -0.138577 -0.171674 -0.007195 0.163578 0.111664 0.160535 -0.048852 -0.106003 0.128926 -0.198063 0.134263 0.205012 -0.121825 -0.095492 -0.046029 -0.228179 0.177192 -0.198834 0.223531 0.216326 -0.150011 -0.061635 0.320609 0.405270 -0.002809 0.085372 -0.034756 -0.149820 0.149000 -0.058452 0.000606 0.157076 0.019215 0.107694 0.170119 -0.071231 -0.401620 0.044630 -0.265990 -0.155806 0.031501 0.009884 -0.230670 -0.001613 -0.241140 -0.410649 0.204500 -0.167987 -0.017818 0.000098 -0.023592 -0.016234 -0.088327 0.237568 0.095948 0.230905 -0.071169 0.324482 -0.087154 0.162313 0.181917 -0.039345 -0.111137 0.054002 -0.029086 -0.206908 0.017484 0.054890 -0.200746 -0.137347 -0.040657 -0.042866 0.084559 -0.386511 0.081953 -0.127359 -0.083674 0.056492 -0.073081 -0.237005 -0.120418 -0.182467 0.060470 -0.091267 -0.203222 -0.155915 0.438089 0.169057 -0.078162 -0.190913 -0.264094 -0.025901 -0.104645 0.025242 0.030859 0.146783 0.058862 -0.027994 0.108146 -0.080595 0.013729 -0.216375 0.117876 0.073390 0.205025 0.206576 0.006224 -0.072858 -0.144297 0.056950 0.266024 -0.098715 0.125405 -0.113689 -0.263624 0.258492 0.009520 0.052067 0.038592 0.021091 -0.283295 -0.070019 0.239200 0.041975
data_edgelists_mast_cell.edgelist__1432 0.052358 0.324011 0.029553 -0.101859 -0.128983 -0.163886 -0.007714 0.160637 0.099917 0.147092 -0.043715 -0.100911 0.123070 -0.190044 0.135969 0.195025 -0.109218 -0.091308 -0.047563 -0.225623 0.164613 -0.189451 0.215354 0.200365 -0.144048 -0.054218 0.307210 0.384637 -0.006026 0.086020 -0.032343 -0.147319 0.144743 -0.056083 0.001097 0.156224 0.016515 0.102494 0.161756 -0.065636 -0.380342 0.047196 -0.251663 -0.148838 0.032172 0.010439 -0.224394 -0.001758 -0.233810 -0.393898 0.195326 -0.161528 -0.019906 0.001420 -0.028405 -0.014092 -0.083782 0.227931 0.096954 0.217565 -0.071932 0.313288 -0.082739 0.159168 0.169249 -0.040494 -0.105506 0.053258 -0.028979 -0.196237 0.016211 0.054379 -0.190899 -0.134691 -0.036426 -0.040515 0.082010 -0.371784 0.083501 -0.122764 -0.078807 0.052046 -0.071725 -0.220353 -0.105883 -0.169550 0.055620 -0.089936 -0.191810 -0.150476 0.417926 0.162682 -0.069199 -0.185519 -0.247030 -0.017898 -0.098641 0.027526 0.029011 0.138052 0.057058 -0.031249 0.106012 -0.074046 0.012081 -0.206594 0.114544 0.071518 0.193296 0.201069 0.002034 -0.077325 -0.135594 0.050351 0.254901 -0.099365 0.120453 -0.106002 -0.250026 0.244817 0.012849 0.046157 0.036654 0.027530 -0.271262 -0.073131 0.234201 0.038971
data_edgelists_mast_cell.edgelist__8517 0.057461 0.313143 0.029974 -0.105153 -0.128906 -0.158617 -0.003813 0.140867 0.107047 0.156417 -0.043307 -0.097617 0.118731 -0.181827 0.114999 0.191456 -0.119632 -0.086315 -0.046222 -0.202483 0.166030 -0.186373 0.204268 0.207603 -0.143283 -0.058245 0.297915 0.380345 -0.000469 0.074496 -0.032357 -0.132167 0.138482 -0.053793 -0.000723 0.138075 0.016974 0.102617 0.152509 -0.067139 -0.379354 0.039633 -0.243403 -0.144567 0.025638 0.014280 -0.209956 0.001421 -0.215670 -0.380591 0.190481 -0.150953 -0.016229 -0.002776 -0.020025 -0.009898 -0.077769 0.215620 0.085158 0.217147 -0.066165 0.295487 -0.083902 0.148460 0.168498 -0.035676 -0.106088 0.044268 -0.028124 -0.190044 0.012255 0.049471 -0.191411 -0.120319 -0.041144 -0.040568 0.079283 -0.354333 0.071669 -0.115846 -0.078561 0.051459 -0.064827 -0.230775 -0.116871 -0.179071 0.054665 -0.079219 -0.190748 -0.146521 0.408774 0.156384 -0.077150 -0.170847 -0.241162 -0.024560 -0.097952 0.021681 0.025695 0.130434 0.055686 -0.017564 0.099115 -0.079221 0.012134 -0.198677 0.105754 0.069577 0.197293 0.195717 0.006561 -0.057987 -0.136204 0.060083 0.242739 -0.090285 0.118734 -0.107076 -0.252111 0.243837 0.002337 0.053341 0.028794 0.006204 -0.263412 -0.055714 0.207014 0.039123
data_edgelists_mast_cell.edgelist__5578 0.057332 0.330799 0.030536 -0.106002 -0.130570 -0.166760 -0.006577 0.151446 0.107525 0.158393 -0.044865 -0.101942 0.124675 -0.187215 0.125643 0.201027 -0.121852 -0.090443 -0.049766 -0.219733 0.170661 -0.195265 0.215111 0.212214 -0.150294 -0.057773 0.315955 0.393385 -0.003361 0.081956 -0.032103 -0.144108 0.147155 -0.056683 0.000393 0.151988 0.014598 0.105810 0.162562 -0.069016 -0.396934 0.044352 -0.252222 -0.152256 0.028183 0.014421 -0.226633 -0.000353 -0.230509 -0.398359 0.197698 -0.160525 -0.019316 -0.000971 -0.025100 -0.011497 -0.079784 0.227908 0.091556 0.225158 -0.070349 0.313846 -0.089309 0.158310 0.175767 -0.039892 -0.110072 0.048909 -0.029662 -0.197012 0.016314 0.052609 -0.194665 -0.130301 -0.040948 -0.043539 0.081568 -0.376163 0.078486 -0.124448 -0.083260 0.052222 -0.070943 -0.238112 -0.117211 -0.182948 0.059635 -0.083948 -0.199075 -0.154071 0.428430 0.165523 -0.074532 -0.180873 -0.253697 -0.022608 -0.101140 0.025580 0.026590 0.140289 0.058667 -0.021878 0.107224 -0.081805 0.009524 -0.213879 0.112104 0.068871 0.202762 0.204455 0.005723 -0.070642 -0.141650 0.057584 0.256504 -0.098510 0.123461 -0.110196 -0.261229 0.256235 0.009846 0.051339 0.030797 0.013302 -0.272906 -0.063465 0.225068 0.037886
data_edgelists_mast_cell.edgelist__2932 0.055261 0.306900 0.026923 -0.101110 -0.124870 -0.153178 -0.003555 0.137474 0.104957 0.149855 -0.043711 -0.095677 0.117782 -0.176014 0.112581 0.186511 -0.115517 -0.085566 -0.048170 -0.200384 0.160406 -0.183136 0.199225 0.200557 -0.138215 -0.054431 0.289978 0.372538 -0.001248 0.072211 -0.030905 -0.128835 0.136014 -0.052708 0.000809 0.136737 0.017076 0.098522 0.147824 -0.067793 -0.370395 0.038717 -0.238064 -0.142612 0.023951 0.013344 -0.204853 0.001298 -0.209706 -0.370232 0.186134 -0.143189 -0.014085 -0.003507 -0.017494 -0.006904 -0.073243 0.208324 0.084186 0.211333 -0.065023 0.288821 -0.080670 0.144494 0.166167 -0.035569 -0.101397 0.043681 -0.027123 -0.185270 0.012050 0.047499 -0.186082 -0.118372 -0.038051 -0.040467 0.076937 -0.345327 0.070983 -0.113811 -0.077170 0.050970 -0.062741 -0.226036 -0.114589 -0.173583 0.054030 -0.076169 -0.187086 -0.144215 0.398144 0.154354 -0.075403 -0.163676 -0.234422 -0.022745 -0.093885 0.022829 0.026548 0.126700 0.053883 -0.018252 0.097355 -0.076255 0.009862 -0.195880 0.102967 0.068126 0.190698 0.189509 0.005224 -0.057456 -0.133859 0.059554 0.236525 -0.088065 0.115114 -0.102736 -0.243795 0.238194 0.002270 0.051170 0.028767 0.005979 -0.255759 -0.051655 0.200791 0.037881
data_edgelists_mast_cell.edgelist__5566 0.054196 0.302159 0.026594 -0.098558 -0.121951 -0.151893 -0.003352 0.132276 0.102371 0.150896 -0.042749 -0.092970 0.114102 -0.170566 0.110798 0.183120 -0.115829 -0.083260 -0.046089 -0.196230 0.158405 -0.180959 0.195917 0.197904 -0.136241 -0.054919 0.286927 0.365372 -0.000783 0.071119 -0.030656 -0.126587 0.135008 -0.050981 -0.001661 0.133735 0.014373 0.098417 0.145191 -0.066252 -0.368578 0.038432 -0.233564 -0.138737 0.022294 0.014490 -0.202083 0.000601 -0.205197 -0.363195 0.186599 -0.141601 -0.017294 -0.003008 -0.019553 -0.007632 -0.069883 0.206303 0.082856 0.207006 -0.064147 0.284142 -0.081556 0.142195 0.163557 -0.033579 -0.101306 0.043183 -0.026304 -0.182312 0.013426 0.044713 -0.182152 -0.114208 -0.039047 -0.041040 0.073812 -0.340868 0.070134 -0.111641 -0.076236 0.048176 -0.061701 -0.224794 -0.112652 -0.173271 0.052294 -0.074468 -0.183040 -0.140892 0.394416 0.153087 -0.074385 -0.161801 -0.232823 -0.023506 -0.091835 0.022416 0.025715 0.125713 0.054014 -0.016148 0.096355 -0.075754 0.009406 -0.195936 0.100960 0.065917 0.190687 0.188584 0.005710 -0.055681 -0.130839 0.058482 0.231540 -0.087514 0.116147 -0.101346 -0.242032 0.236013 0.001826 0.049753 0.026730 0.002375 -0.251087 -0.049415 0.193738 0.036297
data_edgelists_mast_cell.edgelist__408 0.053614 0.314541 0.028827 -0.095919 -0.125106 -0.160317 -0.009764 0.141769 0.097134 0.161406 -0.037460 -0.103847 0.118958 -0.178671 0.122203 0.189261 -0.125625 -0.084383 -0.048520 -0.206422 0.164429 -0.195726 0.202809 0.209897 -0.146387 -0.060029 0.299620 0.383400 0.003231 0.075242 -0.029953 -0.128663 0.138599 -0.051322 -0.001684 0.141567 0.014475 0.112779 0.153558 -0.064336 -0.388154 0.036118 -0.242406 -0.146703 0.027047 0.012973 -0.219115 0.000836 -0.224086 -0.383170 0.193393 -0.152608 -0.024626 -0.008213 -0.025320 -0.004004 -0.074461 0.219971 0.081918 0.218313 -0.068737 0.300269 -0.088699 0.156411 0.173333 -0.039163 -0.105567 0.043528 -0.029131 -0.193240 0.016593 0.049543 -0.188120 -0.124284 -0.045632 -0.040407 0.074040 -0.363413 0.073478 -0.117945 -0.076467 0.046838 -0.070834 -0.240583 -0.109393 -0.178077 0.055781 -0.079592 -0.195244 -0.151185 0.415692 0.152023 -0.074615 -0.170245 -0.240531 -0.019137 -0.097352 0.025426 0.025708 0.134764 0.057622 -0.014941 0.099520 -0.090771 0.006951 -0.208554 0.105557 0.066947 0.209174 0.199148 0.003918 -0.063570 -0.137299 0.059914 0.244509 -0.095331 0.114879 -0.104303 -0.257416 0.251185 0.008635 0.056355 0.023422 0.008509 -0.259964 -0.052842 0.203565 0.039520
data_edgelists_mast_cell.edgelist__3725 0.053307 0.330015 0.032423 -0.105159 -0.131260 -0.164881 -0.007833 0.169356 0.102647 0.146154 -0.042059 -0.102299 0.128361 -0.198775 0.140806 0.202554 -0.107985 -0.098672 -0.043728 -0.229999 0.169846 -0.186589 0.221436 0.201774 -0.142484 -0.056358 0.311947 0.387449 -0.006551 0.088371 -0.038751 -0.153101 0.149002 -0.056056 -0.002556 0.166420 0.017524 0.100532 0.166996 -0.069807 -0.381062 0.051410 -0.260389 -0.151153 0.035959 0.006483 -0.229946 -0.005693 -0.239349 -0.404504 0.198318 -0.171653 -0.015068 0.002591 -0.026112 -0.018777 -0.089262 0.235241 0.100244 0.219759 -0.073180 0.322774 -0.078779 0.161381 0.173058 -0.043540 -0.105324 0.056218 -0.024658 -0.203811 0.018465 0.057316 -0.193554 -0.143117 -0.035370 -0.039944 0.082159 -0.379763 0.085215 -0.126207 -0.080980 0.056335 -0.072774 -0.220290 -0.106238 -0.164785 0.058437 -0.098324 -0.191776 -0.156020 0.421259 0.166312 -0.068463 -0.193785 -0.254878 -0.019686 -0.106372 0.025706 0.029930 0.145669 0.052883 -0.037448 0.105945 -0.068902 0.013880 -0.214362 0.118226 0.071426 0.187890 0.199904 -0.000798 -0.082834 -0.141587 0.050603 0.261519 -0.098242 0.123696 -0.107520 -0.250860 0.244466 0.013884 0.045544 0.043524 0.035279 -0.278891 -0.081328 0.247202 0.041767
data_edgelists_mast_cell.edgelist__7532 0.051963 0.283158 0.025192 -0.094993 -0.115133 -0.142299 -0.001717 0.117606 0.098701 0.144413 -0.039506 -0.088067 0.104786 -0.157322 0.094949 0.170816 -0.114902 -0.076081 -0.044865 -0.176758 0.149006 -0.169006 0.179151 0.189289 -0.132143 -0.051763 0.268113 0.344585 0.000347 0.061876 -0.025544 -0.114472 0.124451 -0.051245 -0.000655 0.118670 0.015116 0.092192 0.136066 -0.062431 -0.349219 0.032515 -0.214939 -0.130869 0.019654 0.015147 -0.185266 0.002157 -0.188830 -0.337534 0.171829 -0.128161 -0.013362 -0.004998 -0.016384 -0.003778 -0.063872 0.188241 0.074275 0.196658 -0.058047 0.263838 -0.078897 0.130472 0.154320 -0.031290 -0.097257 0.037905 -0.027413 -0.167649 0.010460 0.040994 -0.170293 -0.102590 -0.039129 -0.037707 0.068174 -0.318559 0.060400 -0.105291 -0.071753 0.044935 -0.055176 -0.216121 -0.112753 -0.167588 0.050196 -0.068366 -0.173635 -0.130893 0.370530 0.141225 -0.072798 -0.145828 -0.215873 -0.027228 -0.085050 0.019321 0.023926 0.116623 0.052207 -0.007136 0.089083 -0.074044 0.008624 -0.180201 0.091278 0.060806 0.183614 0.175395 0.008736 -0.047145 -0.123866 0.058222 0.215455 -0.080466 0.106196 -0.095403 -0.229801 0.223559 -0.000361 0.049537 0.021360 -0.005125 -0.232272 -0.039964 0.174960 0.034901
data_edgelists_mast_cell.edgelist__3309 0.058940 0.335427 0.030203 -0.105807 -0.134874 -0.167770 -0.006341 0.155229 0.108264 0.161597 -0.045083 -0.104024 0.127905 -0.190478 0.127038 0.202055 -0.126577 -0.091263 -0.048443 -0.220467 0.172986 -0.196730 0.216002 0.214983 -0.151589 -0.059531 0.316236 0.398508 -0.000476 0.081646 -0.033056 -0.141805 0.149999 -0.059255 0.002094 0.152895 0.017337 0.108382 0.163560 -0.070019 -0.399554 0.044940 -0.255708 -0.155763 0.027445 0.013686 -0.226372 0.000550 -0.230972 -0.400583 0.201745 -0.159878 -0.018970 -0.003829 -0.025223 -0.012685 -0.081514 0.230257 0.093643 0.228659 -0.070709 0.315751 -0.090109 0.157935 0.178743 -0.041634 -0.110475 0.048738 -0.030858 -0.199113 0.016492 0.053122 -0.197282 -0.133175 -0.042679 -0.042367 0.081853 -0.378836 0.076116 -0.125453 -0.083183 0.054263 -0.070732 -0.240140 -0.117894 -0.182242 0.057120 -0.086032 -0.200440 -0.156442 0.431762 0.164686 -0.079288 -0.184015 -0.256032 -0.025751 -0.103271 0.025331 0.028582 0.141023 0.058558 -0.025410 0.107048 -0.084201 0.013046 -0.215008 0.115542 0.070437 0.205617 0.205299 0.006109 -0.069260 -0.144476 0.060176 0.258604 -0.097698 0.125395 -0.111647 -0.262949 0.255880 0.007185 0.052927 0.033534 0.012551 -0.277241 -0.063253 0.225874 0.038971
data_edgelists_mast_cell.edgelist__7186 0.055466 0.322574 0.031823 -0.101276 -0.128248 -0.162590 -0.005864 0.148197 0.103066 0.156704 -0.043936 -0.099287 0.119507 -0.183039 0.123083 0.194566 -0.121860 -0.086947 -0.047831 -0.216027 0.165647 -0.193205 0.211952 0.206878 -0.148769 -0.054518 0.307268 0.387485 0.000384 0.077409 -0.033569 -0.138804 0.143694 -0.056379 0.001031 0.145065 0.016842 0.109538 0.156660 -0.065847 -0.387677 0.044263 -0.247098 -0.150524 0.027224 0.012964 -0.218345 0.000515 -0.224628 -0.388574 0.193914 -0.154840 -0.023062 -0.003152 -0.024868 -0.009080 -0.078687 0.221068 0.088850 0.223031 -0.070720 0.304963 -0.091423 0.154488 0.171947 -0.038910 -0.108348 0.051559 -0.029527 -0.195062 0.015862 0.049808 -0.192922 -0.128863 -0.041655 -0.042124 0.079589 -0.367608 0.078264 -0.121580 -0.079582 0.050918 -0.070762 -0.234775 -0.116148 -0.177852 0.057187 -0.081518 -0.197665 -0.151782 0.419359 0.158272 -0.078330 -0.172608 -0.248557 -0.024676 -0.097685 0.027489 0.026181 0.135941 0.058366 -0.020377 0.102662 -0.084180 0.009879 -0.207323 0.109720 0.069292 0.202117 0.200602 0.007988 -0.068779 -0.137953 0.056882 0.249884 -0.099324 0.123081 -0.111015 -0.255409 0.250693 0.005462 0.049477 0.028145 0.010477 -0.267578 -0.058386 0.215887 0.038398
data_edgelists_mast_cell.edgelist__7431 0.056910 0.316882 0.026196 -0.105689 -0.127825 -0.160677 -0.002897 0.139859 0.109665 0.156982 -0.043907 -0.097201 0.119618 -0.181660 0.113707 0.192404 -0.120000 -0.087678 -0.047180 -0.203252 0.165794 -0.187370 0.203033 0.209736 -0.144392 -0.059080 0.300128 0.385172 -0.001261 0.072894 -0.033643 -0.131342 0.140826 -0.055967 -0.002212 0.138865 0.017279 0.101459 0.150212 -0.072369 -0.383739 0.039696 -0.243921 -0.148239 0.024193 0.015376 -0.209980 0.000119 -0.215523 -0.379331 0.191877 -0.149971 -0.014270 -0.004101 -0.018015 -0.007958 -0.075043 0.213673 0.086807 0.217546 -0.066046 0.296913 -0.085043 0.148879 0.169616 -0.038685 -0.106890 0.043506 -0.028589 -0.190851 0.011783 0.050072 -0.193371 -0.118608 -0.042518 -0.039490 0.078632 -0.354799 0.070122 -0.116353 -0.078772 0.053363 -0.063537 -0.233025 -0.119650 -0.179519 0.056786 -0.079196 -0.191606 -0.147436 0.410767 0.159560 -0.077949 -0.167999 -0.241208 -0.024004 -0.098318 0.022965 0.027569 0.129402 0.054068 -0.016325 0.097751 -0.078043 0.012078 -0.200703 0.105861 0.070533 0.198231 0.196299 0.005175 -0.054771 -0.139705 0.062894 0.241678 -0.086510 0.119806 -0.106271 -0.254616 0.245891 0.002646 0.055475 0.028954 0.002919 -0.263391 -0.051326 0.205184 0.040524
data_edgelists_mast_cell.edgelist__8945 0.057161 0.336630 0.030595 -0.107219 -0.136588 -0.170079 -0.005760 0.160954 0.109884 0.157825 -0.048680 -0.107036 0.130267 -0.193026 0.130753 0.204808 -0.119010 -0.095578 -0.048306 -0.224897 0.172642 -0.194898 0.221048 0.214414 -0.151078 -0.059145 0.318715 0.400159 -0.003726 0.084635 -0.033228 -0.146616 0.150122 -0.059839 -0.000750 0.157178 0.017263 0.106758 0.168973 -0.070960 -0.399104 0.047808 -0.259603 -0.155620 0.029909 0.010804 -0.227627 -0.001212 -0.236733 -0.406982 0.199512 -0.165497 -0.017474 -0.001754 -0.025842 -0.014198 -0.087371 0.234161 0.095577 0.227579 -0.070925 0.320538 -0.086704 0.160168 0.179094 -0.039576 -0.111468 0.050930 -0.027966 -0.204804 0.017480 0.054517 -0.198370 -0.136668 -0.038788 -0.044256 0.085601 -0.381195 0.079838 -0.126187 -0.083071 0.057010 -0.072669 -0.235558 -0.119362 -0.179177 0.058994 -0.088378 -0.201380 -0.156921 0.432361 0.167713 -0.077133 -0.188232 -0.259236 -0.025444 -0.104910 0.026689 0.028714 0.143596 0.058205 -0.028659 0.107080 -0.079974 0.012574 -0.215610 0.116064 0.072935 0.202295 0.202922 0.005168 -0.071404 -0.141441 0.057237 0.263168 -0.100194 0.124992 -0.111417 -0.262964 0.256423 0.007335 0.053257 0.036962 0.020440 -0.281277 -0.068986 0.234130 0.039439
data_edgelists_mast_cell.edgelist__7531 0.053295 0.327170 0.030177 -0.101494 -0.129415 -0.162160 -0.006002 0.158713 0.100300 0.148934 -0.041785 -0.103612 0.124515 -0.190732 0.132227 0.198790 -0.113691 -0.091234 -0.046082 -0.220699 0.164597 -0.189523 0.213506 0.202704 -0.144444 -0.057183 0.308636 0.386562 -0.003298 0.082174 -0.035373 -0.143417 0.147065 -0.054415 -0.002237 0.155361 0.017214 0.102916 0.161890 -0.066209 -0.383734 0.049674 -0.252282 -0.151635 0.030095 0.011619 -0.224769 -0.002733 -0.232170 -0.394392 0.195923 -0.164086 -0.017417 -0.002696 -0.025740 -0.014528 -0.081063 0.227627 0.097240 0.219050 -0.070398 0.313262 -0.083942 0.158269 0.173852 -0.039761 -0.106693 0.052699 -0.027200 -0.198450 0.018340 0.055459 -0.193480 -0.136138 -0.039121 -0.041779 0.081281 -0.371735 0.081234 -0.122480 -0.079549 0.053948 -0.071293 -0.225327 -0.109204 -0.170059 0.058533 -0.086982 -0.191911 -0.154376 0.419454 0.162994 -0.072824 -0.182505 -0.249643 -0.020313 -0.103213 0.025976 0.027812 0.140279 0.057996 -0.030061 0.105117 -0.075347 0.010206 -0.209449 0.111317 0.068039 0.193367 0.200358 0.003512 -0.074057 -0.138116 0.054455 0.255276 -0.098164 0.119816 -0.108300 -0.254209 0.244551 0.011701 0.045978 0.037549 0.023475 -0.271695 -0.070932 0.230429 0.037337
data_edgelists_mast_cell.edgelist__5599 0.057777 0.334299 0.032218 -0.104662 -0.133797 -0.166419 -0.005608 0.155904 0.107184 0.159152 -0.045267 -0.102796 0.126842 -0.194166 0.131886 0.201714 -0.118742 -0.093728 -0.050640 -0.223563 0.169547 -0.194753 0.219147 0.211757 -0.150332 -0.057668 0.316067 0.396850 -0.002818 0.084640 -0.032755 -0.147571 0.149416 -0.055840 -0.001840 0.154796 0.016800 0.107464 0.165347 -0.072863 -0.396895 0.045596 -0.259024 -0.155847 0.030379 0.014272 -0.228489 -0.001820 -0.234460 -0.402821 0.201048 -0.161405 -0.017612 -0.002027 -0.027654 -0.010779 -0.083377 0.231439 0.095360 0.225419 -0.073761 0.319090 -0.086829 0.159722 0.176457 -0.041323 -0.110374 0.052079 -0.028504 -0.202169 0.015656 0.054130 -0.198537 -0.134530 -0.039304 -0.041346 0.084809 -0.380173 0.081681 -0.124842 -0.085672 0.054871 -0.071846 -0.236896 -0.116899 -0.178481 0.057574 -0.086607 -0.201150 -0.155673 0.429766 0.167656 -0.074942 -0.183622 -0.256267 -0.022483 -0.102009 0.027372 0.028631 0.142165 0.060420 -0.026454 0.108425 -0.080967 0.013013 -0.213710 0.114957 0.070819 0.201264 0.205621 0.003416 -0.073542 -0.142102 0.057653 0.259413 -0.100310 0.124003 -0.110582 -0.259355 0.255136 0.010757 0.050756 0.033900 0.016860 -0.277452 -0.064844 0.231770 0.040703
data_edgelists_mast_cell.edgelist__3066 0.053153 0.312249 0.027831 -0.106012 -0.130689 -0.156143 -0.004793 0.149116 0.108527 0.147390 -0.044823 -0.095298 0.119176 -0.186738 0.120496 0.189240 -0.108839 -0.090740 -0.044547 -0.205450 0.161980 -0.183517 0.207741 0.200917 -0.132939 -0.057144 0.294420 0.373504 -0.001823 0.075573 -0.036316 -0.134652 0.136585 -0.055633 0.000138 0.143425 0.018377 0.096900 0.151416 -0.069251 -0.367464 0.041532 -0.243749 -0.143261 0.026854 0.012036 -0.208136 -0.002714 -0.218142 -0.377128 0.187945 -0.150310 -0.014357 -0.000118 -0.017433 -0.013886 -0.078683 0.216571 0.089413 0.212055 -0.063640 0.294712 -0.075114 0.149538 0.164731 -0.036723 -0.103436 0.047157 -0.028112 -0.189469 0.014196 0.051383 -0.189716 -0.123065 -0.038410 -0.037975 0.074920 -0.350147 0.071000 -0.114238 -0.076663 0.057043 -0.065738 -0.217642 -0.111288 -0.168636 0.055020 -0.084684 -0.184283 -0.143680 0.400446 0.158666 -0.069803 -0.173219 -0.238141 -0.023355 -0.097285 0.021350 0.028273 0.129530 0.052637 -0.024695 0.098079 -0.071300 0.013059 -0.195191 0.107437 0.072970 0.186179 0.193188 0.003159 -0.061628 -0.132909 0.055848 0.241710 -0.088256 0.119615 -0.104138 -0.242601 0.237189 0.004569 0.050957 0.034100 0.018617 -0.262766 -0.062096 0.215692 0.042516
data_edgelists_mast_cell.edgelist__7428 0.054161 0.320478 0.029490 -0.098354 -0.129033 -0.161284 -0.006330 0.156711 0.102044 0.145714 -0.042368 -0.099161 0.121670 -0.187498 0.128842 0.194959 -0.110870 -0.090993 -0.046217 -0.218455 0.163298 -0.185343 0.209122 0.198922 -0.141309 -0.057662 0.301638 0.379332 -0.004325 0.080043 -0.036236 -0.142310 0.144736 -0.054170 -0.002567 0.152910 0.017393 0.102558 0.157580 -0.067071 -0.375126 0.044974 -0.248247 -0.147619 0.028366 0.009127 -0.220069 -0.003464 -0.226375 -0.384923 0.193633 -0.160964 -0.018865 -0.001784 -0.026005 -0.013773 -0.083306 0.225774 0.093206 0.216698 -0.069389 0.306155 -0.080570 0.157093 0.170020 -0.041252 -0.104259 0.053211 -0.027220 -0.194721 0.017324 0.053910 -0.190873 -0.131771 -0.036239 -0.040326 0.080320 -0.364160 0.077547 -0.120989 -0.079121 0.050678 -0.072165 -0.221674 -0.106439 -0.165232 0.056246 -0.084694 -0.188743 -0.148383 0.411731 0.158542 -0.072050 -0.180045 -0.243327 -0.021153 -0.099760 0.026598 0.028360 0.138029 0.054779 -0.029436 0.103505 -0.075303 0.011696 -0.205752 0.112690 0.068443 0.190661 0.193883 0.003031 -0.074425 -0.135998 0.051398 0.249530 -0.096578 0.121501 -0.106442 -0.248094 0.240758 0.012480 0.048354 0.035889 0.022897 -0.267785 -0.068287 0.226154 0.038279
data_edgelists_mast_cell.edgelist__3676 0.028402 0.202892 0.017451 -0.061090 -0.073536 -0.094157 -0.001476 0.098769 0.053313 0.087219 -0.020900 -0.060688 0.081620 -0.126234 0.086620 0.117866 -0.068183 -0.051742 -0.030988 -0.146775 0.104006 -0.126118 0.132855 0.118592 -0.085025 -0.030486 0.188616 0.244166 -0.009155 0.052553 -0.032295 -0.091361 0.098728 -0.033116 -0.006190 0.098696 0.008137 0.066064 0.095339 -0.044438 -0.239100 0.040095 -0.158030 -0.094613 0.013999 0.013025 -0.142572 -0.004138 -0.150943 -0.240972 0.123392 -0.104236 -0.016931 0.004587 -0.020984 -0.002488 -0.051920 0.145505 0.067491 0.131719 -0.059019 0.197921 -0.057520 0.104166 0.104861 -0.031845 -0.069078 0.038951 -0.018956 -0.127307 0.012447 0.043665 -0.130613 -0.090128 -0.023330 -0.030853 0.050230 -0.234040 0.057518 -0.074328 -0.047942 0.028861 -0.049141 -0.140634 -0.053310 -0.093898 0.033070 -0.049288 -0.122345 -0.095690 0.263333 0.102556 -0.046388 -0.113708 -0.148084 -0.000239 -0.066489 0.022838 0.020496 0.087504 0.035535 -0.025722 0.073390 -0.045554 0.003701 -0.131716 0.069916 0.045304 0.110841 0.130599 -0.008763 -0.053276 -0.087678 0.031923 0.153673 -0.062623 0.082911 -0.067160 -0.157926 0.150000 0.004813 0.026295 0.025112 0.018090 -0.174792 -0.049611 0.143737 0.024431
data_edgelists_mast_cell.edgelist__998 0.053209 0.319371 0.031442 -0.098990 -0.120462 -0.157774 -0.005423 0.151118 0.098646 0.148769 -0.042181 -0.097821 0.121427 -0.185308 0.127198 0.194179 -0.112681 -0.091545 -0.046297 -0.215623 0.163546 -0.183310 0.208964 0.199587 -0.146997 -0.055257 0.302976 0.380872 -0.002757 0.079302 -0.033952 -0.140325 0.143503 -0.051679 -0.003773 0.151528 0.015066 0.102312 0.157595 -0.067499 -0.377961 0.046368 -0.246440 -0.147442 0.026535 0.012213 -0.221622 -0.002406 -0.226049 -0.384867 0.191835 -0.158103 -0.017708 -0.003212 -0.025871 -0.010647 -0.081053 0.222046 0.092662 0.213127 -0.074208 0.306800 -0.086384 0.155879 0.169337 -0.039464 -0.104907 0.052475 -0.024789 -0.193482 0.017440 0.054478 -0.189019 -0.128402 -0.037246 -0.041721 0.078129 -0.365791 0.080079 -0.121800 -0.078724 0.050264 -0.069182 -0.225881 -0.106689 -0.168393 0.054419 -0.083223 -0.190824 -0.151474 0.414882 0.158289 -0.072497 -0.178856 -0.245167 -0.018627 -0.101931 0.025754 0.027756 0.137370 0.057899 -0.027535 0.105141 -0.075148 0.009863 -0.205753 0.109690 0.067150 0.189637 0.196300 0.003431 -0.073007 -0.134995 0.054576 0.250176 -0.096743 0.121236 -0.104560 -0.249822 0.242505 0.012708 0.047755 0.032692 0.018624 -0.263433 -0.068173 0.222702 0.036165
data_edgelists_mast_cell.edgelist__7412 0.036191 0.202831 0.015574 -0.061126 -0.078312 -0.098877 0.000429 0.078397 0.058128 0.103210 -0.024737 -0.062744 0.076462 -0.111495 0.068169 0.113545 -0.090086 -0.041146 -0.040632 -0.132904 0.106101 -0.141434 0.127603 0.131070 -0.095083 -0.029381 0.191058 0.254540 -0.003215 0.041071 -0.022580 -0.079023 0.100544 -0.040053 -0.000212 0.079621 0.009642 0.072800 0.091521 -0.042782 -0.262288 0.030807 -0.151031 -0.096094 0.002184 0.020716 -0.139710 -0.000265 -0.137968 -0.233581 0.132707 -0.090913 -0.024680 -0.004630 -0.017403 0.007900 -0.038222 0.136283 0.055970 0.139859 -0.051818 0.185881 -0.071276 0.099691 0.108009 -0.028031 -0.077397 0.033034 -0.024262 -0.121533 0.012920 0.035163 -0.132282 -0.075452 -0.034018 -0.034262 0.046383 -0.228336 0.049746 -0.074190 -0.053267 0.024549 -0.047946 -0.169420 -0.067602 -0.119479 0.033732 -0.034007 -0.136484 -0.095072 0.272053 0.099141 -0.061756 -0.097958 -0.147432 -0.007794 -0.059058 0.023706 0.020856 0.083598 0.043348 -0.002718 0.074307 -0.067299 0.002536 -0.130659 0.062765 0.044710 0.135878 0.137777 0.000949 -0.038530 -0.088601 0.043293 0.148856 -0.065719 0.087474 -0.074537 -0.173803 0.169184 -0.003506 0.031238 0.008236 -0.009588 -0.169666 -0.019622 0.111097 0.022494
data_edgelists_mast_cell.edgelist__5879 0.055334 0.314574 0.029495 -0.097399 -0.124546 -0.156414 -0.006487 0.145255 0.099677 0.152177 -0.043251 -0.101122 0.120407 -0.180994 0.123557 0.191184 -0.116022 -0.086048 -0.050531 -0.209680 0.160182 -0.186926 0.204856 0.198574 -0.144044 -0.054863 0.300391 0.377067 -0.004278 0.078855 -0.032352 -0.137907 0.143528 -0.051692 -0.000713 0.146312 0.015773 0.103413 0.153587 -0.064546 -0.376498 0.044601 -0.241368 -0.144265 0.025210 0.014702 -0.215120 -0.002401 -0.219609 -0.377339 0.190592 -0.153585 -0.020406 -0.000866 -0.025235 -0.011992 -0.073785 0.219720 0.089204 0.214035 -0.070904 0.299560 -0.087164 0.150337 0.168202 -0.038502 -0.103954 0.049588 -0.030145 -0.191816 0.016146 0.050926 -0.188901 -0.127074 -0.039872 -0.042658 0.077079 -0.356789 0.077725 -0.116548 -0.079364 0.050041 -0.067849 -0.227496 -0.107386 -0.170911 0.054444 -0.080806 -0.191294 -0.148333 0.408518 0.156665 -0.073597 -0.172494 -0.240717 -0.022605 -0.096876 0.028245 0.029360 0.136396 0.057604 -0.023051 0.104590 -0.079920 0.008096 -0.202593 0.105978 0.067832 0.192277 0.194634 0.005024 -0.068863 -0.134383 0.054510 0.246573 -0.098629 0.119683 -0.106003 -0.249846 0.242680 0.010141 0.047664 0.029968 0.014451 -0.260801 -0.059683 0.215010 0.038214
data_edgelists_mast_cell.edgelist__2534 0.053434 0.330755 0.028590 -0.100673 -0.125832 -0.162549 -0.009980 0.163313 0.101609 0.150795 -0.041508 -0.103140 0.126391 -0.193863 0.138922 0.200223 -0.113447 -0.094819 -0.048331 -0.227374 0.163374 -0.190804 0.215290 0.205554 -0.149178 -0.055587 0.315150 0.392457 -0.006766 0.086937 -0.033462 -0.150619 0.149554 -0.053148 -0.001938 0.162403 0.016377 0.102082 0.162801 -0.070184 -0.389138 0.049178 -0.256734 -0.150830 0.034978 0.012676 -0.231694 -0.003598 -0.235131 -0.401092 0.197045 -0.166229 -0.017003 0.001301 -0.027373 -0.011552 -0.082694 0.231350 0.097085 0.220894 -0.077655 0.318875 -0.083547 0.162180 0.175240 -0.039519 -0.105592 0.055184 -0.027101 -0.203600 0.016836 0.057808 -0.192222 -0.139102 -0.037706 -0.042620 0.082332 -0.380376 0.082463 -0.124524 -0.080738 0.054219 -0.073024 -0.227651 -0.108171 -0.171933 0.056810 -0.092776 -0.194187 -0.152300 0.427417 0.168561 -0.067318 -0.187808 -0.255074 -0.020935 -0.101497 0.027298 0.026758 0.142153 0.057301 -0.033934 0.110420 -0.075190 0.009971 -0.216777 0.114394 0.069561 0.191906 0.205073 0.001547 -0.079966 -0.141321 0.053161 0.259305 -0.099593 0.123874 -0.106865 -0.253009 0.246389 0.013809 0.044339 0.038514 0.025413 -0.276916 -0.075343 0.239731 0.038873
data_edgelists_mast_cell.edgelist__6774 0.058414 0.331977 0.031370 -0.106761 -0.131932 -0.166296 -0.006866 0.155897 0.105463 0.158537 -0.046726 -0.102759 0.126975 -0.191620 0.129845 0.200530 -0.118954 -0.093540 -0.050582 -0.221514 0.167795 -0.196834 0.215689 0.211808 -0.150125 -0.056290 0.316457 0.396479 -0.002892 0.084563 -0.032262 -0.145125 0.148670 -0.059878 0.001430 0.155454 0.016864 0.104282 0.161761 -0.070131 -0.397851 0.042715 -0.257137 -0.151895 0.030256 0.014432 -0.227654 -0.000025 -0.232534 -0.403832 0.199969 -0.163410 -0.019942 -0.000805 -0.025645 -0.009236 -0.081448 0.230686 0.094902 0.226525 -0.071010 0.317609 -0.086715 0.159287 0.175432 -0.041727 -0.108656 0.050230 -0.031092 -0.201511 0.017429 0.053644 -0.197375 -0.133404 -0.039951 -0.043303 0.081815 -0.377644 0.079871 -0.123040 -0.083592 0.053231 -0.072210 -0.237001 -0.116513 -0.181189 0.057857 -0.086787 -0.201462 -0.153500 0.429209 0.168400 -0.074558 -0.185403 -0.255793 -0.023552 -0.101847 0.027641 0.028022 0.140707 0.057889 -0.024079 0.105870 -0.082938 0.009576 -0.213716 0.113009 0.070689 0.202918 0.205961 0.006251 -0.071119 -0.141360 0.059066 0.257511 -0.099973 0.123842 -0.110014 -0.261601 0.256008 0.007914 0.051677 0.035680 0.016086 -0.277100 -0.064541 0.229880 0.038924
data_edgelists_mast_cell.edgelist__4089 0.053944 0.322071 0.030226 -0.099198 -0.129168 -0.160833 -0.008642 0.157541 0.098637 0.145924 -0.044890 -0.101261 0.123620 -0.189257 0.133129 0.194481 -0.113487 -0.090608 -0.047160 -0.220033 0.162462 -0.189529 0.213993 0.199231 -0.141371 -0.054144 0.302384 0.381475 -0.004094 0.081752 -0.036130 -0.145647 0.144276 -0.056413 0.000017 0.152806 0.016355 0.102109 0.162698 -0.067262 -0.376739 0.047720 -0.249919 -0.151043 0.027796 0.009759 -0.224206 -0.002202 -0.229239 -0.389314 0.194875 -0.163029 -0.019471 0.001249 -0.026867 -0.013688 -0.082340 0.228649 0.094855 0.216178 -0.070158 0.310085 -0.082820 0.160145 0.169743 -0.042119 -0.105817 0.052531 -0.029378 -0.197957 0.017633 0.055072 -0.192554 -0.133470 -0.038250 -0.042033 0.079154 -0.368619 0.078361 -0.122286 -0.077156 0.053132 -0.073774 -0.221484 -0.104039 -0.165609 0.055252 -0.088233 -0.193006 -0.146812 0.413816 0.161168 -0.070539 -0.182237 -0.247354 -0.019572 -0.100115 0.026901 0.030180 0.139512 0.056466 -0.029145 0.105933 -0.075928 0.011672 -0.205679 0.111413 0.071561 0.191650 0.198092 0.001605 -0.077989 -0.134405 0.047702 0.253884 -0.098413 0.124880 -0.109473 -0.248847 0.243946 0.011559 0.046868 0.037256 0.027750 -0.268472 -0.072366 0.228837 0.038322
data_edgelists_mast_cell.edgelist__2023 0.052196 0.302307 0.025042 -0.099636 -0.119875 -0.149452 -0.003770 0.134564 0.101629 0.148449 -0.040761 -0.092722 0.114337 -0.173715 0.108233 0.181649 -0.115798 -0.080263 -0.043083 -0.196636 0.158723 -0.179640 0.194470 0.196747 -0.136425 -0.054136 0.284963 0.365683 -0.000215 0.071010 -0.032784 -0.125053 0.135195 -0.051765 -0.001581 0.131708 0.015582 0.098544 0.144270 -0.065842 -0.365624 0.042302 -0.231467 -0.139931 0.021876 0.015377 -0.202244 -0.001034 -0.209061 -0.360055 0.183869 -0.143047 -0.016603 -0.004185 -0.020353 -0.005694 -0.073228 0.204796 0.083451 0.207548 -0.064874 0.284378 -0.083357 0.141596 0.162163 -0.034597 -0.102745 0.044560 -0.027790 -0.181339 0.012636 0.047901 -0.183188 -0.114103 -0.040310 -0.039745 0.074432 -0.339934 0.068870 -0.112345 -0.073796 0.049217 -0.061781 -0.222774 -0.110419 -0.165557 0.051815 -0.073828 -0.182469 -0.141409 0.392891 0.149415 -0.075615 -0.161000 -0.228396 -0.021402 -0.092977 0.022429 0.026414 0.126390 0.053826 -0.017066 0.098961 -0.076514 0.010259 -0.193423 0.100455 0.065663 0.187763 0.188089 0.003611 -0.055915 -0.133397 0.057660 0.229686 -0.084219 0.115733 -0.101171 -0.242594 0.233169 0.002557 0.049241 0.027089 0.003737 -0.251009 -0.050732 0.195511 0.037054
data_edgelists_mast_cell.edgelist__4790 0.058028 0.335716 0.031695 -0.110093 -0.134710 -0.170176 -0.007636 0.158032 0.109698 0.159562 -0.047605 -0.106397 0.128916 -0.193953 0.128872 0.203147 -0.123297 -0.095467 -0.047455 -0.222492 0.172908 -0.196157 0.221214 0.215216 -0.150626 -0.059345 0.314669 0.399748 -0.002005 0.081566 -0.033454 -0.146697 0.146726 -0.058889 0.001001 0.154574 0.017692 0.106989 0.165312 -0.070733 -0.396970 0.044993 -0.260050 -0.153662 0.027299 0.012378 -0.226439 0.000986 -0.235270 -0.405199 0.200931 -0.163773 -0.018837 -0.001070 -0.024545 -0.013698 -0.082109 0.233096 0.093403 0.228686 -0.069500 0.318313 -0.087087 0.159591 0.177279 -0.039597 -0.111680 0.049870 -0.028074 -0.201293 0.017180 0.052218 -0.199917 -0.133043 -0.042406 -0.041069 0.085280 -0.379664 0.078002 -0.125294 -0.082792 0.055824 -0.072738 -0.237354 -0.119845 -0.183200 0.057477 -0.088060 -0.201664 -0.154215 0.432487 0.165037 -0.077114 -0.185059 -0.260084 -0.026160 -0.102725 0.023964 0.027720 0.142473 0.058601 -0.026125 0.105977 -0.081165 0.013723 -0.212838 0.115273 0.072304 0.203696 0.205061 0.006095 -0.069422 -0.142246 0.058329 0.261282 -0.099103 0.126015 -0.112467 -0.262353 0.256273 0.008744 0.052726 0.034503 0.015678 -0.277860 -0.064905 0.229816 0.042419
data_edgelists_mast_cell.edgelist__5295 0.054969 0.324109 0.030684 -0.099501 -0.127071 -0.161567 -0.005613 0.145792 0.099679 0.156269 -0.044787 -0.100939 0.120886 -0.180537 0.124727 0.192565 -0.121341 -0.085569 -0.049087 -0.216212 0.163696 -0.195729 0.209681 0.207641 -0.149532 -0.055306 0.306211 0.388938 -0.003564 0.078993 -0.029835 -0.140047 0.146806 -0.057969 0.000945 0.147424 0.015523 0.103780 0.158023 -0.068902 -0.392597 0.041679 -0.247977 -0.146825 0.028282 0.017595 -0.221833 -0.001331 -0.225365 -0.389156 0.198125 -0.157499 -0.021596 -0.003108 -0.026065 -0.006713 -0.076418 0.222947 0.090518 0.220652 -0.073229 0.305076 -0.089035 0.155489 0.174482 -0.039305 -0.107816 0.049564 -0.030046 -0.193501 0.018436 0.050319 -0.192164 -0.128812 -0.043245 -0.044688 0.078554 -0.369489 0.078445 -0.121103 -0.081429 0.050422 -0.069724 -0.234849 -0.112337 -0.178954 0.056643 -0.080438 -0.198502 -0.151061 0.422204 0.160922 -0.075674 -0.176350 -0.247582 -0.022610 -0.098024 0.028937 0.029428 0.136486 0.058437 -0.020997 0.106811 -0.082348 0.010898 -0.208719 0.107283 0.069161 0.202802 0.203202 0.005256 -0.069223 -0.138206 0.057263 0.251437 -0.099677 0.123787 -0.109099 -0.258838 0.252772 0.010053 0.046067 0.028793 0.009923 -0.268568 -0.057791 0.217224 0.035550
data_edgelists_mast_cell.edgelist__4214 0.053636 0.323155 0.033150 -0.101500 -0.126321 -0.160649 -0.007216 0.156800 0.101665 0.148711 -0.042528 -0.101708 0.124131 -0.190630 0.131911 0.197473 -0.113084 -0.090718 -0.046500 -0.218227 0.164282 -0.189266 0.211373 0.204684 -0.145401 -0.058539 0.303599 0.384003 -0.002866 0.082144 -0.034811 -0.143654 0.145246 -0.055455 -0.001037 0.154563 0.017042 0.102684 0.160594 -0.067285 -0.380418 0.046792 -0.250548 -0.149181 0.030290 0.009122 -0.222433 -0.003004 -0.232065 -0.391043 0.193501 -0.161719 -0.018640 -0.000346 -0.026102 -0.013308 -0.084580 0.227421 0.091322 0.217257 -0.073493 0.309486 -0.085075 0.156515 0.170109 -0.040187 -0.104875 0.054284 -0.028924 -0.198303 0.016623 0.053941 -0.191759 -0.133611 -0.036718 -0.039806 0.080755 -0.370099 0.081396 -0.124175 -0.079511 0.050022 -0.070535 -0.225222 -0.109148 -0.168081 0.054838 -0.088094 -0.190855 -0.151179 0.418076 0.159512 -0.071270 -0.182694 -0.246933 -0.020934 -0.102351 0.027112 0.028740 0.138444 0.055201 -0.031796 0.106109 -0.078362 0.009273 -0.210893 0.112279 0.068532 0.190301 0.198258 0.002832 -0.072534 -0.137200 0.052843 0.253088 -0.098587 0.120157 -0.106347 -0.250818 0.242193 0.010667 0.047090 0.036858 0.020233 -0.269668 -0.070259 0.229825 0.038601
data_edgelists_mast_cell.edgelist__3315 0.057484 0.337006 0.031303 -0.107728 -0.132069 -0.170033 -0.004630 0.162443 0.107582 0.155454 -0.044776 -0.104591 0.129514 -0.195665 0.135699 0.206554 -0.115668 -0.096293 -0.045634 -0.225734 0.174488 -0.191332 0.220291 0.211484 -0.150677 -0.061316 0.318910 0.398996 -0.003485 0.084837 -0.036718 -0.148660 0.149651 -0.055105 -0.001612 0.159999 0.018082 0.106152 0.166848 -0.070449 -0.397206 0.050386 -0.261047 -0.154433 0.031711 0.012391 -0.227589 -0.000606 -0.237487 -0.406831 0.199647 -0.168597 -0.015627 -0.001403 -0.026008 -0.014338 -0.086433 0.233478 0.099144 0.224359 -0.072592 0.322714 -0.085990 0.161229 0.179318 -0.043355 -0.107576 0.051723 -0.028320 -0.204305 0.015383 0.056460 -0.197525 -0.136661 -0.038847 -0.039482 0.082581 -0.382547 0.081023 -0.125511 -0.081984 0.055953 -0.071792 -0.232467 -0.115310 -0.175809 0.057541 -0.091761 -0.198357 -0.157493 0.432897 0.167948 -0.075148 -0.189886 -0.257473 -0.023352 -0.105062 0.025684 0.028491 0.145032 0.058117 -0.029399 0.108608 -0.075729 0.011582 -0.217565 0.115980 0.071345 0.199002 0.205175 0.002603 -0.074881 -0.144607 0.055844 0.261745 -0.098852 0.124716 -0.107531 -0.261363 0.251323 0.010852 0.051096 0.039416 0.019665 -0.281545 -0.072495 0.238310 0.039844
data_edgelists_mast_cell.edgelist__7132 0.055528 0.325645 0.031151 -0.100972 -0.128354 -0.161704 -0.004903 0.152908 0.101884 0.154334 -0.042596 -0.103554 0.125021 -0.189147 0.129537 0.197740 -0.116718 -0.090375 -0.047681 -0.219669 0.168345 -0.193187 0.215715 0.208394 -0.147006 -0.056784 0.311006 0.390087 -0.005078 0.081515 -0.034633 -0.143907 0.149227 -0.054184 -0.002988 0.151816 0.016914 0.106070 0.162351 -0.067794 -0.390054 0.047957 -0.251878 -0.150441 0.027955 0.013345 -0.223105 -0.002195 -0.229796 -0.395441 0.196310 -0.158320 -0.020902 -0.001268 -0.023823 -0.011232 -0.081120 0.226529 0.093889 0.222305 -0.074842 0.311684 -0.089108 0.157773 0.173356 -0.041571 -0.107373 0.052008 -0.028947 -0.197816 0.016098 0.053549 -0.196568 -0.131161 -0.039535 -0.043134 0.081250 -0.371224 0.079439 -0.122219 -0.080275 0.051240 -0.070455 -0.233795 -0.113033 -0.174284 0.056158 -0.083135 -0.197300 -0.152376 0.424716 0.163019 -0.076984 -0.179312 -0.249171 -0.023073 -0.100065 0.026679 0.026916 0.137147 0.057458 -0.027113 0.106647 -0.081112 0.009113 -0.211748 0.111010 0.069841 0.199178 0.201891 0.005144 -0.072138 -0.137980 0.054230 0.254111 -0.098253 0.123466 -0.108551 -0.258447 0.247702 0.008514 0.047975 0.032831 0.015292 -0.272868 -0.064647 0.225161 0.036423
data_edgelists_mast_cell.edgelist__4627 0.054316 0.322786 0.028466 -0.099581 -0.127038 -0.161828 -0.006928 0.148733 0.102059 0.155209 -0.041630 -0.101052 0.122028 -0.182574 0.123435 0.190981 -0.120206 -0.085197 -0.049058 -0.213652 0.167265 -0.193543 0.208350 0.205965 -0.146581 -0.056068 0.305447 0.385432 -0.004568 0.077324 -0.032059 -0.139143 0.145566 -0.055230 -0.002025 0.146457 0.015075 0.103006 0.156645 -0.067129 -0.386842 0.043605 -0.245413 -0.148775 0.023940 0.013484 -0.220680 -0.002367 -0.224731 -0.384220 0.197270 -0.155849 -0.022184 -0.003757 -0.024479 -0.012105 -0.077620 0.223380 0.090376 0.218262 -0.071338 0.306097 -0.089330 0.154664 0.171568 -0.041120 -0.105916 0.047773 -0.028841 -0.194476 0.017194 0.050562 -0.192488 -0.127185 -0.039601 -0.041392 0.075432 -0.365351 0.076852 -0.123088 -0.079951 0.049212 -0.070810 -0.233722 -0.111984 -0.174162 0.057179 -0.081205 -0.194167 -0.150468 0.416811 0.157485 -0.077372 -0.174347 -0.244309 -0.023355 -0.099975 0.025410 0.029041 0.135348 0.058282 -0.023449 0.105764 -0.083594 0.010602 -0.206648 0.109668 0.068585 0.196960 0.200631 0.003604 -0.067676 -0.137812 0.056986 0.249148 -0.097850 0.121423 -0.110049 -0.256143 0.247474 0.005576 0.049458 0.031222 0.011114 -0.268806 -0.060027 0.216023 0.035392
data_edgelists_mast_cell.edgelist__1147 0.055473 0.334198 0.033800 -0.103535 -0.132241 -0.168359 -0.008388 0.161420 0.105136 0.155470 -0.044642 -0.105231 0.128017 -0.198028 0.135654 0.204604 -0.117463 -0.094285 -0.046463 -0.229638 0.171118 -0.193222 0.221113 0.209906 -0.149182 -0.058368 0.318638 0.399511 -0.003359 0.085734 -0.036117 -0.150902 0.149639 -0.056682 -0.001645 0.158843 0.018247 0.106183 0.167875 -0.072137 -0.394918 0.046353 -0.260533 -0.153251 0.034116 0.009761 -0.227904 -0.000894 -0.238895 -0.406660 0.199279 -0.168873 -0.017531 0.000960 -0.025948 -0.014392 -0.086564 0.237572 0.094966 0.225633 -0.074946 0.321506 -0.087346 0.161365 0.178438 -0.043119 -0.106066 0.054341 -0.028101 -0.204722 0.016696 0.054505 -0.197932 -0.137730 -0.038416 -0.041977 0.083946 -0.381695 0.082108 -0.126301 -0.082664 0.054587 -0.074766 -0.232637 -0.113106 -0.175331 0.057395 -0.091552 -0.198442 -0.156701 0.433050 0.165526 -0.074751 -0.189824 -0.257718 -0.023527 -0.106712 0.025018 0.026844 0.142758 0.057123 -0.030254 0.108229 -0.078425 0.012730 -0.215837 0.118958 0.071652 0.198290 0.204915 0.003523 -0.075915 -0.141542 0.053943 0.263245 -0.101745 0.125055 -0.113375 -0.258407 0.250832 0.011233 0.050231 0.038371 0.022504 -0.279899 -0.073841 0.239998 0.040235
data_edgelists_mast_cell.edgelist__2547 0.059616 0.329482 0.029757 -0.105093 -0.133893 -0.165023 -0.005161 0.146732 0.106901 0.160419 -0.045957 -0.103871 0.124706 -0.184522 0.120268 0.197989 -0.127417 -0.087749 -0.051847 -0.214774 0.170574 -0.199932 0.213392 0.214336 -0.149610 -0.055066 0.312093 0.395554 -0.003713 0.077686 -0.030618 -0.138628 0.147217 -0.059239 0.000969 0.145713 0.017193 0.105490 0.160617 -0.067781 -0.399123 0.041143 -0.252461 -0.152488 0.021878 0.015262 -0.222975 -0.000861 -0.226466 -0.392209 0.199359 -0.155781 -0.024965 -0.003702 -0.023580 -0.008239 -0.077251 0.224677 0.089896 0.226328 -0.069308 0.309426 -0.090727 0.156035 0.176699 -0.038262 -0.109677 0.048361 -0.031266 -0.196846 0.018380 0.051058 -0.196959 -0.124787 -0.046000 -0.044151 0.078796 -0.369411 0.074015 -0.122693 -0.084352 0.051587 -0.071047 -0.243835 -0.120758 -0.186236 0.057340 -0.078664 -0.203724 -0.153288 0.427868 0.164068 -0.081481 -0.176381 -0.250743 -0.023836 -0.098562 0.026836 0.029409 0.136826 0.060903 -0.016834 0.106425 -0.089728 0.011643 -0.208139 0.110548 0.072587 0.207440 0.202552 0.006298 -0.063949 -0.138399 0.062235 0.250213 -0.097643 0.125687 -0.112934 -0.263901 0.257464 0.005341 0.051202 0.029651 0.007514 -0.272273 -0.052489 0.215821 0.038732
data_edgelists_mast_cell.edgelist__6885 0.059789 0.334322 0.030300 -0.103257 -0.134236 -0.169570 -0.005401 0.148304 0.107087 0.163884 -0.045805 -0.106948 0.124972 -0.188103 0.123332 0.198897 -0.131314 -0.087455 -0.051631 -0.219727 0.173852 -0.204081 0.217254 0.216782 -0.153664 -0.056259 0.316844 0.405355 0.000108 0.079149 -0.032610 -0.142722 0.152939 -0.061375 0.000558 0.146209 0.017461 0.111284 0.162084 -0.069621 -0.408822 0.045103 -0.257247 -0.155517 0.022917 0.017417 -0.227643 0.000682 -0.230962 -0.398641 0.206733 -0.159459 -0.025897 -0.005960 -0.022658 -0.007395 -0.080305 0.227241 0.090209 0.231672 -0.071650 0.313556 -0.097862 0.158186 0.178525 -0.038808 -0.114949 0.050765 -0.032164 -0.200607 0.016716 0.053024 -0.202047 -0.128969 -0.043680 -0.043973 0.080867 -0.377606 0.079604 -0.125747 -0.084052 0.051479 -0.072958 -0.253082 -0.119397 -0.189104 0.058305 -0.080047 -0.208703 -0.155740 0.436567 0.164694 -0.085687 -0.179952 -0.255498 -0.025333 -0.098693 0.029436 0.027851 0.140374 0.063096 -0.018082 0.110504 -0.091812 0.013428 -0.212677 0.111390 0.073780 0.214980 0.210914 0.006193 -0.065490 -0.142775 0.060022 0.257991 -0.103220 0.129238 -0.116452 -0.270768 0.264577 0.004198 0.052783 0.025542 0.005829 -0.276935 -0.052863 0.215126 0.038920
data_edgelists_mast_cell.edgelist__836 0.054804 0.321866 0.030299 -0.099918 -0.126223 -0.159581 -0.003430 0.152745 0.098830 0.149172 -0.043828 -0.098833 0.124399 -0.185829 0.127916 0.192896 -0.113778 -0.088904 -0.046629 -0.218680 0.164534 -0.189918 0.208588 0.196496 -0.143481 -0.051974 0.303675 0.381714 -0.004478 0.081171 -0.033803 -0.141828 0.144853 -0.054044 -0.004962 0.152114 0.014276 0.101948 0.157204 -0.065977 -0.382226 0.049160 -0.247343 -0.148477 0.027595 0.014300 -0.219678 -0.003513 -0.226901 -0.387599 0.193751 -0.157202 -0.019014 0.002734 -0.026645 -0.010276 -0.080166 0.222663 0.094261 0.216650 -0.074451 0.308907 -0.087689 0.155445 0.170782 -0.041574 -0.105175 0.052994 -0.028468 -0.196374 0.016080 0.054513 -0.191922 -0.131489 -0.037594 -0.040643 0.079199 -0.363632 0.082284 -0.119917 -0.080688 0.051481 -0.069733 -0.226819 -0.105716 -0.166375 0.055135 -0.084410 -0.191067 -0.152737 0.415169 0.160526 -0.073640 -0.179599 -0.243445 -0.017806 -0.099080 0.027557 0.028163 0.138977 0.058520 -0.029618 0.106469 -0.075244 0.007862 -0.209274 0.111265 0.068019 0.191777 0.198562 0.002663 -0.074106 -0.136975 0.055119 0.251038 -0.098314 0.122260 -0.104578 -0.253070 0.242756 0.009552 0.046095 0.031590 0.019970 -0.267263 -0.067580 0.223052 0.037050
data_edgelists_mast_cell.edgelist__2316 0.056755 0.323632 0.030553 -0.099011 -0.126732 -0.161934 -0.006529 0.151058 0.100718 0.152903 -0.042337 -0.101196 0.120902 -0.184227 0.124798 0.193694 -0.117216 -0.088061 -0.049104 -0.215253 0.163412 -0.192277 0.210703 0.204695 -0.146144 -0.056273 0.306053 0.385465 -0.004461 0.081599 -0.032892 -0.140707 0.145889 -0.054993 -0.002115 0.148636 0.016011 0.103570 0.159419 -0.067989 -0.387200 0.046178 -0.245934 -0.147761 0.028462 0.013646 -0.221181 -0.002036 -0.225125 -0.389049 0.195753 -0.156484 -0.019732 -0.001552 -0.025171 -0.009577 -0.077918 0.220859 0.090622 0.218141 -0.071510 0.307820 -0.086927 0.155361 0.172976 -0.039367 -0.106127 0.048098 -0.028681 -0.195301 0.016468 0.050804 -0.192222 -0.127718 -0.039972 -0.041839 0.078309 -0.366796 0.078821 -0.120477 -0.081713 0.048522 -0.068211 -0.231845 -0.110755 -0.174614 0.056262 -0.082783 -0.196236 -0.150333 0.419064 0.159957 -0.075410 -0.176823 -0.245600 -0.021876 -0.099393 0.027392 0.028139 0.136983 0.057146 -0.023362 0.105086 -0.080768 0.009170 -0.208592 0.108636 0.068678 0.198243 0.202345 0.004813 -0.070224 -0.137947 0.057197 0.249243 -0.098892 0.122255 -0.107325 -0.254804 0.247308 0.007704 0.049825 0.033128 0.012578 -0.269732 -0.060064 0.218563 0.035647
data_edgelists_mast_cell.edgelist__10014 0.063982 0.343039 0.030416 -0.108234 -0.139835 -0.174297 -0.006245 0.151180 0.115373 0.169280 -0.048274 -0.105913 0.126619 -0.190176 0.124633 0.205134 -0.134192 -0.089458 -0.051779 -0.220283 0.175226 -0.206426 0.222765 0.225402 -0.155600 -0.059726 0.322429 0.412062 -0.000923 0.077635 -0.029999 -0.140929 0.152283 -0.063680 0.004119 0.147301 0.020070 0.110459 0.166562 -0.072214 -0.414974 0.041271 -0.261537 -0.158247 0.023181 0.015947 -0.229605 -0.000580 -0.232839 -0.408024 0.211931 -0.160760 -0.024927 -0.006137 -0.022508 -0.008202 -0.079353 0.232451 0.090274 0.235861 -0.067433 0.319253 -0.096438 0.161707 0.181913 -0.039769 -0.113681 0.048028 -0.034466 -0.202064 0.019560 0.049713 -0.204863 -0.126881 -0.046912 -0.045878 0.081036 -0.383652 0.076369 -0.127820 -0.086608 0.051296 -0.073495 -0.255097 -0.126126 -0.196024 0.061335 -0.082615 -0.210306 -0.159785 0.445712 0.168776 -0.087457 -0.181570 -0.260063 -0.029852 -0.101405 0.024918 0.029182 0.140578 0.062385 -0.017164 0.110469 -0.094995 0.013743 -0.216974 0.114614 0.073923 0.219900 0.213409 0.010470 -0.062268 -0.145645 0.064003 0.262863 -0.100716 0.130505 -0.118829 -0.276870 0.271629 0.002456 0.054389 0.027986 0.005027 -0.282057 -0.053223 0.217279 0.043081
data_edgelists_mast_cell.edgelist__4691 0.058311 0.331026 0.028658 -0.103277 -0.132854 -0.164176 -0.003985 0.147959 0.107303 0.161320 -0.043825 -0.103196 0.121948 -0.182852 0.117700 0.197262 -0.127682 -0.084506 -0.049766 -0.213049 0.168966 -0.200307 0.211453 0.214042 -0.151139 -0.056493 0.308558 0.394017 -0.000740 0.075600 -0.029602 -0.135747 0.148146 -0.058456 0.000524 0.144655 0.018899 0.107565 0.160268 -0.067706 -0.400311 0.041896 -0.247550 -0.152306 0.021964 0.015443 -0.222648 0.000444 -0.225466 -0.389055 0.201990 -0.155332 -0.023433 -0.005852 -0.022398 -0.008191 -0.075370 0.225915 0.088453 0.225618 -0.067886 0.306187 -0.092289 0.155081 0.174986 -0.040058 -0.109184 0.050214 -0.033086 -0.195773 0.016404 0.050142 -0.196909 -0.123682 -0.043738 -0.044585 0.076683 -0.371178 0.074392 -0.122340 -0.081017 0.049186 -0.071302 -0.243479 -0.119062 -0.185606 0.055490 -0.078677 -0.200145 -0.153508 0.428135 0.160701 -0.082588 -0.173059 -0.250450 -0.024908 -0.098856 0.026914 0.029131 0.137852 0.059573 -0.017800 0.107895 -0.088408 0.010001 -0.211842 0.109649 0.070725 0.207245 0.203875 0.006829 -0.063213 -0.141055 0.060570 0.250502 -0.097149 0.127645 -0.112475 -0.263486 0.255166 0.003510 0.052132 0.026585 0.002869 -0.271219 -0.053131 0.210871 0.039687
data_edgelists_mast_cell.edgelist__5601 0.053874 0.330736 0.032129 -0.103385 -0.130010 -0.165101 -0.006085 0.158214 0.103125 0.151470 -0.044742 -0.102235 0.127343 -0.194918 0.133162 0.200608 -0.115171 -0.094517 -0.048716 -0.225520 0.171272 -0.192356 0.217410 0.205995 -0.148601 -0.058053 0.313258 0.394144 -0.004395 0.084399 -0.036263 -0.147537 0.149624 -0.057052 -0.001180 0.156243 0.017491 0.105365 0.163366 -0.070803 -0.391561 0.046924 -0.257771 -0.153830 0.031533 0.010403 -0.226574 -0.002345 -0.234413 -0.402255 0.198231 -0.165573 -0.019091 -0.000018 -0.025585 -0.012732 -0.085250 0.233283 0.096836 0.222959 -0.073706 0.316477 -0.086747 0.159965 0.175621 -0.042054 -0.106338 0.054024 -0.029254 -0.203044 0.019484 0.056625 -0.195000 -0.136697 -0.037846 -0.041051 0.081678 -0.377512 0.083593 -0.126840 -0.082830 0.054128 -0.073759 -0.229710 -0.111883 -0.171953 0.057625 -0.092068 -0.197291 -0.156713 0.426695 0.166770 -0.075051 -0.185020 -0.255269 -0.020290 -0.102314 0.028144 0.030203 0.140782 0.057110 -0.031315 0.107347 -0.076885 0.011679 -0.213209 0.114444 0.071361 0.197226 0.203948 0.003058 -0.074466 -0.140189 0.054074 0.261040 -0.101251 0.123897 -0.109850 -0.256061 0.250176 0.011686 0.050018 0.035700 0.022240 -0.276282 -0.069989 0.234396 0.040098
data_edgelists_mast_cell.edgelist__4215 0.057429 0.304675 0.026881 -0.098303 -0.124244 -0.154728 -0.002313 0.126472 0.103759 0.157338 -0.041931 -0.095259 0.114764 -0.169806 0.105020 0.182191 -0.124457 -0.079218 -0.050007 -0.193935 0.159068 -0.189777 0.196129 0.204147 -0.142881 -0.052821 0.289162 0.373183 0.001409 0.067227 -0.028488 -0.121283 0.137052 -0.055392 0.001589 0.126896 0.015683 0.103452 0.143232 -0.066191 -0.380276 0.038303 -0.231822 -0.142762 0.017711 0.019387 -0.203230 0.001797 -0.206725 -0.363557 0.188483 -0.138640 -0.021793 -0.007131 -0.018773 -0.002248 -0.067567 0.204964 0.080532 0.211790 -0.062370 0.283529 -0.090359 0.141816 0.164228 -0.034856 -0.107578 0.042659 -0.031657 -0.182522 0.013167 0.045907 -0.187823 -0.112221 -0.044304 -0.041687 0.075645 -0.342621 0.067534 -0.113666 -0.076503 0.047531 -0.062400 -0.237226 -0.116363 -0.181016 0.052333 -0.069075 -0.192786 -0.143152 0.401866 0.151764 -0.081107 -0.156926 -0.230889 -0.025640 -0.091309 0.022909 0.024120 0.123817 0.057035 -0.008093 0.096975 -0.085814 0.008756 -0.195491 0.098976 0.066679 0.204263 0.193439 0.008664 -0.052436 -0.133107 0.061386 0.231289 -0.090137 0.118976 -0.105573 -0.250373 0.245643 -0.001965 0.052484 0.020679 -0.005928 -0.251923 -0.039376 0.185812 0.037444
data_edgelists_mast_cell.edgelist__1642 0.046793 0.277936 0.024953 -0.088935 -0.111793 -0.136882 -0.002148 0.124398 0.089513 0.132770 -0.036423 -0.086444 0.105678 -0.163167 0.103902 0.165389 -0.104334 -0.073685 -0.043202 -0.184318 0.145238 -0.169309 0.180680 0.179524 -0.124036 -0.047154 0.262136 0.334951 -0.003872 0.065665 -0.030498 -0.117055 0.126109 -0.048896 -0.002219 0.123125 0.014232 0.089959 0.132085 -0.059452 -0.337151 0.038484 -0.215024 -0.128158 0.017648 0.014665 -0.186608 -0.000174 -0.193129 -0.331773 0.169276 -0.130637 -0.017666 -0.003022 -0.019002 -0.006047 -0.065152 0.190664 0.080221 0.190243 -0.063750 0.263565 -0.076291 0.134327 0.149512 -0.033699 -0.094265 0.041513 -0.025816 -0.169842 0.012208 0.046184 -0.171516 -0.110109 -0.034705 -0.036031 0.068157 -0.314046 0.066407 -0.102536 -0.068411 0.043977 -0.059131 -0.203419 -0.096699 -0.151743 0.047760 -0.067756 -0.168977 -0.131563 0.360752 0.139043 -0.069016 -0.149234 -0.209924 -0.015672 -0.085950 0.022642 0.025126 0.116325 0.050204 -0.018427 0.091328 -0.070541 0.008522 -0.175954 0.092239 0.062374 0.171948 0.175978 0.001477 -0.054694 -0.121621 0.051397 0.213097 -0.080553 0.109707 -0.093244 -0.221563 0.214705 0.003670 0.043621 0.025703 0.007796 -0.232488 -0.050373 0.183178 0.034604
data_edgelists_mast_cell.edgelist__3329 0.052837 0.324381 0.027638 -0.101600 -0.124975 -0.158315 -0.004380 0.155332 0.104130 0.147379 -0.041354 -0.100700 0.124622 -0.186736 0.129513 0.197277 -0.111127 -0.088430 -0.044619 -0.219647 0.164043 -0.184374 0.211392 0.200817 -0.141056 -0.057108 0.301120 0.381291 -0.005019 0.081616 -0.036803 -0.143644 0.145913 -0.052577 -0.001895 0.155109 0.016529 0.101815 0.158300 -0.065091 -0.377754 0.045755 -0.249450 -0.147525 0.027405 0.011370 -0.218790 -0.001954 -0.227681 -0.386077 0.192729 -0.162265 -0.016704 -0.001810 -0.026407 -0.014526 -0.082304 0.226555 0.094587 0.215190 -0.071232 0.308644 -0.084384 0.155686 0.167974 -0.042059 -0.102292 0.050924 -0.026457 -0.193554 0.017070 0.053601 -0.190591 -0.131781 -0.037254 -0.041856 0.079789 -0.366097 0.079391 -0.123575 -0.076615 0.050813 -0.069298 -0.219709 -0.109286 -0.166025 0.054069 -0.085444 -0.188966 -0.151122 0.414081 0.159975 -0.074057 -0.182444 -0.245843 -0.019027 -0.100155 0.025927 0.028106 0.136048 0.051985 -0.032914 0.105370 -0.072977 0.012068 -0.206338 0.111237 0.069285 0.186355 0.195839 0.001331 -0.072621 -0.137698 0.051191 0.250796 -0.094045 0.120066 -0.105750 -0.249936 0.238866 0.010916 0.047695 0.035278 0.020453 -0.268389 -0.070929 0.227555 0.036380
data_edgelists_mast_cell.edgelist__6597 0.055338 0.309041 0.027323 -0.104262 -0.128350 -0.156386 -0.003231 0.134266 0.104688 0.151700 -0.043718 -0.096620 0.116934 -0.175656 0.111061 0.183579 -0.120450 -0.082291 -0.048194 -0.200176 0.160588 -0.189416 0.200861 0.203345 -0.138804 -0.053008 0.292530 0.374912 0.000204 0.070051 -0.032775 -0.127550 0.138005 -0.056025 0.001406 0.133140 0.018054 0.100309 0.147258 -0.066292 -0.377419 0.038927 -0.238447 -0.142080 0.019171 0.016447 -0.207280 -0.000873 -0.210685 -0.368144 0.190362 -0.142102 -0.020106 -0.005074 -0.019349 -0.007559 -0.071511 0.210677 0.083451 0.214237 -0.063108 0.286782 -0.083736 0.147903 0.163968 -0.034996 -0.105980 0.042708 -0.029103 -0.184426 0.014948 0.048019 -0.188847 -0.117829 -0.041601 -0.043200 0.074846 -0.346362 0.069539 -0.114492 -0.079743 0.050989 -0.065668 -0.231399 -0.114652 -0.177842 0.054813 -0.074823 -0.193480 -0.143788 0.402458 0.154152 -0.079352 -0.163493 -0.235994 -0.022729 -0.093713 0.024214 0.027639 0.126957 0.056448 -0.014046 0.099816 -0.082134 0.012849 -0.194204 0.104630 0.068804 0.199617 0.194594 0.004618 -0.056001 -0.134050 0.059746 0.235998 -0.091145 0.120998 -0.107724 -0.250118 0.245792 0.001066 0.052038 0.024032 0.002909 -0.258061 -0.046075 0.195391 0.039902
data_edgelists_mast_cell.edgelist__6772 0.060280 0.325834 0.028201 -0.104908 -0.133456 -0.166636 -0.005831 0.150135 0.107527 0.161111 -0.046469 -0.103902 0.122454 -0.184699 0.123223 0.198556 -0.123541 -0.089898 -0.050751 -0.214814 0.168343 -0.197406 0.212833 0.213618 -0.147730 -0.057629 0.312570 0.392667 -0.000022 0.078001 -0.031095 -0.140310 0.144407 -0.060047 0.002069 0.148244 0.019598 0.104455 0.162238 -0.066725 -0.395327 0.040610 -0.252826 -0.150929 0.027567 0.015159 -0.221472 -0.000225 -0.225948 -0.394704 0.199988 -0.155484 -0.020224 -0.003312 -0.020939 -0.011465 -0.075773 0.225210 0.088649 0.224605 -0.065233 0.309522 -0.088541 0.157068 0.172796 -0.040201 -0.109893 0.048113 -0.029110 -0.198329 0.017020 0.049555 -0.194587 -0.126572 -0.044383 -0.041837 0.079598 -0.370413 0.077331 -0.121766 -0.083570 0.051960 -0.070344 -0.240945 -0.119348 -0.184931 0.057025 -0.083175 -0.201943 -0.150336 0.425121 0.163223 -0.078299 -0.179762 -0.251685 -0.026248 -0.098910 0.024773 0.027045 0.136752 0.059095 -0.017720 0.104273 -0.086982 0.012453 -0.207399 0.111346 0.070280 0.206448 0.202964 0.010235 -0.065648 -0.137951 0.057808 0.252525 -0.097004 0.123124 -0.111950 -0.263183 0.256778 0.005602 0.051804 0.028421 0.010084 -0.270953 -0.053851 0.217317 0.038978
data_edgelists_mast_cell.edgelist__7046 0.056044 0.323462 0.029747 -0.101313 -0.128564 -0.162257 -0.005215 0.148599 0.103421 0.152415 -0.045608 -0.099868 0.122918 -0.185898 0.125094 0.194765 -0.118845 -0.087874 -0.050108 -0.216079 0.162386 -0.193799 0.212130 0.207065 -0.146456 -0.054608 0.304650 0.387899 -0.002492 0.078646 -0.032547 -0.141841 0.145491 -0.057313 0.001335 0.147964 0.017985 0.103840 0.159522 -0.069592 -0.384095 0.045344 -0.250127 -0.150415 0.025686 0.012212 -0.221376 -0.000247 -0.226323 -0.387937 0.198228 -0.158118 -0.018764 -0.002242 -0.022353 -0.010820 -0.079462 0.225684 0.091722 0.220949 -0.069350 0.307681 -0.087781 0.155268 0.171096 -0.038057 -0.106975 0.050949 -0.029726 -0.194359 0.016736 0.050754 -0.192576 -0.129163 -0.041272 -0.043544 0.080368 -0.365318 0.077534 -0.120605 -0.079680 0.051597 -0.069889 -0.232271 -0.111576 -0.176601 0.057214 -0.084088 -0.195553 -0.148520 0.418644 0.162390 -0.076632 -0.178285 -0.247243 -0.023779 -0.097836 0.025397 0.027457 0.137186 0.057711 -0.022966 0.106178 -0.080157 0.011817 -0.207405 0.109430 0.069613 0.200632 0.197844 0.005744 -0.070316 -0.136466 0.054842 0.252132 -0.098451 0.123195 -0.110635 -0.254173 0.247950 0.008305 0.050241 0.032763 0.016739 -0.267053 -0.062633 0.221027 0.037760
data_edgelists_mast_cell.edgelist__324 0.052906 0.306287 0.026468 -0.094338 -0.122522 -0.152624 -0.004026 0.143254 0.093009 0.143270 -0.039693 -0.095815 0.117738 -0.175703 0.119699 0.183625 -0.115344 -0.080030 -0.048851 -0.209367 0.157873 -0.189079 0.198233 0.192313 -0.139767 -0.052711 0.289636 0.367809 -0.003799 0.075059 -0.030482 -0.133517 0.141121 -0.054491 0.000498 0.139849 0.015307 0.100799 0.149060 -0.061918 -0.370123 0.045898 -0.236483 -0.141991 0.022263 0.014567 -0.211507 -0.001846 -0.215636 -0.364606 0.189262 -0.150694 -0.023711 -0.001168 -0.025929 -0.007830 -0.073815 0.214378 0.087977 0.207460 -0.068498 0.290568 -0.085853 0.150293 0.163532 -0.037936 -0.103727 0.050808 -0.028219 -0.185775 0.017556 0.052446 -0.185696 -0.124451 -0.040717 -0.043239 0.074208 -0.348037 0.075479 -0.114356 -0.075030 0.046362 -0.069462 -0.223618 -0.101251 -0.166436 0.052476 -0.074671 -0.188967 -0.143730 0.400567 0.151002 -0.073730 -0.166612 -0.233809 -0.019858 -0.091899 0.028407 0.030517 0.129642 0.057413 -0.021860 0.103565 -0.080781 0.009473 -0.198841 0.103014 0.067195 0.187948 0.192397 0.001360 -0.069483 -0.130975 0.053045 0.240124 -0.096773 0.120167 -0.105479 -0.244121 0.238790 0.005148 0.044044 0.029640 0.014607 -0.257744 -0.056857 0.202807 0.034212
data_edgelists_mast_cell.edgelist__5371 0.056658 0.334565 0.031701 -0.107589 -0.134218 -0.166500 -0.007341 0.164615 0.108520 0.152371 -0.045345 -0.103968 0.128246 -0.195934 0.134788 0.202917 -0.114506 -0.095514 -0.047487 -0.225809 0.169526 -0.192748 0.220181 0.209345 -0.145873 -0.058264 0.314369 0.395583 -0.003835 0.085669 -0.035998 -0.149212 0.146609 -0.056518 0.000008 0.160165 0.019204 0.103388 0.167886 -0.071062 -0.389622 0.045576 -0.261743 -0.153342 0.031059 0.008477 -0.228137 -0.001789 -0.236462 -0.405783 0.199285 -0.165667 -0.018464 0.001709 -0.025152 -0.015885 -0.087321 0.235120 0.098385 0.224982 -0.070254 0.322156 -0.083885 0.163055 0.176474 -0.040576 -0.106632 0.051523 -0.028194 -0.202821 0.018317 0.055638 -0.199632 -0.137584 -0.038633 -0.042796 0.081808 -0.379788 0.081536 -0.125598 -0.082200 0.056377 -0.074430 -0.227590 -0.112521 -0.174512 0.058909 -0.091832 -0.197254 -0.156064 0.426880 0.167639 -0.072957 -0.189413 -0.256269 -0.021596 -0.104184 0.025800 0.028563 0.143219 0.057672 -0.030880 0.106033 -0.076191 0.011420 -0.211977 0.117619 0.074972 0.196543 0.203928 0.004486 -0.074549 -0.141225 0.054273 0.262702 -0.099198 0.125867 -0.110640 -0.256527 0.251671 0.011067 0.049735 0.040334 0.026879 -0.280753 -0.073646 0.238074 0.039748
data_edgelists_mast_cell.edgelist__9146 0.050414 0.308920 0.028894 -0.095138 -0.121638 -0.152439 -0.008004 0.148095 0.095331 0.140234 -0.039782 -0.098604 0.118975 -0.184445 0.126771 0.185451 -0.110276 -0.084196 -0.047945 -0.215300 0.156003 -0.185282 0.204397 0.189170 -0.136466 -0.053705 0.293443 0.369528 -0.005949 0.079177 -0.034354 -0.138946 0.142558 -0.053126 -0.000385 0.150149 0.016195 0.098633 0.153103 -0.061818 -0.367826 0.047642 -0.238098 -0.142093 0.026579 0.012770 -0.217374 -0.003311 -0.225362 -0.374715 0.187150 -0.155572 -0.020349 -0.000712 -0.027808 -0.011397 -0.077779 0.218850 0.089824 0.208007 -0.072868 0.297643 -0.085143 0.152454 0.163450 -0.040152 -0.101937 0.051643 -0.025988 -0.190474 0.017626 0.053395 -0.186767 -0.131478 -0.035157 -0.041707 0.075324 -0.357675 0.078528 -0.116042 -0.073388 0.047184 -0.070258 -0.216726 -0.098549 -0.159440 0.054640 -0.082706 -0.185553 -0.144911 0.400344 0.155702 -0.069137 -0.175395 -0.238775 -0.017229 -0.096867 0.028396 0.029045 0.135832 0.054724 -0.029046 0.103484 -0.073898 0.010084 -0.200906 0.105794 0.067373 0.184410 0.189735 0.000089 -0.076849 -0.130670 0.049613 0.243898 -0.096581 0.118762 -0.103946 -0.241196 0.237524 0.009785 0.044308 0.033914 0.022318 -0.259184 -0.069832 0.219715 0.036664
data_edgelists_mast_cell.edgelist__5728 0.051421 0.323578 0.029433 -0.097276 -0.126290 -0.160120 -0.005685 0.159486 0.095785 0.145687 -0.040282 -0.103904 0.125342 -0.192129 0.134703 0.192962 -0.107453 -0.092976 -0.046488 -0.223563 0.162941 -0.186803 0.214719 0.198055 -0.143184 -0.056065 0.302372 0.380425 -0.004442 0.086486 -0.037629 -0.146208 0.145975 -0.052378 -0.004215 0.157908 0.015882 0.102380 0.161212 -0.067903 -0.376996 0.051221 -0.252412 -0.148935 0.031816 0.009103 -0.225948 -0.002466 -0.233541 -0.390150 0.190884 -0.164770 -0.020505 0.004174 -0.028866 -0.012953 -0.085640 0.231794 0.096264 0.216566 -0.076925 0.312508 -0.084349 0.158111 0.170135 -0.042609 -0.103015 0.054851 -0.028863 -0.197124 0.018388 0.057663 -0.191903 -0.138575 -0.036414 -0.042660 0.081574 -0.370181 0.082968 -0.122304 -0.076356 0.051157 -0.072339 -0.219862 -0.102075 -0.161421 0.053569 -0.088854 -0.190909 -0.152044 0.416472 0.161249 -0.069558 -0.186155 -0.245756 -0.015729 -0.102054 0.028762 0.028988 0.141514 0.055242 -0.034731 0.106087 -0.072028 0.009698 -0.208093 0.112348 0.068604 0.185665 0.197014 -0.000951 -0.079059 -0.138200 0.050724 0.251648 -0.098702 0.119427 -0.106195 -0.249066 0.241807 0.012817 0.046967 0.039457 0.029807 -0.271484 -0.076830 0.234695 0.038560
data_edgelists_mast_cell.edgelist__1386 0.057932 0.330577 0.029147 -0.103099 -0.127508 -0.166149 -0.006483 0.156824 0.104228 0.155601 -0.044775 -0.103655 0.125901 -0.188930 0.129647 0.201430 -0.119627 -0.090662 -0.048218 -0.223845 0.170378 -0.191428 0.215283 0.206996 -0.148023 -0.056269 0.311645 0.392264 -0.004189 0.082461 -0.034772 -0.145287 0.148117 -0.055187 -0.002038 0.155818 0.016384 0.106256 0.161346 -0.070177 -0.391909 0.047320 -0.254927 -0.153360 0.028194 0.012229 -0.225641 -0.001735 -0.233547 -0.398577 0.199765 -0.161158 -0.019158 -0.002184 -0.026137 -0.012294 -0.082492 0.228252 0.094887 0.221303 -0.072464 0.314484 -0.085679 0.158385 0.174475 -0.042525 -0.107796 0.051650 -0.026559 -0.198326 0.017012 0.055219 -0.195385 -0.134598 -0.039496 -0.042680 0.080374 -0.375015 0.081544 -0.124360 -0.082631 0.052888 -0.071596 -0.233197 -0.112055 -0.175004 0.056394 -0.089347 -0.197291 -0.153253 0.426885 0.165634 -0.075316 -0.181407 -0.251222 -0.023030 -0.100755 0.025346 0.029136 0.141648 0.055991 -0.028979 0.108897 -0.077029 0.011054 -0.213855 0.114539 0.069239 0.197777 0.201375 0.002743 -0.072913 -0.141023 0.055520 0.258724 -0.096120 0.123012 -0.108852 -0.257464 0.250285 0.009500 0.049555 0.036677 0.017378 -0.273985 -0.067201 0.228109 0.037661
data_edgelists_mast_cell.edgelist__57154 0.049097 0.288872 0.025243 -0.089153 -0.114186 -0.141926 -0.005326 0.134062 0.090294 0.136474 -0.039489 -0.090661 0.110635 -0.167679 0.112704 0.173345 -0.105736 -0.079130 -0.043011 -0.195170 0.146396 -0.171291 0.187789 0.180523 -0.130199 -0.049585 0.270191 0.345870 -0.002503 0.071100 -0.030326 -0.126400 0.131379 -0.048489 -0.001870 0.134087 0.013123 0.092657 0.140932 -0.059037 -0.343735 0.041071 -0.223374 -0.134653 0.023375 0.010864 -0.197109 -0.001936 -0.204468 -0.346255 0.175186 -0.142874 -0.019357 -0.003231 -0.021724 -0.009022 -0.071618 0.201813 0.081395 0.196404 -0.064774 0.276119 -0.077641 0.140822 0.154688 -0.035828 -0.095818 0.045562 -0.026276 -0.175660 0.015176 0.049189 -0.172695 -0.118436 -0.034574 -0.037691 0.070767 -0.329264 0.068540 -0.110472 -0.069921 0.045658 -0.063117 -0.206480 -0.098563 -0.153484 0.050463 -0.075631 -0.173571 -0.133333 0.373409 0.143828 -0.068501 -0.159353 -0.221401 -0.019822 -0.090749 0.022658 0.024642 0.122176 0.053110 -0.022070 0.095082 -0.072248 0.011145 -0.186452 0.099150 0.061598 0.175588 0.176369 0.003724 -0.063966 -0.124205 0.048654 0.224916 -0.087937 0.111426 -0.097772 -0.226934 0.220495 0.007312 0.043298 0.030330 0.015529 -0.238918 -0.059120 0.199453 0.033331
data_edgelists_mast_cell.edgelist__5925 0.058270 0.332831 0.031008 -0.108166 -0.134969 -0.166775 -0.005837 0.153922 0.107822 0.159024 -0.046601 -0.104816 0.129273 -0.190465 0.130255 0.201454 -0.123545 -0.089673 -0.052294 -0.222925 0.170686 -0.199751 0.218772 0.212859 -0.149039 -0.057115 0.315802 0.400365 -0.004820 0.082317 -0.032455 -0.144621 0.149445 -0.059442 0.001501 0.153114 0.019102 0.105627 0.162400 -0.071878 -0.399664 0.045219 -0.257883 -0.154787 0.025625 0.014068 -0.228434 -0.002554 -0.235677 -0.402088 0.203324 -0.161580 -0.020286 -0.001225 -0.024862 -0.010652 -0.080537 0.230341 0.093622 0.229754 -0.070680 0.317466 -0.089537 0.161692 0.176627 -0.040187 -0.109492 0.052912 -0.031715 -0.200892 0.017595 0.053124 -0.200514 -0.134170 -0.042070 -0.045149 0.080444 -0.377264 0.081279 -0.126007 -0.083743 0.052459 -0.071861 -0.239913 -0.115057 -0.182336 0.058536 -0.086079 -0.201967 -0.154482 0.433831 0.167719 -0.077569 -0.180103 -0.254177 -0.021934 -0.101208 0.030157 0.029581 0.139873 0.060185 -0.022782 0.109069 -0.084151 0.012060 -0.212469 0.112512 0.073922 0.206254 0.208796 0.005328 -0.070023 -0.140264 0.058977 0.260611 -0.101694 0.128309 -0.112368 -0.264001 0.257268 0.007288 0.050393 0.032550 0.015963 -0.278071 -0.060601 0.225958 0.039799
data_edgelists_mast_cell.edgelist__472 0.050527 0.315162 0.030355 -0.096420 -0.125893 -0.156264 -0.005477 0.151402 0.096130 0.145447 -0.041451 -0.100193 0.120667 -0.183909 0.126614 0.190847 -0.111834 -0.087172 -0.046646 -0.215415 0.161516 -0.184934 0.206140 0.197016 -0.140263 -0.053647 0.297897 0.373037 -0.003450 0.079182 -0.033958 -0.142118 0.143218 -0.054629 -0.002965 0.148916 0.015971 0.099656 0.157303 -0.065080 -0.372027 0.048021 -0.245499 -0.146859 0.026887 0.011188 -0.219836 -0.003538 -0.222198 -0.379595 0.186796 -0.156747 -0.021065 -0.000229 -0.026745 -0.011992 -0.078975 0.222453 0.092321 0.212558 -0.070711 0.303414 -0.084593 0.153309 0.168273 -0.040298 -0.104060 0.051972 -0.028421 -0.193523 0.015690 0.053566 -0.189074 -0.129706 -0.036482 -0.041624 0.078695 -0.357252 0.078928 -0.117501 -0.076380 0.050760 -0.068967 -0.220842 -0.104941 -0.164397 0.053743 -0.083572 -0.189172 -0.146927 0.405806 0.156754 -0.071545 -0.177772 -0.239984 -0.019132 -0.099582 0.025584 0.027943 0.135839 0.056262 -0.027700 0.105208 -0.076873 0.010560 -0.200947 0.108784 0.069539 0.186575 0.193695 0.002037 -0.074565 -0.133970 0.051591 0.247316 -0.098223 0.118382 -0.105314 -0.245663 0.238662 0.008478 0.045802 0.033789 0.023600 -0.261723 -0.066021 0.220912 0.036246
data_edgelists_mast_cell.edgelist__2353 0.053112 0.318325 0.028052 -0.097912 -0.126461 -0.157902 -0.004765 0.155342 0.097738 0.145192 -0.043088 -0.099184 0.123972 -0.190169 0.130745 0.191455 -0.109726 -0.089979 -0.048183 -0.218510 0.161956 -0.187232 0.213060 0.196704 -0.139254 -0.051119 0.299645 0.377284 -0.003280 0.083078 -0.034497 -0.144417 0.144752 -0.056075 -0.001573 0.153176 0.016643 0.100169 0.157385 -0.068326 -0.373872 0.047774 -0.251509 -0.146043 0.028754 0.009976 -0.220680 -0.001606 -0.227707 -0.387082 0.191689 -0.161108 -0.019807 0.001104 -0.026450 -0.014756 -0.082157 0.226291 0.094721 0.214464 -0.070940 0.306935 -0.082312 0.153220 0.167370 -0.041431 -0.104395 0.051828 -0.028261 -0.194993 0.016242 0.055471 -0.191614 -0.133930 -0.036326 -0.042693 0.079088 -0.363930 0.079666 -0.119342 -0.077276 0.052984 -0.070800 -0.219952 -0.102954 -0.163895 0.055016 -0.088294 -0.190602 -0.148191 0.408296 0.160773 -0.068191 -0.179159 -0.245041 -0.016629 -0.100596 0.027367 0.027875 0.138967 0.055132 -0.031836 0.104265 -0.074469 0.011702 -0.200686 0.112381 0.071026 0.186752 0.195862 0.001856 -0.076420 -0.136126 0.047449 0.249101 -0.096233 0.121932 -0.106193 -0.246259 0.241097 0.009902 0.045713 0.037078 0.027105 -0.266881 -0.071024 0.227255 0.038819
data_edgelists_mast_cell.edgelist__5300 0.054710 0.320709 0.029438 -0.101277 -0.129383 -0.160137 -0.007082 0.152241 0.101953 0.149543 -0.043912 -0.098944 0.123077 -0.187729 0.126165 0.193619 -0.111729 -0.088384 -0.047104 -0.216696 0.163558 -0.188374 0.208841 0.202174 -0.141983 -0.055350 0.300206 0.381969 -0.003800 0.078902 -0.033427 -0.142705 0.143480 -0.055864 0.001815 0.150229 0.018344 0.103215 0.156820 -0.068438 -0.377524 0.044925 -0.248457 -0.146706 0.024890 0.014201 -0.220444 -0.001278 -0.226246 -0.385763 0.195114 -0.155689 -0.019160 -0.000088 -0.022804 -0.011897 -0.081250 0.222259 0.091476 0.216964 -0.069300 0.304456 -0.083368 0.154912 0.170201 -0.038642 -0.106487 0.050296 -0.027327 -0.193138 0.017801 0.054107 -0.191622 -0.130907 -0.037613 -0.041616 0.078398 -0.363656 0.077082 -0.120742 -0.079087 0.051720 -0.067883 -0.226826 -0.109324 -0.169549 0.054351 -0.083526 -0.191891 -0.148565 0.411389 0.157783 -0.073080 -0.178478 -0.244713 -0.021353 -0.099413 0.027282 0.029076 0.136691 0.056389 -0.027211 0.105027 -0.077060 0.009736 -0.204682 0.110704 0.070788 0.191606 0.197336 0.002805 -0.070956 -0.136614 0.052053 0.251303 -0.096304 0.120433 -0.106079 -0.247516 0.243509 0.007884 0.048225 0.033733 0.020116 -0.266478 -0.064630 0.223049 0.039261
data_edgelists_mast_cell.edgelist__409 0.054426 0.334144 0.031424 -0.100820 -0.129049 -0.166261 -0.005892 0.160435 0.104890 0.153191 -0.044024 -0.104923 0.127325 -0.194493 0.135240 0.201274 -0.114340 -0.094647 -0.047213 -0.228122 0.169083 -0.193016 0.217893 0.206932 -0.149051 -0.057880 0.313809 0.395030 -0.004928 0.085247 -0.037656 -0.148920 0.150911 -0.054382 -0.003305 0.157870 0.014843 0.107004 0.163721 -0.070484 -0.393231 0.048071 -0.256354 -0.153044 0.031488 0.010826 -0.227642 -0.002647 -0.237351 -0.403344 0.199916 -0.166235 -0.020538 -0.000606 -0.027184 -0.013531 -0.085201 0.232958 0.098331 0.224417 -0.077455 0.319550 -0.086973 0.160575 0.176487 -0.044029 -0.107586 0.053573 -0.030227 -0.203118 0.017702 0.054449 -0.197205 -0.137788 -0.038670 -0.042022 0.083571 -0.381376 0.083389 -0.126168 -0.081506 0.052119 -0.071099 -0.232107 -0.112153 -0.171593 0.056655 -0.089275 -0.197676 -0.157288 0.429993 0.167158 -0.073768 -0.188179 -0.255683 -0.022516 -0.104131 0.028363 0.028818 0.142274 0.056914 -0.032733 0.106722 -0.078775 0.011103 -0.217734 0.115237 0.070739 0.197771 0.203772 0.001543 -0.074902 -0.140909 0.053956 0.258990 -0.099563 0.123168 -0.109602 -0.258798 0.249046 0.008985 0.048685 0.039890 0.022046 -0.278945 -0.070851 0.235818 0.038175
data_edgelists_mast_cell.edgelist__5335 0.053547 0.322443 0.029551 -0.099944 -0.124407 -0.161978 -0.006570 0.149721 0.098315 0.155022 -0.042036 -0.098717 0.124743 -0.185081 0.127810 0.196433 -0.115366 -0.089072 -0.049248 -0.219112 0.163571 -0.191910 0.210431 0.206071 -0.148889 -0.051796 0.310053 0.386513 -0.007739 0.078372 -0.033071 -0.139994 0.147349 -0.054596 -0.001821 0.154186 0.014740 0.102435 0.158095 -0.068637 -0.389336 0.046512 -0.248740 -0.148224 0.029323 0.016340 -0.222838 -0.002562 -0.227176 -0.391664 0.197238 -0.158776 -0.018034 -0.000246 -0.024957 -0.006460 -0.077274 0.223531 0.093261 0.218283 -0.075401 0.310041 -0.087739 0.157445 0.171019 -0.041574 -0.105991 0.049537 -0.027094 -0.196749 0.016290 0.053751 -0.191524 -0.130913 -0.041302 -0.043520 0.080951 -0.369826 0.079453 -0.121093 -0.081657 0.050242 -0.068300 -0.233879 -0.108677 -0.175189 0.054015 -0.084943 -0.194890 -0.151976 0.422923 0.163513 -0.072211 -0.178579 -0.244620 -0.021067 -0.099546 0.027431 0.028120 0.135471 0.059162 -0.022877 0.106129 -0.076912 0.006474 -0.212036 0.107355 0.066620 0.195539 0.201697 0.004312 -0.071794 -0.139086 0.055626 0.251564 -0.095584 0.121247 -0.106978 -0.254438 0.247831 0.010627 0.048296 0.035539 0.012083 -0.269517 -0.065048 0.222224 0.035672
data_edgelists_mast_cell.edgelist__8841 0.059504 0.338671 0.031818 -0.112452 -0.139520 -0.172494 -0.005806 0.160249 0.114291 0.158107 -0.050878 -0.105425 0.126284 -0.196418 0.131852 0.203196 -0.122581 -0.095090 -0.048962 -0.225368 0.173241 -0.199122 0.225480 0.216906 -0.147139 -0.060484 0.317922 0.401181 -0.000702 0.083669 -0.034576 -0.146674 0.148449 -0.060802 0.001094 0.157814 0.019726 0.105256 0.167657 -0.072212 -0.397737 0.043568 -0.263042 -0.156597 0.029752 0.010032 -0.229427 -0.003726 -0.236232 -0.406146 0.202507 -0.165198 -0.019241 -0.000762 -0.022064 -0.016492 -0.084400 0.235502 0.096608 0.231310 -0.067900 0.319159 -0.085216 0.163985 0.178053 -0.040822 -0.108387 0.052236 -0.029763 -0.203880 0.019428 0.055055 -0.203267 -0.133544 -0.041573 -0.041129 0.080893 -0.381225 0.078072 -0.126654 -0.083403 0.057969 -0.074691 -0.234060 -0.117341 -0.184359 0.062725 -0.089102 -0.202043 -0.155538 0.433156 0.170625 -0.077086 -0.190216 -0.261710 -0.023535 -0.104530 0.026638 0.030504 0.142634 0.059702 -0.027477 0.108292 -0.082076 0.014145 -0.210611 0.118058 0.076627 0.204832 0.207239 0.007364 -0.070201 -0.142302 0.056946 0.263496 -0.099120 0.128707 -0.114212 -0.266237 0.259684 0.008348 0.052035 0.036850 0.021882 -0.285787 -0.066513 0.231964 0.043751
data_edgelists_mast_cell.edgelist__23411 0.054764 0.306575 0.026930 -0.101075 -0.126243 -0.153217 -0.000699 0.131865 0.102625 0.152790 -0.042146 -0.095277 0.116284 -0.174437 0.110564 0.184079 -0.121572 -0.079149 -0.049145 -0.198491 0.159696 -0.190903 0.197893 0.201885 -0.139231 -0.053844 0.289436 0.373987 0.000286 0.066910 -0.030775 -0.125720 0.138995 -0.056667 0.000547 0.130228 0.016526 0.103386 0.145456 -0.067007 -0.376199 0.038135 -0.235451 -0.142603 0.018294 0.017310 -0.205367 0.001094 -0.209047 -0.363792 0.188306 -0.142619 -0.018803 -0.004933 -0.020540 -0.005285 -0.070849 0.207860 0.082851 0.211898 -0.065537 0.286784 -0.086653 0.144866 0.163623 -0.036863 -0.105949 0.045872 -0.030249 -0.184690 0.013581 0.047768 -0.188593 -0.115386 -0.042276 -0.041228 0.073502 -0.345041 0.069971 -0.112304 -0.076756 0.048574 -0.064763 -0.231667 -0.110622 -0.177128 0.052506 -0.070744 -0.190984 -0.142034 0.400549 0.152551 -0.079256 -0.160862 -0.232965 -0.023418 -0.093669 0.024836 0.028019 0.127728 0.056805 -0.013559 0.098962 -0.082684 0.010816 -0.194266 0.100544 0.068304 0.195472 0.194268 0.006062 -0.056107 -0.132958 0.059359 0.234368 -0.087232 0.119055 -0.106230 -0.248949 0.243401 -0.000693 0.052025 0.024974 -0.000300 -0.255029 -0.046865 0.192186 0.039300
