602 64
7157 0.063047834 -0.4787705 0.4168735 -0.21266922 0.19010264 0.00756933 -0.37657094 0.0039537796 0.22165129 -0.11761394 -0.31771752 -0.105977595 0.29676002 0.32544124 -0.12627316 -0.19659457 0.173276 -0.22369286 0.34331915 -0.11355565 -0.26698855 -0.2240986 -0.23694633 -0.052484177 0.039608154 0.0998786 -0.04278173 0.2817609 -0.054365218 0.19254822 0.25613025 -0.23823422 0.29343793 0.13013065 0.29314387 -0.08163278 0.19649346 -0.47217807 0.06749132 -0.25441864 -0.3949688 0.25991973 0.25417444 -0.024794754 -0.010601612 -0.129018 0.48765355 -0.065019734 -0.13572142 0.053781904 0.15280262 0.12755315 -0.09345772 0.17528325 0.013603431 -0.14626937 -0.03211115 -0.14914724 -0.23370676 0.15878658 0.09985254 -0.31989744 -0.01829985 -0.123295896
2885 0.015676498 -0.22448738 -0.016245522 -0.25248584 0.09402002 0.2662788 0.18293282 0.010092693 0.05006786 -0.0006853192 -0.026609411 -0.04880475 -0.24289149 0.24428353 0.30165944 0.390781 0.13833115 0.56834346 0.2695452 0.061942924 0.15567912 0.011397928 0.02311602 0.02216894 0.45286122 0.029180149 -0.15301517 0.11916098 -0.050391257 0.29620323 -0.23828131 0.036356777 -0.1453006 -0.3157176 0.32696697 0.7844229 0.06232275 -0.58629733 0.10545767 -0.0453451 -0.34879327 0.08747882 -0.21608242 0.26578707 -0.1312267 0.029826561 0.011802563 -0.036045548 0.010417021 0.11478861 -0.02841729 -0.44370434 -0.035653275 0.22563216 0.043157104 -0.16165763 -0.29871508 0.074324325 0.3549621 0.022640549 0.43937582 -0.009048596 -0.30257624 0.04869338
1956 -0.028518774 -0.3378691 -0.257386 -0.2815613 0.15429851 -0.28854975 0.14288658 0.6685114 0.10139513 0.29340822 -0.09805311 -0.23181216 -0.23410362 0.075245574 0.29465845 -0.022539146 0.018271485 -0.08837236 0.35926664 0.29013214 -0.0109403925 -0.030628128 -0.15294869 -0.10588726 0.42612875 0.46748015 -0.3155991 0.054069884 0.14436537 0.1367913 0.071405515 0.26103652 0.13215628 -0.053129073 0.13413523 0.24633887 -0.18857598 -0.21405765 0.2699552 -0.06800263 0.02766597 0.12076043 -0.05317297 0.2807843 -0.03799436 -0.17237191 -0.10013934 -0.18172383 -0.2261057 -0.18824941 -0.23168576 -0.0018702744 -0.077523306 0.25204146 0.12333829 -0.45259148 0.021940429 -0.00764762 0.124600746 0.0877974 -0.099236205 -0.39046326 0.046131566 0.14294183
6714 0.025813697 -0.2851669 -0.08609213 -0.41057536 0.24654558 0.028214267 -0.23998359 0.2775544 -0.07937899 0.25549665 0.23929714 0.20867251 -0.28830513 0.15590861 -0.032487247 -0.15264843 0.08820684 0.24690932 0.2797838 0.35371152 -0.18040623 0.090733 -0.17460123 -0.31166807 0.5642296 0.050986562 -0.15738669 -0.09252214 -0.05213085 -0.021133866 0.12728374 -0.050578736 -0.13064067 -0.0201754 0.060510445 -0.07286149 -0.08760187 -0.29364726 -0.012009812 0.20138505 -0.107538536 0.09413153 -0.23669319 0.022027025 -0.016873103 0.06002993 -0.11083979 0.21679977 -0.3798439 -0.021481225 -0.33304295 -0.28091055 -0.18780805 0.23531991 -0.2125608 -0.30358282 -0.12165276 0.074062675 -0.09242088 0.02066055 -0.0068010795 -0.21685645 0.35815817 0.12606099
1499 -0.22038296 -0.27434862 0.13596193 0.06565397 0.021303106 0.31949875 -0.17269325 -0.055708308 0.0036623476 -0.006601613 0.06406954 0.19080867 0.2130855 0.12415917 0.13901883 -0.3044428 0.11262732 -0.2771272 0.35280934 0.6182516 0.3173403 -0.09825515 -0.4436938 -0.0967705 0.40550914 0.33282986 -0.0671757 0.06174412 -0.0010252954 0.050440963 -0.047285125 -0.11221411 0.17838679 0.10703321 -0.05841538 0.115934625 0.04059648 0.14320031 -0.03482279 0.3208639 -0.283367 -0.15768117 0.13095824 -0.33328456 -0.042661343 0.038873278 -0.14620462 0.3831945 -0.120381996 -0.03779464 -0.036591228 -0.07268283 -0.2731544 -0.3793404 -0.41553405 -0.3000215 0.08490563 0.09823689 -0.110488765 0.19296795 -0.07006484 -0.13276304 -0.24135005 0.61829567
5594 0.07810362 -0.09125725 -0.00017682402 -0.028102739 -0.045463793 0.33584088 -0.38141957 0.060462683 0.049166087 0.40107757 0.008288836 -0.3463658 0.16215754 -0.002361496 0.28227606 0.18292083 0.07900596 0.031190785 0.42342556 0.34219134 -0.34350705 -0.12350729 0.012626271 -0.17809139 0.21269609 0.26297927 0.0029242197 -0.38199088 0.0025852993 -0.010564516 -0.053906377 0.0535585 -0.08346347 -0.046655253 0.113128744 0.4967801 -0.1898054 0.061060544 -0.009414305 -0.04451308 0.27685368 -0.16860741 -0.37632644 -0.31381133 -0.4166887 0.2843638 0.40674323 -0.0657247 0.099477164 0.07206834 -0.085219584 -0.11851532 0.030942177 0.44205374 -0.016236357 0.22588992 0.11567368 -0.48012978 -0.11458264 0.2941698 -0.07787839 -0.37021956 0.06866621 -0.19162655
1432 -0.090658545 -0.021309711 0.04221738 -0.13955702 0.025925674 0.045307633 0.15623897 0.0026885516 0.047116015 0.18452953 -0.24178752 -0.21379337 0.11512423 0.29797855 0.3106008 0.23643859 0.04361884 0.05584342 0.46553525 0.45365086 -0.14663008 -0.27096123 0.053541597 0.036973666 0.22124164 0.31064656 -0.41841766 -0.03722526 -0.13643222 -0.24497691 -0.014495586 0.131974 -0.18644534 -0.30879858 0.18123165 0.19914162 -0.15971555 0.10681083 -0.17242724 0.2047406 -0.1590451 0.13706554 -0.118342675 -0.3078172 -0.35138202 0.21894962 0.46003488 -0.24958935 0.29288355 -0.22178681 0.25631195 0.090110146 0.04081158 -0.086316876 -0.18126057 0.23001927 0.12182012 -0.013125696 0.2978183 -0.109038144 -0.17018786 -0.34528306 0.19101827 0.11855293
4088 0.044175994 -0.19757818 0.38813534 -0.18233521 -0.15454955 0.23922165 0.030912427 0.005556464 0.05907524 -0.1336151 -0.058466394 -0.21519269 0.7247032 -0.16719556 0.023538962 0.01678736 0.10834916 0.36048287 0.43386745 0.48775956 0.2429035 0.006052397 0.47469166 0.06625069 0.063300386 0.43607247 -0.2218263 0.5089994 0.006725303 -0.068264455 0.1206156 0.011790206 -0.026477654 0.17923065 0.3208542 0.21412788 -0.157825 -0.17130545 0.024048723 0.107779495 -0.21542558 -0.11628266 0.3653278 -0.3953339 -0.19885184 0.05549395 0.40474468 0.16665827 -0.24142702 -0.032162562 -0.015612166 -0.10265168 -0.15317611 -0.29765218 -0.05402091 -0.19661206 0.23944452 0.104685314 -0.061731238 -0.019390456 0.084555335 0.1494589 -0.08714883 0.15647645
7189 0.0854708 -0.09269614 -0.3794297 0.23290873 -0.033393495 0.027934255 -0.098055795 0.3436114 -0.2992151 0.37815154 -0.2467944 0.2584691 0.42729765 -0.012181591 -0.12657718 -0.35016447 0.08390002 0.09323543 0.58935446 0.12254048 -0.23059547 -0.11450435 -0.11011332 0.110928915 0.2814499 0.016027978 -0.1159573 -0.06636847 0.044408455 0.2558133 -0.14780037 -0.11310343 -0.22780386 0.26539758 0.3242284 -0.37877235 -0.00066647545 -0.07875969 -0.032158636 0.052511185 -0.21302487 0.50983506 -0.02013557 -0.096350804 0.18342301 0.1698372 0.18244319 -0.22947183 0.24907964 -0.40264565 0.08555758 -0.38046566 -0.2680227 -0.09717404 0.42249605 -0.1404834 0.12899433 -0.41403738 -0.2935188 0.031180393 0.3241206 -0.1569312 0.10619898 -0.24802111
5595 -0.08720508 -0.03174828 0.04363158 0.42662832 0.00011712678 0.25782824 -0.30655175 -0.106182896 0.06718857 0.45763114 0.17415233 -0.41782123 0.08771981 0.17674893 -0.016871614 0.27425295 -0.17049564 0.014561026 0.39351127 0.4026132 -0.37184235 0.13077249 -0.20181195 -0.19393809 0.17153925 0.52262634 -0.23710981 -0.051957883 0.08709257 -0.05144886 -0.11278827 0.16324429 0.17217927 -0.1552965 0.23887908 0.22317882 0.09415884 0.07336309 0.09510103 -0.23598565 0.09036059 -0.13999234 -0.4717046 -0.009473817 -0.42538708 0.17631651 0.35440013 -0.28796288 -0.19518498 -0.1215882 -0.24135585 0.024010474 0.07167148 0.35254672 0.14076336 0.023739683 0.0028793127 -0.37194216 -0.14562565 0.4381006 -0.002031656 -0.49492022 0.013210733 -0.24348032
5578 -0.049817055 -0.24148743 -0.04379769 -0.14935198 0.39592916 0.09894376 0.0768799 0.19776031 0.27275708 -0.3446026 0.41132876 0.4451961 0.17581055 0.50626266 -0.21859929 -0.20016171 0.18703455 0.21879946 0.5405451 -0.030435935 -0.088590205 -0.2053369 -0.111787714 -0.36311382 0.11466682 0.21210656 0.11099213 -0.021648994 0.42064068 0.5045452 -0.30451933 -0.051095717 0.09157763 -0.10432485 -0.0005206792 0.5515699 -0.2475186 0.16036884 -0.29069227 0.17839697 -0.09582926 0.011446466 -0.37073678 0.112385474 -0.15345873 0.23014665 0.08108215 -0.18101695 -0.3252503 -0.0038057033 0.19425379 -0.16506304 0.12683134 -0.04840098 -0.46203065 -0.37884533 -0.113914125 0.19993861 -0.046891805 0.08020809 -0.22049436 -0.23187311 0.42909166 0.0142023815
4087 0.1856133 -0.40190867 0.26524675 -0.37111136 0.10289393 0.12382971 -0.12563342 -0.1696548 -0.067897685 0.16172938 -0.075122885 0.085247785 0.49336013 -0.379141 0.0916921 0.36339405 -0.3426007 0.30953503 0.22174971 0.22395721 -0.035478286 -0.07821808 0.38207844 0.25704902 0.06975495 0.20381393 -0.35709423 0.45307612 0.47794122 -0.092923865 -0.39900887 0.005989609 0.12060138 0.32247302 0.10246018 0.5359953 -0.17581427 0.047915824 -0.16662666 0.13698223 -0.20351751 -0.16482107 0.41912252 -0.3701887 -0.10866426 -0.101457775 0.5100547 -0.0625923 -0.11077931 -0.029238239 -0.2588313 -0.035558123 -0.17868584 -0.03149641 0.028501729 -0.4329845 0.47118956 0.09155562 0.11851844 0.11454709 -0.0878732 -0.08108822 -0.3309585 0.070375204
5599 0.16161843 -0.12979329 0.08648634 -0.18859647 0.38797846 -0.04487245 0.13015932 -0.14060897 0.15291338 0.2209006 -0.27189195 -0.2321551 0.25150487 0.5225361 0.18061744 0.14543594 0.06698027 -0.060052246 0.40989187 0.4181133 -0.0146199865 -0.121620074 0.14743432 -0.34900975 0.55477065 0.34376836 -0.28418604 0.024388764 -0.2868933 -0.08943209 -0.17391993 0.17116135 -0.111886375 -0.21002781 -0.24934088 0.041480105 -0.28962752 -0.16074702 0.2089617 0.21832924 -0.040321812 0.062747225 -0.16523182 -0.14897701 -0.37518445 -0.09754346 0.47034806 -0.28185317 0.42710516 0.15372917 0.011132557 0.032728698 -0.055847656 -0.25652957 0.18237296 -0.11261367 0.1370791 -0.13440509 0.17372791 0.16552743 -0.122787975 -0.01706855 0.1062036 -0.079488136
5970 0.1203032 -0.06485769 -0.12646541 0.068165146 -0.048173014 0.3750985 -0.2292578 0.41640905 -0.050691202 -0.2514479 0.14389607 -0.5593696 0.05456918 0.16952127 -0.15212502 0.26236463 0.16297033 -0.08487179 0.46988732 -0.12582803 -0.13062653 -0.15247995 -0.035187855 0.21210156 0.26131248 0.35839838 -0.043499805 -0.038613264 -0.032099076 -0.1684378 0.11660223 0.011889434 0.09714525 0.09958493 0.1382429 -0.14838931 -0.20944494 -0.46424764 0.040575333 0.42192554 -0.18585993 0.061728194 0.047483783 -0.3262582 0.055022784 0.34297007 0.525903 -0.066045195 0.0032800133 0.22997291 -0.17752805 -0.010559338 0.09939739 0.2981655 -0.4008466 -0.055991456 0.04338628 -0.039015062 -0.31386837 0.11880365 -0.016669555 -0.42265275 0.18249708 0.31943396
6885 0.11259719 0.28740686 -0.22681534 0.117582396 0.020731157 0.020168044 0.11739239 0.57191163 -0.13524838 0.25658485 -0.05628385 -0.1158592 0.21829683 -0.122438006 -0.21659005 -0.04860917 0.07411403 0.13618161 0.4443382 0.31270182 0.13141699 0.2783911 0.14853987 -0.0062322915 0.12555334 0.19334315 -0.17704377 0.3748643 -0.14831413 -0.20154059 0.10197838 0.17806469 0.24196832 0.114705615 0.4564073 0.063975 -0.11415813 -0.25142428 -0.035135638 0.35424364 -0.29673216 0.44447556 -0.13224274 -0.19902769 -0.30202648 0.4277112 0.2908185 -0.19450697 -0.10492217 -0.18958189 -0.088616475 0.08447036 0.046175286 -0.3916757 0.22476736 -0.2945972 -0.19011246 0.012681711 -0.36825866 -0.2923937 0.29473242 -0.03548928 -0.042945974 -0.22813456
7186 -0.021464037 -0.19727933 0.038020294 -0.76604414 0.26964295 -0.17540944 -0.073414534 0.5431441 0.19086958 0.7110877 0.28127983 0.054860692 0.5304881 0.022948112 -0.047928717 0.20951793 -0.05641922 0.30258596 0.23970574 -0.044612292 0.38547635 0.105235875 -0.14099073 -0.23246895 0.17550689 0.28192762 0.06893605 0.25596288 -0.086574435 0.1557446 -0.13735044 -0.18256734 0.18526697 0.38614142 -0.44901824 -0.190235 0.24048562 -0.20342952 -0.3067635 0.19637212 -0.26141438 0.32942504 0.032496575 -0.19023414 -0.04634012 0.1835364 0.25460637 0.13958998 0.7039325 0.014470529 -0.0060515353 -0.36733094 -0.29119572 -0.24666716 0.44475013 0.0013288239 -0.2328757 -0.18388362 -0.18626471 0.09586889 0.06819086 -0.011496665 0.057910386 -0.046268303
5295 -0.16049536 0.017830249 -0.5646938 -0.34291676 0.019777555 0.005111586 -0.3986057 0.020854127 0.20352706 0.13945776 -0.18740211 0.022026328 -0.27335364 -0.0680723 0.2179552 -0.17646535 -0.18255112 0.38222212 0.4354206 0.36393502 -0.08780042 0.076819964 -0.2233406 -0.45643434 0.5325342 0.017256748 -0.32011428 0.29476216 -0.036990345 0.098933384 -0.0064084176 0.09440583 -0.247074 -0.24792224 0.4023423 0.24088798 0.09212982 -0.3149881 0.13840412 0.33994848 -0.34895158 0.32595453 -0.0064521893 -0.051140115 -0.07862212 -0.37909284 0.07103511 0.22114894 -0.13762634 0.005352585 0.05000962 -0.2068471 -0.34908152 0.49620643 -0.2740659 -0.10064984 0.086741336 -0.11264678 0.07366013 0.22771192 -0.096727856 0.18120208 -0.057258043 -0.27169332
10987 -0.23793826 -0.31081393 0.2741467 0.3519389 -0.064912684 0.4322587 -0.00023563598 0.32878882 -0.10136456 -0.18189259 0.07448767 -0.029194625 0.2237318 0.4344154 0.2825072 0.29625353 0.52418095 0.10908772 0.24003756 0.274862 -0.31727162 0.18501426 -0.19453433 -0.261059 0.3949408 0.0013492558 -0.30672267 0.20066762 -0.6177638 -0.06682816 -0.19296193 -0.11150881 0.11190944 0.22902416 -0.2159601 -0.07939684 0.24724603 -0.2393304 -0.21880382 -0.14648433 0.11352995 0.26332846 -0.09150905 -0.1928981 0.1506153 -0.14381735 0.088753454 -0.05795214 0.044446144 -0.18285689 0.24348487 0.09027907 -0.36011434 -0.28708225 0.057203226 -0.25627846 0.05974089 0.21534277 -0.34321833 0.073299296 -0.30357194 -0.34989446 -0.27127844 0.19604546
3725 0.15039434 -0.26706254 0.069215305 -0.021393672 0.026218655 -0.34366852 0.057735946 0.20183522 0.2486559 0.14454125 -0.19987349 -0.19818503 0.30272532 0.19898692 0.055415925 0.5078391 0.055176493 -0.13856633 0.36621323 0.420044 0.012097778 -0.030927714 0.29532441 -0.05903729 0.19921488 0.09929554 -0.37912434 0.13020308 -0.20400773 0.14979516 0.042141296 -0.19609468 0.19603668 0.17451358 0.26964444 0.39933142 0.018048838 -0.2209066 -0.084697835 -0.060185704 0.12736163 0.09914846 -0.013184482 -0.24140544 0.04350909 0.09651131 0.3432829 0.099606685 -0.058936693 0.19608968 -0.465201 -0.22556327 -0.15304989 -0.25308537 -0.019921202 0.16241461 0.5808201 -0.2420381 -0.56750995 0.08291252 -0.22078554 -0.072923206 -0.04738539 0.0036859387
4089 0.1105882 -0.22720838 0.42346472 -0.098725274 -0.1578042 0.030456955 -0.0783652 0.1622916 -0.18121357 -0.09639961 -0.0028868455 0.093416594 0.37630215 -0.37787038 -0.0779898 0.112614155 0.077180944 0.44736624 0.5970922 0.4337398 -0.031277623 -0.21312208 0.2677125 -0.1600927 -0.4858292 0.0072071245 0.20060207 0.33355606 -0.5439242 0.44368148 -0.15332843 0.39924634 0.1387905 0.2993991 0.37378618 0.3239094 -0.25102606 -0.22932076 0.07812012 0.054219354 -0.24650267 0.19209734 0.09776651 -0.49746683 -0.36073488 -0.10934077 0.35595256 0.0044543985 0.13434546 0.29944074 -0.15885136 -0.36630818 0.05048642 -0.11553138 -0.03042798 -0.47202235 0.64432317 0.26263916 -0.27333745 -0.23839913 0.025249112 -0.19846907 -0.03686382 0.008045506
6774 -0.13024944 0.01857362 -0.04566306 0.09012719 0.15108743 -0.12912235 0.078860335 0.21185873 -0.140516 0.13056605 0.2109189 -0.045048457 -0.11919657 0.30204657 0.08425445 0.07232035 0.08020131 0.28358746 0.33380747 0.5499911 -0.45172927 0.13772394 0.1238301 -0.21591099 0.21644612 -0.05413874 -0.2589548 -0.16891722 -0.18347822 -0.19626229 0.23751189 0.08654979 -0.29205602 0.04207002 0.26218894 0.02304631 -0.09729341 -0.29850742 0.037706923 -0.0018480123 -0.028966233 -0.048765726 -0.0034057116 -0.36478248 -0.076530315 0.300324 0.40217015 0.32739314 -0.2288662 0.029003933 0.06468933 -0.20939629 0.10813977 0.017995588 -0.17194454 0.049691666 -0.069084935 0.16203386 -0.6104329 0.6010947 0.09323481 -0.3027121 0.13837297 0.06688409
1147 0.048637316 -0.1824645 0.062947266 0.22739168 0.58333826 0.2644837 0.14324453 0.21606888 -0.033178646 0.12000335 0.20188744 0.11546669 0.14602903 0.0490557 -0.37444186 0.29174712 0.43659684 0.36230555 0.412569 -0.15870509 0.089566626 0.13587129 -0.13361704 -0.13618201 0.35993508 0.3467033 -0.07041994 -0.048439294 -0.08918864 -0.08789595 -0.13178863 0.27150428 0.1955174 0.096426986 -0.17865862 0.014222912 -0.23226288 -0.33970514 -0.256999 0.41972026 -0.37632665 0.19320875 0.051321954 -0.17398374 -0.31057394 0.07473593 0.37717062 -0.05839314 0.032699347 -0.1334972 -0.15472633 0.14904696 -0.22208932 0.13590984 -0.11806652 -0.23486377 -0.041762445 0.14164399 -0.24393885 0.16230254 0.074031934 0.33573174 -0.07919786 -0.13760373
5371 -0.06907212 -0.5040809 0.38685566 -0.057206366 0.38240224 -0.08014765 -0.3203008 0.0537509 -0.016580481 0.39681357 0.051664423 -0.2460335 0.35994816 0.044038173 -0.35354173 0.07780801 -0.2540993 0.32926583 0.3520308 0.35926524 0.052298132 0.113252304 0.39360544 -0.03115412 0.17838755 0.24785778 -0.013884927 0.21181624 0.18793769 0.027390582 0.24461798 -0.37155017 0.051803496 0.087174036 0.5359094 0.5390725 0.16888145 -0.04762133 0.10927771 0.15755324 0.03342559 -0.19540091 0.08434006 -0.47845247 0.1925471 0.06270204 0.21798904 0.2815213 -0.28439212 0.19446667 -0.1039826 -0.054025974 0.14419508 -0.45304355 -0.26291803 -0.22030963 -0.025400132 0.13774928 -0.25047404 -0.19072561 -0.3018762 -0.07742647 -0.06792785 -0.0016172245
2316 0.0019190403 -0.05798126 -0.2982292 -0.17273793 0.12852377 0.67942977 -0.3670985 0.3041414 0.2642289 -0.089264646 -0.18287377 -0.011021855 0.23683275 -0.12429064 -0.418879 -0.42713565 0.09281717 0.32437333 0.19327249 0.47539675 0.021423325 -0.059059326 0.51594347 -0.04436342 -0.30348834 -0.1101277 0.039928872 -0.08198817 -0.11934884 -0.28077912 -0.36680984 -0.11878059 -0.04722511 0.27529642 0.23026289 0.19147155 -0.21430743 -0.14924933 -0.26147023 0.172334 -0.09554824 0.14575157 -0.18502533 -0.030946787 -0.029103642 0.3314088 -0.21853727 -0.23624183 0.024910994 -0.077949144 0.17431396 0.056363434 -0.2440365 0.03202526 -0.25159818 -0.36229602 -0.3355351 0.035731155 0.09666698 0.17776103 -0.021674747 -0.20854118 -0.25070482 0.08625352
3309 -0.012383553 -0.2850546 -0.225897 -0.24034347 -0.19920032 0.21469864 -0.078973986 0.41459262 0.003780155 -0.16337536 -0.0887543 -0.28398117 0.20434141 0.5896736 -0.111469276 0.42765075 0.12526168 0.21057956 0.42952958 0.18399042 -0.29629958 -0.03488819 -0.20701212 -0.17306106 0.0903528 0.2715101 0.3622804 -0.25427184 0.083304636 0.16944651 0.0004439539 -0.116784796 0.110810846 -0.37841567 -0.09658991 0.40897396 0.1782059 -0.28577256 0.40320075 0.15340662 -0.3257914 0.43744376 0.15167339 0.20623578 0.20035535 -0.08802108 0.03077009 -0.22284429 0.053399067 0.20081376 0.20516446 -0.059040837 -0.10441233 -0.32823008 0.17806607 -0.15284091 -0.35174817 -0.06835975 -0.2163587 -0.14744024 -0.14820401 -0.08636922 -0.21709542 0.011312747
408 0.15157603 -0.37216595 0.16711046 -0.43990293 0.022201747 0.15696618 0.35479635 0.20876159 0.21479519 0.09239905 -0.08363357 -0.13169017 0.17176655 0.19290146 -0.0295744 0.22844997 0.12902287 0.13691044 0.15915495 0.18421367 -0.13380815 -0.13293895 -0.058748476 0.65261865 0.20944953 0.010638492 -0.25269392 -0.32614744 0.015702441 -0.15365966 0.092946924 -0.46052456 0.2820916 -0.0009260898 0.18241075 0.10814941 -0.21876974 -0.043484516 0.16112056 0.15891221 0.00059308275 0.45632356 -0.3803565 -0.07673857 -0.33994538 -0.059736803 0.084457874 -0.32016534 -0.023294693 -0.036395166 -0.23015532 0.006812815 -0.46146873 -0.16145055 0.24891397 -0.5188877 -0.26740566 -0.34459946 0.026163215 -0.09154811 -0.27557874 -0.07903652 -0.12500316 0.07485175
6772 -0.03253598 -0.090756 -0.014424942 -0.058911517 0.22741121 -0.065567814 -0.04340596 0.47951654 -0.3710997 0.41611782 -0.12472289 -0.5062654 -0.26713672 0.24742089 -0.18787047 0.09859555 -0.009538475 0.16502155 0.19374037 0.35591954 -0.2057312 0.09272368 0.33366188 0.08577095 0.018642135 -0.28079498 0.07372064 -0.36108136 -0.053718593 0.1940018 0.098352976 -0.33198625 -0.14831568 0.2295839 -0.3045155 0.2767138 -0.26198575 -0.088044144 0.48375455 0.2105129 -0.2632638 -0.17014188 -0.13567878 -0.24490456 0.0021310474 0.33475542 0.42413104 -0.07173002 -0.27596226 -0.27824843 -0.11130804 0.18579249 -0.06668596 -0.03317274 -0.13736519 -0.18078598 -0.032256033 0.19982715 -0.29349035 0.6041885 0.2153894 -0.49870813 0.2648908 -0.14833649
7531 -0.17088458 -0.3936052 -0.295418 -0.30991355 -0.040133756 0.12562631 0.21946332 0.1474484 0.25565678 0.3959161 -0.24232577 0.1707539 0.053763144 -0.04022039 -0.10028912 0.39355654 0.2692378 0.03473456 0.07511068 0.32264188 -0.63507754 -0.106587686 -0.046715435 -0.25502 0.22746545 0.23816298 0.3567503 0.17391407 -0.38380525 -0.039043635 0.24770351 -0.28549862 0.59470767 0.13646565 0.11846123 0.32728925 -0.14534083 0.053279538 0.11288231 0.08848944 -0.3082497 0.4988411 -0.024002707 0.08035912 -0.06479992 -0.09977738 0.17670801 -0.26985756 0.013057339 0.37667057 0.0346415 -0.03485931 -0.30829474 0.16524574 0.10586344 -0.088104494 -0.4050578 -0.19226946 0.71286786 -0.304628 -0.09706537 -0.34122235 0.15424266 0.38016862
5747 0.12399762 -0.24920046 -0.68746936 -0.7277763 0.09534416 0.0158306 -0.17268768 0.16592555 0.37829724 0.1399991 0.17904602 -0.0910534 -0.16797978 0.18193805 0.1974274 -0.17220986 -0.0029820027 -0.100587785 -0.040746327 0.26725924 -0.020088997 -0.11504789 0.16538039 -0.47840244 0.35965994 0.08014815 -0.08221397 -0.109461755 0.048092693 -0.07886189 0.075872414 0.0077978265 -0.11905704 0.15179285 0.17625566 0.27295712 0.13717598 -0.25508437 0.16891672 0.069052815 -0.22905391 0.044610307 0.069898084 -0.320844 0.11082062 0.057512235 -0.0044653653 0.012511602 -0.30106935 -0.21352357 -0.30370972 -0.417716 -0.3957565 -0.095616624 -0.27755296 -0.41378242 -0.12154816 0.3838702 0.17772624 0.4935908 0.15862447 -0.21981324 -0.4076288 -0.21559656
5601 -0.06453138 -0.23967251 0.0818756 -0.26735267 0.19372447 0.061562777 0.039725773 0.27325466 0.15862028 0.08171438 -0.16082144 -0.18399936 0.5395945 0.2606532 0.2419222 -0.013011822 0.052334927 -0.20064859 0.20204337 0.66807604 0.063741624 -0.07981119 0.26018876 -0.24400896 0.20597513 0.13926579 -0.32616416 0.18498577 -0.04928411 -0.12456353 -0.10335765 0.17994863 0.11947719 -0.28970706 -0.25320804 0.033833627 -0.10342159 -0.31361026 0.24478602 0.31835428 0.044692468 -0.12828888 -0.4078859 0.043939833 -0.5594354 0.13049608 0.5545758 -0.18887259 0.22734027 0.015287039 -0.111760385 0.19259061 0.019686589 -0.10565504 0.37569484 -0.119300626 0.30685017 -0.027647182 -0.059946366 -0.08733966 -0.15654008 -0.31409743 -0.36255437 0.22711341
2534 -0.039563373 -0.2162726 -0.4433203 -0.39066577 -0.0751476 -0.32222366 -0.43060613 0.23146762 -0.037689943 0.10939922 -0.054262545 0.09625108 -0.33717316 0.14550002 -0.10961909 -0.4036355 0.17777377 0.19730222 0.46625173 0.1910969 -0.045448937 0.12353923 -0.17758282 -0.21197575 0.26105785 0.13678673 -0.25578758 0.029561073 -0.020871643 -0.31387928 -0.2566139 -0.08095341 -0.09938088 -0.30617848 0.64688873 -0.030972745 0.06392676 -0.30381143 0.0008693917 -0.15877196 -0.31573445 0.24069993 -0.3375902 -0.0064445487 -0.09670899 0.27158198 -0.1200481 0.042683933 -0.21182255 -0.14553565 0.087444805 -0.23911422 -0.14470728 0.101418294 -0.17505848 -0.33411703 -0.26687688 0.31118307 0.40435082 0.48567054 0.257662 -0.08062856 -0.117350355 0.05140926
7046 -0.10140259 -0.6620501 -0.19666249 0.21673192 0.11495301 0.58237165 -0.14963064 0.08041329 0.09984736 0.09223422 -0.27125055 0.053264115 0.091710374 -0.5292107 0.2724794 -0.23818828 -0.19957003 -0.066225305 0.62304825 0.19826084 0.25098836 -0.22355668 0.14498428 0.2858873 0.18641412 0.21708785 0.18199581 0.35782203 -0.22028893 0.113649435 -0.096824504 0.0334586 -0.08274293 0.15876018 0.30491394 0.33036694 -0.31515098 0.16233955 -0.10001322 0.7294634 -0.056933854 0.13687353 0.25218546 -0.41109204 -0.20050357 -0.014016663 0.0052442527 0.16527702 -0.045539133 -0.20424508 0.3161734 -0.23018761 -0.025743505 -0.18621121 0.22399561 -0.31868744 -0.25268677 0.050929 -0.28085878 0.1459932 -0.09809538 0.16028291 -0.029837135 -0.054386206
4790 0.17925274 -0.07985703 0.06446315 0.19155331 0.004822733 0.39318413 0.071152285 0.0855901 -0.14807002 -0.23659632 0.032396138 -0.38097095 0.095372826 0.44897166 -0.26073954 0.3173495 -0.026270363 0.03266289 0.509817 -0.18784665 -0.21045357 -0.049327936 0.007741289 0.05261299 -0.24080876 0.43062866 0.17693533 -0.09509136 -0.0466193 -0.014341959 -0.12008663 0.13078675 0.36797422 0.09770756 0.16001777 -0.03151392 -0.2488489 -0.50106686 -0.086077124 0.72066355 -0.05937938 0.04956731 -0.040808834 -0.4029405 0.316182 0.3362848 0.47185454 -0.025529426 0.07724228 -0.15159513 -0.22151226 -0.04408557 0.17255767 0.053519644 -0.5476365 -0.328827 -0.32821757 0.13724604 -0.103779614 0.37802464 -0.23419422 -0.25762329 0.032540448 0.5365302
57154 0.26714927 -0.04449537 0.073128134 -0.18541709 -0.44514704 0.31171972 0.04917402 0.33458742 -0.10532585 -0.08897212 0.21591781 -0.35147145 0.36458832 -0.025083127 0.06251428 -0.38174272 -0.3273647 0.21276933 0.52821577 -0.03761129 0.060199264 0.1664577 0.232623 0.20966288 -0.03935469 0.16276023 0.028406337 0.19502708 -0.12738353 0.12753299 -0.20912822 0.12928602 -0.032834742 0.03706251 -0.14794582 0.44635966 -0.27735102 -0.09748935 0.23668288 0.16771762 -0.35615942 0.28117505 0.318562 -0.30541378 0.09222428 -0.09892074 0.29629144 0.16733803 0.21089233 -0.37936234 0.084768236 -0.008980166 -0.6185363 0.074337035 0.2677917 -0.70818365 0.07044048 -0.11186106 -0.46923357 -0.33663914 0.08666094 -0.31616095 0.170575 0.04918308
5879 -0.006538106 0.06727472 -0.13309324 -0.010147178 0.5287701 0.4024678 0.17696582 0.29097667 0.022770328 -0.05352205 -0.21709944 0.24163817 -0.52907157 0.42195398 -0.35367113 -0.123924166 -0.23422113 -0.21489996 0.46563813 0.37622347 -0.17850512 -0.2844153 0.55754817 -0.20384988 -0.18433332 -0.056663346 -0.06733189 0.06654674 0.13419685 0.2483048 0.2796298 -0.45815894 -0.11010015 -0.21061267 0.44415134 0.09662215 -0.25334653 -0.24231614 0.0033522395 0.43510565 0.2050192 0.37202007 0.05216131 -0.15635629 -0.027596988 0.12932289 -0.47790733 -0.14558375 0.55368656 -0.25747493 0.1505828 0.0252303 -0.70789003 0.10476496 0.06138156 -0.16171592 0.3739804 0.46943745 0.39862958 0.39700663 0.08401751 -0.7686275 -0.09880026 -0.43723398
1386 -0.1986887 -0.5365057 0.37770274 0.29539785 -0.3786895 -0.3156746 -0.48001504 0.21187937 0.32377222 -0.052641828 0.1859648 0.036649372 0.08197133 0.28282994 -0.18000439 0.15933557 0.36808893 0.054629188 0.47043765 0.2973727 0.20802441 -0.34640744 -0.104744636 0.124093674 0.3323112 0.26300392 -0.12325248 -0.08609063 -0.008867717 0.12257624 -0.06846043 -0.16641426 -0.48538068 0.020266598 0.056830358 -0.07284162 -0.23927657 -0.08026678 -0.1684352 -0.28522363 0.0093866605 0.113584206 -0.16221492 -0.22964355 -0.36750734 0.45928466 0.20429973 0.112755984 0.22583382 -0.2884371 -0.20363049 -0.18849768 0.44987085 -0.24317211 0.059798047 -0.03566812 0.11820054 0.06452062 -0.19421783 -0.06835896 0.15582924 -0.3991845 -0.0029985684 0.13604699
7132 0.06584123 0.5114874 -0.1913947 -0.24450031 0.24473737 -0.16010392 -0.3094377 0.41536987 0.35363114 0.45666808 0.095431216 0.17057973 0.16591172 0.14502433 -0.14487012 0.21873486 0.0055772546 0.48878706 0.0776205 0.16547878 -0.1257045 0.045869425 -0.015314867 -0.18148018 0.19560839 0.3904325 -0.16087323 -0.35074693 0.19811222 0.20252429 0.06109946 0.21475098 -0.0642216 0.05784893 0.14597486 0.45020017 0.114207976 -0.10931968 -0.023697378 0.46338695 -0.071430564 0.17363308 -0.14815456 -0.38711658 0.12643073 0.45559278 0.31406772 0.11254457 0.2364486 -0.10655613 0.018101746 -0.17273957 -0.47519985 -0.095357664 0.40772086 0.04873482 -0.61745 0.48602882 -0.029210225 0.60743225 0.0878334 0.07942372 0.06025716 -0.31137326
6464 -0.2118562 -0.09931574 -0.3727169 -0.23525774 0.07480921 0.2565817 0.047309116 0.13615562 0.053465635 0.14670031 -0.15489788 0.12203297 0.007826048 0.36612463 0.42342618 0.06558773 0.3380445 0.2683438 0.17786215 0.13017146 -0.2285748 0.0608593 0.1941647 -0.22527003 0.40240714 -0.0056810556 0.01865915 0.11024085 -0.0104325395 -0.13756818 -0.32991976 0.26906565 -0.21065016 -0.2927062 0.3381969 0.33904752 0.07700494 -0.17100966 0.3637312 -0.22154318 -0.109204754 -0.001917218 -0.4022841 0.07806396 -0.21003956 0.08788321 -0.009994724 0.10147284 -0.5258791 -0.110702224 0.17164631 -0.054089222 -0.38136086 0.17937268 -0.09543564 -0.19234177 -0.24755688 0.31103763 -0.14617158 0.4325527 0.1492416 -0.48457754 -0.097936474 0.16933662
5925 0.00034002587 -0.3168517 -0.060263254 0.1746866 0.29808483 -0.077508345 -0.49044988 0.044123825 -0.018435718 -0.24524535 -0.22887717 -0.20070615 0.37758508 0.34972486 0.10757774 0.03630766 -0.07104326 -0.174852 0.68036354 0.37910685 -0.113154545 -0.48581615 0.4368767 -0.13087358 0.5486686 0.09909232 0.14234836 -0.031520553 0.30008674 -0.10007686 0.3550753 0.23484221 -0.019572008 -0.13138352 0.38833427 0.041623283 -0.00022894831 -0.3833598 0.1946845 -0.058301542 -0.09287497 -0.11236645 -0.35553643 -0.17467387 -0.09671281 0.5075307 0.51892 0.24833721 -0.034102704 0.19934721 -0.22128227 -0.14982736 -0.25566348 -0.09083228 -0.2143143 0.16626613 0.17627649 -0.121785454 -0.13031235 -0.13993455 -0.20420918 0.2593267 0.067951106 0.18446748
4627 -0.011399534 -0.089156404 0.05380396 -0.25393912 0.29820424 0.16207689 -0.680324 0.34876445 0.11461454 -0.19488844 -0.119667195 0.12181424 -0.19997352 0.11543987 -0.5505189 0.3372172 0.23146936 0.40858814 0.17221883 0.10598204 -0.2061756 0.04620085 0.10516547 0.16574657 -0.12989667 0.4645944 -0.24419379 -0.4879415 0.25468498 0.19876805 -0.38256952 -0.18559396 0.04343304 -0.05837164 0.06267855 0.1622729 -0.18983753 -0.1060689 -0.32594034 0.11501396 0.09875428 0.34242985 0.10803118 0.09134938 -0.18518452 0.051890552 -0.16951208 -0.18400165 0.01865044 -0.09345892 0.008656657 0.34975484 -0.57659256 -0.22516596 -0.0898604 -0.3990569 -0.44653407 0.32731035 -0.010038091 0.251698 0.27947316 -0.21429095 -0.4160144 0.33148947
10014 -0.42301974 -0.2998401 0.17411259 -0.07033124 -0.2678963 -0.09550388 -0.13301003 0.067218326 0.28556147 0.035855025 0.12933157 -0.10202224 0.36629042 0.31351793 0.16142292 0.034546845 0.19080994 0.12551008 0.44249567 -0.3087188 -0.46834671 0.11617272 0.24414882 -0.078456685 0.05138256 0.28566307 -0.50488925 0.044716764 -0.034759346 -0.10395478 -0.15845525 -0.4291673 0.6279021 0.04615146 0.5719547 0.4482104 0.15948279 -0.15344502 -0.46449235 0.21364716 0.08914661 0.7750532 0.3524513 0.09008604 0.18465097 -0.16671054 0.05743394 -0.20445104 0.14702134 -0.15819177 -0.26110542 0.4059711 0.021166898 0.03002801 -0.21264456 0.101016395 -0.064227924 0.25756624 -0.18072538 0.07157828 0.23829529 -0.34804535 0.2658305 -0.09597315
4214 0.6156368 0.0046515595 0.2670309 -0.0633957 0.09972722 0.44682002 0.19091474 0.32978788 0.3575641 0.34447345 -0.13020103 -0.09713434 0.411853 0.46687508 -0.36191502 0.14333892 -0.104168646 0.3438491 0.17886612 0.14419617 0.36110935 -0.17800368 0.1113668 0.07264872 0.4250086 -0.06658864 -0.053661317 0.10626173 -0.16542757 0.15181768 0.1147145 -0.23146078 0.28691995 0.18755122 -0.2057001 0.14232486 -0.06480464 -0.19361019 0.11602241 -0.19316316 -0.05322964 0.15956305 -0.47423962 0.068728074 -0.34774214 0.17524497 0.13556135 -0.20449987 -0.22616242 -0.3353313 -0.21170734 0.057199445 -0.057172645 0.1366242 0.38915688 -0.5076011 -0.20573567 -0.37815928 -0.14650513 -0.03403336 -0.12083321 -0.12451097 -0.019660058 -0.09483382
8841 -0.08293524 -0.5168333 0.11894086 0.107266456 0.005844618 -0.022909286 -0.33853033 -0.15496314 -0.25397474 0.45788714 -0.2672986 -0.17312214 -0.0276055 -0.02047963 -0.15049523 0.097703956 -0.13764742 0.4867388 0.36295018 0.28626966 -0.22904827 0.109760635 0.5285269 -0.10352752 0.16138703 0.1238691 -0.34775123 0.08800912 -0.13201594 -0.11507075 0.07755211 -0.23745544 0.4021846 0.09608204 0.44645095 -0.062221758 0.39016497 -0.29524615 -0.18680269 0.55919194 -0.34065858 0.250752 -0.20896243 0.021273175 0.13171841 0.012503453 0.2949518 0.032555237 -0.004160151 0.24923143 -0.1344783 -0.094407216 0.05868925 -0.0010923232 -0.4983537 0.1603608 0.31583944 0.16745138 -0.43596655 -0.026896672 0.027019124 -0.28629664 0.24543305 -0.006760177
409 0.23628649 -0.3294981 0.11172769 -0.109960385 0.08788691 0.07547472 0.28403252 0.42515668 0.07210271 0.5022612 0.052552667 0.15084164 0.021807082 0.14171742 0.033711925 -0.06425146 0.2500997 0.16564655 0.37532207 0.38084096 -0.07381195 -0.07524077 0.016397135 0.5472915 0.2555742 -0.37896386 -0.019514555 -0.5709546 0.04868814 -0.013024136 0.018283037 -0.15068537 0.29003754 0.042732872 0.27949336 0.22125404 0.06727608 -0.119917616 -0.02475674 0.14278556 -0.24112032 0.21594793 -0.37700143 0.015937243 -0.28194928 -0.18125248 -0.018547354 -0.31394416 -0.112071656 -0.13507414 -0.11590013 0.08607511 -0.4637802 0.03432997 0.007910677 -0.26997158 -0.2779584 -0.109445944 -0.18359455 -0.09090918 -0.26442266 -0.11317495 -0.17455907 0.012776502
5335 -0.5017992 0.02130796 0.16663985 -0.26549187 0.15926914 0.12757608 -0.13270643 -0.0742885 -0.30018434 -0.044119548 0.3080645 0.19085829 -0.3706231 0.15310337 0.31520304 -0.034698457 -0.0985661 0.16638713 0.39889264 0.24895588 -0.1163307 0.34723726 0.039668534 -0.21841787 0.32344857 0.006411847 -0.5616074 0.7294 0.24602653 0.37328818 -0.08642782 0.120470054 0.08995519 -0.05944884 0.03702592 0.585849 -0.24813673 -0.29866847 0.09305547 0.27728698 0.33056578 -0.00832207 -0.4031469 -0.24746886 0.11906939 0.48287913 -0.23061772 0.5659002 -0.16676667 -0.060166433 0.01431899 -0.17194769 -0.19854382 0.24732964 -0.29787248 -0.40860558 -0.36376435 -0.09106846 0.24657312 0.07224307 0.1396083 -0.7230981 -0.1265309 -0.25870016
2547 -0.34085822 -0.05300173 0.5719472 0.13875449 -0.22999159 0.18411857 -0.30999976 0.21026237 -0.021592889 0.6190248 -0.30662677 -0.54639196 0.06686242 0.38714322 -0.13688365 -0.357587 -0.07609139 0.08280696 0.86570174 0.2009317 -0.0100541 -0.0008241972 -0.02530917 -0.015120027 -0.049394995 -0.03525236 -0.44420975 0.14034432 -0.012567485 0.019777454 -0.08612037 -0.041174367 -0.21406204 0.25069124 -0.017762719 0.24066019 -0.025452895 -0.14711906 0.23268332 -0.008472865 -0.2878665 0.07668582 0.13811047 0.11169238 0.5116169 0.10469211 0.49260697 -0.058496762 0.06539154 -0.16666682 -0.061279003 0.28547123 0.36026496 0.16862628 0.19833823 -0.21183304 -0.5476946 0.25020328 -0.14350986 -0.23800153 -0.21516734 0.28162476 -0.5915432 0.35401452
5781 -0.18075442 -0.09269831 -0.2836836 -0.29296607 0.15786429 -0.07895697 0.020341376 0.28093922 0.080851905 0.38359505 0.004832397 0.36765444 -0.21665038 0.08190812 0.42439422 0.23451492 0.13202664 0.33302557 0.2983654 0.1361398 -0.16684121 0.009510921 -0.32897797 -0.22040583 0.4991859 0.18408655 -0.11609043 0.28654155 -0.1033548 -0.06515872 -0.2597832 0.08038948 -0.16524848 -0.27689472 0.41068172 0.18669641 -0.10458112 -0.011848497 0.3940611 0.102059975 -0.053446162 0.15016142 -0.5312547 -0.07699573 -0.2057648 -0.17221354 0.16074851 0.1746533 -0.16350718 -0.05279608 0.21959874 -0.36596286 -0.35512528 0.32607898 -0.40595078 -0.07200182 -0.18812163 -0.08237497 -0.013273517 0.42492163 0.16207388 -0.27973023 -0.09383461 -0.24184474
4691 0.041587908 -0.37269154 0.5006211 -0.036560956 -0.35621816 0.4358361 -0.5598854 0.04179087 0.2785846 -0.036164805 -0.18073301 -0.027511751 0.117795646 0.22038157 0.032478873 0.16730748 -0.13117403 0.08032487 0.45750716 0.053421393 -0.051856183 -0.22188771 0.027543353 0.22719555 0.35662723 -0.14128435 0.07540055 -0.80621076 0.08622187 0.20519796 -0.27506086 0.08610349 -0.0352143 0.2325868 0.02724052 0.24516375 0.07958646 -0.55094564 0.3316079 -0.122061275 -0.55710506 0.32629472 -0.20946668 -0.01823001 -0.080775164 -0.16949159 0.13746817 -0.0693234 0.2779274 -0.44870394 0.11111199 0.2397953 -0.017964382 -0.15223818 0.04543184 -0.18160957 -0.2676506 0.030928768 -0.33653012 -0.27606967 -0.23445581 -0.20480923 -0.42273632 0.13025965
8945 -0.47076592 0.09264556 0.11040074 -0.030583423 -0.069297306 0.33766106 0.25315008 0.38605627 -0.28917348 0.24397779 0.0011993853 -0.54571795 0.15881242 0.073110335 -0.5575354 -0.15417048 0.34666717 0.35847336 0.41271815 0.17708528 -0.34609517 0.11999369 -0.3952579 0.06090266 0.4571654 0.11482746 0.42564973 0.3563858 -0.12777856 0.012942675 0.10401553 -0.10175353 0.26013124 0.3065482 -0.027703652 -0.011473373 -0.17127363 0.022322392 -0.18749231 0.13026138 -0.48063335 -0.031512346 0.047133174 -0.21989538 -0.4073858 -0.16613656 0.6189457 0.07857688 0.34334582 0.0228748 -0.15879051 -0.07695792 0.012237396 -0.18726997 -0.09666857 -0.028534597 0.100215815 0.40139976 0.28471982 -0.27636126 0.36695775 -0.12206655 0.09820289 0.09502743
7428 0.068249464 0.102052875 -0.34500515 -0.00309456 -0.1216424 0.66859317 -0.15551 0.059088696 -0.10879925 0.11018594 -0.36250284 0.24177551 0.4760959 0.15300852 -0.27412587 0.08489483 0.10559072 0.27257153 0.6277635 0.67895967 0.28761014 -0.5621178 -0.32669222 -0.098840594 0.2762664 -0.041813895 -0.2833603 -0.26382643 0.08097317 0.21180253 -0.1483079 -0.41930085 -0.12295017 -0.08665427 0.03349248 -0.5825129 0.5125606 -0.42498615 0.09534771 -0.1707407 -0.1182582 -0.0055222414 -0.105679825 0.10433236 0.41294843 -0.41292375 -0.0050770435 0.27836883 -0.13489929 0.14080977 -0.095205046 -0.16116907 -0.16883223 0.03847194 0.37860587 0.021327887 -0.37680462 0.23557158 -0.41133243 0.06449349 0.080542125 -0.8713808 0.19088672 -0.09759182
998 -0.3189661 -0.5712219 0.08203266 -0.32846814 0.25428215 0.54729825 -0.2090238 0.27983215 0.40698245 0.2518143 0.12320801 0.22048141 -0.22998418 0.19765832 -0.4639384 -0.2763143 -0.10145974 -0.273796 0.38597047 0.27973488 -0.18336904 0.08272469 0.21581 -0.05537155 -0.1352812 0.012605868 -0.047094196 0.00038225335 -0.24405475 0.13254777 0.13950935 -0.18771395 0.11307385 -0.5504208 0.14088957 0.0073636277 -0.11169175 -0.15348801 0.12974647 0.5574462 -0.119105145 0.2562101 -0.48501617 -0.23175964 -0.11679135 -0.034320712 -0.3757317 -0.050781455 -0.16664688 -0.08896285 0.009922673 -0.3311925 -0.5012987 0.18588457 0.5440184 0.044223893 0.45199117 -0.08917754 0.31204098 0.275688 0.2029488 0.14807208 -0.03995774 0.1531946
3315 -0.2827873 -0.04530613 0.3599702 0.17207368 -0.10034122 -0.116492055 0.3180727 0.14688973 0.12256507 0.14794037 0.23229149 0.10534364 -0.07001269 0.62603855 -0.45691505 -0.09884612 0.5723164 -0.14005768 0.43676987 0.66767365 -0.35383052 -0.41071334 -0.34196094 -0.2327796 0.48577124 0.023323024 0.0687791 0.27668104 -0.089999884 0.21886893 -0.012793398 0.29313242 -0.06663524 0.11404171 -0.30302 0.028475992 -0.1392081 0.077332266 -0.17675422 0.0631793 -0.008267455 0.10333772 0.13417536 -0.020066798 0.136229 0.44270825 0.3338863 -0.4694205 -0.25279126 0.32400677 -0.16454819 0.1992978 -0.41453695 0.13077784 -0.26416302 -0.4568234 -0.3538659 0.10407115 -0.018061578 -0.14312768 0.4632062 -0.13583328 0.26246652 -0.008354892
5580 -0.1776808 -0.43017757 0.024680069 0.034277625 -0.08692621 0.029418249 -0.20601673 0.25138804 -0.15831971 0.08566639 -0.0040716114 0.24696302 0.1390281 0.24444109 0.02369959 -0.14212015 0.188515 0.25842476 0.49320805 0.27930257 0.033823892 -0.1560057 0.13265584 -0.27751133 0.80337864 0.098555595 -0.14355212 -0.3706399 0.20957658 0.67001283 -0.25881782 0.47664204 0.02701377 0.18712148 0.20434552 -0.011258623 -0.14038478 0.034071174 0.23918723 0.062834054 0.11151404 0.17465192 0.09771917 0.13141985 -0.025025455 0.11990846 -0.26468796 -0.3609146 -0.22151347 0.2714359 0.37374553 0.06235474 -0.07207184 0.28566477 -0.03225441 -0.1522059 -0.27686533 0.25656816 -0.14230534 0.3840008 0.34953707 -0.5170104 0.0136337215 -0.06138345
9146 0.3006974 -0.3786553 0.072969735 -0.35452944 -0.26167953 0.4814809 0.2835054 0.5125262 0.20713423 -0.19059928 0.17055811 0.2067323 -0.31735164 -0.20712397 0.25148454 0.0731279 -0.12582634 0.21762878 0.2979363 0.8334458 0.30170387 0.0385604 0.19104832 0.23304929 0.097395204 0.1194023 0.15527397 0.13492054 0.15885523 -0.085600935 -0.17429726 -0.059513353 0.30823976 0.29736114 0.327262 0.42004704 -0.29468167 0.22306919 -0.1878722 -0.30894506 -0.18514413 -0.196157 -0.23947835 0.02761952 0.031775534 0.08386027 0.491838 -0.023001548 -0.18246955 -0.34162462 -0.0025899017 0.18199967 -0.13954517 0.37207395 0.08315175 0.043267373 -0.3033411 -0.28926104 -0.30783683 0.36163476 0.7342158 0.09896184 -0.26674047 0.13397005
4792 -0.011889341 -0.12778896 -0.11828614 -0.14504388 0.13302998 0.29144788 -0.022699963 0.2562927 -0.23603287 0.2939479 0.034815617 -0.13041417 0.32346985 0.098299295 -0.3334166 0.20985173 0.04897705 0.3825011 0.38889608 0.029646426 -0.28740773 -0.04902053 -0.33124197 -0.12688982 0.2826437 -0.10494825 0.064893134 -0.01795257 -0.05464803 0.017541528 -0.13731737 0.15406801 0.29703867 0.021811124 -0.13166232 -0.12719248 -0.22370265 -0.3774386 -0.032554608 0.81421256 -0.504514 0.17812179 0.17150345 0.08450144 0.016070167 0.36065963 0.4112079 -0.38017777 -0.46870756 0.20014842 -0.059765264 0.027891401 0.14147611 0.23181978 -0.1675015 -0.28581443 -0.102170564 -0.07706856 -0.1494219 0.015817506 -0.010624348 -0.12057507 0.17979236 -0.23848048
836 -0.5719988 -0.32728812 0.07210571 0.013322987 0.107344866 -0.30858392 0.23209892 0.15400663 0.117746264 0.14636041 -0.2849068 0.12925139 -0.15925887 0.56750214 -0.28935316 -0.31727564 -0.38595107 -0.1983686 0.14292035 0.3857616 -0.16865668 -0.05984393 -0.04455898 -0.1768864 0.44825715 0.20496432 0.36838913 -0.041230015 0.37961128 -0.34634474 -0.4890838 -0.27859238 -0.29154357 -0.15343575 0.15897152 0.1495317 -0.25063762 -0.4196759 0.004345962 0.10445262 -0.21366224 0.015047293 0.061279368 -0.39069894 0.11671083 -0.081076 0.72736686 -0.47919762 0.23523033 -0.21240993 0.03473674 0.113560595 -0.566177 -0.1640934 -0.043989528 -0.29878607 0.5191948 -0.04799651 0.40372062 -0.22893876 -0.15772802 -0.25437924 -0.17502934 0.027688673
3688 -0.16221473 -0.4962754 -0.5498653 -0.43143204 -0.25757048 -0.12416338 -0.112768695 -0.22037897 0.061984763 -0.08472084 -0.16900449 0.058881503 -0.31948337 0.65046513 0.05577633 -0.17764564 0.2865553 0.25367334 0.22359896 -0.009942153 0.06268217 -1.0618116 0.452732 -0.14887503 0.4667057 0.44932574 0.25725988 -0.04210677 -0.00851715 -0.213181 -0.20248474 -0.054748215 -0.018666832 0.25393766 0.32183847 0.10022606 -0.35352015 0.4338059 -0.49764088 -0.2528874 -0.24926613 0.50779116 -0.20026714 -0.15963595 0.075693645 0.568719 -0.3582795 -0.25274366 -0.18136533 -0.95084137 0.052230652 0.040841054 0.032043267 0.10642138 -0.17213616 -0.3936872 0.20486052 0.43115836 -0.054982692 0.48069894 0.13429292 -0.2895057 -0.3347189 -0.12336264
5058 -0.12647712 -0.17780955 -0.3385804 -0.2638042 -0.041998826 -0.019600837 -0.11881082 -0.034403037 0.41132757 0.08346678 -0.12637356 0.22620405 -0.30924082 0.043155834 0.22761035 -0.44524103 -0.6040343 0.49595708 0.24711649 0.3080064 0.089056365 -0.14350876 -0.015279142 -0.23449023 0.09890101 0.036601543 0.09456483 -0.034757413 -0.35667312 0.2638597 0.3342766 -0.11378913 0.22823876 0.45371097 0.11165776 0.5150719 -0.15193665 -0.033241004 -0.04391929 -0.13576871 0.07795514 0.13605507 0.03169879 -0.33880246 -0.48206472 -0.14232166 0.2266868 -0.04081196 -0.025821855 0.09759414 -0.1935019 -0.26777878 -0.08933723 0.22818281 0.37382135 -0.5260847 0.041528758 -0.2834373 0.08374087 0.3625153 0.59456563 -0.3082426 -0.5622115 0.103200115
2353 0.08081532 -0.42385554 0.2394095 0.0063696727 0.22043419 -0.25252655 -0.11066924 0.21354736 0.23417088 0.14568232 0.2943003 -0.43932244 0.37324703 0.07173724 -0.3452648 0.4462021 -0.11957297 0.03251853 0.42367762 0.59480244 -0.1718465 -0.20134163 0.38914162 0.034617227 0.1999806 0.16984883 -0.13932331 -0.061141435 -0.55172074 -0.05178352 -0.15739919 -0.049731515 -0.26580998 -0.26219642 0.20313203 0.26115102 -0.15014327 0.095411465 0.06108463 0.04241417 0.008954499 -0.037278365 -0.054069538 -0.26542163 0.039914448 0.10610868 0.38142997 0.044510294 0.5383828 0.13846211 0.1641995 -0.11961373 0.33999175 -0.1888459 -0.18210061 -0.18880993 -0.104331255 -0.36295375 -0.6061859 -0.122473404 -0.31120354 -0.21770446 -0.078159906 0.3348843
5581 -0.21525195 -0.44373184 0.3391966 -0.31764066 0.0033640738 -0.087380774 0.021322554 0.2049774 0.04436508 0.083349206 0.1476789 0.34085616 0.058690157 0.40116578 -0.049171235 -0.20572262 -0.17371881 0.04693584 0.61144257 0.2537584 -0.20337424 0.023084773 0.017781336 -0.15822281 0.6793854 0.18927713 -0.07542014 -0.1551791 0.19180168 0.41158256 -0.22666042 0.18720442 -0.30847526 -0.10274423 0.42565367 -0.030068468 -0.1344674 0.2525525 -0.18181033 -0.12356513 0.38794106 0.33750698 -0.0032609703 -0.064198904 -0.2750691 0.46059865 -0.07610412 -0.64321035 -0.30912688 0.023936627 0.16659425 0.14700185 0.4836199 0.27135932 -0.18979862 -0.4948079 -0.33802062 0.37045494 -0.09551819 0.42999944 -0.11641722 -0.3348848 0.21312171 0.11631817
5966 -0.29330656 0.016841922 -0.05415296 -0.0459466 0.03055145 0.61923337 0.28967676 0.0075273314 0.3018329 0.29993647 0.17063025 -0.7571505 0.38512766 0.40364897 -0.015714517 0.33174628 0.16439223 0.57557535 0.5687319 0.048118785 -0.15695073 0.01702294 0.002827924 0.07760996 0.2525249 0.20382842 0.27935585 -0.07348576 -0.08189933 -0.21219614 0.0905921 0.3899115 0.12214408 -0.3263331 -0.12116618 0.01707035 -0.17460544 -0.39319462 -0.2664331 0.58049595 -0.21006617 0.25318363 0.31169835 -0.45436522 0.3121305 0.19874114 -0.2494725 0.105317235 0.124577165 0.49874473 -0.6821872 0.050895426 -0.06478919 0.39578694 -0.28230274 -0.3894328 0.31800896 -0.55495894 0.19267783 0.4786028 0.16178298 -0.1124382 0.0249588 0.1652789
472 -0.25283444 -0.11603311 0.32049993 -0.22013617 0.17286828 0.03460801 0.28961834 -0.115230285 0.6750879 0.06595195 -0.40754715 -0.16477796 -0.5776878 -0.22617653 -0.52265716 0.05196374 0.563597 -0.14123811 0.4454079 0.04636661 0.11017806 -0.016321773 -0.10229513 -0.07805636 0.026928328 -0.19226947 -0.6086256 0.22171879 0.15399344 -0.27348498 -0.03641951 -0.3807184 0.2550902 0.29707375 0.05051526 -0.0736727 0.28175795 -0.49748552 -0.20393535 0.24155049 -0.0031325202 0.68907446 0.11580519 -0.42356429 0.27474678 0.21176766 0.46579242 0.35010016 -0.09676484 0.013193491 0.17572813 -0.47373566 -0.07358796 0.15455377 0.18483904 -0.10184992 0.10118552 -0.483502 -0.1958341 -0.07858844 -0.19188827 -0.67376816 -0.74219626 0.1444237
3717 0.047430605 -0.39158347 -0.4854695 -0.1583235 0.03985574 0.13012712 -0.1996929 0.050496574 -0.29173678 0.51668364 0.0889308 0.34160706 -0.11667576 0.23496976 0.028924678 0.2103858 0.087047875 0.3416025 0.24275604 0.05417817 -0.30521435 -0.11335855 -0.29681447 -0.34041405 0.25240964 -0.11020614 -0.25280005 -0.16340558 -0.029665712 -0.14673679 0.02021563 -0.018695824 -0.07569061 -0.07793338 0.04545945 0.045577228 -0.07997066 0.04594481 0.5247583 0.14367244 0.1564439 0.31229332 -0.19517359 -0.2154791 -0.035291158 0.021679232 0.4459275 0.3222724 -0.20269702 0.11262155 0.30338025 -0.25411615 -0.2411737 0.49533954 -0.3515426 -0.38160425 -0.33278003 -0.05520242 -0.03533004 0.7163419 0.15619326 -0.38721758 -0.2036269 -0.25882238
5300 0.086754404 -0.49739933 0.42217478 -0.202555 0.21147269 0.32059374 -0.02090304 -0.4082415 -0.06113601 0.5751152 0.0649124 -0.05553389 0.5559659 0.3451585 -0.1961853 0.10543428 0.19648485 0.3532066 0.5977597 -0.055867184 -0.0501512 0.16166723 0.0028958258 -0.041554555 0.24773887 0.22977985 0.015633145 0.53301585 0.040888574 -0.41366225 -0.077234045 -0.46624285 0.050242018 0.06807021 -0.18206055 -0.21477123 0.37150195 0.15814643 0.18667634 -0.09967592 0.19229817 0.023259778 0.17778718 -0.39857775 -0.15967445 -0.11890033 0.03344534 0.4970216 0.18770812 -0.26306272 -0.44311196 -0.20255086 0.037097197 0.12748167 0.43723738 -0.34870142 0.3304915 0.115104206 -0.37582037 0.28189483 -0.23216394 -0.047455527 0.38485247 -0.08784712
4092 -0.007622066 -0.20842816 0.024881072 0.49807665 -0.064253084 0.3506753 -0.04412502 -0.11308167 -0.107320264 0.3170247 0.13504 -0.065015115 -0.03363111 -0.044823986 0.34368637 -0.2758163 -0.025031678 0.43473053 0.56050086 0.32838434 0.19704124 0.0455058 0.07410741 0.7985684 0.15103063 0.26933295 -0.4274089 0.46941286 -0.29518133 -0.16346484 0.023314165 0.08064244 0.15446706 -0.15748757 0.23389702 0.096174315 -0.1620546 0.21060458 0.0067920047 0.54596496 -0.20321512 0.40529376 0.3084033 -0.52060866 -0.30107924 0.09746087 0.48655656 0.2909859 0.06492885 -0.0518334 -0.04469009 -0.034017857 -0.009921041 -0.40347856 0.35613495 -0.18047793 -0.3674718 0.39646035 -0.104745016 -0.108836845 -0.2580106 -0.3149517 0.047133476 0.04353614
5829 -0.17339644 0.14867043 -0.379051 -0.17828682 -0.15838966 0.19015433 -0.015863154 -0.1863045 0.005192159 0.22469497 -0.0731643 -0.037058298 -0.3992148 0.38542598 0.25782645 -0.16321038 0.06092942 0.10949391 0.03436947 0.44801837 -0.37297148 -0.07026857 0.23182501 -0.38753587 0.4354549 0.108281165 -0.17126407 -0.09062804 0.0008794367 0.29468715 0.07513569 -0.4208251 0.15164928 -0.34719464 0.073471956 0.1923311 -0.1412658 0.2992071 0.28003758 -0.119282134 -0.5794236 0.16382773 -0.19718847 -0.372478 -0.32066306 0.54280734 0.02633544 0.12226774 -0.003650804 -0.34397095 0.06034966 -0.3885318 -0.21054551 0.21607135 -0.25882307 -0.3605912 0.2037162 0.06698344 0.26625586 0.4069059 -0.050038695 0.1846326 -0.18021569 -0.20640938
4690 0.19059113 -0.10054004 -0.3970458 -0.5936404 0.18439034 -0.019122092 -0.14321004 0.11029209 -0.091713265 0.24025887 -0.10155976 0.00223167 -0.5843598 0.3493521 0.031815507 -0.021777865 -0.49807125 0.061071593 0.36846557 0.3684704 -0.15504867 0.20294124 0.08362926 -0.25857368 0.13650788 0.06307965 0.05881806 0.12019958 -0.10427483 0.008490903 -0.27460468 0.44639874 -0.04731606 -0.4411839 0.37392524 0.44450936 0.2649672 -0.3993568 0.23732331 0.028178418 -0.3026213 0.053747013 -0.32056853 -0.062053446 0.24954663 0.108715124 -0.27992123 0.051928606 0.12498898 -0.3108892 -0.20800793 -0.5868272 0.012101836 0.19605516 -0.058767173 -0.7161637 -0.13188075 -0.21983194 0.13352285 -0.14507203 0.1639137 -0.7062717 -0.3477374 -0.14185636
2064 0.13675638 -0.15460916 -0.50097984 -0.32015744 0.15572143 0.16798848 0.064176075 0.19430755 -0.1346943 0.42524138 -0.012123144 0.16665922 -0.18133236 0.35425553 0.130827 -0.26920682 0.07032995 0.15326494 0.3979025 0.24762475 0.12823658 0.3484251 0.13544421 -0.48867148 0.5574277 0.09438434 -0.7966274 0.048840277 0.055215813 0.54640156 -0.06662563 0.09053119 0.026400996 0.09899092 -0.032646243 0.21775846 -0.5218809 -0.027317012 0.36973774 0.18989964 -0.28991845 -0.21087125 0.44511628 0.043274768 -0.059394766 -0.46750987 -0.1423042 0.31392342 -0.3519938 -0.1275658 -0.047832053 -0.115164384 0.38067943 0.22094095 -0.02614348 -0.29714337 0.06401271 0.02093756 -0.1291059 0.4832548 0.069809 -0.26046097 -0.13890438 0.17346413
4086 0.45687255 -0.40998295 0.6155779 0.24593313 -0.213761 0.51368433 0.1255179 0.38762587 -0.07867498 -0.038711824 -0.22921285 0.019454297 0.14108324 -0.107666485 0.43642095 -0.14989433 -0.40598506 0.30639008 0.32654095 0.3311259 0.05811115 -0.31715268 0.7342697 -0.06472556 -0.0708102 -0.06962121 0.23040994 0.35061964 0.065250985 0.25108638 -0.48640633 -0.19225857 0.18050368 0.16479431 0.59425783 0.6870151 -0.4055881 -0.0029923837 -0.27294952 0.40293416 0.13669135 0.22626288 0.2948742 -0.5244961 -0.16049229 -0.22553585 0.42117694 0.29069546 -0.18256155 0.010332153 0.2562765 0.00289063 -0.20169532 0.0698019 0.22259474 -0.44735 0.0061744177 -0.4523542 -0.091423824 -0.048542358 0.3508462 0.034439996 0.28035024 0.143953
3728 0.13013177 -0.052520707 0.0645683 0.15134601 -0.42803892 0.41729838 -0.4045899 0.44491857 -0.055938162 0.1625261 0.24334541 0.0068506156 -0.037248936 0.26424518 -0.31954646 -0.32990873 0.50604427 -0.30212286 0.28605464 0.45539853 -0.117973685 0.4111047 -0.14341043 0.09445058 0.39781207 0.039765805 -0.40441182 -0.15169342 0.3040498 0.114948474 -0.2265563 -0.15402818 -0.014530886 0.30554515 0.069855005 0.5546771 -0.09184983 -0.026217295 -0.53549445 0.28276655 -0.4357909 0.016894354 0.16198458 -0.084529676 -0.08912601 -0.1898126 -0.12517674 0.46976134 0.18093741 -0.2401185 -0.18326345 -0.19946235 0.3433301 -0.29644153 -0.35093814 -0.5336865 -0.31563422 0.2980731 0.5054681 0.46152237 -0.4998756 0.06261437 -0.24886087 0.5647811
4851 -0.28921354 -0.07836739 0.5067053 -0.02219087 -0.4007334 0.6626918 0.10768695 -0.08041444 0.40498346 0.059398174 -0.59068143 -0.2659604 0.33634627 0.16802745 -0.09573887 -0.39675945 -0.2287204 0.10529503 0.3792992 0.26024225 -0.10627611 0.032153282 0.26183656 0.15241815 0.15978736 0.34491843 -0.029465089 0.067404166 0.39276066 -0.21927635 -0.31722835 -0.23177046 -0.13536903 -0.16805929 0.19868971 0.07958258 -0.20624459 -0.47225758 -0.32529145 0.5572708 0.038095664 -0.04942318 -0.18913935 -0.47569197 -0.0658573 -0.04694435 0.2953247 0.037191283 -0.067792 -0.07404176 -0.13672245 -0.74317324 -0.19976585 0.3970683 -0.14820904 0.13119619 -0.2875828 -0.08236357 -0.52533984 0.13527608 -0.1702662 0.46651757 -0.3719557 -0.22216964
5604 0.20974453 -0.18329045 -0.6654395 0.10156704 0.20610476 0.32379293 -0.011705126 0.2873997 -0.16303796 0.45232958 0.13452673 -0.19005598 0.086522445 0.4761071 0.16664805 0.03294248 0.16459134 -0.11478004 0.422716 0.19049664 -0.18641491 0.12233158 -0.09836619 -0.03297787 0.5327775 0.06626962 -0.08055203 0.44592857 -0.602381 0.18073094 0.029606914 -0.012142893 0.11596009 0.16426985 0.26339743 0.064993605 -0.032949526 0.24673168 0.33955008 0.19501893 0.13772084 0.2270583 -0.55855775 -0.036661636 -0.5282742 0.1829051 0.45869485 -0.2214675 0.37340596 -0.08889559 -0.07690698 0.09345045 -0.06032804 0.23406705 0.17296842 0.07964519 -0.050365124 -0.4370947 -0.047926463 -0.19933046 0.10710709 0.057922393 -0.3413581 0.06570121
6850 0.3450576 -0.040462065 -0.40058088 0.06825687 0.23088105 -0.18191223 0.18638319 0.13671745 -0.09285535 0.122110575 0.14892678 -0.21339993 -0.25170144 0.05759232 0.22707805 -0.1139478 -0.26714146 0.33703178 0.36778146 0.27635202 -0.49998206 0.45542768 -0.2406637 -0.4360288 0.3256553 0.3418119 -0.5013358 0.16197942 -0.004198943 0.10993356 0.040903818 0.063513294 -0.18734452 0.05578087 0.13488229 0.44354054 0.088136315 -0.37726778 -0.0858526 0.052742187 -0.178341 0.27945128 -0.3837154 -0.21177828 0.22008428 0.25058508 -0.10020193 -0.32536077 0.10676446 -0.5150879 -0.33475325 -0.34849212 -0.37737575 0.08385576 -0.34632397 -0.15274328 -0.30693603 -0.029562991 -0.19112189 0.36568838 0.16067971 -0.16888686 0.22327355 -0.23731332
83737 0.42491275 -0.38100106 -0.23668025 0.06838155 -0.21225305 0.26088417 -0.11771467 0.32256076 0.09668773 -0.19557643 0.039325893 -0.0074691824 0.16951418 -0.2742002 -0.12113664 0.031454686 -0.10346875 -0.2627425 0.41994664 0.45971593 0.4746497 0.19577824 -0.36394697 0.35340658 0.4008893 0.13692842 -0.28605998 0.27437997 0.08438322 -0.20988959 -0.030029183 0.061553106 0.48649648 -0.20318855 0.24304895 0.30614522 -0.32443216 -0.38607106 -0.008834016 0.056520782 -0.21524519 0.35031694 0.47003284 0.30640903 -0.13259144 0.49958518 0.37972286 -0.26255655 -0.010336159 -0.18014558 -0.2998357 -0.08319633 -0.66519356 0.07964247 0.1020281 -0.17179766 -0.03353145 0.022954833 -0.31214336 0.3613953 -0.49253348 0.25683033 -0.0749006 -0.3146765
3654 -0.10314856 0.13503483 0.3409414 -0.08278246 0.2952008 -0.123996474 0.4369837 -0.06262809 -0.12439547 0.0035549859 -0.12376823 0.04510535 0.026181797 0.08652376 -0.12183645 0.5136242 0.13200495 0.39328822 0.39709088 0.5564785 -0.28366196 0.07790893 -0.11833812 0.15728272 0.4773621 -0.20529552 0.06636639 0.0009852805 0.17115295 -0.013970421 0.031266943 0.068720356 -0.3224132 0.61473215 0.03772699 -0.15214679 -0.013272077 -0.023270503 0.15784828 0.08919695 -0.5479838 0.37102357 -0.16590944 -0.3936927 -0.34041035 0.2741397 0.14488351 -0.5635385 0.33287293 -0.27979523 0.10749192 0.024246316 -0.43502626 -0.41647416 0.17804253 -0.09720869 -0.10181434 -0.24098332 -0.24662295 0.24201956 0.6849698 -0.0056590163 0.4012622 0.26453826
7048 -0.41783458 -0.35600778 -0.23289278 -0.015359911 0.03412769 0.42504403 -0.15807165 0.31689623 0.006000867 -0.07465193 -0.014237561 -0.08755456 -0.35477686 -0.3819321 0.1347797 -0.5502805 -0.1928605 -0.13696066 0.71259636 -0.029865535 0.27862033 -0.12854308 0.45238808 0.18021838 0.2199133 0.33583575 -0.1957851 0.20869169 -0.41666362 0.082818694 0.11845104 0.3745554 -0.033595763 0.061834514 0.2804655 0.2838713 -0.3763429 0.11069867 -0.100287355 0.27000645 -0.57985336 0.04118282 0.28561443 -0.31493253 -0.14646631 -0.10989225 -0.034163393 0.25803867 0.055762175 -0.21171851 0.52470964 -0.16129781 -0.04468005 -0.1738235 0.3716045 -0.40739182 -0.24535386 0.024916802 -0.4096638 0.1785787 -0.06325829 -0.2697794 0.50097084 -0.14478153
6497 0.2564082 -0.3775738 0.5007423 0.04511833 -0.071580425 0.46830016 -0.14876305 0.07073273 0.10846571 0.34965748 -0.31916815 0.086993776 0.314746 -0.020622512 0.27374974 0.3107489 -0.1828571 0.19377345 0.0029245224 0.33887786 -0.20745167 -0.6262027 -0.14841712 -0.14250511 0.0058832066 0.264526 0.2836426 0.26828966 0.32125342 -0.27327776 0.55527127 -0.1499806 -0.13471943 0.17769212 0.3083587 0.68158996 -0.040957846 -0.44535446 0.18602088 -0.041633192 -0.069513224 0.2930932 -0.082584165 -0.40515625 -0.07515931 -0.34349853 0.09318978 0.54543895 -0.079154305 -0.20657682 -0.44307023 0.40311456 -0.31136167 -0.54816353 -0.16297492 -0.18919839 -0.09153557 0.29733706 -0.3567485 -0.138016 0.010826438 -0.24759875 0.3131824 0.18499321
5728 -0.21667436 -0.056168586 -0.24567306 -0.36902225 -0.605237 0.80608743 0.1788101 0.41711906 0.39746013 -0.06936294 0.0027698916 -0.06434184 -0.0036395357 0.10963767 -0.029301917 -0.27839732 -0.0036869126 -0.15104483 0.11270648 -0.22696935 -0.13781843 -0.02226781 -0.36866316 -0.07425893 0.557844 0.30617338 -0.4422264 -0.11001158 0.29867673 0.0063254843 0.27622426 0.23893835 0.0014917597 0.04761329 -0.041935053 0.14500393 0.18640728 0.07849943 -0.20290045 -0.3259851 -0.582442 0.6615026 0.042303927 -0.5018285 -0.44249704 -0.097629085 0.1573129 -0.12545775 0.050396018 -0.12659179 -0.13798809 0.005402892 -0.4168922 0.16769323 -0.03482716 -0.25945017 0.28115496 0.34646842 -0.24509601 -0.2154745 -0.54741293 -0.6198944 0.29998517 0.1876017
1051 -0.08088064 -0.21527593 0.24813093 0.08458267 0.005215237 -0.41485962 -0.20557617 0.3944782 0.010454316 -0.38468987 0.051924806 -0.14787553 0.008275669 0.208331 -0.16199623 0.3925538 0.08847781 0.0019504267 0.3062769 0.45931584 -0.20013554 -0.47421527 0.25641575 -0.20259842 0.08485593 0.5822533 -0.11107609 0.045834046 -0.0384145 -0.06218513 0.25532445 0.042706706 0.3534724 0.06299146 0.3000634 0.19860503 -0.053698998 -0.10166574 0.10689125 0.15820841 0.0484053 -0.07925269 -0.13225926 -0.2945253 -0.057030182 -0.030548954 0.8578928 -0.027473703 0.25065392 0.32902157 -0.042000405 -0.0059084496 0.45054653 -0.109291546 -0.21915634 -0.16685732 0.18031749 -0.14633474 -0.31720966 0.35374513 -0.25412464 -0.45439318 -0.11532838 0.036811
3091 -0.1603056 -0.28061166 -0.3218952 0.07767591 -0.18030234 0.39091882 -0.084031254 0.3444428 0.25264555 -0.14197169 -0.2476423 -0.16331321 0.39424363 0.03249108 0.053910084 0.1353527 0.31449452 -0.08940858 0.4854999 0.20864978 -0.45328766 -0.08424912 0.50695986 -0.15801108 0.44280493 0.0045754737 -0.25840333 -0.066925086 0.1413553 -0.1429734 0.06731009 -0.015667494 0.10699752 0.16361916 0.47012106 -0.47838804 0.25939083 -0.40693006 0.11765158 0.095810585 0.1524894 -0.17632213 0.22107077 -0.28275362 -0.18689875 0.03231179 0.23331577 0.10889749 -0.28578424 0.3456349 -0.33626646 -0.46289247 -0.41830483 0.13025 -0.14022867 0.137724 0.13843273 0.10624427 -0.40918761 -0.1810286 0.06251048 -0.3576053 -0.08498058 -0.048693325
8312 0.0097835455 -0.2683408 0.109311305 0.15383573 0.46342093 0.21241805 -0.5010535 0.55041873 0.21238858 0.076495714 -0.3563241 -0.07807526 0.30666676 0.20809221 -0.34854925 -0.1454104 -0.16401197 0.21802232 0.09604425 0.46719965 0.07797775 -0.09185385 -0.4493334 0.41240448 0.33141646 0.7106011 0.0011836665 0.5504306 -0.11028226 -0.13762493 0.15494348 -0.051488094 0.4061104 0.24653119 0.15690191 0.45480615 -0.13435727 0.12615319 0.04947408 0.23775452 -0.19748758 -0.19931385 0.39712384 -0.37679037 0.019725706 -0.3768369 -0.20433354 0.36962458 0.0077671977 -0.23308218 0.046839967 0.37411326 -0.48540777 -0.19302124 -0.06290747 0.09611432 0.053853527 -0.14425382 0.15526737 -0.1331074 -0.02735296 -0.44342583 -0.09532391 0.08714296
3329 -0.33097503 -0.743073 -0.010365203 -0.10575351 -0.714579 0.47670475 -0.48560676 0.21266569 -0.115808345 -0.4111818 0.049485657 0.16635333 -0.19396533 -0.05293629 -0.1407455 0.44980723 -0.117225 0.23985629 0.47062942 0.27766457 -0.60207593 -0.21763955 -0.1526625 -0.0760517 0.32081077 -0.22245891 -0.054538105 0.023673512 0.0562556 0.06462571 0.004700526 -0.17868754 -0.45777154 0.036924627 -0.06084168 0.6591879 -0.1339305 -0.18993004 0.561484 -0.06702173 -0.34749112 0.36034897 0.17393488 0.42485526 0.056663014 0.27927852 0.037543427 -0.33921218 0.13112216 -0.17928746 -0.2770946 0.5862837 -0.0755243 -0.53704953 0.14547816 -0.33989128 0.2979238 0.13384238 -0.2376309 0.029882161 -0.09700439 0.19764654 -0.45253962 -0.03717784
208 -0.46152112 0.017356128 0.10352541 0.17815591 0.36775503 0.39501822 0.47633293 0.44014016 0.14218844 0.4243277 -0.30889606 0.39003682 -0.49418902 0.14722463 -0.032004155 -0.35550165 -0.40268892 0.44232875 0.6691166 0.6953462 -0.03514047 -0.38156158 -0.13905509 -0.67965025 0.11917177 0.07721802 0.36567897 -0.1382747 -0.37286326 -0.20360461 0.38117674 -0.13915017 0.118554026 -0.010537712 0.15875487 -0.051676698 -0.055005286 -0.017008595 0.246053 -0.25653934 -0.22615981 0.20119154 0.09334793 -0.14590594 -0.6362141 0.14697064 -0.03998692 -0.23973262 0.45875886 0.25591022 -0.26988283 0.38288766 -0.34970978 0.058377452 -0.055607367 -0.26463443 -0.11833076 0.097038515 -0.027533544 0.03078283 -0.31882054 0.31558913 -0.053772118 0.15137234
6416 0.29897922 -0.17512524 0.021144917 -0.058786165 0.27947727 0.47778562 0.2760798 0.19432074 0.012832729 0.58039993 0.19307038 -0.053284504 0.3482462 0.25982004 -0.23635826 0.19957538 -0.104328446 -0.14742202 0.36180726 0.39960733 0.11085222 -0.04618176 -0.021181488 -0.31632653 0.09131593 0.089423046 -0.2520736 0.04424416 -0.21177877 -0.1181025 0.0620301 -0.42732027 -0.13653575 -0.008264795 0.19848944 0.23620753 -0.1931348 -0.13102904 0.07309791 0.39949018 0.071091 0.38201645 -0.19256392 -0.21508564 -0.900131 0.14792635 0.16248725 -0.42612946 0.4459317 -0.18149576 0.01462276 0.30085483 0.017470503 0.16429068 0.07553142 0.14265583 -0.16202563 -0.4179785 0.050142556 -0.0016455499 -0.52675503 -0.01905076 -0.21237184 -0.30931643
324 0.07596764 -0.05937188 -0.29920682 0.16275032 -0.049135573 0.8021588 0.30314535 -0.006340824 -0.14547347 0.115282744 -0.16893137 -0.30518475 0.26735342 0.4019274 -0.6221986 0.27331585 0.21661434 -0.22123872 0.13428329 0.24235322 -0.20346503 0.22362538 -0.22714351 0.3451191 0.23844731 0.44511297 0.47017005 0.21656705 -0.021329911 0.087052256 0.055181053 -0.08026215 0.6973963 0.11877302 0.108788684 0.324593 0.040983014 -0.36096132 -0.112814136 -0.0802522 -0.2571355 0.21620978 0.07352187 0.1025195 -0.10204589 -0.24911903 -0.2860648 0.41798428 -0.03364921 -0.035898063 -0.45441258 0.042733256 -0.47111228 -0.29566714 -0.10079919 -0.07144438 -0.43805006 0.2239776 0.21926275 0.22450206 0.12359235 -0.7148476 -0.33808914 0.21076018
8239 -0.09030702 0.017195482 -0.024702445 0.24544948 0.035937384 0.4135821 0.13192336 0.39348972 -0.10364572 0.06792074 -0.4632329 0.17069496 0.64772916 0.077016704 -0.094342366 0.60727787 0.34472254 0.14912812 0.4020166 -0.05733383 -0.06460589 -0.05322709 -0.031783827 -0.36591205 -0.19870344 0.017638877 0.078476734 0.2571349 -0.21516207 -0.3514298 -0.26918343 -0.23349686 0.3341705 0.2054525 -0.20434175 0.44317937 -0.09682038 0.16944443 -0.32894823 0.33747458 -0.15732186 0.060037505 0.59526736 0.04861711 -0.7025818 0.16214904 -0.002742648 0.0042099264 -0.195251 -0.034278933 -0.4764026 -0.1838095 -0.18471377 0.2536584 0.05813483 -0.23363617 -0.11973715 -0.09029457 -0.26012245 0.3622221 0.15297587 -0.14512445 -0.23449813 -0.041737735
9611 -0.14196819 -0.3411969 0.23102286 0.37008464 0.15731922 0.053882547 -0.47021565 -0.33369946 0.07794363 0.45322916 0.058163866 -0.038505368 0.3793149 0.08255418 0.2310491 0.2914743 -0.19779283 0.44633105 0.5062788 0.25046846 -0.13498716 -0.040583797 0.41977364 -0.047664363 -0.0030759533 0.30134028 -0.06529054 0.47556275 0.11711545 -0.005113144 0.107298195 -0.28406727 0.56113493 0.04709604 0.36815506 0.17782849 0.28518945 -0.39782548 0.018555773 0.7151532 -0.3505347 0.055465247 -0.21478127 0.15814106 0.22098912 0.17670727 0.48477915 -0.094218336 -0.43652537 0.12112248 -0.42410964 0.093821235 0.18313259 -0.18096891 -0.56542987 -0.062374063 0.4324977 0.29290304 -0.523347 0.014470419 0.18119441 -0.06710374 -0.04980885 -0.059284575
4163 -0.24251767 -0.15226771 -0.26637143 0.06287193 -0.07847956 0.59885967 -0.06493129 0.06850576 0.578448 0.13055164 0.21393351 0.402535 0.026516607 0.23823777 -0.2965542 -0.15455206 0.36177394 0.092709325 0.8222069 -0.2221746 0.045111317 0.060125347 -0.2286443 0.21953261 0.19831114 0.59687936 -0.33014497 -0.504647 -0.35379034 0.41740555 -0.52479374 -0.003734644 0.14854951 -0.04508322 0.17886892 0.08001717 0.10028487 -0.49710062 0.29373756 -0.10666706 -0.036746107 0.05404428 0.14659663 -0.5580941 1.0618057 0.42379376 0.42042723 -0.24209364 0.0012695503 0.20651571 -0.41468185 0.25219515 0.09349605 -0.093198076 0.031139007 0.4030392 -0.21220247 -0.30424422 0.32397243 0.34674278 0.06177643 -0.28430808 0.029874543 0.052057732
3643 0.19641875 -0.22653097 -0.33007047 -0.47544444 0.19689867 0.0528736 -0.28768563 0.1631167 -0.3833255 0.34928444 0.034025703 0.074950546 -0.099045746 -0.12844849 0.31583467 0.39770034 0.1317066 0.2862412 0.55166537 0.3388405 -0.40288958 0.1680987 -0.20514427 -0.2119832 0.18581785 -0.01793778 -0.2474858 0.027502708 0.26246494 0.08928922 -0.202684 0.2665531 0.36580417 0.02829782 0.059076093 0.13456872 -0.33276924 0.071719706 0.3008217 0.09942725 -0.0011780775 -0.40912542 -0.14496791 -0.04833053 -0.44839832 -0.06824013 0.09682509 0.02763238 -0.73468083 -0.047552228 0.1956125 -0.02782376 -0.14785346 0.60556763 0.057606194 -0.42720634 -0.16474435 0.14755055 -0.09076684 0.5189216 0.2002572 -0.14992355 0.055762116 0.045953356
1020 -0.36323518 -0.41964236 -0.0032837286 -0.3070078 0.26709753 0.15399137 -0.3126266 0.12600729 -0.49272346 -0.09106794 0.01999555 0.28700176 -0.27877852 -0.01819333 0.30923072 -0.32509404 0.16380832 -0.1721429 0.20601663 0.2021023 0.09992397 -0.06599689 0.17108832 -0.3690413 0.46135333 0.10543608 -0.3045744 -0.19333015 -0.10566678 -0.02852717 0.013846673 -0.62516636 0.42204583 0.061285608 0.024480054 0.023009706 0.13507581 -0.06669838 -0.20533808 -0.15955433 -0.06455979 -0.002446536 -0.510803 -0.5532902 0.0139476545 0.36595002 0.55067945 0.2263377 0.4019323 0.14320591 -0.04482055 -0.4970636 -0.03811688 0.38511658 -0.07364993 -0.037722167 -0.021256741 -0.015060496 -0.27689695 -0.14502293 0.0042792675 -0.14357738 0.024406519 0.19886966
302 -0.20090711 -0.10922519 0.009532131 -0.2344262 -0.050650872 0.34546694 -0.3701087 0.40606162 0.35808477 -0.16079223 -0.06600398 0.41101676 -0.14706327 0.2046248 -0.09978863 0.34938574 0.5406128 0.29722738 0.17163582 0.14438196 -0.25973043 -0.1609031 -0.37729743 0.24655457 0.13403665 -0.05689611 -0.31425205 -0.34392303 0.2916617 0.076993115 -0.03271712 -0.515945 -0.2573144 -0.35496294 0.39959893 -0.16021462 -0.30916384 -0.37221056 0.2397858 0.17786177 -0.0535736 0.4153406 0.1427279 -0.3507065 -0.061171826 0.2036816 -0.18244384 -0.03394036 -0.18905008 -0.13665107 -0.032533832 0.35183504 -0.12716907 0.14267437 0.27254537 -0.42017296 -0.09357147 0.123790964 -0.13482776 -0.11251624 -0.11211988 -0.23577957 0.06462221 0.11931194
5609 0.08556177 -0.07751473 -0.17335336 -0.11166295 0.5200536 0.14452544 0.3252206 0.07027204 0.36315575 0.7310284 0.154297 0.21214512 0.4949935 0.2397261 -0.03999879 0.13542359 0.40635905 -0.3907946 0.17487618 0.5992777 0.10368831 0.074415244 0.28339753 -0.21891287 0.44073328 -0.26154476 -0.31112713 0.14961603 -0.03941337 0.1246267 0.21280476 -0.285507 0.07648653 0.078899145 0.20208699 0.21816672 0.10795035 0.2367509 0.35190943 0.5827542 -0.09956842 0.22391361 -0.20936492 -0.3331302 -0.60488397 -0.09281438 0.4758064 -0.3125001 0.35142347 -0.4442978 0.008622121 0.08805871 0.20185186 -0.094092675 0.1235412 0.0837979 0.082222745 -0.44348773 -0.27620095 0.42209128 -0.1923521 0.07931985 -0.16845271 -0.32150036
3265 0.13280979 -0.19050296 0.10133263 -0.940865 0.4637989 0.19642472 -0.22824726 -0.03928671 0.151611 -0.12074875 0.20314455 -0.26030934 -0.3745204 0.4733955 0.17897454 0.1716994 0.50142354 0.40851378 0.16128173 0.38643333 -0.14572299 0.21696225 -0.39728114 -0.1609814 0.47524306 -0.12584625 -0.054144297 1.1193492 -0.33753744 0.21157406 -0.4110226 0.2741714 0.0050162286 0.43871537 0.7064004 -0.3283681 0.03766605 -0.019141985 0.25995916 0.20860207 -0.26492807 -0.30529305 -0.06610066 -0.10239444 -0.28279516 0.17910902 -0.007951618 -0.095700674 0.38386548 -0.27893662 0.11886602 -0.14551844 -0.2672183 0.1852943 -0.037638694 -0.099931665 -0.2994429 -0.28669345 0.26733792 0.10919653 0.47534972 0.122492194 0.34595194 -0.057488013
4217 0.0910516 0.033298742 -0.4451752 -0.02276059 0.06718872 0.021835089 0.033919957 0.6028438 0.15592785 0.860777 0.07301899 0.17372453 0.4386995 0.0725197 0.011419175 0.09428421 -0.117855944 -0.16634476 0.16732325 0.26146746 0.37790307 -0.1251054 -0.61072206 -0.3529301 0.4670449 -0.018351657 0.059796516 0.37018216 -0.1607191 0.047549497 0.44939283 -0.25445318 -0.38242772 0.34875715 0.24784374 0.37697345 -0.29815868 -0.12699658 0.3072 0.47090518 -0.14579451 0.45668107 -0.39951977 -0.16083868 -0.5141199 0.2038902 0.06491705 0.033874325 0.13003086 -0.32478148 -0.13512349 0.29625845 -0.2837646 0.38224006 -0.05699011 0.33900523 -0.37752455 -0.36968732 -0.15583491 -0.12698008 -0.24615163 -0.45626816 -0.021501787 0.30264023
498 -0.26929593 -0.25377765 0.2120318 -0.115625836 0.17244339 0.37374493 -0.52493304 0.42951947 0.49716267 0.057404827 -0.35821363 -0.1731732 0.20477924 0.0029458327 0.04902142 0.6484735 0.32262018 0.12725852 -0.048822407 0.12379088 -0.6288003 -0.23781508 -0.21723966 0.29702976 0.12650801 0.2797703 0.0027681312 -0.44422054 0.10875733 0.09089861 0.076383576 -0.24465202 -0.08323957 -0.10902719 0.37770638 0.338538 0.11435679 -0.40029174 0.40690613 -0.24320607 -0.34992597 0.97198325 -0.08598703 -0.023054434 0.12130754 -0.2523103 -0.015344834 -0.29131937 0.3547496 -0.015644224 0.020375317 0.17450593 0.24505226 -0.14268728 -0.008761168 -0.44121957 -0.34440356 0.20245999 0.2269546 -0.030367343 -0.055917304 -0.31140336 0.15476964 0.016514318
11331 0.2361087 -0.02506383 0.403515 -0.08602506 -0.7084387 -0.03852534 -0.28614876 -0.10166363 -0.033857778 -0.1509419 0.7451806 -0.124415725 0.30191034 -0.12560727 0.06368126 -0.15514424 0.3900757 0.49564016 1.0117946 -0.077210575 -0.09703248 -0.34077385 0.15194675 -0.15165138 0.29273987 0.13562296 -0.42070878 -0.4189099 -0.46213648 0.23605801 -0.13255307 -0.43583146 0.29104087 0.5588475 0.5183957 0.010852643 0.4868477 -0.31765363 -0.067842595 0.16480702 -0.41961697 0.0725437 -0.020576226 -0.2373984 0.2371586 -0.13734445 -0.09336473 -0.030895056 0.021132909 -0.30452234 -0.39658228 0.05912526 -0.3785927 -0.10604686 -0.41834787 -0.39449307 0.3512705 -0.23881699 -0.10221913 -0.2705976 -0.1489755 -0.03591212 -0.39347875 0.12834728
604 -0.14691061 -0.81791544 0.16316366 -0.27961242 -0.2877402 -0.15120995 -0.21444175 0.12491764 0.323231 0.66421133 0.29652885 -0.30939573 0.7452937 0.49190044 -0.0424308 -0.048055384 0.1975921 0.3477639 0.50058925 0.15282387 0.31809944 0.58460265 0.56809163 -0.36141 0.108522594 0.4357191 0.24840136 0.151819 -0.08465678 -0.37256488 -0.112322256 -0.15024371 0.22441563 -0.31893113 0.012027634 -0.162928 0.1858941 -0.50846356 0.12600006 0.14167607 0.17386408 -0.013009438 -0.08713913 -0.2403405 -0.3934367 0.35935152 -0.24988031 -0.057912674 -0.048040815 0.18828541 -0.21405715 0.24052788 0.18638282 -0.033066798 -0.11762911 0.047338545 0.2852145 0.10962856 -0.41227672 0.13810642 0.02077642 -0.41128042 0.21929806 0.18350306
9564 -0.13304144 -0.028229201 -0.3352696 -0.6000476 -0.056954898 -0.05950064 -0.41912955 -0.2399377 0.2567292 0.16466115 0.14804614 0.099457555 -0.31221607 0.7448175 0.09898683 0.072535075 0.024046311 -0.03377602 0.04065253 0.7448089 -0.099470414 0.08024424 0.098904885 -0.37241632 0.124087825 0.2629345 0.123547345 -0.21331191 -0.13187353 -0.5959138 -0.22689497 -0.10025672 -0.14408146 -0.4257328 0.23721136 0.3243597 0.11738588 -0.44562432 0.039635997 0.25266725 -0.614541 -0.056912303 -0.064766705 -0.07847187 -0.23922144 0.08510824 -0.01020533 0.018408068 -0.051857665 -0.25128627 0.18715814 -0.25303382 -0.24191993 0.050692044 0.2635325 -0.27782416 -0.23667274 0.059177622 0.40125334 0.17398368 0.062533416 0.14144118 0.0041213003 0.04264302
4628 0.16472623 0.079273954 0.3253913 -0.25371733 0.16432363 0.46391204 -0.35490525 0.33054775 0.12788199 0.1902045 -0.12508847 0.23667182 0.050610736 0.103034295 -0.413317 0.31205052 0.077553146 0.006375787 0.30737585 -0.2000239 -0.50920004 0.3423005 -0.024279634 0.26930472 0.011502565 0.5551337 0.17378442 -0.29049 -0.37961352 0.50119346 -0.37266338 -0.10491666 -0.027751908 -0.10315577 0.15215757 0.20406118 0.04755651 -0.4345042 0.026752267 -0.038245592 -0.21394819 0.46832374 -0.44691712 -0.088621974 -0.07660297 0.03191504 0.17013735 -0.23768671 -0.27650508 0.19693525 -0.09625889 0.25389302 -0.41983205 -0.1915832 -0.024585482 -0.24864094 -0.21567154 0.07751766 -0.19793841 0.29651403 -0.10423237 -0.11806098 -0.3151151 -0.18755147
6722 -0.41170454 -0.109351754 -0.37367257 0.21680878 0.15417625 0.26695395 -0.18010396 0.0743591 0.042896748 -0.23951042 -0.1041631 -0.5244308 -0.3223807 0.26750177 -0.4172852 0.20062779 -0.3424533 0.8229597 0.52708673 0.25350043 -0.1956784 -0.29817557 -0.08170968 -0.08086633 -0.069224186 0.14328468 -0.2556861 -0.0080936905 0.25085422 0.055653777 -0.05786317 0.06747939 0.36156178 -0.33389315 -0.008588716 0.2652911 0.042028047 -0.28207597 -0.037747927 0.6184597 -0.04205891 -0.18110321 -0.31043962 0.012760132 -0.11372517 0.0047895424 0.63191855 0.38081884 -0.019322246 0.51111263 -0.23228543 0.008733688 0.23487897 -0.47857273 -0.013278705 -0.29761547 0.59149987 -0.49229717 -0.1009371 0.23228055 -0.39517236 -0.4961839 0.39313546 0.20420386
7414 0.15682471 -0.18888243 -0.46827263 -0.3974799 -0.34649047 0.29689017 -0.2729626 -0.111443415 0.030227667 0.027332056 -0.037264843 0.26335585 -0.19224359 0.8795243 0.2120306 0.08904974 0.5117057 -0.27555877 0.2125602 0.6669455 -0.3781882 -0.1516723 -0.34579378 -0.22859901 -0.18303588 0.4987408 0.3066345 -0.034293704 0.023141691 0.26915327 -0.28779724 -0.70984304 0.06407212 -0.44828022 0.17692606 0.078296795 -0.11859223 0.49262983 -0.30342522 -0.4170295 -0.36722842 0.58432615 0.30403554 -0.372888 -0.03302204 0.22818562 -0.10461316 -0.3806729 -0.25767863 0.20315254 -0.30549747 -0.27788264 -0.27826592 0.004835712 -0.23074697 -0.17449036 -0.4195218 0.037796803 0.23872933 0.03971806 0.4886662 -0.1593728 0.30596235 0.034787484
29110 0.16878335 -0.25382257 -0.23515789 -0.2911985 0.32321134 0.14959145 0.11034976 0.44941396 -0.1263717 0.3247262 -0.2011939 -0.24231373 0.29142612 -0.21778047 -0.0781859 0.18328731 0.16745342 -0.06429421 0.40133598 0.20920697 -0.6695699 0.007411383 -0.25212693 0.09544252 -0.2599855 0.3280907 0.35790426 0.21102473 0.18055615 0.13736293 0.15152705 -0.0017807536 -0.18628693 0.022651616 -0.269926 -0.08606707 0.21313195 -0.30766082 0.46447277 0.3594572 -0.8288217 0.26826108 -0.28085706 -0.12501651 0.14559875 0.105337806 -0.08991983 -0.064637505 0.31717718 -0.010054329 -0.2699751 -0.3208368 -0.09352754 0.2709231 -0.20734407 -0.5065051 -0.5083395 0.065440096 -0.16087118 0.109905586 0.09977598 -0.032817714 0.43200693 0.5123035
6929 0.29559696 -0.42136332 -0.21389243 0.13661294 0.04893582 0.26998383 -0.08279375 -0.25864586 -0.08254141 0.09011035 -0.17784068 -0.23809068 0.43681973 0.24861711 -0.3531875 0.053986873 -0.17156099 0.27568442 0.2929588 0.89469147 -0.030299833 -0.39481765 -0.007602556 -0.55202436 -0.23601452 0.41382825 -0.09386344 -0.6761666 -0.15543982 0.13431296 -0.48202378 0.19599937 0.25043643 -0.51641226 0.11286115 0.3878864 0.14226595 -0.22782025 0.0626693 -0.029415155 0.038977083 0.15858918 -0.5014946 -0.07115739 -0.14062351 -0.091355525 0.9471565 0.6271462 0.22051847 -0.35080644 0.37974647 0.17982042 0.013918469 0.020750001 -0.18547428 -0.1336699 0.06276638 -0.21445519 0.095391616 -0.18223616 -0.34644097 -0.26545292 0.103065126 0.5053746
648 -0.5366608 -0.4142846 0.49949598 -0.3478714 -0.2112168 0.7593491 -0.17738478 0.10336802 0.08602689 0.3134199 -0.4455022 0.03935875 -0.34434736 0.4517468 0.27883655 0.1744769 0.46059552 0.037193816 0.5824936 -0.22553502 -0.5689331 0.13820428 -0.24428326 0.04918094 0.29562247 -0.022728367 -0.075202376 -0.23467082 0.21486868 0.03204929 0.04796134 0.29478374 0.3493639 -0.19200087 -0.10135867 0.039133143 0.024405086 0.3495346 -0.85324556 -0.20861444 -0.3433029 0.4296524 -0.15350221 -0.35860172 -0.16689934 -0.016320255 0.14897168 0.23830378 0.3187246 -0.7624746 0.1264255 -0.43143553 -0.020937964 -0.6281904 -0.101403095 0.59161055 0.010663396 0.08627034 -0.31851518 -0.47071713 0.2015912 -0.4021297 0.16265291 0.18430595
5663 -0.13517095 -0.022589277 -0.33649367 0.31326717 -0.113864556 0.22119397 -0.23611555 0.4336437 0.27010602 -0.28640154 -0.14988542 -0.23195288 0.08586233 0.5603067 0.3845263 -0.6746513 0.21154234 0.07173209 0.2566645 0.45062375 -0.033314314 -0.2734943 -0.52641034 0.020654917 0.28483427 0.02185041 -0.11689442 0.2026827 0.6401999 -0.025457388 -0.23603347 -0.38775015 -0.13827801 -0.12619308 0.1363148 -0.022196935 -0.17936812 -0.17869854 -0.76077724 0.2843641 -0.071404114 -0.13794862 -0.648682 -0.6235408 -0.09530502 0.17510006 0.10694221 0.23113897 -0.036804367 -0.035165124 -0.14868574 -0.2483723 -0.18859956 0.07895631 0.34804213 -0.5032339 0.42601553 0.32984263 -0.24192207 0.1699442 -0.5480612 0.24452391 -0.111925855 0.324738
861 0.34181648 -0.52961695 0.20413329 0.2720272 -0.1275464 0.17630751 -0.39211586 0.078455985 -0.40044862 -0.13820577 -0.29274756 -0.11242931 0.27544507 -0.00835114 -0.16516858 0.16042571 -0.083608784 0.55492926 0.3684495 0.5438819 0.02282435 -0.14259194 0.63138574 -0.08317136 -0.2136324 0.6299737 -0.19133383 0.28641006 0.043546155 -0.01895453 0.13607562 -0.28338486 0.3310874 -0.16025618 0.14427172 0.11636161 -0.30599573 -0.1715235 -0.26520583 -0.009026187 0.05053187 0.2682943 -0.68247724 0.08432928 0.18114711 0.06813131 0.78277147 0.722913 -0.1117215 -0.44171265 -0.4377985 -0.17482302 -0.041621204 -0.09345952 -0.09798245 -0.08445452 0.20903857 -0.4238272 -0.63219917 -0.095381364 -0.037826724 0.23388223 0.060823184 0.22962335
8440 -0.02434243 -0.21148922 -0.30899867 -0.26098406 0.10728211 0.20483157 -0.22157887 0.35321593 0.15182112 0.04237714 -0.098400384 0.53765607 -0.37656227 0.47421056 -0.26590687 0.20133176 -0.29341617 0.2036603 0.49755946 0.31144366 -0.24060126 -0.15972272 0.202481 0.4092764 0.29152864 0.10234818 0.12113751 0.2542695 -0.1626283 0.033916764 0.18831018 0.47615013 0.37856758 -0.24116264 -0.031809088 0.0422664 -0.005518439 -0.44766995 0.27917546 0.3423138 -0.18181126 0.13409764 0.1012846 -0.23032783 -0.023967804 -0.33703858 -0.3715885 0.60642266 0.1646051 -0.43587327 -0.5939866 -0.82037276 0.5231538 0.072071224 -0.13473962 -0.4505608 -0.13337034 -0.28798276 0.5665093 0.18339501 0.51067066 -0.24888419 -0.43215445 -0.23918302
7430 -0.19295825 0.26233804 -0.36110252 -0.6335131 -0.07057281 0.18390447 0.38796628 -0.013797137 0.11743968 0.1372856 -0.22565985 0.29533175 0.26222432 -0.039472993 -0.16559301 -0.33609802 -0.1539006 0.2086151 0.29735035 0.06514113 0.087889746 -0.4198813 0.10660238 -0.31303582 0.4098654 0.3304958 -0.5005239 -0.2457073 -0.117464736 0.55889356 -0.03903491 -0.28753614 -0.32827687 0.37446418 -0.26396602 -0.07669173 -0.038446583 0.115761556 0.12530044 0.07388352 -0.2825044 0.3651725 -0.27851513 -0.33132717 0.06587911 0.1483535 0.33258316 0.045816947 0.17706966 -0.030157577 -0.23455766 -0.36987156 -0.41829485 -0.4254453 -0.20797503 -0.42655972 -0.20499253 -0.12760389 -0.0094457185 0.2900625 -0.12241468 0.16455238 0.10856197 -0.028549988
7187 0.23077606 -0.45248553 -0.5035199 -0.43407133 0.47001532 -0.2580507 0.105392046 0.812008 0.036097 0.14642277 0.21873131 -0.41704717 -0.14909682 0.009009167 -0.013638078 0.12001656 -0.21118847 0.34674385 0.55036634 0.208754 -0.18657322 0.3656508 -0.07743464 -0.26558322 -0.21877486 0.09352728 0.21105334 0.3224212 0.1455873 0.11127368 -0.16888571 -0.11711574 -0.1356442 0.537484 -0.2255142 -0.47375476 0.2562079 -0.12466049 0.55438864 0.33210623 -0.46890873 0.50917333 -0.06792073 -0.12090182 -0.06406527 0.14064598 0.3978259 -0.07838638 0.66574067 -0.4919119 -0.12555824 -0.6437475 -0.5530374 -0.2949693 0.05724801 -0.14003006 -0.38254339 0.20353936 -0.024917914 0.38095012 0.16127633 0.30740064 0.2823971 0.2985271
7161 0.0666295 -0.54435825 0.47612542 -0.31448728 0.6813659 -0.17984655 -0.50352955 0.109289706 0.0064320164 -0.25168082 0.04503204 -0.09017178 0.35071814 0.20540398 -0.5027102 -0.35904622 0.038566183 0.27930677 0.49533704 0.02742209 -0.053239156 -0.40350348 -0.42027184 0.06265574 0.41313416 -0.3307994 -0.18291996 0.5475106 -0.09482271 -0.044333957 0.22532575 -0.23460852 0.10118497 0.21558619 0.52916205 0.38275892 -0.03909815 -0.6542463 -0.22506599 -0.10027473 -0.07238122 -0.4874713 0.26853976 -0.042475514 -0.31463352 0.28333095 0.40237647 -0.0070260786 0.13792655 -0.029069133 -0.17490001 0.09283772 -0.29392487 0.1954823 0.1330802 0.39070132 0.13943352 0.04183794 -0.09185251 0.22667433 -0.009962255 0.32430974 0.3932971 0.16160727
55294 -0.45728624 -0.3499137 0.26077616 -0.3124585 -0.13965409 0.52810556 0.20536324 0.67138773 0.55866826 0.28437716 -0.2633546 -0.58674663 0.20290925 -0.24418615 -0.42321646 0.17587833 0.23533764 0.2885779 0.543037 0.18440941 -0.28709885 -0.25936592 0.16857007 -0.04821541 0.4146604 0.112073176 -0.18134528 0.39622977 0.4966423 -0.45003462 0.06289611 0.11596714 0.4071037 0.24223135 0.30560917 -0.1725728 -0.17772649 0.48752216 -0.38176525 0.1381552 0.30494562 -0.22770092 -0.13085747 0.20754765 0.01764714 -0.33125052 0.38399735 -0.06407645 0.17087002 0.20117643 -0.36015227 -0.2465957 -0.23782063 0.5894031 -0.05001584 0.086339325 -0.07111893 0.0928706 -0.41300073 0.37554398 -0.4408183 0.22181755 -0.1398229 -0.09796599
2969 0.062061314 -0.21611688 -0.39451888 0.2076627 0.25554782 0.053843662 -0.18781883 -0.01304394 -0.039699204 0.6604054 0.063971385 -0.40307623 -0.123614855 0.340612 -0.3169135 0.22079515 0.20133422 0.8445368 0.4859907 0.030328235 -0.24842009 0.104556195 0.22754095 0.2543662 -0.22295666 -0.1659372 0.06870234 -0.24720141 -0.14019914 -0.14244555 -0.042227026 -0.0021158194 0.080149785 0.05049892 -0.045897637 -0.17020452 -0.15405798 -0.16532214 0.06089651 0.14403462 -0.17088346 -0.1312214 0.15915573 -0.15906984 0.16722412 0.31503925 0.49947834 0.105296165 -0.0004341104 -0.22092071 -0.21800841 -0.10952908 0.034315288 0.44383585 -0.20540988 -0.37247902 0.01710072 -0.09502267 -0.32423627 0.3174604 -0.2608461 -0.31911144 0.18507344 0.01295486
960 0.14624882 -0.13101302 -0.43893778 -0.22424766 0.052388255 0.20939729 -0.10259808 -0.04107288 0.17933042 -0.24598005 -0.25218442 0.15649727 -0.08918135 0.008515763 -0.33337188 -0.15071769 0.055109706 0.3007682 0.514509 0.60212463 0.2988509 -0.13304311 0.08640248 -0.24545641 0.38046303 0.45734903 -0.47532007 -0.15996793 -0.115366966 0.38894287 0.3464106 -0.41627967 -0.5535326 0.2846241 -0.14777942 0.0752805 -0.6062414 0.1450893 0.0051809205 0.00045696402 0.0989923 0.19097048 -0.088606894 -0.15661687 0.073155135 -0.118024535 -0.2623531 -0.19927071 -0.11662715 -0.37026802 0.0033874186 -0.21504995 0.36184287 0.105416104 0.015110014 -0.3736944 -0.20023265 0.21516074 -0.35050324 0.47588253 0.20649906 -0.17578839 0.025850456 -0.0827762
7037 0.2614098 -0.07123861 -0.18093014 -0.16716325 -0.16569753 0.22251527 -0.1135107 0.07865839 0.40250745 -0.027467297 0.25792208 0.46459243 0.051497124 0.15989842 0.40497634 -0.17124023 0.65229416 0.2045202 0.7564438 0.31174856 -0.44534263 0.32293046 -0.06712728 -0.13483107 -0.2572394 0.9885116 -0.10747492 -0.12374362 0.45209578 0.69749695 -0.09680027 -0.6018021 -0.19030714 0.55814624 0.11697542 -0.10795351 -0.6065082 -0.439671 -0.36834586 -0.24131262 -0.16338551 0.27162537 0.28565317 0.36753818 -0.25754818 0.27943015 0.03855276 0.18809551 -0.08930918 -0.0857277 0.036281556 0.24516201 0.45399413 0.040246245 0.43399563 -0.028843574 -0.018937185 0.1823989 0.40342486 0.38275152 0.27659974 -0.24195279 0.17073901 -0.26581353
613 -0.726616 -0.1269618 -0.2736788 -0.17895797 0.046488754 -0.0043397653 -0.24550754 0.21814144 0.18404521 -0.0068895468 0.03957837 0.33235002 -0.040949695 0.2144616 -0.13606653 -0.07033738 -0.21334091 -0.027268175 0.20060156 0.046760254 -0.6905514 0.23760736 0.12643875 -0.27539885 0.5347457 -0.07702071 -0.05460455 -0.04558427 -0.015089537 -0.028181216 -0.038008213 -0.055827606 -0.1796997 -0.1778987 0.37794977 0.39467302 -0.22708188 -0.42357764 0.38828713 0.20006663 -0.07367976 -0.26808086 -0.02501604 0.006559772 -0.30588397 0.24309103 0.07796597 0.5861115 0.054243844 -0.18643941 0.123603575 -0.33264446 -0.54832506 0.3019436 -0.05051695 0.12556523 -0.25282148 0.23977675 0.12746574 -0.08508455 0.10621013 -0.5088756 -0.26805758 -0.16323546
5914 0.09471955 -0.22614601 0.62099427 0.20507282 0.4652386 0.13771252 -0.26641184 -0.42858872 -0.041176587 0.5801437 0.098729394 0.047668982 -0.14624694 0.27575332 -0.22497389 0.26013795 -0.5916511 0.6538016 0.5234313 0.004180729 -0.16465405 -0.2328215 0.31198516 -0.41673005 0.23662603 0.54989594 -0.34275097 0.23480254 0.64956576 -0.1547454 -0.17913266 -0.09837561 0.4926179 0.2678267 0.1412182 0.21720354 -0.22414728 0.09260901 0.18012139 0.22739545 0.11649583 0.13694984 -0.6408143 -0.113202795 -0.13424754 0.061785784 0.2574967 0.4979454 -0.17613906 0.22430383 -0.52213264 -0.32795483 0.2660873 -0.20104235 -0.19243148 0.13929085 0.082097486 0.10735084 -0.3565343 0.012414569 -0.30189136 -0.3746198 0.43094364 0.19397736
811 -0.5805383 -0.2494441 -0.24677476 -0.40843898 -0.46470138 -0.36410943 0.18801665 -0.0392647 -0.18402159 0.3388307 0.096242644 0.39548993 0.29010466 0.11979336 -0.03346664 0.15881012 0.6310659 0.08471819 0.014293051 0.5527374 -0.30916226 -0.519799 -0.003027979 -0.005993 0.2551913 0.93621135 0.26883408 -0.18500082 -0.06433384 0.44896752 -0.21888173 -0.18158999 -0.030653462 0.45194533 0.14860742 0.23138328 -0.678756 -0.37610117 0.13631256 -0.116882995 -0.3859789 0.022616757 0.062509514 0.38167578 0.21852964 0.3200846 -0.055996858 -0.2507844 -0.09203195 -0.11416662 -0.46768647 -0.18508567 -0.3257912 -0.07022051 0.5795394 0.12516907 -0.14004977 -0.112106234 -0.3539727 -0.24267666 0.005535504 -0.28172764 0.1850529 -0.119746126
5606 0.15808868 -0.244935 -0.23008959 0.115390636 0.2657876 0.23199724 0.06505114 0.118887894 -0.06794163 0.63953936 -0.01889388 -0.27231607 -0.05071871 0.21108706 -0.019471342 -0.31275636 0.40959767 -0.09541591 0.15515073 0.46385503 0.10949973 -0.12909833 -0.06385621 -0.12514031 0.3024576 0.22394232 -0.7140438 0.27439597 -0.10451159 0.110839546 -0.1970453 -0.21415292 -0.031977847 -0.47955465 0.47150037 -0.027107595 -0.21979153 -0.09495787 0.45554847 0.50968635 0.2009981 0.32025874 -0.025227446 -0.27792427 -0.6984369 -0.03146237 0.35199422 -0.378745 0.3136788 -0.3447397 -0.62105364 0.34682667 0.16701886 0.0048918845 0.29299104 0.2907813 -0.48941723 -0.39212304 -0.04230395 -0.25810492 -0.22582415 -0.2569376 -0.2950748 0.016973104
5052 -0.27342427 -0.39846018 -0.11383498 0.008174129 -0.110872015 0.7017857 0.37755162 0.48465058 -0.24548295 -0.1357046 -0.3486621 0.25420338 0.15450177 0.32091343 -0.31565693 0.14205985 0.006865153 -0.05426086 0.6131687 0.01810889 -0.4360109 0.0073000444 0.14728922 -0.49728763 0.40059176 -0.18783535 -0.21308997 0.43960035 0.09151897 -0.07823437 -0.17079596 0.007791334 0.13387561 -0.3910648 0.31425163 -0.019759128 0.32268843 -0.32954508 0.65699047 -0.27813536 -0.29920673 0.033375848 -0.1899129 -0.41669092 0.07638207 -0.014275276 -0.0619418 0.0027046017 -0.03510707 -0.043260608 -0.124609776 0.09804246 -0.06940844 0.26579118 1.0093756 0.03322034 0.078463145 0.9192333 -0.18860069 -0.13789074 0.116797455 0.21129073 0.45511147 0.4996206
301 -0.22558264 -0.16115808 0.26601207 0.085464224 -0.1536881 -0.09306521 -0.18512344 0.14649768 0.36795563 0.12502874 0.16122311 -0.22991893 -0.17037748 0.21250409 -0.25890845 0.36751747 0.3556765 0.28201756 0.55724096 0.2634993 -0.29121032 -0.11952533 -0.44819343 -0.011823045 0.45271468 -0.07296741 -0.021224795 -0.40348536 0.58925277 0.16460882 0.055459145 -0.0052670147 -0.24010561 -0.0364767 0.022253156 -0.0416344 -0.37008402 -0.21752757 0.38780734 0.042498935 -0.19071856 0.39209148 0.0762915 -0.058377814 -0.1332233 0.2484145 0.005397746 -0.22224352 0.028510416 0.041490998 -0.13119714 0.4872452 -0.004666453 -0.15318547 -0.04333581 -1.0042053 -0.023839056 0.51633996 -0.08107512 -0.16475047 0.07926337 -0.0565052 0.26616108 -0.23855878
5587 -0.4190261 -0.30868492 0.048089202 0.03303732 0.06271971 -0.4232805 0.019920507 0.29644164 0.10556665 -0.060804844 0.043222573 0.18863203 0.3080281 0.34399894 0.2745155 -0.15573002 -0.09963855 0.2138325 0.6138224 0.5795403 -0.4882233 0.3389473 0.17326306 -0.3270615 -0.09525382 0.014799696 -0.4492552 0.15067664 -0.16417474 0.16823344 0.047519673 0.27496582 0.119620554 0.36013523 -0.38477784 0.014553983 -0.17708497 -0.29930943 0.10204789 0.032420702 0.08676848 0.22765829 -0.26001608 0.046602685 -0.20639184 0.27454498 -0.04212092 -0.14033724 -0.107410535 -0.21496968 -0.16003738 0.24684212 0.22761506 -0.4334971 0.034460068 -0.35639036 -0.32083476 0.361104 0.045345277 0.11411987 -0.045178 -0.23540375 0.14015123 0.29114425
4296 0.1656523 0.11171277 0.18339077 0.026170483 0.34800512 0.44800517 0.33005506 0.5364669 -0.15765105 0.8736658 0.011894368 0.36820075 0.094641306 0.1764694 0.06983396 -0.1661163 0.2690153 -0.34564263 0.593947 0.24842283 0.25471926 0.13501273 0.2807275 -0.63036317 0.3142591 -0.12589863 0.28825614 0.3163661 -0.13297385 0.22550441 -0.14669295 -0.25020602 -0.12525786 0.02343675 0.018747006 -0.024158644 0.09317385 -0.51181155 -0.124528036 0.4713294 0.051234573 0.18475538 -0.36604875 0.08079535 -0.52645594 -0.27048963 0.088652916 -0.18890859 0.5080388 -0.4101544 -0.45197314 0.28029668 0.09914255 -0.20772448 0.47808644 -0.16188823 0.14140731 -0.13562097 -0.10886417 0.2318206 -0.1276437 -0.06650465 -0.50171286 -0.28248796
3661 0.2608089 -0.32799923 -0.09173282 -0.20646125 0.63757 -0.16857892 -0.12949269 -0.0046375543 -0.17378801 0.04703359 -0.34133044 -0.16488099 0.31825763 -0.42217606 0.00980626 0.08264241 0.35574362 0.13786098 0.34459427 0.43237883 -0.25541428 0.025546731 -0.06263624 -0.3119671 0.046137832 0.5002696 0.14815348 0.5911954 0.34850815 -0.42516547 0.17880997 0.20466144 -0.15873829 0.16684769 0.058450826 -0.1848865 0.31468722 -0.42901078 0.53588974 0.18609935 -0.2823402 -0.008326368 0.1433629 -0.3190067 -0.08701265 0.16612865 0.23132403 -0.1584328 0.323484 0.11117265 -0.1779226 -0.351499 -0.36532578 0.26667613 0.30703497 -0.16117384 0.1327673 0.1293869 -0.6179912 0.23733722 -0.016524697 -0.20337673 -0.029712548 0.6578127
8767 -0.017096784 0.47433245 0.008008028 -0.08679182 0.39166293 -0.09117921 -0.27705145 0.42661744 0.3644787 0.153073 0.34377596 0.12507832 0.2560562 -0.32750472 -0.26177165 0.011637133 0.29006705 0.41415554 0.48060116 -0.08606783 0.21675016 0.16275698 0.03437742 -0.18192837 0.36747834 0.51464564 -0.03529824 -0.29437923 -0.026601909 0.31915992 0.09014978 0.20909743 0.013717475 0.23325409 -0.023789834 0.24636604 0.19969153 -0.12252723 0.23965096 0.51825243 -0.32503608 0.4032349 -0.103171594 -0.099559575 0.12302664 0.2152651 0.5675666 -0.36921644 0.3027294 -0.18629679 0.3269957 0.12389378 -0.626453 -0.28149122 0.16025631 -0.30463192 0.14541884 0.03267329 -0.5715666 0.14912151 0.5692554 -0.1630573 -0.2375338 0.27705842
5608 -0.108196445 -0.074186236 -0.3667554 0.49290222 0.044852026 0.26373106 -0.1796666 0.41488066 0.31698233 0.35968906 0.10298418 -0.029437726 0.1683176 -0.20794426 -0.23237932 -0.09099612 0.4693647 0.2283085 0.24839741 0.19182098 0.06760938 -0.009194642 -0.13708775 0.038856175 0.37689552 0.082920864 -0.28349438 0.37318248 -0.18357608 0.13505739 0.094870724 -0.16975477 -0.0122176865 -0.4411424 0.7717754 -0.18950501 -0.22245339 0.11911844 0.47100517 0.1517159 0.020196237 0.45464665 -0.3285635 -0.53306943 -0.5275651 0.058183853 0.55080724 -0.23108713 0.45369804 -0.20251113 0.0039353264 -0.024122633 0.03753416 -0.18266538 0.03689551 0.28549424 -0.1152795 -0.35436183 -0.076904126 -0.25810823 -0.29892418 -0.60937774 -0.4422909 -0.116731726
57506 0.29915303 -0.21568146 0.10683816 -0.3121133 0.60245526 -0.30137193 0.354912 0.12890224 -0.31391743 0.103412025 0.07098386 -0.1653532 0.33710146 -0.17672123 -0.1484451 0.08251735 0.26632094 0.25059748 0.47721392 0.046176195 -0.11538011 0.071394585 0.14115265 0.059188217 0.0049783727 0.1070189 0.26662746 0.37719682 0.4240669 0.3179272 0.28279483 0.04699981 0.05477534 0.11883923 0.023973336 0.010953411 -0.05168505 -0.0041671204 0.4290265 0.40713146 -0.7500267 0.5572411 0.28104183 0.11533669 0.12889694 0.21508761 0.32135782 -0.24617694 0.25958976 -0.16556177 0.046289578 -0.6770794 -0.49527425 0.1048665 0.029368069 -0.48759297 -0.32535672 -0.18341933 -0.6207439 0.4374253 -0.18357518 0.20383675 0.13045049 0.057526417
595 0.20386091 -0.50668645 0.353204 0.23592758 0.12483668 -0.09804108 -0.41249284 0.10929925 -0.22780609 -0.13154437 -0.008267425 0.18376036 0.09911303 0.09643226 0.050824326 0.14924377 0.22332421 0.3045507 0.68459153 -0.13382103 0.18613578 -0.18026012 0.382018 -0.14614399 0.7586934 -0.07624809 0.01006395 -0.17523873 -0.07475836 -0.3150415 0.3760763 -0.37437323 -0.06585515 0.34189516 0.4447123 0.045028202 -0.060868606 0.1681235 -0.16883244 -0.038659584 -0.46972904 0.13076812 -0.43103772 -0.030530734 -0.045999683 0.138824 0.70171046 0.48884407 0.38069302 0.22311564 -0.5199279 -0.24453472 -0.28826222 0.17814985 -0.35363773 -0.2040217 -0.27234423 -0.13351524 0.30649775 0.26631907 0.002044298 0.4073474 0.38898766 0.070368916
1856 0.21837057 -0.41239673 0.0032609869 -0.38386813 -0.18141873 0.45910966 -0.03431475 0.35115924 -0.066961624 0.008489626 0.027617676 0.2546838 0.26830453 0.71364474 -0.39561898 -0.109421745 -0.51056504 0.1347443 0.3476384 0.4230474 0.40896216 -0.22469006 -0.5377316 0.36704373 -0.013458786 -0.2874347 0.09835542 -0.117056176 -0.0039698575 0.29964462 0.15324873 -0.29709885 0.5407355 -0.14214839 -0.16409315 0.03296549 0.05161568 -0.027752008 0.053902235 0.12829384 -0.16753672 0.0375722 0.1402945 0.17357308 -0.3504399 0.20960025 -0.16655886 0.16428888 0.11863546 -0.013067649 0.091042764 0.14770634 -0.6203434 -0.21086545 0.014370613 -0.04458514 -0.5249603 -0.18203825 -0.07565445 0.38511455 0.056257647 -0.4240377 -0.043395814 -0.028733727
1027 -0.08755685 -0.20561893 0.34229326 -0.008772215 0.06918269 0.29590604 -0.29628634 0.19915947 -0.40591198 0.31994504 -0.18817109 0.08904397 0.28052753 0.20142972 0.018695949 0.23371603 -0.25247103 0.07023207 0.051261943 0.13324915 -0.07898692 0.03718326 0.023601782 -0.5303939 0.5764896 -0.16693397 0.030717224 -0.08656015 -0.35729635 -0.22633809 -0.11915577 -0.23386776 -0.19891258 0.4594076 -0.3681199 0.034600828 -0.09468443 -0.16278258 -0.21989873 -0.03043839 -0.45884758 0.20072961 -0.047434334 0.099238396 -0.45676473 0.7819353 0.4983885 0.38240862 0.25951073 0.3970632 -0.5347791 -0.6574201 -0.2063907 0.21859702 0.09398166 0.14861791 -0.53540134 -0.11429963 0.29811913 0.41961074 -0.27532056 -0.24862927 0.16327056 0.11849465
9846 -0.4260182 0.07992038 -0.018680515 -0.3882552 0.09445245 0.21843041 0.16856894 0.007459264 -0.0335314 0.4640804 0.1309171 0.27505973 -0.1791581 0.18193081 0.077217616 0.03998881 -0.33367828 0.24126418 0.38143352 0.19937804 -0.37334716 -0.037414193 -0.12389612 -0.50932664 0.26632935 0.1793463 -0.34435564 0.28426886 -0.11727296 -0.20640641 -0.091176584 0.27005234 -0.21599391 -0.26051682 0.39507562 0.34461525 0.008999687 -0.2848203 0.20301653 -0.16999458 -0.08648173 0.052053276 -0.33179414 0.013702735 -0.41650423 0.058506098 -0.2926074 0.26900113 -0.24971601 0.05952239 0.13516428 -0.34785134 -0.30576688 0.5262759 -0.28947312 -0.40250188 -0.6120504 -0.03998111 0.19603178 0.1546309 -0.27759233 -0.29265156 -0.13537128 -0.12688656
4292 -0.19427444 -0.39062738 0.093379624 0.4778472 -0.12850164 0.06865178 -0.05029061 0.59603333 0.19499542 0.38410226 0.0014991659 -0.060624283 -0.4320358 0.010494811 -0.6744659 0.44459307 0.56042033 -0.32595113 0.86406356 0.27763158 0.16816737 -0.28540674 -0.5815635 0.12740086 -0.12919387 -0.37097377 -0.2198471 0.36943918 0.117181815 -0.2664137 -0.26175153 -0.4929034 -0.27406472 0.12802088 0.25203317 0.50346154 -0.57070553 -0.75215405 0.28094202 -0.7693435 -0.24386752 0.81710297 -0.49149722 -0.78260756 -0.027126342 0.07045588 0.049784474 -0.20013244 -0.7194949 0.2295952 0.14703888 -0.23543222 0.2712553 -0.42848822 0.4459566 0.0892809 0.22000565 -0.37850785 0.23073909 -0.2388153 0.19198373 -0.032232378 -0.2776619 0.31272575
8737 0.07029598 0.04074305 -0.11424801 -0.07547942 0.26217753 -0.38310227 -0.1037944 0.56570476 0.60016066 0.53883827 0.14397474 -0.10515685 0.12853415 0.2790272 -0.49722743 0.07582578 -0.2680346 0.3825723 0.24117233 0.1707346 0.162456 -0.29973373 -0.3831876 -0.15525107 0.13338956 0.18690826 -0.32015857 0.20410174 0.31985334 -0.07317732 0.018550059 0.5457657 0.11910572 0.24222066 -0.33970404 0.03758994 0.1881715 -0.23615523 0.25147524 0.21520178 -0.3437838 0.41124275 0.07888046 0.05550631 0.087461695 0.4505433 0.16215262 -0.045858387 0.32044885 -0.37278986 -0.020551976 -0.16820893 -0.46167493 -0.4156656 0.23682278 -0.32079667 -0.72409874 0.07082191 -0.5604367 0.41997612 0.38470462 0.2574001 0.036054846 -0.29477108
11171 -0.45654544 -0.083985895 -0.05432993 -0.39527166 -0.053677917 -0.18220288 -0.53650635 0.10897619 -0.27825344 0.028853714 -0.17198834 -0.27781305 0.2785458 -0.17019926 0.20589821 0.08814942 -0.2539879 0.1910898 0.8105015 -0.07746528 -0.2052713 0.0014488997 0.19229025 0.15737328 0.10142386 -0.07479439 -0.5331798 0.4292033 -0.094535045 -0.23407759 0.2457733 0.032757998 0.14097406 0.08328074 0.09206987 0.3944271 -0.20369032 0.38397324 -0.43488488 0.43082651 -0.05684101 0.393595 0.67384535 -0.33638036 0.011509082 -0.16584308 0.16855189 -0.03165468 -0.08056133 -0.55967367 -0.1322103 -0.14840926 0.05063274 -0.4692756 0.50834554 -0.4166959 -0.20542821 -0.09610496 0.13912442 -0.24021187 -0.07272147 -0.48200274 -0.18917923 -0.33265114
6498 0.15721214 -0.5792402 0.41453424 0.30717182 0.19236174 0.18048696 -0.1574184 -0.05479682 0.26109177 0.5264607 -0.14309458 -0.4120436 0.57004905 0.1845576 0.19033399 -0.2412561 -0.38592887 -0.09557057 0.30028075 0.57662195 0.0213639 -0.32396945 -0.001807869 0.22108585 -0.19066204 0.05702646 0.10667022 0.44654456 0.29468337 0.48799238 0.23648623 0.033523142 -0.04470763 0.13059396 0.30231357 0.90364337 0.03460165 -0.28572005 0.040712282 0.31034148 -0.111971416 0.29993933 0.42373317 -0.35089532 0.17775391 -0.07222458 0.39751765 0.5702099 -0.051588684 0.038385075 -0.15762249 0.33750528 -0.42929575 0.060580764 -0.33636308 -0.016180258 0.093605585 0.16770078 -0.32022655 -0.08844156 0.11524377 0.28489685 -0.026928518 -0.2760276
4615 0.31583178 -0.28863832 -0.059370816 0.3914077 0.30462256 0.24913976 0.5043352 0.14977771 0.06565106 -0.20392342 -0.22067529 -0.0669158 0.18259047 -0.23787344 0.34022895 -0.24094757 -0.42973587 0.11538004 0.6632146 0.45716035 -0.7564151 0.3390407 -0.14593436 -0.14834513 0.15682323 -0.16038989 0.16195679 0.28990975 0.05662579 0.15666048 -0.14517316 0.121225074 -0.3338358 0.40990773 0.30335718 -0.10890296 0.24556722 -0.21112674 0.2254467 0.21239209 -0.45881453 0.13115321 0.15054171 -0.13727625 0.08348162 0.31460813 0.1662092 -0.2131106 0.32685232 -0.7292182 -0.043549363 -0.12987313 -0.6348041 -0.41861215 0.5672361 -0.2281374 0.086485945 -0.091793604 -0.28386348 0.25504255 0.5931092 -0.2146146 0.36902785 0.23023222
