1303 64
351 -0.12723683 0.39103264 -0.08914189 0.14199887 -0.101579666 -0.10297605 -0.2978599 -0.27831143 0.17244409 0.08594536 -0.1337115 -0.1331781 0.28025848 0.004399062 -0.1979291 0.17864682 -0.34418604 0.26635832 -0.45812953 -0.23839095 0.21428329 0.00062066223 -0.02725206 0.3602512 0.061741974 0.19505732 0.20494257 0.1364413 -0.19298548 0.042387683 -0.4231358 -0.30714136 -0.32871953 -0.13023047 0.41205582 -0.1132687 -0.26848117 -0.1148195 -0.30586106 -0.15572102 0.043236706 0.1823365 -0.0035591787 0.26931068 -0.0209747 0.06027852 0.20989451 0.052994188 0.34419993 -0.16063198 -0.22008568 -0.47692403 -0.08713951 0.2843195 0.13549171 0.5698377 -0.25537485 0.24645582 -0.19711035 0.14967091 0.36539394 -0.0036820532 -0.01036952 -0.3454134
1956 -0.30187228 0.120786555 0.31534177 -0.09835108 -0.074086696 -0.060984585 0.29339433 -0.024916664 -0.5221106 0.11316473 -0.29501224 0.09307082 0.22448121 0.20044412 0.1811368 0.25401777 -0.4327305 0.17650634 -0.37532267 0.17566852 0.19976087 -0.04586673 -0.044780858 0.15587199 -0.1451095 -0.077781856 0.22939287 -0.28602585 0.17136905 0.2126799 -0.06376775 0.042002894 -0.21478347 -0.102150545 0.1877463 0.025840482 0.11774218 -0.093991034 -0.20653985 0.07193268 -0.074116565 0.13113889 0.14882463 0.08040584 -0.1253476 0.052535016 0.044484936 -0.1907698 0.14612935 -0.021494275 -0.0001415294 -0.08237654 -0.17233054 -0.36608064 0.13566169 0.095064834 0.15488859 0.19002053 0.13083683 -0.15930593 0.19985726 0.04926975 -0.12671046 0.14804016
7157 -0.23563007 0.4501562 0.11283712 -0.031451944 -0.020324476 0.31180415 -0.061584312 0.4825498 -0.18904153 -0.10744736 -0.21604411 0.13365702 0.11239933 -0.30576423 -0.22270496 0.080043904 0.033668246 0.18485153 -0.26745474 0.40126535 0.002221324 0.018645717 0.07176057 -0.24740303 0.39819834 0.24768303 -0.010269638 0.043993812 -0.17231137 -0.04934 -0.10499925 0.07057151 -0.10368448 -0.06798697 0.0253467 0.059152953 -0.0895614 0.094512664 -0.33077443 -0.067529455 -0.1000386 -0.21774335 -0.21237579 0.064123996 0.0076869996 0.35427463 0.210082 0.16603704 0.2774719 -0.0788142 -0.0041004554 0.2340942 -0.25803497 0.1658812 0.42221293 0.14494582 0.0723498 -0.3189137 0.07054426 -0.08530751 -0.082433596 0.024344187 0.021026362 -0.04531896
2885 0.096239224 0.10748349 0.19811745 -0.029021304 -0.13653599 0.120001815 0.117332906 -0.1506619 -0.5249907 -0.26716933 0.02469807 0.5125805 0.23353964 0.26867586 -0.18937856 0.03879117 -0.05824061 0.050969765 -0.21543644 0.08216083 0.07097297 0.46284273 -0.18582398 0.16348171 -0.09426568 -0.016733946 0.3450283 0.04351555 0.045384225 0.076451935 -0.44887966 -0.047998633 -0.102229886 -0.21052082 0.18456547 0.13770698 -0.093913086 -0.3015814 0.07047318 -0.30693746 0.24665664 0.15278625 -0.19286732 0.16036059 -0.07825021 0.20801525 -0.0024225076 -0.5119032 0.1714558 -0.1445316 -0.14082703 -0.1769967 -0.24404316 -0.10197437 0.10011099 0.033419173 0.008780327 -0.14647563 -0.16263098 -0.017888317 -0.3375641 0.008602198 0.12111444 0.26079702
1017 -0.36386764 0.09895132 -0.12244665 -0.1027287 -0.13347387 0.13913056 -0.12085641 -0.03319741 -0.33040988 -0.2165789 0.14582738 0.20263283 -0.3090699 0.047334194 -0.3384105 -0.054433163 0.15821639 -0.11513774 -0.08019392 0.030609904 0.10024598 -0.2983854 0.08872689 -0.23462261 0.17900397 0.20618165 0.30259535 -0.3135283 -0.2550217 0.07068494 0.12234752 0.039299794 0.13766396 -0.36496133 0.19060478 -0.1499538 0.15216048 0.16191947 -0.33945078 -0.24500516 0.021775454 0.10220256 -0.13327235 -0.26315436 -0.34166458 -0.19646588 -0.10000641 0.0535292 0.45924067 -0.46963903 -0.16321526 0.046624947 -0.4877445 -0.045241866 0.23058133 0.061586346 -0.23222631 -0.103190295 -0.043919653 -0.11111154 0.15075374 -0.18000658 -0.06169845 0.017614188
2335 -0.24486195 0.23385076 -0.11788242 -0.3805382 -0.43255588 0.0922784 -0.36878404 -0.18191047 -0.40787405 -0.14167865 0.14145365 0.45174712 0.13326032 0.25996506 -0.29017878 -0.10979757 0.13984036 0.191716 0.041974686 -0.054395314 -0.2277223 -0.2891737 -0.42788282 0.17890179 0.0039241356 0.041909263 0.443063 -0.15122338 -0.24713165 -0.06003784 0.16875015 0.02324879 0.07831136 -0.25227943 0.041227166 0.010412393 -0.10710948 -0.14896336 -0.15939894 -0.13435198 0.19526081 0.17253566 -0.07773662 0.36645722 -0.04316765 0.12844366 0.16202337 -0.0067651295 -0.20963745 -0.3219826 0.20488097 0.255824 -0.14263347 -0.22844836 0.22515856 0.19096167 0.05391454 0.07258997 -0.09993241 -0.073366195 -0.088804744 0.056914393 -0.2602899 0.27388698
8452 -0.10135836 0.32087556 -0.051329974 -0.21827175 -0.1310721 -0.24658723 0.11502002 0.10333086 -0.4723271 0.20366743 -0.0025137817 0.63370645 -0.04448263 0.14852674 0.02683906 0.084673226 -0.006856515 -0.049735483 0.36631155 -0.15103199 -0.0110845715 0.12744752 -0.07603844 0.11021476 -0.116715 -0.064812504 0.44452572 -0.12611294 -0.23426685 0.16882184 -0.024865527 0.22092845 -0.24075738 -0.26978776 0.057208534 0.30462202 0.21545152 0.2962515 -0.063172735 -0.1569737 0.27068347 0.19597393 -0.12146266 0.20518902 0.3415992 0.3123376 0.018555945 -0.22784385 0.3748594 -0.55964655 0.04703714 -0.28890353 -0.024721542 0.17116547 -0.04644132 -0.098011814 0.34117502 0.21061711 -0.15723976 0.038416956 -0.09243212 0.13546629 0.37776566 0.26303402
6714 0.14762169 -0.011693448 0.25792658 -0.038255535 -0.106382 -0.069817394 0.22902964 -0.071386635 -0.434141 -0.120959006 0.15503521 0.09643214 -0.10043433 0.12540317 0.051499315 0.14677161 0.17789066 0.29090458 -0.62145585 0.12087476 0.06779947 0.08253011 0.05244111 0.04317167 -0.047937494 -0.015470175 0.30645654 0.029565806 -0.010013509 -0.30006722 0.03671277 -0.13491814 -0.26311362 -0.004414364 0.22010338 0.05034167 0.33211672 -0.23238891 0.07217635 0.031403493 0.34542304 -0.19743629 -0.065507084 -0.36516464 -0.3600861 0.33024397 -0.1263301 -0.3724093 0.2656474 -0.035063345 0.003309547 -0.017388623 -0.35608283 -0.21005908 -0.16020264 -0.0044248076 -0.0128323035 -0.1227619 0.07740939 -0.2290999 0.25404456 -0.0785206 -0.028897244 0.10153468
3065 0.12295248 0.07853608 -0.23775077 -0.4532744 -0.15766217 0.04609139 -0.18661898 -0.10734401 -0.20321411 -0.046802666 -0.2268028 0.5639007 -0.05298266 0.027682433 -0.58056104 0.048607547 0.242337 0.042631943 0.07604247 0.3920811 -0.13309008 0.10224057 0.20186654 0.1344359 0.16267084 0.06306244 0.14506643 -0.053563572 0.24988995 -0.2709173 -0.10036131 0.16287376 -0.28063783 0.31971255 0.06939638 0.24562012 -0.1641436 -0.050086055 -0.31365114 0.067620106 0.3254711 0.18067752 -0.16406298 -0.09536546 0.084935054 0.37017927 0.20799954 0.032912944 0.23889574 -0.24727711 0.23257956 0.088631265 -0.37080112 0.34390622 0.22852972 0.07825246 0.27701834 0.45167437 -0.07540342 0.009668307 -0.07329263 -0.036381204 0.123740874 -0.22687611
672 -0.2868305 0.27685755 -0.03271397 -0.29817763 -0.053109128 -0.07667391 0.3585425 0.25530392 -0.099668704 0.09199379 -0.38410497 0.16571864 -0.14744544 0.039870065 -0.35879174 -0.14649463 -0.13306735 -0.29925296 -0.009435843 0.02182841 -0.27885535 -0.16966273 0.036841895 0.19721943 0.56837416 -0.02324026 0.43055594 0.35139292 0.4079544 -0.28119949 -0.07029892 0.14029355 -0.18911022 -0.039528824 0.2347599 0.52849823 0.073097214 -0.17747141 -0.095146716 -0.33284348 0.27786282 0.00032275313 -0.2368745 0.18918186 0.16911711 0.18520576 -0.020981574 0.015053297 0.16444558 -0.09450407 0.28302827 -0.12118152 -0.5490961 0.09787534 0.25515693 0.12874849 -0.052196447 -0.21609849 0.19227082 0.22303483 -0.18421954 -0.1923716 -0.13541962 -0.0778357
7189 0.02355111 0.029509064 -0.27664617 -0.16414021 -0.3176589 -0.27410227 -0.091432005 0.16608553 -0.07161317 -0.1297979 -0.10712862 -0.13045798 0.012772729 -0.11333778 -0.045031857 0.22929664 -0.1839731 0.22893673 -0.15903735 0.11442093 0.35344106 -0.2370504 -0.114957556 0.16601337 0.012557019 0.44911414 0.36217976 0.3904046 -0.49823537 -0.14719716 0.08678675 -0.022054657 0.11092255 0.014746855 -0.11485528 0.36745527 0.17090088 -0.11159127 -0.25401774 -0.3280909 -0.04811258 -0.23433036 0.23243189 -0.059052166 -0.5062438 -0.11276071 -0.17877805 0.05649824 0.12938629 -0.1807245 0.34374937 -0.22518733 -0.16987392 -0.26242253 0.4668572 -0.036594506 -0.435093 0.30107015 0.17892362 -0.063288 0.3196959 0.2237057 0.3420741 -0.25248986
5594 0.034691 -0.052052904 -0.096331865 0.43221658 0.21548544 -0.08973352 0.0863725 0.16168712 -0.48845866 0.086071365 -0.3089754 -0.041135415 -0.27113682 0.40976858 -0.1432812 -0.14789733 0.17087331 -0.09259807 -0.7446869 -0.019154053 0.30344835 -0.23282762 0.21001536 0.33227798 0.158363 0.088429675 -0.31700966 -0.07830292 0.09333112 -0.1998918 0.109543845 0.22147295 -0.05555233 -0.40534723 0.1779892 0.14700356 -0.0536414 -0.031249404 -0.11368597 -0.2518015 0.008984445 0.102866426 -0.45850053 0.08122936 -0.21998002 0.090355344 0.23417926 -0.04188698 0.22458926 -0.23550771 -0.184139 0.030296585 -0.32865092 -0.032950763 0.2872007 0.08920331 -0.06410036 0.20721567 0.04609726 0.04203642 -0.0034552198 0.27172187 0.25147977 -0.25107443
4609 0.15549165 0.20782466 -0.047218986 -0.18597122 -0.3731266 -0.30419233 -0.017623173 0.46296135 -0.31398305 0.47203267 -0.22577484 0.15232608 -0.09466237 0.14277124 -0.09639403 0.14969423 0.08575278 -0.051720142 -0.14937569 -0.16486275 0.27374974 0.04050557 -0.009516349 -0.0046823137 -0.088462114 0.12717941 -0.038058773 -0.35888165 -0.119218715 -0.046105586 0.008408859 0.31717736 0.0029874025 -0.38026893 0.28986964 0.22629453 0.14318457 -0.11142083 -0.4542883 -0.056814454 0.17508563 0.096809454 0.1356632 0.07142086 -0.18402798 0.4318372 -0.3143431 -0.21472012 0.24494068 -0.14096113 0.0027823125 0.3552026 -0.22898513 0.34929326 0.280217 0.034483314 0.44741994 -0.0119643565 0.62275 0.36781764 0.116516925 -0.12951736 -0.30856994 -0.0073930435
207 0.22494861 0.07475982 0.028356455 -0.30766103 -0.08266004 -0.060550954 -0.025972998 0.29388824 -0.38867527 -0.19710618 0.13234313 -0.15220918 -0.025992999 0.03009436 -0.059546888 0.28132042 -0.2909406 0.013830554 -0.22392766 0.18517448 0.17483771 -0.09926328 -0.026866589 0.26256678 -0.026245415 0.015743263 0.29666343 0.34888843 -0.20269585 -0.18947336 0.17791982 -0.10775081 -0.1305959 -0.14513619 -0.098688446 0.100778915 0.1024857 -0.42249513 -0.10783761 0.17887591 -0.4161475 -0.48356965 -0.40298107 0.10970359 0.029320067 -0.22890413 0.14140846 -0.11054296 0.2597538 -0.09198 -0.12327943 0.06823279 -0.44074136 0.24335547 -0.070403144 -0.15862939 0.11145406 -0.17877786 -0.3081006 -0.16220474 0.16597581 0.14945856 0.26961803 -0.40148127
10987 -0.12095798 0.13160072 -0.59134024 -0.019755786 -0.53554076 0.07951877 0.03246584 -0.18269353 -0.43550003 0.0020804277 0.15983146 0.6105373 -0.057477646 -0.01518187 -0.3868941 -0.16342668 -0.24372776 0.09216635 -0.12654996 -0.1558106 -0.008416197 0.032004062 -0.28110078 -0.27212024 0.36518595 -0.17073919 0.23734553 -0.063002154 -0.13283919 0.02074387 0.13789444 0.0674606 -0.009926196 -0.059423797 0.16449842 0.35908434 0.120699555 0.21106642 0.17296024 -0.3788973 0.24215238 0.20069411 -0.1928858 -0.16535231 0.24234088 0.24078651 0.08396697 -0.03300802 0.17442521 -0.3294981 0.21158555 0.030888641 -0.48580733 -0.039278075 0.014384809 -0.20169671 0.29019344 -0.16676566 0.20126233 0.24195358 -0.18819498 0.22792056 -0.021325229 -0.022324063
1457 0.11435706 0.37907845 0.025379721 0.07845935 -0.29377443 -0.10373038 -0.11753387 0.38328147 -0.33841383 -0.06032955 -0.14674327 0.027045982 -0.32860237 0.19772261 -0.19082418 0.0052967905 -0.25681898 0.2760254 0.10185006 0.39857924 0.012933707 0.03455187 0.35996053 0.21266675 -0.16654484 -0.24556299 0.4135292 0.00041998673 -0.58381075 -0.114423394 -0.17171964 0.004135748 -0.012590608 -0.14961462 0.25794923 -0.077600695 -0.048802637 0.34043172 0.014325516 -0.016025491 -0.022217458 -0.20000073 -0.101775676 -0.20447296 0.097136855 0.46993437 -0.21257731 0.12912369 0.2823708 0.1813944 -0.17123812 -0.15306802 -0.2749136 0.26484847 0.10104155 0.1318311 0.04341895 0.17564729 0.22397892 -0.25679088 -0.15420409 -0.18838677 -0.51416945 -0.14205831
1499 -0.23976602 0.031201556 -0.13525239 0.036632363 0.15044197 -0.020116432 0.3502665 -0.2683469 -0.13572189 0.09745394 0.47607505 0.046829883 0.04544683 -0.25145027 -0.23669477 -0.2693923 -0.4749599 0.6069233 -0.1236164 0.012892438 0.09973428 -0.29287356 0.14116716 0.09258605 -0.14431554 -0.16141237 0.29912347 -0.22627534 0.089666314 -0.2476025 0.1341725 0.015492648 -0.29062185 -0.20693338 -0.043726012 0.06963272 0.044023708 -0.4043431 -0.23209725 -0.0766179 0.16776952 -0.24682014 0.06523533 0.0042087683 0.47714642 0.20308508 -0.24320644 -0.30652785 0.42420933 -0.0027771317 -0.010144286 0.13747212 -0.4179965 0.1754771 0.33248618 -0.001013848 0.3308078 0.11680226 0.056375347 -0.42001045 -0.11464272 -0.15742068 0.20131628 0.087473236
6667 -0.32064065 -0.041002583 -0.36307314 -0.25471103 -0.19347924 0.05425175 0.08391368 -0.03961381 -0.30794355 -0.33938897 -0.2578708 -0.19989988 -0.064663276 0.01854376 -0.5763566 -0.23258795 -0.04550662 0.20650724 -0.10632831 0.33520114 -0.2603726 0.22068025 0.31873608 0.3534414 -0.19719395 0.34536022 0.13468587 -0.31408495 0.5605942 -0.1490659 0.19066115 -0.020741887 0.24377072 -0.18579951 0.2744473 0.32989034 0.10903163 -0.25374654 0.0033115565 0.2785732 0.14093807 -0.04431512 -0.3053263 0.08657184 -0.25033346 0.23724414 -0.1359225 0.13379 0.2006536 0.0408994 -0.3984742 -0.20308582 -0.41922945 0.11019218 0.19189489 0.13745332 0.04217239 0.07859694 0.03423766 -0.27842256 -0.038188092 -0.19234851 -0.053711712 -0.11311634
4869 -0.0059753093 0.17845479 0.017346615 -0.035020266 -0.5160942 0.010369456 -0.043260157 0.363009 -0.31745845 0.07558897 0.12562099 0.50010604 -0.1871482 -0.29888824 -0.1754593 0.23521563 0.079561844 0.122040264 -0.2907718 -0.043491703 -0.40232393 -0.22314247 -0.06861691 0.39043218 -0.2550848 -0.2732962 0.45434985 -0.084510975 -0.047132988 0.17926008 0.07515514 0.15049191 -0.19557089 -0.23749839 -0.1332663 0.3922094 0.23859195 -0.05757921 -0.37042788 -0.1271035 0.149844 -0.13719152 -0.17072725 0.15600851 0.053839564 -0.37486178 0.3068886 -0.007768175 0.13998897 -0.35255575 -0.14989653 -0.006997286 -0.20478284 -0.15036802 -0.013537011 -0.20724587 -0.1555537 -0.042311374 -0.056474093 0.03670946 -0.17775492 -0.07703622 -0.023135206 -0.05311371
7415 -0.18770991 0.22073844 -0.6685686 -0.09292206 -0.04812032 -0.46960795 -0.17090766 -0.004063578 -0.2325217 0.25027943 -0.23463652 0.024361756 0.4480926 -0.123598695 -0.08877914 -0.11622513 -0.09551417 -0.06809295 -0.2834618 0.09238246 0.1366905 0.10015176 0.38098451 0.0149558885 0.37848097 -0.4667668 0.29651016 0.25131088 -0.3898287 0.070604526 0.16904074 0.057203036 -0.029352007 -0.46908805 -0.042389646 -0.010101439 -0.18821076 -0.31041732 -0.092857294 -0.35473981 -0.07957121 -0.09096326 -0.3431274 0.17262618 -0.1090053 -0.16956578 0.25028425 0.016708096 -0.118378274 -0.5008699 0.11945152 -0.10827688 -0.25024986 -0.081910476 0.13025111 -0.32365942 -0.100994125 0.17348242 0.32291391 -0.029378457 0.12974538 -0.1756256 0.10080206 0.43440634
8517 -0.058600985 0.16384849 0.03286967 -0.002386264 -0.27773607 -0.08697835 0.117912434 0.42657107 -0.05235971 0.42790985 -0.13406771 0.31718147 -0.16148584 0.10719753 -0.34288585 0.16490604 0.01893512 -0.12225732 -0.0045441906 -0.12545815 0.35825178 0.25879154 0.22350864 0.051223323 -0.010573492 0.14643346 0.4363635 0.12351732 -0.39456406 0.25655937 0.17813699 -0.0552968 0.09218189 0.017253147 0.015526214 0.30990607 0.30848655 -0.28673476 -0.23967 0.102932125 0.13271055 0.20019309 0.010872837 -0.29921293 -0.26406685 0.20220242 0.080586754 0.22651248 0.03141951 -0.033697084 -0.09492578 -0.10369936 -0.17716815 0.15751675 -0.021401504 -0.10872797 -0.16587202 0.048911355 0.15606515 -0.3565035 0.8648988 0.38492072 0.18450701 -0.09471427
5595 -0.090375334 0.0028249111 -0.1399663 0.09799014 0.14673406 0.0125574395 0.021272419 -0.0450691 -0.52264297 0.31419975 -0.22498842 -0.012716141 -0.15749313 0.37024984 -0.122766234 -0.10922691 0.21731454 -0.15467241 -0.48438832 0.4619035 0.10390767 -0.16876271 0.2306372 0.42703736 0.09107707 0.031821985 -0.48716155 -0.121189244 0.062466186 -0.11269398 0.15338905 0.5303765 -0.024217248 -0.47197345 0.08320026 0.18550621 -0.11651347 -0.06588555 -0.08140035 -0.21344452 0.060627557 0.28348896 -0.32192114 0.23717572 0.08650387 -0.07713972 -0.028759286 -0.06452252 0.24819754 -0.014720444 0.11197837 -0.05708897 -0.5209416 -0.113924585 0.3342988 -0.03354257 -0.15856187 0.044722445 0.19583423 -0.10654112 0.23750685 0.23363508 0.54846907 -0.21522452
4088 0.19720373 0.14744411 0.059012458 -0.33723173 0.1612963 0.09596846 0.21675698 0.26042455 -0.34967238 -0.05367472 0.15948085 -0.12267778 -0.25482574 0.076439366 -0.37016827 -0.009423138 -0.2687494 0.16782619 -0.122199714 -0.26196182 0.24025439 0.08646965 0.43558216 -0.008902137 -0.09608513 0.44497687 0.24687952 -0.41874653 -0.038755886 -0.48716372 -0.2818751 0.2083432 -0.1333437 -0.22029327 0.42057195 0.34776455 -0.25682408 -0.1263973 -0.24365626 -0.07501198 -0.096921444 -0.109547146 0.049068972 0.027725853 0.21413386 0.3352301 0.33768278 -0.12610851 0.16970798 -0.12159299 0.20428927 0.37401155 0.042585082 0.24294984 0.21765208 0.21163814 -0.03895641 0.06364368 0.22116521 -0.19269252 -0.21796326 0.5028768 0.04269657 -0.21150912
5970 0.25033525 0.23264325 -0.16498712 -0.11503783 -0.47898448 -0.16869748 0.2393046 0.4341905 0.021810144 0.068397455 0.101374164 -0.038581077 -0.63251525 -0.008357337 -0.27471012 -0.25182176 0.056018535 0.11528328 -0.2101769 0.38934997 -0.09681625 0.3560034 0.07223008 0.080206886 0.0275073 -0.27921975 0.42032126 -0.042443413 0.14507876 0.16894534 -0.07549114 0.032907926 -0.034003876 -0.35950586 0.013189117 0.56941634 0.03385993 0.012969311 -0.15517676 0.038770963 0.08431123 0.051281236 -0.09538802 -0.023952302 -0.11389706 0.36653015 0.31446573 0.04409464 0.20989935 0.16034776 -0.07258466 0.26179188 -0.17649439 0.14141196 0.28997597 0.156577 -0.0957289 0.22660638 0.30845088 -0.024979843 0.19719994 0.07933653 -0.118502595 -0.08479289
7428 0.059059747 0.14852463 -0.27818412 -0.01749278 -0.3509912 0.035488285 -0.34820953 0.062060148 0.047336128 0.12328658 -0.21154 0.30420023 0.008096111 -0.16493547 -0.24416079 -0.36012673 -0.1669465 0.45768318 0.13902771 0.5767686 0.23695943 -0.025464838 0.114556454 0.37125465 0.059199918 0.04974706 0.10613856 0.26704675 -0.1067705 -0.047221888 0.38943774 0.0388044 0.26742193 -0.3752772 -0.03225017 -0.16531159 0.18115525 0.050551888 -0.42184538 0.01460875 0.39348 0.26302645 0.6174296 0.15573964 -0.07589768 0.16534977 -0.27780166 -0.021813449 0.37503532 -0.28111058 0.011640427 -0.05300255 -0.46490362 -0.04894982 0.4153124 -0.42894217 -0.32837266 -0.025535893 -0.2535535 0.083661295 0.21888776 0.12095851 -0.20878129 -0.046654828
5578 0.3596598 -0.058662083 0.0029454294 -0.193944 -0.1579244 -0.29617637 -0.35409853 0.087065436 -0.37366852 0.21050593 0.2841102 0.16325472 -0.015992412 0.0938616 -0.4862466 -0.33601972 -0.22263744 0.19940732 -0.5925895 -0.021640778 0.032725528 -0.43576476 0.27498242 0.5117176 -0.16487263 0.1348967 0.2824175 0.14257981 0.1479597 0.14890537 0.026823564 -0.2318549 -0.24164133 -0.24484771 -0.24748324 -0.16011636 0.17048347 -0.038291574 -0.06686896 0.18983488 0.24711992 -0.22836387 -0.5555719 0.12149192 -8.880405e-05 0.34075135 0.09134657 0.41104883 0.34050408 0.15918979 0.0980648 0.12544475 -0.21354423 -0.4413873 -0.42808193 -0.06534576 0.12946263 -0.5547788 0.09502537 -0.3844768 0.27229947 0.24891537 -0.26376572 0.21117587
4087 -0.270939 0.32330582 -0.046474583 -0.45200935 0.44235596 -0.024077857 -0.10901412 0.2727881 -0.1555742 -0.02287075 0.6084008 -0.1601849 -0.15553685 0.12761132 -0.1937639 0.23955801 -0.17030658 0.05672993 -0.19599524 -0.021501103 0.4643555 0.12991793 0.44435808 -0.013467065 -0.05940965 0.3938243 0.10239484 -0.15485555 0.03553851 -0.36666825 -0.0152926305 0.4603728 -0.34290388 -0.1515898 0.25928497 0.39081186 -0.11783667 0.12168458 -0.42186388 0.06958993 0.1571913 0.112159245 -0.14817163 -0.010142122 0.03316871 0.22907282 0.23329367 -0.20197783 0.2021644 -0.43549222 0.07264519 0.32107067 -0.068370886 0.11992137 0.045912713 -0.042153943 -0.27044243 0.12138002 0.03321329 0.29768798 -0.17245865 0.5352489 -0.085193165 -0.35239542
983 -0.1267913 0.2242544 -0.07117636 0.024582142 0.035783675 -0.66910213 -0.2137762 0.20110595 -0.46062535 -0.21135698 -0.26050454 0.18164779 -0.18431485 -0.08380453 0.19302669 -0.05366938 0.3176105 -0.1223324 -0.11427776 0.14430131 -0.04605257 -0.3407494 0.45162708 -0.3206272 0.10623193 0.34673104 0.3006907 -0.4271169 -0.13504928 -0.38443476 0.18260364 -0.23614138 0.0023288694 -0.10766761 0.05155461 -0.10018192 -0.2612872 -0.3860487 -0.22221088 -0.06593426 -0.16957526 -0.1320731 -0.4369253 0.22243606 -0.10840962 0.05197482 -0.0013663471 0.14111924 0.6312049 -0.20837075 -0.12528068 -0.04132459 -0.5327629 -0.15197316 0.15626104 0.23571207 -0.37875584 -0.027755702 0.1141637 -0.055813424 0.041422114 -0.121174745 -0.0026701263 0.03907365
7186 -0.23054925 0.00086725055 0.33234042 -0.3014358 -0.2802847 -0.25309315 0.051176447 -0.17105833 -0.097074516 -0.16930816 -0.19494596 0.099159844 -0.16779214 -0.4325414 -0.3605129 -0.08481947 -0.3637232 0.15618393 -0.017224187 0.14501995 0.47027433 -0.11898382 -0.092650436 0.12313062 0.16424994 0.2732795 0.030644603 -0.19544332 -0.1946927 0.32321247 -0.16970111 -0.023339761 -0.41679624 -0.038201507 -0.35655567 0.38495797 0.220568 -0.09021343 0.17910941 0.23102848 -0.16778207 -0.025256764 -0.120754525 -0.50248396 -0.31757087 -0.15916336 0.0295382 0.39523363 0.45380256 0.21737875 0.9261476 -0.24411663 -0.7238057 0.23680687 -0.045211703 0.004561548 0.08745952 0.087908976 -0.01598944 -0.04844268 0.27790612 0.6658543 0.051655117 -0.10709305
2932 0.1362723 0.20850055 0.2549407 0.22224295 -0.040493514 -0.17877194 0.31054395 0.09924717 -0.1684633 -0.123598516 0.22854938 -0.10470548 0.09871067 -0.010923938 -0.29886258 -0.32785714 -0.46734726 0.033618163 -0.39848858 0.2409104 0.3154021 0.036231324 0.095090486 0.2654924 -0.020347442 -0.13154475 0.14510845 0.10375196 -0.26128235 -0.14390609 0.18565209 -0.025209716 0.20873187 -0.31056958 -0.082515314 -0.17877871 -0.026038608 -0.15874219 -0.11883553 -0.10180916 -0.017376207 0.22882324 -0.023622023 0.06485901 0.3444883 0.660039 0.3595588 0.15492985 0.13978091 -0.20051374 -0.13107426 0.29523203 -0.4399712 -0.11627144 -0.035302803 0.5860758 0.46472082 -0.095795475 -0.017908914 0.31853706 0.19865605 0.09399944 0.73065805 -0.53187495
1432 -0.029729271 -0.034588836 -0.3252178 0.2111623 -0.28620675 0.28765357 0.05340246 -0.016673826 -0.6546833 -0.06521992 -0.37028623 -0.23007922 -0.4218569 0.61657786 0.0038244338 -0.14061339 -0.16629256 -0.0069509223 -0.3059626 0.08441759 -0.14647965 -0.00750475 -0.3017761 -0.042614657 -0.282718 -0.0129848 0.027829915 0.0032014453 0.030663699 -0.15080166 0.20481905 0.102121994 -0.11539695 -0.08454111 0.31035456 0.13809338 -0.2989175 -0.19837032 -0.0695019 -0.048278168 -0.17882496 0.17502967 -0.8131824 0.26704288 0.06943477 0.26042408 -0.10906012 -0.028509278 0.15548722 -0.18636522 0.23753288 -0.13893194 -0.44189176 0.07311965 0.045110572 -0.012473297 0.14702515 0.1664477 0.07309344 0.025182806 0.40454268 0.26473343 -0.022037834 -0.30095795
5566 -0.4107553 -0.2632787 0.20888014 -0.11472605 -0.31024256 -0.036197305 -0.1386775 -0.18342602 -0.5449801 0.27863094 0.7655884 -0.20319669 0.0015091265 0.14534569 0.018827315 -0.03613901 -0.07749723 -0.06343071 -0.55269265 0.219066 0.24224174 0.08461545 0.43238324 0.13398686 -0.055977214 -0.36001483 0.5468011 0.2887808 0.2747449 -0.33361024 -0.1936068 0.13776001 0.13341607 -0.32925212 -0.14328313 -0.18040997 0.026802788 0.02177049 -0.119400024 0.19975848 0.6119635 0.30908582 -0.018287862 0.064946234 -0.2960116 0.20617308 0.14569667 -0.019696973 0.14008814 -0.018572293 -0.10429574 -0.15100686 -0.34049895 -0.04582946 0.12637807 0.46516317 0.51390916 0.07934638 0.2503498 -0.23146656 0.0812528 -0.14900383 0.17135853 -0.11718079
3309 -0.1212524 0.14955963 -0.45056516 0.3405596 -0.12552874 0.12943569 -0.051774677 0.26133597 -0.012810228 -0.30770698 -0.3616302 0.29011586 0.04170427 0.0021313827 -0.19178438 -0.09188089 0.049443815 0.19516444 -0.022675542 0.46078247 0.27372777 0.23434101 -0.075835735 0.43932155 -0.049295094 -0.4174174 0.30149338 -0.05214886 -0.42802873 0.1092034 -0.35213086 0.12739767 0.10720952 -0.45470133 0.06974613 0.31890154 0.12871836 -0.27013806 -0.30258104 -0.10591589 -0.18587439 -0.10187519 0.029644772 -0.060851734 0.057955015 -0.056981325 0.10380367 0.06800976 0.19721952 -0.2595265 0.038227163 -0.105299264 -0.096428476 0.022096545 0.03664974 0.12250489 0.20991991 -0.12026832 -0.033886526 -0.076844916 0.23863412 0.20521218 -0.24987882 0.20442697
2534 -0.19065529 0.08341221 0.3676075 0.14068767 -0.13252434 0.07414388 0.3873669 -0.17295551 -0.3736159 -0.35828638 0.15324408 0.26990494 0.27877802 0.041897137 -0.13538134 0.05237407 0.32841682 0.3304294 -0.46958753 0.21158879 0.21923801 -0.021301119 0.29845342 0.018192468 -0.026974676 0.26351163 0.48756418 0.0739381 0.117366485 -0.2581691 0.17821094 -0.032399677 -0.44379103 0.17512839 -0.02416387 0.17728773 0.039252833 -0.26888478 0.08164928 -0.3862036 0.12511651 0.13006571 -0.4550528 0.077671096 -0.25483364 0.16248679 -0.17183375 -0.6154647 0.02816298 0.112938955 -0.15200157 -0.26838052 -0.11537456 -0.14726678 0.17948818 0.0765103 -0.15786113 0.14579174 0.3272603 -0.30333695 -0.02562715 -0.113721184 0.17553423 0.060638245
5599 0.2374332 0.33673078 0.15507485 0.25887224 -0.21865161 0.47050965 0.13362977 -0.100601554 -0.3764551 -0.06608968 -0.20391682 -0.14582005 -0.29390863 0.6070404 0.11027079 -0.19303839 -0.46883872 -0.16186643 -0.44291458 0.09498485 0.35245296 -0.055996243 -0.24699797 0.0008060647 -0.20229243 0.14581011 0.13450974 -0.25986513 0.002594126 -0.3720126 -0.03365498 0.22101611 -0.08732461 -0.16429934 0.099538915 0.115616105 0.008371152 -0.2934263 -0.1299705 0.06388978 0.23695959 -0.010505344 -0.6310396 0.038685553 -0.09111669 0.12093565 0.11018588 0.35282528 0.37492245 -0.12623058 0.22246914 -0.061203443 -0.33109087 0.20808749 0.24843742 -0.46479222 0.061668728 0.15944058 -0.24414873 -0.064168565 -0.04884553 0.20123473 0.083302945 0.07420167
5295 -0.020982346 0.3394344 0.27328625 -0.004675003 -0.2681288 -0.16218315 0.1946101 -0.10917627 -0.3062789 -0.4277428 -0.05112902 -0.03230296 0.24162184 0.03509947 -0.28764158 -0.016219893 -0.06068064 0.22652578 -0.48837456 0.2809609 0.22093098 0.07746665 -0.22689365 0.19773789 -0.34157008 -0.27235717 0.42545572 0.110265486 0.31993473 -0.3116329 0.010381226 -0.14616644 -0.3331459 -0.15265048 -0.10606915 -0.07689997 -0.08989239 -0.1727568 0.24088398 -0.19194931 -0.12172183 -0.19141978 -0.08057948 -0.1604569 0.056914214 0.2208887 -0.17725824 -0.62931305 0.17487055 -0.0046614152 -0.19736898 -0.1805075 -0.3938549 -0.32078323 0.21046397 -0.5476928 -0.15587454 0.06711941 0.013920338 -0.10753373 -0.023596883 0.09049926 0.022864033 -0.2779907
3725 0.19627534 -0.02668752 0.1333142 -0.18531208 0.013382425 0.3370999 -0.10159346 0.1392831 -0.5049425 0.20399675 -0.05399921 -0.033711016 -0.23286666 -0.12239066 -0.56213367 0.19506754 -0.20264968 0.051613674 -0.13287264 0.35340968 0.042335633 0.06332252 -0.00058429973 -0.24763756 0.10033161 -0.15730062 0.06356217 -0.2601991 0.12720706 -0.19946274 -0.062246017 0.096903004 -0.16979632 -0.2239328 0.13295346 0.18971702 -0.31634712 0.25915658 -0.15839112 -0.11611522 0.07433971 -0.34937456 -0.5286914 0.28768927 -0.1328556 0.063036166 0.065327175 0.29664835 0.2148863 0.121518865 0.29167747 0.046264157 -0.6096922 -0.1495717 0.3009481 0.38072568 -0.08446603 0.09566461 0.20793712 0.22301883 -0.004533843 0.10037831 -0.12412838 -0.21505658
4627 -0.2538629 0.3027033 -0.048899826 -0.031736553 -0.009262679 0.19960992 -0.18700409 0.50028 -0.27823484 0.17500328 0.07287607 0.10452159 -0.019675372 -0.080796964 -0.46781218 -0.31925344 0.3680337 0.2911744 0.27657413 0.09022419 0.24904777 0.354963 -0.037445262 0.23225176 -0.13975817 0.123506546 -0.0120906355 0.010083819 -0.30820897 -0.086470895 -0.49401948 -0.39834467 -0.23563133 -0.28398436 0.1485992 0.20510116 0.32258964 -0.2862482 -0.045895986 0.06321324 0.10782122 0.06722164 -0.49543387 -0.15878764 0.056565553 -0.44899365 0.12826511 -0.31250605 -0.07346003 -0.47270924 -0.17852312 -0.052698597 -0.16480726 -0.4761314 0.27941364 0.30867487 -0.07463995 -0.31034887 0.22567324 -0.4343687 -0.015274088 0.37010446 -0.14204845 0.11893129
7529 0.08699056 0.085600235 -0.48002753 -0.11277384 0.15390372 -0.4521777 0.15404323 0.09515045 -0.64288557 -0.10887252 -0.4277527 -0.04949342 0.22391641 0.20384142 0.21986088 0.16047652 -0.27602547 -0.0028253756 -0.19834925 0.07014361 0.05597804 0.4996656 0.019187076 0.19825438 0.2889966 -0.0075409156 0.21656774 0.15668732 -0.544373 -0.14948602 -0.0053336993 -0.024788972 -0.43195724 -0.2091136 0.0061113564 0.01766014 0.023139058 0.14780112 -0.7981582 0.104948506 0.11903255 -0.19973883 -0.18159556 -0.18912776 -0.012169005 0.0050928835 0.0051751076 -0.34692898 0.08539852 0.4937275 0.105476096 0.053906005 -0.5067056 0.640417 -0.103305586 -0.15276338 0.24384078 0.01881103 -0.113565415 0.15614659 -0.015875526 -0.12820216 0.111035466 0.60127664
408 0.08115862 0.35587797 -0.14518404 0.1537884 -0.08599762 0.30644324 -0.056107245 0.019997973 -0.52815336 0.034804437 -0.08509081 0.04587726 -0.015352694 -0.08296289 -0.17896976 0.34753576 0.2881129 -0.23164661 0.11057203 0.22760342 0.19459186 -0.4569534 -0.254995 0.33865768 0.15256546 -0.17444743 0.15728386 0.17464568 -0.32536945 0.018872917 -0.13626514 -0.17950548 0.110724665 -0.13120957 0.21238802 0.07098423 0.42734578 -0.11734999 -0.3265513 0.013601389 0.017686786 -0.11505052 -0.30318338 -0.15178119 -0.101026855 0.3668805 0.1330424 -0.46842918 -0.1305826 -0.020474963 0.46923196 -0.019815579 -0.641038 -0.019229814 -0.12246476 0.19272932 0.30460587 0.3924719 -0.46284634 -0.25184566 -0.3076325 0.3999403 -0.2437336 -0.1023021
7132 0.00083075225 0.0041180057 0.13218233 -0.19351865 -0.36701566 -0.18607506 0.116264254 0.028063776 -0.22929831 -0.19806415 -0.43986887 0.4272264 0.17388654 -0.05494423 -0.54847914 -0.32651582 -0.12447806 -0.57742393 -0.08024018 0.121815674 0.4210818 -0.055180117 -0.05133468 0.3830574 0.21784796 -0.0075103026 0.61734223 0.16644512 -0.022116434 -0.3606166 -0.10268397 -0.35704944 -0.10918266 0.13408302 0.05180897 0.068090394 0.53754497 -0.1770242 0.253874 -0.45038933 0.006327174 0.3555584 -0.09260466 0.061206255 0.049064435 0.21885608 0.46461272 0.12024319 -0.12062346 0.054205798 0.25058377 -0.15794761 -0.13199852 -0.030127559 0.21145152 -0.12877771 0.24974109 0.21065198 -0.310402 -0.3633552 0.11388794 0.57566327 -0.030391175 0.2831439
6774 0.30877706 0.15252942 0.052455522 -0.14919798 -0.16175543 0.032648504 0.32097465 0.1208547 -0.5132249 -0.06664691 -0.27761078 -0.033167243 -0.38547468 0.16963273 -0.4362943 -0.11436533 0.25854662 0.669847 -0.4629286 0.3035111 0.079925366 0.033882823 -0.050718036 0.1767038 0.056405496 -0.01276671 0.22265875 -0.09911725 0.21398808 -0.44061854 0.4977894 -0.35890263 -0.23351377 0.36487454 0.37801012 0.32920143 0.28599423 0.22885762 -0.18440785 -0.15909913 0.017130252 0.1285335 -0.23914161 -0.3448246 -0.11129812 -0.17392202 -0.07317867 0.05368366 0.39442858 -0.07807151 -0.13891685 -0.016350677 0.06609745 0.18226987 0.32911694 -0.2097743 -0.16126236 0.24286647 0.22180787 0.17823014 0.35732135 -0.15474363 0.39747018 0.020192133
2316 -0.08323269 0.06181265 0.43693617 -0.089905865 -0.1363862 -0.25516745 -0.021757275 0.2963872 -0.25216484 0.24468623 0.14443554 0.041667145 -0.26142445 -0.07435214 -0.19097732 -0.002037352 0.28649238 -0.0022602146 0.119100794 0.044866238 -0.046986822 0.12846833 -0.100657314 0.29316548 -0.1004028 0.29949903 0.55734766 -0.20671621 -0.25468677 -0.06354381 0.032935817 -0.28719303 -0.035380974 0.07997463 0.38848245 0.12336899 -0.15051062 -0.18417107 -0.44646904 -0.15167148 0.23233768 0.4757615 -0.72847617 -0.27741244 -0.20850702 -0.019317415 -0.15891764 -0.15821175 -0.019091114 -0.2418108 0.13490058 0.17535032 -0.118185095 -0.328786 0.12569867 0.4168577 0.05535843 -0.029417405 -0.1442881 -0.48666435 -0.046491954 0.28419513 -0.26307085 -0.41023433
801 -0.032927353 -0.1769272 0.029639669 -0.49278268 -0.051230602 -0.36782888 0.05566676 0.7607176 -0.24032825 0.1376038 0.19092557 0.18107891 0.017665017 -0.17460375 -0.25775924 0.35861745 0.25039575 0.0946428 0.21259643 0.43744886 0.3986691 0.13733746 -0.042428475 0.29326978 -0.28018814 0.07856867 0.27810255 0.3806126 0.028605903 0.12538603 -0.017844727 0.028069606 -0.16729668 -0.57070535 0.25916633 -0.25019884 0.39666152 0.06673124 -0.23856746 0.20041768 -0.18538085 0.40337858 -0.2749218 -0.14710096 -0.03343242 0.061258856 -0.3118349 0.078920126 0.2219954 0.065126896 -0.332301 -0.35007733 -0.40905958 -0.115377896 -0.1554416 0.24540824 -0.024693726 0.67663467 -0.15141366 -0.16203672 -0.007766203 0.5552499 0.05378474 -0.028126722
998 0.030575575 0.7117317 0.90421754 0.25645712 -0.57219285 -0.10642599 -0.28429952 -0.17541347 -0.3928925 -0.19352865 0.06255225 -0.06873349 0.1395507 0.033953685 -0.14292525 -0.18854898 0.3603625 0.017036494 -0.18786013 -0.2229911 0.5907615 -0.0047292 0.01999562 0.27265313 0.32060295 0.35414112 0.30598974 -0.1564955 -0.20252235 0.112828456 -0.16316937 -0.17568953 -0.038539857 -0.33462688 -0.26892307 0.1308577 -0.035246603 -0.046655998 -0.03206199 0.1123251 -0.25106934 -0.14162703 -0.23754233 0.18373412 -0.29324782 -0.056071274 -0.035901528 -0.072823234 -0.20321049 -0.2947258 -0.010705448 0.10873649 -0.5508604 -0.03937655 -0.14810503 -0.36922702 0.23934242 0.5772431 0.3268009 0.14706583 -0.018734138 0.044535313 0.023606699 -0.049717147
10014 0.17317909 0.3101234 -0.4939887 -0.34160268 0.075015046 -0.06646526 -0.04611523 0.11469647 -0.53619367 0.19563642 -0.1871861 0.7775418 -0.11199665 0.06687357 -0.10577526 0.08872823 0.020202385 -0.35392454 0.29831463 0.28765205 -0.08378569 0.017374055 -0.25770292 0.21401945 0.46105585 -0.16668534 0.0028028253 -0.12395581 0.15197277 -0.06837866 -0.020959932 -0.21781957 -0.20020096 0.046525467 -0.1180091 0.2062099 0.090499766 -0.3810336 -0.31768432 -0.3021317 0.1568718 -0.2402605 -0.16992 0.07647991 0.13572101 0.20179757 0.50819 -0.22974609 0.14518109 -0.55348736 0.33789822 0.0046618474 -0.2126296 -0.30859122 0.27102387 0.25597322 0.3272234 0.21874495 0.046668585 -0.40432322 0.12544173 -0.16393012 -0.04864391 -0.2190798
9531 -0.5369306 0.014875303 0.31352034 -0.5141728 -0.4154496 0.06383398 0.27859685 0.11275098 -0.287825 -0.18283977 -0.08208017 -0.4034937 0.098733336 -0.23739006 0.16216248 0.17218395 0.25191987 0.53969955 -0.16386822 0.08446728 0.16995624 0.1342317 0.11535494 0.09890248 0.23709714 0.03476713 -0.48431674 0.19067942 -0.47066104 -0.7526464 -0.41971534 -0.16171458 0.048199434 -0.4438752 -0.03500257 0.12058885 0.1363374 -0.20759825 -0.22997352 0.33492973 0.3462057 0.087892175 -0.36351302 0.10921535 0.26416698 0.41181734 -0.24750979 -0.0875512 0.3930691 -0.4579786 0.39161608 -0.07016178 -0.18121882 0.12550156 -0.31432816 -0.15160736 -0.54946357 -0.28318155 -0.00783825 0.2240552 0.18593073 0.19462168 0.055367783 0.47109595
7531 -0.12549807 -0.085568674 0.09231836 -0.14937899 -0.1886968 -0.16038463 -0.15692285 0.2233532 -0.82420087 -0.23244707 -0.252803 -0.08961853 -0.013462786 -0.07291776 0.3239748 0.16594994 0.11978489 0.25429913 0.09381351 0.16587998 0.2872572 0.1273445 -0.1299544 0.37596235 0.21959436 -0.24808276 0.23999694 -0.15776418 -0.31573197 0.13632663 -0.15300354 0.09937965 -0.056257 -0.4739504 0.068694584 0.32316738 -0.050310716 -0.25290444 -0.4031464 -0.12519918 -0.08039524 -0.22142048 -0.5012213 -0.14244622 -0.099475384 -0.117112696 0.11859679 -0.3486003 -0.010094295 0.36167723 0.30796438 -0.04919907 -0.120589085 0.35968506 -0.101160675 0.19317478 0.37957987 0.030887907 -0.2679645 0.31427342 0.010185094 0.015697444 0.1632171 0.3267078
4790 0.2821229 0.2209526 -0.41249964 -0.045345407 -0.11775577 0.06279393 0.13650715 0.08489694 0.03745832 0.18419243 0.089422226 0.06670124 -0.31042996 0.1895464 -0.43686062 -0.09632404 -0.0034044278 0.16353865 -0.0290655 0.19648807 0.30925077 0.5983728 0.010852464 0.12984905 -0.06524932 -0.32159021 0.40260592 0.025398228 -0.10622557 0.108336635 0.058642913 0.08806532 -0.052348945 -0.41654456 -0.2355242 0.7310178 0.0628101 0.059239753 -0.123422295 0.14706615 0.0038089487 -0.015271413 -0.22899903 -0.17697044 -0.0978841 0.1566665 0.44172943 0.016903253 0.5389199 -0.12163813 -0.06462778 0.23963648 -0.07757957 -0.16943154 -0.09671202 0.2959045 0.03568228 0.13844027 0.19587938 -0.29343626 0.14885227 -0.0074293246 0.021536093 -0.1688411
1147 0.26937273 0.28638417 -0.40372604 -0.1515204 -0.27135175 -0.19590193 0.26922297 0.23523405 0.12911312 0.12044116 -0.10696371 -0.07736399 -0.24922383 0.018939259 -0.15723357 -0.04005232 -0.1897401 0.028325802 0.011376931 -0.06546283 0.3184271 0.22678643 -0.09187824 0.08048767 -0.17982492 0.24389322 0.3195798 0.1502827 -0.07872374 -0.11390504 -0.18055576 -0.11645868 0.19585702 -0.19814496 0.063685074 0.39129636 0.44167984 -0.26973084 0.090560086 0.2991444 -0.10510125 -0.1074161 -0.15291412 -0.32848772 -0.21416101 0.31886223 0.29203394 -0.068483874 0.17340675 -0.13684319 0.11354802 0.2214613 -0.7266895 -0.067237586 -0.009394199 -0.062883615 -0.05695988 -0.045854818 0.19914807 -0.072260335 0.24738565 0.5383758 0.090881504 -0.04528059
6772 0.009551472 0.32612136 -0.06392113 -0.38488963 -0.07972881 0.06935491 0.23665793 -0.034803405 -0.39739358 0.26621225 -0.5089558 0.045345545 -0.12561631 0.10780694 -0.42723957 -0.1528897 -0.008088217 0.32962188 -0.43225896 0.20741192 -0.22265232 0.16222255 0.17533992 0.1626504 0.25300953 0.008622239 0.37245816 -0.21836293 0.0052911863 -0.23208557 0.17971604 -0.14236473 0.118384205 -0.19157541 0.12704216 0.17703298 0.109031186 -0.25518027 0.27630508 -0.068909235 -0.046405166 0.2109531 -0.59687585 -0.25601226 0.026788559 -0.27915955 0.31105277 -0.040705588 -0.013169035 0.23597147 -0.004707406 0.20662886 0.16215126 0.043793358 0.05391532 0.20337893 -0.35816026 0.43688887 0.06356243 -0.14262715 0.5223172 0.2051922 0.3155429 0.14229754
6885 0.08796538 -0.11475061 -0.15851948 -0.024521228 0.049926937 0.04531308 0.03779154 0.12932654 -0.049271982 0.35872585 -0.22683443 -0.04542585 -0.089418896 -0.111746125 -0.031152975 0.41552147 -0.37546718 0.11718115 -0.06310948 0.24265318 0.28882903 0.039670754 -0.22017822 0.17056765 0.3234849 0.4094009 0.7210774 -0.3973671 -0.034308568 -0.050158236 0.045583572 -0.3337426 0.015839979 -0.13101065 0.065640196 0.60877633 -0.12813032 -0.34185296 -0.32653314 0.09873865 -0.24630386 0.03883438 -0.07870079 -0.2423429 -0.26383364 -0.14656954 0.14239286 0.004746256 -0.040340513 -0.16147366 0.5704842 -0.39989245 -0.28359807 0.06665159 0.2273929 -0.2676473 0.16879019 0.08887565 0.09316305 -0.17901242 0.21830237 0.4762993 0.4215911 -0.06166474
4215 0.00861573 0.11268232 -0.1899198 -0.06868737 0.20198062 -0.108326145 0.18099815 0.1872164 -0.3913311 0.20366079 0.16811821 0.2955026 -0.21684168 0.1512266 -0.0782185 0.044594433 0.10976537 -0.36547014 -0.1102591 0.18134528 0.3406269 -0.064394936 -0.21050967 0.08263543 0.29318303 -0.10652595 0.6699019 0.18049769 -0.12515876 0.19123335 -0.36280742 -0.2979245 0.18454342 -0.19475123 -0.06108687 0.24900134 0.48999748 -0.23707883 -0.21311001 -0.11834224 0.52261204 0.33911693 -0.029972123 0.039210256 -0.21270244 -0.02092626 0.20173703 -0.47779897 -0.17119941 -0.08026762 0.34948674 -0.18798734 -0.5510238 0.028212436 -0.110742174 0.10111857 0.2056759 0.3977326 0.046930827 -0.1320281 0.1667507 0.18546227 0.13483131 0.13150229
6464 0.111182176 -0.015487595 0.019421775 0.07302606 -0.30047548 0.09145616 0.29687285 -0.03146588 -0.18208237 -0.09468619 -0.027550574 0.2729045 0.13382028 0.11295919 -0.28528628 0.033135954 -0.3202919 0.43444583 -0.6084615 0.0831561 -0.1084033 0.03877839 -0.071743935 0.5282966 -0.28395617 -0.03495903 0.31691113 -0.1053424 -0.01097221 -0.0058277943 -0.1552913 -0.19721003 -0.4208678 -0.48783144 0.17989738 0.16913702 0.17965883 -0.39212564 0.6235898 -0.41293246 0.29079205 0.28396627 -0.3638852 0.28416052 -0.037013765 -0.022119049 0.030285954 -0.60952806 0.17271301 -0.10424869 -0.25644687 -0.07215514 -0.15635294 -0.17722341 0.07018897 -0.5256265 -0.18635288 -0.10904749 0.103026934 0.010283198 0.37800553 0.018281782 -0.24947625 0.11248211
2023 -0.39336652 0.092070006 0.04232245 -0.2691368 -0.27106506 -0.066764094 0.015613114 -0.565511 -0.2689473 -0.6000504 0.3579792 0.42115664 0.04501266 0.09355284 0.083104774 -0.0110077355 0.010076277 -0.02495674 -0.14883076 0.000704926 -0.38320446 0.036316935 0.30930045 -0.14189968 -0.43438798 -0.10030393 0.32874405 0.25906998 -0.21114048 -0.25706896 0.30638075 -0.15731055 -0.038649272 -0.2576884 0.40455076 0.3859977 0.013503828 -0.33415595 -0.55243766 -0.03933059 0.12577918 -0.16504256 0.061420027 -0.254282 -0.00033983082 0.26751766 0.23372115 0.2388402 0.046649653 -0.33131334 0.45597762 -0.63370633 -0.054183275 0.028468663 0.37323707 0.38683376 -0.20415474 0.07981419 -0.2506709 0.26316413 -0.026819732 0.39074698 -0.4894881 0.42706633
5879 -0.25798064 0.8629843 0.5951144 -0.07636025 0.007914984 -0.71942836 -0.6302476 -0.0730726 -0.45969245 -0.168859 -0.33803618 0.046272043 -0.004054381 0.18363678 -0.53846985 -0.14063846 0.03294349 0.30350807 -0.13834484 0.140025 0.56025624 0.26194298 0.01007587 0.5260047 0.08622908 0.40037626 0.34473148 -0.007596045 -0.25510865 -0.4635476 0.25838938 -0.008104449 -0.11854272 -0.012085407 -0.40070418 0.24991764 0.0023541006 0.12378955 -0.13407859 -0.15358175 -0.14871573 0.17244694 -0.022772592 -0.026798308 -0.13370112 -0.53261805 -0.007091789 -0.00058483396 -0.3014284 0.13864538 -0.09347165 0.36891994 -0.17151843 0.092099056 -0.16980249 -0.28738213 0.20824842 -0.26318014 -0.106204875 -0.25329465 0.37845162 0.03720695 0.13536726 0.15517741
409 -0.04264862 0.6169918 -0.08724223 0.26616946 -0.117986426 0.089383885 -0.14842412 0.0044471137 -0.25574747 0.26406786 0.051498525 -0.02868077 -0.010534552 -0.23456807 -0.050674792 0.5596159 0.05087203 0.21613145 -0.13387081 0.38039577 -0.11707192 -0.19535713 0.13132952 0.4914238 -0.042912614 -0.1087907 0.21900006 -0.12647748 -0.4405824 0.1408644 -0.038782198 0.010428707 0.07696475 -0.13099827 0.012805307 -0.124229126 0.24998586 0.06253054 -0.358752 0.15971999 -0.17245473 0.039313044 -0.41092166 -0.46385553 -0.08974102 0.02687939 0.049482465 -0.36974454 0.011527968 0.2671786 0.13350432 0.101549245 -0.4867837 0.082133 0.38142878 0.109452024 0.024030292 0.13438326 -0.25357488 -0.20315793 -0.14565775 0.46015555 0.061295856 0.1552017
8945 -0.13484406 -0.20840997 -0.2837506 -0.28378925 -0.5376485 -0.47189236 -0.29817304 0.13273539 -0.077692024 -0.21837759 -0.09782003 -0.28061134 -0.2305404 -0.12819174 0.23105201 -0.2163271 -0.47937396 0.17446806 0.066091076 0.113659196 0.14891772 0.31036064 0.2291265 -0.27657047 -0.0244617 -0.27461576 0.33101714 -0.19425933 0.028985899 -0.008224389 -0.11177874 -0.0010553877 0.24223776 -0.34872815 0.058806803 0.22427526 0.08321905 -0.54867464 -0.4648303 0.07821658 -0.09242232 0.029708887 -0.41133896 0.21241073 0.13234809 0.70922995 0.030763874 -0.0032805912 0.10106465 -0.037953526 0.08084921 0.32737768 -0.46124095 0.3159117 0.3486645 0.13851883 -0.008550733 0.11403788 0.08169931 -0.19931602 -0.04717284 -0.082773335 0.45314083 0.18617481
3066 -0.1703536 0.045081638 -0.178658 -0.1933788 -0.09560155 0.13823609 -0.19024451 0.2681442 0.008199384 -0.025038749 -0.07691221 0.102617726 -0.38182652 -0.046083044 -0.61568636 0.32982728 0.23593253 0.31685477 -0.100211635 0.64069355 -0.106608704 0.38365015 0.13531455 0.65019673 0.09387302 -0.10531715 0.15053658 -0.028111517 0.37867653 -0.099337496 -0.05640592 0.22067152 -0.09484336 0.31532073 0.023146404 0.4069142 -0.16671538 -0.2570707 -0.5658238 -0.012760662 0.039727848 0.07969014 -0.089080825 -0.062347103 -0.0023039305 0.33237547 0.30188522 0.17438027 0.85361713 -0.16157392 0.2843309 0.23252255 -0.21560752 0.19657572 0.18524413 0.005533952 0.1463977 0.32819238 0.13471358 -0.016180744 -0.18228601 -0.3884817 0.08623005 -0.35952502
1213 -0.31079027 0.57778084 -0.19645578 -0.060558245 -0.31973282 0.04499977 0.16498826 0.3837079 -0.14684834 0.0343633 0.38031065 0.27167568 0.124014355 0.24136095 -0.11770705 0.08731931 0.20437473 0.08112697 -0.23775254 0.022014037 0.43699366 0.14803743 -0.21252537 0.29204243 0.085917875 0.07954084 0.28939912 0.14389403 0.41963902 0.40257263 -0.26201543 -0.14330831 -0.08539466 -0.21784353 0.17814378 0.060758006 -0.06357517 0.13777915 0.17335248 0.06683682 0.14009888 -0.23278162 -0.16995074 -0.21241546 -0.1342866 -0.15002955 0.328252 -0.41464925 0.040808845 -0.3314094 0.28840572 0.32310236 -0.15620542 -0.15387604 -0.064185634 -0.16044563 0.15855126 0.19652206 -0.17493632 -0.7567666 0.33029523 0.08823195 -0.18683505 0.17105837
1386 -0.010795972 -0.14507458 -0.042687595 -0.007904859 -0.5441154 0.022987781 0.29243204 -0.10791579 -0.5487115 0.093808316 0.05695801 0.28885853 -0.006122948 0.37730032 -0.15418047 -0.09940645 -0.2538373 -0.049978428 -0.19050409 0.039869543 0.17011392 -0.33375794 0.28130385 0.02720684 0.06229123 0.04148626 0.13895176 0.06892129 0.038230617 -0.13498506 -0.099741325 0.05711881 -0.35567215 -0.23786853 0.17056835 -0.38085353 -0.42318964 0.1973453 -0.60329765 0.2062043 0.45732424 -0.33730006 0.120788515 0.22900675 0.08313196 -0.41922152 -0.10484859 0.13646547 0.11560468 -0.36049175 0.13026065 0.17843775 -0.4301187 0.016975554 0.19297197 0.16168733 0.14367057 -0.20697312 0.63622254 -0.118692026 0.2929879 0.27572942 -0.26076108 0.01744293
7431 0.046037357 -0.21754876 -0.11368757 -0.10870603 -0.38426727 0.15108557 -0.13437246 -0.16497378 -0.3891048 -0.05242159 -0.07292254 0.08254166 0.049399573 -0.39492482 0.06205723 -0.19763282 -0.013202196 0.12124724 -0.034583796 0.23427622 0.13228063 -0.08255656 0.15681025 0.16900727 -0.13694651 0.12398499 0.47085252 -0.029044596 -0.31476814 -0.13241164 -0.06476081 0.305721 0.032916233 -0.46136373 -0.19722953 0.17576337 -0.2924738 0.040681865 -0.13744423 0.11187577 0.019400485 0.006742174 -0.40472937 -0.064184316 0.10328368 0.21438757 0.4956392 -0.17287494 0.22679354 -0.14899974 0.116010875 -0.13617583 -0.0032376845 0.14460517 -0.100199126 0.3884863 -0.46798208 -0.42694762 0.16692959 -0.03044532 0.3639094 0.1148422 -0.16527736 0.053185612
4691 -0.2170789 0.16162272 0.0040515126 0.29334077 -0.47387743 0.016832786 0.08917737 0.5061421 -0.23038748 0.12848024 0.14159535 0.38773423 -0.04462536 -0.48809674 -0.0954979 0.045553356 0.18345717 0.14881478 -0.29575783 0.16120806 -0.6270028 -0.009906132 -0.06608106 0.17174764 -0.17974596 -0.13608575 0.4571595 -0.034961715 -0.16481821 -0.081591874 -0.07642525 0.22787365 0.01733169 -0.48535293 -0.26383215 0.054581147 0.08262134 0.1581244 -0.3565388 -0.0418288 -0.037731048 -0.06311157 0.051818237 -0.014457232 0.12903848 0.117470495 0.4421407 -0.07995144 0.28654087 -0.38626575 -0.2905546 -0.33937663 -0.38655955 0.09580377 0.12868784 0.092909425 -0.2543885 -0.16547051 -0.12928411 0.1709079 -0.28984034 0.32767314 -0.25474197 0.075123794
3315 0.23151499 -0.13677223 -0.32549998 -0.44228613 -0.60365677 -0.08795985 -0.0738218 -0.2207492 -0.4254884 -0.039602153 -0.16932689 0.09486093 -0.067644104 0.11423422 -0.124600366 0.08294682 0.022459596 0.42249355 -0.16654351 -0.0857429 -0.09029943 -0.3520545 0.19249438 -0.004300175 0.25738654 -0.060979124 0.6097984 0.2862622 -0.4393616 -0.2228041 -0.10668382 0.15763877 0.29286388 -0.038261563 0.14671467 0.058823347 0.072744615 -0.020372996 -0.6050034 0.3564713 -0.060937006 -0.11809989 -0.42017636 -0.04390918 -0.060594503 0.16756004 -0.14547217 -0.00848411 0.025324715 -0.30478227 0.035983853 0.023132596 -0.20945002 -0.033271763 -0.36130893 -0.09433254 -0.031069197 -0.068041295 0.31962624 0.18153384 0.39870262 0.025819562 0.25842294 0.21351571
5371 -0.1393544 0.23203278 -0.0541159 -0.50766325 0.29152048 0.32911134 0.0053824657 0.06875245 -0.06478991 0.029573303 -0.027913233 0.10678873 -0.36032018 -0.032159537 -0.5044507 0.1633827 -0.037563093 0.18361884 -0.2488825 0.16526577 -0.11198213 0.05482126 0.21683069 0.31272697 -0.019725654 -0.15950243 0.18487312 -0.38387597 -0.028701408 -0.2766991 -0.008105291 0.29443923 0.097918704 -0.13326035 0.067296244 0.0648427 -0.16297923 -0.40132365 -0.4112729 0.152253 -0.18732633 -0.24495018 -0.30591452 0.12049172 -0.18121974 0.023676593 -0.099181026 0.04930483 0.54302 -0.10405038 0.08837968 -0.010239616 -0.16592103 -0.0142462095 0.26413593 -0.08811769 0.09463108 0.24015203 0.3075852 -0.08186757 -0.1700968 0.072587885 0.30624336 -0.3449252
4089 0.1689259 0.14864266 -0.4268282 -0.6329261 0.06949251 0.048173223 0.021040568 -0.2177616 -0.6829779 -0.17821038 -0.05562666 -0.07735689 -0.5184284 0.23147373 -0.33215362 -0.14984193 -0.13697277 0.09492496 -0.25062743 0.16893087 0.116657935 0.08832148 0.47096834 -0.14290634 -0.067126006 0.15663192 0.27688807 -0.33705345 -0.23867775 -0.017968735 -0.09833238 0.33610764 -0.45017233 -0.236537 0.1293234 0.26483846 -0.43187484 -0.09256012 -0.14315094 -0.014230332 -0.03858487 -0.42611212 -0.046659004 -0.009837623 0.13220042 0.16864307 0.025498498 0.17420667 -0.31651026 -0.04693465 0.015413276 0.26301876 -0.27145013 0.25489575 0.4102381 0.072405234 -0.19449055 0.25738844 -0.22170407 -0.02175455 -0.58114237 0.6001921 -0.2523691 -0.35915673
5499 -0.11110634 0.058623165 -0.035103086 -0.08932981 0.084397875 -0.17833732 -0.010440537 0.6191888 -0.42093784 0.20865418 0.37972397 0.35075185 -0.059255473 -0.09455904 -0.32109994 -0.3874582 0.20929667 -0.07385111 -0.4304097 0.06298347 -0.15546514 0.04624354 0.26098743 0.25419977 -0.005448775 0.38243324 0.23384538 0.4319423 -0.059649933 -0.18247104 -0.03179243 -0.210956 0.39975765 -0.28178903 0.28379428 -0.064604655 -0.24272384 -0.4050457 0.49391887 -0.13427924 0.21510415 -0.055487495 -0.11007025 0.09201857 0.08229598 -0.10676923 0.20238991 -0.30741996 0.26986882 -0.30450374 0.08450308 -0.02096359 -0.46720836 0.31764418 0.20217669 0.29038948 0.44984236 -0.021311775 -0.47702587 0.048067424 0.24391365 -0.13599421 0.21866004 -0.28602216
5580 0.40947273 -0.22180171 -0.32004187 0.07291724 -0.05130591 -0.1383844 -0.0672935 0.23635355 -0.6696648 -0.015190717 0.18369818 0.43186668 0.3098594 -0.09046463 -0.18533556 -0.17008895 -0.13930048 0.42410207 -0.3902256 0.035727464 -0.34421727 -0.27944982 0.25868422 0.45032352 0.046872057 -0.029566359 0.0056768428 0.20750648 0.040637497 -0.25889575 -0.051803265 -0.24596876 -0.22919905 0.06404174 -0.059130665 0.005875692 0.33411822 -0.04877381 -0.097617775 -0.10842587 0.16878486 -0.106889695 -0.545406 0.28655383 0.08754754 0.04322967 0.083791845 -0.28671882 -0.022560023 -0.06992494 -0.20671904 -0.033773974 -0.34251282 -0.030988 0.14015576 -0.09892699 -0.10307527 -0.07295581 0.35204157 -0.12277825 0.43619472 0.34151682 0.039528996 0.16564924
8878 0.1272967 -0.13485059 -0.15777065 -0.31220245 0.34809396 0.09788228 0.0036504583 0.19528027 -0.6157062 0.2991512 -0.20457698 -0.007914358 0.055101845 -0.23694304 -0.31805602 0.27818975 -0.11008635 0.1426483 -0.13611162 -0.2397946 0.3116308 0.12086342 0.13798174 0.039361417 -0.21982703 0.14436771 0.45448783 0.04449841 -0.41254315 -0.14818226 -0.0063293907 0.07503179 -0.08998155 -0.45119753 -0.024648381 -0.038237043 0.3473114 -0.42680117 -0.4366787 -0.4472514 0.23911177 -0.35352793 0.023756944 0.23752876 0.20046008 0.44976202 -0.1638125 0.21210465 0.12274663 -0.06646093 -0.27273577 0.025690304 -0.01111485 0.11315445 -0.15622446 -0.5443508 -0.45789635 0.32177514 0.341043 -0.07160056 0.010497028 0.30957383 0.4365017 -0.5451738
5747 -0.15206608 -0.0022588526 0.3210098 0.08452938 -0.119919695 0.07729165 0.06391995 0.35811415 -0.23595053 -0.54586434 0.20829792 -0.164823 0.30478087 0.17060597 -0.37262285 -0.31344223 0.15409882 0.36630225 -0.3478551 0.24919015 0.084009536 -0.052047405 -0.27324086 0.33091494 0.077710904 0.32258603 0.36965626 -0.17540845 -0.2301075 -0.07659445 0.08380729 -0.0926458 -0.6929012 -0.11493194 0.11760721 0.06715613 0.030358883 -0.27690077 0.2695036 -0.25888038 0.31044337 0.33319637 -0.22587904 -0.13237514 -0.058334675 -0.0045609223 0.25758418 -0.57507 0.19252321 0.29623938 -0.08063688 0.38564405 -0.22613175 0.17338894 0.059005816 0.018574536 -0.12750933 -0.039908398 0.06967723 -0.28978822 0.4715765 -0.13924876 0.13343373 0.06768817
5925 -0.049918506 -0.034968417 -0.026158733 0.0024496722 -0.12702347 0.14548525 -0.16814853 0.24807405 -0.6342044 0.008491808 -0.21690406 0.12290717 -0.1496067 0.008307444 -0.43205568 -0.10476157 0.1231824 0.13503681 -0.41791797 0.13898808 -0.022013083 -0.031807773 -0.012606555 -0.13555044 -0.20454572 0.06620492 0.4477053 0.12677962 0.7502166 -0.5685644 0.070912845 0.38159403 0.20867406 -0.46321478 0.039876677 0.18180454 -0.23914765 0.03674125 -0.32206333 0.01976622 0.013410688 -0.37534317 -0.19617724 -0.07193963 -0.13941553 0.1603752 -0.097288296 0.036226436 0.7298825 -0.11871097 -0.22063234 -0.0924348 -0.17742665 0.2856782 0.14587681 -0.048046988 0.016707249 -0.14153233 -0.09541101 0.12637028 -0.24175732 -0.11094066 0.06305591 -0.34834307
5335 -0.019410122 0.15905489 0.22136216 -0.3123288 -0.50047016 -0.28816813 -0.21135066 0.024324909 -0.42068583 -0.13714798 0.5247419 0.24727039 0.2115945 0.05850092 -0.10389026 0.37409294 -0.10702017 0.25357157 -0.7999626 0.20672284 0.07523243 0.3540343 0.39743087 0.5665412 -0.047223847 -0.10958324 0.1418432 -0.060045104 0.2646891 -0.17252839 0.056681365 -0.24025427 -0.17845635 -0.04678762 0.30594045 -0.12349671 0.054496214 -0.27084616 0.10660541 -0.39139447 0.22326086 0.3408475 -0.5526216 -0.35276094 0.23397556 0.1522141 -0.14627932 -0.41648632 -0.1298225 0.29924062 -0.035129968 -0.13427687 -0.2474913 -0.5298 -0.03847507 -0.4010307 -0.19151221 -0.41102606 0.011083437 -0.31766087 -0.13320798 -0.11659491 0.1414967 -0.13649806
5300 -0.22366145 0.35425165 0.18884452 -0.3766572 0.037436754 -0.11248291 -0.24593306 0.18316163 -0.08027199 0.06226826 0.45515138 0.14356811 -0.090044 0.35869536 0.022801287 -0.7157891 -0.084801 -0.068055056 -0.31659612 0.26655594 -0.09319983 0.12265568 0.3573404 0.101052746 0.20217253 0.020137856 -0.2507889 -0.30900407 -0.123299934 -0.26716855 0.17290685 0.08840748 0.15339173 -0.002175323 0.07224737 0.2690006 0.18006489 -0.31598333 -0.17796151 -0.033707526 0.014466539 -0.16463342 0.3217573 -0.296365 -0.2792099 0.061074167 0.21229205 0.0019195318 0.735433 -0.075078644 0.3292355 -0.21531543 -0.5322338 0.063880615 0.42105564 0.2160415 -0.14055838 -0.12872478 0.27665263 0.36315787 0.13254009 0.11997401 0.23868033 -0.45842433
4214 0.16324042 0.21725246 0.1703984 -0.1452612 0.21652119 0.21318664 -0.10690027 0.036134344 0.12983535 -0.0381304 -0.32385227 0.38933158 0.22294725 0.017664697 -0.14805058 -0.045589603 0.23814009 -0.12266132 -0.16894764 0.2189024 0.08992038 -0.1537554 -0.5410653 0.21246086 0.5756305 -0.04669564 0.55969775 -0.062165663 -0.05838127 0.051507037 -0.30566695 0.13011979 0.08987103 -0.3069673 -0.016863147 0.22493653 0.3106763 -0.047051165 -0.3848168 -0.3842118 0.36503723 0.084644236 -0.3276779 0.18962848 0.018203575 0.37316465 0.10132984 -0.02567129 0.070452884 0.18847403 0.6005547 0.0019114881 -0.581068 0.070710115 -0.13775209 0.046128456 0.13896857 0.29667118 0.105005704 -0.24637777 -0.18757896 0.7205256 0.024540758 -0.22835195
6597 0.08142114 0.47664005 -0.22944972 -0.13369912 -0.28275955 0.14985253 0.11755969 -0.26948854 -0.42239422 0.124947004 -0.13408941 -0.12390288 -0.6399776 -0.38507247 -0.6463285 0.23956105 -0.10129936 0.20565046 -0.1471108 -0.24814174 -0.055283535 0.24871357 0.44167247 0.35179898 0.18075833 0.17713699 0.12809508 0.033866655 0.3084464 -0.34713438 0.28807944 0.53269213 -0.2159637 -0.10016479 -0.031255305 0.13719863 0.012614726 -0.002006832 0.0565215 0.057891164 0.37454796 -0.03802337 -0.29570422 0.08703345 0.039846156 0.25308105 0.36391285 0.31946087 -0.028671205 -0.3467343 0.09727765 0.22734807 -0.33039802 0.36306062 0.22203474 0.33563122 0.054122955 0.12847292 -0.0023499571 0.25576168 0.038037725 -0.36597496 0.25520054 0.13587172
3329 -0.49036497 0.08777306 -0.075861156 -0.2151807 -0.14813189 0.5151172 -0.051744696 0.15102477 -0.21868396 0.25851953 -0.2027486 0.79978615 0.17163323 -0.022880035 0.20537092 0.14377421 -0.34097055 -0.25339225 -0.17155495 -0.085147694 0.118939236 -0.19377771 0.18384273 0.39103392 -0.3543218 -0.49832526 0.44674757 -0.17803624 -0.15380453 -0.20793797 0.057725385 0.2724445 -0.35620433 -0.043208912 0.02156664 0.25161347 -0.019688379 -0.10268195 -0.40993074 0.11799802 0.07234524 -0.17783438 -0.05632769 -0.090201475 -0.17163183 0.118308015 0.21749781 -0.16036803 -0.065289505 -0.34882593 -0.42834353 -0.4227499 0.043349005 0.283205 0.40473384 0.24417867 -0.03617424 -0.044567037 0.23778889 -0.017576128 0.38547644 -0.05895322 -0.16961071 0.30414498
2353 0.21904264 0.22149125 -0.24641179 0.07541608 -0.038033992 0.118779376 0.30170953 -0.0061842347 -0.15690573 0.037969276 0.3106352 -0.120749205 -0.25980148 0.33218217 -0.73586005 0.17743692 -0.25759238 -0.088235326 -0.45651588 0.07216752 0.043462794 0.1246145 -0.010612644 -0.23585811 0.29576048 -0.30632028 0.5061999 -0.4024571 0.015543405 -0.33209017 -0.26642495 0.35598364 0.119998306 -0.2852131 0.056887288 0.12075698 -0.5582833 -0.044084154 -0.33418718 0.1727017 0.2121421 -0.06788398 -0.14780092 0.28090924 -0.21301793 -0.29351753 0.45006052 0.085342765 0.52784616 0.1936588 0.27691558 -0.31574395 -0.5455267 0.084091656 0.241369 0.06375799 -0.14053711 0.026941722 0.41492474 0.4629471 0.10537962 0.3076684 -0.31385645 0.11190909
836 -0.26856446 0.05647811 0.2781448 0.072471574 -0.4848226 0.020177865 0.13990867 -0.010687829 -0.2307536 -0.19711813 -0.20785251 -0.013382994 0.15240753 0.06354684 0.1538136 0.10784656 -0.2601028 0.17302552 -0.050993968 0.090385735 0.13888562 -0.4892446 0.2463919 0.13042967 -0.19118 0.28339452 0.16139871 0.26355964 -0.25822365 -0.5656538 -0.055178523 0.3766561 -0.12585717 -0.5859136 -0.24184053 0.40905187 0.32656476 -0.17667115 0.12767018 -0.06590356 -0.024240294 -0.06544892 -0.92321837 -0.14971194 0.036833692 0.013317028 -0.23674934 0.21064684 -0.04812817 -0.17812161 -0.019848252 0.01740015 -0.14503966 0.46715537 -0.06308958 0.16183402 0.18672916 0.15372303 0.1694591 -0.18386517 0.34846786 -0.1866734 0.18446147 -0.03464212
2547 -0.65887797 0.3353474 0.17195302 0.004857951 -0.27912024 0.2736931 0.38837743 0.28468236 -0.05402806 -0.21554306 0.057209402 0.3141003 0.22414051 0.25877935 -0.19335222 0.28470987 -0.22712342 0.04884337 -0.19852936 -0.43777964 -0.07811498 0.21522921 -0.25693905 0.23927166 -0.13992417 -0.08020658 0.2246351 -0.22124568 -0.20247571 0.08817275 -0.17497109 0.041944124 0.39127272 -0.36694458 -0.00809686 0.06683729 -0.006886216 -0.3753103 -0.68713325 0.0170751 -0.38050988 -0.07581146 0.18960829 -0.5233162 0.5699609 0.31519297 0.55533236 0.20660724 0.37123 0.022147786 0.34697485 -0.118165284 -0.4492246 0.15943867 0.022028953 -0.1517864 -0.24473113 -0.1237724 0.47218892 -0.36073878 -0.22486515 -0.42982796 -0.25476378 -0.17620781
23411 0.2553674 0.4416416 0.07861365 -0.24695103 -0.5351976 0.6511763 -0.11268114 0.5339991 -0.32938033 0.26117742 -0.17435461 0.27777487 -0.36968726 0.13072678 -0.21613967 0.14155878 -0.31491062 0.12416884 0.091820545 -0.1545101 -0.14251322 -0.21352917 0.346234 0.30929694 -0.18069685 -0.5911884 0.18599595 -0.22713858 0.04078083 -0.4420724 0.1274389 0.20139475 -0.4020756 -0.2537065 -0.14152128 -0.29961637 -0.21898487 -0.57153064 -0.20665239 -0.011342619 -0.12671998 -0.23301731 0.19292521 0.19850482 -0.06958948 0.23363954 -0.13173704 -0.09653943 0.3550696 -0.024520522 0.26911026 0.11204959 -0.36988354 0.5166645 0.25196597 -0.06838276 0.000907767 -0.14816746 -0.23168102 0.042558264 0.3300838 -0.14606439 -0.06275435 -0.06311872
3837 -0.38085437 0.37618032 -0.25408414 -0.098818235 -0.1825313 -0.5107893 -0.1239627 -0.07686666 -0.57189804 0.25266317 0.14372502 0.41421354 -0.09466444 -0.15161172 -0.070672855 0.4841647 0.13868986 0.11533947 -0.18232271 0.1915105 -0.0029829582 0.08311245 0.49947724 -0.035904273 0.13722402 0.15777929 0.246958 -0.22107004 0.14087786 0.12378354 0.061793916 0.23893729 -0.5557389 -0.23161168 -0.02447724 0.19171792 0.18279232 0.1182887 -0.29084927 -0.07004292 -0.5489378 0.026783625 -0.05348087 -0.29010695 0.27344003 0.1827843 0.4254493 -0.21078478 -0.0030789338 -0.13887794 0.20594975 -0.082022846 0.2279522 0.30289194 0.5960203 0.08444982 -0.272494 -0.29472464 -0.060232174 0.06735419 -0.035698604 0.11333021 -0.16823794 0.6034148
5601 0.29164794 0.18214583 0.12509167 0.33542505 -0.2251884 0.2851132 -0.20688628 -0.027433358 -0.3254294 0.22170368 -0.015889587 -0.09269945 0.013497062 0.34172282 -0.05587958 -0.1098791 -0.5907693 0.15577903 -0.4411617 0.30320048 0.06213427 -0.06373639 -0.12841871 -0.008798451 0.009661783 0.15826073 0.07624663 -0.17991297 0.17227215 -0.23139615 -0.40942147 0.24192648 -0.097097926 -0.14648461 0.26901162 0.29246238 0.0065807467 -0.21078244 -0.032145623 -0.010170679 0.07653097 -0.2728564 -0.644757 -0.014891611 0.39173055 -0.16477506 -0.042241316 0.12660438 0.44961643 -0.094853714 0.49731034 0.065122865 -0.46404558 0.06673473 0.15650344 -0.10189006 0.24632443 0.5892714 0.044501156 0.1617215 -0.1252284 0.521295 -0.19527945 -0.0849475
10013 0.011393843 0.14233086 -0.25152972 -0.018406076 0.019132186 0.23001352 0.085390635 0.04131247 -0.4974335 -0.2695292 0.013035632 0.546291 0.07347921 0.14133987 -0.41860285 0.5290922 0.3431483 0.09019877 -0.1169332 0.17187573 0.14417921 -0.35485983 0.20879944 0.3189868 0.5238209 -0.013121215 0.47909045 0.3539097 -0.35718852 -0.13674557 0.08425734 -0.29933968 0.030447846 -0.16921136 0.08945598 0.17093185 0.35258418 -0.20314185 0.061900817 -0.5334011 0.3677043 0.3365113 0.2581515 0.29917365 0.5334496 0.47288805 -0.055705678 0.13390775 0.11819975 -0.07102521 0.37326935 -0.16422825 -0.08965186 0.110391706 -0.12809119 0.122743614 0.67086786 0.50289357 0.19895354 -0.08588911 0.18708819 -0.16357708 0.26270315 -0.053723756
5515 0.12286078 0.798514 0.27148795 -0.13651672 0.5381987 -0.3155595 -0.0951076 0.24794848 -0.56093234 0.0918193 -0.22512822 0.3695624 -0.19968137 0.10940593 -0.18279558 -0.0938675 0.18193269 0.2162242 -0.42357162 0.14006416 -0.09074699 -0.030308478 0.025829788 0.09846163 -0.029302875 -0.080820784 -0.0075925896 0.23739469 -0.098115385 -0.05093542 -0.09177701 -0.18591727 0.15994672 -0.41571146 0.13488898 0.023721058 0.3848334 -0.48894733 -0.30887905 0.045005344 -0.041454673 0.018044751 0.041613095 -0.18965124 0.4701873 0.06238041 0.04717732 -0.26910987 -0.18582876 -0.3501758 -0.0022368839 0.21860242 0.00032758477 0.018319769 0.33148897 0.12007424 -0.24434407 -0.27757728 -0.20574275 -0.20910905 0.4862508 -0.05893172 0.21942295 -0.1078519
23291 -0.41222683 -0.08940453 -0.13889809 -0.2865185 -0.5569324 -0.5337576 -0.14299819 0.2491265 0.17800228 0.3298064 0.35517645 -0.20302409 -0.28516507 0.0075205103 -0.007714221 -0.30051377 -0.60871744 0.4268904 -0.07851156 -0.04563486 0.123149075 0.27867725 0.05953062 -0.261898 0.53008866 -0.2965086 0.36498502 0.23221353 0.06696432 0.116366625 -0.1900711 -0.08398173 -0.16641821 -0.4654143 0.057878267 0.18635808 0.34235618 -0.5468865 -0.40003356 -0.2560618 0.2505336 -0.18214405 -0.42311293 0.07775381 0.11941431 0.28677332 0.17383981 -0.19484666 -0.09604574 -0.07104219 0.028780334 0.26192906 -0.2478748 0.25959536 -0.060231816 0.07390728 0.24556732 0.40369436 0.094871424 -0.22741546 -0.067064926 -0.21235496 0.6077614 0.17164347
472 -0.16010433 -0.07009537 -0.13665202 0.13041805 -0.71371764 0.19857465 0.09206177 0.59541595 -0.136513 0.08639881 -0.113161296 0.055906802 -0.14377424 0.033537537 -0.58983505 0.23751687 -0.20564014 0.09490068 0.2695164 0.04338707 0.45130807 -0.07449967 0.49389556 -0.03651997 0.5464317 0.54576343 -0.0072712637 0.5019052 0.08125826 -0.0695551 0.5282986 -0.24748044 -0.042222913 -0.55018014 0.2839928 0.03624136 -0.26038146 -0.3254527 -0.31360874 -0.050654076 -0.0056284876 0.15865858 -0.022344515 -0.12037244 0.52730393 0.12817822 0.1859021 -0.2452303 -0.4227115 -0.0061829686 0.27244627 -0.39262316 -0.6055033 0.41568777 0.43707845 -0.20754315 -0.1222994 -0.26035836 -0.07248158 -0.12941462 -0.21081825 -0.15212566 -0.13425161 -0.3328017
2064 -0.42556703 0.064979695 0.26906687 0.14037812 -0.04912472 -0.05947219 -0.107000746 -0.053782683 -0.5175793 0.17953782 0.21790163 -0.10416925 0.3570958 0.2007972 -0.24947853 -0.034762602 -0.19431962 0.42201754 -0.4670297 0.32826695 0.04449667 0.13226436 0.04857698 0.2497626 0.075929865 0.14393418 0.59312624 -0.29245332 0.1223723 -0.13887203 0.2139845 -0.45934597 -0.43125403 0.3655064 0.2391004 0.12308219 -0.058747265 -0.2556881 0.015923133 -0.29996568 -0.11967902 -0.048862174 0.22274373 0.004518939 0.2776545 0.05387406 -0.09031825 -0.5816826 0.48413265 0.14902632 0.065471 -0.03596599 -0.32994536 -0.6995437 0.063835666 -0.4174026 0.06357257 -0.094475724 0.40936518 -0.0078002526 0.21093164 -0.031477258 -0.040438883 0.46891415
5728 -0.1919779 0.25138894 0.16037177 0.12427927 -0.33104423 0.26563305 -0.0468002 0.52630514 -0.65175384 -0.2212472 -0.11242183 -0.36217153 0.4891351 -0.7785955 0.08544171 -0.15364742 -0.24226773 -0.23699963 -0.061989103 0.46958554 -0.14795378 -0.00013342057 0.20573133 -0.11549866 -0.57531744 -0.13333683 0.3320617 -0.040852264 -0.43394357 -0.05946043 0.57929873 0.013216042 -0.4047585 -0.50398475 0.03657099 0.5636135 0.27483812 -0.34883353 -0.023413837 0.28025883 -0.05388423 0.108822815 0.32214615 0.124232315 -0.0037006382 -0.040199116 0.21262816 -0.18059407 -0.10345278 -0.014845812 -0.27009946 0.27485847 -0.51251477 -0.040552296 0.24318668 0.27717984 0.113355115 -0.13609602 -0.24980184 0.08090034 0.36516163 0.09847155 0.03011285 0.15634322
9146 -0.15909857 0.04384447 -0.11273243 -0.10347058 0.05546344 -0.10218033 -0.024337035 -0.110792585 -0.5388994 0.38975942 0.12182989 -0.07148656 0.3250565 0.27933013 -0.056531202 -0.020882238 -0.18290864 -0.12070334 -0.13953733 0.100129254 0.30938423 0.462197 -0.0069520245 0.71238214 0.662905 0.21062385 0.07977814 -0.61500645 -0.016103491 -0.015650727 -0.059957188 -0.48766804 -0.34300548 -0.4398726 0.24470851 0.3210707 -0.2326443 0.3923025 0.11377135 0.51000667 0.12861472 -0.14854765 0.016567642 0.023749275 0.14488733 0.26259175 -0.25769183 -0.28772974 0.34200332 -0.28614226 0.20692155 0.23669562 -0.21287279 0.14130336 -0.42317227 0.26644522 -0.62245333 0.01236014 -0.60123366 -0.04974217 -0.071781546 0.5653831 0.23368448 0.09825268
10399 -0.2650029 0.29161608 -0.2565653 -0.121392705 -0.43292063 0.24304712 0.26452872 -0.13308376 -0.35523504 0.1316215 0.14165957 0.7248412 0.31234193 -0.36064336 -0.101024136 -0.052409463 0.18916667 -0.19120252 -0.29454732 -0.36970586 -0.30234957 -0.09548782 0.06299274 0.16912806 -0.106276475 -0.15335499 0.33695093 -0.2543664 0.018755786 -0.3158642 0.4966631 0.021847183 -0.4366576 -0.2769956 0.33246306 0.031306576 0.14932147 0.13699478 -0.24127029 0.13968377 0.30298123 0.024537185 -0.37741533 -0.37522787 0.023660682 0.1905744 0.3493183 0.0010034736 0.1323816 0.09136712 -0.19300863 -0.10574102 -0.118372984 0.005804275 0.23409106 -0.34169063 -0.18545516 -0.18817787 -0.07079504 0.05399779 0.20674999 0.13354756 -0.06920113 0.23360784
2908 0.46665952 0.16440904 0.14535767 0.06676559 0.026662441 0.42331037 0.32250264 0.0014205758 -0.25112835 -0.2199073 -0.06794012 0.17145266 -0.12376265 0.15191267 -0.21265082 0.28842393 0.19774605 0.37616837 -0.23231477 0.2741102 0.11573523 0.16303556 0.42956918 0.17272232 0.09737109 -0.17365666 0.40856874 0.24708466 0.022937736 -0.11306182 0.0384508 0.30510068 -0.4706142 -0.42621592 0.50854325 -0.019207183 0.05882492 0.30506906 -0.29541093 0.12530194 0.081180334 -0.18927063 -0.22156201 -0.05578746 -0.23526882 0.16129287 0.5618563 0.38037354 0.33477762 -0.18840219 0.09293664 -0.053075533 0.020416223 -0.19011422 0.19603996 0.1781871 0.2188697 0.28093356 0.21123344 0.12274118 -0.030113986 -0.049320593 0.3173238 -0.04724456
8841 0.15441811 -0.11284131 -0.17501265 -0.52923036 -0.04862979 -0.05387875 0.21047264 0.23997845 -0.033459872 0.10774782 -0.22322212 0.2791018 -0.5862083 0.13896625 -0.2479036 0.12209811 0.093359455 0.26373833 0.14381416 0.57846576 0.006809636 0.25735548 -0.16239066 0.22993603 -0.044166815 -0.09804362 -0.17332593 -0.06551391 0.32805455 -0.47170442 0.42421055 -0.23839884 -0.22157732 -0.06341473 0.07148255 0.41230142 -0.21287893 -0.16597492 -0.1259001 -0.0881869 0.40553468 -0.18995528 -0.22120309 0.005657202 -0.32300326 0.34628767 0.18852744 0.04228101 0.52493787 -0.38135022 0.10856548 -0.04482631 -0.4752786 0.12598796 0.1616826 0.078319535 0.25426474 0.29600292 -0.10532451 -0.0008194298 0.2901343 -0.36885878 0.0070175324 -0.57651
324 -0.08832049 0.077583216 0.0013205274 0.05309091 -0.04406567 0.021456119 -0.26261434 0.39246628 -0.28686902 0.21303184 0.47124186 0.20590413 -0.2612858 -0.31185615 -0.30972043 -0.5268219 -0.43769857 0.7726022 0.097685605 0.26303512 0.31089774 0.3471578 0.32317927 -0.26192737 -0.006024713 -0.036795367 0.23895614 -0.40396327 -0.2689451 0.02498871 -0.4510381 0.07488913 0.08546842 -0.26484287 -0.23586029 0.22224611 0.2774016 -0.017998222 -0.36099768 -0.5885353 0.09817551 0.30877796 -0.25909328 0.010337137 0.2636511 0.21444893 -0.3413344 -0.38825956 0.21513146 -0.1993231 0.2267656 0.37603527 -0.16680376 -0.23160397 -0.16132319 0.3526649 0.032113083 0.12990472 -0.40369624 -0.08940747 0.054108687 -0.2189429 0.33885 0.051801667
4792 -0.21629295 -0.027029779 -0.33131614 -0.14158913 -0.20271131 -0.31066453 -0.22915213 0.19798087 0.06306001 0.34689543 -0.14211635 -0.023147225 -0.23461957 0.1359384 0.10239036 0.028526561 -0.080717236 0.17410067 0.08289055 0.3014727 0.27735257 0.38086906 -0.072081 0.26453567 0.2638377 -0.151327 0.5546669 -0.056998067 -0.06739105 0.14933215 0.0032784573 0.07751595 0.14411569 -0.15551327 -0.21899396 0.18881488 0.38865668 -0.22957385 -0.0896176 0.083833165 0.14457396 -0.069166094 -0.21580401 -0.74278325 0.0044464194 0.5614815 0.4480067 -0.04671011 0.22797734 -0.08832236 -0.088449545 0.22955155 -0.3557484 -0.07760881 -0.0075543006 -0.1247885 0.012279124 0.31665197 0.35406187 -0.38048095 0.4886761 0.25540486 -0.118133806 -0.13526072
10155 0.22615199 0.0918523 0.099496916 -0.13190554 -0.12753475 0.40095705 0.27801782 0.13826299 -0.5791089 0.20987517 -0.24764155 0.41613442 -0.23182526 0.0819461 -0.17669179 -0.044293612 0.40815225 0.2904887 0.2083448 0.02806737 0.14574926 0.314635 0.2182806 -0.21329412 0.23034085 0.1445443 0.12888047 0.30072483 -0.21761198 0.13141493 0.6626188 0.10590556 0.08329899 -0.08224927 -0.11853032 0.2724373 0.0743926 -0.15165937 -0.0974303 -0.035000537 0.62891114 -0.08816694 -0.084601395 -0.02670477 0.13496606 0.15191351 0.19663894 -0.28229755 0.25919914 -0.60806483 -0.042698633 0.28565258 -0.1682993 0.30318663 0.6103027 0.36037657 -0.43764323 0.42861447 0.124135114 -0.14473838 -0.18676807 0.1054737 0.12094652 0.0723661
4163 -0.29863295 0.51548165 -0.44416946 0.16759424 -0.9675693 -0.082770556 0.37567306 0.04793182 -0.12619819 0.2679703 0.0812027 0.42915413 -0.55131143 -0.1523479 -0.24921918 -0.1779798 -0.41012275 0.067636006 0.07981779 0.04365058 0.08046684 -0.2650983 0.11067109 0.12944287 0.32986382 0.07837715 0.10281962 0.45353264 -0.3413256 0.054402377 -0.027642721 0.17476133 -0.10311574 -0.2745338 -0.11089005 0.02087013 -0.23271108 0.14743935 -0.19095321 0.19930533 0.23101929 0.15681766 0.13450861 0.60633874 -0.84104615 -0.024807742 -0.0018777451 -0.26558104 0.17619684 -0.04363583 -0.08978407 0.044686504 -0.19348523 -0.48933336 0.4620423 0.05301482 -0.029459985 0.14309008 -0.34309638 -0.16340952 0.48252705 0.0065755113 -0.06423863 0.030213526
5501 -0.29020682 0.107437834 -0.1423812 0.23773313 0.06760358 -0.030350799 -0.019296214 0.6281685 -0.33289444 -0.04263975 0.18211913 0.39899042 -0.1881818 -0.2748881 -0.108821854 -0.29086655 0.093792714 -0.14870188 -0.41429916 -0.20974833 0.051375452 0.36822924 0.4931964 -0.010378612 0.19048798 0.3773258 0.49095297 0.37935808 0.048392877 0.2486249 0.16987173 -0.03941631 0.31489545 -0.097503915 0.2969733 0.12249293 -0.27659288 -0.34189868 0.39128897 -0.116248 0.3318747 0.033153173 -0.24575499 -0.031502135 -0.31876114 -0.28634268 0.17277549 -0.20428745 0.10545343 -0.4719805 0.26262158 -0.051831465 -0.65093094 0.25701442 0.06583699 0.10045845 0.2119117 0.106768325 -0.12923199 -0.17421131 0.08288257 -0.15142456 0.13059467 -0.4147141
3717 0.14782637 0.20877162 0.11816785 -0.06922342 0.3530015 -0.1204606 0.3902423 0.0139140375 -0.4749322 0.017718209 -0.266206 0.081523694 0.090298094 0.14205922 -0.05340872 -0.10283791 0.054026607 0.3839442 -0.38407132 0.13769604 -0.00015461192 0.15886453 0.1332937 0.4245149 0.11687504 0.14941859 0.39118895 0.39878073 0.03906111 0.20510584 0.3371484 -0.31784213 -0.145914 -0.17530677 0.18289803 -0.04260928 0.19584434 -0.21871357 0.3955806 -0.4195944 0.33658555 0.18661852 -0.15093328 -0.5428149 0.14140624 0.023496473 0.12587011 -0.56711787 0.37165904 0.20820329 -0.19141223 0.05138267 -0.36612526 0.2605794 0.51455384 -0.20008253 -0.27658778 0.06305049 0.4068773 -0.15146546 0.45556304 -0.037047397 0.08281596 -0.0799262
6733 -0.1382885 0.3541017 -0.09592374 -0.18020889 -0.29452962 -0.26230052 0.19443956 0.36888734 0.2633148 -0.42026588 -0.36528903 -0.36222067 -0.1553762 0.12571703 0.067485794 0.30357188 0.10223608 0.78988 -0.4296411 -0.51061016 0.07845115 0.2567187 0.37563464 0.1485493 -0.050866865 0.15006545 0.20084944 -0.31115282 -0.5236063 0.09345905 0.26046872 -0.23949149 -0.14813423 0.3953178 -0.41837025 0.17572805 0.24003154 0.35025522 -0.5118572 -0.06310162 -0.01769247 -0.05805782 -0.27680105 0.022807065 0.24799387 0.21376303 0.20284301 -0.24557087 0.6220557 -0.30023637 0.03694704 -0.6109861 -0.43534935 -0.2588212 0.1880694 0.1953271 0.6225006 -0.07996397 -0.6072955 0.24487548 0.17316937 0.29004276 -0.3377527 0.30845588
6188 0.018474702 0.2646558 -0.103761695 -0.130935 -0.34763625 0.020364724 -0.32734594 0.4806244 -0.23452951 0.23800386 -0.17713264 0.60865426 -0.103427336 -0.29511032 0.20399846 0.06304592 -0.3547238 -0.18951747 -0.11039927 0.22737989 -0.33265337 -0.13151696 -0.35421026 0.47461042 -0.1624697 -0.40376735 0.48191226 -0.39200276 -0.11894542 -0.0037353649 0.36712524 0.26961228 -0.21669191 -0.3340931 -0.1472058 -0.061258066 0.008883086 0.16178831 -0.25400186 -0.09956756 -0.132162 0.26313516 0.0034387894 -0.012937802 -0.04357212 -0.042078193 0.34200272 -0.0022632696 0.18562646 -0.28108016 -0.039971896 -0.20179264 -0.30479422 0.36878678 0.070093386 -0.20579767 -0.057930786 -0.084299475 -0.07682242 -0.27205047 0.20850414 0.5022588 -0.1340474 -0.033186484
3654 -0.038478207 -0.17989436 -0.060573366 -0.46641976 -0.37878647 0.03829105 0.09967859 0.2548578 -0.56140393 0.10363127 -0.3617737 0.037319772 -0.63694555 -0.17995113 0.17605293 0.061623234 -0.49839085 0.061980292 -0.34864613 -0.30320892 0.32029685 0.09998559 -0.41514534 -0.065434374 -0.15459386 0.17156354 0.27617717 -0.008632275 -0.070286356 -0.18876652 -0.1650147 -0.23745364 0.3509543 0.2608096 -0.042228688 0.50563 0.44962996 -0.11787769 -0.27908167 -0.1687926 0.45997944 -0.19477087 -0.10941575 -0.23289432 0.1727635 0.36907396 -0.09395309 -0.016514458 -0.16413811 -0.20823465 0.08143279 -0.37364957 -0.22310388 0.21266742 0.20355597 0.0366573 -0.17036782 -0.042273678 0.3790155 -0.33075812 0.25276554 0.55079764 0.75181234 0.25404143
4851 0.4013266 0.18260603 0.27476558 -0.070970826 -0.1972099 -0.38081464 0.022883046 -0.22709484 -0.09178453 0.048830755 0.2249044 -0.4676 0.18443622 0.24746941 -0.5675904 0.101474844 -0.040747453 -0.3183914 0.07892696 0.13734218 0.067465216 -0.22665127 0.48987997 0.3732741 0.030035004 -0.05260061 0.34963778 0.061102588 0.15834972 -0.4398814 0.34675258 -0.075466596 0.19672592 -0.3786878 0.032851372 0.7191633 0.1533743 -0.08080487 -0.19680074 0.08556072 -0.39349124 -0.09272186 0.20513956 -0.032012578 0.3988184 0.5717504 0.48770854 -0.40992415 0.13263552 -0.777901 0.32770517 0.029841667 -0.22272895 0.3082927 0.33975998 -0.050589506 0.033299703 -0.07882875 -0.47524142 -0.5183526 0.25243172 -0.17054066 -0.09916002 -0.15725383
3091 -0.040968698 0.037519615 -0.13526602 0.14543301 -0.08480666 -0.15788798 0.13719879 0.34266144 -0.36765057 0.12617713 -0.24802682 0.026711782 -0.18588471 -0.31255174 -0.5242982 0.0809746 -0.00090642 0.23636538 0.15127352 0.015547014 0.2222225 0.015536197 0.12938929 0.35038623 -0.14489749 -0.2137433 0.3249713 -0.035475045 0.08248293 -0.44886062 0.41903725 0.17366898 0.28742433 -0.3614373 0.16070963 0.3050467 0.14919327 -0.039221637 -0.13069183 -0.24765217 0.48206663 -0.47450715 0.059428338 0.05821065 -0.05573895 0.35700622 0.09451966 -0.21327952 0.20705989 -0.053630747 0.13185646 0.13312362 -0.007232407 0.34867808 0.7538737 -0.35016146 0.18098721 0.07588251 -0.036324065 0.37059855 0.10148493 -0.32726496 -0.3127972 -0.09387326
5781 0.004772248 0.06714166 0.28726372 0.08921066 0.011837337 0.0050156605 0.550699 -0.5303322 -0.31621382 -0.20025904 -0.33583665 0.11730957 0.27559555 0.10467957 -0.18516071 -0.2045974 -0.18183903 0.34878814 -0.55658317 0.1293916 0.35735047 -0.019605318 -0.16406953 0.4105412 -0.67042804 0.06910195 0.23093301 0.034494493 0.02147176 0.10827685 0.2668664 -0.31717685 -0.33810526 -0.27396578 -0.023879005 -0.09788755 0.028416298 -0.36106578 0.1532178 -0.23277935 0.1521206 0.35098502 -0.4349135 -0.34072572 0.11462892 0.37776774 0.10740079 -0.636138 0.26075888 0.23924248 -0.14498873 -0.031588156 -0.4632085 -0.40482557 0.2231785 -0.47028077 -0.3053448 0.115197204 0.27720815 0.3462941 0.39145795 0.086296424 0.21572824 -0.04143593
9611 0.18854804 0.15849128 0.019283736 -0.40557203 -0.0036719525 0.35523304 0.16755055 0.368752 -0.057380315 0.25363454 -0.11325156 0.33093247 -0.3833557 -0.13512245 -0.43378597 0.14733164 0.22982101 0.2558258 0.106199995 -0.09702959 -0.008360325 0.48162502 0.26007405 0.43063945 -0.14674795 0.053374086 -0.1259052 0.018056246 0.14490326 -0.5160829 -0.07510619 -0.07228891 -0.032109458 -0.33753067 0.07664313 0.23609032 -0.6207459 -0.36415002 0.06378747 0.05330247 0.39028168 -0.4598305 -0.23546003 0.00091878977 0.016662244 0.39566734 0.2623345 0.12651135 0.33944905 -0.5919977 0.06411251 0.28685996 -0.50739765 -0.0869871 0.120705254 0.16659209 0.1960459 0.32221046 0.27547285 -0.25128052 -0.20196095 -0.040769566 0.4054437 -0.22753751
51474 -0.54827356 0.3816179 0.18174675 -0.12032306 -0.032496557 -0.06853318 -0.2575891 0.23508874 -0.5432892 -0.03479024 0.027695507 0.022596573 0.004548167 -0.016564598 -0.13548216 0.16929488 0.5783198 0.20068322 0.28752062 -0.13243815 0.13490574 0.3438497 0.0735636 -0.0032490646 -0.14912716 0.02600798 0.4484392 0.0036481887 -0.4698812 0.13059795 -0.33056393 -0.30229387 -0.17908467 -0.31008914 0.045826297 -0.24946207 -0.13009487 -0.30573496 -0.27962252 0.2381781 0.083734885 0.27708304 -0.26903385 -0.53438544 -0.34384024 -0.19376558 -0.6036612 -0.26433897 -0.018272351 -0.14131108 -0.12450536 0.009392474 -0.50983274 -0.14370854 0.27223137 0.19950348 0.26386818 0.11713593 -0.16948268 -0.4524514 0.25623953 0.15060423 -0.20871389 -0.045212798
5966 -0.008613067 0.31395015 0.1820163 0.084446736 -0.22082472 -0.23313768 0.49171436 -0.048796695 0.31798735 0.19669074 0.5166396 -0.14290403 -0.7347236 -0.11120862 -0.4255579 -0.42603168 -0.47472185 -0.020125935 0.032074306 0.15998815 0.35871115 0.7610716 -0.20401293 0.23438329 -0.027325531 -0.2856035 -0.0040963814 0.12338061 -0.22087896 0.087362394 0.019174522 0.3224736 0.10601802 -0.4889955 0.5256762 0.58969957 0.33437097 0.056424927 -0.41588077 -0.12971698 -0.112376235 -0.121510096 -0.31878898 -0.32735288 -0.3162615 0.20889972 0.26249808 -0.11493462 0.21262398 -0.10661297 -0.18779226 -0.18951847 -0.33334282 0.3656228 0.13549815 -0.19119218 -0.0032216746 0.21394782 -0.13907485 -0.61253405 0.3040861 -0.18984824 -0.2514304 0.33120212
387 -0.367088 0.57156587 0.45158216 -0.18135582 0.027666964 -0.51122 -0.123966165 -0.038899682 -0.70493096 0.020191507 0.3232869 -0.006539492 0.5402161 0.22162865 0.005280346 -0.37945285 0.29254392 -0.07250626 0.1919129 -0.28097844 0.7591635 0.3557817 -0.09420946 0.29947412 0.073770806 -0.014424251 0.65013975 -0.16310206 -0.17705336 -0.5169905 -0.15060507 0.37570235 -0.19433248 0.021740312 -0.38231733 -0.23088779 0.1494646 0.094547585 -0.12505671 0.060881943 0.37601718 0.2052235 -0.44942415 0.0054498715 -0.054536976 0.12400042 0.41128632 0.32791746 0.08083512 0.07793857 -0.21577194 -0.13625252 -0.22783291 -0.18752393 0.18921712 -0.64127296 0.12853867 -0.23654763 0.05570838 -0.23864281 -0.11479073 0.28763676 -0.14638394 -0.29526055
83737 -0.118957445 0.1441625 -0.11026139 -0.17741413 0.0073383413 0.42851248 0.2577256 -0.23664619 -0.07873388 0.30556992 0.35632226 0.004471146 0.4220486 0.12773941 0.12918785 0.6838085 -0.23991895 -0.06913104 -0.404895 0.33280674 0.42735505 0.10527962 0.15779522 -0.144202 -0.047864083 0.2250094 0.5137094 -0.44925165 -0.5795353 -0.19765356 0.031326 -0.21136482 -0.22840874 -0.29910514 0.0037783664 0.2627536 0.69501996 0.23889424 0.44223034 0.25760263 -0.032478597 -0.3340452 -0.051093373 0.42281267 -0.42312574 0.2899619 0.20322436 -0.34024057 0.55906504 -0.010297207 0.33525428 0.032810237 -0.0957316 0.4487899 0.45557344 0.05915437 0.18229344 -0.23063682 -0.2891553 -0.5477318 -0.52922946 0.0465896 -0.05320985 -0.07302156
5518 -0.017845562 0.74811333 -0.2933625 -0.24562737 0.0017622968 -0.41515416 -0.07311358 -0.16879694 -0.2999319 0.088773735 -0.009330985 0.56347924 0.10303787 -0.5493617 0.24480419 0.12468108 -0.3091657 0.060472 0.04800056 0.08376103 0.037308294 -0.22070774 0.22586054 0.16316877 -0.31653172 -0.013408249 0.34911275 -0.14777438 0.27017066 0.29336694 -0.11249441 -0.050847016 0.053152025 -0.5184305 0.045136888 0.15944204 -0.05923448 0.04788669 -0.45919162 0.33650932 -0.027508097 0.23658481 -0.10486002 0.02085796 -0.22036643 -0.06128957 0.20044285 -0.25756937 -0.0244913 -0.619458 0.45552963 0.22378784 -0.013456275 0.067729585 0.2691722 -0.3213737 -0.24244063 -0.04138622 -0.0870731 -0.29067814 0.48492604 -0.29216796 -0.034979638 -0.062077742
5829 -0.2952059 0.15091887 0.37498632 0.11852833 0.0915233 0.17316344 -0.19685175 -0.10027956 -0.40343878 -0.5488484 0.13236883 0.24637638 0.44666928 0.21560873 -0.30320472 -0.0101078 0.13156743 0.28637353 -0.5873462 0.16004439 0.10265265 -0.3517889 -0.5099217 0.07786229 -0.19353622 0.20684414 0.027740842 -0.020571169 -0.3298694 -0.16092308 0.33963424 0.2309262 -0.32633278 -0.32494742 0.5063628 0.3379419 -0.20566069 -0.36530843 0.070398286 -0.16990256 0.21419929 0.081490256 -0.029077103 0.054515038 0.26753086 0.08956451 -0.0010558782 -0.35712597 0.090787135 0.11925671 0.085983306 0.078167416 -0.20002595 -0.25368324 -0.12646922 0.210936 0.12596452 0.055854976 0.34726557 -0.44165072 0.53119725 -0.17792082 0.18062077 0.28946018
302 -0.12479018 0.50700396 -0.08489937 0.10068819 -0.3465085 0.2727546 -0.1108797 0.091797516 -0.31876558 0.03140182 0.23579866 0.17888634 0.16282657 -0.4193747 -0.0003570747 -0.09071398 0.0634055 0.21994545 -0.18995304 0.24430652 -0.2364774 -0.04317567 0.113677874 0.21579796 -0.14529234 0.0624113 -0.09848055 0.09680923 -0.22325818 0.067601666 0.06192077 -0.30192634 -0.19840951 -0.6055474 -0.037325326 0.28425097 0.20083095 -0.05078642 -0.43383136 0.00065730955 0.12805213 0.16364512 -0.2715782 -0.21163194 -0.2933849 -0.07476843 0.2587734 -0.1923771 -0.05031694 -0.50607145 0.15057178 0.21798228 0.006915962 -0.27349207 0.18218203 0.1781194 -0.2882564 -0.40812877 0.048951045 0.2650644 0.27847022 0.24100322 -0.23737673 0.23445119
4067 0.12971205 0.20069648 0.20851433 0.2391769 -0.06842788 -0.011661607 0.0713743 0.08388211 -0.5803046 -0.14952007 -0.24428834 0.3489002 0.22893865 0.08360275 -0.10404166 0.21599826 0.107548274 0.19182013 -0.314188 0.6369625 0.35126418 0.112280294 0.43481913 -0.025262356 0.10842871 0.10423648 0.15549156 -0.28913134 -0.39165 -0.2817403 0.020137673 0.19061315 -0.2216129 0.0025253796 0.14396666 -0.08854714 0.28666872 -0.44619912 0.35996112 -0.3369723 0.18724574 -0.08385608 -0.39513806 -0.011620678 -0.70858747 -0.05525087 -0.246955 -0.4649686 0.09772965 -0.102683194 -0.47027394 -0.03373317 -0.335783 0.036397226 0.058913644 -0.13319612 -0.26135856 -0.40897918 0.4151597 -0.3597884 0.29306448 -0.18401459 -0.094461925 -0.06404114
3688 -0.29530606 -0.21787597 0.055540334 -0.105917215 -0.26929685 -0.5894681 -0.09559712 0.40016347 -0.26637733 -0.00031451794 -0.044501394 0.09615398 0.9988089 0.30624512 -0.370984 -0.64194727 0.4990028 0.05678143 -0.5786132 0.0012712007 0.047347836 -0.39581156 -0.4080115 0.4345786 -0.42247993 -0.22136652 0.3994205 -0.40637478 -0.2963837 0.035840694 0.68126994 0.23702453 -0.758249 0.07878866 0.3244457 0.069679774 -0.2225896 -0.22816111 -0.2072189 0.37128475 0.41749272 -0.24123219 -0.29631278 0.0048731267 -0.12610708 0.18065114 -0.27177593 -0.17551239 -0.4508511 -0.40539396 0.3888708 0.0014610806 -0.07530282 0.38577095 0.11688638 0.31304532 -0.18669233 -0.15249969 0.4881395 -0.2535283 0.16876228 -0.23970391 -0.21570168 0.29165515
1385 -0.2066096 0.22076821 0.27937293 -0.26100293 -0.2116159 0.3441161 -0.029134283 -0.2775041 -0.28338936 0.4166285 0.13255033 0.19258662 -0.13306953 -0.11221708 -0.47282243 -0.07458803 -0.23893315 -0.037633955 -0.12674603 0.6463096 -0.2113042 0.0898824 0.077593654 0.1731622 0.0431858 0.29838806 0.16790195 0.46593747 -0.038710523 -0.52306706 0.11831324 0.53657335 0.018478114 0.09211741 0.09510291 -0.10460592 -0.71874577 -0.033692326 -0.06686235 0.54069793 0.10578406 -0.45587257 -0.351131 0.11754065 0.5566922 0.52397317 0.19312482 0.17131497 0.011260995 0.013359733 0.0036729595 -0.23393767 -0.55279744 -0.041146114 0.23169403 0.45825747 0.17935894 -0.038021624 0.08910145 -0.32448155 0.10063461 0.0021213898 0.21092817 -0.26064178
5581 0.40937278 -0.27652055 0.0016506872 -0.092099294 0.030317364 -0.02953579 0.18467623 0.15932016 -0.74229807 0.2968106 0.33257607 0.30537817 0.26618293 0.03778722 -0.21004239 -0.41245243 -0.28772122 0.1674815 -0.58255965 0.14357647 -0.18325342 -0.22761749 0.1903755 0.5715839 -0.035534315 0.1664389 -0.06706768 0.32214406 -0.0220811 0.075151674 0.09951628 -0.00817421 -0.07236828 0.21645199 -0.16441156 0.050832734 0.20991817 -0.12837623 -0.5066278 0.42678213 0.21619788 -0.3103675 -0.633058 0.0058891317 0.02614967 -0.035519253 0.4037033 0.04389078 0.18374123 0.026579197 -0.11809985 -0.16254847 -0.20350106 -0.08306243 -0.0013797433 0.18211728 0.014968578 -0.29555026 0.40338102 -0.37868926 0.38414687 0.12490319 0.11895342 0.22815883
7046 -0.1783648 0.071926475 -0.27739918 -0.14377753 0.16480678 0.08139685 -0.052344836 -0.19605577 -0.30688432 -0.094368555 0.26812968 -0.40226743 0.018377682 -0.22396459 -0.49582022 -0.373568 -0.10718628 0.3598987 -0.18778437 -0.45644626 0.4526228 0.04067121 0.018143427 0.11554559 -0.28861442 0.096215494 0.44566292 -0.3789828 -0.033207566 -0.45242783 0.09364015 -0.27747473 -0.09684122 -0.3193036 -0.08786957 0.70654243 -0.21029022 -0.35644063 -0.44059825 0.28445655 -0.4753224 -0.06430579 0.039538573 0.3146032 -0.312408 0.2639101 0.18280329 -0.2554255 -0.47929955 -0.44011706 0.116354786 -0.23736073 -0.3329204 -0.005857075 0.2096385 -0.7695349 0.07791699 0.20732634 0.07227316 -0.41320822 -0.34044307 0.35869485 -0.076613255 -0.5057005
4000 -0.035462297 0.20771608 0.15207545 0.093680516 -0.20027448 -0.19759288 -0.00046543882 0.17406999 -0.32675043 0.41205975 0.22042961 0.5828692 -0.29891488 -0.07391642 -0.19117998 0.15111639 0.15413101 0.27683896 -0.7229857 -0.39041743 -0.4711704 0.40668312 -0.0031583773 -0.037076253 0.046539165 0.13466993 0.20022564 -0.01596723 -0.12472833 -0.02093503 -0.02542324 -0.12076226 0.4531388 0.05915776 -0.50811446 0.1340987 -0.057557173 -0.23552725 -0.74839264 -0.070732705 0.08390873 -0.25086915 -0.5581939 0.45852518 0.1363948 0.044942103 0.022520404 -0.17477001 0.7367568 -0.1932259 0.1817506 -0.14297947 0.0947912 -0.09005485 0.375008 0.083175026 -0.2932337 0.12567312 -0.008116108 -0.2105901 -0.29371497 -0.0074373987 -0.27287105 0.29124063
3064 -0.22289184 0.34726304 -0.09278725 -0.28375083 0.26806813 0.18442172 0.24357392 0.38095057 -0.0038544945 -0.18447202 0.19801483 -0.07584601 0.30056202 -0.11109735 0.003744821 0.4737286 -0.06270423 0.10399817 -0.40127593 0.08208914 0.34263074 0.42438462 -0.21427952 0.2914751 -0.007426759 -0.119751565 -0.02165586 0.3757696 0.100341976 -0.65009385 0.028244654 0.18634999 0.53681743 -0.57036227 -0.18724273 -0.066105805 0.3301742 -0.22592968 -0.11275502 0.0005271455 -0.2796286 -0.6775768 -0.38263932 0.76838434 0.13101271 0.10199293 -0.34595752 -0.10919272 0.016553517 -0.3350211 -0.03941816 0.2899072 -0.56357855 0.0068691 0.28579044 0.21920915 -0.3656321 0.1391101 0.38136688 -0.71652323 -0.07699629 0.041725446 0.0075945365 0.033525933
7013 -0.70332175 0.16824633 -0.16504855 -0.33881477 -0.50285405 -0.28493783 -0.23467067 0.6022244 -0.34211576 -0.40458474 0.007256554 0.07754903 -0.25156975 0.22713242 -0.16880184 0.1485682 0.05994456 0.33899537 0.13345525 -0.07266001 0.040461794 0.4212817 -0.032455895 -0.019952493 0.47796762 0.3176277 -0.17024168 0.22172289 -0.28691414 -0.13469738 -0.010651569 0.108856946 -0.41386667 -0.08319927 0.17758293 0.038718726 0.5585516 -0.5089676 -0.41606537 -0.033124037 -0.5004911 0.28645435 -0.45904216 0.40308386 0.34836373 -0.4700912 0.19552529 -0.19285692 0.07736702 -0.47296143 0.30261552 -0.25082687 -0.009952449 0.10784655 0.0088273585 0.21429051 -0.66990966 -0.17404868 0.08401596 0.0033918663 0.4049417 -0.38385335 -0.7210341 -0.07570652
3667 0.15347394 0.1661356 -0.07751785 0.27255264 0.051868234 -0.21355703 0.40451282 0.16027245 -0.79710084 -0.10217714 -0.29047206 0.0390651 0.16535164 0.09246792 0.09769705 0.030865993 -0.6487536 0.19390814 -0.19628416 0.2179511 0.18890482 -0.067281246 0.22753982 0.83210015 -0.3804029 0.12303759 0.07458936 0.10315948 -0.06607971 0.001134147 -0.1072527 -0.005787054 -0.39248818 0.010413046 0.13958403 -0.026307145 0.053124238 -0.40709066 0.20803627 -0.11374215 -0.16991338 -0.41853425 -0.3391383 -0.07158158 0.37752247 0.30607262 0.099380545 -0.3497119 0.52285606 0.19316903 -0.27705947 0.2382529 -0.07592251 0.062014416 0.06325053 -0.29775837 0.023685783 0.22900823 0.110001914 -0.21311752 -0.050198957 0.35107142 -0.3007141 0.0022444746
11331 -0.13790137 0.5238181 -0.216244 -0.51444703 -0.49176994 0.020800043 0.045058105 0.26474833 0.05157985 -0.02243643 0.14614548 0.44271085 -0.18711808 -0.3385993 0.15105058 0.15388209 -0.061453417 -0.16541848 0.04419191 0.0953608 -0.2526596 -0.14895825 -0.06692661 0.5625242 -0.36138695 -0.09109509 0.13356048 -0.019481484 -0.034377772 -0.11871533 0.17870553 -0.12579837 -0.3677768 0.04928406 -0.43949258 0.2859123 -0.26116556 0.17275102 -0.40470874 -0.35667482 0.35038477 -0.31672654 0.23086122 0.15717323 0.075539686 -0.27344516 0.065626696 -0.00092038664 0.3158469 -0.60959876 0.030431451 0.5296795 -0.608321 0.118075445 0.18182169 0.10227946 -0.044543024 0.27663112 0.32595137 -0.6749529 -0.036073554 0.20795898 -0.081427515 -0.3506534
6850 0.0688575 -0.0059163026 0.0980375 0.026678156 -0.34015626 -0.36652866 0.06842358 0.34421906 -0.36907643 -0.26740074 -0.35952944 0.3757637 0.14874126 0.04574957 -0.3552823 0.4797259 -0.2320974 0.35806918 -0.41496268 0.60909647 -0.06479813 0.16181761 -0.045022994 0.29217306 0.026707765 0.30959573 0.16272552 0.019752868 -0.07225005 -0.7178749 -0.036817808 -0.20930603 -0.19517325 0.26258785 0.23965067 0.14370744 0.11901507 -0.5837995 0.2038796 -0.21503183 -0.014800538 0.1611561 0.006105332 -0.12676805 -0.017287137 0.14714196 0.07084301 -0.1193696 0.0595747 0.36663175 0.14201704 -0.44212756 0.026240086 -0.54850644 -0.22773696 0.1027463 -0.26748013 0.07466448 0.105491534 -0.524053 0.5067087 -0.028023059 0.15697698 -0.3539219
3838 -0.21674627 0.6788794 -0.23171926 -0.108268745 -0.531789 -0.4176349 0.00031522659 -0.102109864 -0.0033254304 0.3177035 0.08463274 0.32436264 -0.7067926 0.211529 -0.5764594 0.0048131146 -0.15014991 0.37073502 0.19492964 0.0029681476 -0.022267908 0.4276218 0.10314408 0.06732923 0.33311054 -0.017054107 0.24732791 0.27396885 0.0048443247 -0.043244313 -0.093194924 0.47666624 -0.14570597 -0.21867463 0.20553474 0.2217737 0.22942549 0.3571002 -0.044521015 -0.18468219 -0.3176145 0.23991984 -0.35912418 0.41455805 -0.21174899 0.16909862 0.20952806 -0.34076953 -0.05441117 -0.015167225 0.33810177 -0.0007570898 -0.17992383 0.11198425 0.026557669 0.16314064 -0.3605373 -0.52914876 -0.12835725 0.12809436 0.2709603 -0.15975702 0.21366227 0.45955437
4690 0.15778229 0.36530095 0.19729108 0.07166375 -0.11023971 -0.21618053 -0.13502875 -0.052721642 -0.23000899 -0.9921479 -0.2765485 0.17991298 0.35417643 0.2817192 -0.042326316 0.0999199 -0.25592005 0.17385243 -0.66870487 0.40850073 -0.0010819512 0.5306752 0.18171494 0.52248573 0.32734612 0.13758978 0.36781526 -0.07550661 0.058195066 0.106308505 0.22454555 0.36789188 -0.38497388 -0.122324884 -0.074601896 0.35205033 -0.3730703 -0.19684547 -0.07295704 -0.5554388 0.1218085 0.22093019 -0.18169786 -0.049163327 -0.31372395 0.10676003 -0.31617802 -0.5896479 -0.28715327 0.3082049 -0.046799395 -0.25527084 -0.35080862 -0.33981755 0.012110234 -0.04413869 -0.1959813 0.0619837 -0.07714012 -0.36021623 0.105294764 -0.23620225 0.2206444 -0.24979632
3728 -0.7018446 0.6502913 -0.24992429 -0.1377065 0.044317886 -0.1327659 0.74933976 -0.13874905 -0.38852587 0.03545701 0.22449008 -0.06495077 -0.04396561 -0.27680135 0.041698076 -0.29903665 -0.1286834 0.24453612 0.10103751 0.01733735 0.25535664 -0.1971219 0.071255684 -0.18497823 -0.27225783 -0.029285507 0.48312318 -0.1278674 -0.0054616453 0.26523307 0.3505693 -0.27614024 -0.40413526 -0.23865797 -0.022614576 -0.15513228 -0.24336971 -0.12643722 -0.2543851 -0.37930155 -0.14913617 0.5556969 -0.112406254 -0.0151192015 0.35277373 0.30698484 -0.69420207 0.053845894 0.33739737 -0.018299092 0.14336567 0.36403486 -0.53620917 -0.34670603 -0.07467731 0.1210478 0.06681935 0.19679455 0.4100788 -0.6802215 -0.07277366 0.07789157 0.013292882 0.18896988
208 -0.054383066 -0.0018367884 0.015280821 -0.3105174 -0.056775384 -0.19698714 0.26211143 -0.48362726 -0.13896453 -0.18358238 -0.26442477 -0.14720489 -0.36299655 0.25586584 0.07019761 -0.032932512 -0.33892322 -0.10232258 -0.27739012 0.38779545 0.49732882 -0.034155056 -0.03598282 0.55949336 -0.31381497 -0.079881795 0.19979773 0.5379325 -0.2829225 -0.48134103 0.16797036 0.061790783 0.00013985703 -0.123786785 -0.22875613 0.10247577 0.2901841 -0.41064498 -0.535425 0.48668727 -0.46474662 -0.23307103 -0.33395 0.17697263 0.21634297 -0.25391367 0.18307704 -0.17169376 0.20446424 0.28243974 -0.18249282 0.084300265 -0.65844804 0.48246577 0.25169775 0.18394023 0.087393194 -0.41611284 -0.24257633 -0.16709045 0.21186619 0.0047089686 0.43326148 -0.21676
5500 -0.2653636 0.05050963 0.21138617 0.14707273 0.09278224 -0.3085909 0.070266336 0.4839114 -0.1939795 -0.13619201 0.23738775 0.10800348 -0.20131944 -0.06234298 -0.587822 -0.27003375 0.5427256 0.014763276 0.30857626 0.019420661 -0.07479648 0.62308043 0.08894033 -0.10293527 -0.33340344 0.12343501 0.56232697 -0.069182925 -0.32662687 0.026322762 -0.047811124 -0.15566228 0.057878084 -0.44239745 0.47841445 -0.0050423406 -0.13032465 -0.40874898 0.10494631 0.23093073 0.557719 0.10143352 -0.55335283 -0.069552116 -0.03897757 -0.47746828 0.072089516 -0.45740482 0.4519286 -0.74455065 -0.031142758 -0.042148203 -0.413137 0.22644939 0.07943881 0.26829517 0.020068184 -0.24611579 -0.20646982 -0.28883523 0.07497546 0.008819422 -0.1449833 -0.093386024
498 -0.15653166 0.17734058 -0.20571163 0.080687575 -0.71182185 0.25307468 -0.009975742 -0.010775161 -0.62369806 0.04943447 -0.16350028 0.29680642 -0.1888036 -0.40148345 0.21188381 -0.1494892 0.047178704 -0.4288296 -0.21061145 0.25846982 -0.1615205 0.0010879028 -0.34018934 0.17830196 -0.31953815 -0.11637778 0.4878671 -0.06282909 -0.22362404 0.19910356 -0.13161367 -0.36963266 -0.41345397 -0.5315612 0.033000223 0.038383175 0.20354359 -0.019680789 -0.45123267 -0.09589668 -0.18900806 -0.17254135 0.040168673 -0.30235186 0.10179956 0.14612599 0.6231602 -0.093007386 -0.12965186 -0.22913629 -0.087615356 -0.15364827 -0.05523743 0.25790602 -0.008895926 0.18298036 0.069108866 -0.030392403 -0.267973 0.15384825 0.09318073 0.32805905 -0.30491972 0.29543272
1020 0.08571459 0.050678924 0.07191997 0.1657197 -0.038712945 -0.38271853 -0.07605697 0.36279774 -0.271051 -0.36457017 0.056465905 0.088909365 -0.1431903 0.2074435 0.22584416 -0.26356488 0.31980833 0.21532303 -0.6352918 0.034070645 0.23053376 -0.33116537 0.026675548 -0.25356075 0.16299517 0.029401807 0.23943947 0.251246 0.06417892 -0.4478315 0.18510015 -0.23278877 -0.087919645 -0.5777831 0.2859955 0.021041404 -0.29759967 0.07446807 0.2621285 0.0019159866 0.41114765 -0.10139615 -0.102406405 -0.10412248 0.44358504 0.30484402 -0.0682528 0.004988619 0.38947144 -0.066139795 0.059843883 -0.17329329 -0.47973293 0.12390481 0.19342636 0.43111554 -0.17657723 0.15962538 0.2904333 -0.40444183 0.030433597 -0.21130076 -0.17205147 -0.00012675714
805 0.077387325 -0.26625988 0.26115465 -0.08794907 -0.2358046 -0.43705338 -0.18493477 0.36777726 -0.19381505 0.49462175 0.05205688 -0.021504315 -0.19905102 -0.024237027 0.19328262 0.26793128 -0.18789741 0.2859788 0.07356305 0.318464 0.59549326 0.1792617 -0.20527203 0.27920935 -0.41388944 0.061017253 0.40998477 0.36043215 0.14283742 0.33335036 -0.1857229 0.34722188 -0.20559765 -0.5879161 0.20545395 0.31928912 0.4859039 0.1321941 -0.4459202 0.1648218 -0.26503918 0.2683316 0.046169836 -0.37745216 -0.29476345 0.33147007 0.23223712 0.2814079 0.23683336 0.19905737 0.026205892 0.13138917 -0.47366673 -0.42057478 0.016244112 0.21824567 -0.013538726 0.7106198 -0.27730492 -0.09858029 0.1501657 0.3986285 -0.15906426 0.24377792
5058 0.073756665 -0.05778724 0.046385113 -0.14967716 0.09115887 -0.24422897 -0.31401435 -0.2259223 -0.74180853 -0.26115143 0.036805168 -0.15065217 -0.06698484 -0.014840458 0.42551836 -0.0509203 0.03336736 0.1272422 -0.49602404 0.107863195 0.43564057 0.004917367 0.021659171 0.53107065 0.60150963 0.174932 0.2882806 -0.4317178 -0.44386595 -0.2209592 0.28555915 -0.08863134 -0.19830322 -0.06351279 0.12468388 0.14304556 -0.42940396 0.059171192 0.022160446 -0.20028964 0.029147202 0.23065218 -0.29872248 -0.074167155 -0.14480746 0.31516346 0.2221191 -0.09110311 -0.09942218 -0.053466436 -0.20120631 0.17613588 -0.3830884 0.2456447 -0.121040985 0.011414864 -0.45377424 -0.10393775 -8.914892e-05 -0.16178411 -0.11281433 -0.070195824 -0.25578552 -0.48813376
5604 0.059619233 -0.12500632 0.05790951 0.2886513 -0.10377543 -0.19643961 -0.09373678 -8.18283e-05 -0.17872393 0.0799626 -0.3621376 0.18894018 0.039674792 0.07939972 0.4868249 0.13744143 -0.3801139 0.16454227 -0.6797486 0.36679453 0.1475868 0.29732332 -0.34528175 -0.12291598 -0.21582182 0.25048053 0.31928396 -0.27023548 0.14537247 -0.40720236 0.33605936 -0.10297314 0.15966685 -0.3929692 -0.31730738 0.055988465 -0.006970385 -0.13037723 -0.2907075 -0.3160796 -0.07611697 0.054055452 -0.8903824 -0.08951594 -0.06350224 0.16785061 0.029444464 -0.0283643 0.052586246 0.47583374 0.6429297 0.110244066 -0.55863184 0.10778609 0.43953502 -0.008944782 0.0357499 0.09194304 0.2716368 0.35684755 0.175053 0.21989624 0.02499483 -0.22380446
8202 0.17258088 0.32410032 -0.039129652 -0.29801616 0.2958791 0.42602426 0.16853629 0.43048498 -0.10630917 0.08551889 -0.18046911 -0.12838766 -0.3203116 0.08554195 -0.65856284 -0.13456409 -0.27671453 -0.25177333 -0.33504784 0.07310968 -0.18676035 0.54572284 0.07674369 -0.027780183 -0.2812134 -0.113684945 0.18124953 0.078394085 -0.28817984 -0.27289504 -0.089727856 0.24606963 -0.19142476 -0.6239123 0.4240257 0.021555912 0.11513378 0.047831092 -0.07117086 -0.1636362 0.24060419 0.15617156 -0.18230575 0.0009316044 -0.29962042 0.30464497 0.5596294 0.24495566 -0.041977152 -0.39535514 0.20945737 0.2514071 -0.5017117 -0.094407484 0.08909419 0.40898523 0.047099315 -0.11967955 0.2372679 0.306233 -0.28906798 -0.03555203 0.59749734 0.0206335
